6.281005100986288836e-01 -7.901548508392128856e-01 -1.142536443915342509e-01 -6.186519560087559988e-01 3.207427126979945364e-01 -4.560219919827427359e-01 3.531268526044613054e-01 5.917956023703165869e-01 8.055639126319035226e-01 7.069133183821294519e-01
1.488605700929503950e-01 1.206522562927794806e-01 -3.852822921642760079e-01 4.050819239569732888e-01 3.947064074742339668e-01 -1.067145606205251174e-01 -2.524412322783437523e-01 -4.291496082730660855e-01 5.158077177719452289e-01 -2.689580136039139147e-01
2.778151600542294597e-01 4.412642224578611216e-01 -2.006797615200206844e-02 6.552791445646453106e-01 -5.666002770808412636e-01 -2.938024946590045428e-01 5.537788562587316887e-01 2.539731998556489789e-01 6.821965929504680837e-01 -2.665000890403897982e-01
1.844797392201930064e-01 -1.367922960702816493e-01 -1.648851631361648168e-02 -2.531162400861854817e-02 -1.125280808861647830e-01 -6.699562098414926781e-02 1.310810148371226724e-01 -1.058348230109268512e-01 9.444572925232402882e-02 -5.908162766027056506e-02
-7.732481115994626480e-03 -1.566631329405889254e-03 8.988928930661793659e-02 -6.054570973909849906e-03 6.819133587748640868e-02 2.664613271991876642e-02 8.124559020842414547e-03 5.162118262518306661e-02 1.440121824277669146e-02 4.496711674450369622e-02
-4.455945641321998885e-01 -7.466938408011565276e-01 -4.072433056843539206e-02 -7.939515291366729954e-01 7.014799127439821369e-01 -6.939331501724687046e-01 5.530533328723483688e-01 7.124053546013036087e-01 6.743023952506019825e-01 2.296946991602817623e-01
-4.749899525765551890e-03 1.675169917543770648e-01 1.040039021703813155e-01 1.687587560251153224e-02 -1.404334868665312736e-02 5.796281699169715529e-03 3.395722954920510350e-02 1.739142054410238586e-02 8.314236649891008912e-02 7.687459324100575156e-03
-5.348065859851224291e-01 6.800683444201368610e-01 8.299238361642036210e-02 6.851872997616560435e-01 2.255213522852391461e-01 -3.245036675127364600e-01 -3.837646427509557312e-01 3.200879788730779385e-01 -6.045719373950999564e-01 5.596083418658400754e-01
-6.937103534957195228e-02 5.905471374487946123e-01 5.496532808682805804e-01 -5.616418872627363390e-01 -2.803988113138110583e-01 3.666519441849571126e-01 -4.120939632620062576e-01 7.198578331462417434e-01 5.175047270320946025e-01 -1.893332712530099438e-01
7.591125776108222610e-03 -4.356215978130927253e-04 -1.141798730091333515e-02 3.591490823068001909e-02 1.196198615644370883e-01 7.048073673098685654e-02 1.332105856792989429e-02 4.071625072476591639e-02 4.038746370548081110e-02 6.154335399924987585e-03
4.214807951136628002e-04 1.246765123399652259e-01 4.188173213968036240e-02 -2.911221625092414583e-02 1.823287581160125403e-01 3.268291806444879877e-02 -2.136100385827270631e-02 1.187328325219849309e-02 2.566962609036208334e-02 3.832345166516024082e-02
3.422647180832877334e-01 -3.188769917365815720e-01 5.955235130156829593e-01 1.864058200608665616e-01 -3.493784424658238907e-02 -2.090144097114324251e-01 5.402649401874363155e-01 5.067656924679111441e-01 -4.532631152003273600e-01 4.087002300884204908e-01
-4.213270237426430809e-01 -4.422641882084620002e-02 4.404476587390826481e-01 5.789257492618730128e-01 4.677948269137140458e-01 -4.542213280368141426e-01 2.075118558230248378e-01 -1.357992602820855543e-01 3.156911063493879066e-01 -1.272665734648226743e-01
4.146732356758635607e-01 2.026115949846417630e-01 -4.651068238588092485e-01 6.348484964749017134e-01 1.741576535111702961e-01 5.275452353385984977e-02 7.445718020597767994e-01 -1.599230056599494632e-01 4.120429847638745757e-01 2.897444300570140574e-01
3.111162950828082474e-01 -5.498504418933227722e-01 3.647742198685061110e-01 -2.360060497477927122e-01 2.926744245874710604e-01 -1.800861995061038556e-01 -4.542493227209182249e-01 -1.672405202343476560e-01 -2.017502315036890925e-01 -6.815372317164801741e-01
-4.314109428126327792e-03 1.421854975225364005e-02 5.821896203010698545e-02 2.069524252872992354e-02 2.422996081502021282e-02 4.922336933175706919e-02 2.657784432300936209e-03 4.222964590702434941e-03 2.395941207169927437e-02 5.074764891270635431e-02
-3.725985810710251145e-01 9.290775603308475128e-02 -5.152089026372229652e-01 -4.384740390431628998e-01 -1.528870406687625125e-02 1.827522849808214944e-01 -4.669023109055645687e-02 3.492007889108811880e-01 8.883929026301824738e-02 2.419728305576449023e-01
8.297674728298980451e-01 -5.337672719412990263e-01 -7.693720597484782209e-01 4.700892763721831180e-01 5.960076098630150421e-01 3.149311554624845133e-01 1.115673325664430643e-01 6.657051868283272444e-01 8.042207106502146097e-01 -4.411909261349383771e-01
1.312101396299109610e-03 4.143330384970315972e-02 -5.874550191934038157e-01 -4.763311737491348619e-01 -5.774624991531949192e-01 2.848070498788388694e-01 -3.635180591015456097e-01 6.728150611455417929e-01 6.687885642043821244e-02 1.283359036715723232e-02
-2.775632333744341984e-02 2.148871420347783501e-01 -1.243398572636731925e-01 6.003864020816895852e-02 1.873006239163355069e-01 -8.231666088329288311e-02 -1.728783347901025336e-01 1.109594592455169920e-01 1.253562726288691420e-01 6.350703829778808762e-02
-8.081010664662295270e-03 -5.482367545233039763e-02 -2.281900982329171657e-01 3.517550943856473933e-01 -3.936558393208499651e-01 -2.684028104288489758e-02 1.661104828561255908e-01 2.147154337623292386e-01 -2.925661181923586152e-01 1.599333726541218581e-01
2.696876270587281743e-01 -8.991465697123321443e-02 -1.943512331228708645e-01 3.942597280458667308e-01 2.568065815857921153e-01 1.601911576005307647e-01 2.008077972092534857e-01 -9.077336355572908355e-02 -1.222589126602384724e-01 -2.124293582170585504e-01
5.420312111881625539e-02 3.960489713970606895e-01 -1.724644741080254562e-01 1.628918954569906763e-01 2.415023475555040100e-01 1.234930396795652363e-01 9.688633269282376226e-02 -2.849591313193306635e-02 2.325333736274770302e-01 -6.685154580768495891e-02
5.222513205863344998e-01 1.115932188936321207e-01 8.166424928648698955e-01 -8.842732061903730845e-01 -3.957027640486438513e-01 8.720078978486235644e-02 7.579915853504379797e-01 -7.725807767101480206e-01 -2.090371606102818802e-01 -8.073420907729987883e-01
-6.267094739455367769e-01 1.823412807209716935e-01 1.324939502374309491e-02 -6.645675082218492624e-02 3.358470982390219239e-01 -1.310786451607198755e-01 -6.814851952219387332e-01 4.604699021763871136e-01 -6.511325087392755284e-01 -5.960836867733829703e-01
1.067284420812522963e-02 -1.434590538453696038e-02 -1.692430308535651864e-02 2.394072174141083642e-01 -4.780119254392506400e-01 4.060218432824392876e-01 -2.008450856477485558e-01 -2.468521672012850832e-02 2.124067015740851994e-01 -1.152682273384359884e-01
1.707610691201750797e-01 -6.254290356879846913e-01 -8.068365784645505911e-01 -8.185255221633963574e-02 -3.100888529016339046e-01 -7.992001964518198331e-01 -6.671257375465222683e-01 -7.252656537086428212e-01 8.635188181436060928e-01 -5.174201681178510759e-01
3.677388163123413434e-01 4.725299312387560291e-01 -4.058035721340800400e-02 -2.679973855380144987e-01 4.402783979770247824e-01 -2.728533972043007960e-01 5.120619473448253522e-01 3.508167239301576146e-01 1.541406339160142080e-01 1.383244536941381220e-01
-3.188165604915972340e-01 2.929646747321789646e-01 -3.618824972584618743e-02 3.166980175891994514e-02 -6.890498716280529790e-01 -2.332089274043973315e-01 3.331758611265670522e-01 -6.512457968730350766e-01 3.843255682130921058e-01 -9.544455137211883648e-05
-1.695506010332225033e-01 4.720503229592577510e-01 6.103414786772827227e-01 -7.466919833847486532e-02 -2.006476539158755512e-01 -5.376965695905489007e-01 -2.575666019380301597e-01 -4.005705365038798038e-01 5.152087997960024257e-01 3.528790754099583871e-01
-3.802534675145666787e-01 -5.358319905248749571e-01 8.693409414284039016e-01 6.504880439522692237e-01 5.089455858168243640e-01 -1.410581026983547259e-01 -6.744922905277765945e-01 -8.368106295708989395e-02 -5.759590439899867631e-01 -6.630707521252618974e-01
-6.691447893375208900e-02 -1.096803326521041400e-01 -6.900789016017291333e-01 3.332076730250687624e-01 -3.808041284082544498e-01 -5.745455953139366745e-01 7.952633788552297966e-01 -1.531608772692341636e-01 -1.317255128503620198e-01 3.564950976595455123e-01
-1.495019184893269237e-01 6.054721895199638437e-01 -4.883378560587338657e-01 -6.681397253383500878e-01 2.551650523698471562e-01 1.321628545474605176e-01 -4.446030991457624454e-02 2.612542303116605624e-01 3.158574040030526220e-01 2.459996863557525615e-01
3.088176837749651016e-01 6.332098269814440128e-01 -2.220458017725195354e-01 3.518831008227176760e-01 -6.070062881926470144e-01 -5.775164703026843815e-01 1.102822605114677779e-01 1.915430832301269759e-01 -1.172233924784328168e-01 -4.397611377275744138e-01
-3.443201749599050787e-02 3.203676889037222475e-01 3.503799037981661924e-01 3.130365154977998721e-01 5.172242355493261723e-01 -2.777437116452342036e-01 -3.695411242428303655e-01 -5.278051351492805965e-02 -5.640600974532564704e-01 -6.219694172503448248e-02
-3.549038401690476352e-01 5.870120993945477927e-01 2.764251929654897300e-01 4.278160512238082247e-01 3.972736528919594834e-01 -4.546653938256849381e-01 3.547136518003746186e-01 -2.547963979137125579e-01 7.145038364049707269e-01 -4.213139629479702442e-01
9.887082812122802156e-02 5.329086116192938843e-02 2.596985655084137201e-02 1.273419541305200083e-02 -9.167728957438487855e-03 -2.012543497615639637e-02 -2.262377869018277789e-03 2.371165834483791035e-01 -1.250600069399705402e-02 -1.596236970929523855e-03
1.037613836343952295e-01 -3.138029446907795311e-02 -1.016805356901944249e-02 -1.329608408814824394e-01 -1.524260735882888296e-01 -1.267133276620510153e-02 -3.797164635389251031e-02 5.729389890344305236e-02 -9.683884967005630673e-02 -2.291713036395576775e-01
3.822620552816945461e-01 -5.487903147133800230e-01 -2.849291799492940092e-01 -7.028537119864384231e-01 -6.905730662266067188e-02 -6.907439981873584323e-01 -2.042226535206335403e-01 -6.345062616634951080e-01 -2.117782512977833820e-02 3.155729358012439034e-01
3.752606330710169663e-02 -6.085914774172462155e-02 -9.487597272521706981e-03 6.676283483358404387e-03 1.911294600729111504e-01 -1.465354656262200794e-02 6.535687392805690499e-02 4.421212337816341625e-02 -5.905233357626971623e-03 4.978354583090445484e-02
1.159484045000583885e-01 2.441406407116656352e-01 -2.842398897052672915e-02 1.318322915283285657e-01 -3.910674588048369121e-02 1.441381945484307148e-01 -2.521909606217760391e-01 1.686104042927647484e-01 -7.084333785849004743e-03 7.113035045679798329e-02
-3.777396166262144694e-01 -4.047480190385896459e-02 5.790283450153659306e-01 -5.144085231245420359e-02 -2.524338150332764985e-01 7.091832096564532062e-01 -3.175488407180638295e-01 -5.151773283061803488e-01 -4.078101739578586238e-01 5.452358017320100281e-01
5.803686560431552399e-01 -7.527500600447444012e-02 -2.596631423398869098e-01 6.618538148643563490e-01 -2.619426775026830745e-01 2.617164498896449101e-02 -7.756034826558143580e-01 1.503440227827734232e-01 -5.354929600584019678e-01 7.418624704985958829e-01
2.332586160668848607e-01 1.577209817255745827e-01 1.423396954908293099e-02 1.091769125323750755e-01 -6.613388433067018957e-02 1.093464515511092666e-01 4.943846768445351453e-02 4.524968628188315301e-02 1.059150459714416626e-01 1.274895197648344136e-01
-5.198726275505192174e-01 -8.461743482841923569e-01 1.561240880927149410e-01 6.036471738415941646e-01 -2.753976476590490607e-01 5.896228724818501910e-01 -8.403216397577586427e-01 -6.979414943756045986e-02 -6.876885053497233669e-01 6.391870348331282203e-01
9.820636591713937172e-03 -9.518024627947980001e-04 1.287371838446450985e-02 -1.672345978080493761e-02 7.947835155902095716e-02 8.192375249924185865e-02 2.756715885187864491e-04 3.870085011859526747e-02 -3.569768474318756046e-02 -1.443080814378739675e-02
1.977307460359995495e-01 -2.349722514860704825e-01 -4.369894874400672702e-01 -2.994513749972321781e-01 4.347992481211125360e-01 3.662726359706984236e-01 -2.100094090933211088e-01 -5.256178992037258135e-01 -5.145455442604390806e-01 4.880844092740347362e-01
2.755340062693245606e-01 -5.032627873525720164e-01 -2.064498856679983924e-02 -3.349624752296602725e-01 9.807686798730762268e-02 -2.887840057333015409e-01 -3.784607388607783007e-01 -6.180551242637145198e-02 8.986492527231670219e-03 1.758461070123305825e-01
-1.037602559814806980e-01 -2.667776666646788364e-01 -7.389387933821431331e-02 6.320762844006838632e-02 1.960130113281432218e-01 2.000437724164154107e-01 2.179716137168999646e-01 1.800400754958162708e-01 1.119378558350898750e-01 9.766724787678950082e-02
-8.559810858108133358e-01 4.488710395103641670e-01 8.837073269300835254e-02 7.403762769082699036e-01 -2.688912705895604716e-01 -3.179595807854638245e-01 -1.515052734996860662e-01 7.619814684053769493e-01 -5.128059319838942920e-02 1.400922877641783415e-01
-2.409989997517950622e-01 8.390286459644996642e-02 5.650971701749489817e-01 -4.027683297126570805e-01 1.992164178815121756e-01 8.061629282599143131e-01 1.950642951540944858e-01 -7.680554256834398394e-03 3.365380046173384043e-01 -4.146346640869374989e-01
1.258261802121171148e-02 1.048594502835715064e-01 -1.605212943054688812e-02 -7.467300319110636853e-02 8.837609322005399171e-02 -1.420028813265097611e-01 1.143248794197882501e-01 7.010274587894976123e-03 -2.263728436225455505e-03 -8.606575176735288546e-02
5.396028929189696649e-02 2.869239244645761452e-02 2.104298117877364538e-01 -1.643127964436785077e-02 -1.953637356553637738e-02 -3.863283204372579965e-02 1.277728411793372515e-02 3.134464218076881553e-02 -9.504023740115284669e-02 1.571393090253436070e-02
-2.851405041488394576e-01 7.615673181585550511e-01 9.132070620085370738e-01 -6.192551116015868606e-01 -1.048516772418602583e-01 -2.430245058092718180e-01 -3.181125499998660455e-01 -2.269639418401206421e-01 6.783400038848468316e-01 -3.955573895623411551e-01
-3.370149527222156549e-01 -4.367411256991655666e-01 -4.451523899948013896e-01 2.738292059382257393e-01 -2.332582294076019080e-01 7.295238114506572558e-01 -2.078466271866152293e-01 -5.147797855848945670e-01 7.478207634585024022e-02 4.374898241613496830e-01
-5.075721407686356601e-01 4.419315217086401959e-01 5.393636188934247677e-01 -3.210483915138310773e-01 -1.553937294257678459e-01 3.177073157322520824e-01 -3.198857843240163756e-01 2.311249955516373467e-01 -5.810049297452074546e-01 -7.117177419245295233e-01
-2.340445922682988233e-01 -4.525246363753003265e-01 -6.236897654562232329e-01 -3.819246672086193395e-01 3.781463593243680199e-01 -5.358415977373532924e-01 4.709782780138296876e-02 -3.165597327911164327e-01 -3.662228708349315465e-01 1.457025952605812691e-01
1.105179851911641947e-01 -3.924980814551139868e-02 -2.258856744048189646e-01 1.546280178592799315e-01 3.481205526669147593e-02 -9.325411011082204715e-02 6.555809014960173320e-02 1.815276696758696615e-02 8.746080444715939595e-02 -2.030146929524247468e-01
-2.521445729408842706e-01 1.636897503799331077e-01 1.983303531561969868e-01 -1.455715127003343323e-01 -5.748198800086353755e-01 5.597660251397477138e-01 -1.202107714397175620e-01 4.357467272214712306e-01 -1.757532377542924684e-01 -5.461388481292021035e-01
6.763634161166284797e-02 2.738784107612949117e-02 1.409577402020153851e-02 5.175406239153839544e-02 1.116803606136839433e-01 -2.048844841372074108e-02 -2.333058578956285524e-03 3.124657291511668752e-02 5.478639963074767930e-03 1.091369809663815613e-03
-5.651750591003873447e-01 -2.821556902330030203e-01 -4.559515931895126162e-01 6.325231923329815986e-01 -4.842423687284982958e-01 6.899529506222128461e-01 -3.439389767313980051e-01 -4.538019369382827461e-01 4.820587395420997678e-01 5.617537587181836711e-01
-5.399113955105805385e-01 -7.971692774821328986e-02 3.621228316886828114e-01 -4.025682940111146094e-03 8.202561573791317118e-01 -2.675281765311454119e-01 -2.277250603224660885e-01 5.789975284789027343e-01 -2.556253811750043847e-01 4.227247053156690249e-01
-3.228278580485943738e-02 -2.190537573663457749e-02 3.017192293381490073e-02 6.209740764723276074e-02 1.847996068289350577e-02 8.164737653680105567e-02 1.876796257479851696e-02 -1.507552111674031678e-02 8.527964149724732252e-04 1.212937671120634386e-01
-8.394353005931416700e-02 2.286285730895591672e-01 -1.919924177182718433e-02 6.195120755538411489e-02 1.448441576613857251e-01 5.643777657376052720e-02 -1.139951133492945468e-01 -1.318160006184110333e-01 -3.746785412748801503e-02 -4.807994770038721832e-02
6.417930480416804938e-03 -6.854962020243331178e-02 1.626245686616187291e-02 -1.611117850008891295e-01 8.167940818850601137e-02 5.760632094401911540e-02 -8.128153055473734401e-02 -2.010995486051863068e-01 -2.643356589697497538e-01 -5.114009496865247195e-01
5.173904346441555724e-01 -9.910753133462374409e-02 -5.257876298292172290e-01 -5.589916881453178554e-01 1.221562369762312639e-01 8.615560730466914618e-02 -5.117348865503333899e-01 -6.820986318037887408e-02 -6.178604442571313804e-01 5.100606303690856658e-01
4.609869923850618001e-01 -6.361628464206816602e-01 3.782364408224035968e-01 5.747104130150675338e-01 6.291708126418051883e-01 -3.057045924969911121e-01 4.008788055640065684e-01 1.720140706702104061e-01 -1.277739893807769249e-02 4.826278391569654436e-01
4.184485182067427256e-01 -4.459606107923708707e-01 -3.746333521129903699e-01 1.649768513700162198e-01 -1.396959616465015264e-01 -4.132851381955148784e-01 5.017671097949958359e-01 4.216481708865204570e-01 -1.273075782678237677e-01 1.116633772186257506e-01
2.125820415414404752e-01 7.906207600467018981e-01 5.095673300195071587e-01 6.025118618485811872e-01 7.222737893186251812e-01 -8.031504300759133574e-01 1.674390876923820826e-01 7.928688551108132865e-01 3.089495359496274851e-01 -8.702827180595354983e-01
2.579538555702776126e-01 -1.127079459596591476e-01 4.980787492239092257e-02 1.302448036796047814e-01 -2.074579028904335043e-01 3.372414516825580355e-01 -2.978976352152383489e-02 2.502352290808418367e-01 1.342285796855179070e-01 3.491906643620402706e-01
4.325939493367859101e-01 -5.367560882672773870e-01 5.570476490561545591e-01 -3.546247048343163510e-01 -1.781259269146255875e-01 -1.618372120048500173e-01 5.573939794081244070e-01 -4.453359115516191125e-01 3.265964705376336874e-01 -2.317090331499885025e-01
6.766387347234890104e-01 -2.550036001543870556e-01 -7.074584532560286299e-01 8.932583712407800025e-01 8.626010642852723065e-02 9.341072077569158028e-01 6.929450204352914922e-01 -2.708447988666320971e-01 -9.290677505436950590e-02 7.890342439403916774e-01
-2.194798839653727685e-01 7.358622299780090935e-03 6.578489658726922873e-02 -5.201695341504002368e-01 -4.259825733600077768e-01 -2.384407395561926601e-01 2.150750236212978506e-01 -4.013868557240267143e-01 -2.949309887488669735e-01 1.426497990375748814e-01
-2.436993175799638176e-04 4.884916204892476854e-02 1.304602179996350655e-02 9.691019065130622445e-02 5.538558576932418355e-03 8.754299677246706046e-02 -8.845262826485203195e-04 5.889213427697778669e-02 9.556411557759054987e-03 1.178402136732955088e-02
-1.264874224283702442e-01 -6.033942423648810394e-01 2.758331115956186297e-01 3.308689053795481338e-02 4.916505359878992065e-01 -4.561861184999578822e-01 2.474897697769480875e-01 -3.985088792543354241e-01 7.145562307162428572e-01 4.416995874915867759e-01
-4.830329076810416788e-01 6.765877673167571826e-01 -1.035375394043598490e-01 -1.625461742928219211e-01 4.552224955215783408e-01 5.135381741679503342e-01 2.686815368514832159e-01 4.593294433593516080e-01 -4.623727764441455390e-01 -3.979516590673021215e-01
-6.299674947275178682e-02 -4.101210742112956220e-01 5.317826802879854764e-02 -5.885533188917337760e-02 1.484423354528077166e-01 1.841242554671391196e-01 1.125438794433484407e-01 4.058459036091546790e-01 -2.664527465509171633e-01 3.236892948094510780e-01
-6.774086798605100102e-01 3.952154602687478757e-01 4.481628712030876205e-01 7.199214380439752370e-01 1.306621114822169860e-01 5.890212759565870426e-01 -1.913523184005083699e-01 -8.453247227855667512e-02 7.054182270544337996e-01 9.197277200002330899e-02
-1.490399690119269815e-01 6.238563412428979049e-01 -5.614752714461862526e-01 1.914780749446548525e-01 3.062839441563817711e-01 4.266329042602486910e-01 3.999815873285767487e-01 1.154901891032030919e-01 -4.288007495294783589e-02 -1.581598307089132072e-01
9.282835993724420157e-03 -4.984100098678248721e-03 3.404913904659923746e-02 5.441086070596093394e-02 8.588501956102974344e-02 1.517563407910940167e-02 1.178628949763796223e-02 1.011345595614490667e-01 4.395847363522840251e-02 4.492725446261566086e-02
-4.907780638412432284e-01 5.995399666089755719e-01 -4.901265309597885311e-01 -5.623265305970378061e-03 5.723062274045829234e-01 -7.475812927889108339e-01 -7.993296717958358055e-01 2.622040717802897047e-01 -3.389568654749637311e-01 -7.029660158192957420e-01
-2.111505344801838102e-01 -1.526020037913417005e-01 8.016305591223150950e-02 1.384399392599124368e-01 1.402196261790540910e-01 -4.116418483296091502e-01 1.102172141173145825e-01 5.763875301370293691e-01 2.043874058963905671e-01 -8.211238365127059013e-02
-5.440125457793597574e-01 1.965448472241968780e-01 -8.090258031617678647e-01 -3.327272868174606102e-01 -6.751317135455737750e-01 7.883453928724744320e-02 -8.322689044782953793e-01 -5.071704682741328130e-01 8.005714128859128254e-01 6.867841158218188635e-01
4.431802113986903213e-02 2.415159376798535484e-02 7.534562695636212726e-02 -3.823155603249740742e-02 2.123520329056649558e-02 4.012436626956819574e-02 4.522979231929216692e-02 5.208998678107706892e-02 1.322864514949082708e-03 2.419661481594409524e-02
7.415969366967610499e-02 -2.018216611024317708e-01 2.923820850805619598e-01 4.331921756453148142e-01 -4.828806315890145084e-01 1.871991252939377293e-01 2.235011350845243217e-01 3.820405474202939050e-02 -4.934667205520807398e-01 -5.549521690931304985e-01
1.997875691984490332e-01 -1.056677796054595608e-01 2.009133420811381188e-01 -2.589140078045743323e-02 -1.880560265629257211e-01 -2.189548468596912156e-01 2.270444049500545958e-01 -2.262621954387844248e-01 -9.925890193729622335e-02 2.630048284345816167e-01
6.965857690880703501e-01 -4.799346055988760740e-01 4.768035375297891010e-01 8.245667797293645407e-01 6.134293615336430250e-01 -3.286319465656548089e-02 5.271073892665062433e-01 6.936986852319100283e-01 5.925122118543871830e-01 1.054212797716817251e-01
9.731182830603150868e-02 1.149365090160098524e-01 4.746750030476455384e-01 -1.431104365020449687e-01 1.857626509757216438e-01 -1.967284034152772254e-01 8.824507423359718994e-02 2.644816624748587697e-01 -3.719875649580937638e-01 -3.558778797329484322e-01
-3.568842010718121238e-01 1.337308389424420318e-01 3.852045927789490842e-01 -5.816046048362171206e-01 5.703595146528559479e-01 -1.206950624737875982e-01 7.210824737332222067e-01 -5.607877436529328241e-01 7.488304840835674492e-02 -4.131637525600845295e-02
1.533427008738706410e-01 -2.121806396041352460e-01 -4.055681613773816641e-01 1.234598318510668653e-02 5.056979653124157870e-02 3.719417103862942414e-02 3.711464319462782213e-01 3.736604688303484245e-01 -2.845526834880297146e-02 -4.759769891250955620e-01
3.043469934887003681e-01 -6.138372988437265088e-01 -4.675470409948230821e-01 3.029514512562150874e-02 1.540572269419701601e-01 2.915146680277131419e-01 -2.633550807141751826e-01 1.998354013808812946e-01 -2.631286976685945911e-01 -4.027018359050724139e-01
-3.645504039496893361e-02 3.805821793297211042e-01 3.161009472759861993e-01 1.803453092502636801e-01 -4.807409445315657254e-02 2.227086116213593259e-01 -3.214736836624016991e-01 1.827578874379977014e-01 -6.889335296269996720e-04 -4.133883948987745471e-01
2.500381345131181821e-01 -1.879695667056688058e-01 -1.561566846120057972e-01 4.514120430558721253e-01 3.864697164885894098e-01 4.698082760327190743e-01 6.904114113341084380e-01 -9.489665048992546037e-02 -2.884250072574654489e-01 3.427464023277508320e-01
-5.088218758651261719e-01 -2.082311594634685403e-01 -5.616099241893746097e-02 -7.035549111957100157e-03 2.663587052371461095e-01 -2.208478287054477518e-01 2.606225448847968116e-03 -1.820727890497780554e-01 -2.859463068204897152e-01 2.355123646234152379e-01
-1.161665752663067486e-01 -5.158425929755514755e-02 -1.818506651494156690e-01 1.615683240753288674e-01 1.431727536671638656e-01 1.901185955064643440e-01 -2.075482742953537255e-02 4.815235695351745976e-02 -6.385867600716505985e-04 -2.463926225819704566e-02
2.087987336078426515e-01 2.439519821614578587e-01 1.700206936609960917e-01 -2.126151027511854197e-01 -3.640869546849668237e-01 -2.435664820237629646e-01 2.403875968724278056e-01 -3.052830215143497727e-01 3.480545760727757343e-01 6.477517868604283635e-02
-1.975468850120746001e-05 5.353141654164704777e-01 -4.410905203947368958e-01 4.749474932869415800e-01 6.461654609026802332e-01 1.768730842653951640e-01 3.234138858040719322e-01 2.757323454200316104e-01 -4.688936348186112379e-01 -6.461544853275782430e-01
2.795059013128282088e-01 -3.681005460878206681e-01 -3.837679397186364305e-01 -2.306699201960427381e-01 4.670221340554538969e-01 -3.958411436417590828e-02 2.077259660448595516e-02 5.130018333945403075e-01 2.598946809517905243e-01 -2.421638489093777546e-01
-6.477727643088368459e-02 2.960435680238435174e-01 -2.507553877145959342e-01 1.818147824629168519e-01 -5.113243187569080916e-01 -1.680049930497183597e-01 3.094189690643936452e-01 -2.797902550316755943e-01 6.664549340062162486e-01 4.491952205809960352e-01
3.021973603723908386e-03 9.112409243243026202e-02 2.064584834493218557e-01 1.999618297775888898e-01 9.096887275767856496e-02 3.451647069251561617e-01 1.657184991899999515e-01 -1.096080717180029918e-01 8.405512318240258851e-02 2.455487285996537650e-01
