6.281801812099412352e-01 -7.914553648800790597e-01 -1.144977667260413251e-01 -6.186982317011439081e-01 3.211443730520855966e-01 -4.557176822882756939e-01 3.527240880341647178e-01 5.919311337450324784e-01 8.053598602917005911e-01 7.070451303514857511e-01
1.490106173077085927e-01 1.206111508413395123e-01 -3.858447814714041635e-01 4.046970913209187448e-01 3.949384926899047743e-01 -1.071255056969278308e-01 -2.523980262849103151e-01 -4.300869357773424162e-01 5.159109615492772916e-01 -2.688634888210726936e-01
2.779455382019007659e-01 4.413058290678335549e-01 -1.998473781923579273e-02 6.554279748932632099e-01 -5.667390930343761957e-01 -2.937749852404241691e-01 5.539881142128706415e-01 2.534488261138548859e-01 6.820907042136357123e-01 -2.662700381220470813e-01
1.785557731005800175e-01 -1.556474772759309511e-01 -2.820231801285018672e-02 -3.107763742909082708e-02 -1.297943870349636264e-01 -1.043719227248562920e-01 1.578287159985353183e-01 -1.291234271114794496e-01 1.151758094969972529e-01 -7.049600424429663947e-02
-5.030908782631847952e-03 -2.107886738421832148e-03 8.368746781905885002e-02 -4.197803617340553628e-03 7.980510158383001540e-02 2.659223045061786042e-02 1.209143707950869652e-02 5.741998828495766677e-02 1.455951703282377940e-02 3.763280608975866359e-02
-4.455966065655429520e-01 -7.467447772053278365e-01 -4.072125869598521714e-02 -7.939163098820936071e-01 7.015180214431651073e-01 -6.938940969573720308e-01 5.530621125353081258e-01 7.121946827012273218e-01 6.743217179033320630e-01 2.297063327561018886e-01
-5.279347791239594016e-03 1.699026436895818837e-01 7.973926414617844849e-02 1.210210902614134929e-02 -1.383450872305409807e-02 6.271853712964547620e-03 3.798663713781036400e-02 1.443391958491085404e-02 7.159311878402835339e-02 6.423457516790424295e-03
-5.348078643474145633e-01 6.800856024509913667e-01 8.261530954346850419e-02 6.852136819841576632e-01 2.255542001659378293e-01 -3.245045592588521322e-01 -3.837704596290906767e-01 3.201037018350624819e-01 -6.045795780747821313e-01 5.596222032936685187e-01
-6.986051239597862450e-02 5.906997186081190954e-01 5.495082950322389692e-01 -5.611778423091404733e-01 -2.796201081072974826e-01 3.684950810856801318e-01 -4.149024213597165556e-01 7.205267227526189755e-01 5.174082583126725643e-01 -1.896590289805021590e-01
8.595251403035930951e-03 -6.071818817874522975e-03 -1.001404821752973143e-02 3.062383531951928459e-02 1.046207944356548486e-01 5.488108082159341705e-02 1.499766066946989218e-02 4.390154443377806276e-02 3.040100909252172259e-02 1.187114180757595575e-02
-8.752087660118704898e-03 1.138838779767117060e-01 5.071055077072547657e-02 -4.850230989971233975e-02 2.023534054195929577e-01 2.648221473580158677e-02 -2.704026118316639471e-02 8.310050872968219662e-03 2.635433909505464217e-02 4.504128972033698275e-02
3.422650339332204417e-01 -3.188772860037702994e-01 5.954452055972604407e-01 1.864059920805420378e-01 -3.493787648804688728e-02 -2.090146025948462494e-01 5.402654387566315775e-01 5.067661601232124058e-01 -4.532635334821918938e-01 4.087006072466063400e-01
-4.214558075020609640e-01 -4.414307517821485644e-02 4.406709479859148293e-01 5.791796479329156533e-01 4.673850036863453905e-01 -4.555081337432091426e-01 2.075117330985766229e-01 -1.357078522928293896e-01 3.157273251589732821e-01 -1.273858058726926035e-01
4.146738858545480078e-01 2.023021658015622948e-01 -4.651553405908698258e-01 6.349969607879849542e-01 1.744133930262757315e-01 5.307901464243125478e-02 7.440933111160322744e-01 -1.598811498069697690e-01 4.120364240004061318e-01 2.891921577420903944e-01
3.106995163611971922e-01 -5.499412363763618306e-01 3.632904009567984871e-01 -2.360102738776304054e-01 2.919741851331807414e-01 -1.800781142138781210e-01 -4.542043084275269593e-01 -1.670777267264843546e-01 -2.014885148454202690e-01 -6.817470940385116362e-01
-3.177521208373244865e-03 1.758438156034085320e-02 6.249565059209429008e-02 1.565404647226709481e-02 2.269254057287149740e-02 4.629441857993950304e-02 4.632532995737696259e-03 5.229697842902264644e-03 1.776018958944602238e-02 4.130382235023175724e-02
-3.842981769596233166e-01 9.466973039431762771e-02 -5.233532705674871499e-01 -4.462971729930547693e-01 -1.465009395275778878e-02 1.866862934026945198e-01 -4.455325217176933639e-02 3.523336864417074277e-01 9.172748467551694596e-02 2.431071967118463850e-01
8.297674745383573081e-01 -5.337672730403050236e-01 -7.693720613325856217e-01 4.700892773400787705e-01 5.960037460912419593e-01 3.149311561109156554e-01 1.115673327961558964e-01 6.657051881989886066e-01 8.042207123060740592e-01 -4.411909270433334029e-01
1.326069606015263611e-03 4.152616130107212450e-02 -5.879572226874135721e-01 -4.763637372667499092e-01 -5.774925488920716887e-01 2.848733542327224755e-01 -3.635484214565871675e-01 6.720403580166698365e-01 6.693653847859050432e-02 1.282127883007624404e-02
-3.174314126961874649e-02 2.249857232413855490e-01 -1.282680395234180870e-01 6.067216310018696407e-02 1.866256434908310502e-01 -8.438064680249053595e-02 -1.838692629952445312e-01 1.212562670967536754e-01 1.325008135971542100e-01 5.757413235837607196e-02
-6.174810143417122990e-03 -5.429892018928855757e-02 -2.294851320971576236e-01 3.564038211929506095e-01 -3.987258626688037211e-01 -2.644970470668345230e-02 1.703208642255489291e-01 2.059978709081512760e-01 -2.969504162793896729e-01 1.656115810489178775e-01
2.716596589438073917e-01 -9.065356941456553796e-02 -2.071891212872654930e-01 3.968511835245584485e-01 2.604478346898244090e-01 1.619404226895307386e-01 2.036318158795657474e-01 -9.005297164268119547e-02 -1.232907303145058947e-01 -2.124569559175333022e-01
5.571648636721480974e-02 4.047505876182581619e-01 -1.863712743925999282e-01 1.663401809209009707e-01 2.466205292468118815e-01 1.261710629019387186e-01 9.890638174463377286e-02 -3.923522946028841496e-02 2.374440123247405776e-01 -6.826439974585987724e-02
5.222581294837864707e-01 1.115854519073719714e-01 8.166434847458556856e-01 -8.842754466955611292e-01 -3.956884298442081005e-01 8.720231468664747798e-02 7.579984522875427011e-01 -7.725775133180471377e-01 -2.091709683180398016e-01 -8.074522481475825408e-01
-6.267240213032114760e-01 1.823758704866288161e-01 1.312205613746890084e-02 -6.643906210300694337e-02 3.360388139993410461e-01 -1.322334578260709603e-01 -6.818694455329824544e-01 4.606485272694809674e-01 -6.512214039582804315e-01 -5.964030183171102895e-01
1.080305690971441156e-02 -2.358796340181244441e-02 -1.669939405779175337e-02 2.418371147850010006e-01 -4.810485965496883454e-01 4.104482170533433893e-01 -2.024184686990797288e-01 -2.453813449657129414e-02 2.146292361135649640e-01 -1.158038969787979211e-01
1.707785046163437237e-01 -6.254486385802839887e-01 -8.077386611735077881e-01 -8.181758937864817838e-02 -3.100832476235068080e-01 -7.991557437875906889e-01 -6.671746111107537125e-01 -7.253144840325791431e-01 8.636307253424514441e-01 -5.173659650201429816e-01
3.677930867512674840e-01 4.725884240919716039e-01 -4.058156771214552899e-02 -2.680382318386724805e-01 4.402851470814563850e-01 -2.739147905943367101e-01 5.121639178760292177e-01 3.508887572720617021e-01 1.541818956590402245e-01 1.383557157635625368e-01
-3.189124298726542794e-01 2.919129653449466510e-01 -3.603894118759005255e-02 3.175242622949112775e-02 -6.892564845666533380e-01 -2.347718632243485926e-01 3.325473886724923944e-01 -6.515102675150361566e-01 3.846186093101234826e-01 4.347867072091187482e-05
-1.705923111398206793e-01 4.730961597006919650e-01 6.111249336681708888e-01 -7.311016307783937962e-02 -2.061981627242731596e-01 -5.375446107573420562e-01 -2.578129769537005900e-01 -4.036899765746538304e-01 5.163423579319178502e-01 3.548533518623455119e-01
-3.801194505002370994e-01 -5.372361880657738897e-01 8.693254056007386765e-01 6.503396409970905179e-01 5.092335420745004448e-01 -1.410417259403693724e-01 -6.748651661767740562e-01 -8.362960474409873723e-02 -5.763954772624304557e-01 -6.630055138501527168e-01
-6.685024182614522636e-02 -1.097148938840938059e-01 -6.904139078190640877e-01 3.332047433651750268e-01 -3.807471359770105979e-01 -5.765488555051321296e-01 7.957853148734733706e-01 -1.529918899584605807e-01 -1.317735174933281628e-01 3.560177591008687470e-01
-1.494066238878860586e-01 6.058417524314367864e-01 -4.882130507339378922e-01 -6.685110069407133038e-01 2.555812110260989867e-01 1.323148730548599217e-01 -4.413745782179362420e-02 2.584772607968264801e-01 3.159105072167214812e-01 2.466926853324118429e-01
3.089409902949771247e-01 6.333979939905711731e-01 -2.221218185094543385e-01 3.521651651367889158e-01 -6.088589452569852511e-01 -5.777467429469116400e-01 1.097564244418225560e-01 1.918497849627872065e-01 -1.171137278278887583e-01 -4.399603288982833482e-01
-3.433490840638539487e-02 3.191246181238257540e-01 3.507346765354024676e-01 3.131027481234917031e-01 5.172985938929833827e-01 -2.779257957427042625e-01 -3.697641073007240653e-01 -5.286748668418427693e-02 -5.640274964504438104e-01 -6.202426044367885527e-02
-3.534310369757287518e-01 5.877073519450249917e-01 2.764973618819846490e-01 4.286516006849900862e-01 3.987664270275979583e-01 -4.532834703914569996e-01 3.552957916527091919e-01 -2.578913636030507606e-01 7.156064875900548516e-01 -4.216716794008817382e-01
1.037237642144526323e-01 5.081664792299125238e-02 3.352022789502331207e-02 1.132006137317382970e-02 -5.550556943866197766e-03 -1.614138668414219144e-02 2.195303069027480412e-04 1.926634936076662696e-01 -1.286109305547432705e-02 -3.381346665259350997e-03
1.205082192883660253e-01 -2.699897916714052992e-02 -1.098354046300797221e-02 -1.489755358198416313e-01 -1.846285826329193136e-01 -1.399655008827859447e-02 -4.862028693352505454e-02 7.612924934869212679e-02 -1.039984698269599828e-01 -2.535551587124436623e-01
3.824466405348883047e-01 -5.486572312221559278e-01 -2.849253412593552581e-01 -7.032172946737551555e-01 -6.884389813230949728e-02 -6.931556710979899227e-01 -2.040364160357696355e-01 -6.344156528398299244e-01 -2.091449170931954787e-02 3.143541538690047821e-01
3.175265549772608026e-02 -6.680137959196857933e-02 -7.384309666305093924e-03 2.451052311429314200e-03 1.794144980731422478e-01 -9.383497831440037670e-03 6.735412322072652225e-02 5.074970716715997143e-02 -1.098439914865907523e-02 5.764773440946287242e-02
1.121439898690444470e-01 2.449807407825198569e-01 -3.097388153316683532e-02 1.260321814808506025e-01 -4.056555945831565729e-02 1.522746760199488181e-01 -2.628669774987277274e-01 1.729043141239948178e-01 -4.927565207430577993e-03 7.160989772863661507e-02
-3.801736904452817090e-01 -4.015475617284884613e-02 5.793056955728894675e-01 -5.106469010780466389e-02 -2.527277748447659400e-01 7.101953871476802682e-01 -3.181509909911865996e-01 -5.158885102619084062e-01 -4.077843856027136837e-01 5.446947538645697806e-01
5.803723409300683977e-01 -7.549055578267378774e-02 -2.596647909976927959e-01 6.618580171182779637e-01 -2.619443406337539360e-01 2.617181115843473377e-02 -7.756084071311342143e-01 1.503449773496961517e-01 -5.354963600197543139e-01 7.418671807448858901e-01
2.411955534270307511e-01 1.621108372783052198e-01 1.290332075831498657e-02 1.119317845435520431e-01 -6.946512558359302369e-02 9.016006028438730557e-02 4.779369798583468776e-02 4.711795892867092633e-02 1.107592611462777377e-01 1.318210960644285168e-01
-5.198428496596165793e-01 -8.462425910039613752e-01 1.554608356315109186e-01 6.036274541599253585e-01 -2.753446338712930430e-01 5.896561214795117412e-01 -8.403376754000329019e-01 -6.971817286836842764e-02 -6.876850755532694093e-01 6.391912882326151735e-01
2.451798465356444176e-03 5.159088152928468542e-03 2.043947078370043566e-02 -1.976235022513316009e-02 5.405354688578538347e-02 5.455174324551245041e-02 -2.199922665867826838e-02 4.016622886060133152e-02 -4.531227134279348229e-02 -2.069224688388752662e-02
1.983971568241681138e-01 -2.349460648462499135e-01 -4.368877349328448290e-01 -2.994953521000185970e-01 4.348868457351870997e-01 3.654614056168937752e-01 -2.093125077802261980e-01 -5.284683779461579745e-01 -5.153079660951522811e-01 4.893097681195081594e-01
2.764057187787006264e-01 -5.048895821493319946e-01 -2.063765944405385189e-02 -3.360568356139168600e-01 9.789865684617914121e-02 -2.897863040421889691e-01 -3.847392037049095492e-01 -6.215747285212683965e-02 9.084870401066907214e-03 1.764916403964246761e-01
-1.066974752074738436e-01 -2.738447654040144230e-01 -7.507019420586787117e-02 6.546333223844368054e-02 1.861068483653638694e-01 2.054337667459024408e-01 2.242516732385097245e-01 1.853046151705870226e-01 1.157869017403776318e-01 8.842149371560560633e-02
-8.559899186545192329e-01 4.488764072754788947e-01 8.840742612343646667e-02 7.401583099125311760e-01 -2.688831353094524035e-01 -3.179347448068424176e-01 -1.515038433937436202e-01 7.619912668431094716e-01 -5.127160987474834591e-02 1.401158035154035364e-01
-2.412462257149166622e-01 8.390746892047207250e-02 5.651062915232264450e-01 -4.027743188804164265e-01 1.992236337687254000e-01 8.061721413641754763e-01 1.950667691909632739e-01 -7.678902957489514361e-03 3.365417228157159268e-01 -4.146362976586483451e-01
4.705640088039986409e-03 1.099043009005824106e-01 -3.455936863684773430e-02 -9.023126176287170341e-02 1.125916895031666976e-01 -1.505093960646238793e-01 9.102727670821712802e-02 1.260987175569676204e-02 -3.481532823791216522e-03 -9.707756975750232720e-02
6.226157750416974612e-02 1.798587548156781180e-02 1.985706946181671761e-01 -1.718720791155562214e-02 -2.398064722742044436e-02 -4.069777608988116996e-02 4.781990884007474713e-03 3.056822090086314808e-02 -1.080930365700664003e-01 2.207180902194062766e-02
-2.851324261706676966e-01 7.625888001638652103e-01 9.139580683127239702e-01 -6.202710474838216692e-01 -1.044768921817821605e-01 -2.481302862625789640e-01 -3.177132724693893517e-01 -2.267193422391226842e-01 6.794436319512902056e-01 -3.972905413641358296e-01
-3.377209487025484846e-01 -4.366739572076906994e-01 -4.449313239508778106e-01 2.740575288025981493e-01 -2.329420530651303556e-01 7.286815648431248515e-01 -2.082247798841521946e-01 -5.145746001359833288e-01 7.491396657181494112e-02 4.379161584332351143e-01
-5.075760494314608406e-01 4.419370023869205188e-01 5.393748482181770498e-01 -3.210318963527091229e-01 -1.556379367082759702e-01 3.177431363801672126e-01 -3.198832361296763405e-01 2.311569407446006086e-01 -5.809930000720573418e-01 -7.118391194632306407e-01
-2.341465092976814100e-01 -4.525161969916252080e-01 -6.237376441565847252e-01 -3.838555254046325249e-01 3.783760795387535181e-01 -5.359457698617653421e-01 4.721591526715190890e-02 -3.166589323239203391e-01 -3.662173087553814987e-01 1.459371954568945140e-01
9.847310683098497996e-02 -3.959027105140723590e-02 -2.321902596435723165e-01 1.613645978884923338e-01 3.142658194960900458e-02 -9.324877904325251654e-02 6.475422847814213401e-02 1.065754330434792903e-02 9.231826674490516138e-02 -2.098248870215959072e-01
-2.547519285321298566e-01 1.634763806862608859e-01 1.971801624870490044e-01 -1.455760035902490535e-01 -5.746668676573599699e-01 5.616651890152273285e-01 -1.228330192879590332e-01 4.375266387220400621e-01 -1.754800266926220820e-01 -5.479070464851535371e-01
7.439315686345791823e-02 2.832451297125136713e-02 2.034449455833324538e-02 6.793664916249399222e-02 1.037496322092631290e-01 -1.456951479800263488e-02 7.222501092467323823e-03 2.579022908526807170e-02 1.358300097725121400e-03 8.695417741563300773e-03
-5.653871065554847419e-01 -2.822980883984065326e-01 -4.561750449813010144e-01 6.325257553954081180e-01 -4.839124340215584796e-01 6.913746840152623641e-01 -3.440823049935751721e-01 -4.564225237899007803e-01 4.821671270409528254e-01 5.612819538004287789e-01
-5.398896169229272513e-01 -7.970970820269158985e-02 3.621489726623701166e-01 -4.034500573158002722e-03 8.202696599911841746e-01 -2.675116538960567447e-01 -2.277029799134106802e-01 5.789332777619211612e-01 -2.556344402095300783e-01 4.227537515913445398e-01
-4.564825674783219017e-02 -2.867178594711700806e-02 3.638827855281846074e-02 5.795542096039770635e-02 1.107532960598388468e-02 5.743693593866218416e-02 2.599585369816585431e-02 -1.343605197092173457e-02 3.576917350690839853e-03 1.187940364236813595e-01
-9.333771736530115104e-02 2.337239494235698600e-01 -1.930448109461123038e-02 6.936748806704139125e-02 1.619191985564610858e-01 4.984803247671941440e-02 -1.354195915977375320e-01 -1.343517068405923331e-01 -4.451482268304769035e-02 -6.332022288381589092e-02
8.116220120045555472e-03 -7.008454279793682740e-02 1.689648603905311713e-02 -1.651329004653128152e-01 8.832279045519643434e-02 6.329052343980026696e-02 -8.319054761353861238e-02 -2.250308388773201718e-01 -2.706096416806846872e-01 -5.303116852151625871e-01
5.184061001351593090e-01 -1.036945239299106730e-01 -5.266364968336829655e-01 -5.601927647399873589e-01 1.229245697012475436e-01 8.632000425912786379e-02 -5.130048661833217505e-01 -6.806415225724518625e-02 -6.194352880399552896e-01 5.109805320545519614e-01
4.611313374502684637e-01 -6.363093735163583009e-01 3.783333684697756660e-01 5.748310363880544394e-01 6.292464957718484353e-01 -3.055637173252108152e-01 4.009389852567111223e-01 1.719323423273881601e-01 -1.262041795719420247e-02 4.827306292997461945e-01
4.195158159870249759e-01 -4.464422936701253897e-01 -3.785774407856256629e-01 1.659309268923891134e-01 -1.395486952690783988e-01 -4.136019216013570587e-01 5.031008648713862774e-01 4.226158847768828331e-01 -1.274837031482427552e-01 1.119837113130772027e-01
2.125820415414404752e-01 7.906207600467018981e-01 5.095673300195071587e-01 6.025118618485811872e-01 7.222737893186251812e-01 -8.031504300759133574e-01 1.674390876923820826e-01 7.928688551108132865e-01 3.089495359496274851e-01 -8.702827180595354983e-01
2.687394965479030229e-01 -1.132007594031977232e-01 5.261017057851700984e-02 1.352334939948941772e-01 -2.053658033355733881e-01 3.495864970018263129e-01 -3.058799901511015037e-02 2.421509523690697774e-01 1.397894024582808370e-01 3.483386058215688363e-01
4.322450166336591071e-01 -5.386790308449505016e-01 5.564678235729934030e-01 -3.538089415548639760e-01 -1.771432560132054079e-01 -1.602351470701003644e-01 5.561437250200056415e-01 -4.455768652126849694e-01 3.267311811126876742e-01 -2.322829769107969122e-01
6.766387347234890104e-01 -2.550036001543870556e-01 -7.074584532560286299e-01 8.932583712407800025e-01 8.626010642852723065e-02 9.341072077569158028e-01 6.929450204352914922e-01 -2.708447988666320971e-01 -9.290677505436950590e-02 7.890342439403916774e-01
-2.186185908258296562e-01 7.064302598370493513e-03 6.380992079207140066e-02 -5.212020117802794728e-01 -4.266675908850453558e-01 -2.367630835540893430e-01 2.169223023697559594e-01 -4.053326539685941365e-01 -2.957269246189299094e-01 1.430542957353998779e-01
8.191331847652498586e-04 4.396169591442613406e-02 1.797442893549441867e-02 8.631318129416809537e-02 6.029166285019833989e-03 7.209461507240458311e-02 -2.901232288099784163e-03 5.270666956526610936e-02 8.478327186147622402e-03 1.908872960983462250e-02
-1.265023956232935454e-01 -6.032121247562195476e-01 2.758045683554849470e-01 3.317818785862367698e-02 4.914676483070994362e-01 -4.561403141101799674e-01 2.470081023860194736e-01 -3.982376727689097562e-01 7.147316249129420651e-01 4.418962918155241448e-01
-4.830096726399766283e-01 6.750405004318833502e-01 -1.036744759935821908e-01 -1.628115878378842418e-01 4.555500574313949835e-01 5.136970572410788360e-01 2.685843261278079153e-01 4.595615554068786524e-01 -4.627287916636247944e-01 -3.979186346347296510e-01
-6.515344855887704456e-02 -4.137404134521453503e-01 5.480624356153349086e-02 -5.777831465040882825e-02 1.539359308570251716e-01 1.776204959892775936e-01 1.129159303483357468e-01 4.091099926506083229e-01 -2.716550670128655143e-01 3.258632838855035629e-01
-6.774084197705083632e-01 3.952156103922991881e-01 4.481623015524191511e-01 7.199224141540695454e-01 1.306622332104737383e-01 5.890214231584255389e-01 -1.913521434749943795e-01 -8.454303510045839409e-02 7.054185625814729521e-01 9.197224969043413245e-02
-1.490450332514927922e-01 6.238800315797695673e-01 -5.614644683903416977e-01 1.914918342475059876e-01 3.063002937736634679e-01 4.260025422570783427e-01 3.999949123990247379e-01 1.154954611763966271e-01 -4.287386098776700682e-02 -1.581461088843881535e-01
1.174148205026834257e-02 -5.482410341264931306e-03 3.197914703167100553e-02 5.415164733427344640e-02 7.513809403092375216e-02 2.156631779205821914e-02 8.679410446615909436e-03 9.432043552171032186e-02 4.085895558336984090e-02 4.748399393637727645e-02
-4.907753466109151530e-01 5.993446179834839294e-01 -4.901017961991449567e-01 -5.610268254844725036e-03 5.723022459004621920e-01 -7.475760040377995574e-01 -7.993220525285424927e-01 2.622210969319627716e-01 -3.389400585965139379e-01 -7.029625377398330821e-01
-2.118427318549882532e-01 -1.561208117839208986e-01 8.025448051007712247e-02 1.386501534706994498e-01 1.410238357729531877e-01 -4.129036693347661324e-01 1.105561099610169740e-01 5.752285502504113079e-01 2.051685376948541306e-01 -8.229481647352163143e-02
-5.440340857569382349e-01 1.967508474512875971e-01 -8.097155658095286368e-01 -3.330196425636767210e-01 -6.752620360799941324e-01 7.873454929127787771e-02 -8.324105742800259611e-01 -5.071964500782000229e-01 8.002510901340685878e-01 6.870529305502002249e-01
4.626198115784442566e-02 2.767262870646286857e-02 8.530134645778073010e-02 -4.377871534732206971e-02 2.030182707929642505e-02 3.141970209550620785e-02 3.552929068923796341e-02 3.664192440598769418e-02 3.072288205636385149e-04 1.428869332805895488e-02
7.451876660680843700e-02 -2.038335530296866149e-01 2.926404461401563850e-01 4.333981735440205485e-01 -4.831438131291917459e-01 1.858809660274765851e-01 2.243268903800365033e-01 3.729653313365554473e-02 -4.940079621830504863e-01 -5.554168198144497914e-01
2.090479272278972511e-01 -1.124655755001361390e-01 2.090046940323983804e-01 -2.630211554695202278e-02 -1.898794601532682313e-01 -2.242635854446179133e-01 2.274385760496225872e-01 -2.384351879680025599e-01 -1.063566234619966050e-01 2.774411193066015913e-01
6.965874996104772787e-01 -4.800067597142496090e-01 4.768107666434427960e-01 8.245664027971945087e-01 6.134338418863266584e-01 -3.286057964064608566e-02 5.271073115515410024e-01 6.936991257145688206e-01 5.925104809504502246e-01 1.054216590755478744e-01
9.686192528248316336e-02 1.150679030138669345e-01 4.730650366134541152e-01 -1.432711027427303885e-01 1.860691808280676429e-01 -1.967719714270984854e-01 8.840595916783948460e-02 2.647767695294817036e-01 -3.721457333867707051e-01 -3.559610970848877676e-01
-3.568851341846029368e-01 1.337311885963520519e-01 3.852055999385023410e-01 -5.816061255050904988e-01 5.703610059202105509e-01 -1.208359944552356152e-01 7.210843590822439975e-01 -5.607892098938450642e-01 7.488324419827982470e-02 -4.131648328219202776e-02
1.549295872585513822e-01 -2.146622849637015162e-01 -4.090797997268793007e-01 1.236841090076433274e-02 5.152022848963933727e-02 2.952645150404215393e-02 3.727260221338291601e-01 3.780032535991599274e-01 -2.796773534234536437e-02 -4.823565713636914776e-01
3.044350451971662430e-01 -6.139728707101396177e-01 -4.687669175112157416e-01 3.028769643467435838e-02 1.541454700455719140e-01 2.915831728645323917e-01 -2.633752345402030071e-01 1.999017304606716949e-01 -2.636695714222738740e-01 -4.027668842681141337e-01
-3.660643419323016123e-02 3.779551579466995936e-01 3.169823830540702825e-01 1.811231384247529719e-01 -5.113642368473260424e-02 2.233140942155416031e-01 -3.222323375267219236e-01 1.833232638189660202e-01 -6.193499982146147493e-04 -4.143801200847509469e-01
2.500568614434637849e-01 -1.878762711770550764e-01 -1.561534646640503621e-01 4.513983270088456345e-01 3.866513387967928095e-01 4.687016523308289440e-01 6.905696383661378279e-01 -9.482804541333032800e-02 -2.888884818136357446e-01 3.425437048193108458e-01
-5.094046706535430014e-01 -2.109642803475519357e-01 -5.579140919554408801e-02 -6.896600224273695227e-03 2.652822173081733625e-01 -2.286086582854635063e-01 3.979575548113032345e-03 -1.833982601839055093e-01 -2.855964820999586373e-01 2.375322841937048401e-01
-1.414008823749410004e-01 -6.030031650262793197e-02 -2.137501959536413365e-01 1.972363089416944160e-01 1.626632200001880690e-01 2.395073885781498768e-01 -6.106276564121477374e-02 5.531620379769438406e-02 1.198010640321574196e-03 -3.179065795969593378e-02
2.104280706870941819e-01 2.420384479610949158e-01 1.713376532026015253e-01 -2.131682604253540281e-01 -3.641492039617405529e-01 -2.430703746325409698e-01 2.378199468745378908e-01 -3.088348211418058820e-01 3.496115083527229772e-01 6.539080463115704012e-02
-1.981358382590263939e-05 5.351247871401861866e-01 -4.410897299403500615e-01 4.749577210461686239e-01 6.461753820299558360e-01 1.768825833009072535e-01 3.234146712903243626e-01 2.757390886260340790e-01 -4.688943308541988486e-01 -6.461547177304952649e-01
2.802189893662538900e-01 -3.690150820283996103e-01 -3.873588293514955150e-01 -2.312503249800242355e-01 4.681524378507679884e-01 -4.253461089150759739e-02 2.081707273236834896e-02 5.143215481277899626e-01 2.604317010700284429e-01 -2.426178712413410710e-01
-6.610906844029557083e-02 2.961831769982810614e-01 -2.508296619830691632e-01 1.818507482207600001e-01 -5.115314974951579163e-01 -1.680185059785426482e-01 3.094872084008033486e-01 -2.794905280037946471e-01 6.668164023347160629e-01 4.495764850591951189e-01
-7.800037797909854624e-03 9.323401793206327615e-02 2.098030126628100400e-01 2.040797234171513597e-01 8.996061360593515799e-02 3.517450555878143259e-01 1.678630457792923969e-01 -1.087678464478694096e-01 8.628310768320340829e-02 2.518545944085329724e-01
