6.294078137236623904e-01 -7.954273535606932732e-01 -1.147775752256585541e-01 -6.199814694405760829e-01 3.222191259442904188e-01 -4.557662337320206869e-01 3.513320134821021345e-01 5.922773966029204473e-01 8.040733635308626726e-01 7.079208506060989947e-01
1.493504042260854758e-01 1.205609915721926051e-01 -3.876922004532787902e-01 4.041562872081185809e-01 3.955322980359893825e-01 -1.076614117923668928e-01 -2.522367812032269008e-01 -4.313442613913442414e-01 5.162672020873340095e-01 -2.684565806349362149e-01
2.786625477225012637e-01 4.415496202642499868e-01 -2.014803788219266326e-02 6.560389202372546302e-01 -5.672343864478898157e-01 -2.936301898394729215e-01 5.549359108551620290e-01 2.512909655032430356e-01 6.814894339706951687e-01 -2.658777557304961570e-01
1.577962411183826963e-01 -2.017131092108614965e-01 -5.431593865375744512e-02 -5.655339911685953319e-02 -1.609711137347126786e-01 -1.681475445398055990e-01 2.171309052190352751e-01 -1.846031628156874771e-01 1.544466546692049858e-01 -9.850872358418286123e-02
-3.763577025086244868e-03 -2.517154610188558714e-03 6.391696464600288285e-02 -7.519751838612693043e-03 8.565899072491262034e-02 1.093097204990574334e-02 1.664012159606234262e-02 6.086263615650238518e-02 5.422784027515266045e-03 3.408742386881532388e-02
-4.455865255493654531e-01 -7.470014263885347283e-01 -4.071193957070592950e-02 -7.938205707540489930e-01 7.016229306298507051e-01 -6.937910201870587379e-01 5.531024198892176003e-01 7.118329382569671404e-01 6.743981022729971242e-01 2.297439348639863932e-01
-6.531094918153374819e-03 1.563904199582804855e-01 5.938746838392259392e-02 8.834911183703206272e-03 -1.313796669625476830e-02 9.445842932986706422e-03 3.731820177826072893e-02 4.230283818874582338e-03 5.317559371847266347e-02 1.296881571899336644e-03
-5.348684535807690654e-01 6.802217820480086496e-01 8.148021250183676290e-02 6.853907505402655476e-01 2.257214445835491468e-01 -3.245180508066844993e-01 -3.838226169555752909e-01 3.202010469434921625e-01 -6.046677761387694305e-01 5.597496928742601296e-01
-6.968751983235965675e-02 5.907340141550848633e-01 5.500703087288328907e-01 -5.607344818225119543e-01 -2.790907912193242857e-01 3.699805181919681440e-01 -4.181107294204196023e-01 7.199991089876620620e-01 5.171443423535553308e-01 -1.898465503875265969e-01
8.681484193232716015e-03 -5.501981559038250993e-03 -7.565858944556206646e-03 1.444022608360596982e-02 8.420384523689161682e-02 3.877205977947863896e-02 8.020719539094094824e-03 4.679833195794956546e-02 2.811241862677354292e-02 2.636864098306150594e-02
-1.654883579057509976e-02 9.024457447472422622e-02 7.113301270888636174e-02 -8.101460798493691218e-02 2.265409589034638460e-01 5.972308687352543763e-03 -3.067928468735402203e-02 -6.621754524989849865e-03 2.610231492876688431e-02 5.036324435348128736e-02
3.422825388168111993e-01 -3.188935947388668590e-01 5.947751568641482800e-01 1.864155256725496534e-01 -3.493966335903922471e-02 -2.090252924869604734e-01 5.402930702196089285e-01 5.067920782911851107e-01 -4.532867152992134940e-01 4.087215099268219909e-01
-4.224764161904293602e-01 -4.385082436065971395e-02 4.421181445833436974e-01 5.808958925167890808e-01 4.665657310829718907e-01 -4.607481749743329025e-01 2.075902307158406235e-01 -1.354600983479752330e-01 3.161595460101703225e-01 -1.279852382669821598e-01
4.163104475085533940e-01 2.011133008348020557e-01 -4.642755105660072434e-01 6.357255373153719580e-01 1.743758735280182548e-01 5.348743445196120494e-02 7.429718759841071885e-01 -1.608463134661368421e-01 4.117337847355125313e-01 2.866970330501766862e-01
3.104191291568695887e-01 -5.498758083916711614e-01 3.590046857105763101e-01 -2.363446053002673797e-01 2.907995841541891613e-01 -1.807541024475746438e-01 -4.548316264947359633e-01 -1.669442926280283179e-01 -2.010416800990874608e-01 -6.833991140121487007e-01
-3.856047063892791265e-03 1.695403046136859104e-02 5.557301809548362281e-02 1.901466504898205456e-02 1.455839166813044892e-02 4.336385856153246454e-02 4.107324377175606590e-03 -2.756671542243093777e-03 2.579803459792600479e-02 3.723619569895968845e-02
-4.167959107148507814e-01 1.021478398850049624e-01 -5.513582079982870532e-01 -4.738782850388451595e-01 -1.237688551449760838e-02 2.033353005859902529e-01 -4.080966639313991784e-02 3.647528941326551033e-01 9.849420679982445748e-02 2.458852744192157602e-01
8.297678025378690814e-01 -5.337674840336382731e-01 -7.693723654583417559e-01 4.700894631620808339e-01 5.959445938742736759e-01 3.149312806003280452e-01 1.115673768977045316e-01 6.657054513461755363e-01 8.042210302071838290e-01 -4.411911014420812349e-01
1.436600059587633555e-03 4.180399063015036165e-02 -5.893038687399524411e-01 -4.768218640337262837e-01 -5.780385138239654275e-01 2.852588789852432138e-01 -3.639152347505286711e-01 6.693114969380186130e-01 6.711381952299222409e-02 1.281131577642593070e-02
-4.626701175584179565e-02 2.478074494609740774e-01 -1.358471206674087273e-01 6.116377215548460256e-02 1.893777371704421786e-01 -8.926258750547576282e-02 -2.083926992481646978e-01 1.454641085124869782e-01 1.494986979531993665e-01 4.122022859312490795e-02
-3.118236633553296094e-05 -5.526372079250593816e-02 -2.410749779517054325e-01 3.679793417153363055e-01 -4.120084064257993339e-01 -2.481380310159067570e-02 1.807659900883073212e-01 1.871366779990215612e-01 -3.121632545397736713e-01 1.792115692116321990e-01
2.781061366054885520e-01 -9.335697650519325652e-02 -2.343889146507497911e-01 4.043031390580076323e-01 2.678234825377817097e-01 1.650253165820580459e-01 2.118391682676337151e-01 -8.848612494165827846e-02 -1.267392914402685755e-01 -2.132103800474887123e-01
5.988919257243595362e-02 4.245887135394242340e-01 -2.119848506051493775e-01 1.745628794323769994e-01 2.588245206953774802e-01 1.327767210776462925e-01 1.035629278365752526e-01 -6.105174172541762839e-02 2.486366671197256517e-01 -7.113740666205566054e-02
5.222919537806997026e-01 1.115451611898417433e-01 8.166484648040919225e-01 -8.842797444157242115e-01 -3.956368823571718707e-01 8.722427718122699458e-02 7.580208278690264700e-01 -7.725513316995062940e-01 -2.096014424159821088e-01 -8.077475480089832960e-01
-6.270844051951948162e-01 1.828473796713254440e-01 1.274741853600823253e-02 -6.591640622026183338e-02 3.363826617263403485e-01 -1.352567348780965295e-01 -6.829189193289786353e-01 4.624248810906345097e-01 -6.517642148983451289e-01 -5.995187335278533425e-01
1.138586479305538253e-02 -4.241300855029385419e-02 -1.604495484574463074e-02 2.485198032511156674e-01 -4.895044346318654926e-01 4.233231332463815999e-01 -2.070279027343848999e-01 -2.451626770069113143e-02 2.205866536538854672e-01 -1.163057291001134280e-01
1.709132308471463524e-01 -6.254901017022663767e-01 -8.092857042882461993e-01 -8.170776280565120175e-02 -3.101067118005446099e-01 -7.991060596212720135e-01 -6.673372278511650046e-01 -7.253995951325949987e-01 8.639437154437282773e-01 -5.172368602283986538e-01
3.684703737899178155e-01 4.734520699659912069e-01 -4.052413814231333594e-02 -2.683392927599185240e-01 4.395571472216294739e-01 -2.783234561519396522e-01 5.131127354730058432e-01 3.515876293134950759e-01 1.545798024670849147e-01 1.384861612896104155e-01
-3.188542092025797303e-01 2.895685266200965780e-01 -3.568521334459866245e-02 3.122154034533106831e-02 -6.900455452880306373e-01 -2.386217752881759357e-01 3.294829318215967695e-01 -6.528322888028762483e-01 3.856317779787511446e-01 7.438498227057855358e-04
-1.725706204278097122e-01 4.767912059005288139e-01 6.136945844176320275e-01 -7.007698511465579316e-02 -2.189746163538517087e-01 -5.397398255082684893e-01 -2.590124290206930469e-01 -4.107007460978248092e-01 5.197806480119327999e-01 3.600710657634569323e-01
-3.794668435627301384e-01 -5.419993156025552095e-01 8.691693310128864036e-01 6.494896590521282986e-01 5.107382923280926468e-01 -1.408995998922038251e-01 -6.765312227006365919e-01 -8.319728430909863193e-02 -5.784433887540273433e-01 -6.626169189475998866e-01
-6.653963183194482045e-02 -1.096046022520285879e-01 -6.915370231949449220e-01 3.337209699565165111e-01 -3.806615236338906638e-01 -5.807363978131239168e-01 7.978471842619119236e-01 -1.517110125038731994e-01 -1.317963972809805540e-01 3.540335524095539199e-01
-1.487831306902572814e-01 6.069489616697003598e-01 -4.887812818970658224e-01 -6.686595248439489714e-01 2.549602152144085920e-01 1.318827896713003212e-01 -4.284167691137564377e-02 2.532202994213082481e-01 3.150569633672459791e-01 2.489649496478416324e-01
3.098508425155290791e-01 6.352451199295827688e-01 -2.220201583974517057e-01 3.535068688938546311e-01 -6.158961913264078269e-01 -5.795909193663205672e-01 1.082455627009815680e-01 1.930512875084811064e-01 -1.164236526992654536e-01 -4.410496944849080503e-01
-3.410437705435338807e-02 3.165517591444885204e-01 3.515625010823255625e-01 3.134426750976060383e-01 5.176756762593168748e-01 -2.788833289821762706e-01 -3.703439196016122259e-01 -5.337841273712606166e-02 -5.643024975560819723e-01 -6.167867390645882797e-02
-3.523846010300034637e-01 5.900625042896654460e-01 2.751656522072673527e-01 4.297475346809273011e-01 4.018889916129105844e-01 -4.512537974447006772e-01 3.568155970776215047e-01 -2.626565062445100907e-01 7.182037026948956404e-01 -4.209892447446313413e-01
9.307588600118012201e-02 3.210274983099543206e-02 3.019327446955162933e-02 1.298089853319796001e-03 -4.967833151380462477e-03 -3.074384138666182154e-03 5.031812252728406869e-03 1.450084955689189825e-01 -7.807230762069583725e-03 5.094972754443203786e-03
1.641118739755918210e-01 -2.648328381451378610e-02 3.960899173603465301e-03 -1.955235461146226372e-01 -2.755736608509087304e-01 -6.480177865264500833e-03 -6.523640604186675684e-02 1.222161727781958668e-01 -1.233628805593322830e-01 -3.142505642326676174e-01
3.830440073956770664e-01 -5.492129236670985071e-01 -2.860705147253788660e-01 -7.034142833616573443e-01 -6.883421247163956647e-02 -6.962142565663866911e-01 -2.027846328486539729e-01 -6.337147600140354831e-01 -2.111216056241498051e-02 3.099977276023733741e-01
2.750288510218944216e-02 -9.125857882370985719e-02 4.042902528262609131e-03 -1.443129576201979299e-02 1.629329652999329248e-01 1.283272466730216339e-02 7.216274762197241732e-02 7.940666034063592615e-02 -2.550826771617379154e-02 7.617610475173640372e-02
1.135224406750244414e-01 2.505228373873097381e-01 -3.699472939739708449e-02 1.069752501141983114e-01 -4.418469227634800461e-02 1.769853139273150078e-01 -2.961707404807238375e-01 1.879919854471413243e-01 -2.778688955014702814e-03 7.290939223821783777e-02
-3.858998548943267104e-01 -4.150641260297043694e-02 5.801928397077081856e-01 -5.067845526563296427e-02 -2.541796743752500198e-01 7.126378283917661483e-01 -3.182970536914734305e-01 -5.204848266254226141e-01 -4.079261411497901446e-01 5.419526751302210510e-01
5.803942849091209277e-01 -7.609179700845743188e-02 -2.596693448362892842e-01 6.618873984628543816e-01 -2.619572033401809663e-01 2.615621667552722740e-02 -7.756361501436511707e-01 1.503530961221194173e-01 -5.355076876283725307e-01 7.418953676771962158e-01
2.522269681558152454e-01 1.740947961288671630e-01 7.621769163041721210e-03 1.171951947281181516e-01 -7.464937613879982226e-02 5.825329117473922180e-02 4.428053310608285470e-02 5.598528502383055133e-02 1.197407389403539468e-01 1.425147790667782577e-01
-5.197418854755019302e-01 -8.464893301576353890e-01 1.544460860939284030e-01 6.035319928279385682e-01 -2.751850900000594735e-01 5.897161843214574484e-01 -8.404023242942337824e-01 -6.953341602029809720e-02 -6.877143380211375723e-01 6.392054177516498514e-01
-8.607427651404535307e-03 2.086579379068034118e-02 4.608689728214284548e-02 -2.522649379333686756e-02 -1.017962194903580982e-02 1.192633086697074407e-02 -7.565635928641128993e-02 4.989880585064009749e-02 -7.003321031439804778e-02 -4.975339620696701826e-02
2.010074989101729159e-01 -2.365379831592028526e-01 -4.392822514420250957e-01 -2.975298270489281083e-01 4.324005909446397844e-01 3.660323726026413205e-01 -2.064903870141446551e-01 -5.381491842230188283e-01 -5.196643295668825768e-01 4.942419499058767762e-01
2.812161551256477932e-01 -5.141447322236524231e-01 -2.103993731707268569e-02 -3.424414177220873601e-01 9.700746765507672897e-02 -2.959262953730575907e-01 -4.073871817063089429e-01 -6.484985347746693995e-02 1.008643446626962883e-02 1.800654909008379267e-01
-1.151910154555988997e-01 -2.935348169994216883e-01 -7.933529003972523974e-02 7.318934391107483062e-02 1.658760753091903795e-01 2.214848638823989080e-01 2.423078736975348701e-01 2.017566310129368934e-01 1.273085443907274739e-01 6.755379619264374746e-02
-8.562172759252215659e-01 4.484224080032028770e-01 8.853140244020045457e-02 7.390668078312738754e-01 -2.689267118257744338e-01 -3.179241549928296662e-01 -1.515341067821911192e-01 7.621920569539673007e-01 -5.124480094900132204e-02 1.402320923049090451e-01
-2.445096420628348199e-01 8.407637699189894620e-02 5.657428665617482144e-01 -4.032362173269976036e-01 1.995630409814907469e-01 8.069680202466268382e-01 1.952430062159684898e-01 -7.681024809143127338e-03 3.368874609633724648e-01 -4.149646585348329975e-01
-1.669496948385619517e-03 1.364518960350981913e-01 -5.321136112798660611e-02 -1.425945133273068266e-01 1.605051252392565575e-01 -1.911338403258977803e-01 3.104615903285989215e-02 2.567985912107113508e-02 -5.461612847784230208e-03 -1.355418075332666950e-01
7.562926259494502645e-02 -7.898413155116950496e-03 1.699097629132372278e-01 -1.647447971752277751e-02 -3.624997948282128457e-02 -4.769823493980537843e-02 -1.824618544552651309e-02 2.773125384295942533e-02 -1.358594731197708683e-01 3.679498804002795387e-02
-2.858126593014140848e-01 7.667233509835662542e-01 9.166194821653940172e-01 -6.215591876073518485e-01 -1.044990696388062440e-01 -2.586371969805295046e-01 -3.150992222624282024e-01 -2.236633645866215880e-01 6.822031174329076242e-01 -4.053354797551614319e-01
-3.392611091954141345e-01 -4.366457844591310478e-01 -4.448281440107592632e-01 2.749388921119675921e-01 -2.321637234849718290e-01 7.261947082973789769e-01 -2.097665277470315559e-01 -5.143612366758698595e-01 7.537354023333577013e-02 4.396083161857346489e-01
-5.075860521025924443e-01 4.419550226974240381e-01 5.394147495728116581e-01 -3.209887136767278770e-01 -1.561040733006386627e-01 3.177911583072767221e-01 -3.198793639817097412e-01 2.312525570718249601e-01 -5.809649237235740005e-01 -7.121439422430029254e-01
-2.352069960735959919e-01 -4.533931638464018810e-01 -6.255321175298583780e-01 -3.918691730317681587e-01 3.801908908101747087e-01 -5.369574689203596707e-01 4.795132455766539653e-02 -3.175502902984976838e-01 -3.668744662746105667e-01 1.478826040698731914e-01
6.825750423149345991e-02 -4.553803898380418685e-02 -2.449052701917499852e-01 1.741469961492825291e-01 2.532954285881926226e-02 -9.393862919246148691e-02 6.842022773714179218e-02 -7.789465145400370320e-03 1.008111680985881442e-01 -2.295877758714082173e-01
-2.604276540503186466e-01 1.651680502718146093e-01 1.985180721151105776e-01 -1.493827517521273962e-01 -5.790261419520401631e-01 5.638541289432611459e-01 -1.282884413244782806e-01 4.410298558667801738e-01 -1.784955148681076076e-01 -5.506207774547721145e-01
7.761348094104734974e-02 3.967245640958612374e-02 8.944906332805391616e-03 8.808594820455982466e-02 1.132769386431870112e-01 1.444959657969535800e-02 2.756951647541251021e-02 7.163737309162837357e-04 -1.962926951467684408e-02 1.170312177163009351e-02
-5.662254300783412519e-01 -2.820809370607857414e-01 -4.570079002021665282e-01 6.323226236653366472e-01 -4.822747969751425834e-01 6.939433094617982745e-01 -3.439901246710690974e-01 -4.607081423903794382e-01 4.825740094534756164e-01 5.608371319922706988e-01
-5.397910303012805056e-01 -7.967931545337030019e-02 3.621587913775950462e-01 -3.980372797716374110e-03 8.202133095345641722e-01 -2.675085840214988520e-01 -2.275769742234917126e-01 5.785861730946343373e-01 -2.557332405956977417e-01 4.229499987057481203e-01
-8.113970703790458761e-02 -4.530923439350715426e-02 5.121682641775506667e-02 4.302389660509071262e-02 -1.188243758308807352e-02 1.708862565268805950e-02 4.388508259922072052e-02 -8.842864097580937013e-03 1.059891716468299230e-02 1.051384658247496717e-01
-1.048691174864229136e-01 2.412259643535259179e-01 -1.418976320466541416e-02 8.208341499009309816e-02 1.834155403202305801e-01 4.205709637793847433e-02 -1.681350789408854463e-01 -1.434379659261441620e-01 -5.539290717746526288e-02 -8.799882578352827278e-02
1.069637358280130929e-02 -7.573046091073031005e-02 1.380400255050941681e-02 -1.771629718070031057e-01 1.036961656076577087e-01 8.012825323780964348e-02 -8.553364304595253986e-02 -2.616027873705619178e-01 -2.823309002907130605e-01 -5.607687878794670455e-01
5.230454797851210591e-01 -1.180069030979162131e-01 -5.304061218080998730e-01 -5.657616475454340099e-01 1.268264073851719242e-01 8.706341424059717282e-02 -5.185966713827143693e-01 -6.697325548864482836e-02 -6.263611981803823836e-01 5.152801139602637415e-01
4.621847598029469317e-01 -6.366788648583557864e-01 3.785698396855509129e-01 5.752989308565206183e-01 6.307064169204672499e-01 -3.047513240890708519e-01 4.015479830205108680e-01 1.698306355511234600e-01 -1.236071616012937927e-02 4.827967451834822565e-01
4.240926399384195022e-01 -4.492321248139203860e-01 -3.907883933461029358e-01 1.691962403348350741e-01 -1.394195524498499372e-01 -4.157433085206490020e-01 5.082080593160112070e-01 4.261549699635414634e-01 -1.283120310771545258e-01 1.130433367826967905e-01
2.119673997975388691e-01 7.908274636229148946e-01 5.094056318227515590e-01 6.022670244091665737e-01 7.222803729415998575e-01 -8.030393376736340016e-01 1.672783125540732718e-01 7.933130652498575630e-01 3.089801545923378523e-01 -8.704937546278060934e-01
2.866540484007674139e-01 -1.173907495441589705e-01 5.465982736094119471e-02 1.377454045105651614e-01 -2.050954062089735963e-01 3.763655469828171007e-01 -3.662399955719181088e-02 2.352956728899801009e-01 1.454988790496265505e-01 3.460232893405104093e-01
4.344193917483434308e-01 -5.451280544786299975e-01 5.586825155284435018e-01 -3.544905414276667277e-01 -1.770697887042488039e-01 -1.591488209683526445e-01 5.539833992478720992e-01 -4.482255185910369866e-01 3.271663362206367331e-01 -2.342371489063718726e-01
6.766387347234890104e-01 -2.550036001543870556e-01 -7.074584532560286299e-01 8.932583712407800025e-01 8.626010642852723065e-02 9.341072077569158028e-01 6.929450204352914922e-01 -2.708447988666320971e-01 -9.290677505436950590e-02 7.890342439403916774e-01
-2.180758327100040528e-01 6.196078730801840746e-03 5.838767539241442733e-02 -5.263480330171808053e-01 -4.297749407289408463e-01 -2.345503140504636153e-01 2.220412649852036291e-01 -4.090173625864756413e-01 -2.985292288708288888e-01 1.450189332146177568e-01
3.543221742533676517e-03 3.738729534588060982e-02 1.285395727328670148e-02 6.659250384133015566e-02 -4.345157084497115567e-03 6.335022572859479173e-02 4.611980326833392714e-03 4.044730474600895243e-02 1.248735966800979327e-02 1.959430326447770057e-02
-1.255937695790216024e-01 -6.035158945358396476e-01 2.773638616023856862e-01 3.240848375420089800e-02 4.893954099508618927e-01 -4.556141252465794045e-01 2.449056277516365454e-01 -3.970411772537991157e-01 7.156285913112164776e-01 4.417995186242303918e-01
-4.827392458527942631e-01 6.704494316468011528e-01 -1.042099827386801375e-01 -1.639391663771213592e-01 4.571024171071220721e-01 5.143095454148197687e-01 2.676785602687618559e-01 4.604604967102507440e-01 -4.645477734586279106e-01 -3.976552230063154503e-01
-6.752513777556264085e-02 -4.237578069365819933e-01 5.808860121015295419e-02 -5.606947256630893939e-02 1.628899678607728940e-01 1.716724552571743112e-01 1.154482643126178987e-01 4.154684295190492205e-01 -2.816574218332461021e-01 3.316305762403813917e-01
-6.775541501815279810e-01 3.952833090744020672e-01 4.482305057690769146e-01 7.204181700279624900e-01 1.307190229063573128e-01 5.893330375359819850e-01 -1.913712122841874641e-01 -8.607105670713979806e-02 7.056851248592768133e-01 9.195774163589583161e-02
-1.491180360377982739e-01 6.242012057006206538e-01 -5.615307651370932129e-01 1.916414411250749184e-01 3.065009208276527897e-01 4.234910710715277804e-01 4.001824877436302441e-01 1.155612560181507875e-01 -4.282232378772084930e-02 -1.580811355840303356e-01
1.366289976187324770e-02 -7.934998888180293600e-03 1.614912641020452636e-02 4.993980557225837641e-02 6.570857855899174538e-02 3.190512315928890896e-02 6.682576359703739852e-03 7.043457864021254733e-02 3.147640124123801675e-02 4.030915391663786318e-02
-4.907670614167114476e-01 5.986891756089617322e-01 -4.900204640244836263e-01 -5.561693021030019238e-03 5.722607200488848411e-01 -7.475673777696489886e-01 -7.993000946511329419e-01 2.622918463963089808e-01 -3.388938597030543010e-01 -7.029534199582797571e-01
-2.149890137226216635e-01 -1.686530523757352740e-01 8.191639678563363003e-02 1.389818737229959744e-01 1.441228409267905630e-01 -4.183505269956160899e-01 1.122202659138834685e-01 5.750808086363431437e-01 2.087787055141369086e-01 -8.283019675363896550e-02
-5.440697907351814688e-01 1.973092379929425322e-01 -8.112052699539368250e-01 -3.335055950115006773e-01 -6.753573068301546023e-01 7.850777796066646386e-02 -8.326576764898869776e-01 -5.072939204262705282e-01 7.997505481033522212e-01 6.877933539927074680e-01
4.662944984288355799e-02 3.361896514460793739e-02 7.805238592436578027e-02 -6.208385707394906833e-02 1.708804494621148778e-02 1.102459065143842655e-03 1.730599293930298530e-02 1.599554139925805571e-02 -5.513682959788708364e-03 6.898963008472373121e-03
7.585490862122119815e-02 -2.064709648982286094e-01 2.926964807615374808e-01 4.345537954949673098e-01 -4.842604653688651895e-01 1.829538794833209803e-01 2.282238286520925641e-01 3.633663067598774665e-02 -4.967293637467204426e-01 -5.582737867642177942e-01
2.445206955884236533e-01 -1.275141965935049082e-01 2.489448128051991449e-01 -3.591061351208426483e-02 -2.174653670436924591e-01 -2.453989597102657072e-01 2.257939437879096511e-01 -2.771001745813742589e-01 -1.313644975171007478e-01 3.149142046912457582e-01
6.966091697884003731e-01 -4.804675277517830301e-01 4.768873174588673103e-01 8.245782248771488243e-01 6.134888699719625027e-01 -3.284564679811078497e-02 5.271011655280527508e-01 6.937006120137233500e-01 5.925005610133349254e-01 1.054249793197772761e-01
9.482850740490436636e-02 1.156637632954199829e-01 4.693456816147177912e-01 -1.438360649999113061e-01 1.875470765598147016e-01 -1.972788590478963267e-01 8.876245789163864086e-02 2.659027853326624280e-01 -3.728423584354321196e-01 -3.565165386169127926e-01
-3.570175552446107070e-01 1.337557155669197306e-01 3.852815736311507311e-01 -5.817198311863613913e-01 5.704738399350998135e-01 -1.223038604756162134e-01 7.212266519234644679e-01 -5.609009092037110511e-01 7.489698368219989411e-02 -4.132045213150626478e-02
1.587197757143518628e-01 -2.195059476209603455e-01 -4.178709442125367879e-01 1.368431236100230153e-02 5.082444968202372293e-02 1.073186749013019074e-02 3.838490613890607750e-01 3.920333198585104761e-01 -2.837530929580771993e-02 -5.039083337431509158e-01
3.050977255863827620e-01 -6.151178422271629254e-01 -4.728975864789659589e-01 3.029037744067451104e-02 1.548250083181723913e-01 2.921345146047886199e-01 -2.636035305745000334e-01 2.004733799428634611e-01 -2.666781893775596601e-01 -4.032905183098289825e-01
-3.688480835080378689e-02 3.739567055159227493e-01 3.192939715900798836e-01 1.829593928623565735e-01 -5.608732797722748575e-02 2.231518310586182441e-01 -3.242627669992827477e-01 1.848884116690667212e-01 -4.466265444873065223e-04 -4.179852590143443569e-01
2.505600027470523683e-01 -1.877610142435871821e-01 -1.567113809172456240e-01 4.523758799764226457e-01 3.874548157186795128e-01 4.664466010331478341e-01 6.928846719063940229e-01 -9.355414710188435234e-02 -2.927741693576625948e-01 3.407583996543311899e-01
-5.122578987105755877e-01 -2.168300735993431705e-01 -5.419509648788205930e-02 -9.147447877948038444e-03 2.648358236869921556e-01 -2.451030566348839368e-01 6.160741914198330713e-03 -1.843652995393753602e-01 -2.863753311807724078e-01 2.403643091497162099e-01
-1.765801501981184296e-01 -7.428162914659605653e-02 -2.559391897874244703e-01 2.540521702352402933e-01 1.743903562602756030e-01 3.141131979374718886e-01 -1.161386791320055123e-01 6.166284546880528711e-02 -2.225676132997011190e-03 -4.155367071760068115e-02
2.140867733551387597e-01 2.404882724817772877e-01 1.735259841613129572e-01 -2.154222962804775432e-01 -3.651491100670986034e-01 -2.432981460221485259e-01 2.317266599125152315e-01 -3.174046219336873476e-01 3.535816217432109498e-01 6.587210404592831747e-02
-1.974690801628357228e-05 5.344278549684485791e-01 -4.411040989025131753e-01 4.750186299839728732e-01 6.462541431572198514e-01 1.769303140149335318e-01 3.234324399645374104e-01 2.757788487289180024e-01 -4.689155368800234647e-01 -6.461804094062327808e-01
2.836541763085778656e-01 -3.736006992228125823e-01 -3.981214002990671741e-01 -2.340036379436476188e-01 4.738463461530438847e-01 -5.234659295732837364e-02 2.099578716187052232e-02 5.206209642862588138e-01 2.633994389742875808e-01 -2.458719023962826489e-01
-6.895201255484841030e-02 2.971802851077253171e-01 -2.511696550196290123e-01 1.814007107202792457e-01 -5.121609784030098922e-01 -1.678055330713421889e-01 3.094156051068557844e-01 -2.782512938822251369e-01 6.682563764765991898e-01 4.511074357397621970e-01
-2.065916402617650263e-02 9.657077999439925287e-02 2.240338799608885823e-01 2.097647870308696205e-01 8.106321926425577584e-02 3.699965850280926283e-01 1.726782155718500356e-01 -1.043029422827786851e-01 8.988926665495489132e-02 2.635012149715975083e-01
