6.308873589692830519e-01 -8.034627242756737786e-01 -1.145680959766740836e-01 -6.212825771063704705e-01 3.246053983036089052e-01 -4.557032403076428095e-01 3.500912393080610752e-01 5.936314819282647592e-01 8.032756656166440967e-01 7.099181109956528291e-01
1.499849851968834413e-01 1.208804374009043031e-01 -3.909572190647129242e-01 4.035038729087877529e-01 3.984622807072980555e-01 -1.103816244984129891e-01 -2.517700064069217092e-01 -4.324074503734705033e-01 5.181809685454609182e-01 -2.689218350886286579e-01
2.828313123733012802e-01 4.442256610234481817e-01 -2.098151424413558300e-02 6.604819208277606934e-01 -5.727007172754265962e-01 -2.956841642490195543e-01 5.614979433217769378e-01 2.472041687038992186e-01 6.833637384110108348e-01 -2.663062253024778836e-01
1.488585398458835141e-01 -2.751099352763707873e-01 -9.483605641625011962e-02 -9.663320741317946161e-02 -2.213429110572570357e-01 -2.613790236006475753e-01 3.115283063938469321e-01 -2.720980659593770778e-01 2.179508752946586192e-01 -1.386861525856418198e-01
6.488004616699880739e-03 -6.021893871096853021e-03 4.343317078981857177e-02 -1.375245133176720633e-02 6.896905932916712334e-02 7.847670834500013529e-03 2.597142564131324494e-02 5.357535246732233331e-02 -8.097617636758088627e-03 2.551136111560426897e-02
-4.456581910356288700e-01 -7.480514112969577356e-01 -4.080825297114237110e-02 -7.937657479643762670e-01 7.022352537228264691e-01 -6.937106920752981187e-01 5.534241334187283146e-01 7.113616049216519022e-01 6.749698107687837068e-01 2.298366789848868275e-01
-7.251563711442979114e-03 1.352670528850347109e-01 4.463472107327207811e-02 4.981757353317281534e-03 -1.294359418315030145e-02 1.862429334666686892e-02 4.835186359812560647e-02 -2.961401036284852517e-03 3.815295609743297317e-02 -5.426780994221881010e-03
-5.357988348066217155e-01 6.819286016930568017e-01 7.733133117220197805e-02 6.873752204880145822e-01 2.268685976875604859e-01 -3.249203930144101693e-01 -3.844317324990301765e-01 3.210373521297827937e-01 -6.057341746113079628e-01 5.613763707408695458e-01
-6.868333026561632138e-02 5.917486121058568305e-01 5.525732753875850500e-01 -5.617260450212426814e-01 -2.797805686854804574e-01 3.702140010061814035e-01 -4.243092234992248413e-01 7.189885357078130701e-01 5.179426152312585074e-01 -1.893962791461879236e-01
6.117123964467502742e-03 1.438307659660137926e-03 1.216031539379994241e-03 1.997957431424375596e-02 4.077295966900972707e-02 2.062509112020829982e-02 5.438860763490328473e-03 3.526086611076087451e-02 2.380673648331872033e-02 2.842596096364376212e-02
-3.990540798560919533e-02 6.544824363907165987e-02 1.115530965890254855e-01 -1.508175928881247685e-01 2.760665032998653734e-01 -1.544600450712396884e-02 -4.181434828379522461e-02 -2.945529388736962614e-02 3.584222875457736962e-02 5.648828528345597316e-02
3.429522878224229854e-01 -3.193983191867006410e-01 5.927214437675683012e-01 1.867628163050117640e-01 -3.494527678365163398e-02 -2.093360182445507256e-01 5.411966814439795881e-01 5.065500970960121752e-01 -4.540168698477063391e-01 4.090891523488526804e-01
-4.305691751514961751e-01 -4.203478804953813402e-02 4.529531949571704019e-01 5.933609080456412332e-01 4.681783820776855842e-01 -4.823586388960260929e-01 2.090147821817566753e-01 -1.360294440313762065e-01 3.208898019020765546e-01 -1.316177365482932848e-01
4.252837482536381275e-01 1.933291513807044726e-01 -4.654729011178489473e-01 6.456371346699640856e-01 1.759414557315063798e-01 5.415634082221847806e-02 7.466013507844968533e-01 -1.668635685422750481e-01 4.135502074619693547e-01 2.844724495933413366e-01
3.123546512867806935e-01 -5.518541109246573040e-01 3.542668100317314939e-01 -2.379362401103944924e-01 2.911787179733057451e-01 -1.831765416688055648e-01 -4.577342843513657611e-01 -1.686085656426747070e-01 -2.003392896665549816e-01 -6.886573100791398838e-01
2.841632223436700317e-03 2.364910894541881123e-02 3.937136390061880820e-02 2.015611326794676528e-02 5.764520734107913755e-03 3.287460708847851631e-02 6.722683227137576240e-03 -3.566284593800536813e-03 3.190004303323561857e-02 3.270575043809539895e-02
-4.820700635734379014e-01 1.214105500916780322e-01 -6.072018016298367238e-01 -5.272259900582176861e-01 -1.114899237035163644e-02 2.335890548586244952e-01 -3.765064636950885002e-02 4.048700473713520154e-01 1.069580878134559626e-01 2.368207244213589024e-01
8.299521604749706682e-01 -5.337937070326985722e-01 -7.693932685064233112e-01 4.701992997245337258e-01 5.952912759608643967e-01 3.149017280431208876e-01 1.117141182413363965e-01 6.656109979918862773e-01 8.041915898940735774e-01 -4.410878625645076045e-01
2.359767072515243837e-03 4.308517909077097530e-02 -5.957599705639264887e-01 -4.800051183508426966e-01 -5.819223531951703832e-01 2.877221985163461171e-01 -3.663737796542669845e-01 6.662780485173962486e-01 6.804762728758986801e-02 1.302133009812423380e-02
-6.495484951027240272e-02 2.972620460912244744e-01 -1.510773703634931409e-01 5.509271956944843118e-02 1.820212374146157608e-01 -1.048531801446115908e-01 -2.598153853730016949e-01 1.949331248292365537e-01 1.894798758837002162e-01 8.358441669882468381e-03
9.399388925802755479e-03 -5.658895071720719538e-02 -2.647517674386171138e-01 3.906674533825145179e-01 -4.421093717345417340e-01 -2.882979981725992957e-02 2.020112167596756492e-01 1.765150296310643852e-01 -3.306822026938355807e-01 1.944890604451958716e-01
2.943490240375365996e-01 -9.834554530707048658e-02 -2.827079825791286027e-01 4.277873106066868436e-01 2.828620508369207864e-01 1.711007000778173026e-01 2.334190625311056144e-01 -8.793782551721912588e-02 -1.353334676856495222e-01 -2.207474982086108373e-01
6.846840814248549012e-02 4.652303608127000278e-01 -2.538530438494080443e-01 1.940309927160004666e-01 2.869498051431020325e-01 1.496428985636309161e-01 1.126786211145401340e-01 -9.710439970180929914e-02 2.732823965359779117e-01 -7.452465983802211702e-02
5.224401185763108968e-01 1.110686407162735506e-01 8.169149654182020770e-01 -8.844448247381162531e-01 -3.957144835417031881e-01 8.732357612243157874e-02 7.582924065137859326e-01 -7.727527415297201774e-01 -2.097359556651451351e-01 -8.091843478171764081e-01
-6.320321631980144739e-01 1.848503801891879517e-01 1.080406655471832962e-02 -6.667806855429672663e-02 3.387084139526138626e-01 -1.418913713222290374e-01 -6.909018876998574976e-01 4.717384525959193997e-01 -6.574639773722125158e-01 -6.154654727117996327e-01
1.406781013491330279e-02 -7.847297600497651904e-02 -1.781592697171411471e-02 2.660949214785449657e-01 -5.132933920815273554e-01 4.545662599606035137e-01 -2.206580494424922878e-01 -2.590778673502719745e-02 2.348401353380760725e-01 -1.175595755269775028e-01
1.712516526571049025e-01 -6.255786945577445080e-01 -8.112093428570862352e-01 -8.156553195061318207e-02 -3.102255036800868337e-01 -7.991957842023595937e-01 -6.676425353210840852e-01 -7.254459272245689094e-01 8.645350666975276654e-01 -5.170672771498138198e-01
3.739725618060545376e-01 4.801815947602180445e-01 -4.075959615820904519e-02 -2.713537287327704717e-01 4.430791301752126654e-01 -2.947660943816044488e-01 5.216935715819828179e-01 3.576732064940832956e-01 1.578264046542517118e-01 1.406853120112113720e-01
-3.206979363802578420e-01 2.856829858732674032e-01 -3.391598782910695137e-02 3.054620347197489413e-02 -6.942351226829382993e-01 -2.481796498426832864e-01 3.293162159131962641e-01 -6.589482282375456190e-01 3.898279531082048388e-01 1.439391570427271541e-03
-1.762785888548664137e-01 4.828985590906382241e-01 6.176738828854254626e-01 -6.242636347615378861e-02 -2.378882684011364712e-01 -5.460372804803873548e-01 -2.590715111140447502e-01 -4.188586530787767326e-01 5.281223866316127058e-01 3.699864602251166090e-01
-3.792347874749416037e-01 -5.506514702106929393e-01 8.699721322321946060e-01 6.490338055212957480e-01 5.146953122485455889e-01 -1.405500765934729612e-01 -6.803503027155596294e-01 -8.188674606537219014e-02 -5.836206164408264119e-01 -6.622691881348439225e-01
-6.668995536246438705e-02 -1.099384339135188182e-01 -6.956344533343687964e-01 3.359057210347670130e-01 -3.829898325280197691e-01 -5.933177105783669081e-01 8.043747038999660148e-01 -1.499004616588320293e-01 -1.331911661043012896e-01 3.505354129916579686e-01
-1.485572072521487152e-01 6.114022856712345577e-01 -4.921850921095807241e-01 -6.712906635449414905e-01 2.500392898248626206e-01 1.304385030416786440e-01 -4.070688653663932788e-02 2.471579274622622835e-01 3.155712464207602874e-01 2.563400349194739913e-01
3.141828535552044221e-01 6.437633018972812593e-01 -2.228073789749322187e-01 3.610763867002022010e-01 -6.376769931275438896e-01 -5.894305545726035156e-01 1.082121190276349176e-01 1.996321401358575054e-01 -1.133275095519968578e-01 -4.466713848364546324e-01
-3.267984302131114044e-02 3.134219684140202022e-01 3.545449181842102448e-01 3.149027952909366213e-01 5.192973356285162101e-01 -2.853887983012564078e-01 -3.729272361271571135e-01 -5.640480635400434151e-02 -5.665397350722569669e-01 -6.114510094724105727e-02
-3.545748912527835750e-01 5.961048779076032478e-01 2.698344229807433936e-01 4.353133478706446291e-01 4.132589159486630970e-01 -4.497601532742546149e-01 3.624999624509782081e-01 -2.721820954432157547e-01 7.221157080835471920e-01 -4.256529828139642424e-01
6.207261215661841885e-02 1.822370730692271512e-02 2.059126119386286632e-02 -1.572566221947830408e-03 -2.508252712705372461e-03 -7.807904455711343721e-03 1.034460238791049501e-02 9.864399639643160744e-02 -2.576430630216522844e-03 5.654881739588174180e-03
2.310420164190962744e-01 -2.461414891219971049e-02 3.349802576553608663e-02 -2.760521194592587824e-01 -4.113573510299213254e-01 -4.788885549857599226e-03 -9.495912236597393863e-02 1.889538308353843898e-01 -1.364203047315496464e-01 -4.145953667971674084e-01
3.851743159564244290e-01 -5.521280222701310247e-01 -2.882127370248643849e-01 -7.073211690768935744e-01 -6.904970320620285040e-02 -7.035731289133454469e-01 -2.025653644317715607e-01 -6.356342539277823889e-01 -2.209873544353914768e-02 2.990799898446730443e-01
1.673863038418384533e-02 -1.450294201600225708e-01 1.274550232969821201e-02 -4.976108490421964764e-02 1.502631976083617926e-01 5.073876377327561638e-02 8.345523753139913459e-02 1.407282105597583433e-01 -5.167442359857174483e-02 1.032262397205434973e-01
1.242448687713425676e-01 2.583446864462478065e-01 -4.927006352846067389e-02 8.330616660127630746e-02 -5.948383354504174075e-02 2.211881575236057107e-01 -3.537694578839017945e-01 2.126355638353254751e-01 6.680103372426342973e-03 7.602582087329792793e-02
-3.964328925151900940e-01 -4.432437895536818495e-02 5.846296634779308832e-01 -5.139971141396505044e-02 -2.564312675150928200e-01 7.205677712790027334e-01 -3.203662434370645462e-01 -5.310377435141695468e-01 -4.095750588418585192e-01 5.382198663838667629e-01
5.813163480106989800e-01 -7.827495968485356781e-02 -2.599938778608688605e-01 6.631719547574987939e-01 -2.621891695684130386e-01 2.538918407542185146e-02 -7.765117223723584372e-01 1.495025034150241627e-01 -5.358320694119961258e-01 7.427818203058705882e-01
2.687290817995253156e-01 1.919573171211275964e-01 3.309486978957117131e-03 1.290919585003300063e-01 -8.696395402183187961e-02 1.208456776494121546e-02 4.491970393744508516e-02 6.685167204587386114e-02 1.308899454574555810e-01 1.626795554796582888e-01
-5.193798984178528144e-01 -8.485148864960573301e-01 1.526106584408285505e-01 6.030664072376872298e-01 -2.737994804445093022e-01 5.905470500118223942e-01 -8.412572425063333803e-01 -6.926348430449558169e-02 -6.885160387314147590e-01 6.389765999085571524e-01
-2.003799878703612161e-02 3.945280506684527982e-02 1.182906322466771437e-01 -5.958317944515143481e-03 -1.256046676510884363e-01 -1.120624716190512793e-01 -1.602339785398429195e-01 4.125752943882712853e-02 -1.298802054065894551e-01 -9.163168746464363246e-02
2.048440755604321872e-01 -2.411823193646215058e-01 -4.430108173744334854e-01 -2.973800348972127638e-01 4.300547866845311762e-01 3.702237155061044449e-01 -2.040766975606126687e-01 -5.514751607987372628e-01 -5.253724952305818263e-01 5.036669768990484908e-01
2.934819078925799407e-01 -5.343634089194522208e-01 -2.542069617991452382e-02 -3.567418286414283934e-01 9.722415481398632986e-02 -3.087903806815534558e-01 -4.412962122579129343e-01 -6.895573382551466179e-02 1.023661348449178728e-02 1.879322087554751441e-01
-1.317433305815812472e-01 -3.270981460885597492e-01 -8.891929161383792246e-02 9.693346745506385698e-02 1.440277881009228156e-01 2.478910891881686007e-01 2.790825828278291620e-01 2.404602589200076357e-01 1.558699579879649355e-01 3.441518688157561845e-02
-8.596257069828372455e-01 4.480364626426154850e-01 8.942292813120127082e-02 7.371488032451117833e-01 -2.698913527206745488e-01 -3.187750179253380223e-01 -1.520609297058317377e-01 7.653065042895829118e-01 -5.115733251510492380e-02 1.411909698997146911e-01
-2.543244305373597025e-01 8.502220634003423982e-02 5.708960190680049118e-01 -4.069372231249037686e-01 2.017913006429584710e-01 8.139739089429800512e-01 1.967647528762052622e-01 -7.955394086431704856e-03 3.399438697302488155e-01 -4.181494946787319700e-01
1.063354442116086138e-02 1.690179632527424314e-01 -8.758962685650574509e-02 -2.073555542611683067e-01 2.354426658611347700e-01 -2.785433383630283033e-01 -6.261899506598751775e-02 1.983169441642770175e-02 -2.499675585072960379e-02 -1.807903406454617889e-01
6.721538936380462570e-02 -6.809305102120701003e-02 1.491054984338294476e-01 -9.928790573471218267e-03 -4.710003082332022556e-02 -6.728476226049298625e-02 -4.442548437565610464e-02 3.372595215146381026e-02 -1.882868694832453560e-01 7.148534878832474293e-02
-2.881133052168475817e-01 7.733890993582893669e-01 9.216632852226953609e-01 -6.243254406928530065e-01 -1.050724023362638454e-01 -2.729152422540404577e-01 -3.115307614093740241e-01 -2.181568853959891807e-01 6.846431400004739931e-01 -4.219568910553840313e-01
-3.429207524840980903e-01 -4.377378473045943075e-01 -4.470202843390196357e-01 2.767912255989483650e-01 -2.326053458733040868e-01 7.241396161975069967e-01 -2.134854329880971346e-01 -5.166100847287847797e-01 7.618602205834387742e-02 4.449431019859311776e-01
-5.079185293818281322e-01 4.422740313978729687e-01 5.398430321954710287e-01 -3.209421068947942435e-01 -1.574062932082202215e-01 3.168142603168398463e-01 -3.199729947261873431e-01 2.317823126988501348e-01 -5.811865773732869389e-01 -7.136225436101841790e-01
-2.419471554100004751e-01 -4.618289198224940217e-01 -6.388084363966598511e-01 -4.138756833149713765e-01 3.879987814712174132e-01 -5.487047476478684738e-01 5.104984632339981676e-02 -3.247816529113832784e-01 -3.740770044022447283e-01 1.562664305760578798e-01
1.907598953527707072e-02 -5.418192388688282402e-02 -2.652406754873797290e-01 1.927643538285749303e-01 2.274886098034653581e-02 -9.770933915281958260e-02 7.067471253422472066e-02 -3.311795714473716318e-02 1.164826743572193041e-01 -2.591318522922785861e-01
-2.729204795824153318e-01 1.654107940888084050e-01 1.983589431640006284e-01 -1.604417329981152052e-01 -5.935713896416655588e-01 5.673849344989784216e-01 -1.317576237251997795e-01 4.491745779096633084e-01 -1.810758577940572989e-01 -5.569947372648761386e-01
9.738419582496024574e-02 7.025114127340918724e-02 -9.642679350575215913e-03 1.482228954092758288e-01 1.398246456786180481e-01 7.983257756226226631e-02 6.052226814772164454e-02 -2.005115523951673737e-02 -4.942770337056761470e-02 1.713466216566228092e-02
-5.669110923999495233e-01 -2.828418404524000729e-01 -4.578898995560549690e-01 6.340547570879501160e-01 -4.810797870612625871e-01 7.001393194109449825e-01 -3.447428416475827873e-01 -4.663521231353577323e-01 4.831718445666539075e-01 5.614593819096578287e-01
-5.395516089829608397e-01 -7.970851797546184281e-02 3.623742980994323903e-01 -3.649263666600923578e-03 8.204352087232652524e-01 -2.674070198954997535e-01 -2.283513994642080436e-01 5.786847449318209824e-01 -2.558666893917369567e-01 4.236305079644279714e-01
-1.587049756926078026e-01 -8.016682141097798697e-02 8.435023638553261482e-02 2.697488899384934205e-02 -6.134180210102239961e-02 -4.190004416222081057e-02 8.784716646397913720e-02 3.938820276578946372e-03 2.692669632613558378e-02 5.939278369869985946e-02
-1.269977119500471929e-01 2.496248003693216921e-01 -8.481838567212596561e-03 1.100037017173443182e-01 2.243719352148270396e-01 4.698160338387811358e-02 -2.195518752776703664e-01 -1.605681026997552718e-01 -6.770947472129522360e-02 -1.230052706361797060e-01
9.557465352277468712e-03 -8.627975842403315387e-02 1.052544450739494389e-02 -1.935710447378678756e-01 1.254222594197008100e-01 1.109780476122213672e-01 -9.177056854587234414e-02 -3.151998249360764559e-01 -3.012985127141633579e-01 -6.079508424241749642e-01
5.297873896673380711e-01 -1.347572017129067545e-01 -5.355227444933137182e-01 -5.736691123857684538e-01 1.329406266487573041e-01 8.827048601993629784e-02 -5.321190952243372019e-01 -6.624753576637459895e-02 -6.388354496293107143e-01 5.219862825324771416e-01
4.645709011326313309e-01 -6.387783925428550669e-01 3.800717950630023156e-01 5.770519976269836704e-01 6.330656596962457305e-01 -3.033994271734674064e-01 4.036308683457524582e-01 1.673288497264079633e-01 -1.193209832148149629e-02 4.832648300417682341e-01
4.336155334861371835e-01 -4.551913967777321268e-01 -4.109860466180322303e-01 1.760234725384342280e-01 -1.407402356407816413e-01 -4.208594760820854042e-01 5.199302979943972725e-01 4.338936003719462975e-01 -1.304494011027257372e-01 1.152748237656310987e-01
2.060547855999955991e-01 7.933405083475393305e-01 5.071799427599750221e-01 5.996753663127369904e-01 7.216566281254879200e-01 -8.026231751103390932e-01 1.667192924806769894e-01 7.988975208509883075e-01 3.091558820246929074e-01 -8.717221503531974447e-01
3.150729024144532930e-01 -1.302265675328336814e-01 5.813054994974894973e-02 1.443749309571530914e-01 -2.112080895958387550e-01 4.276578991803188790e-01 -5.014275585684576514e-02 2.315009381615762141e-01 1.530960969121799575e-01 3.377150286735620677e-01
4.445640398233875468e-01 -5.619584842639671063e-01 5.685383701004077528e-01 -3.557491357880422922e-01 -1.855421463123467785e-01 -1.590996935419660419e-01 5.512990539322205619e-01 -4.565396931744856168e-01 3.297396451244429816e-01 -2.406534727660630257e-01
6.766833706523320835e-01 -2.550125589148635741e-01 -7.073955803498241934e-01 8.933187389332725159e-01 8.629246075009849859e-02 9.338416890951082294e-01 6.929483717993024650e-01 -2.708516345625456290e-01 -9.291772868685187203e-02 7.890131970314079313e-01
-2.187868531703292263e-01 4.366641186961921738e-03 4.881401672640559020e-02 -5.373381232584226730e-01 -4.387375975226505687e-01 -2.346485896920221248e-01 2.324650556333823503e-01 -4.143542459618764218e-01 -3.053217240990176440e-01 1.482024464062970670e-01
1.624506521867794158e-03 3.694479771516633732e-02 9.097035313077277488e-03 5.786364049264611925e-02 -3.345103332470493289e-03 5.091505057619249291e-02 -4.766295461019662803e-03 2.078069125908597881e-02 1.066494579052214807e-02 1.728146126669878602e-02
-1.214040417691637785e-01 -6.067968552493595569e-01 2.841550885468733800e-01 3.073320519543196183e-02 4.829711169070397547e-01 -4.570136250880600381e-01 2.402608761131257153e-01 -3.982882753149772914e-01 7.171300383641014964e-01 4.418618568129564217e-01
-4.839966466306074300e-01 6.648915996954876118e-01 -1.045684079018519563e-01 -1.663969967339802847e-01 4.637044163325135249e-01 5.163700394592541931e-01 2.630016111237831744e-01 4.641483676482020537e-01 -4.692828619916266653e-01 -3.984483583905487070e-01
-6.964267933244364106e-02 -4.493460247728732759e-01 6.471136061118565319e-02 -4.780311864646387410e-02 1.801916073128430884e-01 1.731175238852568354e-01 1.295278769057074952e-01 4.324700320583453883e-01 -3.053607292553153219e-01 3.525250141997041675e-01
-6.788101651132101289e-01 3.939527451949267900e-01 4.494082249023378939e-01 7.222564379248379574e-01 1.315946531297226552e-01 5.907411197438545702e-01 -1.917775543636827673e-01 -8.914571827621518840e-02 7.067859402825039661e-01 9.225550425272578681e-02
-1.496824961590144665e-01 6.267971691098217502e-01 -5.634760618616961869e-01 1.926477334031646560e-01 3.079330071867333318e-01 4.173292458702633767e-01 4.017771468137917856e-01 1.163198021111789132e-01 -4.273595836374180501e-02 -1.583659736991280820e-01
2.003531539066521344e-02 -1.291914873835310791e-02 2.003369765252429810e-02 4.203603295799867440e-02 6.050735056569417347e-02 4.005737247157609149e-02 3.023921140051136647e-03 4.055012609964431941e-02 1.072814457100990104e-02 3.271631881183696688e-02
-4.910180709297095047e-01 5.960231176959214228e-01 -4.898943809684197515e-01 -5.115518081302337580e-03 5.717689985848796175e-01 -7.484435162842790756e-01 -7.999910189940417915e-01 2.632168468070832379e-01 -3.391925641899588006e-01 -7.035652323200737301e-01
-2.266015984288888840e-01 -1.983627608682750620e-01 8.855769545290902156e-02 1.431972624985513032e-01 1.565085263043524688e-01 -4.410324765163350924e-01 1.184979746026046665e-01 5.924198553163881886e-01 2.234656850369449166e-01 -8.611095714950338376e-02
-5.444567108305912173e-01 1.980734420686285635e-01 -8.126085116087659044e-01 -3.339247086845818502e-01 -6.751600885363283622e-01 7.821109458514162449e-02 -8.328571587818538458e-01 -5.076880717535328102e-01 7.984772117525180679e-01 6.888162644323794215e-01
5.247121380042325811e-02 5.976130243826986710e-02 8.497229301827273484e-02 -1.395981171636061224e-01 3.850502976977099312e-02 -5.882531633659519865e-02 -3.103307838620498679e-02 -3.574862361314651293e-02 7.342241021178810660e-03 -3.227652422426126756e-03
7.849246436390439063e-02 -2.105084078729698438e-01 2.958929471502009800e-01 4.351092224639053763e-01 -4.883803563963095007e-01 1.774423202579591685e-01 2.361306776551087283e-01 3.811155716546022615e-02 -5.033098023246231900e-01 -5.688353865652387986e-01
3.156524264652814105e-01 -1.696565302223002059e-01 3.106824843686988857e-01 -3.560497681049601404e-02 -2.546244709316283772e-01 -3.073745053246597636e-01 2.258081227715420247e-01 -3.682882435284114409e-01 -1.770527920594816562e-01 3.916019610068326440e-01
6.965872712037651793e-01 -4.810327374240602749e-01 4.773443008067693172e-01 8.239057090557516672e-01 6.139985914763060881e-01 -3.263268921413046975e-02 5.269009683399075161e-01 6.939089747909897854e-01 5.927823123147315520e-01 1.056292423982883311e-01
9.178495166413266904e-02 1.175969652177028951e-01 4.607541235015703007e-01 -1.465745045162274718e-01 1.912847040311869973e-01 -1.996900222750809806e-01 8.936252300577396390e-02 2.696341338903068263e-01 -3.764317634288248948e-01 -3.605516143826205111e-01
-3.611771442910398644e-01 1.336459183579903065e-01 3.871388443433934623e-01 -5.840634629018187640e-01 5.732677933577879914e-01 -1.276159405117991419e-01 7.245130495474111365e-01 -5.632275129712288608e-01 7.528213875332206984e-02 -4.114056673853161428e-02
1.632288907339178030e-01 -2.339722036868680521e-01 -4.400168937881612785e-01 1.576938628934981823e-02 4.893268001455781252e-02 -1.674111310779714812e-02 4.014464860064513863e-01 4.274566333694121978e-01 -3.507328837876383387e-02 -5.572836703817533044e-01
3.086579857331298027e-01 -6.212397463464593983e-01 -4.825548033476100840e-01 2.962601590014365613e-02 1.586171105777620660e-01 2.954605822902446888e-01 -2.649326727433727324e-01 2.038798864983263071e-01 -2.771995349447949897e-01 -4.066316347445740886e-01
-3.909164665046770820e-02 3.751076967731309941e-01 3.280838342355014703e-01 1.906339278289714556e-01 -6.577326677898302776e-02 2.242527548129447379e-01 -3.323846701019245176e-01 1.888617326230293547e-01 -1.682239574392601061e-03 -4.357437354827398690e-01
2.527931939369931769e-01 -1.879511454257821179e-01 -1.600301362240578451e-01 4.552914537523489735e-01 3.904609267446718102e-01 4.629370352011061285e-01 7.000081320154263320e-01 -9.163367679465220239e-02 -3.000844169570952569e-01 3.381363171149788793e-01
-5.187028108373591406e-01 -2.284653159701157399e-01 -5.292674008403092795e-02 -2.050261559894936414e-02 2.659532690690655787e-01 -2.699045738585155174e-01 1.045729756524235721e-02 -1.888279741471992068e-01 -2.887457710826242252e-01 2.444372914515095252e-01
-2.002838069144358690e-01 -1.168090960127111388e-01 -3.118311589956196950e-01 3.615813881523511353e-01 1.998206958080916973e-01 3.879270415604477162e-01 -1.937819035147193836e-01 2.738342120487179815e-02 -1.539828896810132262e-02 -2.751332357611266724e-02
2.254211902096643350e-01 2.400536604939682572e-01 1.814148966331126100e-01 -2.211255048036348536e-01 -3.747053829476699183e-01 -2.483501575827734287e-01 2.228877953023705727e-01 -3.316523582508544843e-01 3.656177992799151677e-01 6.837992043550204790e-02
-3.837265696396768779e-04 5.336738269903547049e-01 -4.417339770647332187e-01 4.761374747976251931e-01 6.483039768085078203e-01 1.775238095239757008e-01 3.206906695739221713e-01 2.759082124328262609e-01 -4.697363545973103904e-01 -6.473741882896366651e-01
2.967268691945584291e-01 -3.898760349804033520e-01 -4.292933686674316185e-01 -2.436456961329419857e-01 4.956518088215399742e-01 -6.669706572516655163e-02 2.224089711779438094e-02 5.429314876677473478e-01 2.748217750272587412e-01 -2.603170092422207316e-01
-7.512355103209621132e-02 3.025172358282877672e-01 -2.551947299525149093e-01 1.809880596501729222e-01 -5.168763190373873995e-01 -1.673281310677776912e-01 3.092784045206213861e-01 -2.758544182756246799e-01 6.751694417852326380e-01 4.578326632473940783e-01
-5.254372568125840331e-02 1.070294171422940532e-01 2.613878744069176863e-01 2.296819033316823133e-01 7.769148966327339700e-02 4.131606837386526676e-01 1.863204032395681109e-01 -9.653539019484864980e-02 1.021582408152255095e-01 2.951234605599400984e-01
