6.304944047121009421e-01 -8.012075418239544833e-01 -1.148118338855979581e-01 -6.209230625731397835e-01 3.239133597119496222e-01 -4.555442510368488684e-01 3.504982204932395873e-01 5.932748717422303697e-01 8.032887384809694886e-01 7.094090759937664581e-01
1.499601171787909026e-01 1.205869979693770799e-01 -3.898344538417835570e-01 4.033497168642677377e-01 3.974303275690871384e-01 -1.098980737621313292e-01 -2.518573237630031270e-01 -4.319465600676252182e-01 5.172350420297407991e-01 -2.685355009449454933e-01
2.813206120184878478e-01 4.429958134716809326e-01 -2.034504608200325346e-02 6.594050095014402091e-01 -5.710206905379693332e-01 -2.947984459129234791e-01 5.591207075863300346e-01 2.479339287996127628e-01 6.821375867413953520e-01 -2.662586580167242145e-01
1.472517105204734500e-01 -2.633104267857102054e-01 -8.129343965151229756e-02 -9.245706918242757588e-02 -2.095765067624615896e-01 -2.449439467187558561e-01 2.945154160861394588e-01 -2.584701521603607888e-01 2.071480693173419763e-01 -1.285650277851221879e-01
-4.977195189268424514e-04 -4.462446283007836037e-03 5.291417784595624924e-02 -1.949134448559347241e-02 7.112648356527963289e-02 5.023641487226945118e-03 1.940410390697610080e-02 5.520124147565953765e-02 -3.459421668514531777e-03 2.295016280857385335e-02
-4.456322551859599468e-01 -7.477707362754598686e-01 -4.072096302298940790e-02 -7.937908969643889812e-01 7.019204831814267465e-01 -6.937412226996495512e-01 5.532535289913944609e-01 7.115654021132408191e-01 6.746821296503396903e-01 2.297780731887811012e-01
-7.767671545837163093e-03 1.354634287105074275e-01 4.308877634248960836e-02 2.911339891590124414e-03 -1.275399747259448914e-02 1.289147131376279509e-02 4.729868110105171081e-02 -8.298695384626148886e-04 4.108721552085364132e-02 -6.491029230907176782e-03
-5.357988348066217155e-01 6.819286016930568017e-01 7.733133117220197805e-02 6.873752204880145822e-01 2.268685976875604859e-01 -3.249203930144101693e-01 -3.844317324990301765e-01 3.210373521297827937e-01 -6.057341746113079628e-01 5.613763707408695458e-01
-6.859902811767693009e-02 5.913761554726345571e-01 5.522128733970544934e-01 -5.614306343018949930e-01 -2.796814218476925129e-01 3.699168257557652328e-01 -4.231693290341860814e-01 7.189052866628180549e-01 5.175688434092592383e-01 -1.893875943731337663e-01
1.393324251868207318e-03 -4.416249558086742313e-03 -3.704315196070161968e-03 1.815497178882454279e-02 4.851875651555911939e-02 1.822658833023422381e-02 8.608280985407024480e-03 3.027841412646668090e-02 1.775428610640683927e-02 2.527118062287984218e-02
-3.457710782433499191e-02 6.877537446396460308e-02 1.028179784770133359e-01 -1.352054038203057140e-01 2.630939287896205125e-01 -1.114297778654036938e-02 -3.828237904821735205e-02 -2.540768298283798202e-02 3.073346888163144830e-02 5.339869639125748024e-02
3.426241990056862474e-01 -3.191527101138783018e-01 5.931645676582953941e-01 1.865915007460011155e-01 -3.494555782710060537e-02 -2.091892258938285176e-01 5.407533839105653772e-01 5.065981385902249556e-01 -4.536629458341570609e-01 4.089941410452365145e-01
-4.277272421033387340e-01 -4.243894077556654987e-02 4.494957070004392818e-01 5.889060326230846076e-01 4.665044983699709324e-01 -4.754284715331758560e-01 2.078513377033944509e-01 -1.354059322834028356e-01 3.187048872971138258e-01 -1.309342545648608525e-01
4.226307331254479105e-01 1.958468568871563342e-01 -4.645471406714730689e-01 6.428974761473554844e-01 1.744637102299999576e-01 5.453199101811372074e-02 7.443939247584669960e-01 -1.658502152303706068e-01 4.120782957143580560e-01 2.856366962251134511e-01
3.118174103995259294e-01 -5.509010513198829839e-01 3.548713141984129460e-01 -2.375283343933148883e-01 2.907161813047281496e-01 -1.826256473045925199e-01 -4.567624279953833577e-01 -1.678479558702943575e-01 -2.003060302227422651e-01 -6.874502020298002281e-01
-2.909386603591771533e-03 8.457422025363127427e-03 4.313765663384687421e-02 7.415562038640091669e-03 4.169808278229584012e-03 3.729627721370838700e-02 6.990217042147265671e-03 -5.498225665964759715e-03 1.989260593080751163e-02 2.209063097547216137e-02
-4.570591362107634947e-01 1.119822810092226117e-01 -5.904587608065132720e-01 -5.095620125291215885e-01 -1.177610582955468908e-02 2.220507787644375453e-01 -3.658372043340798324e-02 3.889722260136413423e-01 1.068706759103746767e-01 2.454905239961523711e-01
8.298544411360370132e-01 -5.337435093389397700e-01 -7.693522605031185568e-01 4.701742634301416812e-01 5.955650095749842610e-01 3.148970025353464153e-01 1.116657514280964131e-01 6.656236344824661977e-01 8.042268957833578202e-01 -4.411287000866225272e-01
2.044911153713462482e-03 4.273874729436807213e-02 -5.937665986175882926e-01 -4.787756604917931536e-01 -5.804542454615023717e-01 2.868726162291173609e-01 -3.654767851634593279e-01 6.666786118937816363e-01 6.771644993242541266e-02 1.294480021271029666e-02
-5.565126774878843829e-02 2.837049244084076105e-01 -1.468529746646621559e-01 5.114842017061416168e-02 1.744875969124061177e-01 -1.018752623715439704e-01 -2.486110945727198485e-01 1.855002030648759681e-01 1.759057495204518484e-01 7.667586939845981962e-03
5.624081678219833118e-03 -5.566864856558625257e-02 -2.589742292461354456e-01 3.851890537794155356e-01 -4.339716039053527208e-01 -2.790218913896168676e-02 1.940025994369692086e-01 1.770525670597807022e-01 -3.252878249256886956e-01 1.911017645643549034e-01
2.894735336446443430e-01 -9.615431353244728585e-02 -2.682354125996758709e-01 4.198264075249769633e-01 2.773274346026299852e-01 1.696722463317343332e-01 2.249463509008968465e-01 -8.721419154478605995e-02 -1.319845748887365222e-01 -2.178739733519174937e-01
6.597011072212541349e-02 4.542341905988265260e-01 -2.448348131519446080e-01 1.885358371916288911e-01 2.786264137341278313e-01 1.449424892495130568e-01 1.102883649028953833e-01 -8.688999223910154335e-02 2.662837817123949180e-01 -7.373372509467182589e-02
5.223546657492245116e-01 1.112022475929027726e-01 8.167893915963462259e-01 -8.843583895091524649e-01 -3.957136596344697499e-01 8.727179018548116007e-02 7.581829981233461080e-01 -7.726884394166976255e-01 -2.096660326600227886e-01 -8.086916908814812954e-01
-6.290607934022696135e-01 1.834639766037612085e-01 1.058862943820386600e-02 -6.585601715983104010e-02 3.377028019536173487e-01 -1.402309543450233620e-01 -6.861945362667511983e-01 4.687969250591734749e-01 -6.548768459377188877e-01 -6.101346540845654642e-01
1.374263104203195945e-02 -7.401324151403927687e-02 -1.762496358733358845e-02 2.634173906156363487e-01 -5.103809306806165180e-01 4.514253457445628337e-01 -2.189583269927518339e-01 -2.631686849442764486e-02 2.328633348941032688e-01 -1.174250807038971778e-01
1.711554874857575126e-01 -6.255626489093912834e-01 -8.107754054415136080e-01 -8.161342544294641899e-02 -3.101895944835400543e-01 -7.991464564130301707e-01 -6.675584216946340854e-01 -7.254347248103647505e-01 8.643561376270053609e-01 -5.170795183106621229e-01
3.720583588418689969e-01 4.777396866218655558e-01 -4.075472922114473096e-02 -2.701344814227472080e-01 4.411200685442779879e-01 -2.899951514372743899e-01 5.191896851132783430e-01 3.559655246303104481e-01 1.569504631190374033e-01 1.398275669264612553e-01
-3.202313940899871869e-01 2.862934413261183364e-01 -3.440654578880241593e-02 3.098877662010470976e-02 -6.932664529307485113e-01 -2.462199559860566156e-01 3.290691182690356764e-01 -6.572777119640178523e-01 3.891043570482414782e-01 1.457481438298978112e-03
-1.747560001816028941e-01 4.812852240100661261e-01 6.167096464395299682e-01 -6.376856039227007944e-02 -2.346460146648361444e-01 -5.447722030624198020e-01 -2.581734929153843838e-01 -4.175066822731464677e-01 5.248722951043856000e-01 3.679965267858010258e-01
-3.793651244332234551e-01 -5.472383481315781228e-01 8.695239064529702855e-01 6.490495250612867695e-01 5.131309506843252377e-01 -1.406861689888516953e-01 -6.788669461166693120e-01 -8.237044148258382270e-02 -5.816606423422692185e-01 -6.624510506695556744e-01
-6.638366453126146038e-02 -1.100086689609704321e-01 -6.950135157977500588e-01 3.352540520410583480e-01 -3.820926454541017092e-01 -5.904894946707779368e-01 8.030741004303283415e-01 -1.496689628187381771e-01 -1.326491576009892759e-01 3.506329560610703111e-01
-1.486595051556201807e-01 6.100342836152459203e-01 -4.907468227600181310e-01 -6.713549652924248878e-01 2.525926649424813930e-01 1.313289469533876208e-01 -4.199830997691712114e-02 2.481988775163448679e-01 3.151936788349968266e-01 2.538147626547070934e-01
3.128862475343391902e-01 6.411292673884593230e-01 -2.224343472075825667e-01 3.585195454791972880e-01 -6.316707140139747878e-01 -5.864326771905971070e-01 1.081453167891862216e-01 1.977835203476029091e-01 -1.140003035581390739e-01 -4.448972929786588759e-01
-3.319811133364779926e-02 3.139823887164846505e-01 3.535327696073545800e-01 3.144666322954166593e-01 5.187490290496789003e-01 -2.833762486325246965e-01 -3.718690266182956283e-01 -5.522019503140498942e-02 -5.658327505889619857e-01 -6.130705065602228693e-02
-3.527738316766145799e-01 5.943940203068720507e-01 2.729036046534157323e-01 4.343178102193916978e-01 4.089649687213983142e-01 -4.513045608313972501e-01 3.609797512544220544e-01 -2.699548955241620196e-01 7.218534912851954921e-01 -4.227728945675779393e-01
6.624578126128950750e-02 1.259517504504507023e-02 3.146467145825117967e-02 -5.577499790643013385e-03 -3.474224726546335830e-03 -6.925670040768013187e-03 8.421832767103204498e-03 1.064354976877847775e-01 -2.956380516411528329e-03 1.462147274903784731e-02
2.147993608835705448e-01 -1.695676457875252424e-02 2.217604957908662217e-02 -2.590572661005904331e-01 -3.857611615013447071e-01 -1.131884605646050167e-02 -9.647341026111783124e-02 1.737365987161344216e-01 -1.318704465590918862e-01 -3.990290033762616262e-01
3.845422838518212649e-01 -5.511272252555114992e-01 -2.878039034314143207e-01 -7.058306159631136945e-01 -6.896712577909153152e-02 -7.016975710451245352e-01 -2.020311507874283652e-01 -6.342043319443102511e-01 -2.176464705032047503e-02 3.011703519918655925e-01
1.637321582613189205e-02 -1.288565552868859987e-01 9.218184784969617879e-03 -3.632347174081114460e-02 1.609202478969072869e-01 3.585024256610210014e-02 7.890063217485232538e-02 1.129648835359860909e-01 -4.254385385514452417e-02 1.028223324167905905e-01
1.232914969156092277e-01 2.555992134622076528e-01 -4.597690206033162169e-02 8.617914239664353770e-02 -5.554538901157764913e-02 2.107006711144041311e-01 -3.402257250832620428e-01 2.077029119293256343e-01 3.632048766080287015e-03 7.593727324964306968e-02
-3.943102156200301578e-01 -4.484585297519825403e-02 5.835628785322366507e-01 -5.124692251531833692e-02 -2.567125462292603189e-01 7.175900161379673570e-01 -3.183361100398255372e-01 -5.299692543002626488e-01 -4.084638692010776895e-01 5.385652122379358531e-01
5.809149169197473928e-01 -7.729221435281447006e-02 -2.598119870325394931e-01 6.625444156576103527e-01 -2.619866270952341814e-01 2.560421759921098495e-02 -7.760232631108737733e-01 1.497342283493714177e-01 -5.356545697122182537e-01 7.423353410001696240e-01
2.654060427836510971e-01 1.877767608194513271e-01 3.421129175550296272e-03 1.251416459850120400e-01 -8.458937397790092239e-02 2.279880801722506192e-02 4.274280460712025914e-02 6.536209755223031104e-02 1.288784676951159891e-01 1.564998349502953745e-01
-5.192797777645773438e-01 -8.480431346108763258e-01 1.530164745434931528e-01 6.031204415507770422e-01 -2.744095746323599316e-01 5.901619256778518618e-01 -8.409214650364489341e-01 -6.912698474845509200e-02 -6.881932193190981595e-01 6.393606851872946084e-01
-1.861586949894309881e-02 3.919530243324401142e-02 1.029253736637606997e-01 -1.232673275405825331e-02 -1.039432512050451896e-01 -9.239482180049898852e-02 -1.404146548161583352e-01 5.303804317984613798e-02 -1.142600580720964931e-01 -7.932932973900494455e-02
2.037347260495942503e-01 -2.405665009460359327e-01 -4.426267540479417173e-01 -2.967138542792996936e-01 4.294696269484924445e-01 3.699462505850603655e-01 -2.048400372728237662e-01 -5.486678044074143612e-01 -5.240354936591902213e-01 5.014977259859390024e-01
2.905261528421879680e-01 -5.298185364695717769e-01 -2.426222993798041183e-02 -3.534677377277672394e-01 9.707553485620219746e-02 -3.057582997588918494e-01 -4.342121504326991177e-01 -6.819797187541755401e-02 1.068203723436324248e-02 1.857607860285501733e-01
-1.278416362863504241e-01 -3.202734575985457521e-01 -8.712420969444220620e-02 9.115175643722231436e-02 1.477332768951867270e-01 2.427369999670457856e-01 2.720382688079518996e-01 2.327026768464575124e-01 1.495067122275396954e-01 4.027656230304427903e-02
-8.588693532855855572e-01 4.485040655922721831e-01 8.931880526762076000e-02 7.369603400937156934e-01 -2.696558992328437765e-01 -3.185055245561490000e-01 -1.519437243486035649e-01 7.646144206374770880e-01 -5.113453868470932417e-02 1.410577244100831851e-01
-2.520421494121909411e-01 8.474967065838476254e-02 5.694029680661246706e-01 -4.058069626617057390e-01 2.011026662457961189e-01 8.119547127157364930e-01 1.963786404658500462e-01 -7.834014412281714232e-03 3.390218575675708057e-01 -4.172403914272743708e-01
1.258992654299926316e-02 1.603168894383718290e-01 -7.586275167521158713e-02 -1.953754609026953637e-01 2.165218345651414023e-01 -2.652624014758172000e-01 -4.217320301477572864e-02 1.687107914423971802e-02 -2.398336646945404410e-02 -1.668666590729529775e-01
7.463766715074640623e-02 -5.036914722723988963e-02 1.524888313833002995e-01 -8.526173253143753961e-03 -4.427355271169559209e-02 -6.424048049792763226e-02 -3.770848488875886556e-02 3.225341759188782992e-02 -1.737957876891917663e-01 6.506755724778980066e-02
-2.865958691379877354e-01 7.705040718753779494e-01 9.185115946082704763e-01 -6.233689122948595784e-01 -1.046652394477478321e-01 -2.690968570428123874e-01 -3.110012757052746935e-01 -2.188258295406977083e-01 6.840387799725770046e-01 -4.178676743428882401e-01
-3.416183399117080355e-01 -4.373227259012923973e-01 -4.459574569074358230e-01 2.764457263856210933e-01 -2.324927925338012569e-01 7.243931433011864263e-01 -2.120385921306449650e-01 -5.159758281963536808e-01 7.630798893146226169e-02 4.434538278163908664e-01
-5.078035275537511328e-01 4.421783957401065890e-01 5.397229392838609474e-01 -3.209189961628569621e-01 -1.572234198113481862e-01 3.170232594275202986e-01 -3.199468821649838479e-01 2.316764243519851274e-01 -5.810769582153003654e-01 -7.131016746757774527e-01
-2.393586529143216513e-01 -4.590454482748321796e-01 -6.348354099566088093e-01 -4.090943654708794619e-01 3.862665107934319941e-01 -5.459538314376859436e-01 5.057296372691454794e-02 -3.231784210501203458e-01 -3.719366991974425996e-01 1.541030654950660550e-01
2.954900996252808262e-02 -5.140967930806945863e-02 -2.574535997218363459e-01 1.877782994528469362e-01 2.384503043207386597e-02 -9.527409533029414235e-02 6.856635836654054184e-02 -2.788513489714448262e-02 1.108362009313308416e-01 -2.506516343293183624e-01
-2.658343653900805403e-01 1.639207483878447058e-01 2.011586840600909365e-01 -1.533324436107346145e-01 -5.898407787674871949e-01 5.657191331202900964e-01 -1.316724286158919011e-01 4.434878231991044029e-01 -1.811852032736658014e-01 -5.557748391436491131e-01
1.000485802960085907e-01 5.730005966052044430e-02 -3.844182362255715250e-03 1.331692852019352724e-01 1.275185621567277161e-01 6.402254879467450532e-02 5.410042784545764788e-02 -1.538178750242808271e-02 -3.837634293160239324e-02 2.804767978117387803e-02
-5.666833072199588539e-01 -2.825623321450561054e-01 -4.578988598810637689e-01 6.334020614682426276e-01 -4.813452624630180643e-01 6.986593063190578157e-01 -3.442285740843488151e-01 -4.647082278954679513e-01 4.835501662568111869e-01 5.619544371486667744e-01
-5.396236512852586875e-01 -7.964310421205499091e-02 3.623150788941620348e-01 -3.801023382174703504e-03 8.203364032315771937e-01 -2.674943272606989386e-01 -2.280243293797491744e-01 5.784801548588591746e-01 -2.557705474446707594e-01 4.233562466706060623e-01
-1.414012804202266771e-01 -7.271934934757638691e-02 7.713146959569128214e-02 3.026460043824609480e-02 -4.826019497661813984e-02 -3.322355791459904312e-02 7.712699794134687814e-02 2.068316067264758598e-03 2.345005039679311579e-02 6.953685720292651640e-02
-1.216152458293465743e-01 2.495772837406089739e-01 -8.840437717576045060e-03 1.022996332899099303e-01 2.158454721541982757e-01 4.284998697239698895e-02 -2.068250428485290116e-01 -1.552952562757815569e-01 -6.471708863789411847e-02 -1.152503395318377477e-01
1.435322162416562998e-02 -8.676487262087557994e-02 1.307985356538466856e-02 -1.910561613679138127e-01 1.201341746665514354e-01 1.042971511210363939e-01 -8.867420751129870271e-02 -3.023267265847115470e-01 -2.961518563558229178e-01 -5.943074496826811215e-01
5.279996437081263538e-01 -1.302245292702819413e-01 -5.346658453268890998e-01 -5.717795906349731894e-01 1.311066701829489145e-01 8.826827439661902308e-02 -5.276863729677272463e-01 -6.628788939474837549e-02 -6.354298899994512695e-01 5.203588995096632974e-01
4.642559791753011478e-01 -6.386469936318780460e-01 3.797205290855897308e-01 5.762572598106928679e-01 6.325135362411080653e-01 -3.033127454064217243e-01 4.031738199245843979e-01 1.679429605469687226e-01 -1.171523147229656427e-02 4.834127922762113116e-01
4.308647709266659187e-01 -4.533895906489228134e-01 -4.056613274844407258e-01 1.736935945318894003e-01 -1.407860481008467168e-01 -4.196905179992307944e-01 5.162078174260738006e-01 4.320045406652090469e-01 -1.297061831053241687e-01 1.146343211547343893e-01
2.085453473375852851e-01 7.922874814062295101e-01 5.081072226623218890e-01 6.006535677135966811e-01 7.217994029467273975e-01 -8.032440322166527480e-01 1.670003572043108619e-01 7.965977572537971119e-01 3.092536950054737832e-01 -8.712085820586268348e-01
3.128016412414661440e-01 -1.279924517657430039e-01 5.838722495010462837e-02 1.429375028191704755e-01 -2.079737256323588579e-01 4.196949574137109340e-01 -4.710298619183921065e-02 2.303737991306077648e-01 1.511328418973627297e-01 3.403160276451100974e-01
4.413735553008234502e-01 -5.564227026951173993e-01 5.643938010909389513e-01 -3.565908246251585645e-01 -1.840646181375374113e-01 -1.575608304101500101e-01 5.519571255335039561e-01 -4.516496762792028830e-01 3.283664357912788878e-01 -2.401983632368553667e-01
6.766685979615101321e-01 -2.550229199290424131e-01 -7.074193983478255232e-01 8.932947882979290766e-01 8.627737301597175612e-02 9.339122728006075125e-01 6.929605245701790928e-01 -2.708309873468981444e-01 -9.291779531159705119e-02 7.890460011408675367e-01
-2.187014231200056502e-01 4.951453201268237944e-03 5.233244531398632132e-02 -5.356763048860428977e-01 -4.369003218413222700e-01 -2.346302319883497578e-01 2.291638640401011950e-01 -4.129489223459671399e-01 -3.034400700788676408e-01 1.482934245999290301e-01
9.106149607491646411e-03 3.166356993085084337e-02 4.826956170232982526e-03 6.334195897209335402e-02 -7.045850025824439145e-03 5.602356949777918815e-02 1.505184971028374801e-03 2.996785884275708287e-02 4.382757747983628306e-03 1.413016045070927991e-02
-1.231789766126942243e-01 -6.047834203634232519e-01 2.810756860244846833e-01 3.189058346701736935e-02 4.855349284399591570e-01 -4.565105265262221490e-01 2.413497380880479382e-01 -3.978720631062125923e-01 7.165882963912231229e-01 4.421179030270127597e-01
-4.832073629165259954e-01 6.654272946582189263e-01 -1.046648414201572647e-01 -1.658516965098247309e-01 4.615629480503933846e-01 5.156890660741842991e-01 2.643981750456058655e-01 4.631813376799300275e-01 -4.676995312340852529e-01 -3.976097422999712028e-01
-6.904096529957967632e-02 -4.420118710120449212e-01 6.316935028447284717e-02 -5.134015070785511586e-02 1.758131514685174479e-01 1.718919965773980374e-01 1.244841264350269733e-01 4.252141396579545707e-01 -2.981574400162625427e-01 3.468528643804322797e-01
-6.786101297591454751e-01 3.946160216231450746e-01 4.489989223193820989e-01 7.218922545347864483e-01 1.312756038110817480e-01 5.903602696882546130e-01 -1.916504840952922839e-01 -8.889420553808211056e-02 7.066556890164498173e-01 9.204056446663151647e-02
-1.494862060901358536e-01 6.258600863843017947e-01 -5.627996926790371779e-01 1.922868695257122229e-01 3.076066827759681988e-01 4.187733483277503166e-01 4.012600742586281966e-01 1.160383254990073193e-01 -4.274305817325865092e-02 -1.582309961280036203e-01
1.959403028690676757e-02 -1.584558255476844341e-02 1.449574132977390212e-02 4.346909302537197567e-02 5.680826943065069717e-02 3.709896861428937237e-02 7.936531059376781411e-03 4.620513716406052934e-02 1.340891118327882693e-02 3.541924373626145761e-02
-4.908749589388345380e-01 5.967697449391455855e-01 -4.897699090151493295e-01 -5.217428877823864462e-03 5.718065774396152712e-01 -7.479254860210028388e-01 -7.995205260163087413e-01 2.628276509767478175e-01 -3.389420069673097502e-01 -7.031868968171643974e-01
-2.234556194929127326e-01 -1.910187036521507065e-01 8.686829695189944578e-02 1.408216769543334246e-01 1.532191113185018272e-01 -4.346203644731932436e-01 1.169127890693572730e-01 5.859973970579066549e-01 2.192507304352111219e-01 -8.488210134993007250e-02
-5.442702539516787175e-01 1.978531652282058406e-01 -8.121130777620941821e-01 -3.338323573151946722e-01 -6.751526477428083650e-01 7.814341197841817577e-02 -8.328156078592321432e-01 -5.074698991063959497e-01 7.987234375610408055e-01 6.884758943684315957e-01
5.129214505386792133e-02 5.280981964274002183e-02 8.912141375181427405e-02 -1.213049746630235348e-01 3.255437932412505453e-02 -4.762601501397444037e-02 -2.141663429582272085e-02 -2.045526711011534660e-02 5.208150201547357729e-03 -3.848357320684559803e-03
7.812174564610960270e-02 -2.096729303660700705e-01 2.946017494999154662e-01 4.345608693343923634e-01 -4.865694792229610099e-01 1.793291230122385504e-01 2.343963019285424387e-01 3.769662759445342737e-02 -5.010161445569515370e-01 -5.660418649134110192e-01
3.036036019271266539e-01 -1.572495530178354972e-01 2.970796162448249289e-01 -3.383321488317148074e-02 -2.455616273334911559e-01 -2.975392360657246882e-01 2.221894645729823037e-01 -3.500917930096850150e-01 -1.721708405827868382e-01 3.766661269381730293e-01
6.965844091681712147e-01 -4.808707136288326578e-01 4.771034027572272906e-01 8.242339969002502320e-01 6.137069066908716897e-01 -3.273438543845254983e-02 5.269426419429160680e-01 6.937917440173099193e-01 5.926221822365006497e-01 1.055081709161977688e-01
9.213887376237268889e-02 1.169499632289056484e-01 4.631524500478460538e-01 -1.457680017323985944e-01 1.901943323394084395e-01 -1.987179147627832487e-01 8.911978411974545711e-02 2.681563642240171741e-01 -3.752262692199173633e-01 -3.591457072704133946e-01
-3.594777338279433465e-01 1.338386375710766130e-01 3.862978650894530186e-01 -5.831546766266421100e-01 5.722397814775682656e-01 -1.264209731551156624e-01 7.231723903310974810e-01 -5.622721254211958675e-01 7.512855814336580340e-02 -4.119816248777483092e-02
1.639142458019008097e-01 -2.319311247194227876e-01 -4.387820710174832883e-01 1.581301910842468697e-02 4.982306519966576280e-02 -1.572471986428537402e-02 4.007285278649044269e-01 4.228504005900154961e-01 -3.383486360615949040e-02 -5.509140556480094375e-01
3.076629813718617101e-01 -6.193750592365334651e-01 -4.803634527038386781e-01 2.945412890429741776e-02 1.573234238419835007e-01 2.945223339777957583e-01 -2.647899715499163475e-01 2.028095211634403094e-01 -2.744149091562869125e-01 -4.057793980924309096e-01
-3.842197777972188727e-02 3.733023491341432298e-01 3.253555614207382374e-01 1.883713667828740279e-01 -6.454291839546573428e-02 2.236057981577387055e-01 -3.296530978929549383e-01 1.880993728487211358e-01 -1.159140862953334352e-03 -4.295274671340094663e-01
2.519197142596580341e-01 -1.878799162055039274e-01 -1.589081471245882282e-01 4.536926586887784496e-01 3.894030539332074548e-01 4.632675970040659452e-01 6.976063008392791032e-01 -9.167515167724976655e-02 -2.973949660416048135e-01 3.378193032593675982e-01
-5.163409590029873764e-01 -2.257397095224311367e-01 -5.240309730417506973e-02 -1.807675026599668902e-02 2.637708096978504391e-01 -2.642744765499902004e-01 9.504224077871699025e-03 -1.869891240529661103e-01 -2.880619790748269460e-01 2.424642864272062159e-01
-1.920895966403077526e-01 -1.066600153376089100e-01 -2.979820477932152434e-01 3.378635927253967330e-01 1.914398447976291551e-01 3.736809712434692177e-01 -1.749292853861000585e-01 3.644990257415612472e-02 -1.495076415684343414e-02 -2.949988849224959714e-02
2.231151635300906433e-01 2.405703393392281120e-01 1.794024009168005696e-01 -2.200614314606713362e-01 -3.723605603704348010e-01 -2.462174594818978546e-01 2.235804058273445916e-01 -3.290084948738674075e-01 3.631591285051909423e-01 6.758596193039397015e-02
-1.851641468352235094e-04 5.331314612963585775e-01 -4.414172278634190816e-01 4.756217974724111230e-01 6.474273285990685967e-01 1.772993006871585453e-01 3.220696206630369596e-01 2.759242567586320805e-01 -4.693379567093661775e-01 -6.467806415402328479e-01
2.938026838074014324e-01 -3.866160189861849727e-01 -4.225355415384007829e-01 -2.419414768154484752e-01 4.909642892656349011e-01 -6.562754477456181346e-02 2.172066932039512510e-02 5.385008663052019973e-01 2.722720120676169198e-01 -2.571060791601114115e-01
-7.455934467239451469e-02 3.010815656570958176e-01 -2.540745900280447778e-01 1.808177722744240268e-01 -5.154505447333880275e-01 -1.675621353577249895e-01 3.093045443025113084e-01 -2.763308679546712110e-01 6.732367727415965453e-01 4.562455066525897829e-01
-4.298472370350959332e-02 1.055267889035365891e-01 2.486832478065611474e-01 2.227880022598849596e-01 7.727148869934800934e-02 3.958893404991175036e-01 1.793709368028446882e-01 -9.982360886427930902e-02 9.872865884411059778e-02 2.828530908223179097e-01
