6.280910377652939580e-01 -7.901075161502131294e-01 -1.142400737208934258e-01 -6.186346063601708689e-01 3.207335048912984821e-01 -4.560273359760713685e-01 3.531338671413165042e-01 5.917893786150540958e-01 8.055790921873734467e-01 7.069027189607602901e-01
1.488481947970521080e-01 1.206522901322054642e-01 -3.852821690949596034e-01 4.050789116449483585e-01 3.947073381639372713e-01 -1.066842030737492064e-01 -2.524436219743769194e-01 -4.291088686524613394e-01 5.158017545046199581e-01 -2.689556124747095045e-01
2.778151600542294597e-01 4.412642224578611216e-01 -2.006797615200206844e-02 6.552791445646453106e-01 -5.666002770808412636e-01 -2.938024946590045428e-01 5.537788562587316887e-01 2.539731998556489789e-01 6.821965929504680837e-01 -2.665000890403897982e-01
1.848695156891459190e-01 -1.365033015015930662e-01 -1.679258896106137003e-02 -2.525246808084535138e-02 -1.116929420501131115e-01 -6.733631001057469034e-02 1.309574011079248368e-01 -1.046380885620044887e-01 9.411570781719721945e-02 -5.887002747149291254e-02
-7.628084688068273618e-03 -1.587906719804902788e-03 8.979467645724223401e-02 -6.046220996769519941e-03 6.850098768892118328e-02 2.713067438762252828e-02 8.016263299445573406e-03 5.344382865587546383e-02 1.417457559480284242e-02 4.505183230264496463e-02
-4.455945641321998885e-01 -7.466938408011565276e-01 -4.072433056843539206e-02 -7.939515291366729954e-01 7.014799127439821369e-01 -6.939331501724687046e-01 5.530533328723483688e-01 7.124053546013036087e-01 6.743023952506019825e-01 2.296946991602817623e-01
-4.735353509709534434e-03 1.680327171936840114e-01 1.044277099001510029e-01 1.666677639938815222e-02 -1.458649821203416262e-02 6.036942447780479365e-03 3.379477352609402269e-02 1.769861414134991234e-02 8.197193669130509175e-02 7.534585627612293626e-03
-5.348065859851224291e-01 6.800683444201368610e-01 8.299238361642036210e-02 6.851872997616560435e-01 2.255213522852391461e-01 -3.245036675127364600e-01 -3.837646427509557312e-01 3.200879788730779385e-01 -6.045719373950999564e-01 5.596083418658400754e-01
-6.937103534957130002e-02 5.905471374487890612e-01 5.496532808682753624e-01 -5.616418872627310099e-01 -2.803988113138083937e-01 3.666519441849536154e-01 -4.120939610839266520e-01 7.198578331462348601e-01 5.175047270320897175e-01 -1.893332712530081396e-01
7.836139087129838712e-03 -3.484878052685147108e-04 -1.163129779721969008e-02 3.545057146875864318e-02 1.185670109189087829e-01 7.151683565806475629e-02 1.373434916812443785e-02 4.040049219007026127e-02 3.870453039033081022e-02 6.186606256692352146e-03
6.342077080307980752e-04 1.241133418480751677e-01 4.164474084257632075e-02 -2.760873970090098675e-02 1.816245124159121815e-01 3.308246549984254076e-02 -2.099118508422006049e-02 1.176245714015221842e-02 2.595728309199068357e-02 3.804843497021163229e-02
3.422647180832877334e-01 -3.188769917365815720e-01 5.955235130156829593e-01 1.864058200608665616e-01 -3.493784424658238907e-02 -2.090144097114324251e-01 5.402649401874363155e-01 5.067656924679111441e-01 -4.532631152003273600e-01 4.087002300884204908e-01
-4.213242102490582508e-01 -4.422885428280456943e-02 4.404385538578151627e-01 5.789212058535557759e-01 4.678040598756819102e-01 -4.541661618156167535e-01 2.075122870386035823e-01 -1.358057547077940463e-01 3.156938133979897976e-01 -1.272595586426122916e-01
4.146732356758635607e-01 2.026115949846417630e-01 -4.651068238588092485e-01 6.348484964749017134e-01 1.741576535111702961e-01 5.275452353385984977e-02 7.445718020597767994e-01 -1.599230056599494632e-01 4.120429847638745757e-01 2.897444300570140574e-01
3.111443491090482016e-01 -5.498522813389119523e-01 3.647753046737120530e-01 -2.360066790897236977e-01 2.926530338716866741e-01 -1.800830069685795953e-01 -4.542492385139586530e-01 -1.672486776326765068e-01 -2.017527670285786945e-01 -6.815416415568703590e-01
-3.679539193165803131e-03 1.318986321135575714e-02 5.429013713526078394e-02 1.796185350073871423e-02 2.274977053276124039e-02 4.964121777697761556e-02 2.839276403186166264e-03 5.510201375896918788e-03 2.284388682032831297e-02 5.452274054044180251e-02
-3.725985810710251145e-01 9.290775603308475128e-02 -5.152089026372229652e-01 -4.384740390431628998e-01 -1.528870406687625125e-02 1.827522849808214944e-01 -4.669023109055645687e-02 3.492007889108811880e-01 8.883929026301824738e-02 2.419728305576449023e-01
8.297674728204089689e-01 -5.337672719351949091e-01 -7.693720597396798144e-01 4.700892763668072516e-01 5.960076854730534945e-01 3.149311554588830053e-01 1.115673325651671960e-01 6.657051868207143341e-01 8.042207106410176332e-01 -4.411909261298930240e-01
1.311981486961402666e-03 4.143294813803281851e-02 -5.874329341429729290e-01 -4.763277277290470790e-01 -5.774583228604615037e-01 2.848050887291425082e-01 -3.635154810468014808e-01 6.728671572123470224e-01 6.687857158208859731e-02 1.283346634756198264e-02
-2.701652362685327477e-02 2.142333113739076089e-01 -1.240829123777619780e-01 5.959206997516411364e-02 1.861862198025630022e-01 -8.202796857697557120e-02 -1.724422600877774381e-01 1.102002860198446205e-01 1.248057370894764678e-01 6.300754641552953894e-02
-8.080957582792838018e-03 -5.482331533113957850e-02 -2.281312899952813722e-01 3.517527838060953704e-01 -3.936532535071762262e-01 -2.684010473668340183e-02 1.661093917234278960e-01 2.147140233574803270e-01 -2.925641964084211843e-01 1.599323220971109183e-01
2.696480447895358568e-01 -8.989898950937350031e-02 -1.942063147056367345e-01 3.942254535698401230e-01 2.567886336640489153e-01 1.601956038356609491e-01 2.007544838906225593e-01 -9.080128789621889907e-02 -1.222575683996107304e-01 -2.124536983232602483e-01
5.420312111881625539e-02 3.960489713970606895e-01 -1.724644741080254562e-01 1.628918954569906763e-01 2.415023475555040100e-01 1.234930396795652363e-01 9.688633269282376226e-02 -2.849591313193306635e-02 2.325333736274770302e-01 -6.685154580768495891e-02
5.222513124144229080e-01 1.115932171474806195e-01 8.166424800864813260e-01 -8.842731923537350269e-01 -3.957027578568969028e-01 8.720078842039065414e-02 7.579915734897877400e-01 -7.725807646212138335e-01 -2.090371573393792759e-01 -8.073392810461507141e-01
-6.267087583808307327e-01 1.823450939718956332e-01 1.325285220915817935e-02 -6.646364161719828245e-02 3.358415056087456496e-01 -1.310258400242450827e-01 -6.814675696405730898e-01 4.604669242035846488e-01 -6.511157611975518789e-01 -5.960773997480420805e-01
1.066044450496161922e-02 -1.375979433202812255e-02 -1.690461480738066069e-02 2.392551803381884057e-01 -4.778866094369647044e-01 4.057516505833205223e-01 -2.007577429372062183e-01 -2.471183998889580138e-02 2.122641919900686014e-01 -1.152168851982115355e-01
1.707610691201750797e-01 -6.254290356879846913e-01 -8.068365784645505911e-01 -8.185255221633963574e-02 -3.100888529016339046e-01 -7.992001964518198331e-01 -6.671257375465222683e-01 -7.252656537086428212e-01 8.635188181436060928e-01 -5.174201681178510759e-01
3.677388163123413434e-01 4.725299312387560291e-01 -4.058035721340800400e-02 -2.679973855380144987e-01 4.402783979770247824e-01 -2.728533972043007960e-01 5.120619473448253522e-01 3.508167239301576146e-01 1.541406339160142080e-01 1.383244536941381220e-01
-3.188126898191814274e-01 2.929614095870719526e-01 -3.618765231113347386e-02 3.166929740485707745e-02 -6.890427301080986888e-01 -2.331233786920830220e-01 3.331706081848596068e-01 -6.512374921454514576e-01 3.843204395000461848e-01 -9.601068151177436600e-05
-1.695530507246027219e-01 4.719414535117614218e-01 6.101988862031264560e-01 -7.461245324843795990e-02 -2.003416421248067625e-01 -5.376145780543369890e-01 -2.575519157220494404e-01 -4.003904576228193846e-01 5.150947767440172687e-01 3.527958818069880098e-01
-3.802534675145666787e-01 -5.358319905248749571e-01 8.693409414284039016e-01 6.504880439522692237e-01 5.089455858168243640e-01 -1.410581026983547259e-01 -6.744922905277765945e-01 -8.368106295708989395e-02 -5.759590439899867631e-01 -6.630707521252618974e-01
-6.691447893375208900e-02 -1.096803326521041400e-01 -6.900789016017291333e-01 3.332076730250687624e-01 -3.808041284082544498e-01 -5.745455953139366745e-01 7.952633788552297966e-01 -1.531608772692341636e-01 -1.317255128503620198e-01 3.564950976595455123e-01
-1.495190568384918983e-01 6.054412148928115522e-01 -4.883745718614543874e-01 -6.681003754381191762e-01 2.551526950708851160e-01 1.321657160429672295e-01 -4.448272522433847215e-02 2.613987720074076870e-01 3.158234819109322356e-01 2.459775984431782359e-01
3.088229551254920713e-01 6.332346824457326662e-01 -2.220181821548193046e-01 3.518484015714076762e-01 -6.068534356289962961e-01 -5.775338806496426169e-01 1.102561936965364281e-01 1.914842036754066112e-01 -1.172447245777566288e-01 -4.397608259979624568e-01
-3.443409042738204695e-02 3.204202318376059289e-01 3.503651936542836465e-01 3.130317412066069838e-01 5.172149978774008838e-01 -2.777511864056756985e-01 -3.695251326769329325e-01 -5.278392916262724527e-02 -5.640614574602377251e-01 -6.220939375346518085e-02
-3.549038401690476352e-01 5.870120993945477927e-01 2.764251929654897300e-01 4.278160512238082247e-01 3.972736528919594834e-01 -4.546653938256849381e-01 3.547136518003746186e-01 -2.547963979137125579e-01 7.145038364049707269e-01 -4.213139629479702442e-01
9.871043195963255523e-02 5.302672658754543911e-02 2.609046077133787139e-02 1.256110254765521739e-02 -9.136915358011997446e-03 -2.000218607215546382e-02 -2.289069023787689179e-03 2.396989411153598037e-01 -1.251140739741199090e-02 -1.572465498121462584e-03
1.037613797219534145e-01 -3.138035222227782139e-02 -1.016831623369853985e-02 -1.329609004848975040e-01 -1.524261530077007931e-01 -1.266141750765321927e-02 -3.797165284956866005e-02 5.729385984934438208e-02 -9.683894085947772346e-02 -2.291715168574208761e-01
3.822620552816945461e-01 -5.487903147133800230e-01 -2.849291799492940092e-01 -7.028537119864384231e-01 -6.905730662266067188e-02 -6.907439981873584323e-01 -2.042226535206335403e-01 -6.345062616634951080e-01 -2.117782512977833820e-02 3.155729358012439034e-01
3.883935497355186367e-02 -6.137247034481274621e-02 -9.240963944495875215e-03 6.276503959170422024e-03 1.903542228302743111e-01 -1.423955445765435167e-02 6.557103680313962346e-02 4.306203000084953686e-02 -6.553688787851113563e-03 4.826217176540063825e-02
1.160580504997042739e-01 2.446776642500435306e-01 -2.849202860865709605e-02 1.317719132000590154e-01 -3.886519372003505862e-02 1.439766429492001787e-01 -2.521226028658472562e-01 1.687769993215417208e-01 -7.163973598751397116e-03 7.119867384964566337e-02
-3.776989508896952952e-01 -4.044676657760053196e-02 5.790135559919330488e-01 -5.144262188368886601e-02 -2.523702858910953917e-01 7.091563472663370282e-01 -3.175526607076680219e-01 -5.151255436040235169e-01 -4.078269946449444294e-01 5.452556846109267719e-01
5.803686560431552399e-01 -7.527500600447444012e-02 -2.596631423398869098e-01 6.618538148643563490e-01 -2.619426775026830745e-01 2.617164498896449101e-02 -7.756034826558143580e-01 1.503440227827734232e-01 -5.354929600584019678e-01 7.418624704985958829e-01
2.332529224324850214e-01 1.576198595262109925e-01 1.427790634191100291e-02 1.091270421344552460e-01 -6.620554136020699587e-02 1.096316111992677034e-01 4.978617947549761336e-02 4.521014651900086279e-02 1.059288292123314046e-01 1.273815172723342104e-01
-5.198750232899856938e-01 -8.461723426725591413e-01 1.561439656455483604e-01 6.036490156790463857e-01 -2.754005745058011323e-01 5.896214641682439028e-01 -8.403223624679736492e-01 -6.979842239320444008e-02 -6.876893844606561945e-01 6.391871264385913243e-01
1.060200135998943909e-02 -1.066521626718831958e-03 1.237793007367719682e-02 -1.672897101362190789e-02 8.093198594980871574e-02 8.400766019536316798e-02 2.262028095812723552e-04 3.864596377819123907e-02 -3.532189105740680957e-02 -1.427250914807220127e-02
1.977315116830669905e-01 -2.349687819210509176e-01 -4.369881400734342836e-01 -2.994556958174959815e-01 4.347944197101621944e-01 3.663247988375396003e-01 -2.100096984159762759e-01 -5.256176993367004391e-01 -5.145300840238060669e-01 4.880881686097052197e-01
2.754950649146001296e-01 -5.031937523116534194e-01 -2.064791667734189665e-02 -3.349178346881903079e-01 9.807216954958612731e-02 -2.887442260399179506e-01 -3.781371424743540932e-01 -6.179676804927140138e-02 8.987269792570938554e-03 1.758177262569336763e-01
-1.037240004403857940e-01 -2.666754105835276167e-01 -7.377077184908878427e-02 6.305187753791992311e-02 1.966655440358128226e-01 1.999569222897348564e-01 2.177119286923673014e-01 1.798015689429231789e-01 1.118496530390546556e-01 9.773121251124466946e-02
-8.559810858108133358e-01 4.488710395103641670e-01 8.837073269300835254e-02 7.403762769082699036e-01 -2.688912705895604716e-01 -3.179595807854638245e-01 -1.515052734996860662e-01 7.619814684053769493e-01 -5.128059319838942920e-02 1.400922877641783415e-01
-2.409989997517950622e-01 8.390286459644996642e-02 5.650971701749489817e-01 -4.027683297126570805e-01 1.992164178815121756e-01 8.061629282599143131e-01 1.950642951540944858e-01 -7.680554256834398394e-03 3.365380046173384043e-01 -4.146346640869374989e-01
1.162911162230057666e-02 1.051705022432154329e-01 -1.577298768663288470e-02 -7.423201105341677153e-02 8.716100213950707387e-02 -1.399267730438631396e-01 1.146836416269224335e-01 8.639466778636330918e-03 -1.711110412500496279e-03 -8.648002459602201208e-02
5.404950167177634962e-02 2.880455609028232528e-02 2.107297764174619059e-01 -1.648394331465691601e-02 -1.931736126389631616e-02 -3.870507960876556908e-02 1.276403641663165223e-02 3.127902062768714991e-02 -9.501355131108893404e-02 1.569154271768962577e-02
-2.851405041488394576e-01 7.615673181585550511e-01 9.132070620085370738e-01 -6.192551116015868606e-01 -1.048516772418602583e-01 -2.430245058092718180e-01 -3.181125499998660455e-01 -2.269639418401206421e-01 6.783400038848468316e-01 -3.955573895623411551e-01
-3.370212081210871014e-01 -4.367437402792487267e-01 -4.451685785975729726e-01 2.738305219574225235e-01 -2.332642741733849390e-01 7.295656237103731456e-01 -2.078394590581335855e-01 -5.147901758402355643e-01 7.477890350396707020e-02 4.374772155572298482e-01
-5.075718485039112382e-01 4.419311529802439353e-01 5.393624427695984380e-01 -3.210489153862048362e-01 -1.553758807779343498e-01 3.177065558674083134e-01 -3.198856996103640049e-01 2.311236412494188930e-01 -5.810051681073211682e-01 -7.117181079186812864e-01
-2.340422219774397350e-01 -4.525144828972483824e-01 -6.236791289392494830e-01 -3.818161958895355812e-01 3.781327280563097637e-01 -5.358328188606926723e-01 4.709342035038995705e-02 -3.165542778130708834e-01 -3.662184429584594003e-01 1.456949157978300324e-01
1.104729416913445839e-01 -3.925615858214068221e-02 -2.259041528555526257e-01 1.545774571660408769e-01 3.498955198785046877e-02 -9.327637180787216875e-02 6.565596719891489408e-02 1.845308408142189160e-02 8.743634397436740591e-02 -2.030130088970024671e-01
-2.520635801119594510e-01 1.636630761722641381e-01 1.983127441844555472e-01 -1.455744495578764897e-01 -5.748660730695485110e-01 5.598646745824749082e-01 -1.202073416388604044e-01 4.357308042273383419e-01 -1.757316462100954046e-01 -5.461536993646902705e-01
6.918792995052580608e-02 2.765656674823053704e-02 1.411491794960316459e-02 5.110991246591740228e-02 1.121757613169859363e-01 -2.010957814706446078e-02 -2.143304380141750065e-03 3.063893181652213929e-02 5.528610322915514415e-03 1.121894136689359934e-03
-5.651056367037582406e-01 -2.821414730728201148e-01 -4.559326360243766141e-01 6.325288636016432875e-01 -4.841852753863403191e-01 6.899346173196412302e-01 -3.439370092489868469e-01 -4.535882256231863474e-01 4.820554963844942420e-01 5.617137283179093332e-01
-5.399113955105805385e-01 -7.971692774821328986e-02 3.621228316886828114e-01 -4.025682940111146094e-03 8.202561573791317118e-01 -2.675281765311454119e-01 -2.277250603224660885e-01 5.789975284789027343e-01 -2.556253811750043847e-01 4.227247053156690249e-01
-3.197647097830587370e-02 -2.170140082089388328e-02 3.003870016252222289e-02 6.242159653917944001e-02 1.826894056999557939e-02 8.214682810195576834e-02 1.846942098027407053e-02 -1.503141457344302039e-02 8.315381562679053469e-04 1.215073439251194987e-01
-8.370616190217619601e-02 2.282283794847287661e-01 -1.922866550909523367e-02 6.159179643026666678e-02 1.441379932128392383e-01 5.708647324714576782e-02 -1.130763271187088387e-01 -1.310877897779443302e-01 -3.729393546727832742e-02 -4.720864969425275781e-02
6.479504346952614721e-03 -6.850717062239160271e-02 1.624006412394204263e-02 -1.611144643902806817e-01 8.177560059165975281e-02 5.756564736066797222e-02 -8.128731457711563246e-02 -2.010211390001444276e-01 -2.643611279475751585e-01 -5.113708441028673723e-01
5.173451296257225440e-01 -9.888113527339581488e-02 -5.257227229618388620e-01 -5.589087068859841523e-01 1.221121971565432979e-01 8.613004763444843948e-02 -5.117013368735759959e-01 -6.823963064494342756e-02 -6.177878422892681964e-01 5.100099346256473654e-01
4.609869923850618001e-01 -6.361628464206816602e-01 3.782364408224035968e-01 5.747104130150675338e-01 6.291708126418051883e-01 -3.057045924969911121e-01 4.008788055640065684e-01 1.720140706702104061e-01 -1.277739893807769249e-02 4.826278391569654436e-01
4.183789776424828855e-01 -4.459330852320511629e-01 -3.743787505271859439e-01 1.649166358631432017e-01 -1.397274936589601169e-01 -4.132773267762583913e-01 5.016734456788193297e-01 4.215991116882008560e-01 -1.273052165881001785e-01 1.116206150234825972e-01
2.125820415414404752e-01 7.906207600467018981e-01 5.095673300195071587e-01 6.025118618485811872e-01 7.222737893186251812e-01 -8.031504300759133574e-01 1.674390876923820826e-01 7.928688551108132865e-01 3.089495359496274851e-01 -8.702827180595354983e-01
2.579448859999128874e-01 -1.127042544291522036e-01 4.981237875398677323e-02 1.302377830125665548e-01 -2.074538127428842693e-01 3.372357208860931599e-01 -2.968122944095548041e-02 2.502287737692642788e-01 1.342231570226201931e-01 3.491874148848530535e-01
4.324990394523867687e-01 -5.365499170367187265e-01 5.570178221123152085e-01 -3.546849353335407296e-01 -1.781806654587122229e-01 -1.617256067576026135e-01 5.572894055743317088e-01 -4.451222414937328620e-01 3.266470214317642173e-01 -2.318205753694776716e-01
6.766387347234890104e-01 -2.550036001543870556e-01 -7.074584532560286299e-01 8.932583712407800025e-01 8.626010642852723065e-02 9.341072077569158028e-01 6.929450204352914922e-01 -2.708447988666320971e-01 -9.290677505436950590e-02 7.890342439403916774e-01
-2.194139347911378268e-01 7.378855031434274590e-03 6.581174189579225287e-02 -5.201535138010262571e-01 -4.259002400682616041e-01 -2.384662859442463201e-01 2.150773148740324769e-01 -4.010765924034253027e-01 -2.949349072302790975e-01 1.425924427044824028e-01
1.574913933433948771e-05 5.113499652002226337e-02 1.335837115608760547e-02 9.628783644531584140e-02 6.676656941771717466e-03 8.656789173217904754e-02 -4.211568481957448729e-04 5.988758474741482513e-02 1.023611554019835876e-02 1.187682958382091196e-02
-1.264977472951904214e-01 -6.033830720276920356e-01 2.758309350294273488e-01 3.307874235064873353e-02 4.916434964659715523e-01 -4.561730975584059600e-01 2.474785984497832325e-01 -3.984856483346778666e-01 7.145631428838966626e-01 4.416855758375690666e-01
-4.830545312427573790e-01 6.766958235403606192e-01 -1.035065601066777474e-01 -1.625065682967421765e-01 4.552014758246019643e-01 5.135259748327427598e-01 2.686975497244716293e-01 4.593152356925324642e-01 -4.623381243639330118e-01 -3.979758555597631697e-01
-6.299674947275178682e-02 -4.101210742112956220e-01 5.317826802879854764e-02 -5.885533188917337760e-02 1.484423354528077166e-01 1.841242554671391196e-01 1.125438794433484407e-01 4.058459036091546790e-01 -2.664527465509171633e-01 3.236892948094510780e-01
-6.774086798605100102e-01 3.952154602687478757e-01 4.481628712030876205e-01 7.199214380439752370e-01 1.306621114822169860e-01 5.890212759565870426e-01 -1.913523184005083699e-01 -8.453247227855667512e-02 7.054182270544337996e-01 9.197277200002330899e-02
-1.490399690119269815e-01 6.238563412428979049e-01 -5.614752714461862526e-01 1.914780749446548525e-01 3.062839441563817711e-01 4.266329042602486910e-01 3.999815873285767487e-01 1.154901891032030919e-01 -4.288007495294783589e-02 -1.581598307089132072e-01
9.089902093676209549e-03 -5.196303096865881842e-03 3.422458910809715593e-02 5.350527561167824075e-02 8.595109779658102744e-02 1.449800785010625648e-02 1.144069433409238001e-02 1.026324315258203695e-01 4.487835325174737572e-02 4.503925564457884195e-02
-4.907779113315337560e-01 5.995429210776986872e-01 -4.901288327548818380e-01 -5.623992173015571021e-03 5.723064685822004671e-01 -7.475816884018317010e-01 -7.993303373223480390e-01 2.622034399834954344e-01 -3.389586894701618336e-01 -7.029661614527615843e-01
-2.111050572414531201e-01 -1.523192381231149861e-01 8.015716549058611584e-02 1.384301235676025088e-01 1.401750161818654528e-01 -4.115712399847095693e-01 1.101957789541808397e-01 5.764351849035622699e-01 2.043422509802136633e-01 -8.209991402618270484e-02
-5.440125069268906266e-01 1.965430329213881666e-01 -8.090252010958239870e-01 -3.327113716638149254e-01 -6.751328624507437759e-01 7.883680911762960819e-02 -8.322704398944397175e-01 -5.071703958064182061e-01 8.005711021873413991e-01 6.867852485858819689e-01
4.455915167324409065e-02 2.369021188555274840e-02 7.500350212291588547e-02 -3.701098885045733117e-02 2.097248032167212117e-02 4.080511833486120260e-02 4.570024523221258295e-02 5.292316682958099483e-02 6.580800825152266541e-04 2.423349054221936652e-02
7.415802913965731380e-02 -2.017040299457789898e-01 2.923771174264665484e-01 4.331796695156579502e-01 -4.828792397624713240e-01 1.872686038671957653e-01 2.234884907528988662e-01 3.820292005217243436e-02 -4.934341349761338091e-01 -5.549281119248034022e-01
1.988899742998410380e-01 -1.046918220444452291e-01 2.007270806296121701e-01 -2.644615614479816149e-02 -1.886717043390773174e-01 -2.178179999153547763e-01 2.260693432381629675e-01 -2.242417012488013561e-01 -9.865514615227095885e-02 2.617817108505378632e-01
6.965857690880703501e-01 -4.799346055988760740e-01 4.768035375297891010e-01 8.245667797293645407e-01 6.134293615336430250e-01 -3.286319465656548089e-02 5.271073892665062433e-01 6.936986852319100283e-01 5.925122118543871830e-01 1.054212797716817251e-01
9.732113973576324295e-02 1.149286634659508338e-01 4.747488923860747612e-01 -1.431011926688743885e-01 1.857402814889676790e-01 -1.967300780241704461e-01 8.823506759270420552e-02 2.644609821417731044e-01 -3.719826038753635822e-01 -3.558790533092081043e-01
-3.568842010718121238e-01 1.337308389424420318e-01 3.852045927789490842e-01 -5.816046048362171206e-01 5.703595146528559479e-01 -1.206950624737875982e-01 7.210824737332222067e-01 -5.607877436529328241e-01 7.488304840835674492e-02 -4.131637525600845295e-02
1.533420425999808545e-01 -2.121797009592264194e-01 -4.055542145767183637e-01 1.233009379295131776e-02 5.056652524414634309e-02 3.717718645105989872e-02 3.712696690696172253e-01 3.736385474446421440e-01 -2.845276364861065374e-02 -4.759611599978976759e-01
3.043467317990197762e-01 -6.138367710419406764e-01 -4.675466389792341526e-01 3.029511907664773560e-02 1.540570944774235229e-01 2.915144173717776344e-01 -2.633548542709757134e-01 1.998352295544349178e-01 -2.631077369092724716e-01 -4.027014896459764626e-01
-3.644823905514890661e-02 3.806950433003978840e-01 3.160658097605947292e-01 1.803095505489165085e-01 -4.792402855537823692e-02 2.226785585011938073e-01 -3.214451729952086945e-01 1.827329740948984149e-01 -6.929263073359803000e-04 -4.133504052202274792e-01
2.500387913259455863e-01 -1.879660270888789675e-01 -1.561552745847784029e-01 4.514075423374410700e-01 3.864647373449348056e-01 4.698600868677160758e-01 6.904108284864252099e-01 -9.489641074372537344e-02 -2.883948682617632486e-01 3.427500045941802020e-01
-5.086884629862772345e-01 -2.083743365422326410e-01 -5.616108136284416602e-02 -7.108826909477324561e-03 2.661623445794980558e-01 -2.205195729514054792e-01 2.667495497855745541e-03 -1.821864565034145567e-01 -2.859816625596836581e-01 2.352618570817352206e-01
-1.172516767039327307e-01 -5.041030236875047865e-02 -1.820794133884399701e-01 1.607119827864897377e-01 1.424329285927170841e-01 1.914870434141567879e-01 -2.192888840077099680e-02 5.059383196301179414e-02 8.785389905147653663e-05 -2.611183000971904408e-02
2.087872606216122084e-01 2.439385775891031172e-01 1.700113514344243348e-01 -2.126034200646858552e-01 -3.640669489859589825e-01 -2.435530986337099135e-01 2.405401403570233687e-01 -3.052662469494771824e-01 3.480354513142596140e-01 6.477161944638511193e-02
-1.975468079426018347e-05 5.353143613948765367e-01 -4.410905244431362893e-01 4.749474827627560014e-01 6.461654493726108894e-01 1.768730714004298210e-01 3.234138870552780709e-01 2.757323373518006937e-01 -4.688936374792927464e-01 -6.461544889974766281e-01
2.794734309792592519e-01 -3.680655444570412049e-01 -3.836113635000772959e-01 -2.306440367132972791e-01 4.669751454745842412e-01 -3.942057848333758302e-02 2.076650619981947749e-02 5.129430759599759027e-01 2.598735933962953437e-01 -2.421491118791233021e-01
-6.477727643088368459e-02 2.960435680238435174e-01 -2.507553877145959342e-01 1.818147824629168519e-01 -5.113243187569080916e-01 -1.680049930497183597e-01 3.094189690643936452e-01 -2.797902550316755943e-01 6.664549340062162486e-01 4.491952205809960352e-01
3.021973603723908386e-03 9.112409243243026202e-02 2.064584834493218557e-01 1.999618297775888898e-01 9.096887275767856496e-02 3.451647069251561617e-01 1.657184991899999515e-01 -1.096080717180029918e-01 8.405512318240258851e-02 2.455487285996537650e-01
