6.301275495494025325e-01 -7.990575736074311264e-01 -1.146734321604857693e-01 -6.201771708299224084e-01 3.230173258596336083e-01 -4.556559489993826095e-01 3.508319887648775892e-01 5.926350387173509038e-01 8.037512906388525336e-01 7.088357204886432950e-01
1.498284696386248949e-01 1.205540271538294017e-01 -3.896501860503266412e-01 4.036283792476492160e-01 3.969503176123288513e-01 -1.093811211315321580e-01 -2.519592393946248343e-01 -4.318687990585314274e-01 5.168893755697546721e-01 -2.684686906420394314e-01
2.803429833005223193e-01 4.422855071700005358e-01 -2.024581433010690101e-02 6.577634386663750998e-01 -5.690312122406608886e-01 -2.940854461597569025e-01 5.572871825963654491e-01 2.485561166111790732e-01 6.818330943509106623e-01 -2.664153255496889972e-01
1.517492580474354702e-01 -2.477951728109912821e-01 -7.039572411009033248e-02 -7.826247436473558750e-02 -1.982980607293500230e-01 -2.220770759003033723e-01 2.735174336601564060e-01 -2.459217166894922535e-01 1.921923235505178518e-01 -1.247112898723122393e-01
2.206346925760318753e-03 -5.232340516170438244e-03 4.803012548032656315e-02 -1.255998259342124349e-02 8.382576528073568123e-02 5.641193712518179949e-03 1.773656084207874545e-02 5.215104557383112155e-02 -1.147311120433129866e-03 2.602498579512772109e-02
-4.456086999087315870e-01 -7.476414568847695730e-01 -4.073031024295233060e-02 -7.937995369568823234e-01 7.018325210222204902e-01 -6.937572986627745797e-01 5.532009044042534018e-01 7.116492789838597677e-01 6.745824079019808739e-01 2.297786613790127053e-01
-6.723631904326697606e-03 1.446047694677765616e-01 4.844530424664663520e-02 5.152695540022913211e-03 -1.537078916473266429e-02 1.178396040879113767e-02 4.653614640924621376e-02 1.635420497224231032e-03 4.686934547799765510e-02 -1.498056063493087087e-03
-5.355476073778614454e-01 6.815419388971801773e-01 7.801681980367322633e-02 6.869254060324424538e-01 2.265783773298464809e-01 -3.248322309413209097e-01 -3.842576162311130417e-01 3.208041331299273935e-01 -6.054377213390382817e-01 5.609888204037211112e-01
-6.882866397790091129e-02 5.909986867489999129e-01 5.514435757372087021e-01 -5.611347074385770739e-01 -2.793920251432367441e-01 3.696376111686165977e-01 -4.211856878069770715e-01 7.189101816977025994e-01 5.171633216527196097e-01 -1.895054015825217153e-01
4.745096179425280052e-03 -6.362130661709101270e-03 -5.002868284328753842e-03 1.993391179994410956e-02 5.482993968155366882e-02 2.482498123525693143e-02 8.222860571431166513e-03 3.445799716748625813e-02 2.464629190431743416e-02 2.371404924431411848e-02
-3.320085489313228527e-02 7.326871305408937107e-02 9.255571400327930465e-02 -1.184732647318442605e-01 2.538262990068346214e-01 -8.802197449159367137e-03 -3.512594387687095060e-02 -2.199766561688388730e-02 2.966691659843562548e-02 5.332648789795103872e-02
3.424499305733598731e-01 -3.189941677167308365e-01 5.937903710855698680e-01 1.864882111618181848e-01 -3.494394898965317436e-02 -2.090980151728862868e-01 5.404859139596815965e-01 5.066647918192122013e-01 -4.534463857196674441e-01 4.088578181482162566e-01
-4.255314612555785581e-01 -4.305201499884616506e-02 4.462655231850258808e-01 5.857526184990817786e-01 4.661543577485720014e-01 -4.698727324321551047e-01 2.079343104495783023e-01 -1.353479449706362914e-01 3.177729819072156459e-01 -1.296067426624278318e-01
4.209320411690345987e-01 1.969262775696271617e-01 -4.646449964138184563e-01 6.412036751489006425e-01 1.746148524664155599e-01 5.434355998920959580e-02 7.436280184754203715e-01 -1.647463481437942134e-01 4.113651450266522791e-01 2.866340786457856060e-01
3.113778288622459645e-01 -5.505320873342094412e-01 3.553791584209612942e-01 -2.371392490426502131e-01 2.908948420707980764e-01 -1.819155938273350759e-01 -4.562204612698713690e-01 -1.672822580022194638e-01 -2.005498767233898916e-01 -6.865761520646380678e-01
3.964063821237963359e-03 1.094422071765861933e-02 3.661287459079361206e-02 6.397674832797729978e-03 5.808236566508031933e-03 3.479210136209030801e-02 1.001878251924957081e-02 5.075138746484488461e-04 1.882860270135310737e-02 2.676577884501624149e-02
-4.426290859507007736e-01 1.095261752390258164e-01 -5.759399266017378727e-01 -4.960285676032458735e-01 -8.142201615793997344e-03 2.170257119417677016e-01 -3.866994939310512691e-02 3.793517378223023040e-01 1.033116638174040314e-01 2.440655725530772036e-01
8.298259825876114215e-01 -5.337642775579595211e-01 -7.693795648241313900e-01 4.701270063088409112e-01 5.956553309070642399e-01 3.149217760222742246e-01 1.116177563587801985e-01 6.656471415631636246e-01 8.042288011963957262e-01 -4.411459032430420368e-01
1.837517428601949171e-03 4.247490157098873786e-02 -5.922727464703100297e-01 -4.780775199915880957e-01 -5.796147495569442532e-01 2.863567409027321098e-01 -3.649403624349574771e-01 6.671006365640034241e-01 6.753994129917666178e-02 1.287975647580789917e-02
-5.927133750284683394e-02 2.752149169208805146e-01 -1.458466842739775948e-01 5.743525884774502294e-02 1.840678509104718419e-01 -1.000906861546564663e-01 -2.385329215084442678e-01 1.729819464862016598e-01 1.692592067745388174e-01 1.823631043955539766e-02
3.968093761911249163e-03 -5.680041405033883078e-02 -2.548185018340105024e-01 3.789451424950864289e-01 -4.258239691627462298e-01 -2.559816069922926998e-02 1.891490880435423849e-01 1.779803258425510515e-01 -3.231830566071163258e-01 1.882611267228042062e-01
2.853713773317309021e-01 -9.542578164925059891e-02 -2.563784184581681669e-01 4.141357784268088760e-01 2.743578388980727478e-01 1.688992642681354239e-01 2.200007293656110474e-01 -8.662331313913505804e-02 -1.301824784086408893e-01 -2.153085642199182581e-01
6.436414633346926317e-02 4.470935436934285190e-01 -2.380107888891212220e-01 1.849511210963531160e-01 2.736138595020073949e-01 1.417522803480527060e-01 1.086318747847266480e-01 -8.075869574057617517e-02 2.618822133074181768e-01 -7.341628933655222622e-02
5.223103372289822355e-01 1.113301971173765725e-01 8.167050813880875060e-01 -8.843134744652647594e-01 -3.956858374089561314e-01 8.724058284447040734e-02 7.581006796832465700e-01 -7.726257252213414306e-01 -2.096606970776506984e-01 -8.082776582119763908e-01
-6.283946621489036044e-01 1.833222443197679297e-01 1.124769729421544982e-02 -6.590584419507920788e-02 3.373217091860784000e-01 -1.384216198301807532e-01 -6.855636118306521753e-01 4.665618807332345686e-01 -6.535890063435911834e-01 -6.066789245003100239e-01
1.299624594911864828e-02 -6.603670370156065894e-02 -1.725033055897472883e-02 2.594532287429572870e-01 -5.041950673202060251e-01 4.439091644521207525e-01 -2.155293614063419072e-01 -2.499225249741873420e-02 2.298183963537339392e-01 -1.172061858490118513e-01
1.710929771388924880e-01 -6.255131235397525247e-01 -8.103834022479639021e-01 -8.161544959475922068e-02 -3.101522146220807574e-01 -7.990861684578625113e-01 -6.674941544799153359e-01 -7.254153818326543046e-01 8.642730251702009925e-01 -5.170672204526969296e-01
3.704065270106804419e-01 4.758123741608391577e-01 -4.069685937414443261e-02 -2.689998142723252217e-01 4.392795065977960767e-01 -2.850884866532132911e-01 5.164524991108701002e-01 3.540865750408442869e-01 1.558787974773172547e-01 1.389802084299452400e-01
-3.197131049552177640e-01 2.863853390574533364e-01 -3.467225741504281061e-02 3.073718608773935712e-02 -6.923335466503608426e-01 -2.446320255826589518e-01 3.285339193514332234e-01 -6.561474168862654333e-01 3.883459678300480999e-01 1.463186284775667024e-03
-1.755412953857290181e-01 4.803822194572038851e-01 6.157641076673862068e-01 -6.570764278565296990e-02 -2.309692023672806904e-01 -5.432495079179902042e-01 -2.599427657071126108e-01 -4.168119758961779109e-01 5.245057335996247128e-01 3.664608462924322518e-01
-3.793004344805795403e-01 -5.456370682153943719e-01 8.692324300765396083e-01 6.490592283842145926e-01 5.124054441676535454e-01 -1.406254880308362432e-01 -6.784167649239328801e-01 -8.284969926177161714e-02 -5.809452942996469194e-01 -6.625806137021013065e-01
-6.618093655895355976e-02 -1.099867663262134448e-01 -6.938795467742217005e-01 3.346221465183324972e-01 -3.814714285279896533e-01 -5.872400214572289778e-01 8.014514890876549558e-01 -1.498680915937992408e-01 -1.322916413028066007e-01 3.509276643703498899e-01
-1.488636307569092265e-01 6.087947214844530164e-01 -4.902222913485181355e-01 -6.702972827109591192e-01 2.540628815475449165e-01 1.312886097774789429e-01 -4.237010904023524871e-02 2.492497540463082251e-01 3.147324203469215598e-01 2.522545446359218402e-01
3.118044560001858589e-01 6.384955447893405633e-01 -2.226676371430820478e-01 3.572192593983662956e-01 -6.270863793611578529e-01 -5.836171024288548947e-01 1.094117476497109831e-01 1.970948753355892813e-01 -1.144054496053211606e-01 -4.435237463580076200e-01
-3.349359643314816365e-02 3.143899637786434775e-01 3.529748330702901504e-01 3.141778843440276581e-01 5.184525949503905329e-01 -2.818566927551017232e-01 -3.713703523231158266e-01 -5.475530545026025681e-02 -5.652926112130790548e-01 -6.139009336538191197e-02
-3.529816783159741012e-01 5.932892045504456480e-01 2.734532738739756108e-01 4.326283974858323167e-01 4.081232179874847987e-01 -4.508896872883882412e-01 3.600364892134645944e-01 -2.680739948636957082e-01 7.207873953060413008e-01 -4.221862682556271618e-01
7.028735214185487246e-02 1.955949702683159111e-02 3.119127281276435834e-02 -3.477103776355919707e-03 -8.083388994557459120e-04 -6.087358109707822866e-03 9.123585961866494468e-03 1.169533706566604631e-01 -7.095173998177490074e-03 6.043252053429324158e-03
1.976384962272496881e-01 -2.139222605491064577e-02 1.950552988260060433e-02 -2.374851952505280805e-01 -3.537178834274230521e-01 -6.776841253454421107e-03 -8.471270389146358382e-02 1.553131013532587923e-01 -1.302084164598406868e-01 -3.696456157030413858e-01
3.839751069865359190e-01 -5.501985857937412572e-01 -2.872241315057383892e-01 -7.046937065492488994e-01 -6.889411301537470833e-02 -7.000725405875996010e-01 -2.017337323034965879e-01 -6.336121979486585287e-01 -2.136545396876212907e-02 3.039818450783068338e-01
1.938558078786339900e-02 -1.207192775841792048e-01 8.813655322533614500e-03 -2.611992085902106395e-02 1.674695550614649364e-01 3.261659153878245648e-02 7.878770029441173328e-02 9.976844495262883472e-02 -4.096022912392340010e-02 9.896650207675421196e-02
1.215881800527847528e-01 2.542484068361292038e-01 -4.339370239435759447e-02 8.854247476572954523e-02 -5.331812606104147784e-02 2.039771550149214741e-01 -3.318563828746450839e-01 2.034075577836053639e-01 9.082058702329427096e-04 7.628428240891978185e-02
-3.921043311316413926e-01 -4.483131910373977513e-02 5.822581420540388075e-01 -5.122591162499214729e-02 -2.570775874221409851e-01 7.161039760899619022e-01 -3.178855682752875222e-01 -5.289464603815604571e-01 -4.078334955173061882e-01 5.382669257364642856e-01
5.806821312863835738e-01 -7.706053837266807482e-02 -2.597497444687699719e-01 6.622615756183499736e-01 -2.619519581805401787e-01 2.579821437999842149e-02 -7.758267504157364547e-01 1.499910511164241345e-01 -5.355784558987528587e-01 7.421211578922476404e-01
2.631250365440057637e-01 1.841150107954211967e-01 4.189462929734093233e-03 1.230736922927148369e-01 -8.185599174726033989e-02 3.242590156156564818e-02 4.312483435852983854e-02 6.237312304988885947e-02 1.274859701450097582e-01 1.512899705103761538e-01
-5.193309915791226583e-01 -8.475615503581443999e-01 1.533129622685173721e-01 6.032130836908543570e-01 -2.746279002657799340e-01 5.901189131493561613e-01 -8.407629563254045424e-01 -6.928809491887708005e-02 -6.880535771411656620e-01 6.393234645525474047e-01
-1.762561755421698101e-02 3.649927734826770298e-02 8.709084871143658868e-02 -1.481394419747190765e-02 -7.874832185374934512e-02 -6.102135443085560107e-02 -1.271002414538597303e-01 5.208856489749518620e-02 -1.060623549586645897e-01 -7.494103741953231368e-02
2.031049035051204210e-01 -2.395547842996069710e-01 -4.421835124921712490e-01 -2.971627402133682483e-01 4.304910183848829064e-01 3.684882952233112796e-01 -2.050082478555221577e-01 -5.462927477314911684e-01 -5.230158932429523899e-01 4.996284684222607186e-01
2.889171991534629780e-01 -5.275591037880912326e-01 -2.319401471504316942e-02 -3.518242425561052822e-01 9.688754393678786214e-02 -3.044299504206726126e-01 -4.307912115718584567e-01 -6.788194719891241236e-02 1.100958203576240212e-02 1.849904083069471572e-01
-1.235494972543371706e-01 -3.118751544128234854e-01 -8.539737124752722064e-02 8.711127534027292285e-02 1.489123721763024877e-01 2.358841781759949963e-01 2.630638517546748378e-01 2.246251423507860112e-01 1.430442499371274712e-01 4.694475808169001896e-02
-8.578399559691325393e-01 4.483468809258565058e-01 8.908303725323790667e-02 7.372543584850590470e-01 -2.693744315797471089e-01 -3.182349585527917690e-01 -1.517709984314218608e-01 7.636713960914809363e-01 -5.116946175551676662e-02 1.407727372501084151e-01
-2.480808724081285943e-01 8.434976257209925166e-02 5.671446900544765413e-01 -4.042759507841190980e-01 2.002232585272497034e-01 8.088443744850524197e-01 1.956431824524003937e-01 -7.732992007640092716e-03 3.377076129388087988e-01 -4.158391513053079080e-01
3.182155973450925216e-03 1.592375491862664527e-01 -7.705261146509519155e-02 -1.832007002188302536e-01 2.102783215119947979e-01 -2.431031428308863540e-01 -3.188397751619451853e-02 2.569669478388878284e-02 -1.734996582326514547e-02 -1.654037572433711967e-01
7.453782685843077238e-02 -4.057914792317188907e-02 1.570135991906309869e-01 -9.972523534694409039e-03 -4.147956008938573358e-02 -5.594566080254979173e-02 -3.199617284442772547e-02 2.985212206051286732e-02 -1.644388802073621647e-01 5.916087029404946962e-02
-2.861139972793494968e-01 7.696981161237809177e-01 9.179837100209576883e-01 -6.233713583455269269e-01 -1.045818735122458210e-01 -2.677075888849689833e-01 -3.111807309073545413e-01 -2.196974664918036058e-01 6.842094251884350831e-01 -4.157404156815966978e-01
-3.409787415488201301e-01 -4.370801234347971853e-01 -4.456077770031676710e-01 2.758905490335640809e-01 -2.322146581886567474e-01 7.247979845477113825e-01 -2.116856333326003203e-01 -5.151905164435615081e-01 7.611354286922959733e-02 4.420114640303303699e-01
-5.076894205587924036e-01 4.420853531792320323e-01 5.396321809048841844e-01 -3.209201272778588465e-01 -1.569291500390541383e-01 3.174479423767773700e-01 -3.199292120128913730e-01 2.315444704589284530e-01 -5.809794372051889644e-01 -7.127179345759697693e-01
-2.379752212442827197e-01 -4.565882734232251661e-01 -6.313039915136569036e-01 -4.038578367853370987e-01 3.841668054310132807e-01 -5.428135953523183233e-01 4.939768468516150118e-02 -3.213883227155517330e-01 -3.697225434984425241e-01 1.519327670770346805e-01
3.957053424320348956e-02 -5.119098417566641385e-02 -2.546371945247674629e-01 1.834601204044227774e-01 2.359252653061399280e-02 -9.636265257620238445e-02 6.998463052519249272e-02 -2.548050581569683698e-02 1.095724531469156882e-01 -2.465048186709186961e-01
-2.633166622863822859e-01 1.641722430821598300e-01 2.008464165197867413e-01 -1.500996184326189864e-01 -5.853826978283237503e-01 5.649021568936575255e-01 -1.314680660862358463e-01 4.420915275075917306e-01 -1.810648561453908623e-01 -5.542852304708223432e-01
9.769947045572668909e-02 5.209324010305470265e-02 2.975980329346987214e-03 1.257235250806310600e-01 1.292112226893641636e-01 5.213498111130329682e-02 4.752418289317936195e-02 -1.465065838347456330e-02 -3.398519748973219401e-02 2.374181538435646277e-02
-5.663240891926007992e-01 -2.826841799297717395e-01 -4.575431313468548145e-01 6.330855077527010044e-01 -4.810583053005642595e-01 6.977996228126346345e-01 -3.442169977230410960e-01 -4.641989800725382365e-01 4.826678906644590872e-01 5.607907236925072647e-01
-5.396826072098238614e-01 -7.967617667619125710e-02 3.622213658351425836e-01 -3.836070849309512060e-03 8.203258953044771928e-01 -2.674962707531085004e-01 -2.278181437493540518e-01 5.784671487198824735e-01 -2.557528253551584196e-01 4.231928257010157401e-01
-1.266981166034862050e-01 -6.647287710281130080e-02 7.121308499021808402e-02 3.450000434404038724e-02 -3.795273949701710725e-02 -2.232005179493453881e-02 6.868371637319586887e-02 -6.671301966781127517e-04 2.028198589833626886e-02 7.802084204117551436e-02
-1.178409403497272384e-01 2.468559308972138322e-01 -9.446721270224682845e-03 9.692717656428279094e-02 2.075146385464478049e-01 4.142734680699686201e-02 -1.974720766959581486e-01 -1.512171335225615532e-01 -6.345488275741360817e-02 -1.063402213810659969e-01
1.261750632590572137e-02 -8.677158289055281193e-02 1.301204743308266229e-02 -1.885659442397919772e-01 1.178542032834803410e-01 1.015153439238593303e-01 -8.790784102497141428e-02 -2.981045150144305267e-01 -2.946007848785318628e-01 -5.889925407483065367e-01
5.267523173456015728e-01 -1.278460001694430304e-01 -5.336098035065359735e-01 -5.699829472566259048e-01 1.298579285846316878e-01 8.811887642543146659e-02 -5.253663685555306495e-01 -6.691349985840548686e-02 -6.337752602864648033e-01 5.189676888861733950e-01
4.640390061712420522e-01 -6.381777146387541677e-01 3.794370911506066979e-01 5.761231726465866343e-01 6.327537388189338197e-01 -3.029680260578128670e-01 4.030824549406823443e-01 1.679519840344169679e-01 -1.192258745693381729e-02 4.828117045457073209e-01
4.290645750250831614e-01 -4.524036053883319641e-01 -4.022456260632619185e-01 1.725226504660286042e-01 -1.406540784768879337e-01 -4.186653706398412167e-01 5.141724399728788697e-01 4.307141031229770878e-01 -1.291866191884052939e-01 1.146357562778248240e-01
2.096207622112746527e-01 7.919640755967234380e-01 5.088429034852369748e-01 6.014991366803286166e-01 7.221388899544340934e-01 -8.033389580223673221e-01 1.669946063504652023e-01 7.955141587370007095e-01 3.090278183464542083e-01 -8.710841703481592146e-01
3.065606763060561568e-01 -1.267992332901758945e-01 5.632480851611476602e-02 1.416433973833161331e-01 -2.057289156838374433e-01 4.093907418022434408e-01 -4.392853811377065570e-02 2.319327563794794100e-01 1.481000761686867284e-01 3.434571983119094063e-01
4.375840501075775602e-01 -5.534457425436088984e-01 5.615022497259948286e-01 -3.543344512803064394e-01 -1.802270287203834587e-01 -1.560206342355545950e-01 5.520484185043113001e-01 -4.503228105754455424e-01 3.286155155170233377e-01 -2.379919732806249633e-01
6.766557941280516575e-01 -2.550021381871663273e-01 -7.074391807227992102e-01 8.932719627360473647e-01 8.627282161753628553e-02 9.340186867060030762e-01 6.929514141392435489e-01 -2.708275577536449208e-01 -9.290439140592159084e-02 7.890492329463741905e-01
-2.184460885410224595e-01 4.979682071676526725e-03 5.463270448215376551e-02 -5.338247810455231113e-01 -4.363537768191116939e-01 -2.343614325998619741e-01 2.273899467931325691e-01 -4.120231271988520905e-01 -3.021080331136724584e-01 1.478672990046918656e-01
8.986912495577804166e-03 3.405612835332905153e-02 4.731994104656961700e-03 6.346573163929937478e-02 -9.416893847760872752e-03 5.638812216298973168e-02 4.153527543467426184e-03 2.864435640375135109e-02 1.136323534106727616e-02 1.169137158877762463e-02
-1.236774428092297790e-01 -6.051676962685625938e-01 2.802748329283853423e-01 3.227241600832734397e-02 4.860433604419561182e-01 -4.557877486309029336e-01 2.420388277456879123e-01 -3.978446655291197898e-01 7.159503887548034351e-01 4.420556372489569119e-01
-4.832377776980945616e-01 6.668367466502160834e-01 -1.042966560082143473e-01 -1.647768062287878477e-01 4.598406267702502825e-01 5.152977217345513505e-01 2.654247938996630585e-01 4.621015844789210791e-01 -4.666201852686720497e-01 -3.978721300713781717e-01
-6.910736731212910322e-02 -4.359921945640611862e-01 6.120699529167707154e-02 -5.238884794900779823e-02 1.734054304357348364e-01 1.722732293529793679e-01 1.209988616573203224e-01 4.224983226426476390e-01 -2.940635301992104433e-01 3.416322728452810820e-01
-6.782493821321031735e-01 3.947963040005640911e-01 4.487795891372008406e-01 7.214037224781830737e-01 1.310338286924824514e-01 5.900485395508701103e-01 -1.915690578944617417e-01 -8.817310057881608265e-02 7.064204742657725911e-01 9.206477468975982070e-02
-1.493559778962199047e-01 6.252541292370589199e-01 -5.623061826643355188e-01 1.920557900089809589e-01 3.072293531989713222e-01 4.199805436400143033e-01 4.008659496368403574e-01 1.158711974375472575e-01 -4.275947523190688770e-02 -1.581634142200038506e-01
1.964680594538396191e-02 -1.123369879457745621e-02 1.147159344947090709e-02 4.166755571762025684e-02 6.120564353792316142e-02 3.713803197688036323e-02 4.707788722198105215e-03 5.300983603875070171e-02 1.980680794708791076e-02 4.391938660099584113e-02
-4.908376235484597228e-01 5.973409198799433106e-01 -4.898010381117970935e-01 -5.343044658174007401e-03 5.718611399338587864e-01 -7.477350844184031953e-01 -7.993806224820891870e-01 2.626049626766503442e-01 -3.388653821774176844e-01 -7.030770544379243425e-01
-2.210069811762573888e-01 -1.854248028700555273e-01 8.523340435906685830e-02 1.396698269206154974e-01 1.505035270995372099e-01 -4.298007517688438028e-01 1.153378516911238022e-01 5.826080088595022577e-01 2.161476550188772550e-01 -8.417318427066824982e-02
-5.442130357018767350e-01 1.977255390210669872e-01 -8.119824988775081742e-01 -3.337118942435486901e-01 -6.752108943738402980e-01 7.836716035319048201e-02 -8.327513219588824622e-01 -5.074358045847014997e-01 7.990482638825573414e-01 6.883418831773330249e-01
4.851869990437912561e-02 4.730822925751452385e-02 8.677108258393365081e-02 -1.057059791696485507e-01 2.892982892311242796e-02 -3.637063143650574870e-02 -1.303298486665794079e-02 -1.134442898939437908e-02 -3.837065644508369706e-04 -1.051832911996940364e-03
7.748055124165370566e-02 -2.089696023377920209e-01 2.934184424924844437e-01 4.337487706827194422e-01 -4.859192803737470423e-01 1.799586509466548356e-01 2.330939213218380102e-01 3.722935871985781631e-02 -4.989387540257237408e-01 -5.638248701306632915e-01
2.886546133794733460e-01 -1.477271627094049189e-01 2.846223580688137522e-01 -3.079688040465495408e-02 -2.383481019729586647e-01 -2.812422514868411771e-01 2.241274438701167104e-01 -3.283305673995675078e-01 -1.600414431681158600e-01 3.616251123397050682e-01
6.966109595291801737e-01 -4.808347776766461745e-01 4.770114053129441700e-01 8.243404421268458737e-01 6.135969768776624589e-01 -3.279056020536904453e-02 5.270397361120620072e-01 6.937625743417300539e-01 5.925527215934138781e-01 1.054696561845762937e-01
9.271935811191236998e-02 1.168625693253740189e-01 4.647164152428407413e-01 -1.454755376611492623e-01 1.898027200992945529e-01 -1.986815311896396041e-01 8.914771361576152853e-02 2.676953530327684239e-01 -3.745353693626783387e-01 -3.585025853460960255e-01
-3.587917131413732585e-01 1.339158856150447496e-01 3.859456098403332702e-01 -5.827163224840380407e-01 5.716763155321815670e-01 -1.255400322265950719e-01 7.225300157738576701e-01 -5.618642357574771262e-01 7.502869725761021624e-02 -4.122058897822691165e-02
1.625115459188305744e-01 -2.271886184606749515e-01 -4.322146455921938579e-01 1.399447887715343612e-02 4.874028246903729100e-02 -1.102874597907661097e-02 3.973672437468242502e-01 4.137098306889411825e-01 -3.090884523261990327e-02 -5.384849414841255122e-01
3.068186012998576628e-01 -6.183013628098088521e-01 -4.785107228043095629e-01 2.990090122856135790e-02 1.565368187316976134e-01 2.937700717405185569e-01 -2.643982889980515116e-01 2.021628515671951565e-01 -2.725015359097862633e-01 -4.048230442397250939e-01
-3.774481189733266961e-02 3.730448847857225081e-01 3.231233785606957287e-01 1.862089473650768712e-01 -6.209979990157705326e-02 2.230759261205008670e-01 -3.276389891349340555e-01 1.864683453648068034e-01 -9.077127598536719258e-04 -4.249999249495776676e-01
2.514731789111299132e-01 -1.876742997395750290e-01 -1.580886902284944495e-01 4.531035744385727981e-01 3.889231607996657125e-01 4.634693220467016594e-01 6.963183775337110637e-01 -9.221957823327134318e-02 -2.962007035442509872e-01 3.383787073162939363e-01
-5.163428450769974587e-01 -2.226442587031217113e-01 -5.246220219907510307e-02 -1.445155331171108469e-02 2.642764731431255232e-01 -2.595009559078957362e-01 7.536968695693206828e-03 -1.856640174164076729e-01 -2.879279702858836276e-01 2.423620117358644410e-01
-1.942472252240161068e-01 -9.930394320887139803e-02 -2.946996502358648629e-01 3.257875536009971484e-01 1.935932774205334495e-01 3.678102221210498568e-01 -1.686916594288198623e-01 4.468210259870411538e-02 -8.834072132943579861e-03 -3.590952293597167444e-02
2.200834747774892686e-01 2.400240498641431908e-01 1.774917881329244052e-01 -2.186358808299436463e-01 -3.692145005117621892e-01 -2.453941367720744449e-01 2.256024462415979759e-01 -3.253976441569403910e-01 3.595965138806456740e-01 6.651959333076853942e-02
-1.011836531164629947e-04 5.334219171256786574e-01 -4.412469417798219884e-01 4.753419200607060247e-01 6.468680560611902441e-01 1.771494101725976378e-01 3.226858427918973815e-01 2.758668349588250246e-01 -4.691202670563214827e-01 -6.464658576712077886e-01
2.918819807646953479e-01 -3.841550106810691090e-01 -4.182345146043555117e-01 -2.400915444170548529e-01 4.876881033358475559e-01 -6.345701368160074074e-02 2.179869255565033623e-02 5.351185913825095009e-01 2.706617368259457979e-01 -2.553264276862051152e-01
-7.330179806682161903e-02 2.998913519459292520e-01 -2.530572741577830631e-01 1.813704395700099781e-01 -5.145087728364881041e-01 -1.676771890753797623e-01 3.093127678028939620e-01 -2.768371599781344061e-01 6.716756219479205203e-01 4.545888723507600648e-01
-3.727192231455467297e-02 1.016348255142089513e-01 2.435226418051456287e-01 2.192644080131659901e-01 7.714341244010464171e-02 3.896055468907190789e-01 1.796029438843576020e-01 -1.019630255658613843e-01 9.537607076423752772e-02 2.789437878453654429e-01
