6.302482276963009555e-01 -8.006379632914180089e-01 -1.146035689973989302e-01 -6.205368277423610746e-01 3.236662620725591077e-01 -4.556011379298350317e-01 3.506553165142660689e-01 5.930921224670842040e-01 8.035291432243782950e-01 7.090533949396086166e-01
1.499610310400223689e-01 1.205734406108559253e-01 -3.898749821471376720e-01 4.034261120156319991e-01 3.972990370250137904e-01 -1.098926459653030707e-01 -2.518925178947829524e-01 -4.320011882614111509e-01 5.171313080732670153e-01 -2.685339094311605668e-01
2.810444342793523287e-01 4.425324123749869165e-01 -2.037922405115701746e-02 6.590833296720025603e-01 -5.703199932703024722e-01 -2.942337566325094467e-01 5.584773415985934131e-01 2.480296882961284810e-01 6.817122967563323810e-01 -2.661991612874646251e-01
1.488789580259900491e-01 -2.613154793679662302e-01 -7.879201270811407587e-02 -8.933570612337603245e-02 -2.083192164876104813e-01 -2.387359328387087809e-01 2.902336357365296049e-01 -2.575492465459742752e-01 2.045836097746102367e-01 -1.298035799570415594e-01
5.563934572151457459e-05 -6.737329083181542617e-03 5.832315734867049573e-02 -2.096120282030044732e-02 7.063928042220775361e-02 7.309551288037494966e-03 1.636169731518137202e-02 5.900282542927568624e-02 -5.041658428847906048e-03 1.973265045281135527e-02
-4.456322492726221274e-01 -7.477707040883332379e-01 -4.072112926688086637e-02 -7.937908731836101905e-01 7.019200426343606969e-01 -6.937413134215936195e-01 5.532534542111511300e-01 7.115650972447249423e-01 6.746821057349744466e-01 2.297799294141515958e-01
-7.650363361304007848e-03 1.340024336499729685e-01 4.223529323915244799e-02 3.474666189689908265e-03 -1.314178382366138972e-02 1.246753950959580103e-02 4.756039365088895327e-02 -8.856736278914149841e-04 4.339250788466803704e-02 -6.000547163694430579e-03
-5.357988348066217155e-01 6.819286016930568017e-01 7.733133117220197805e-02 6.873752204880145822e-01 2.268685976875604859e-01 -3.249203930144101693e-01 -3.844317324990301765e-01 3.210373521297827937e-01 -6.057341746113079628e-01 5.613763707408695458e-01
-6.857838562585551190e-02 5.911939022244383501e-01 5.520679939980107642e-01 -5.613139976097718531e-01 -2.796529622618200706e-01 3.698165436753089175e-01 -4.227156720253377742e-01 7.187990226096465651e-01 5.173940826294946005e-01 -1.893955194404749465e-01
1.214874766550335479e-03 -4.780922998209183121e-05 -2.968890256722920770e-03 1.679647597125528274e-02 5.263083043284546431e-02 2.599526560704181616e-02 7.052500060633315818e-03 3.304679729443103092e-02 1.613847363248286509e-02 2.672370657804907026e-02
-3.453876770423424530e-02 7.132746484210697457e-02 1.020032615151646588e-01 -1.319236166220195405e-01 2.595478790744646935e-01 -9.656328167979778138e-03 -3.818795959161542380e-02 -2.418809904503983407e-02 3.146685087187820612e-02 5.462649911067251479e-02
3.425758104456159137e-01 -3.191076364146773203e-01 5.933416369901071130e-01 1.865651485675249299e-01 -3.494062249203374465e-02 -2.091596822554848134e-01 5.406770137134907506e-01 5.065265921129714632e-01 -4.535988753546933427e-01 4.089871331939264887e-01
-4.273174992550494156e-01 -4.247378799511647429e-02 4.489038184190835556e-01 5.884045044659778068e-01 4.662804984309548706e-01 -4.741766878157084864e-01 2.079276830390718867e-01 -1.353803839512668916e-01 3.186350509256068997e-01 -1.306706296993693228e-01
4.221538049254064950e-01 1.960154404138041706e-01 -4.646540180335221870e-01 6.425287460719868449e-01 1.748880133417993199e-01 5.435749643820958488e-02 7.441821063484513887e-01 -1.658280728872907062e-01 4.117866290229030279e-01 2.863760981278365425e-01
3.117891313956536181e-01 -5.510082826878942575e-01 3.547892583090732077e-01 -2.375854989448736021e-01 2.909182184033837215e-01 -1.824568264563064535e-01 -4.567361144977591381e-01 -1.677588802127475132e-01 -2.003218919463729819e-01 -6.873897786808194077e-01
-4.609552179183754907e-03 1.389805108161680340e-02 4.770754589345162222e-02 1.265995749289921049e-02 2.774279989198995440e-03 3.611624516494307824e-02 5.961203230850410824e-03 -2.517387941685489839e-03 2.091034043853692501e-02 2.070861738094190163e-02
-4.535164244881518814e-01 1.118715342276708630e-01 -5.870594192583699078e-01 -5.063956892915736363e-01 -1.091342508605095372e-02 2.230455920482833643e-01 -3.744216235318825053e-02 3.861916819299075487e-01 1.059812236482009368e-01 2.456418952436235648e-01
8.298460083459028302e-01 -5.337601628382725449e-01 -7.693534488766010648e-01 4.701683833495717280e-01 5.955880215002019584e-01 3.149176178615257227e-01 1.116469232111316073e-01 6.656331388224846490e-01 8.042154426641292542e-01 -4.411420947766441225e-01
1.978641018706560339e-03 4.271524452748681061e-02 -5.933290305294133260e-01 -4.785601308015639543e-01 -5.801871475863883409e-01 2.867307892957128290e-01 -3.653108399295729170e-01 6.667304679594315830e-01 6.769462312761193035e-02 1.290904599378939373e-02
-5.559376965440403912e-02 2.837877680076691389e-01 -1.468015427994328603e-01 5.116026862752804522e-02 1.743091987016218147e-01 -1.018612534747171394e-01 -2.483301804395244561e-01 1.857154059830599946e-01 1.756539169769194830e-01 7.649842249532929489e-03
5.273844123499115202e-03 -5.700700707011523843e-02 -2.574916330478466686e-01 3.846469689750124377e-01 -4.311577389318349551e-01 -2.604202292812115085e-02 1.919929176746521249e-01 1.773213088300427398e-01 -3.258971286520339627e-01 1.899768760906559162e-01
2.888368735453873959e-01 -9.627402730392892183e-02 -2.660671618984122300e-01 4.187008507906919696e-01 2.760574515752011737e-01 1.693864436710318666e-01 2.235999135022689599e-01 -8.706873625910155345e-02 -1.315832745956187211e-01 -2.173564350864102546e-01
6.586811420599847366e-02 4.537736365747589984e-01 -2.442728876040105301e-01 1.882472442398530343e-01 2.783503025618076498e-01 1.446773898696314675e-01 1.101723479669915323e-01 -8.645593610445151400e-02 2.660191819398792790e-01 -7.375372509500197071e-02
5.223524221318398553e-01 1.112418997291980266e-01 8.167601448111164730e-01 -8.843346141453619635e-01 -3.956721756608735929e-01 8.727513788075393075e-02 7.581440021632355197e-01 -7.726361337407329222e-01 -2.096652930909441159e-01 -8.085588991100448597e-01
-6.291253445663114174e-01 1.837095358544018620e-01 1.096323445533727882e-02 -6.605851938079580765e-02 3.376662299463245032e-01 -1.398866077339454284e-01 -6.864560919593279964e-01 4.681814334632346530e-01 -6.545018891216973778e-01 -6.092921503648425219e-01
1.373782032279151702e-02 -7.341520272644797007e-02 -1.762582763820256387e-02 2.633007027289043234e-01 -5.101900517647032229e-01 4.512635845303583082e-01 -2.188807962975890531e-01 -2.632162305145144959e-02 2.327545839947550432e-01 -1.172962335570804371e-01
1.711420588805243337e-01 -6.255451431593759271e-01 -8.106760680930289453e-01 -8.162143750239150841e-02 -3.101727702926176389e-01 -7.991434863974545832e-01 -6.675329015589243076e-01 -7.254063197008033814e-01 8.643273330779951413e-01 -5.170959697564148083e-01
3.717019177067685254e-01 4.772709883379030460e-01 -4.071831510139600069e-02 -2.699169272485915649e-01 4.407070698109123441e-01 -2.890129924505945302e-01 5.186995712295006111e-01 3.556145915974608385e-01 1.568007654887200453e-01 1.396865376563329042e-01
-3.200564061897622770e-01 2.864952134841486919e-01 -3.446342725724901856e-02 3.090235652642573522e-02 -6.928837967647569762e-01 -2.457619214876526903e-01 3.287548566662181759e-01 -6.568916209547419616e-01 3.888103084781291963e-01 1.408770653865199559e-03
-1.751696787004141109e-01 4.805648912240769177e-01 6.164231668369768435e-01 -6.407456347414826336e-02 -2.333848740317844561e-01 -5.438304398125501926e-01 -2.586546630298905969e-01 -4.173271103041863439e-01 5.244866607017479865e-01 3.676511338386449501e-01
-3.793672633177588294e-01 -5.472290747847772252e-01 8.695261635407470768e-01 6.490460169286621506e-01 5.131299287295406630e-01 -1.406864259273861439e-01 -6.788707111905123437e-01 -8.236955413597626952e-02 -5.816626838662841692e-01 -6.624524119598171890e-01
-6.635431353496665241e-02 -1.099600295244785031e-01 -6.947062212355853417e-01 3.351058221940205750e-01 -3.819237063046861946e-01 -5.897582327524217849e-01 8.027190277612821223e-01 -1.496027879065190413e-01 -1.325905078569483697e-01 3.504779265569467617e-01
-1.487574530795238992e-01 6.095002659161896652e-01 -4.906354834919299801e-01 -6.713553754307577393e-01 2.533741593164384742e-01 1.316833486633385564e-01 -4.237660960650672243e-02 2.484011466037832627e-01 3.149568887654049520e-01 2.532347349776336576e-01
3.124095806846202139e-01 6.401996487769477939e-01 -2.226441258280331403e-01 3.581332603218693178e-01 -6.303731655223872021e-01 -5.853105802242206668e-01 1.086277831085863399e-01 1.977284070779744829e-01 -1.140680917249247001e-01 -4.444633266164308427e-01
-3.319790814253108235e-02 3.139435503690308216e-01 3.534796090396189472e-01 3.144225113181945419e-01 5.186962966030431721e-01 -2.830902126066423552e-01 -3.718055349610960847e-01 -5.508316645379907062e-02 -5.657483510928678072e-01 -6.130435519266225902e-02
-3.528473974120764356e-01 5.940127885867267921e-01 2.728685545389049616e-01 4.334536545379751860e-01 4.089485439369707764e-01 -4.514089112242349877e-01 3.607306113855012208e-01 -2.693722739442094838e-01 7.210693640684855410e-01 -4.231520153651381344e-01
6.917793755777293385e-02 1.259728676107731149e-02 3.324375990223610300e-02 7.614008846197745355e-04 -9.598874469346608098e-04 -5.372423122409665172e-03 7.916636128150944182e-03 1.048248232854874229e-01 -3.571573981419921221e-03 1.460983587379960369e-02
2.147980273231813175e-01 -1.695893202284215473e-02 2.216859341558367544e-02 -2.590565529306253501e-01 -3.857581055369347367e-01 -1.125540233370523821e-02 -9.647317011479389359e-02 1.737354789104140207e-01 -1.318721414479377685e-01 -3.990280749988738829e-01
3.843416882498751908e-01 -5.507772337529264206e-01 -2.875362067493117402e-01 -7.055764962986837974e-01 -6.894796815668921552e-02 -7.012376472661037141e-01 -2.020177703503610311e-01 -6.341214442867788570e-01 -2.158746776747885732e-02 3.020452211370059370e-01
1.690387881973964140e-02 -1.255066537321227749e-01 7.758318833515506774e-03 -3.425758690080600577e-02 1.615522077160162218e-01 3.495621157546743157e-02 7.714850078502809294e-02 1.106398561044736606e-01 -4.178983676654719065e-02 1.004440601895797425e-01
1.237435133411465410e-01 2.550242157231552009e-01 -4.561503605974335379e-02 8.700732288049065066e-02 -5.630350445494437112e-02 2.098365020185599672e-01 -3.389293085291743557e-01 2.071550007191532428e-01 3.694560318066987623e-03 7.744623673028311339e-02
-3.943102156200301578e-01 -4.484585297519825403e-02 5.835628785322366507e-01 -5.124692251531833692e-02 -2.567125462292603189e-01 7.175900161379673570e-01 -3.183361100398255372e-01 -5.299692543002626488e-01 -4.084638692010776895e-01 5.385652122379358531e-01
5.808660098702993491e-01 -7.728498276578529835e-02 -2.597893113902575712e-01 6.624718034519282428e-01 -2.620223740212546670e-01 2.569031559631569997e-02 -7.759602199285812185e-01 1.498526860381815540e-01 -5.356240084544297009e-01 7.422419143370752037e-01
2.635299332791936067e-01 1.871854887067515849e-01 3.300224569987974393e-03 1.243394393673820097e-01 -8.378189786372411407e-02 2.582905605920380460e-02 4.242527316169614898e-02 6.536152390306906868e-02 1.279367303193286176e-01 1.550588710607219145e-01
-5.193442314003323679e-01 -8.479035416361458966e-01 1.530904363283221714e-01 6.032172636049865089e-01 -2.744635599644359991e-01 5.901315317089671497e-01 -8.408756245533779428e-01 -6.917573797870717189e-02 -6.881119044865219303e-01 6.392737879275487423e-01
-1.678756464319971706e-02 3.796201302525944316e-02 9.919771976288854765e-02 -1.361429668775430632e-02 -9.461773382029317614e-02 -8.544886103964258184e-02 -1.368413655735518930e-01 5.085051060711714976e-02 -1.146290049781970022e-01 -7.699231149205497393e-02
2.037264819969876462e-01 -2.405651362510385083e-01 -4.426250409876525405e-01 -2.967107025886557281e-01 4.294651415167171082e-01 3.699428103183826089e-01 -2.048385954892252836e-01 -5.486709971782908202e-01 -5.240297117310723785e-01 5.015635894070172851e-01
2.904209997036397151e-01 -5.296751323871113915e-01 -2.392919769728584292e-02 -3.533969388748597340e-01 9.725129087187250887e-02 -3.056395436109013986e-01 -4.340807861081473762e-01 -6.823938710261502616e-02 1.070151358217352570e-02 1.856674967211331406e-01
-1.274455187230658648e-01 -3.203603022734245465e-01 -8.703795826457466633e-02 9.071591677403025022e-02 1.472093210763055215e-01 2.421572406306139735e-01 2.721261584268602762e-01 2.325443465928316578e-01 1.494115936936988576e-01 4.127014355235574666e-02
-8.588702078866289336e-01 4.485169388859603923e-01 8.931926342323022461e-02 7.369591054263613383e-01 -2.696551249955466134e-01 -3.185076009324528945e-01 -1.519402786280374951e-01 7.646118146818972061e-01 -5.113462921817085727e-02 1.410568638996919921e-01
-2.510940735409262214e-01 8.465198849338440024e-02 5.688136518153010801e-01 -4.054449912678486090e-01 2.008960495027830306e-01 8.111083398898021324e-01 1.961617579306430548e-01 -7.811892189955439367e-03 3.386781294960679034e-01 -4.168760210372985942e-01
1.258284548765356212e-02 1.578987391789762884e-01 -7.517879222111954751e-02 -1.918278315751636987e-01 2.134475149732515675e-01 -2.622099147488067827e-01 -3.814318584368703302e-02 1.630800014839504236e-02 -2.364751398943788080e-02 -1.648179613754771067e-01
7.359368515069752981e-02 -4.819857991006579884e-02 1.535297288129636450e-01 -8.812257171884017859e-03 -4.389674329715447659e-02 -6.239572910302623732e-02 -3.634493991679110109e-02 3.044709293462144126e-02 -1.725272793379991343e-01 6.293653899917811545e-02
-2.865958691379877354e-01 7.705040718753779494e-01 9.185115946082704763e-01 -6.233689122948595784e-01 -1.046652394477478321e-01 -2.690968570428123874e-01 -3.110012757052746935e-01 -2.188258295406977083e-01 6.840387799725770046e-01 -4.178676743428882401e-01
-3.415554434626981717e-01 -4.372389248614239055e-01 -4.458142463045159931e-01 2.762911706890660568e-01 -2.323786806784380321e-01 7.244923378543061121e-01 -2.120379334440224417e-01 -5.157345219548808979e-01 7.626097535830465846e-02 4.429495451452825638e-01
-5.077803887572051034e-01 4.421582674065538954e-01 5.396983716134016174e-01 -3.209044907360162346e-01 -1.571069775903035370e-01 3.171163622553426764e-01 -3.199323553632170691e-01 2.316656616769743882e-01 -5.810505794778552113e-01 -7.130693202231375150e-01
-2.391456856704589351e-01 -4.590517343873207756e-01 -6.346341366643599713e-01 -4.089036151917921358e-01 3.863244892652700768e-01 -5.458858503714433263e-01 5.052012287167961802e-02 -3.233391388745267547e-01 -3.719884432790093176e-01 1.540974741218225363e-01
3.291425940894888991e-02 -5.181361939678378464e-02 -2.560907378472792040e-01 1.871305449796581422e-01 2.235315635589624206e-02 -9.537748980182346459e-02 6.963935189269579440e-02 -2.762941063832689836e-02 1.107236923847007837e-01 -2.478270517297706532e-01
-2.661605327008806920e-01 1.639992905031760206e-01 2.007245259125967352e-01 -1.531940008738353343e-01 -5.891690271068631413e-01 5.656599710242966594e-01 -1.315170619906481375e-01 4.434817239369593933e-01 -1.813151126547007941e-01 -5.552238832633883403e-01
9.759569878661231157e-02 5.609972608008331058e-02 -4.538388781599968745e-03 1.312231951898223670e-01 1.288146157480478116e-01 6.338030451014406430e-02 5.276022624271136524e-02 -1.556916291672534244e-02 -3.817656487828573197e-02 2.732782157602600681e-02
-5.667588123226169339e-01 -2.826737589657709049e-01 -4.581077737562124219e-01 6.329509217259021714e-01 -4.809898408702668049e-01 6.983206046805184863e-01 -3.441436780321913691e-01 -4.643350038866914109e-01 4.829791791477233143e-01 5.616403130588035753e-01
-5.396376906897664139e-01 -7.967507219863487200e-02 3.623083930974630440e-01 -3.811324191798736664e-03 8.204236023762228047e-01 -2.674527196276039742e-01 -2.280595716130367212e-01 5.784939292088322471e-01 -2.557889096504623594e-01 4.233309133456497619e-01
-1.381680743025881508e-01 -7.149888677542616533e-02 7.549412631918549221e-02 3.151453000628064161e-02 -4.552827126772261701e-02 -3.184643291865876802e-02 7.550729987885999861e-02 1.381792715004454041e-03 2.278660986961073345e-02 7.218274548030988169e-02
-1.204731742898120100e-01 2.495109671461078205e-01 -8.747930212590621438e-03 1.011961430335139439e-01 2.135463644975345576e-01 4.306811001367154279e-02 -2.057987311820420051e-01 -1.546731999772273380e-01 -6.462521694750276990e-02 -1.127451073929405106e-01
1.503484086306866932e-02 -8.709751351188675661e-02 1.337893814754644549e-02 -1.906040221224852005e-01 1.191985970496048097e-01 1.043178003894184858e-01 -8.807388068315517848e-02 -3.022324705849778748e-01 -2.959256054270477110e-01 -5.928998135477367981e-01
5.274620882389008392e-01 -1.291887788240830004e-01 -5.340339636093897058e-01 -5.709255530401093903e-01 1.306047608939574778e-01 8.804050852439038177e-02 -5.272901642552189072e-01 -6.669435837272773282e-02 -6.348037746706823858e-01 5.195824036097722587e-01
4.641784918033674545e-01 -6.387403404994473899e-01 3.796434377579679387e-01 5.761860660580321314e-01 6.327045228047182279e-01 -3.031210546257933069e-01 4.031765519878243720e-01 1.679059298365446762e-01 -1.173795325235539588e-02 4.834727411379126649e-01
4.308381414460093484e-01 -4.533577469598805698e-01 -4.056633819681880193e-01 1.736862540116634324e-01 -1.406605172437984108e-01 -4.196789486885125209e-01 5.161652473394694463e-01 4.319325607992743898e-01 -1.297031092607223157e-01 1.146053812340411537e-01
2.090328925923007619e-01 7.922730906282918761e-01 5.085679969896645947e-01 6.010902517393552635e-01 7.219321328835365259e-01 -8.030884033713152625e-01 1.668793887973500922e-01 7.962298264339380260e-01 3.091352374390898272e-01 -8.712213823721528527e-01
3.117581050233220186e-01 -1.279393285030450134e-01 5.727961710377479920e-02 1.411322092565920061e-01 -2.062984503564675165e-01 4.173241086697369040e-01 -4.671786258602213943e-02 2.311723975362766637e-01 1.488343121043112227e-01 3.398600336750103867e-01
4.410954620585313402e-01 -5.556852670759561130e-01 5.636407050497049820e-01 -3.564131495912017389e-01 -1.834185978312286303e-01 -1.577217064663204438e-01 5.517646644962717062e-01 -4.516475290053721947e-01 3.282999032191227795e-01 -2.399673372586773878e-01
6.766643859398117078e-01 -2.550213432507490996e-01 -7.074242342164225317e-01 8.932891602084971350e-01 8.627658000439832053e-02 9.339554154856362089e-01 6.929687908154854581e-01 -2.708384302979757741e-01 -9.291112423463571135e-02 7.890640493081271245e-01
-2.187630958152343152e-01 4.893426984659035063e-03 5.277222796893511064e-02 -5.358671947072249919e-01 -4.375406774167229229e-01 -2.345871341693736289e-01 2.285760878931020201e-01 -4.128748889834893410e-01 -3.033352782211730658e-01 1.484349921990922305e-01
9.607882201301296693e-03 3.608478074724253554e-02 8.909629938268237917e-03 6.172470560625038100e-02 -6.053319227434858854e-03 5.653320501094754452e-02 2.343290514905092565e-04 2.812545898352663415e-02 5.640659857096535362e-03 1.705199646063008251e-02
-1.231789766126942243e-01 -6.047834203634232519e-01 2.810756860244846833e-01 3.189058346701736935e-02 4.855349284399591570e-01 -4.565105265262221490e-01 2.413497380880479382e-01 -3.978720631062125923e-01 7.165882963912231229e-01 4.421179030270127597e-01
-4.833199459021524369e-01 6.657399920685350692e-01 -1.043454329819201581e-01 -1.653428129063483909e-01 4.609895484087201956e-01 5.155034784637908540e-01 2.648027480835245528e-01 4.627650653822620308e-01 -4.672518651337861928e-01 -3.978680373741698140e-01
-6.927887549730007977e-02 -4.414516177005064490e-01 6.289171500074959564e-02 -5.121085072755548334e-02 1.756584333538221687e-01 1.719041221263457320e-01 1.239928307282855691e-01 4.253492773860383380e-01 -2.981335240457006486e-01 3.466924739175593628e-01
-6.786175443874800095e-01 3.946275744758661608e-01 4.490045455715949152e-01 7.219065817969219090e-01 1.312769223688293740e-01 5.903747695189337508e-01 -1.916456031031177065e-01 -8.887988239676804236e-02 7.066548690523181131e-01 9.206389928516922616e-02
-1.494861713919987678e-01 6.258598801572284875e-01 -5.627993486370510556e-01 1.922863689118746444e-01 3.076052321866377670e-01 4.187861514433974253e-01 4.012598427338412432e-01 1.160372726913056901e-01 -4.274339276310980262e-02 -1.582316787792316937e-01
2.069969497665532718e-02 -1.348093305481893288e-02 1.410906901379753789e-02 4.069099815957771121e-02 5.914633130782707970e-02 3.702723820319951675e-02 6.805168353574397519e-03 5.027903151769176626e-02 1.498695982692725866e-02 3.620122458013736583e-02
-4.908923293892237805e-01 5.968082109660989287e-01 -4.898225338403845441e-01 -5.246734983783867164e-03 5.717552499566771473e-01 -7.478789177381527375e-01 -7.995304067725138575e-01 2.627543759100294252e-01 -3.389487669926916635e-01 -7.031721735725647848e-01
-2.228684242068907084e-01 -1.895741962395967872e-01 8.651917025060924804e-02 1.405447555168845564e-01 1.525393770856092734e-01 -4.334925668653923370e-01 1.165096722408500707e-01 5.849654131257687739e-01 2.184324259210929098e-01 -8.466402057630335876e-02
-5.442599338843661094e-01 1.978075365839088995e-01 -8.121038457610432193e-01 -3.338059095556635270e-01 -6.751938004626090173e-01 7.822135094690874091e-02 -8.328195403394377250e-01 -5.074682491714924693e-01 7.987148471892787649e-01 6.884813500580284629e-01
5.053163876897246581e-02 5.016906027994245953e-02 9.071749673178484963e-02 -1.204103497251781812e-01 3.554050092476437883e-02 -4.387401454392826639e-02 -2.238631556036230208e-02 -1.962150949133239716e-02 3.115692963547639013e-03 -5.131728049668059059e-03
7.789951061370582741e-02 -2.089676450408176900e-01 2.947493844880080816e-01 4.345609308422120898e-01 -4.866267158756474864e-01 1.795464510829546112e-01 2.341084029631770591e-01 3.693548119721681844e-02 -5.004488988574474773e-01 -5.649424862800077607e-01
3.036288181750412263e-01 -1.571712983294100141e-01 2.972212952999302993e-01 -3.398202220716677741e-02 -2.454533395447533739e-01 -2.974432875658423736e-01 2.221883827913975484e-01 -3.498591514361008570e-01 -1.722212214611112402e-01 3.761820756592301196e-01
6.965628853577103818e-01 -4.808616691976392854e-01 4.770715600799457778e-01 8.243004842334817894e-01 6.136616020128032867e-01 -3.275409547745893046e-02 5.269497667990428180e-01 6.937644817720125534e-01 5.925913234662945062e-01 1.055006584479350751e-01
9.214659424405625965e-02 1.169809869236841937e-01 4.635849363590021643e-01 -1.457511355242415707e-01 1.900683062912060517e-01 -1.987758306331391944e-01 8.922954769882741888e-02 2.680675758860027180e-01 -3.750952587380310121e-01 -3.588569518358092347e-01
-3.594777338279433465e-01 1.338386375710766130e-01 3.862978650894530186e-01 -5.831546766266421100e-01 5.722397814775682656e-01 -1.264209731551156624e-01 7.231723903310974810e-01 -5.622721254211958675e-01 7.512855814336580340e-02 -4.119816248777483092e-02
1.634812807340979279e-01 -2.305405002176478257e-01 -4.371230881247581412e-01 1.494531681909500379e-02 4.956985886530446833e-02 -1.480307785040315197e-02 4.000218055543788842e-01 4.202336411924676440e-01 -3.261919105566445098e-02 -5.475830227330602540e-01
3.074861537560070190e-01 -6.191577733204125522e-01 -4.799334022658025556e-01 2.962204470037853310e-02 1.571481391932613159e-01 2.943742358621740940e-01 -2.647002662462148992e-01 2.026425425141275827e-01 -2.742280998627505406e-01 -4.055706870783712392e-01
-3.838663974848367799e-02 3.730346342383195068e-01 3.251239328967647779e-01 1.881040348818999175e-01 -6.389224170884755249e-02 2.232173557126078678e-01 -3.292358737639207722e-01 1.878136577675944552e-01 -9.661623575591053812e-04 -4.286046070977891920e-01
2.519187633885773270e-01 -1.878793766644085150e-01 -1.589071336790643385e-01 4.536878263169998315e-01 3.894354512831972315e-01 4.632621247469068670e-01 6.976027672497494558e-01 -9.167984737898471348e-02 -2.973971675674313975e-01 3.378130826775242457e-01
-5.163343933824867671e-01 -2.243872352755321986e-01 -5.266929252428308172e-02 -1.708637963204442944e-02 2.636528152804934466e-01 -2.627507061841514169e-01 8.208639086332210691e-03 -1.862295571776354797e-01 -2.884868535994692396e-01 2.419108473599287656e-01
-1.921047187233045350e-01 -1.067480970762654247e-01 -2.979912472982722549e-01 3.379494272947956568e-01 1.913839189658912143e-01 3.736123866665783111e-01 -1.749325580489906884e-01 3.637465233353623373e-02 -1.485794514028991077e-02 -2.953486834417222429e-02
2.224897441537359577e-01 2.404643483326811271e-01 1.787145807519072149e-01 -2.199856827257941350e-01 -3.712392313394343724e-01 -2.460285844510070596e-01 2.240341761946848254e-01 -3.280844582412206778e-01 3.618482419455404386e-01 6.710439337069283583e-02
-1.851497940713807920e-04 5.332870039220423131e-01 -4.413830119672214614e-01 4.755849302524106648e-01 6.473771440913681507e-01 1.772855575568834108e-01 3.220446558451426911e-01 2.759028688400559370e-01 -4.693015765733073996e-01 -6.467305071596589627e-01
2.927703456008728389e-01 -3.854430642229076942e-01 -4.203360671485811828e-01 -2.409618793407879711e-01 4.893056906800949402e-01 -6.442520692542332006e-02 2.168506583239738009e-02 5.367789187312536070e-01 2.713858474454449166e-01 -2.562684825450697312e-01
-7.454141759888067986e-02 3.010162936574260484e-01 -2.538103581110368046e-01 1.810118128619833122e-01 -5.152396378572885460e-01 -1.675218707725431022e-01 3.091801521374770156e-01 -2.763129326499099703e-01 6.731285075778525862e-01 4.560737742083732504e-01
-4.234553015699888540e-02 1.055449797861904987e-01 2.481233412787591797e-01 2.225716186436896560e-01 7.717774637519418668e-02 3.952693107847941589e-01 1.794319731682243457e-01 -9.987439619279314673e-02 9.851765488419625405e-02 2.825260106121454950e-01
