6.356562603615686369e-01 -8.134961383466925433e-01 -1.152672214847994675e-01 -6.255899983530111008e-01 3.282077920961970485e-01 -4.578977402856050927e-01 3.463296835923005412e-01 5.959302429248191091e-01 8.045772014668879368e-01 7.154293106671355540e-01
1.511312631054861355e-01 1.210474918388983467e-01 -4.096241363016828729e-01 4.152987852622616605e-01 4.080704680038872989e-01 -1.170326198861671996e-01 -2.514023631177051410e-01 -4.383903070526386503e-01 5.266024301230085580e-01 -2.734334503432789276e-01
2.990276769686322500e-01 4.547027547078572596e-01 -1.767767491178879810e-02 6.836351578414644470e-01 -6.008305433177458799e-01 -3.073795772854486241e-01 5.869071461751973473e-01 2.488262703930559094e-01 7.035043723145018024e-01 -2.762503127137447834e-01
1.476987765202493752e-01 -3.473737229470059695e-01 -1.115273399249993719e-01 -1.364161751989331761e-01 -2.811456956086229586e-01 -3.247752377336111107e-01 3.909486078501437367e-01 -3.739428637276695500e-01 2.447205844182776258e-01 -1.937673877342348250e-01
4.450255050997701037e-03 -6.048561343975249367e-03 5.377313573743153913e-02 -1.829868564305556569e-02 3.839472161582239973e-02 -9.144523569384046743e-03 1.720367093440618861e-02 4.745693051019916897e-02 3.397235738122441392e-04 2.292687606174095491e-02
-4.465713463162510610e-01 -7.507567914170669710e-01 -4.082635383383242250e-02 -7.947723610239771919e-01 7.044780026880045343e-01 -6.943092524539412613e-01 5.547737231014059356e-01 7.123976983479464176e-01 6.770554669864994324e-01 2.290190437635475640e-01
-6.646587972709512571e-03 1.082672976821089511e-01 2.869421847280117718e-02 -4.310789574422701879e-03 -1.389581425389127892e-02 2.223706644391605647e-02 6.040757939856166575e-02 -7.365752425745084736e-03 1.921574842939146460e-02 -2.967448383695518027e-02
-5.433540734519730631e-01 6.924119600381060113e-01 6.893773832916166855e-02 6.966377140375388244e-01 2.295075187223306612e-01 -3.281003629664500654e-01 -3.890596105673235772e-01 3.246970529165140729e-01 -6.121561691211701017e-01 5.712179157172843080e-01
-7.014379039610510458e-02 5.986111903213100494e-01 5.585149106149743803e-01 -5.674845818231318839e-01 -2.822903935050714019e-01 3.744854190626323298e-01 -4.364807679280668928e-01 7.238965305689230023e-01 5.239248643836709185e-01 -1.908985356550824408e-01
6.508366709610513383e-03 -8.729881963311925119e-03 1.689907872524514269e-03 1.019119229140912075e-02 3.007963930864195404e-02 1.699671382278128764e-02 4.406597032442125320e-03 2.545617292243283064e-02 2.129518873671764831e-02 3.040992216550476857e-02
-6.605863461330059583e-02 3.093788575216557118e-02 1.599333192869590026e-01 -2.209977852011549559e-01 3.267960202662930080e-01 -1.930662602524878257e-02 -4.356545561961672891e-02 -6.904030620256570994e-02 3.186901895609833141e-02 7.194373460179753765e-02
3.475960165023682658e-01 -3.231615556907102005e-01 5.934733302369682439e-01 1.890246635705014888e-01 -3.502640018044850950e-02 -2.120771545792422552e-01 5.478938632657316399e-01 5.106583872656116352e-01 -4.596093472090952980e-01 4.123368906347958940e-01
-4.508970363653679869e-01 -3.741201101815198882e-02 4.810023278082902198e-01 6.237935386533203230e-01 4.819287868146986953e-01 -5.276205894287026021e-01 2.124777429293014941e-01 -1.420148220948103668e-01 3.356893072662220923e-01 -1.378443842477957149e-01
4.370167810232243322e-01 1.887669725071477456e-01 -4.695556418732655946e-01 6.628977984274986301e-01 1.802152373209390535e-01 4.898548429801139609e-02 7.533150543786459874e-01 -1.766866458464124434e-01 4.205693821539275845e-01 2.869736935246924303e-01
3.184871247253532878e-01 -5.605034026127541091e-01 3.493926373475318981e-01 -2.418376479054591965e-01 2.964577712862603853e-01 -1.873835222672095846e-01 -4.653664993287151552e-01 -1.732241779990517927e-01 -2.015365326014277592e-01 -7.009896582369243845e-01
5.118961941576560641e-03 1.209787389867408858e-02 4.533235535777485614e-02 1.879191595255884015e-02 -4.461850657538992716e-03 4.048224924919871515e-02 9.355841290971184804e-03 -1.282818044569550460e-02 2.409424318419045585e-02 2.440230718302013185e-02
-5.285338478113625893e-01 1.258107763570078530e-01 -6.628219428018723436e-01 -5.751537563724918867e-01 -2.152114125842035861e-02 2.822092952364183560e-01 -4.961226277709286647e-02 4.408683536027093175e-01 1.012648963186739831e-01 2.358383238520460057e-01
8.328041468240398038e-01 -5.346942569250594524e-01 -7.701891365095179243e-01 4.717052172958305922e-01 5.937108374310645642e-01 3.142273839766480670e-01 1.124831539487854276e-01 6.656414478407264301e-01 8.061141915060089369e-01 -4.415036806375902678e-01
3.093814190658305836e-03 4.410822916231123964e-02 -6.099007055375726960e-01 -4.860274586153664478e-01 -5.911591618139167004e-01 2.924454557857393833e-01 -3.717379878312925268e-01 6.693572880112226287e-01 7.048130891137954768e-02 1.289311034578916916e-02
-7.574731414293155163e-02 3.669099209931729888e-01 -1.757803352175408562e-01 5.232220601085332823e-02 1.731579017507827722e-01 -1.094265529694050942e-01 -3.163776211428351304e-01 2.609016659202457733e-01 2.479429975196521529e-01 -3.029858558778208890e-03
2.221151965366172792e-02 -6.006283842134815115e-02 -2.957937452260080979e-01 4.290285796769032767e-01 -4.889353175150564779e-01 -3.177430146517474380e-02 2.327799929801370737e-01 1.705330000165607707e-01 -3.618183266046803293e-01 2.060777788547143996e-01
3.157791136517980601e-01 -1.020905058335614957e-01 -3.314403247926062668e-01 4.656342262942229082e-01 3.084590849287809911e-01 1.773109184253685577e-01 2.601355827825424516e-01 -9.269040595840979946e-02 -1.439835855690309585e-01 -2.376400961211259377e-01
7.965172751129724615e-02 5.227811928939690711e-01 -2.992000415729036966e-01 2.227806769803143683e-01 3.241598428390905506e-01 1.663889553328917192e-01 1.227039681187539338e-01 -1.434376564545486177e-01 3.041307804289315464e-01 -8.503448429127209718e-02
5.243872078841038675e-01 1.093475685201523856e-01 8.191431334014851462e-01 -8.866733254523014862e-01 -3.972074393355746191e-01 8.830583598522812050e-02 7.608015921211078725e-01 -7.767404156347480493e-01 -2.106175780053924085e-01 -8.135802265666900457e-01
-6.468642661270886940e-01 1.868950122565010696e-01 2.297995043770203766e-03 -6.568196482240737377e-02 3.466071430843944978e-01 -1.497127653986601026e-01 -7.041331075875293388e-01 4.929654770764014815e-01 -6.773286264686927405e-01 -6.519953108222784621e-01
1.833847451801267139e-02 -1.235418616105756623e-01 -2.301750746799281419e-02 3.000857232810795194e-01 -5.646151016790413868e-01 5.019510346275707358e-01 -2.456581173042053090e-01 -2.617730600709461744e-02 2.577887643913690519e-01 -1.213577327883208212e-01
1.721341945417804720e-01 -6.269718220951608911e-01 -8.164419084303797813e-01 -8.134978135945615529e-02 -3.110036441462075141e-01 -8.014560381133569722e-01 -6.698689048334144358e-01 -7.265809985790836478e-01 8.668501060813225134e-01 -5.179350067028981597e-01
3.876336859432815141e-01 4.935433849124530870e-01 -4.509697635737418275e-02 -2.733195555437913926e-01 4.541970875274612407e-01 -3.191428523410299034e-01 5.390173808166766056e-01 3.696710262937463187e-01 1.628743543735243215e-01 1.460109830963554067e-01
-3.293722673232555298e-01 2.857432990425821662e-01 -3.220704509541062743e-02 2.535433806228508044e-02 -7.058292963012513521e-01 -2.617653486204920554e-01 3.376082105403321321e-01 -6.757359632660669968e-01 3.969015311453108485e-01 -3.857455499891303838e-05
-1.864974655739968235e-01 4.949461398188762518e-01 6.261609498166367249e-01 -5.756446941379517179e-02 -2.599671096507871204e-01 -5.689550545659244341e-01 -2.623606313669687995e-01 -4.313458647682479330e-01 5.464225121125247941e-01 3.869332918348641903e-01
-3.807796254704649552e-01 -5.561734361388097625e-01 8.727777501430979967e-01 6.511879735522831947e-01 5.177227969570751265e-01 -1.412581273877817900e-01 -6.826166687470507366e-01 -8.042755055579439705e-02 -5.864791792022451267e-01 -6.615012646566656995e-01
-6.891739197655465110e-02 -1.104429126046373028e-01 -7.096090442235193363e-01 3.423546019016526776e-01 -3.904232979514381530e-01 -6.187686856952777648e-01 8.208953787460332441e-01 -1.479687984219571206e-01 -1.378548491320217284e-01 3.489902020614089606e-01
-1.570117327824022690e-01 6.283859003808356380e-01 -5.094991210123902547e-01 -6.893561890204181752e-01 2.481072882762366538e-01 1.306899435773273555e-01 -4.396782167229656979e-02 2.472184663026663065e-01 3.247009930804575228e-01 2.717958782415345609e-01
3.231437952814230075e-01 6.600251354557616912e-01 -2.254786624587763189e-01 3.730955089383168888e-01 -6.623570529266532558e-01 -6.083817601619985194e-01 1.109882307736651252e-01 2.104499996180713983e-01 -1.095800690535726207e-01 -4.566890713353133902e-01
-2.577642287369259419e-02 3.122275368890334302e-01 3.587502141277154055e-01 3.166680301709140499e-01 5.292799839796864525e-01 -2.993714885047579211e-01 -3.847542924522421304e-01 -6.500558934922337495e-02 -5.765969336975095283e-01 -5.934471196689320577e-02
-3.602033537341982616e-01 6.083187961435106983e-01 2.609250687829865467e-01 4.549909197463863353e-01 4.317311327316496472e-01 -4.535997716322448525e-01 3.796564540349013916e-01 -2.858148322827072652e-01 7.381162196323309832e-01 -4.322339241838849544e-01
4.650363912336190342e-02 1.104118183961234770e-03 2.505589124650358865e-02 -1.722236257289917749e-02 -7.625064052469590278e-03 2.699688424637378646e-04 1.771540382729498361e-02 8.788129283517266688e-02 -8.077327737929523507e-03 9.883141723846845111e-03
2.862179143313307028e-01 -1.854663187346855535e-02 4.614911808488102174e-02 -3.576348181819614114e-01 -5.355615475230008915e-01 -5.765230102965597514e-03 -1.326131699105813078e-01 2.667546809389810258e-01 -1.573932525318507414e-01 -5.164404198647721822e-01
3.942345048343274261e-01 -5.650873880615766565e-01 -2.971126966830794913e-01 -7.221108692405563412e-01 -7.026352281723867443e-02 -7.212738734700270271e-01 -2.050259827432567572e-01 -6.490543538365970422e-01 -2.583580873281652104e-02 2.880189223554430744e-01
-6.644739081110138772e-03 -2.161175476314292077e-01 1.118247890810479886e-02 -1.114777118065620187e-01 1.310226322096574303e-01 1.197582672684937843e-01 8.876911026502172508e-02 2.191677210220101257e-01 -5.735295526431141017e-02 1.502111552175438292e-01
1.374274482448749335e-01 2.809087591035227538e-01 -6.140629337029428203e-02 7.921261780023888810e-02 -8.126739812894404058e-02 2.846291545231863784e-01 -4.304210273988913760e-01 2.425335226585770554e-01 1.515540137063440575e-02 9.535903995284537860e-02
-4.140226740999757848e-01 -5.430485438667509435e-02 5.983133650482848065e-01 -5.873892064522962669e-02 -2.612778518761935120e-01 7.408227960644191423e-01 -3.253743269582730080e-01 -5.624302808758859795e-01 -4.191006647946098895e-01 5.303303400835479575e-01
5.869019408358133738e-01 -8.174233909473548054e-02 -2.621423282216013839e-01 6.704431271734607733e-01 -2.635975856601432965e-01 2.234906530228115279e-02 -7.817337827277944795e-01 1.495706842765398004e-01 -5.383647870578551764e-01 7.488536895141439942e-01
2.761240298844783725e-01 2.259574622459084581e-01 -2.220965917324120836e-03 1.502808668260620095e-01 -1.126019458152138636e-01 -2.764944582320469704e-02 4.967550474102597202e-02 8.712287999549575557e-02 1.394528005272263060e-01 1.890989189767258438e-01
-5.188656039480171733e-01 -8.563800596958480726e-01 1.493170480625094498e-01 6.035193996826704321e-01 -2.716305248183503718e-01 5.961490459415887955e-01 -8.446940055735375763e-01 -6.927534433487263221e-02 -6.921794888819591263e-01 6.400174182683319168e-01
-3.702588603812819595e-02 5.963918956617434569e-02 1.676598835391546749e-01 2.966144919561361070e-03 -2.299135212763543101e-01 -2.266631576237473078e-01 -2.723373693288890229e-01 5.261753399751168542e-02 -1.865989384820755936e-01 -1.450622902346427601e-01
2.148604836406150242e-01 -2.478893471500293044e-01 -4.496959079755841193e-01 -3.014598404329494330e-01 4.267047464976506665e-01 3.722515372751913909e-01 -2.021119806376029671e-01 -5.718949742038419437e-01 -5.366494936026455775e-01 5.138459939636947915e-01
3.154658932278813221e-01 -5.646619275199631360e-01 -3.178327531004444817e-02 -3.773119600736836721e-01 1.059359181283156537e-01 -3.306571282240326481e-01 -4.887584124448208223e-01 -7.220976429284284293e-02 -2.130788340045587387e-03 2.027525625466467252e-01
-1.580958451687464739e-01 -3.750949768568777043e-01 -1.041650051360701185e-01 1.289205718916230370e-01 1.405409241111705010e-01 2.846342667199632803e-01 3.288548734923413264e-01 2.934081638161856187e-01 1.996065736416227365e-01 4.727812994214815583e-04
-8.747636172158739232e-01 4.492559643698434968e-01 9.343362986338910048e-02 7.442271465162800803e-01 -2.744494566995012153e-01 -3.231055337066744415e-01 -1.548904052347779836e-01 7.793764718736566621e-01 -5.178455909825384340e-02 1.438009520280622566e-01
-2.712542919137039821e-01 8.677340282191747800e-02 5.843259880038808030e-01 -4.158198985706755835e-01 2.077342995558617844e-01 8.297610388748519750e-01 1.999363947527741381e-01 -8.478288842629374752e-03 3.463812858702429720e-01 -4.247819916847255795e-01
2.636372743072894556e-02 2.052499405187277470e-01 -1.239464878056288771e-01 -2.677784825106658828e-01 3.050257521688408135e-01 -3.684892194822299016e-01 -1.463694944993495783e-01 2.107165205839764757e-02 -3.962301642519217709e-02 -2.393006402277812750e-01
2.933531095617765774e-02 -1.554545469920312062e-01 1.417929453694225794e-01 -4.325764079927918622e-03 -6.037192843374165896e-02 -1.054356525335942985e-01 -6.596650245285969050e-02 3.343608479568312142e-02 -2.609551865060703024e-01 1.033725444099368035e-01
-2.907207165775637647e-01 7.765612332858746747e-01 9.207902377519021631e-01 -6.268807343394675602e-01 -1.034713403475639310e-01 -2.822372970210786369e-01 -3.099696016736790405e-01 -2.112250859064643826e-01 6.841211520903487386e-01 -4.337576345042316039e-01
-3.503996300982009648e-01 -4.383163504660038678e-01 -4.535204337612725456e-01 2.791803942773778968e-01 -2.354698440013895666e-01 7.232671138828605795e-01 -2.199513554545508565e-01 -5.213177624762389550e-01 7.836476274132753161e-02 4.521681093635016579e-01
-5.098756091171734450e-01 4.441512479963006244e-01 5.415176302113692275e-01 -3.213393880435187477e-01 -1.598038215233094639e-01 3.148371371074376035e-01 -3.199782002153112592e-01 2.329555305245758767e-01 -5.828126286334179840e-01 -7.176613493095298502e-01
-2.561943454009824039e-01 -4.725521594698726124e-01 -6.599402410186160362e-01 -4.359023926909488811e-01 3.966223054640964363e-01 -5.657124393026277120e-01 5.051680327153125483e-02 -3.362877679011415100e-01 -3.812591043916317979e-01 1.678153042699598030e-01
-4.398175322009593990e-02 -7.272514905306032285e-02 -2.982410145137553426e-01 2.234040212305216377e-01 1.136805437809128294e-02 -9.781366097135876791e-02 7.485305384849627597e-02 -7.447368414622129729e-02 1.339308926676169298e-01 -3.017470505868563024e-01
-2.842716363046041139e-01 1.709979053586303810e-01 1.978484619533669164e-01 -1.709392249503028927e-01 -6.120745766853897818e-01 5.700324443134516805e-01 -1.378712073575643904e-01 4.612250961929843518e-01 -1.864951611835972967e-01 -5.769628994935234179e-01
1.463823577838435086e-01 1.131938625337739063e-01 -4.105494120419317383e-02 2.334279745544735607e-01 1.509124102678675583e-01 1.770106121845752556e-01 8.008185696748520987e-02 6.291244519818291366e-03 -7.711942042710415168e-02 1.882272637137594878e-02
-5.725525711364056747e-01 -2.895494743904135082e-01 -4.607593306691922241e-01 6.364266404243389408e-01 -4.785961063867792409e-01 7.140245508271699793e-01 -3.469415897262782544e-01 -4.733292975001451297e-01 4.838240624882594321e-01 5.633138759833988818e-01
-5.432681405464716562e-01 -8.002906071595693172e-02 3.676907267068837970e-01 -3.273569560187203093e-03 8.262172099352010912e-01 -2.692458219882026826e-01 -2.364378920933417061e-01 5.873970258846098469e-01 -2.587430063100845667e-01 4.274590683188226325e-01
-2.417093824482886566e-01 -1.149049759373352714e-01 1.282361556259365432e-01 1.634648327593462083e-02 -1.253191060604254559e-01 -9.336399766951686274e-02 1.398298688247590904e-01 2.046978767194809409e-02 5.342173937650032678e-02 1.918795793630535818e-02
-1.623054604498766207e-01 2.663526342779283795e-01 -3.733521315220668206e-03 1.555972082859457817e-01 2.960381665395188100e-01 6.599413151114906506e-02 -2.837453691510800624e-01 -1.864923859323065758e-01 -9.347926116866502044e-02 -1.679775373687300566e-01
-9.422750895238508895e-03 -1.276475726456955950e-01 1.612344182277863306e-03 -2.156937132835481941e-01 1.333907479163526089e-01 1.676774746138247341e-01 -1.094596782656693801e-01 -3.782745344001227639e-01 -3.358880659271361036e-01 -6.493400952990102670e-01
5.417245942764454814e-01 -1.553860200314363671e-01 -5.475046428029122225e-01 -5.887048469649981408e-01 1.425287274939817384e-01 8.760599884525602232e-02 -5.545720728694030210e-01 -6.503631070077829646e-02 -6.510262994608522202e-01 5.398283247559504394e-01
4.680223721238853662e-01 -6.482375493405649891e-01 3.795601011786463030e-01 5.846466303202597636e-01 6.346846931413893111e-01 -2.938894864911220650e-01 4.051105159751041129e-01 1.644650125883505842e-01 -1.253610051178156472e-02 4.867278094154697254e-01
4.447498062802660024e-01 -4.613074575317197001e-01 -4.279756251358649011e-01 1.822703645767318192e-01 -1.433068296048873314e-01 -4.284346672151509994e-01 5.339869022945881172e-01 4.434619789833840198e-01 -1.372196478006816600e-01 1.176178789152652338e-01
2.040841585927340440e-01 7.962841548392906033e-01 5.075021927030817226e-01 6.026155708842675374e-01 7.215064783930537073e-01 -8.066115748639010041e-01 1.671681579376868287e-01 8.034246343172900540e-01 3.091183651240449470e-01 -8.803479883848575049e-01
3.481623424928462218e-01 -1.652300250508557389e-01 5.899145848806944259e-02 1.609641255964580631e-01 -2.215073633361292205e-01 5.112698153302173143e-01 -6.851875178450997361e-02 2.396660555879260579e-01 1.551683760608924545e-01 3.442998337501922412e-01
4.612313952238020209e-01 -5.844938163298384337e-01 5.878516751521413175e-01 -3.632058418013818235e-01 -1.964944180262830076e-01 -1.657802639892169971e-01 5.612961917054281047e-01 -4.685713291991903673e-01 3.433128829638734669e-01 -2.550026199855411346e-01
6.771007587175768005e-01 -2.551601864382192497e-01 -7.075907095964401039e-01 8.941202450311904748e-01 8.670594585194006665e-02 9.334970841029714972e-01 6.936683415925076757e-01 -2.712834672682221671e-01 -9.316640530721921609e-02 7.893400348561351310e-01
-2.278754230301948402e-01 6.368099187220813834e-03 3.541614357508593436e-02 -5.600831054370783990e-01 -4.591448631911899114e-01 -2.443023697587950183e-01 2.479057607385437290e-01 -4.271716684079073234e-01 -3.142792354041733516e-01 1.490094678321718102e-01
9.292905361437790029e-03 2.990071094777217720e-02 1.381206036653913165e-02 5.067501364486801108e-02 -1.370648159179905720e-03 4.893518046855529352e-02 1.332966307896072669e-03 2.098376515622916647e-02 8.872852898573466152e-03 1.385460269939001003e-02
-1.243950161294041928e-01 -6.112026012681268661e-01 2.902903578194042655e-01 3.236621353802331819e-02 4.861460714526710802e-01 -4.564328240920895174e-01 2.368745718078715812e-01 -4.013261361442042596e-01 7.241289086006367226e-01 4.457696751047444117e-01
-4.916352459152376619e-01 6.681335131172627673e-01 -1.065747095707349490e-01 -1.708465637111284963e-01 4.750368363286689988e-01 5.234479259529445372e-01 2.615969676141519651e-01 4.692666355711534454e-01 -4.787004965727176820e-01 -4.051199401472981299e-01
-7.632353679322204099e-02 -4.846046566465952998e-01 7.262841626905733317e-02 -3.528672646730775242e-02 2.003627293957565281e-01 1.870279977734765064e-01 1.495379953291702257e-01 4.612816675925590082e-01 -3.379747848578500968e-01 3.846509015420496169e-01
-6.875374229942847748e-01 3.958554341125412046e-01 4.557340744034341640e-01 7.346893114650836498e-01 1.349616833465216992e-01 5.996849978414912075e-01 -1.951660571577713832e-01 -9.812993229138590456e-02 7.166049658237751974e-01 9.220323390346783776e-02
-1.525707342527647670e-01 6.381019461261363546e-01 -5.736535289819735262e-01 1.969563003776708121e-01 3.102596343207990603e-01 4.113098666093911171e-01 4.091463128020743634e-01 1.195745640740039223e-01 -4.323431572457791389e-02 -1.613527846964317169e-01
1.946297559087786441e-02 -9.578718140093117617e-03 3.524145141407218629e-02 4.240517239682334294e-02 1.733084264453204487e-02 4.586053639353115247e-02 1.169613459055775240e-02 3.779192399053514506e-02 3.468436029168921880e-02 -2.440743167981107749e-03
-4.937047740965016529e-01 5.952559799939801666e-01 -4.905011845487785571e-01 -4.289461681992580953e-03 5.728415737935825813e-01 -7.513317555630016908e-01 -8.023172107426147504e-01 2.644431285606196891e-01 -3.402281417297872146e-01 -7.064952300102699256e-01
-2.477836362526678882e-01 -2.285905537340084392e-01 9.559778409071886807e-02 1.529015372464850586e-01 1.801701845891413301e-01 -4.800618810601215980e-01 1.269887626542207382e-01 6.366812511190973467e-01 2.533077992707065684e-01 -9.167722061193613048e-02
-5.477997936922720523e-01 2.009491215712791434e-01 -8.171593905183985873e-01 -3.374090541923366882e-01 -6.767654910105461719e-01 7.664204959736169165e-02 -8.359881064727395783e-01 -5.097980075262111832e-01 7.991757289194134639e-01 6.911068105706288378e-01
8.187575958624586370e-02 8.908455331777434538e-02 8.650104656976974338e-02 -2.623991172528011839e-01 5.641449079080757684e-02 -1.313461855763323194e-01 -8.204201569003152783e-02 -1.176740867957197650e-01 1.876078053660474795e-02 -8.302130825636335571e-04
9.076367237531399179e-02 -2.262799061815576052e-01 2.989689473092309036e-01 4.491617176580781079e-01 -5.084020093035016563e-01 1.775256895039087623e-01 2.533482838622210798e-01 3.697711744887732799e-02 -5.252522409196638264e-01 -5.915294765175205249e-01
3.681916738836951697e-01 -1.883058231151987783e-01 3.410398250313357860e-01 -2.951839214810104278e-02 -2.785069459807971159e-01 -3.522210213385282840e-01 2.218055827991858575e-01 -4.391203467419330653e-01 -2.112112000750726581e-01 4.407514050826224494e-01
6.962316575803422225e-01 -4.815578046947610047e-01 4.797066186416620859e-01 8.244233817942590026e-01 6.172624013613141614e-01 -3.178329731695750393e-02 5.268189141984369606e-01 6.953005266622553915e-01 5.946335655520307295e-01 1.048356317686968547e-01
8.791209371228217440e-02 1.250502982417415476e-01 4.546382406088606554e-01 -1.533711714565641759e-01 2.032522780275598517e-01 -2.095300731873909195e-01 9.313566793953222123e-02 2.835055425972055620e-01 -3.926797220886789619e-01 -3.766715456377033311e-01
-3.702514714956081088e-01 1.337292681259960869e-01 3.957146112645752445e-01 -5.917993493214130929e-01 5.832407055738337842e-01 -1.356256949799973521e-01 7.374620089739808426e-01 -5.711830250336659143e-01 7.689264348139336624e-02 -4.323583213338905162e-02
1.677583851528251790e-01 -2.573770238987405090e-01 -4.738657756711951441e-01 1.837578364116151247e-02 4.411308421509342603e-02 -4.388249689541109944e-02 4.308315016818727305e-01 4.720335138864919511e-01 -5.985796948881187685e-02 -6.295200031499696980e-01
3.154095683905130953e-01 -6.291631659105330066e-01 -4.944776932870047492e-01 2.992012149254121359e-02 1.649309051612544708e-01 2.992576461706757951e-01 -2.651969574038701150e-01 2.078409719796097122e-01 -2.872551656526863839e-01 -4.162876208254507326e-01
-4.850023588493800747e-02 3.998466703403710798e-01 3.576475766092554465e-01 2.056949014999177039e-01 -8.202517922304100595e-02 2.335202120136805337e-01 -3.591928857305577982e-01 2.056697289524389016e-01 -6.141561374413921116e-03 -4.827336452852027948e-01
2.615017927601926973e-01 -1.944543663414338708e-01 -1.703868850506030930e-01 4.692728650677799318e-01 4.059471722563262608e-01 4.662635381754073327e-01 7.239356673799894892e-01 -9.081910158028631830e-02 -3.196032204075703320e-01 3.403902540903619989e-01
-5.340385795189588336e-01 -2.444891077330002549e-01 -5.547463683095989889e-02 -4.099540978401985947e-02 2.735965181953599057e-01 -2.952562288161960091e-01 1.300939695640281231e-02 -1.942088848291479986e-01 -3.006418018843696194e-01 2.508733208158151484e-01
-2.299668500350319222e-01 -1.359895473001205557e-01 -3.714428063615256570e-01 4.444554980061394267e-01 2.257344977037316069e-01 4.316472318252333462e-01 -2.716901250714328642e-01 8.545152215215758712e-03 -2.320387026541973971e-02 -2.260388728857849749e-02
2.401656839819777955e-01 2.349036545858271541e-01 1.888137437525767570e-01 -2.322391718561626350e-01 -3.940361276577490912e-01 -2.572790749961669787e-01 2.290103619747275165e-01 -3.481602442559694754e-01 3.838673406156450918e-01 6.949052076614839479e-02
-2.205830124522955953e-03 5.383795658965245812e-01 -4.456853648498946829e-01 4.814827187108761675e-01 6.574770999567295382e-01 1.813796134216960343e-01 3.133427347961714737e-01 2.764005950314752380e-01 -4.748316952829800264e-01 -6.541194375352977763e-01
3.121837148081059721e-01 -4.120926108511847041e-01 -4.651098792993723086e-01 -2.560468928276403711e-01 5.213751464915920009e-01 -7.636869709374818904e-02 2.200866021985086948e-02 5.715835064245731179e-01 2.888665925721372596e-01 -2.745319207513046700e-01
-8.713735738262186337e-02 3.246360458240318270e-01 -2.738272492777873990e-01 1.873061245611029602e-01 -5.309370651111748884e-01 -1.673662465226081753e-01 3.053858882988556567e-01 -2.741403173638300439e-01 6.999709273468910364e-01 4.817379975369975309e-01
-1.028948558264860258e-01 1.195857441065598797e-01 3.256621582066980825e-01 2.772897558072777158e-01 9.983678861387304537e-02 4.938452132324766541e-01 2.176057896116375123e-01 -9.091739126975308116e-02 1.276636309805366520e-01 3.601032965359109439e-01
