6.280370810860745889e-01 -7.900708452511880919e-01 -1.142929964744012900e-01 -6.186190098636619172e-01 3.207755456805296834e-01 -4.559754029269369457e-01 3.531237775738267914e-01 5.918427305828450891e-01 8.055897682052297615e-01 7.068476472542749578e-01
1.488445586674277954e-01 1.206504479175273675e-01 -3.852910924009123605e-01 4.051153436313527645e-01 3.946929355909269410e-01 -1.066600131424558923e-01 -2.524434229079344782e-01 -4.291148292099845052e-01 5.157984160204396318e-01 -2.689592440775565030e-01
2.778133963959504849e-01 4.412636307531984103e-01 -2.007262535518398658e-02 6.552734673169952062e-01 -5.666006444896888317e-01 -2.938050228360202243e-01 5.537738194184459450e-01 2.539981829014912318e-01 6.822009989385712236e-01 -2.665121898892895413e-01
1.852125709079612270e-01 -1.359235250910999226e-01 -1.662741383492117447e-02 -2.529850955102715473e-02 -1.118071567926683385e-01 -6.719393011007729344e-02 1.302033725406192555e-01 -1.031243899295208738e-01 9.348785799770567562e-02 -5.809104317817357505e-02
-6.985297798113856808e-03 -1.372280033713351149e-03 9.362031180800128860e-02 -5.098861611273533198e-03 6.508169144453836152e-02 2.811673752590472183e-02 7.855385168681811026e-03 5.379106858315500089e-02 1.428938725959582115e-02 4.336830414888814128e-02
-4.455941946793929853e-01 -7.466906640713865118e-01 -4.072431434616386597e-02 -7.939508748860620857e-01 7.014793347340724239e-01 -6.939325770672218896e-01 5.530528698094793194e-01 7.124249363910207800e-01 6.743018237713397367e-01 2.296945078476255730e-01
-4.782156949577241571e-03 1.691656510642101374e-01 1.055336724328376496e-01 1.590645170170661496e-02 -1.440366027358573608e-02 6.231387227331845746e-03 3.308264952089347288e-02 1.827302728670561136e-02 8.200415498263295688e-02 7.640130614735851818e-03
-5.348069003508585384e-01 6.800678437088828465e-01 8.300641999374770708e-02 6.851866234388396260e-01 2.255203913526210302e-01 -3.245033634520688159e-01 -3.837644766935144891e-01 3.200876035694199540e-01 -6.045717439999764853e-01 5.596081067758958971e-01
-6.937103534957074491e-02 5.905471374487842873e-01 5.496532808682709215e-01 -5.616418872627264580e-01 -2.803988113138061178e-01 3.666519441849506733e-01 -4.120939590809544750e-01 7.198578331462290869e-01 5.175047270320856097e-01 -1.893332712530066131e-01
7.664707359455381029e-03 -1.257219249003373434e-03 -1.052001019569566431e-02 3.530332195994487221e-02 1.190139029321467673e-01 7.556201571914995807e-02 1.605941481094053450e-02 3.940409435886047668e-02 3.943057018238963624e-02 6.422538660325994610e-03
8.595559158293757888e-04 1.237480082042567431e-01 4.125553798404781730e-02 -2.686138231131260379e-02 1.809706641561453222e-01 3.309277190020480652e-02 -2.131085379585564987e-02 1.222005024817711741e-02 2.539641425442708961e-02 3.840441940579325530e-02
3.422647180832877334e-01 -3.188769917365815720e-01 5.955235130156829593e-01 1.864058200608665616e-01 -3.493784424658238907e-02 -2.090144097114324251e-01 5.402649401874363155e-01 5.067656924679111441e-01 -4.532631152003273600e-01 4.087002300884204908e-01
-4.213194412388762133e-01 -4.423322754926766603e-02 4.404310633934793717e-01 5.789096353308069709e-01 4.678483836844848365e-01 -4.541022609272544197e-01 2.075123550818168960e-01 -1.358080901636248006e-01 3.156900167660086076e-01 -1.272557765064374624e-01
4.146728861548165113e-01 2.026315641122928279e-01 -4.651073464912299782e-01 6.348476039689268102e-01 1.741569189430664244e-01 5.275376367609205253e-02 7.445707705060361503e-01 -1.599229815133186849e-01 4.120424520583735872e-01 2.897767351311343886e-01
3.111913811691605081e-01 -5.498960840860884769e-01 3.648251566529192025e-01 -2.360104537502323852e-01 2.927792414850157732e-01 -1.800631058096691384e-01 -4.542343466792428397e-01 -1.672494341245573113e-01 -2.017743281508279363e-01 -6.815228846826796305e-01
-3.402385432765958010e-03 1.392962451311539201e-02 5.585063849845985778e-02 2.045805979861803001e-02 2.266144696577277254e-02 4.959505988050522812e-02 3.860793393207182910e-03 8.408623004049759278e-03 2.546825827566160175e-02 5.314432639607867548e-02
-3.718466785615866521e-01 9.281197179507026662e-02 -5.148854017566826258e-01 -4.382148062492916551e-01 -1.549617813881799810e-02 1.825616707392364590e-01 -4.665676597838638862e-02 3.488807108837941318e-01 8.880911684039907716e-02 2.418205653900461216e-01
8.297674728125914445e-01 -5.337672719301660429e-01 -7.693720597324312793e-01 4.700892763623783499e-01 5.960077541018945491e-01 3.149311554559159343e-01 1.115673325641160785e-01 6.657051868144424622e-01 8.042207106334408051e-01 -4.411909261257364046e-01
1.311145081243682026e-03 4.142679674614022783e-02 -5.873941114305843980e-01 -4.763296383850547100e-01 -5.774613172047468046e-01 2.848028293286138379e-01 -3.635165168018326121e-01 6.728667513630893771e-01 6.687490647890623197e-02 1.283447978828557851e-02
-2.652764983158860043e-02 2.143366736186245736e-01 -1.239361638714546188e-01 5.949853307975681849e-02 1.858576741885606398e-01 -8.193611651016517727e-02 -1.721742020612786750e-01 1.101746350491541598e-01 1.246107158703371326e-01 6.356210717675976618e-02
-8.068960260547399649e-03 -5.485487668104194192e-02 -2.280116095235147633e-01 3.515000336772405864e-01 -3.935049389636532391e-01 -2.690094552009785270e-02 1.659295434800280300e-01 2.149962042616298807e-01 -2.923778533267478719e-01 1.597121012826493158e-01
2.696442233865162796e-01 -8.987763900903690539e-02 -1.940734160927629903e-01 3.942398492433203949e-01 2.566359391412946223e-01 1.601345758226788707e-01 2.006626428480740854e-01 -9.085136677614451262e-02 -1.222227641765758627e-01 -2.125379381840844795e-01
5.418200260678381064e-02 3.958952790477014982e-01 -1.719495054954973956e-01 1.628355065461132012e-01 2.414161471187779295e-01 1.234401645745675097e-01 9.685424297302769325e-02 -2.848332840537857319e-02 2.324417394303535944e-01 -6.682634699332039296e-02
5.222513062225864200e-01 1.115932158244261063e-01 8.166424704043291349e-01 -8.842731818697499024e-01 -3.957027531654261354e-01 8.720078738653394557e-02 7.579915645030034232e-01 -7.725807554614594341e-01 -2.090371548610247543e-01 -8.073368367209498020e-01
-6.267176283098875311e-01 1.823641405544237093e-01 1.328579908589149275e-02 -6.646584701780222648e-02 3.358359509301185319e-01 -1.309706610504897395e-01 -6.814740300568152831e-01 4.604371806671418987e-01 -6.511001958247933930e-01 -5.960336115747494334e-01
1.066028308391384245e-02 -1.367257432603346222e-02 -1.690435883675643278e-02 2.392515575228472413e-01 -4.778793732511585901e-01 4.057455066691015855e-01 -2.007547030522183751e-01 -2.471146580083059818e-02 2.122609778737847563e-01 -1.152151405776826593e-01
1.707608412717583624e-01 -6.254307043288817036e-01 -8.068041418546586518e-01 -8.185678407514535015e-02 -3.100927905204041157e-01 -7.992084950924376319e-01 -6.671241011177057034e-01 -7.252649452565954613e-01 8.635104242009125075e-01 -5.174313729267544515e-01
3.677364465963456341e-01 4.725268862468028908e-01 -4.058009571280666444e-02 -2.679956585577144557e-01 4.402755608145714761e-01 -2.727948761833866032e-01 5.120586476078011762e-01 3.508144632604502378e-01 1.541396406308085665e-01 1.383235623287016325e-01
-3.188135976421737072e-01 2.930661662922710020e-01 -3.620351767806922333e-02 3.166242011632243447e-02 -6.890388066519612664e-01 -2.330550007979358407e-01 3.332677240740806734e-01 -6.512315295177470986e-01 3.843007534612645770e-01 -1.100758237505885937e-04
-1.695797812085823864e-01 4.719313392512783367e-01 6.101402333705111536e-01 -7.460124411502674913e-02 -2.002512386063457772e-01 -5.376038727224220493e-01 -2.575418089766686180e-01 -4.002491872506229176e-01 5.150807052871670955e-01 3.527570870595325703e-01
-3.802332918068337952e-01 -5.357281504042238351e-01 8.693233146566450298e-01 6.504768615358674788e-01 5.089230963983394362e-01 -1.410669627522897762e-01 -6.744830594960726788e-01 -8.368996849670085059e-02 -5.759348391622398644e-01 -6.630460549000715131e-01
-6.691447893375208900e-02 -1.096803326521041400e-01 -6.900789016017291333e-01 3.332076730250687624e-01 -3.808041284082544498e-01 -5.745455953139366745e-01 7.952633788552297966e-01 -1.531608772692341636e-01 -1.317255128503620198e-01 3.564950976595455123e-01
-1.495113948247972224e-01 6.054341700749523714e-01 -4.883712157430059042e-01 -6.681360686772117585e-01 2.551660465419284818e-01 1.321605962823382274e-01 -4.451305736397069557e-02 2.614937640932723517e-01 3.158463818863123107e-01 2.459433754159426611e-01
3.088016591158779245e-01 6.331966252708879361e-01 -2.220331105915393788e-01 3.518306821469928680e-01 -6.066524636445186358e-01 -5.774916705188205546e-01 1.102993218174730672e-01 1.914828251899677591e-01 -1.172476533695916839e-01 -4.397350520900766835e-01
-3.443368316692206610e-02 3.204197589340657126e-01 3.503651189092218954e-01 3.130315950299779049e-01 5.172156760304047474e-01 -2.777446326732780912e-01 -3.695139003910323794e-01 -5.278310323772462259e-02 -5.640617415697667392e-01 -6.220937237658596269e-02
-3.548910482797183463e-01 5.870110956344468667e-01 2.764129451456597275e-01 4.278053719808119215e-01 3.971417711503846815e-01 -4.546821335792741725e-01 3.547166366699907591e-01 -2.545300173303183255e-01 7.145456707968256271e-01 -4.210582814090612080e-01
9.793678693151537662e-02 5.387129792576362403e-02 2.520857410133299503e-02 1.246197729389140509e-02 -9.849318532224180661e-03 -1.984893820629218125e-02 -2.401487934517846680e-03 2.431493713027183812e-01 -1.241722272126614263e-02 -6.709714600167070424e-04
1.022197288336636894e-01 -2.965111727254286789e-02 -1.059853549326476678e-02 -1.300091475646846795e-01 -1.467835376771783884e-01 -1.214702641487721418e-02 -3.775866622530999611e-02 5.597424239183139416e-02 -9.437867386322265628e-02 -2.255068247744244081e-01
3.822615549536003132e-01 -5.487895964228552970e-01 -2.849288070164548436e-01 -7.028527920482614544e-01 -6.905721623620945937e-02 -6.907430940991199364e-01 -2.042223862214610774e-01 -6.345054311826658910e-01 -2.117779741093797630e-02 3.156086904133384996e-01
3.744696656050620909e-02 -5.989454440945154307e-02 -9.273414812241660005e-03 7.253565804305941306e-03 1.917320543463386651e-01 -1.476021938024205116e-02 6.542244990594341114e-02 4.450891769828219796e-02 -4.366296729266261507e-03 5.129481738856155743e-02
1.160391391959828267e-01 2.442500666470562298e-01 -2.838771549445043632e-02 1.329388221640579182e-01 -3.897079068933974322e-02 1.431910324535916601e-01 -2.509007314445268477e-01 1.679338936161347828e-01 -7.121630429341204403e-03 7.095180695964783957e-02
-3.776643627330866781e-01 -4.040281653958392727e-02 5.790331534565231753e-01 -5.144936585951866148e-02 -2.523723495391616001e-01 7.091661542717638822e-01 -3.176085660170131497e-01 -5.150545382081803680e-01 -4.078714269390489311e-01 5.453388169368441618e-01
5.803685336065221856e-01 -7.526471969207389201e-02 -2.596630875604281630e-01 6.618536752373248566e-01 -2.619426222423254513e-01 2.617163946770130825e-02 -7.756033190317488391e-01 1.503439910656644007e-01 -5.354928470889052106e-01 7.418623139926541210e-01
2.330381045234225790e-01 1.572984229160174774e-01 1.417948669233884580e-02 1.089086593250272045e-01 -6.611553121781860165e-02 1.105473253564848574e-01 5.044031380214200611e-02 4.504459876210185204e-02 1.058525137345751321e-01 1.271078015957897989e-01
-5.198759200700436844e-01 -8.461722849218239473e-01 1.561628664983154002e-01 6.036495844408696909e-01 -2.754009598468839526e-01 5.896196710173451372e-01 -8.403230152573193390e-01 -6.979995153433324329e-02 -6.876887724579902050e-01 6.391857258952133858e-01
1.089796256782467332e-02 -9.832971258118454808e-04 1.246087939629309839e-02 -1.628005388163578787e-02 8.272473259925104683e-02 8.229261616943357727e-02 6.062203895809900600e-04 3.928345716862938902e-02 -3.469294599088150466e-02 -1.402670915670770069e-02
1.976967768752556920e-01 -2.349458654907271293e-01 -4.370173785685175227e-01 -2.994357609090959049e-01 4.347321240274557574e-01 3.663683278766887708e-01 -2.100290670663837456e-01 -5.254451001973985402e-01 -5.145291665474471809e-01 4.880614399585229690e-01
2.754663302988920037e-01 -5.031336260662196969e-01 -2.064417521068378364e-02 -3.348734984694501371e-01 9.807714696160424461e-02 -2.886991234823974573e-01 -3.778352555974641147e-01 -6.177122687307921162e-02 8.975903996343423050e-03 1.757940153665774052e-01
-1.036953035828320074e-01 -2.666488046609885587e-01 -7.375463590421374449e-02 6.303329728175657842e-02 1.970415239254772743e-01 1.999125316402212416e-01 2.176824008941577182e-01 1.797812333573610144e-01 1.118322385609848146e-01 9.777667520638953780e-02
-8.559807545227943182e-01 4.488702534094575758e-01 8.836776533207883755e-02 7.403839279999203660e-01 -2.688924615857854472e-01 -3.179622373995997786e-01 -1.515054041728703116e-01 7.619810472296726367e-01 -5.128182625461432526e-02 1.400893006736207425e-01
-2.409949935550716460e-01 8.390286191358424517e-02 5.650971521054845015e-01 -4.027683168337958808e-01 1.992164115113971290e-01 8.061629024821663769e-01 1.950642889167471250e-01 -7.680554011242118374e-03 3.365379938562483852e-01 -4.146346508286400945e-01
1.153351568463288797e-02 1.045539728859515433e-01 -1.582069977220249002e-02 -7.254912676884320288e-02 8.630145670526211121e-02 -1.388671251258865313e-01 1.162926376561101149e-01 8.486552913586581023e-03 -1.787171413601204009e-03 -8.591584563280663112e-02
5.337128950203097466e-02 2.878881692534258907e-02 2.117631986360773988e-01 -1.647727871788209550e-02 -1.919680058285633609e-02 -3.863040482727867625e-02 1.335830221474288218e-02 3.152313525934519189e-02 -9.422226978632602945e-02 1.517553779349035611e-02
-2.851615253754596901e-01 7.615178867004467334e-01 9.132181368659788578e-01 -6.193025362638796549e-01 -1.048776242713641421e-01 -2.428926309974325792e-01 -3.181975744653826044e-01 -2.271102761600026776e-01 6.782815260422191406e-01 -3.953792287001861028e-01
-3.369806850306689139e-01 -4.367447311636688534e-01 -4.451735645548423048e-01 2.738060639518070105e-01 -2.332623208724295405e-01 7.296561381457083995e-01 -2.078219369123840143e-01 -5.147901353571273653e-01 7.477598398552323666e-02 4.374592000702983152e-01
-5.075717045754096768e-01 4.419307551730878303e-01 5.393620386170637770e-01 -3.210499339220147519e-01 -1.553613813294577872e-01 3.177036898168075219e-01 -3.198859412119849366e-01 2.311222097029577704e-01 -5.810060808278765254e-01 -7.117145428157117815e-01
-2.340422219774397350e-01 -4.525144828972483824e-01 -6.236791289392494830e-01 -3.818161958895355812e-01 3.781327280563097637e-01 -5.358328188606926723e-01 4.709342035038995705e-02 -3.165542778130708834e-01 -3.662184429584594003e-01 1.456949157978300324e-01
1.106577220784422250e-01 -3.898627306259780378e-02 -2.257643999909433041e-01 1.545101713820641320e-01 3.535276527027565729e-02 -9.320608543183746264e-02 6.536132593796592505e-02 1.915050521053826560e-02 8.715063415571697170e-02 -2.026100312587817420e-01
-2.522265946664448144e-01 1.637601491724559044e-01 1.980397109872215067e-01 -1.455036802241622407e-01 -5.746235662620574614e-01 5.602349855915911281e-01 -1.202178033880534347e-01 4.359151265983867152e-01 -1.756232069835132747e-01 -5.463339118597194677e-01
6.961280487041564269e-02 2.924135650402370779e-02 1.462257229677687079e-02 5.158429418370533842e-02 1.120300195509620206e-01 -2.233890661498848587e-02 -1.503490336312753592e-03 3.173933269853825012e-02 6.412346334832776280e-03 1.283992598435940635e-03
-5.651923289435081266e-01 -2.820762899241838761e-01 -4.559558397553462039e-01 6.325192808428903302e-01 -4.843664932846424298e-01 6.897845084459307552e-01 -3.439150818989807901e-01 -4.532495549312630656e-01 4.821529598813160677e-01 5.619339374196263837e-01
-5.399113955105805385e-01 -7.971692774821328986e-02 3.621228316886828114e-01 -4.025682940111146094e-03 8.202561573791317118e-01 -2.675281765311454119e-01 -2.277250603224660885e-01 5.789975284789027343e-01 -2.556253811750043847e-01 4.227247053156690249e-01
-3.109905039533620782e-02 -2.132973424709395938e-02 2.971532659885084762e-02 6.149458646760956604e-02 1.908901661961076926e-02 8.296913356752953772e-02 1.815633421626543925e-02 -1.512102715259259350e-02 6.742361926926843324e-04 1.231093808584806798e-01
-8.307331358227763862e-02 2.272325595149140287e-01 -1.918159941648690803e-02 6.110907805709347301e-02 1.429677719263157953e-01 5.802339573349761526e-02 -1.118368507566278869e-01 -1.307002484837921363e-01 -3.680074766405529163e-02 -4.543248962852181744e-02
6.019278409101007712e-03 -6.798395259780631861e-02 1.609025513760478643e-02 -1.612222562937861425e-01 8.034032621246142702e-02 5.651311547390260731e-02 -8.113138323657669015e-02 -1.983190225279657382e-01 -2.636476704835683527e-01 -5.095409933141545888e-01
5.172913101590609353e-01 -9.864278057454203830e-02 -5.256680319732870421e-01 -5.588505635561360485e-01 1.220994938122041129e-01 8.612108751679820040e-02 -5.116481045312507581e-01 -6.823253166919941715e-02 -6.177235737569519713e-01 5.099568782400706324e-01
4.609869923850618001e-01 -6.361628464206816602e-01 3.782364408224035968e-01 5.747104130150675338e-01 6.291708126418051883e-01 -3.057045924969911121e-01 4.008788055640065684e-01 1.720140706702104061e-01 -1.277739893807769249e-02 4.826278391569654436e-01
4.183789776424828855e-01 -4.459330852320511629e-01 -3.743787505271859439e-01 1.649166358631432017e-01 -1.397274936589601169e-01 -4.132773267762583913e-01 5.016734456788193297e-01 4.215991116882008560e-01 -1.273052165881001785e-01 1.116206150234825972e-01
2.125820415414404752e-01 7.906207600467018981e-01 5.095673300195071587e-01 6.025118618485811872e-01 7.222737893186251812e-01 -8.031504300759133574e-01 1.674390876923820826e-01 7.928688551108132865e-01 3.089495359496274851e-01 -8.702827180595354983e-01
2.573026700742976902e-01 -1.122992348155848752e-01 4.968515736487472828e-02 1.302009863190812522e-01 -2.079305907403234122e-01 3.363221643977768460e-01 -2.957407669483333792e-02 2.510468016167992089e-01 1.345840040363096846e-01 3.498760599740166621e-01
4.321528158542944364e-01 -5.362206613254921761e-01 5.566308923730380886e-01 -3.545731904585058825e-01 -1.778407643806129979e-01 -1.614169443691316208e-01 5.572302677144076455e-01 -4.447739440937481525e-01 3.267435207695178478e-01 -2.321444265223321091e-01
6.766387347234890104e-01 -2.550036001543870556e-01 -7.074584532560286299e-01 8.932583712407800025e-01 8.626010642852723065e-02 9.341072077569158028e-01 6.929450204352914922e-01 -2.708447988666320971e-01 -9.290677505436950590e-02 7.890342439403916774e-01
-2.195014382747617343e-01 7.498332769550617588e-03 6.596798428223155097e-02 -5.200111844910452197e-01 -4.258967309681244151e-01 -2.386989608567297028e-01 2.149625710138476087e-01 -4.008788854014304071e-01 -2.947659656175450338e-01 1.425073222023247876e-01
1.371598716057621803e-04 5.223459868374942527e-02 1.193702087427151587e-02 9.664210809824795578e-02 5.160441305754367991e-03 8.809396356869479694e-02 -1.157466982404627490e-03 6.123139242733614818e-02 9.231468288317050408e-03 1.211203766986324384e-02
-1.265222768204086468e-01 -6.033563370740152587e-01 2.758221524643631462e-01 3.312681130764968257e-02 4.917384355426359099e-01 -4.561663134559522659e-01 2.474831665960246230e-01 -3.985067530595305385e-01 7.146026293110252503e-01 4.417450566533132061e-01
-4.830339104299976039e-01 6.768019545228890488e-01 -1.035245757502829544e-01 -1.625179974132754945e-01 4.551784902573151603e-01 5.135169193133203303e-01 2.687069844059640777e-01 4.593061336839549536e-01 -4.623133855429974459e-01 -3.979506134783908355e-01
-6.286970804986309613e-02 -4.100578412312756438e-01 5.315982962458593031e-02 -5.887474848097195429e-02 1.481954429387923045e-01 1.845315188784747151e-01 1.125763646146338282e-01 4.056897130589789402e-01 -2.662283340703431866e-01 3.235080724735987512e-01
-6.774086798605100102e-01 3.952154602687478757e-01 4.481628712030876205e-01 7.199214380439752370e-01 1.306621114822169860e-01 5.890212759565870426e-01 -1.913523184005083699e-01 -8.453247227855667512e-02 7.054182270544337996e-01 9.197277200002330899e-02
-1.490398243487073004e-01 6.238556921457723003e-01 -5.614762721151229652e-01 1.914775106929464954e-01 3.062833212683045980e-01 4.266532309105492415e-01 3.999812984414903849e-01 1.154899100344823487e-01 -4.288064213722893314e-02 -1.581609841378683323e-01
9.328459813695904809e-03 -5.457349447209832762e-03 3.470888218130734060e-02 5.365083214859644317e-02 8.712814345421797391e-02 1.473957644970778046e-02 1.157782755975424703e-02 1.029898695043037771e-01 4.443047087678321516e-02 4.578167390290659861e-02
-4.907775761875614595e-01 5.995592935482807473e-01 -4.901310425307487950e-01 -5.624368022341632266e-03 5.723068511757369858e-01 -7.475814811890224565e-01 -7.993307465927196320e-01 2.622029030056647336e-01 -3.389604376190371582e-01 -7.029660124169889723e-01
-2.110399860527108484e-01 -1.517679076745624689e-01 8.013945604181046956e-02 1.383974414167088163e-01 1.401030563110684524e-01 -4.114470712486938964e-01 1.101607670057765803e-01 5.764049234365720142e-01 2.042714091074964433e-01 -8.207718735363160600e-02
-5.440121747694991461e-01 1.965429129182259260e-01 -8.090247071297900217e-01 -3.327111685204314218e-01 -6.751324502352751278e-01 7.883676098228614704e-02 -8.322699317355741755e-01 -5.071700861436925223e-01 8.005880857813952867e-01 6.867848292558228485e-01
4.477864988014230996e-02 2.393805958716303112e-02 7.692837612171012085e-02 -3.653535839696910731e-02 2.098031320588278695e-02 4.098419035988159348e-02 4.681130332278748279e-02 5.197606403745506920e-02 5.764705433788904279e-04 2.728935468793031519e-02
7.413925631617256096e-02 -2.015878482688924500e-01 2.924106719569486423e-01 4.331418089901131196e-01 -4.828735604612809929e-01 1.873643604120424910e-01 2.234090399242968372e-01 3.814496533161044339e-02 -4.934074878070123238e-01 -5.548255780975809293e-01
1.948797998517391994e-01 -1.020641554157574182e-01 1.962064441200246367e-01 -2.511639549041249850e-02 -1.846018503512515396e-01 -2.141133793939093699e-01 2.255041173446105107e-01 -2.202052682940882355e-01 -9.740650973389987366e-02 2.578873748176801484e-01
6.965856677760255966e-01 -4.799318692983165491e-01 4.768032146099535074e-01 8.245668438919642185e-01 6.134290684748278100e-01 -3.286345110298428268e-02 5.271073202691761717e-01 6.936986151041035775e-01 5.925122462526493106e-01 1.054212174301271676e-01
9.731799929189793863e-02 1.149177705949621375e-01 4.748865922024153585e-01 -1.430836358788175611e-01 1.857268734020478262e-01 -1.967387648637673458e-01 8.821670465904660197e-02 2.644345483575256672e-01 -3.719704538151296647e-01 -3.558764268461948599e-01
-3.568841894529740655e-01 1.337308345886573657e-01 3.852045802381031669e-01 -5.816045859013085906e-01 5.703594960840462358e-01 -1.206910239239100263e-01 7.210824502574268990e-01 -5.607877253957448405e-01 7.488304597043989042e-02 -4.131637391089910960e-02
1.531807243606244651e-01 -2.121301857978746819e-01 -4.051803480858401363e-01 1.216672668783426274e-02 5.043197500441290448e-02 3.814947567531127431e-02 3.707580941131649599e-01 3.728916221342695736e-01 -2.846893711366507013e-02 -4.749741932143986545e-01
3.043432094013038269e-01 -6.138319225973558613e-01 -4.674919739406792063e-01 3.029537862096564477e-02 1.540515045188345089e-01 2.915121959920069505e-01 -2.633554051876627056e-01 1.998321191398722552e-01 -2.630858550362433212e-01 -4.027004804683388395e-01
-3.644197374453074512e-02 3.808144022843551468e-01 3.160341233045314002e-01 1.802891649266659957e-01 -4.777581582966285850e-02 2.226616214156061369e-01 -3.214175663969410790e-01 1.827174062290760070e-01 -6.950884428730196799e-04 -4.133121281712870410e-01
2.500387026589661055e-01 -1.879659604337020895e-01 -1.561552192101045289e-01 4.514073822625059851e-01 3.864646002995557605e-01 4.698599202492707572e-01 6.904105836578431354e-01 -9.489637709223450179e-02 -2.883814503465207957e-01 3.427498830506090499e-01
-5.087614370771599281e-01 -2.082044975261415909e-01 -5.621044780381134059e-02 -6.826664376565556164e-03 2.667253428519139047e-01 -2.200930389694644440e-01 2.686287391575915232e-03 -1.823212110432291533e-01 -2.856825235174531019e-01 2.355882631778160596e-01
-1.168980996704549746e-01 -5.025828812324621003e-02 -1.815303457703638934e-01 1.602273494941108267e-01 1.432313292168428953e-01 1.909096067184687384e-01 -2.186276097704308377e-02 5.044126427681210056e-02 8.758897217043490899e-05 -2.603308876138001743e-02
2.087755217733174573e-01 2.440693270366615375e-01 1.699679134089638610e-01 -2.126066008774264160e-01 -3.640620300277258026e-01 -2.435683965269065943e-01 2.405270344318173048e-01 -3.052673353828564418e-01 3.480056849441701128e-01 6.473760306029645306e-02
-1.975468079426018347e-05 5.353143613948765367e-01 -4.410905244431362893e-01 4.749474827627560014e-01 6.461654493726108894e-01 1.768730714004298210e-01 3.234138870552780709e-01 2.757323373518006937e-01 -4.688936374792927464e-01 -6.461544889974766281e-01
2.794578327219878755e-01 -3.680450016060265450e-01 -3.835899529898934568e-01 -2.306311637721731311e-01 4.669490821796480340e-01 -3.925132587895052705e-02 2.076534715831346647e-02 5.129144470558387736e-01 2.598590890652266450e-01 -2.421355968049644092e-01
-6.477836835923816983e-02 2.960426123436624146e-01 -2.507580216013037822e-01 1.818058283299309741e-01 -5.112612769337910867e-01 -1.680083620976423886e-01 3.094152855915454636e-01 -2.798029762206882820e-01 6.664442717219646317e-01 4.491868094739037698e-01
4.005075586781146543e-03 9.102014783308677581e-02 2.063257919747572278e-01 1.997545058371614224e-01 9.086850949859752447e-02 3.448099996342746110e-01 1.655475231497929300e-01 -1.095494915243126338e-01 8.396912386581972809e-02 2.452909472432827087e-01
