6.350101780615399205e-01 -8.121832213399546863e-01 -1.155026591060951541e-01 -6.252425136000827610e-01 3.275606746021024751e-01 -4.572655571421287979e-01 3.473381896615801434e-01 5.956360594433468547e-01 8.039499708116859544e-01 7.145636374072211749e-01
1.499812819050566626e-01 1.210678035908002853e-01 -4.037126111943470375e-01 4.106055633603882815e-01 4.043870344709428744e-01 -1.140189850030798036e-01 -2.515177448289199202e-01 -4.357536316618198513e-01 5.233009348510493375e-01 -2.716385868249999724e-01
2.935962785066386638e-01 4.524828651539649638e-01 -1.833748923943589668e-02 6.770032024833863016e-01 -5.936277800876353927e-01 -3.033374198598518534e-01 5.792821201758890926e-01 2.481479161182624238e-01 6.994398232738808785e-01 -2.757450118141359652e-01
1.551746659874833345e-01 -3.182411863765055582e-01 -1.127239441391315600e-01 -1.183606921249262117e-01 -2.602554874535136786e-01 -3.208722723842726832e-01 3.690131947965086812e-01 -3.311572613301312917e-01 2.459897718233928499e-01 -1.749837137145159316e-01
8.090083978129474634e-03 -5.930634823909254789e-03 3.676787591876183592e-02 -8.692839240237362070e-03 5.961720703700969931e-02 5.197673363774234570e-03 2.692035996081610510e-02 4.584939020201020399e-02 -5.071905264964322001e-03 1.927652803182485636e-02
-4.462605497750123384e-01 -7.499413388795521662e-01 -4.070429754710986475e-02 -7.944251038888675565e-01 7.036233929134381171e-01 -6.941109188157742471e-01 5.543103929488815140e-01 7.117254608359867563e-01 6.763633914854487728e-01 2.293079021240153337e-01
-1.014473239517840394e-02 1.058363743999307938e-01 3.005552107259791203e-02 -6.919940880029656211e-04 -5.896877154515936525e-03 1.803305708128819657e-02 5.608916140965047870e-02 -2.617422679472887134e-03 2.804011042952230665e-02 -2.229514211661358727e-02
-5.417716794503120159e-01 6.901756509325825961e-01 6.974564341221718700e-02 6.949947231099392608e-01 2.293752410933168340e-01 -3.276460289216301947e-01 -3.882107617179748615e-01 3.241564384084948958e-01 -6.112445118889919815e-01 5.694246820283574984e-01
-6.906082236834011623e-02 5.948760127839242129e-01 5.558337136570895565e-01 -5.642430180584468991e-01 -2.815776367265830360e-01 3.719088746788932753e-01 -4.302660958610319830e-01 7.205415963549238745e-01 5.206906541981638492e-01 -1.899955416708411782e-01
3.614066332702861768e-03 -5.231655312237578660e-03 -6.423059008706483511e-03 1.841904459429629867e-02 2.888807452309636453e-02 1.476509982521824124e-02 4.578188526928251428e-03 2.844986013731933688e-02 1.683711512791828332e-02 2.657085520556262681e-02
-5.662326027939269119e-02 4.288786689871449537e-02 1.475551288079664514e-01 -2.011330160915370258e-01 3.161320174739655209e-01 -1.764533694163414324e-02 -4.698926105302855122e-02 -5.654643737763110495e-02 3.390275280028010735e-02 6.756294015117612906e-02
3.462300763521899971e-01 -3.220052992083907717e-01 5.923569920957953983e-01 1.883100395839676089e-01 -3.503884275037498497e-02 -2.109799396403977956e-01 5.458841648483925280e-01 5.100333992400455374e-01 -4.579284936925125393e-01 4.112112070677884645e-01
-4.406853514507271252e-01 -3.992142162692862567e-02 4.666901885703592101e-01 6.099383009799851374e-01 4.764774768539301597e-01 -5.056983887245841691e-01 2.113983881091098249e-01 -1.389271165345077053e-01 3.281520395916764365e-01 -1.343762116540988261e-01
4.343280685443554057e-01 1.885672874191991755e-01 -4.691020537747435104e-01 6.586407329107857311e-01 1.800331410033187418e-01 5.141561600207793931e-02 7.498745046533630276e-01 -1.738839779699947741e-01 4.190754131296547391e-01 2.852795978855920400e-01
3.168210189821281109e-01 -5.576210629004441088e-01 3.503595193513421302e-01 -2.404296751820417244e-01 2.953034153307951826e-01 -1.858452245041751494e-01 -4.633495592173569877e-01 -1.709988471278645894e-01 -2.015137464987924454e-01 -6.976352368505605028e-01
3.986138117234772418e-03 1.329568505675903997e-02 3.485382162029460051e-02 1.707111804449100434e-02 4.187483826209341918e-03 3.435165994751724489e-02 6.194040123779513164e-03 -6.936964363209472371e-03 3.632132729606033644e-02 1.432359914459003201e-02
-5.131760522420737436e-01 1.302539033178235495e-01 -6.481091981816202718e-01 -5.602411567884157950e-01 -1.387896630271938728e-02 2.667891090534615928e-01 -4.493970352403012930e-02 4.320145598841473866e-01 1.047364163555728478e-01 2.366503446709387337e-01
8.310440020182572329e-01 -5.340140119856038314e-01 -7.695880627759584813e-01 4.706749215456896285e-01 5.943689575206237974e-01 3.145965805761417600e-01 1.119040472061867408e-01 6.653840835763470407e-01 8.048260680722921778e-01 -4.410993541338157353e-01
3.047815113241190022e-03 4.393431050952730649e-02 -6.057694675570182152e-01 -4.839895431660715674e-01 -5.880060320228857051e-01 2.909509884986878347e-01 -3.698305976154602770e-01 6.681640044583418980e-01 6.948365699693502540e-02 1.299657042498047164e-02
-6.945570416194063457e-02 3.548191257838646528e-01 -1.678062606466034223e-01 5.050357038033873036e-02 1.722514320154099332e-01 -1.090656478456628470e-01 -3.092586495191883000e-01 2.569634821917139988e-01 2.334863937274427037e-01 -8.075801234135135398e-03
1.741794652261601656e-02 -5.940975330023366002e-02 -2.879654258208586004e-01 4.167499299487296693e-01 -4.762230755540343696e-01 -2.984173934642578643e-02 2.222381024707648089e-01 1.693285271841825645e-01 -3.554907845884335837e-01 2.050502500848897514e-01
3.086218979942303986e-01 -1.013812881839858404e-01 -3.146537325329563095e-01 4.517308928065186246e-01 3.000826360161101269e-01 1.753571648417065476e-01 2.533111835921204036e-01 -9.006106556313714373e-02 -1.424916991145863954e-01 -2.307184780411627167e-01
7.689001313715872199e-02 5.107046757494079214e-01 -2.905141199564160170e-01 2.149845323996699142e-01 3.164078895869616992e-01 1.633241057240970573e-01 1.219728860923199876e-01 -1.328751413611612697e-01 2.994094332636932365e-01 -8.207092901987966815e-02
5.235094172291724357e-01 1.098431019548856552e-01 8.183882216389204434e-01 -8.857738629570954814e-01 -3.969410098062641223e-01 8.781671746702744696e-02 7.599579398668320218e-01 -7.757377425586697850e-01 -2.098763209746367375e-01 -8.120201836305430687e-01
-6.442981512949069733e-01 1.858552199033609020e-01 3.503437170930607213e-03 -6.431190148391961736e-02 3.444892259335146090e-01 -1.452245669698471464e-01 -7.030211445203238263e-01 4.888959277933977443e-01 -6.743753734437764047e-01 -6.434269632894061841e-01
1.707090345065077203e-02 -1.106070442079377381e-01 -2.034356914292347052e-02 2.917039021224965833e-01 -5.504184629767898684e-01 4.883036070163565001e-01 -2.376489020921946638e-01 -2.598442734168171162e-02 2.531667354920237312e-01 -1.200930630512540842e-01
1.720169795312166683e-01 -6.268613449083009215e-01 -8.155056230647481641e-01 -8.147398696292118547e-02 -3.110238866969866622e-01 -8.009691413829270745e-01 -6.693354154285828805e-01 -7.263865648007521436e-01 8.660654408702884721e-01 -5.177367538462872565e-01
3.826356338316363459e-01 4.887590447736141486e-01 -4.355203293112797774e-02 -2.736153797340116212e-01 4.508368372891465303e-01 -3.103182895102483130e-01 5.344555025491187772e-01 3.668206308174508656e-01 1.616949069722856958e-01 1.445253886552600453e-01
-3.264019825476265901e-01 2.844723791131962831e-01 -3.265639233928759044e-02 2.731986072479950997e-02 -7.027852346260241578e-01 -2.576781261889649621e-01 3.357377728002688966e-01 -6.711698793058455959e-01 3.949610578534339389e-01 2.218533776697004635e-04
-1.842991847709941344e-01 4.893634965664482306e-01 6.202418567261446247e-01 -5.623156507197150239e-02 -2.532429401876541974e-01 -5.560978575896303733e-01 -2.613268082533470316e-01 -4.266401131125172053e-01 5.400428249290883942e-01 3.824158925499356321e-01
-3.799983832010762619e-01 -5.556808306915825835e-01 8.722789730293727395e-01 6.504869602438072551e-01 5.176831167727116156e-01 -1.411195745140370328e-01 -6.824030301221105654e-01 -8.102653459416329917e-02 -5.861511084045183395e-01 -6.614944381810202723e-01
-6.789765745379680584e-02 -1.100673707940136997e-01 -7.042863916500770038e-01 3.406293905592250870e-01 -3.872733521024088188e-01 -6.098944347798302967e-01 8.150116350755368666e-01 -1.480441534436690576e-01 -1.361546907164412901e-01 3.489454915295384652e-01
-1.546929767867488981e-01 6.240112647459674644e-01 -5.071312596153214614e-01 -6.840660665151013786e-01 2.466978653587564574e-01 1.318976963774499689e-01 -4.281474624294863418e-02 2.456672993020367346e-01 3.222025721010041699e-01 2.692152259299273043e-01
3.201116715040392413e-01 6.539444140165835417e-01 -2.251390843530987063e-01 3.699764535116660813e-01 -6.544910323550546805e-01 -6.010581702901712786e-01 1.100790889147940516e-01 2.082050867218037393e-01 -1.109431115940071183e-01 -4.537181610546134336e-01
-2.777405266227233813e-02 3.121776553909337837e-01 3.571213421325554749e-01 3.156084199164481685e-01 5.263352639863492222e-01 -2.957611068374044749e-01 -3.831986687703973771e-01 -6.204151451542035123e-02 -5.740627919981453609e-01 -5.904000068118814976e-02
-3.599610349956196553e-01 6.063905578506193494e-01 2.635880249610921822e-01 4.493914479387857153e-01 4.273612472567216991e-01 -4.521075305673136757e-01 3.761080843859476164e-01 -2.832467423054069733e-01 7.347237231586289941e-01 -4.305690857175009101e-01
4.054325646223663066e-02 -1.263846293852756040e-03 3.004033139298077984e-02 -7.828215514090722596e-03 -2.738629387138861136e-03 4.813888744005804556e-03 8.752250695283301032e-03 9.836528971241706443e-02 -1.101883650230731093e-02 1.548044650301117105e-02
2.754031604378390230e-01 -1.427451769683015480e-02 4.309007320788839357e-02 -3.386025939354631586e-01 -5.119776851832349429e-01 -8.039785739562410258e-03 -1.278862661170910298e-01 2.493166608124826322e-01 -1.503302199177420639e-01 -4.981752838561371299e-01
3.903224579297988606e-01 -5.594882758861318139e-01 -2.929131092069766074e-01 -7.148782117856605778e-01 -7.002090348738476688e-02 -7.132139355489344190e-01 -2.035616191407972619e-01 -6.429739252444161002e-01 -2.409489157249336891e-02 2.913862791286844223e-01
1.635540522486918962e-03 -1.884127197667269937e-01 1.416085767050157332e-02 -8.376980575027820342e-02 1.502935428024425590e-01 1.047942464641914428e-01 8.730045108559955636e-02 2.105324857483238110e-01 -5.369435919443752564e-02 1.419648181594096170e-01
1.327362553401971734e-01 2.733906655334394920e-01 -5.717578074962261642e-02 7.901358878970141109e-02 -7.660666553533235223e-02 2.724565083902246720e-01 -4.126798367214349339e-01 2.278076694074699649e-01 1.415122678492319007e-02 8.743307329732417921e-02
-4.101667541171721831e-01 -4.492378359079018946e-02 5.940077630938014330e-01 -5.404093015589770538e-02 -2.570098551319590641e-01 7.387772593311369151e-01 -3.306501821395161911e-01 -5.448091474168111903e-01 -4.177984923176693011e-01 5.358849570919855809e-01
5.845154811568331610e-01 -8.023738933301996501e-02 -2.612409999188161080e-01 6.679538206520178045e-01 -2.628759201907367449e-01 2.319160571309509741e-02 -7.798716304629316198e-01 1.491899031436976775e-01 -5.373135176956065351e-01 7.463981850447352073e-01
2.738254927421979734e-01 2.147944400680892318e-01 -1.603556085754053503e-03 1.430893267112003098e-01 -1.042940802533178918e-01 -1.820975677529313927e-02 4.733291836921171142e-02 8.037285892860775161e-02 1.359491523198287366e-01 1.785850134791052701e-01
-5.178064027110853562e-01 -8.540416084837912924e-01 1.508180497583676560e-01 6.039356678152955071e-01 -2.721224818401971057e-01 5.946884320702823246e-01 -8.434677441522482333e-01 -6.939296464025292155e-02 -6.909832005281651979e-01 6.400000305994280048e-01
-2.978580328780331896e-02 5.849519993064276890e-02 1.524203358825722276e-01 2.640361522390016692e-04 -1.973647395134167370e-01 -1.891312805396446473e-01 -2.383247401457220804e-01 5.878647756708874766e-02 -1.670080691967409381e-01 -1.376559991551278006e-01
2.115475824791265835e-01 -2.459570381007165907e-01 -4.492738031917265507e-01 -2.996546940574087992e-01 4.281565368073734223e-01 3.721490169180554086e-01 -2.007547487632444783e-01 -5.662974598990840880e-01 -5.346881903277900250e-01 5.121055810687483723e-01
3.116611598882167433e-01 -5.569756031888766223e-01 -3.132528860525963382e-02 -3.740415689223953732e-01 1.037819982942863456e-01 -3.244588629708610727e-01 -4.784615031677991182e-01 -7.100543776649974326e-02 -2.232174280574102110e-04 2.012813432062299235e-01
-1.500336989487026929e-01 -3.622821036036679154e-01 -1.012749405470439734e-01 1.203775675012716401e-01 1.387067225346881594e-01 2.748349317062464547e-01 3.167598314404281301e-01 2.807222895479516422e-01 1.886373728613495171e-01 1.091719018618326521e-02
-8.687509848950467628e-01 4.486273754185537421e-01 9.136250109997262614e-02 7.400109193047863521e-01 -2.727471618999836034e-01 -3.217225202914020254e-01 -1.538400389441644256e-01 7.739039792256811046e-01 -5.151069755344235557e-02 1.429600801688303835e-01
-2.679118158008057526e-01 8.684751568701504221e-02 5.820106145768711992e-01 -4.148105930011256604e-01 2.068735234459865291e-01 8.279396611552786167e-01 1.993982162596427410e-01 -8.892232848001887374e-03 3.458525655252324138e-01 -4.234620461800791547e-01
2.146383377991338201e-02 1.971191669499922361e-01 -1.165931584106338487e-01 -2.529412481482384845e-01 2.891588180840476419e-01 -3.457195634135057927e-01 -1.253739245439782768e-01 2.319336153393046496e-02 -3.574884716451325745e-02 -2.223452784102821767e-01
3.910803601361859116e-02 -1.358301913292420671e-01 1.445036326042446473e-01 -8.240898793930046679e-03 -5.997025998223654009e-02 -9.936866547644131187e-02 -6.657131570306702717e-02 3.673968909395377430e-02 -2.430747041054389934e-01 9.211450424067225973e-02
-2.894743868360541983e-01 7.757561051922529094e-01 9.212843879205184772e-01 -6.251986866848688873e-01 -1.051397545280450402e-01 -2.778020563574417623e-01 -3.100676529550634997e-01 -2.146788989182285556e-01 6.849788810637869041e-01 -4.282383901412291083e-01
-3.474805969391002725e-01 -4.380006936621449465e-01 -4.506922166717659550e-01 2.778210241478994424e-01 -2.337882699094004646e-01 7.230555759489092349e-01 -2.186832827833641857e-01 -5.197140358572477359e-01 7.635191425964532597e-02 4.491712232919958248e-01
-5.087101192231577862e-01 4.431903952329587226e-01 5.408194288588686893e-01 -3.212319004483627505e-01 -1.585600440888339790e-01 3.158167929139758523e-01 -3.199866267893541338e-01 2.323662231817271995e-01 -5.817958775360763113e-01 -7.158821336949421354e-01
-2.546388705572984468e-01 -4.730413447847621744e-01 -6.601444493234691624e-01 -4.340659372176074449e-01 3.976244627880731186e-01 -5.631141573231623898e-01 5.142856168256684790e-02 -3.348885070190623647e-01 -3.824651504571361937e-01 1.659964881918645219e-01
-3.047398968472946751e-02 -6.501903212760344608e-02 -2.912260063196918103e-01 2.182079795528597266e-01 1.810072510138395832e-02 -9.719384442542476632e-02 6.994998416124226237e-02 -6.004492859533475113e-02 1.292250843156879658e-01 -2.902314634071294086e-01
-2.820725855878923882e-01 1.698086736986652301e-01 2.001355817663479641e-01 -1.664945084267249187e-01 -6.084663063767611346e-01 5.698547160538300904e-01 -1.356413268561108831e-01 4.586988282152839047e-01 -1.849133584395286078e-01 -5.730349956891825913e-01
1.353119624110408759e-01 1.041830527351619989e-01 -3.580340232553899660e-02 2.109096750218675820e-01 1.518956918304125714e-01 1.587417376823126169e-01 6.813863036359600611e-02 -2.694977162809149285e-03 -7.185480807453685503e-02 1.731212949422218303e-02
-5.683906483384728592e-01 -2.862450500902926076e-01 -4.582289837260696830e-01 6.369181000719965624e-01 -4.789907915763763624e-01 7.086687505645140606e-01 -3.448837718952976750e-01 -4.716730050513696648e-01 4.844506031319777417e-01 5.614608753291907561e-01
-5.416548991459682050e-01 -7.967901969849999766e-02 3.656785986127707999e-01 -3.256843994228400714e-03 8.234143031345688701e-01 -2.685712555683248404e-01 -2.332329836978344617e-01 5.840955308114067490e-01 -2.580013300389900621e-01 4.256516128999560111e-01
-2.189731639052011625e-01 -1.057518676447865569e-01 1.165188419975414086e-01 1.713699542436332435e-02 -1.063457822126212815e-01 -8.181857456741815915e-02 1.267859879200176065e-01 1.637808944790017721e-02 4.569979318884178493e-02 3.013464280160077502e-02
-1.514286452775202851e-01 2.631029969470657925e-01 -4.404026697803013410e-03 1.411219744631762585e-01 2.758383101245686087e-01 5.806365849936678813e-02 -2.701254470426321941e-01 -1.811458073965789006e-01 -8.437127083518818071e-02 -1.599878850268324215e-01
2.016947580636121052e-03 -1.096537772016112494e-01 5.698395117203635882e-03 -2.022947798598132840e-01 1.392778623450754982e-01 1.573504890715626547e-01 -1.062448316137051540e-01 -3.583006902533596438e-01 -3.273374703571768629e-01 -6.408917374517559828e-01
5.412942374059001027e-01 -1.538789294804474572e-01 -5.448070096487735992e-01 -5.872667004401248558e-01 1.418361241932484529e-01 8.669967531487905721e-02 -5.513927814288851481e-01 -6.479879762900822571e-02 -6.500295711646365548e-01 5.369343009788564158e-01
4.687551296071815754e-01 -6.452230823917893821e-01 3.801398257781581358e-01 5.831757704162716660e-01 6.341428797890318325e-01 -2.944709539698565082e-01 4.044628980340679858e-01 1.648775689016772350e-01 -1.252499443899122641e-02 4.854060123032133411e-01
4.420197652774307540e-01 -4.600496706783220868e-01 -4.244658997805857981e-01 1.814492401362705343e-01 -1.425880195447900567e-01 -4.249326024078584063e-01 5.313579377106300017e-01 4.404004498052529470e-01 -1.352690366798324773e-01 1.175684426777318659e-01
2.041151016431066167e-01 7.957438808050270040e-01 5.079159564561551710e-01 6.022391844503849345e-01 7.202296847376126188e-01 -8.055684264198736955e-01 1.676548866685267369e-01 8.023015210924033802e-01 3.087729699594302102e-01 -8.784333829926954662e-01
3.458001112388123244e-01 -1.573356966445577376e-01 6.130985451026185057e-02 1.605350259174701533e-01 -2.158792266952156702e-01 4.959187629545676601e-01 -6.377723276981943357e-02 2.367191817587148417e-01 1.557989674476340236e-01 3.426501664545164583e-01
4.611685918034414966e-01 -5.790908504848956140e-01 5.864180620137947608e-01 -3.613464048326032740e-01 -1.964704257695359113e-01 -1.671119970440009261e-01 5.602846679327215806e-01 -4.676842876744654043e-01 3.408259847635852213e-01 -2.514653852685775903e-01
6.770004850808862829e-01 -2.552679201100582773e-01 -7.074924251153740240e-01 8.938778915274917525e-01 8.666842151766512847e-02 9.333781013227961942e-01 6.934969561363726331e-01 -2.711677378281560635e-01 -9.294298790155888779e-02 7.894264317495131023e-01
-2.243768343842193758e-01 6.276817815370884165e-03 4.022041775356397647e-02 -5.494543779512844894e-01 -4.499777587639829934e-01 -2.411441680962481682e-01 2.428691630605309959e-01 -4.218003018170812801e-01 -3.103110821077512127e-01 1.490196121206490698e-01
8.088058205964435143e-03 3.492081209520542934e-02 4.779612511529075965e-03 6.616076829791886493e-02 -3.002284810416086698e-03 4.415185142005548929e-02 -1.919174880651420385e-04 2.059323230216360268e-02 9.647353183736023796e-03 1.001208135473902715e-02
-1.236195972410913529e-01 -6.102213460220099472e-01 2.896171224921381682e-01 3.270787226398607500e-02 4.862604450528435485e-01 -4.560492060541024295e-01 2.370106655925039996e-01 -4.002283883667436259e-01 7.238878931784947790e-01 4.458134982364431731e-01
-4.894149255837990098e-01 6.681111994210607863e-01 -1.058510122244100959e-01 -1.709803883068326535e-01 4.731888335767354681e-01 5.214013615075177022e-01 2.599399061652292731e-01 4.685186990885935043e-01 -4.763917380987672257e-01 -4.032756917974267830e-01
-7.375386451170039270e-02 -4.759491885788993404e-01 6.902760568907348460e-02 -3.950745999807817738e-02 1.948673123813043917e-01 1.814219743583734001e-01 1.444199731443171764e-01 4.515705941361650710e-01 -3.288146962509781446e-01 3.745471105576908544e-01
-6.842871513241243209e-01 3.944699250113351541e-01 4.534288662849360607e-01 7.303318391034129275e-01 1.333063930115301610e-01 5.965663664441084313e-01 -1.939312694351586763e-01 -9.609851175623042308e-02 7.127144905850374412e-01 9.195615378132847295e-02
-1.518439724248008271e-01 6.360619044012176815e-01 -5.715938769345589865e-01 1.961383991522611392e-01 3.099696285314743061e-01 4.117591652965959526e-01 4.074629853931887036e-01 1.187150852756047176e-01 -4.328246315973166558e-02 -1.606194528988886538e-01
2.526323151742352821e-02 -1.233365877325206909e-02 2.044212926546037229e-02 2.292308951479384363e-02 2.928445480335869003e-02 4.926414268115739820e-02 1.411979927740837637e-02 3.812763165798940118e-02 2.307533802567971262e-02 1.159785432732699482e-02
-4.925790475278902791e-01 5.949859094118126190e-01 -4.903452353523238827e-01 -4.540308851829173882e-03 5.720562943750155949e-01 -7.505715963860819517e-01 -8.019441141357480651e-01 2.641861690464713530e-01 -3.400903395075295932e-01 -7.054226004130469407e-01
-2.418114093541002541e-01 -2.210816843750956773e-01 9.466305661849398756e-02 1.498808669653618197e-01 1.717369894538873509e-01 -4.684638325988030871e-01 1.250292852186029036e-01 6.214866688239456538e-01 2.444501387048790830e-01 -8.991244439039600134e-02
-5.476041708052653556e-01 2.001925113144886192e-01 -8.162456116798355588e-01 -3.370997977090023912e-01 -6.771441758463637717e-01 7.720531505725936050e-02 -8.359278647743427770e-01 -5.093617651165551763e-01 7.986786041790483459e-01 6.911949890688465770e-01
6.414093459381220441e-02 8.276469384886840641e-02 8.122527652064889803e-02 -2.351525323562743131e-01 5.989323697943021302e-02 -1.024064555717004443e-01 -7.649074471353770055e-02 -8.673382875909114997e-02 1.944843173518828391e-02 -4.864700925769465875e-03
8.614586760535816734e-02 -2.214755067274022382e-01 2.973223543988529616e-01 4.469060753030995592e-01 -5.026557797280976070e-01 1.772324811295907798e-01 2.495496243195478581e-01 3.964479244549583281e-02 -5.201893716525587408e-01 -5.876433552125318593e-01
3.508463014642354549e-01 -1.862037417582375065e-01 3.271914356203486363e-01 -3.212345840774352701e-02 -2.672186459386086677e-01 -3.348402571576261089e-01 2.289570934773941802e-01 -4.157567872394088426e-01 -1.954241678819949313e-01 4.247517210261703702e-01
6.966581750243222571e-01 -4.814079815802776441e-01 4.788419311335714301e-01 8.244720458497644122e-01 6.163352101489462109e-01 -3.193720662121297960e-02 5.262723651889591459e-01 6.949750680636511690e-01 5.941867398571529790e-01 1.050070882374697506e-01
8.870615738983848864e-02 1.226154646629691591e-01 4.542695389754486945e-01 -1.501292504648528980e-01 1.996085182087201093e-01 -2.048493901990877664e-01 9.039994349360251646e-02 2.790911826895566827e-01 -3.846174192272154846e-01 -3.680662542240151769e-01
-3.671766940265718815e-01 1.331137866936075997e-01 3.926173330635672198e-01 -5.896241376874280515e-01 5.799266477341831205e-01 -1.333772401502695271e-01 7.330605241094357849e-01 -5.689639379070201564e-01 7.612186534846675234e-02 -4.198074989257223610e-02
1.669783881218903920e-01 -2.531272020392766886e-01 -4.640419650984298205e-01 2.232935200913049520e-02 4.576011161111492170e-02 -3.401993338773475622e-02 4.243286741836266307e-01 4.617940598484146508e-01 -5.434948613113813748e-02 -6.088756600783977735e-01
3.138193767000571066e-01 -6.277710905451922008e-01 -4.919787306316406039e-01 2.898251531993768088e-02 1.628644349876802455e-01 2.986785105236196003e-01 -2.659808578472224183e-01 2.072609655861748779e-01 -2.850947116723138719e-01 -4.137642761469116914e-01
-4.501208962284990178e-02 3.944227210190607291e-01 3.499266564834861981e-01 2.024045246478544113e-01 -7.968776094246163288e-02 2.304463609856164108e-01 -3.539130074585686292e-01 2.014641531347735048e-01 -5.666724666527442333e-03 -4.722236661865290008e-01
2.599673834862616939e-01 -1.932402186706019542e-01 -1.684140889821950926e-01 4.662229651675680042e-01 4.009677083797840158e-01 4.647134318628138305e-01 7.185313455139750172e-01 -8.983308703792729222e-02 -3.155056650943230401e-01 3.403837620098602579e-01
-5.285115203808823381e-01 -2.393125613387210859e-01 -5.501684099356956431e-02 -3.573174068863287089e-02 2.688372730757556117e-01 -2.886804195789167693e-01 1.165942845965564981e-02 -1.923329052477419643e-01 -2.970235190319787666e-01 2.468758275774087796e-01
-2.276479553295846503e-01 -1.309064183672796478e-01 -3.647055942832460040e-01 4.283988289251875470e-01 2.186284248772644156e-01 4.261656374396286528e-01 -2.509667493953744444e-01 1.473979361666418950e-02 -1.944344809614564212e-02 -1.824254764320017153e-02
2.365717082127855031e-01 2.364878866794969114e-01 1.855054445513989181e-01 -2.301625028036301257e-01 -3.891339463380639740e-01 -2.522597896229797354e-01 2.255601056475763089e-01 -3.439604730800168153e-01 3.803611599821882794e-01 6.899117818103772670e-02
-1.556449865717617932e-03 5.366582131161712343e-01 -4.442351538008100231e-01 4.797158623085923668e-01 6.547120144586260349e-01 1.800382725712462995e-01 3.152138751295278096e-01 2.759574154691115111e-01 -4.731700936698444160e-01 -6.519486642060977610e-01
3.086653089833306662e-01 -4.063015836845523809e-01 -4.558428614261716971e-01 -2.531055918887512579e-01 5.156746282504520718e-01 -7.472263458297782879e-02 2.242315207227032689e-02 5.642237959233742384e-01 2.855790134460884921e-01 -2.716407872253890354e-01
-8.268075739427631354e-02 3.178880264710511327e-01 -2.660310225299816200e-01 1.837173130250921715e-01 -5.269823247609561889e-01 -1.677894362312160881e-01 3.067413846113323794e-01 -2.737327086777202600e-01 6.905480885961102766e-01 4.728654601772266375e-01
-9.122296887958625256e-02 1.182156654001042528e-01 3.156239212359389645e-01 2.673372176489074437e-01 9.342404118325109419e-02 4.783921073799395907e-01 2.134272787434789154e-01 -9.045476277805612753e-02 1.260501894033698445e-01 3.473129169716562825e-01
