6.318423681009960324e-01 -8.067909987172960928e-01 -1.144763635583827960e-01 -6.222177223634653975e-01 3.257934545371042878e-01 -4.561891018709302026e-01 3.495069724216088303e-01 5.944541820660771414e-01 8.037245578499472298e-01 7.111126320001900369e-01
1.496726192839717140e-01 1.211866447679995351e-01 -3.937919153601223687e-01 4.045433362812828615e-01 4.003015312813227311e-01 -1.108241013528925983e-01 -2.515351249027449887e-01 -4.338602138621025506e-01 5.195147914407750589e-01 -2.698985944771281065e-01
2.851226909272595034e-01 4.465124209701690217e-01 -2.015402548195206409e-02 6.646022530149834351e-01 -5.771401330523046047e-01 -2.972825314471208569e-01 5.652731570369131653e-01 2.461449296916832785e-01 6.865562283323022319e-01 -2.673476777824598805e-01
1.458808333786821287e-01 -2.973706847678458387e-01 -1.030828744296501953e-01 -1.103713234965316564e-01 -2.396567173976702214e-01 -2.902395371813363267e-01 3.382870844658382725e-01 -2.986769177968887079e-01 2.345745115101749712e-01 -1.544192369177558588e-01
8.808279713776233453e-04 -4.649448432467161510e-03 4.928028631044642505e-02 -1.672767770359766953e-02 6.443247447500581593e-02 3.544829906227208935e-03 2.457815635867001414e-02 5.541475688324192655e-02 -6.307639282357483182e-03 1.670876512879324385e-02
-4.457835027876731471e-01 -7.485288170684920583e-01 -4.077607378398195870e-02 -7.938866564527846670e-01 7.025159623453004487e-01 -6.937887024469223674e-01 5.536159570148665443e-01 7.113489830031360928e-01 6.752734659404662221e-01 2.296419534547075869e-01
-6.168557758052813957e-03 1.250879870385669945e-01 4.112011312260858975e-02 7.289520896326635163e-03 -7.640268476397809629e-03 2.041878280166372836e-02 4.830546395402108423e-02 2.839837078516620726e-03 3.623598769149422028e-02 -2.490980731007167402e-03
-5.372993969714123796e-01 6.841369566728549012e-01 7.455181121376494580e-02 6.894544046679714766e-01 2.274135167038061345e-01 -3.257118801473919412e-01 -3.852464655093508772e-01 3.218625454610244407e-01 -6.068543380708218971e-01 5.635108962619372885e-01
-6.886959326827547800e-02 5.927622248510974190e-01 5.532568180408526937e-01 -5.623977643402603421e-01 -2.800462752484911277e-01 3.709019113029662362e-01 -4.267614713947664451e-01 7.198687521317955751e-01 5.187279351385324366e-01 -1.897709374318479747e-01
2.984269361606465588e-03 -3.447413312659054329e-03 -7.987203497886724915e-03 1.389087334681838107e-02 3.132559654352672085e-02 1.764202494883669592e-02 8.778580745176805047e-03 3.391870629596169251e-02 2.728763864902778238e-02 2.040782011080722463e-02
-4.168961610063547790e-02 6.097709661547205673e-02 1.238477830721747414e-01 -1.712594434006208255e-01 2.836090116439465847e-01 -2.316100692326606564e-02 -4.491627928603305481e-02 -3.621793054571656456e-02 3.461155885551846917e-02 5.718199683650627974e-02
3.433128951636733039e-01 -3.197191410293399039e-01 5.925094158782165943e-01 1.869776467216372751e-01 -3.495086164678915669e-02 -2.095160963703046053e-01 5.417581842320566832e-01 5.065510961810439916e-01 -4.544641712280984014e-01 4.091175036731974912e-01
-4.340226663420631570e-01 -4.132715051542566048e-02 4.574358680266723542e-01 5.989623604935880863e-01 4.709091556410751611e-01 -4.907017746270023739e-01 2.098465657352791558e-01 -1.363059322651062055e-01 3.233599729197186301e-01 -1.330387079841577058e-01
4.286035001812295020e-01 1.918277269155077847e-01 -4.654729024923009439e-01 6.472670039736012626e-01 1.766213110476412551e-01 5.182544042191325473e-02 7.477053336733855415e-01 -1.689012577061554943e-01 4.137322421406098294e-01 2.845356273369952227e-01
3.135703820866995728e-01 -5.540470561245540715e-01 3.529591795809667865e-01 -2.388922002645574028e-01 2.925079192118063554e-01 -1.839642630118210054e-01 -4.593872888578586222e-01 -1.690260250981253931e-01 -2.009556908518914109e-01 -6.909858745753273412e-01
7.258228547273804432e-04 1.458716169115584042e-02 2.954031352276957970e-02 1.361855836808160275e-02 8.588425686347085294e-03 3.826225757662764237e-02 1.570135024181524772e-02 -2.231408492361262267e-03 1.673338940824126500e-02 4.134082479647567532e-02
-4.961025692693888378e-01 1.259566386083553757e-01 -6.215526101999856445e-01 -5.420769482109878412e-01 -1.375770698097020413e-02 2.397315501297837270e-01 -3.878018583012454723e-02 4.173748050086517614e-01 1.097261325053531106e-01 2.335387619283000593e-01
8.301666382500986208e-01 -5.337435880646635988e-01 -7.693618284295358212e-01 4.703801834921279568e-01 5.950033401412875289e-01 3.148435183528059400e-01 1.117690709953435141e-01 6.654370326968230831e-01 8.043845682253868423e-01 -4.410501646462353098e-01
2.729141817031667614e-03 4.348485626921778230e-02 -5.995582747554968339e-01 -4.814266821634388682e-01 -5.838170370563133815e-01 2.889426765692629240e-01 -3.675141369432411431e-01 6.666152736216711672e-01 6.857907785174371940e-02 1.312547557636051417e-02
-5.994104264423791295e-02 3.139654310098471401e-01 -1.558730294205649958e-01 3.934837946507750706e-02 1.678528876945625803e-01 -1.142236282076367071e-01 -2.817850360898424000e-01 2.223507189300651388e-01 1.969551678551087481e-01 -1.673695469291799909e-02
9.319522898442293007e-03 -5.536984451022231718e-02 -2.691421326491743038e-01 3.974206382718629138e-01 -4.518979219487036514e-01 -2.897360085218635486e-02 2.060984975328847002e-01 1.786662609001249680e-01 -3.351021174782599643e-01 1.939598027855338747e-01
2.985202781407454431e-01 -9.941188735064233895e-02 -2.941184060868856642e-01 4.345987221106972775e-01 2.859580555189947249e-01 1.721959012967816394e-01 2.399156277444901564e-01 -8.990296733435926280e-02 -1.377286136077008616e-01 -2.235289118908800887e-01
7.130840188225669174e-02 4.794449673394446387e-01 -2.656780809876005955e-01 2.000101028494431221e-01 2.960211445666587893e-01 1.542168445063922533e-01 1.155552961440083626e-01 -1.092461558260362925e-01 2.814416011686600716e-01 -7.657502074976435535e-02
5.225071451701738257e-01 1.107548217290439813e-01 8.170857966919519155e-01 -8.846195079723655486e-01 -3.959848969068327507e-01 8.731326249212648105e-02 7.585584566571983434e-01 -7.731587568415122513e-01 -2.097109368527934337e-01 -8.097676467762967567e-01
-6.348148090395856480e-01 1.855014256509425752e-01 9.476877640599753669e-03 -6.718954302599539075e-02 3.400928692332497727e-01 -1.426972869749935091e-01 -6.945303283363468694e-01 4.765587524646077711e-01 -6.611750594737942910e-01 -6.230229119093922963e-01
1.554642463472678468e-02 -9.173353730650787852e-02 -1.897052554957038423e-02 2.753445108448267509e-01 -5.268339899969433082e-01 4.687201678309093622e-01 -2.268649449660965767e-01 -2.650768211970543076e-02 2.423080527124334971e-01 -1.180473456321891185e-01
1.714002974552025771e-01 -6.258065643299245417e-01 -8.122928641988359511e-01 -8.157576458100471162e-02 -3.103520370521408722e-01 -7.994954343067240954e-01 -6.678914718689984431e-01 -7.256116406403930741e-01 8.648622664217123779e-01 -5.171758700843280820e-01
3.766200758660018799e-01 4.830491749178375538e-01 -4.156647335118091730e-02 -2.723604342433748604e-01 4.453810569871212710e-01 -3.005396836292046903e-01 5.252836801608965489e-01 3.602445231737163023e-01 1.586874701059531878e-01 1.416955792332197650e-01
-3.219739202013309209e-01 2.855382487599726904e-01 -3.342646480210397647e-02 2.997670682149233823e-02 -6.968028766789696737e-01 -2.519661652716389533e-01 3.307243364301192812e-01 -6.624625201850935508e-01 3.915094387752016125e-01 1.176085085094756653e-03
-1.773628185290654635e-01 4.852140572180783651e-01 6.179347163877367821e-01 -6.003731891368482843e-02 -2.414440986976034709e-01 -5.472413587359366005e-01 -2.598470638299693602e-01 -4.222339334556228230e-01 5.314687093504076865e-01 3.729932631136855803e-01
-3.795773958072538590e-01 -5.521333900983770304e-01 8.707359284357929496e-01 6.497405082813598742e-01 5.156363303104591900e-01 -1.408287642158432551e-01 -6.807286590787891001e-01 -8.168982156961838992e-02 -5.839623025363031017e-01 -6.624938778941613648e-01
-6.679736527838366078e-02 -1.106224007539481913e-01 -6.989566262151319931e-01 3.374661026788367546e-01 -3.848312180788452386e-01 -5.995658480295184001e-01 8.085792088268620725e-01 -1.495763817150257413e-01 -1.342724187419466475e-01 3.499460218629490971e-01
-1.497456720856551460e-01 6.144944224571214919e-01 -4.947050410020056854e-01 -6.739421888021026597e-01 2.491962205678913966e-01 1.302076075588975423e-01 -4.172775309884567407e-02 2.462150820194201339e-01 3.174597612260847690e-01 2.587807649955890521e-01
3.164503806857413837e-01 6.475103278366087789e-01 -2.238018972932679373e-01 3.643679446746100337e-01 -6.441718286044080255e-01 -5.934854044096373737e-01 1.089909783684247513e-01 2.027348653550622437e-01 -1.127068152417137620e-01 -4.491456727463716270e-01
-3.198021645220310710e-02 3.133431036338928388e-01 3.555453115770307870e-01 3.155930767020878602e-01 5.207926335851410515e-01 -2.878800518654280327e-01 -3.744703069968254305e-01 -5.773667758395986671e-02 -5.677431564863015812e-01 -6.109592234450417214e-02
-3.562044169013459660e-01 5.970140479426837565e-01 2.672171279704849689e-01 4.362206963684062688e-01 4.156284379583509714e-01 -4.497437643283275777e-01 3.654307590621238000e-01 -2.744999910542837429e-01 7.236223616974279960e-01 -4.272630769326413724e-01
5.152051966091489299e-02 9.395681541805372614e-03 2.016025382435025076e-02 -5.974239960237512012e-03 1.894853163874087422e-03 -6.560748731395354798e-03 5.515328594882233648e-03 1.054018593948087695e-01 -6.336084161189465928e-03 3.636480685306089748e-03
2.608910454206967433e-01 -2.312649098812004714e-02 3.973176465001067303e-02 -3.195125386098384701e-01 -4.717611151361146837e-01 -1.080905217228074131e-02 -1.141992419052967334e-01 2.274215133178040527e-01 -1.454555573487233688e-01 -4.684588491187763881e-01
3.862427384463628099e-01 -5.535057907437419544e-01 -2.892669414779670545e-01 -7.086242430104617851e-01 -6.939318954350037760e-02 -7.057744867991386784e-01 -2.022556508734278391e-01 -6.369180560302560856e-01 -2.263366681610933309e-02 2.970153950432855017e-01
1.489814466114402006e-02 -1.596792446757919204e-01 1.121739288766133297e-02 -7.145313141184171657e-02 1.387898130794200657e-01 6.579294931044278594e-02 8.575554692499881559e-02 1.751843735627946208e-01 -5.917583299666202140e-02 1.052859408798292318e-01
1.286974109525905741e-01 2.632511503739954351e-01 -5.305679923960699568e-02 8.167889807972689153e-02 -6.701518509477830121e-02 2.385767300913181621e-01 -3.725245526130483986e-01 2.180777077548069209e-01 1.023323389398842452e-02 8.125437023331671949e-02
-4.002449170123092981e-01 -4.484232948682707193e-02 5.879020135701453764e-01 -5.256555737274525020e-02 -2.579898953454238253e-01 7.247775205041222524e-01 -3.221307876543345605e-01 -5.343731656362572524e-01 -4.106125587979212455e-01 5.401307757363300599e-01
5.819848465343617772e-01 -7.873450154910248411e-02 -2.601643083532775291e-01 6.640614027527544927e-01 -2.624139159852330039e-01 2.484374724253692046e-02 -7.771881168635124126e-01 1.493803740623504683e-01 -5.361336366261506559e-01 7.435657679003755405e-01
2.662774353521834003e-01 1.950435608237781060e-01 1.221610583129213463e-03 1.317650011844924973e-01 -9.097912840733161921e-02 4.064407998211043253e-03 4.784431261631889865e-02 6.866568879875728504e-02 1.319317331721611419e-01 1.653117147261841946e-01
-5.190084658378495419e-01 -8.495927590335075053e-01 1.524753323490983248e-01 6.033887515659298595e-01 -2.734758715935420303e-01 5.913296076295003756e-01 -8.415765190436348409e-01 -6.940148711681901061e-02 -6.889841857620644383e-01 6.392899114109684700e-01
-2.831972902174914944e-02 4.805100710773189954e-02 1.292107683413849795e-01 -5.826562095705782249e-03 -1.455272875584942838e-01 -1.398345132285625236e-01 -1.887398491193559846e-01 4.624630009809484882e-02 -1.427697400946900952e-01 -1.105346847859781240e-01
2.055624272106630346e-01 -2.414391677127884495e-01 -4.432710271715122330e-01 -2.988963361874558133e-01 4.303254827324944354e-01 3.704954133538516658e-01 -2.047796923722201567e-01 -5.556164925055032677e-01 -5.250441635610209046e-01 5.055482258738439594e-01
2.978292950026495967e-01 -5.401563085019965849e-01 -2.737990793492980218e-02 -3.607256774235878538e-01 9.797303148554184493e-02 -3.125832914088780834e-01 -4.501249595653882274e-01 -6.955191995431231344e-02 9.142399890348118854e-03 1.908042576798996137e-01
-1.377071899858731130e-01 -3.391578436756629844e-01 -9.339801090891321211e-02 1.065431539459660570e-01 1.423788238636333192e-01 2.579503153993461528e-01 2.909030625515774959e-01 2.539158774737827473e-01 1.656326354111625487e-01 2.554896376025000970e-02
-8.620760179920171629e-01 4.477428068488663593e-01 9.012481640143080175e-02 7.377637838890243049e-01 -2.706418295382448935e-01 -3.193493299245642736e-01 -1.523664970632610249e-01 7.675611150861073595e-01 -5.101840057347841600e-02 1.419492228688600255e-01
-2.575970667502008871e-01 8.545863888495182359e-02 5.732202904727358161e-01 -4.084995685918326180e-01 2.026116038707383993e-01 8.170430625171284378e-01 1.974768926256851576e-01 -8.132502159153802770e-03 3.412114303345195054e-01 -4.193721302843779197e-01
1.638692814819978083e-02 1.811795150998767867e-01 -9.268721335632551517e-02 -2.357158279997397243e-01 2.508119870944930385e-01 -3.122176605059343579e-01 -8.629715616215685725e-02 2.162270862450053205e-02 -3.046554470187923247e-02 -1.986053490761628126e-01
6.118597811293153416e-02 -8.967152753051543801e-02 1.469752422001253667e-01 -1.406810006227206256e-02 -5.398314177201073844e-02 -7.176420907110060698e-02 -5.213580419648222719e-02 3.945483550220697105e-02 -2.099046873129530588e-01 8.212808991300341033e-02
-2.883076323770494831e-01 7.740466455989307715e-01 9.214635627153099362e-01 -6.244160319400724468e-01 -1.055054513978330583e-01 -2.747623376210041046e-01 -3.102975225761968603e-01 -2.163799020237889004e-01 6.843828150046373793e-01 -4.259466810652540736e-01
-3.439910760904909548e-01 -4.382821640309235156e-01 -4.478695678026553550e-01 2.770593112792323898e-01 -2.329985426779962732e-01 7.238966791243539589e-01 -2.145959545066747076e-01 -5.170287440799241629e-01 7.609586164706000355e-02 4.455190392430424251e-01
-5.081088953541126330e-01 4.424626029308363351e-01 5.400268166750968879e-01 -3.209571347619543102e-01 -1.577423688832683413e-01 3.164470840970433629e-01 -3.199724489355383339e-01 2.319877768932992190e-01 -5.813375023195775926e-01 -7.142752132127243581e-01
-2.454137200533063612e-01 -4.646999790028913946e-01 -6.442855697931304526e-01 -4.181645259722703845e-01 3.909419564426339089e-01 -5.509719304321732958e-01 5.065318487225057426e-02 -3.267420484131551284e-01 -3.761487966554982743e-01 1.584554463232649146e-01
5.628103516896576508e-03 -5.763593308935229670e-02 -2.752610345424618687e-01 2.011009914867852022e-01 2.070623389975592699e-02 -1.009527684439295442e-01 7.367299193220773479e-02 -3.864565122687260712e-02 1.240598085731350886e-01 -2.676442078662739643e-01
-2.775034699304740893e-01 1.673624286536628258e-01 1.990896178187974153e-01 -1.662538489168805256e-01 -5.995039909836649139e-01 5.661747283719761326e-01 -1.342752196979588308e-01 4.536223322442822226e-01 -1.824775255433706556e-01 -5.650873977172848894e-01
1.174819885602336467e-01 7.384212494057507126e-02 -9.962220667846341526e-03 1.653074360928503683e-01 1.389259092283539887e-01 9.652519015117237700e-02 6.252804350397335453e-02 -1.572395140482803905e-02 -5.726762990309726409e-02 1.863783442626557735e-02
-5.680544306387483866e-01 -2.836537261626986273e-01 -4.582826271534899409e-01 6.336544668787466028e-01 -4.810533651301655000e-01 7.023973670310250661e-01 -3.451605384021720901e-01 -4.680106083342699397e-01 4.833785563399252694e-01 5.607369023445073486e-01
-5.395613176471399930e-01 -7.956592399757581036e-02 3.626590543248803256e-01 -3.459882894189144666e-03 8.210142367453728829e-01 -2.674545798048680867e-01 -2.293692247359465364e-01 5.792348684213015630e-01 -2.558634380546759846e-01 4.240155631617228971e-01
-1.783613996047038464e-01 -8.941805528244027579e-02 9.492322942188130552e-02 2.399490283890113804e-02 -7.626996314147309330e-02 -5.587817525105309713e-02 1.000692392798159386e-01 8.273209499295318750e-03 3.259749364420577028e-02 4.784580807620150006e-02
-1.363734971407838670e-01 2.547551776661632905e-01 -5.221532290280430852e-03 1.208302130946333069e-01 2.418973334547245557e-01 5.129406133238629401e-02 -2.367293862407619243e-01 -1.661880924583672148e-01 -7.148228185780247657e-02 -1.338979561793062767e-01
9.601548133442121616e-03 -9.208164770835740309e-02 9.940544819810033170e-03 -1.970406888487572505e-01 1.261935269417343297e-01 1.194079066461279370e-01 -9.429741872192821950e-02 -3.283715168911869875e-01 -3.039969841496466540e-01 -6.173512156339918677e-01
5.321652179790405945e-01 -1.386801913022830401e-01 -5.383417736706804790e-01 -5.774754185888436586e-01 1.348423672460846434e-01 8.879286847262657378e-02 -5.358573340582027944e-01 -6.536217218564532860e-02 -6.419098582812609033e-01 5.252577699311088422e-01
4.654664397405776644e-01 -6.402204721794697573e-01 3.799187241293239814e-01 5.781996779630634853e-01 6.330738982618153710e-01 -3.011736338006242852e-01 4.043043585715030419e-01 1.678304840990491320e-01 -1.150426789515010713e-02 4.840638949572652061e-01
4.361261812927317849e-01 -4.565393686522059569e-01 -4.153201890729686929e-01 1.774614433551667814e-01 -1.417750211312539532e-01 -4.225084070788196478e-01 5.225894620978858152e-01 4.360711717309886382e-01 -1.311693584080559638e-01 1.156876921084672299e-01
2.047662796819558484e-01 7.938362980501830757e-01 5.068394808034454302e-01 5.994536150415215037e-01 7.209208579511293680e-01 -8.029844168995470266e-01 1.665674856082081379e-01 8.002610414531879934e-01 3.091669063001900031e-01 -8.732988164704406087e-01
3.241199483609032428e-01 -1.378119927221832519e-01 6.077916795177656234e-02 1.492911556254785665e-01 -2.116692333987608421e-01 4.464085574200902795e-01 -5.290319333823785553e-02 2.325605036618813570e-01 1.530813312293339001e-01 3.361341718482666607e-01
4.507314418781808163e-01 -5.667145137884406214e-01 5.736578891088156551e-01 -3.623645089785680340e-01 -1.910379226377312556e-01 -1.632760990185616601e-01 5.512366184136177072e-01 -4.573598223639296356e-01 3.313039763537283244e-01 -2.470835755872174688e-01
6.767165086841604449e-01 -2.549502449374237978e-01 -7.074270642799067588e-01 8.933979899441245598e-01 8.634136806968949196e-02 9.337669418923656428e-01 6.930276600798466191e-01 -2.708933026954314927e-01 -9.290281935322441953e-02 7.889774364860525635e-01
-2.201234283332801078e-01 3.996683292575275645e-03 4.341998234207664759e-02 -5.388803408179934085e-01 -4.405600150273095150e-01 -2.358216099264848209e-01 2.371239445346925434e-01 -4.157862601435245997e-01 -3.074149773771382432e-01 1.478708690674929438e-01
4.109649965584938336e-03 4.612965927156111728e-02 1.883163711520953465e-02 5.494102117433386639e-02 -8.071567839299898656e-03 5.368254470361605996e-02 -5.478387595303928041e-03 2.111869957302983658e-02 6.733965050611454006e-03 1.730709819463491228e-02
-1.213432602485209622e-01 -6.073545371502465651e-01 2.853199988390303088e-01 2.937509036088416930e-02 4.827697763004460962e-01 -4.583718641808449124e-01 2.376619843873512827e-01 -3.980479082106631039e-01 7.181670054543071169e-01 4.405850830750909775e-01
-4.855718705530586710e-01 6.656750616357339778e-01 -1.053549223025035536e-01 -1.685080349098089514e-01 4.678026358929421313e-01 5.185564903143823345e-01 2.611981359114527446e-01 4.666006693376257286e-01 -4.724589920813548338e-01 -3.994904892632969440e-01
-7.110265464838429195e-02 -4.551108429989235704e-01 6.668977060825913294e-02 -4.403452872135350804e-02 1.843492676177898859e-01 1.759010482578182433e-01 1.345703634221412648e-01 4.376118291123796133e-01 -3.115968170674958126e-01 3.558133747981506723e-01
-6.799566951047204544e-01 3.937202053538651492e-01 4.501260149597976490e-01 7.242235877800436983e-01 1.321309987793111429e-01 5.920481259980917565e-01 -1.920290288080061802e-01 -9.099644908336829152e-02 7.084987294321916096e-01 9.233485137384005170e-02
-1.503654728586991118e-01 6.298614421580568390e-01 -5.660650034415908305e-01 1.937333488734352405e-01 3.089037350456744768e-01 4.143074252569511340e-01 4.037295558352274605e-01 1.170356167284044846e-01 -4.273656455372835949e-02 -1.588514927086019379e-01
2.475389329976647804e-02 -8.958750867840981069e-03 1.316751855912458996e-02 4.306577195581669237e-02 4.401529076861539908e-02 3.452101674246194074e-02 9.637932074960725223e-03 4.540229094280897465e-02 1.643964943041774721e-02 2.517411673891012738e-02
-4.915346204602654701e-01 5.953760238252973069e-01 -4.899621836991403523e-01 -4.806316281566538895e-03 5.719051969355268827e-01 -7.490510947365590644e-01 -8.006723666174511145e-01 2.636836821294279987e-01 -3.394487582043707596e-01 -7.041143841891563948e-01
-2.293383460214166447e-01 -2.022365246847830922e-01 8.948742094808787018e-02 1.438755595144857180e-01 1.587242385545318824e-01 -4.459358340662667453e-01 1.196895269309812132e-01 5.963213818863325466e-01 2.265335151499515420e-01 -8.670603699628605388e-02
-5.448092264990649358e-01 1.982398177490461988e-01 -8.132690238399169491e-01 -3.344172421678446860e-01 -6.754513238285811960e-01 7.827101004106502835e-02 -8.332705268018926192e-01 -5.078590291531080991e-01 7.978752051128580325e-01 6.894184966842065165e-01
4.800073891290455169e-02 7.633038335462204171e-02 8.558831043217822454e-02 -1.758570721082503840e-01 4.898888207543142248e-02 -7.681118679765472357e-02 -4.922702432730871602e-02 -5.052739888887927688e-02 1.900337771641407575e-02 -3.613920992321855504e-04
8.097751770132777249e-02 -2.122797541843729485e-01 2.979746547875402052e-01 4.388893101000956865e-01 -4.930064655302690002e-01 1.766557984874111698e-01 2.414531207274964730e-01 4.047916082929220449e-02 -5.067190310002914755e-01 -5.743333696658542431e-01
3.315231076319223869e-01 -1.732796189845510482e-01 3.189528229712623175e-01 -3.822279502442743615e-02 -2.590705993228491488e-01 -3.227136424430074868e-01 2.286642994285026931e-01 -3.845756473257864738e-01 -1.835492230157457494e-01 4.024324996929235509e-01
6.967777951561445748e-01 -4.810334689907519445e-01 4.778467780507560936e-01 8.239289471286119770e-01 6.145851147051207830e-01 -3.232072425983337216e-02 5.263645184182884629e-01 6.943899531574651007e-01 5.932993185993896690e-01 1.057436312963586228e-01
9.065470024456981357e-02 1.186476245917366112e-01 4.581849210016805674e-01 -1.481516728393655058e-01 1.937390108201572925e-01 -2.012665273595946325e-01 8.998586669625634193e-02 2.723247681512251939e-01 -3.782053768853624320e-01 -3.622156087271000691e-01
-3.622299390100696681e-01 1.330957671030199019e-01 3.881034675077010276e-01 -5.851776626247977564e-01 5.746921573060981281e-01 -1.289097483616784001e-01 7.261205246542125069e-01 -5.644090317715328986e-01 7.537557392948431023e-02 -4.110168426723958407e-02
1.642400403857717794e-01 -2.395611304282767584e-01 -4.459904800349860365e-01 1.691247116861958194e-02 4.637030127828162263e-02 -2.157607487498556034e-02 4.077268002525895052e-01 4.372904257830510510e-01 -3.898757837201589915e-02 -5.724862864156975428e-01
3.097146967843356635e-01 -6.228418369326260695e-01 -4.843308026097212782e-01 2.974065588566391499e-02 1.593235306894210945e-01 2.963644215813238669e-01 -2.650641616023886593e-01 2.046237170374242409e-01 -2.800908490235290982e-01 -4.079784039233042559e-01
-4.099021958146802785e-02 3.801906186522294728e-01 3.336986677887849861e-01 1.933518200387892294e-01 -7.013769573292527593e-02 2.249962399743600239e-01 -3.376571016113271151e-01 1.916477963161069276e-01 -2.485517821842283485e-03 -4.452247912295396737e-01
2.545989803723214817e-01 -1.887456817136989318e-01 -1.615399598112907120e-01 4.580576435382130440e-01 3.927354216900634798e-01 4.636908838248366971e-01 7.045023926541491566e-01 -9.164443378861980571e-02 -3.041135774523165969e-01 3.384437605202450516e-01
-5.202166894566544464e-01 -2.329331238578084273e-01 -5.362807254623096903e-02 -2.813479095603728386e-02 2.639232321253696112e-01 -2.794489386217189897e-01 1.177960446443744418e-02 -1.902142244806274973e-01 -2.906054337124798770e-01 2.428826058767410701e-01
-2.104219545642882216e-01 -1.204553045769815312e-01 -3.301531909286365418e-01 3.830321108311496858e-01 2.027259324227886073e-01 4.034768856396759307e-01 -2.156340355313529356e-01 2.815975641221209191e-02 -1.967736971801287149e-02 -2.508436535876108417e-02
2.288506507770571852e-01 2.384303508417187634e-01 1.833019000307875290e-01 -2.252966445570659670e-01 -3.800345175944865872e-01 -2.500719275404525432e-01 2.231847284374388340e-01 -3.358871140193362415e-01 3.717763207772422085e-01 6.824394514083371999e-02
-4.933885851820503723e-04 5.338997300402017476e-01 -4.421289957081822042e-01 4.767517982192128745e-01 6.491771920623107262e-01 1.778714833145820517e-01 3.197109806617324246e-01 2.760051276534407072e-01 -4.702155570782161620e-01 -6.480897221673758146e-01
2.987194092886066854e-01 -3.923165000479247322e-01 -4.327039456957703090e-01 -2.448379177630110592e-01 4.987834144689308191e-01 -6.856495801179252059e-02 2.264622399691059232e-02 5.461962504413325759e-01 2.766245751050358526e-01 -2.630313935014216287e-01
-7.761756165904186433e-02 3.052011232855746381e-01 -2.570213674633490264e-01 1.809046463676528549e-01 -5.188926109481368787e-01 -1.671761518756240683e-01 3.093259090679968959e-01 -2.745724264625595823e-01 6.780122756176801824e-01 4.620593333465804475e-01
-6.319533003903757273e-02 1.082026236853272927e-01 2.756822270742826375e-01 2.384323531914720740e-01 7.912680059869743598e-02 4.308653779987091648e-01 1.922795046619178161e-01 -9.435480607279891907e-02 1.026001481885383676e-01 3.076272277204224470e-01
