6.287057437239255142e-01 -7.936216348889844063e-01 -1.145938847486768636e-01 -6.192734939773478775e-01 3.217664791490127407e-01 -4.557847219668538230e-01 3.520941999113058052e-01 5.921123390816679377e-01 8.047841419493650950e-01 7.074299192793044311e-01
1.492651502386443951e-01 1.205659554695975577e-01 -3.874205271196067835e-01 4.043504029217326878e-01 3.953152816592126473e-01 -1.074942243110275364e-01 -2.523040074905848473e-01 -4.309647768764524045e-01 5.161232490674896312e-01 -2.685802599071617225e-01
2.784858740719580172e-01 4.414896142745307617e-01 -2.004548290365785329e-02 6.557856324005534310e-01 -5.670845711559089342e-01 -2.936573086692922385e-01 5.546712800461995885e-01 2.519308593729071011e-01 6.816381553790337167e-01 -2.658095578287191785e-01
1.620442768446239412e-01 -1.829565172885055380e-01 -4.859282973896802971e-02 -5.155774142189523818e-02 -1.466212771801810033e-01 -1.489659371211343453e-01 1.975246506640101762e-01 -1.605847431997911579e-01 1.430325281653355984e-01 -8.552554363299012807e-02
-3.665302413087926769e-03 -1.111658476313535666e-03 6.767625353936888855e-02 -5.616091603342417832e-03 8.531702793313983291e-02 5.483246063852524610e-03 1.690271434745915444e-02 6.079331199128145541e-02 7.213104404888022979e-03 3.970930441201526995e-02
-4.455897129520804412e-01 -7.468920366335578542e-01 -4.071435017176631282e-02 -7.938366639324313523e-01 7.015908899457895531e-01 -6.938091250547854250e-01 5.530886310308968934e-01 7.119153407817722101e-01 6.743722567280724389e-01 2.297351095162480927e-01
-5.329149630865626271e-03 1.695340270079796485e-01 5.945125525027292884e-02 3.530244724547167146e-03 -1.148688706084930594e-02 1.119502213751426278e-02 3.797631331873117105e-02 9.076552746841817440e-03 5.431446277418958135e-02 5.062493890340545588e-03
-5.348396583384684710e-01 6.801585995237586779e-01 8.187891429612956240e-02 6.853090637058001366e-01 2.256405812187949333e-01 -3.245148894267305684e-01 -3.837993258233861615e-01 3.201562552446387544e-01 -6.046269058841571287e-01 5.596867635778692840e-01
-7.003657037780589012e-02 5.909463133194780005e-01 5.496224872543971074e-01 -5.608769635154784439e-01 -2.789792562503782825e-01 3.698064596675042504e-01 -4.173492052865306889e-01 7.205843910095807159e-01 5.173756406527513230e-01 -1.902374384265407836e-01
7.014016655724694682e-03 -3.531872698345735976e-03 -6.414320879901881656e-03 2.563972296189842917e-02 8.499732485395589121e-02 4.517901013981093922e-02 1.215622622295793598e-02 3.763009327161104256e-02 2.902321206270036535e-02 1.716725840124020894e-02
-1.674186094327673180e-02 9.656032193328541180e-02 6.548885320436992341e-02 -7.189723437376380200e-02 2.207558066637793082e-01 1.050399925976667169e-02 -2.931282003280017562e-02 -4.917451736167603206e-03 2.762770902267242673e-02 4.966041869932234093e-02
3.422728120833711807e-01 -3.188845326552370851e-01 5.950231628488609203e-01 1.864102282532492938e-01 -3.493867046938393950e-02 -2.090193525599361724e-01 5.402777165685238581e-01 5.067776766466486338e-01 -4.532738341307295249e-01 4.087098951795666291e-01
-4.220173417485766354e-01 -4.392421167628141054e-02 4.415056582639901306e-01 5.801725447531527191e-01 4.667742354744294775e-01 -4.587679069362717854e-01 2.075392350458878654e-01 -1.355364083813510589e-01 3.159620232027393616e-01 -1.277661960440267253e-01
4.148411352987460554e-01 2.013455337562810032e-01 -4.657667393730099414e-01 6.360559201689480746e-01 1.755305640236406728e-01 5.420581015594858054e-02 7.428561270720345222e-01 -1.599605670204444496e-01 4.121411087250061445e-01 2.872676077280932327e-01
3.104822153781282013e-01 -5.496476750567867997e-01 3.601053770921054942e-01 -2.361937140684969849e-01 2.912043027773444370e-01 -1.803447833756833263e-01 -4.544968572106090066e-01 -1.668875603538066132e-01 -2.010829816341276610e-01 -6.827943754038828805e-01
-4.578367679271245876e-03 1.338934678867283526e-02 5.083671882890759830e-02 1.487345809659157587e-02 1.308603896122768895e-02 4.368766811884017970e-02 8.445618073630600103e-03 6.398285523701807915e-04 2.289322911453661735e-02 3.908440372559150722e-02
-4.057662820549401972e-01 9.850891239022811774e-02 -5.433479516592927272e-01 -4.661118871682748965e-01 -1.287725466863815123e-02 1.977619847377113382e-01 -4.040757069798400075e-02 3.585248730467260336e-01 9.771733950232065757e-02 2.455087819743226596e-01
8.297675758833469306e-01 -5.337673382328327332e-01 -7.693721553010842706e-01 4.700893347551913237e-01 5.959726758177084083e-01 3.149311945755405850e-01 1.115673464226121098e-01 6.657052695059664238e-01 8.042208105308686905e-01 -4.411909809288992457e-01
1.407996417517634082e-03 4.168454834469675213e-02 -5.887547883845724028e-01 -4.766308835829831114e-01 -5.778147204826461492e-01 2.850865277103904472e-01 -3.637618926145342879e-01 6.701584248559963042e-01 6.702823196699705943e-02 1.281419385617338369e-02
-4.436418177518165751e-02 2.394472429411178549e-01 -1.347938652001330340e-01 6.322811946146772444e-02 1.927851468939680291e-01 -8.798728004124983793e-02 -1.991799117427960342e-01 1.357973995394632094e-01 1.434580118894933087e-01 4.625671291172914895e-02
-1.699471093764881851e-03 -5.344822343556780014e-02 -2.359567776075714440e-01 3.638467653605951257e-01 -4.074993914021767250e-01 -2.564614150540100654e-02 1.778407941628029898e-01 1.927690905799623045e-01 -3.062980600645138773e-01 1.759995666073509157e-01
2.759827776666955446e-01 -9.230077053427011846e-02 -2.266686507041298926e-01 4.020707627115714944e-01 2.650107881886721306e-01 1.642836542344844053e-01 2.089955984892892804e-01 -8.928284928610569215e-02 -1.255223346540632057e-01 -2.129315412007150854e-01
5.841174747167090370e-02 4.177087386404887970e-01 -2.034022819984091790e-01 1.718007919660798632e-01 2.546060125961198684e-01 1.304944945132532896e-01 1.019450295583940042e-01 -5.455588043630670708e-02 2.447276248459971382e-01 -7.017294875871783744e-02
5.222853206904296552e-01 1.115503871799041619e-01 8.166460171913542121e-01 -8.842798087133031393e-01 -3.956418856838633813e-01 8.721792432421424102e-02 7.580182957820958967e-01 -7.725553670492190106e-01 -2.095718702601856165e-01 -8.076149121008004972e-01
-6.268545602094498514e-01 1.826892857381540725e-01 1.283903974735640940e-02 -6.592228139537979759e-02 3.363297095173298779e-01 -1.343040154335084502e-01 -6.822507647840935219e-01 4.618980979956992527e-01 -6.515763560763369044e-01 -5.983562318999210428e-01
1.114119948259719405e-02 -3.548581255803662932e-02 -1.628045637490824551e-02 2.457904961180775727e-01 -4.862441280336745608e-01 4.181036782257498974e-01 -2.051522358708997296e-01 -2.445046351163538897e-02 2.181771702605525276e-01 -1.161720924505947883e-01
1.708515183617207722e-01 -6.254926801384789181e-01 -8.087980820407557614e-01 -8.177081726438452380e-02 -3.101132702606802516e-01 -7.991710428723337589e-01 -6.672788730693913761e-01 -7.253794193608738006e-01 8.638045369220075376e-01 -5.173377181541780612e-01
3.681160763462192897e-01 4.729280413596513299e-01 -4.056880065669790647e-02 -2.681989685055134465e-01 4.399258115095708854e-01 -2.766526594678094253e-01 5.127655707626387338e-01 3.513387560270147536e-01 1.544370640043385978e-01 1.384831247191833647e-01
-3.188468196322482573e-01 2.903093711012642020e-01 -3.572558769146597091e-02 3.133889325265787340e-02 -6.897573021149040473e-01 -2.377923042167683632e-01 3.303564906441624482e-01 -6.524305877815587129e-01 3.853398214283780265e-01 5.677235248493049799e-04
-1.719255117690919599e-01 4.754287508249271932e-01 6.127445708750252074e-01 -7.095093691268607172e-02 -2.142840716171854898e-01 -5.385730189223935094e-01 -2.585568450650211347e-01 -4.087954747769821928e-01 5.184687452048932776e-01 3.588194676449615872e-01
-3.799004276967233307e-01 -5.403087252073067726e-01 8.693624388266056879e-01 6.499864052807303727e-01 5.101432280719043755e-01 -1.409205971407472835e-01 -6.758175452954553464e-01 -8.338256472696044252e-02 -5.776291529555847015e-01 -6.629696430948015529e-01
-6.653165102478514337e-02 -1.097505894230369344e-01 -6.913334306277079122e-01 3.337097492989669623e-01 -3.806529392880599882e-01 -5.790920927149494357e-01 7.972860911173511589e-01 -1.520058751376093253e-01 -1.318917551199483007e-01 3.546905558514362733e-01
-1.488541954699887648e-01 6.065489981055104396e-01 -4.887052294930633867e-01 -6.683606577525693648e-01 2.550467840010209875e-01 1.321490443610804366e-01 -4.309801569471428950e-02 2.548829892709914557e-01 3.152370687772284574e-01 2.483784953780453497e-01
3.093451152996399278e-01 6.340346065407975740e-01 -2.222102429421997372e-01 3.530098438722459320e-01 -6.128138050506696244e-01 -5.783859835268797545e-01 1.086163607301317835e-01 1.927950631715730223e-01 -1.166909915289972288e-01 -4.405120301909561387e-01
-3.420176867825431427e-02 3.173866518957659810e-01 3.511918453707090770e-01 3.132688754366254602e-01 5.175229352345316336e-01 -2.786013198675321711e-01 -3.701971999420942683e-01 -5.312323486316102017e-02 -5.641907877532877924e-01 -6.183420568065478573e-02
-3.528702611144053369e-01 5.892429294587193667e-01 2.751787713232091148e-01 4.288403474316871966e-01 4.009309551769359437e-01 -4.514023198805562909e-01 3.561075959283712677e-01 -2.611005459579349153e-01 7.172216352130585948e-01 -4.215856511362450210e-01
1.013836408063485128e-01 2.963621616430260272e-02 3.331573932903422741e-02 2.589211095755918936e-03 -7.372304235131812121e-03 -5.267196423048010716e-03 4.233461892595592919e-03 1.616098838924716063e-01 -8.220479821753563787e-03 5.575084816120631261e-03
1.492253236816095674e-01 -2.996718369735038370e-02 -2.321131597590936520e-03 -1.794965987983133671e-01 -2.475136717546027876e-01 -9.217526423736620636e-03 -5.732475051393404880e-02 1.036940129700300028e-01 -1.201747602486018390e-01 -2.946025922557184984e-01
3.828714988307391764e-01 -5.490450737312830842e-01 -2.857530870511583165e-01 -7.031853904231470942e-01 -6.880548272956241163e-02 -6.950266828492857041e-01 -2.031253626013494740e-01 -6.338908053286533839e-01 -2.112015474547805985e-02 3.116743389768672490e-01
2.759913647868982717e-02 -8.602502058996584766e-02 6.017780239993646401e-04 -1.005461754826005548e-02 1.663040795948424744e-01 7.428006632885832301e-03 7.235812172999243896e-02 6.846340975800584150e-02 -2.496533200872185290e-02 7.291939650618425861e-02
1.123289054642802737e-01 2.513458539661875824e-01 -3.544412947506075245e-02 1.105435253990345312e-01 -4.237638734739841012e-02 1.700589451914652772e-01 -2.871595928254246921e-01 1.836254166493389295e-01 -3.431985748093601633e-03 7.228683584556556962e-02
-3.842033974846914002e-01 -4.014843841655828249e-02 5.798407189969586595e-01 -5.070581910793724167e-02 -2.528282006824666417e-01 7.120572924912459412e-01 -3.190115171905541502e-01 -5.179980395595913389e-01 -4.081593306472688920e-01 5.432672960169914189e-01
5.803853224768315000e-01 -7.590463031320202059e-02 -2.596679498431239685e-01 6.618739234434362073e-01 -2.619518991694020360e-01 2.617250291997505474e-02 -7.756248567007675287e-01 1.503489325481351946e-01 -5.355053211254591217e-01 7.418839882584522538e-01
2.496164948622642543e-01 1.710039017922818372e-01 8.713615929816249245e-03 1.156404135672066819e-01 -7.278455439400408067e-02 6.655659032434180222e-02 4.467828944631561938e-02 5.337697804549233760e-02 1.173554682765436119e-01 1.399934464432389947e-01
-5.197735262766430830e-01 -8.463554390462797450e-01 1.548280013842267822e-01 6.035672435927812440e-01 -2.752516276954691810e-01 5.896931220447568789e-01 -8.403568325028644148e-01 -6.960090028735380074e-02 -6.876834354432913576e-01 6.391929291409619296e-01
-1.708169301221517181e-03 1.489509832603259400e-02 3.511561723526423345e-02 -2.456539736531492338e-02 1.696228773900218534e-02 2.301319700446618002e-02 -5.639332173439804557e-02 4.241269071683965997e-02 -6.158636380891480133e-02 -4.367428808379730798e-02
2.004111578427398288e-01 -2.355677948853000248e-01 -4.379274518809170291e-01 -2.985024051129390732e-01 4.336430473073785152e-01 3.654571156907517326e-01 -2.072530646453460412e-01 -5.352555737856515838e-01 -5.177723227849396759e-01 4.926897005079808878e-01
2.796027686857507355e-01 -5.110993371508685268e-01 -2.085303200355182254e-02 -3.403779402705596202e-01 9.734800046534163032e-02 -2.939734825165523091e-01 -4.010820447973876268e-01 -6.401729038771254710e-02 9.777925449014918807e-03 1.789039740154153013e-01
-1.130414053682437248e-01 -2.895991210226679380e-01 -7.836194504228366498e-02 7.132670879776689676e-02 1.689016170565269537e-01 2.182029640490492084e-01 2.394456645722572441e-01 1.985995548163891344e-01 1.247422263450927438e-01 7.280253036121910049e-02
-8.560836607491343342e-01 4.486868110005883814e-01 8.851758685943736382e-02 7.395034955868013959e-01 -2.688847450365427494e-01 -3.178745420112347175e-01 -1.515104594476531785e-01 7.620731146845622916e-01 -5.123680404997244670e-02 1.402102086823365235e-01
-2.430718639266768455e-01 8.397946674992205762e-02 5.653497432257934552e-01 -4.029456248586905098e-01 1.993656460359936322e-01 8.064889766187421927e-01 1.951301082773516937e-01 -7.683059928423422238e-03 3.366823059926319361e-01 -4.147465358705355043e-01
-4.452355993720885814e-03 1.296018695798692999e-01 -5.241480019376484195e-02 -1.236706552493461869e-01 1.521596087270349895e-01 -1.742415070707108993e-01 4.424337795649230243e-02 2.438977491845453066e-02 -3.752609684605633968e-03 -1.264624893156041097e-01
7.216994971211293519e-02 -2.714011487305195442e-04 1.768474741035983566e-01 -1.877276163857036564e-02 -3.264803579640629394e-02 -4.542334276320466463e-02 -1.116198724313284367e-02 2.615412009815245437e-02 -1.272579701000635111e-01 3.240303537187229355e-02
-2.855954202961568100e-01 7.654968343872483594e-01 9.156770800093529949e-01 -6.206790909365752507e-01 -1.040946516496894375e-01 -2.545133547953132847e-01 -3.162590267222895601e-01 -2.247475521301442458e-01 6.812599739133746723e-01 -4.016140833553213385e-01
-3.387884598616470178e-01 -4.367513320388098363e-01 -4.448536488358473817e-01 2.746448660257260199e-01 -2.324002005923844205e-01 7.265407666494373418e-01 -2.091960940353052023e-01 -5.143915787812126661e-01 7.518212779091128228e-02 4.390252285521609177e-01
-5.075821411700914831e-01 4.419483490614934951e-01 5.394012516141133418e-01 -3.210005806867083922e-01 -1.559821797652858333e-01 3.177928980556894989e-01 -3.198796878934377363e-01 2.312216287451288044e-01 -5.809723094330677684e-01 -7.120166356858395051e-01
-2.345915624579812120e-01 -4.527239358528413193e-01 -6.244783327446412624e-01 -3.888670385209105906e-01 3.795187449965314874e-01 -5.363416950113014670e-01 4.774319140275064266e-02 -3.169507176211573407e-01 -3.664236774528734086e-01 1.470161086789232019e-01
7.609476296366013415e-02 -4.171020422000936562e-02 -2.409330297108508157e-01 1.706720393941815739e-01 2.791844244885038212e-02 -9.248658544558244210e-02 6.495887748743248147e-02 -5.186567594976538307e-04 9.727830622717298370e-02 -2.228589169463478514e-01
-2.589605231979542621e-01 1.638438643038622466e-01 1.965361026370781028e-01 -1.463245054563690750e-01 -5.755542636433929049e-01 5.641173428182210126e-01 -1.272632796376625131e-01 4.394645010243359851e-01 -1.769935446321416472e-01 -5.500062666275535861e-01
7.677064569918151671e-02 3.568855427830974758e-02 1.329588673481778109e-02 7.407544738140467433e-02 1.044590943803387351e-01 1.493415130551459290e-03 2.180494885090365417e-02 8.699445443979724607e-03 -1.247462182616720407e-02 9.314806149386260434e-03
-5.661125790925076728e-01 -2.822073822957266165e-01 -4.568904608735496753e-01 6.320345385514166692e-01 -4.829448009846008527e-01 6.934700837771933246e-01 -3.442002508888254986e-01 -4.593725616091992037e-01 4.823047504545937003e-01 5.606828026241373886e-01
-5.398215726608903697e-01 -7.967702306236605636e-02 3.621757910020677595e-01 -4.005585024940423733e-03 8.202370026879512999e-01 -2.675169596125994143e-01 -2.276213695889729993e-01 5.787130362153339869e-01 -2.556861286033615954e-01 4.229011585128069628e-01
-7.073624737753292369e-02 -4.053492660532088260e-02 4.722255285803460961e-02 4.808735436066191582e-02 -3.704282264432135624e-03 2.572291719573698010e-02 3.823904128174048650e-02 -1.047690052087127573e-02 8.357870214250832236e-03 1.106966695154205094e-01
-1.027438079130543885e-01 2.423948270247071879e-01 -1.697345293325511206e-02 7.887639888381861586e-02 1.787035102603364012e-01 4.368396508497730812e-02 -1.613654161637977369e-01 -1.421466303854808655e-01 -5.261014977345452454e-02 -8.505583181744966192e-02
9.734460399854734727e-03 -7.362156738071563844e-02 1.430292707804166515e-02 -1.760274122615635151e-01 9.983353478781538393e-02 7.913014932821728353e-02 -8.659317970169051748e-02 -2.545597342480981906e-01 -2.803000488782017019e-01 -5.541454705838287920e-01
5.209580167140936968e-01 -1.124690938012773145e-01 -5.289724358887235578e-01 -5.634147789293160180e-01 1.251007712600363531e-01 8.697477688517717132e-02 -5.162923654498735582e-01 -6.754899560586173635e-02 -6.237601068064291265e-01 5.133375904528157951e-01
4.615911762380798811e-01 -6.365966044074423680e-01 3.782822356598401492e-01 5.746795145003080751e-01 6.298872265853023844e-01 -3.049082284347228167e-01 4.011573696944481515e-01 1.709591531155397470e-01 -1.257835196718746010e-02 4.827519309338110243e-01
4.223164345839947043e-01 -4.481026609288316087e-01 -3.864114974779186973e-01 1.680377586869346018e-01 -1.394076791227510104e-01 -4.147503780752730962e-01 5.061921915173863695e-01 4.247535714373714133e-01 -1.279959702700104451e-01 1.126070953427446425e-01
2.122976560697353299e-01 7.907247084465367504e-01 5.094265140541283099e-01 6.023712880626623800e-01 7.223454735724138542e-01 -8.031440913824570149e-01 1.673295112029846710e-01 7.930385551582763703e-01 3.089902007367573700e-01 -8.703760424901425541e-01
2.830533790941679451e-01 -1.171784328633064254e-01 5.370255907331482337e-02 1.357772105967925136e-01 -2.056118274191273687e-01 3.720630544087830116e-01 -3.505297073213504977e-02 2.352465787664371477e-01 1.435460208680821859e-01 3.473072699249371009e-01
4.330292982056871409e-01 -5.429278940490342986e-01 5.571172853494223975e-01 -3.537147942225351005e-01 -1.761619923597673443e-01 -1.589059496855763087e-01 5.542632002233358612e-01 -4.469603261909526615e-01 3.271663272996374605e-01 -2.336442639532631815e-01
6.766387347234890104e-01 -2.550036001543870556e-01 -7.074584532560286299e-01 8.932583712407800025e-01 8.626010642852723065e-02 9.341072077569158028e-01 6.929450204352914922e-01 -2.708447988666320971e-01 -9.290677505436950590e-02 7.890342439403916774e-01
-2.178110080836932194e-01 6.364885351689569641e-03 5.959413175966051662e-02 -5.247932839809076322e-01 -4.297802787929079216e-01 -2.349572120021161115e-01 2.203087326465053286e-01 -4.089606173437290715e-01 -2.978307720080226040e-01 1.438798243741839789e-01
5.518905084419708368e-03 3.788479921248003729e-02 7.104659755936982429e-03 8.066136223791005311e-02 2.035588528740496766e-03 6.329089245704541677e-02 3.505399759090700642e-03 4.342770491437120128e-02 1.120298956442052421e-02 1.349613499984035278e-02
-1.260438325413483218e-01 -6.036111593425848021e-01 2.769370134220990876e-01 3.296622815352687891e-02 4.902239225702883507e-01 -4.555411750045352814e-01 2.459420636760051571e-01 -3.977736595923967444e-01 7.151732130212730132e-01 4.421572421611341674e-01
-4.828828588055641413e-01 6.717239436323733104e-01 -1.040192671045368500e-01 -1.635419272148881109e-01 4.565780334637388194e-01 5.141362911379846468e-01 2.680519961649903693e-01 4.601596218166516539e-01 -4.639641519129310554e-01 -3.978118907038453722e-01
-6.646401414899077986e-02 -4.204516400633515061e-01 5.700550006660166924e-02 -5.690400275785400391e-02 1.597182686867625601e-01 1.729602198120786527e-01 1.145090294047610285e-01 4.130086554333470272e-01 -2.780985835270714523e-01 3.291993502959952855e-01
-6.774590324898218663e-01 3.952611647907235404e-01 4.481872857505773133e-01 7.201380899221506704e-01 1.306853567272898420e-01 5.891567361482051846e-01 -1.913572483971415772e-01 -8.545573874994229213e-02 7.055218708354316082e-01 9.196672509497920422e-02
-1.490800674240342905e-01 6.240408070903333826e-01 -5.614953796140229603e-01 1.915646665110228852e-01 3.063922384398238830e-01 4.243521946295473191e-01 4.000857921153975205e-01 1.155276485842489653e-01 -4.284829945428834247e-02 -1.581077995053171426e-01
1.222357138048612429e-02 -6.412055425076080943e-03 2.256228184320728525e-02 5.154734529836556972e-02 6.281823553043333619e-02 3.204601876114851478e-02 6.347082931920680800e-03 7.810812909161889139e-02 3.607779396371860875e-02 3.758272840783605240e-02
-4.907640019272594967e-01 5.988737372373190704e-01 -4.900616305049462218e-01 -5.584391709655603560e-03 5.722891778868297585e-01 -7.475729572279468105e-01 -7.993141566418880961e-01 2.622704920764808434e-01 -3.389201092787910152e-01 -7.029582787071948502e-01
-2.136692358429788940e-01 -1.639557750957119919e-01 8.109840327080868050e-02 1.390042280205234515e-01 1.427835741604891184e-01 -4.162773033221894292e-01 1.115045960513041251e-01 5.741744038174720899e-01 2.071982057119527987e-01 -8.276552069746380413e-02
-5.440620723459151931e-01 1.971324464638270491e-01 -8.107548708636884705e-01 -3.333842192444768648e-01 -6.752943129172561676e-01 7.859745078498246718e-02 -8.325775844182519148e-01 -5.072118710421902321e-01 7.998906266242929997e-01 6.875926702166975657e-01
4.600872610499844029e-02 3.314835450745592244e-02 7.730614262220787680e-02 -5.535152443600193511e-02 1.611027021328299141e-02 8.787951890387980802e-03 2.564939446525817471e-02 2.137457746435347458e-02 -5.465488670845352476e-03 1.113534166993221733e-02
7.550877424668811511e-02 -2.066830093342435504e-01 2.922353366906141892e-01 4.348317301154389081e-01 -4.837247216491401547e-01 1.841988601038897222e-01 2.270107877924971984e-01 3.705720718766144367e-02 -4.960035847417045285e-01 -5.571448659038664708e-01
2.287841739625803006e-01 -1.226709263385563214e-01 2.315071870814599253e-01 -3.011829341804511673e-02 -2.037477139870893794e-01 -2.353687053443729860e-01 2.251741635485694781e-01 -2.628416695299852224e-01 -1.222082363053336312e-01 3.013090633809686891e-01
6.965989363665335832e-01 -4.802990201793168601e-01 4.768488371311244145e-01 8.245733990375057054e-01 6.134608427354176774e-01 -3.285098780873621505e-02 5.271055364935949283e-01 6.937007660032602496e-01 5.925065585040327765e-01 1.054235880274826398e-01
9.543155798221801545e-02 1.155082126679332633e-01 4.708974829025794895e-01 -1.436118019168208804e-01 1.871149380181800770e-01 -1.970286032276728216e-01 8.858724737034395780e-02 2.655593336443116681e-01 -3.724805494653044557e-01 -3.561244102290659908e-01
-3.569126548315664227e-01 1.337401076910235131e-01 3.852316387953409471e-01 -5.816452782786347697e-01 5.703995012014685395e-01 -1.216286983205401850e-01 7.211330515236856753e-01 -5.608270959118107912e-01 7.488826945068373375e-02 -4.131900820812770686e-02
1.579292053868355250e-01 -2.181807416531417743e-01 -4.168542129863919143e-01 1.470632746727248454e-02 5.161507075708831466e-02 1.691882799024147996e-02 3.803119366970202919e-01 3.880823201282747048e-01 -2.922724555024774559e-02 -4.964149644414606044e-01
3.048100401476134258e-01 -6.145791449720124922e-01 -4.714078890705922231e-01 3.027272423928116171e-02 1.545170795544076603e-01 2.918781017955316970e-01 -2.634793586640152840e-01 2.002061950752431208e-01 -2.654332605794851863e-01 -4.030521737942698302e-01
-3.685056753578584005e-02 3.752179908841034028e-01 3.184972245457120543e-01 1.823222329586798307e-01 -5.481108279463448030e-02 2.231839561811667094e-01 -3.235232027281351730e-01 1.842678221212599443e-01 -4.792876102211266203e-04 -4.165214497213226563e-01
2.504231481250692726e-01 -1.877238360871777423e-01 -1.566233281714300984e-01 4.521715401365832276e-01 3.872941726976395493e-01 4.667563465781444099e-01 6.923105722681348606e-01 -9.371383792303424054e-02 -2.918535971146417607e-01 3.410729985522428231e-01
-5.112617528666151268e-01 -2.159209905132747909e-01 -5.458781560362851309e-02 -7.940271888244063853e-03 2.654870211195419771e-01 -2.405878252577187959e-01 6.158315715640049967e-03 -1.844161846887827916e-01 -2.861047352066977134e-01 2.400600947219353465e-01
-1.707075819696305952e-01 -6.939632806678101840e-02 -2.506277022351770523e-01 2.436148301464935162e-01 1.749067626890024041e-01 3.010973249554311781e-01 -1.039486886588735226e-01 6.225622663909083365e-02 -5.121387166989822609e-04 -4.310617268999615559e-02
2.127741750603515947e-01 2.407836862327570326e-01 1.724763209099712813e-01 -2.154586896407956476e-01 -3.649333571200248372e-01 -2.425974592735405666e-01 2.329331599976820488e-01 -3.141489093274511535e-01 3.515538715245200008e-01 6.493082772069888597e-02
-1.952839071845722889e-05 5.346349875767140158e-01 -4.410954735496332990e-01 4.750020264465601438e-01 6.462296132041465135e-01 1.769200103456320949e-01 3.234247492100485455e-01 2.757691299440720445e-01 -4.689052479997515843e-01 -6.461666813542635834e-01
2.823898059238642011e-01 -3.718700790005640133e-01 -3.950685176759675121e-01 -2.329994226598973706e-01 4.717077490085765934e-01 -4.883866516036823591e-02 2.093917158601358783e-02 5.182822236757858025e-01 2.622759981488744785e-01 -2.445830996131985180e-01
-6.767553702654045822e-02 2.969536046734806423e-01 -2.510410085250229240e-01 1.815466333691803658e-01 -5.122691451988732325e-01 -1.678322043048930678e-01 3.092974784692896772e-01 -2.787275260417670930e-01 6.676677054836077652e-01 4.504072404046771116e-01
-1.952968441143708780e-02 9.544910114483177999e-02 2.200891707359725613e-01 2.095734615177741178e-01 8.407977993632421987e-02 3.658614618116907136e-01 1.722171864306571987e-01 -1.071113753537293739e-01 8.909521754927227088e-02 2.619349460760833637e-01
