6.280858553587153059e-01 -7.902849952775197195e-01 -1.143319628468893734e-01 -6.186415723382777676e-01 3.208459711318191743e-01 -4.559282721213138156e-01 3.530213431360321730e-01 5.918421231655248693e-01 8.055410853464819443e-01 7.068996203780127940e-01
1.488604276337663346e-01 1.206547728096690059e-01 -3.852678334647896552e-01 4.050670000692039863e-01 3.947181604992534010e-01 -1.067313299434850815e-01 -2.524416950171860519e-01 -4.291966037911242871e-01 5.158156196223734336e-01 -2.689497367864835398e-01
2.778208561597567128e-01 4.412655824091081258e-01 -2.006242839207262804e-02 6.552742789164212045e-01 -5.665984098381218192e-01 -2.938006730932024024e-01 5.537812870054074077e-01 2.539538909568100356e-01 6.821972128605670038e-01 -2.664944559422146586e-01
1.857867676341812269e-01 -1.375590316099254140e-01 -1.636730438626337464e-02 -2.564818075489646090e-02 -1.125853859678460217e-01 -7.003504205621799428e-02 1.321622117622723858e-01 -1.072437046966167734e-01 9.505607562380893882e-02 -5.886813410631018539e-02
-6.519009874181312496e-03 -1.896072893121736888e-03 9.015095687809054903e-02 -5.594515748294678383e-03 7.296578989594590392e-02 2.806655617089585941e-02 8.657613248225445174e-03 5.267809323126429466e-02 1.378088303010346037e-02 4.344313226042315762e-02
-4.455945754190069330e-01 -7.466971061514159347e-01 -4.072429707650398328e-02 -7.939515407216688470e-01 7.014799235600711613e-01 -6.939331634899199575e-01 5.530533560414095939e-01 7.124053758646078371e-01 6.743024373378627701e-01 2.296947066012934580e-01
-4.787157784170415452e-03 1.654344644759346561e-01 1.050326933208510227e-01 1.697192793907080499e-02 -1.371930377083465519e-02 5.818141367522732497e-03 3.385101937422992785e-02 1.744833639204697306e-02 8.223771977393284915e-02 7.237242325043333896e-03
-5.348068005377655254e-01 6.800686537527145248e-01 8.297730871727937441e-02 6.851877356051477852e-01 2.255219183101300207e-01 -3.245035479886654306e-01 -3.837647618193379961e-01 3.200882784237709666e-01 -6.045720603306276031e-01 5.596086235582442558e-01
-6.946018890617881858e-02 5.905382586091142416e-01 5.495374680926745636e-01 -5.615495615346629554e-01 -2.802402996003929836e-01 3.668579011561707848e-01 -4.122868298006239218e-01 7.199448565616632933e-01 5.175235083882333553e-01 -1.893604838127439793e-01
7.694117058582846357e-03 -8.487154833744919033e-04 -1.072303696696509656e-02 3.307209695899226976e-02 1.216762770933336318e-01 7.068057693397690466e-02 1.477510979733654209e-02 4.041410701728061911e-02 4.000143696610090199e-02 6.752917527755299305e-03
8.111310479582511772e-04 1.237937659865228773e-01 4.252535516360560208e-02 -2.981490974047464743e-02 1.830279341762188761e-01 3.257872122541370652e-02 -2.152755867348453769e-02 1.218516442929668507e-02 2.540532834762417036e-02 3.859504211013983777e-02
3.422647180832877334e-01 -3.188769917365815720e-01 5.955235130156829593e-01 1.864058200608665616e-01 -3.493784424658238907e-02 -2.090144097114324251e-01 5.402649401874363155e-01 5.067656924679111441e-01 -4.532631152003273600e-01 4.087002300884204908e-01
-4.213299549849522929e-01 -4.422702356064872609e-02 4.404544553200885337e-01 5.789293261537373780e-01 4.677858105439924308e-01 -4.542799565260809413e-01 2.075139114631536497e-01 -1.357940923420792589e-01 3.156885427558790980e-01 -1.272703339645965548e-01
4.146638492105331752e-01 2.025990962461819145e-01 -4.651208104848886249e-01 6.348562583575497742e-01 1.741781632445475458e-01 5.277535701525398748e-02 7.445569515467899135e-01 -1.599130029401057695e-01 4.120441007236325670e-01 2.897332311705076435e-01
3.110887103374962437e-01 -5.498667648202711922e-01 3.646134733262021976e-01 -2.360071886635979610e-01 2.926504663938466755e-01 -1.800785323820041361e-01 -4.542390881770693722e-01 -1.672299083449733381e-01 -2.017242951033760834e-01 -6.815494342021464202e-01
-2.962083061535989315e-03 1.477241168307459433e-02 6.181419710664193268e-02 1.457579969043053952e-02 1.725511765820926524e-02 5.215082761476858009e-02 3.489866897317912137e-03 3.859465813328281317e-03 2.304136376091577357e-02 4.496995094155846473e-02
-3.731892926774578179e-01 9.313208105807008197e-02 -5.155003559175922456e-01 -4.387135060240374140e-01 -1.504605657306603596e-02 1.830004733375558412e-01 -4.661089317864995640e-02 3.495363420279319344e-01 8.906418622240544480e-02 2.423326245450266592e-01
8.297674728553967594e-01 -5.337672719577016833e-01 -7.693720597721209753e-01 4.700892763866288959e-01 5.960074347867986289e-01 3.149311554721623274e-01 1.115673325698715163e-01 6.657051868487843249e-01 8.042207106749282852e-01 -4.411909261484961431e-01
1.312238338569972698e-03 4.143399648512612748e-02 -5.874826349544105542e-01 -4.763384595052913006e-01 -5.774713309194061672e-01 2.848113011390988603e-01 -3.635235644208163475e-01 6.727050193479571227e-01 6.687966837110170815e-02 1.283381977131918712e-02
-2.778731230007878972e-02 2.149188757538529337e-01 -1.244701930211845609e-01 6.012871587592591438e-02 1.875298664200272247e-01 -8.238260858966857392e-02 -1.730732870092929476e-01 1.107280698835513832e-01 1.255010078764018100e-01 6.292655945142354434e-02
-8.081107428081536065e-03 -5.482441507387649654e-02 -2.283111248214501898e-01 3.517600429151355179e-01 -3.936612518314857034e-01 -2.684063966339097010e-02 1.661127630767794683e-01 2.147154925843405837e-01 -2.925701086270720008e-01 1.599355905974152725e-01
2.698144691174866883e-01 -8.998983469937631152e-02 -1.949083566135178802e-01 3.944573619533795483e-01 2.572714811508812760e-01 1.603902840692401910e-01 2.009866894532674475e-01 -9.051834053466135954e-02 -1.222549714650175146e-01 -2.123002788537712848e-01
5.428385510956383608e-02 3.966180400048952559e-01 -1.731450558764183467e-01 1.631253809419239142e-01 2.418501819891428761e-01 1.236694699670537329e-01 9.702615922768909051e-02 -2.958360462654551978e-02 2.328624385114638484e-01 -6.694609257218306353e-02
5.222516481115506704e-01 1.115929211008918759e-01 8.166425158148891139e-01 -8.842734150046324126e-01 -3.957027362334634146e-01 8.720098399123353550e-02 7.579916824587629165e-01 -7.725808272068496185e-01 -2.090488557463433816e-01 -8.073485498381435255e-01
-6.267137976933445653e-01 1.823370282497017714e-01 1.323750436532907145e-02 -6.644814902997449313e-02 3.358447590145018924e-01 -1.311429074766027048e-01 -6.815198326026727926e-01 4.604720884040645612e-01 -6.511501909874146676e-01 -5.960888007681837131e-01
1.067858015064379260e-02 -1.503862231593896225e-02 -1.693339877042146502e-02 2.395358828392600836e-01 -4.782688249942370629e-01 4.062400529657190784e-01 -2.009530264968742708e-01 -2.469848337908124927e-02 2.125208560212998588e-01 -1.153301763291020993e-01
1.707619884098649787e-01 -6.254309714728033542e-01 -8.069251514059194719e-01 -8.184801891942310170e-02 -3.100873179843667282e-01 -7.991951886023137552e-01 -6.671310630498138439e-01 -7.252716216190633336e-01 8.635333966327239930e-01 -5.174127821062775023e-01
3.677413932664709284e-01 4.725332425235691525e-01 -4.058064158295090346e-02 -2.679992635474569007e-01 4.402814832570808856e-01 -2.729145022125357145e-01 5.120655356528616142e-01 3.508191823016031941e-01 1.541417140667230568e-01 1.383254230119157213e-01
-3.188136783458370704e-01 2.928379088438330946e-01 -3.617537329096768423e-02 3.167925239455793296e-02 -6.890659579478108920e-01 -2.332833274617176211e-01 3.331310568190154475e-01 -6.512504309946585135e-01 3.843422769158179597e-01 -8.338621142576500193e-05
-1.695134386065982324e-01 4.720360496453281374e-01 6.103873229630722985e-01 -7.470478006543662675e-02 -2.006764499416625880e-01 -5.376687380511416814e-01 -2.575322290218152177e-01 -4.007095885770066701e-01 5.152264978205434165e-01 3.529301989195229305e-01
-3.802279438315441795e-01 -5.359680661152792513e-01 8.693325163205891659e-01 6.504668521953800298e-01 5.089678239277614091e-01 -1.410621622755711124e-01 -6.745312575842894454e-01 -8.367982733640791371e-02 -5.759960551756889702e-01 -6.630514247560679308e-01
-6.689323970934692165e-02 -1.097257963619975851e-01 -6.901659015872724234e-01 3.332389994223013407e-01 -3.807911019857802004e-01 -5.747378872286841300e-01 7.953500951483357673e-01 -1.531177726782159965e-01 -1.317724231578464023e-01 3.564372049850269009e-01
-1.494681180197484083e-01 6.054856581745461375e-01 -4.882994027913359902e-01 -6.681989791801520306e-01 2.552296341863868334e-01 1.322128681737879952e-01 -4.443681071770382712e-02 2.610988735473842026e-01 3.158579986577585430e-01 2.460536202665042638e-01
3.088185595794393778e-01 6.332140771688381520e-01 -2.220455651569878675e-01 3.518834810079511377e-01 -6.070042993780514484e-01 -5.775174229290567229e-01 1.102448305658926125e-01 1.915438612144942654e-01 -1.172232081747340282e-01 -4.397615860447807168e-01
-3.442916719998512926e-02 3.203070194149241767e-01 3.503821186836608703e-01 3.130345750879358069e-01 5.172283693484235334e-01 -2.777629762694652227e-01 -3.695708785224517956e-01 -5.278370243582126281e-02 -5.640635800791840015e-01 -6.219516910451226149e-02
-3.547848885648247630e-01 5.870787164525030910e-01 2.764424756448984888e-01 4.278280837886936916e-01 3.974064665920343242e-01 -4.545851798319489045e-01 3.548141310170105367e-01 -2.548948240218379402e-01 7.146253627302140421e-01 -4.211370650161092577e-01
9.734238875590103812e-02 5.353313323310519845e-02 2.597717244298170317e-02 1.168921284651603179e-02 -8.747654766418717226e-03 -1.969795217786632704e-02 -2.222393265396304784e-03 2.356654312859012557e-01 -1.307519716287625262e-02 -2.212500964399929330e-03
1.059984552704955202e-01 -3.235088892958258577e-02 -8.369230215286306215e-03 -1.353209634225498170e-01 -1.582439992752407709e-01 -1.143850572610748996e-02 -3.787376545641858022e-02 5.874808685733906577e-02 -9.873544949569698637e-02 -2.322398583803086392e-01
3.822623440978220044e-01 -5.487907293490763561e-01 -2.849293952260686935e-01 -7.028542430239412830e-01 -6.905735879855308401e-02 -6.907445200754293024e-01 -2.042228078200077901e-01 -6.345067410614337877e-01 -2.117784113057506051e-02 3.155537378547835226e-01
3.847079451973548642e-02 -6.172233584619995356e-02 -8.732898132706529148e-03 5.291375786822784949e-03 1.891704921427680985e-01 -1.376422349975355182e-02 6.580993290885560343e-02 4.357639535892816884e-02 -7.103096173477131681e-03 4.869561530613404632e-02
1.149124782408770390e-01 2.439462615018149483e-01 -2.843216073999656202e-02 1.322132116647729838e-01 -3.911431336849513496e-02 1.446660809937236336e-01 -2.527936654889068047e-01 1.686765002247168632e-01 -7.276311745702849013e-03 7.103097421573817405e-02
-3.779989599115196053e-01 -4.040041998286625358e-02 5.790285630162576025e-01 -5.137177103749990259e-02 -2.524476635079100362e-01 7.092965868020557618e-01 -3.176666130406186062e-01 -5.151782551264091348e-01 -4.078549575338978883e-01 5.451880953349554915e-01
5.803689322386769156e-01 -7.529685255837235969e-02 -2.596632659127165454e-01 6.618541298383953109e-01 -2.619428021603359413e-01 2.617165744396368274e-02 -7.756038517629435525e-01 1.503440943309960476e-01 -5.354932148977284978e-01 7.418628235484892031e-01
2.336278189596789900e-01 1.578828788502227576e-01 1.419693340369835612e-02 1.093199314106665238e-01 -6.622161165142488592e-02 1.083921070187467833e-01 4.965036627432126842e-02 4.532187542165474342e-02 1.061491409884260939e-01 1.276243545984929451e-01
-5.198717408572092191e-01 -8.461743347150461059e-01 1.561059179997045243e-01 6.036465507681657572e-01 -2.753972527150750915e-01 5.896245236965800274e-01 -8.403210068912823072e-01 -6.979267402436896417e-02 -6.876890349330531116e-01 6.391882703547876465e-01
8.329807177819784775e-03 -8.645194294783888414e-04 1.120816385475257790e-02 -1.596279260672495148e-02 8.143522609135778190e-02 8.360607622451594889e-02 -2.130415583195034452e-03 3.872482467605617429e-02 -3.614428183493897939e-02 -1.644533808276131895e-02
1.978633192142631447e-01 -2.349794478501991413e-01 -4.369087136058038556e-01 -2.995716083173247113e-01 4.349265689141583180e-01 3.662551427358221035e-01 -2.098915959542064502e-01 -5.259466876991231166e-01 -5.145675957052870952e-01 4.881989514088030946e-01
2.756091856381966410e-01 -5.034047554353611176e-01 -2.064397707420836253e-02 -3.350597855287366644e-01 9.808048692653609235e-02 -2.888804784303797835e-01 -3.791281842798403523e-01 -6.184406599760840922e-02 8.994974041143286025e-03 1.759029820362939256e-01
-1.039449937958054487e-01 -2.672623531672938535e-01 -7.393094162150626314e-02 6.329847021098729265e-02 1.956771925298211312e-01 2.003717220834519419e-01 2.183148698107429397e-01 1.803247223383766529e-01 1.121754111625397482e-01 9.685998524437065826e-02
-8.559810858108133358e-01 4.488710395103641670e-01 8.837073269300835254e-02 7.403762769082699036e-01 -2.688912705895604716e-01 -3.179595807854638245e-01 -1.515052734996860662e-01 7.619814684053769493e-01 -5.128059319838942920e-02 1.400922877641783415e-01
-2.410039000850250357e-01 8.390297327064367983e-02 5.650972834472289819e-01 -4.027683976488447004e-01 1.992165702786443116e-01 8.061630189145223557e-01 1.950643224303525158e-01 -7.680509278465213856e-03 3.365380397116755629e-01 -4.146346399500427937e-01
1.186836107187259903e-02 1.053216035014180874e-01 -1.752869360461939766e-02 -7.585464810851196005e-02 9.122587039143631449e-02 -1.413397882304921471e-01 1.120392044019260791e-01 8.009363033444705585e-03 -2.137978987538092547e-03 -8.803749079889272577e-02
5.468729024902990732e-02 2.759190755812938184e-02 2.099553808896515439e-01 -1.649612236769440465e-02 -1.959501456045307718e-02 -3.872627513807907346e-02 1.250899189683214209e-02 3.154386910998327465e-02 -9.631439456888937767e-02 1.653007148591839268e-02
-2.851405041488394576e-01 7.615673181585550511e-01 9.132070620085370738e-01 -6.192551116015868606e-01 -1.048516772418602583e-01 -2.430245058092718180e-01 -3.181125499998660455e-01 -2.269639418401206421e-01 6.783400038848468316e-01 -3.955573895623411551e-01
-3.370366350062243832e-01 -4.367263542730737136e-01 -4.451159435022376543e-01 2.738635425437324633e-01 -2.332353789438798564e-01 7.294600898465155581e-01 -2.078541800831314179e-01 -5.147426408299559109e-01 7.479137279638714553e-02 4.375288069192476703e-01
-5.075721605237525358e-01 4.419315389089712998e-01 5.393636398858916436e-01 -3.210484040092932978e-01 -1.553937354738170740e-01 3.177073280976769332e-01 -3.198857967742290143e-01 2.311250045472084957e-01 -5.810049523583876718e-01 -7.117221810199312326e-01
-2.340497172164145157e-01 -4.525104735823789470e-01 -6.236810558937511129e-01 -3.820257810767720974e-01 3.781665782814978005e-01 -5.358385918704507977e-01 4.710496183897590339e-02 -3.165588293331875747e-01 -3.662126920830393595e-01 1.457143037540586383e-01
1.098691778820792553e-01 -3.908505052850441697e-02 -2.260773355941001483e-01 1.549758898475193380e-01 3.466383756885389050e-02 -9.303253368410197011e-02 6.518814214621782011e-02 1.784083997474892463e-02 8.740157071334184180e-02 -2.032768400640952156e-01
-2.523851457842654078e-01 1.636954902837826908e-01 1.981409765556232661e-01 -1.455325296213696717e-01 -5.745557660924591747e-01 5.600189628479537163e-01 -1.203380323273692820e-01 4.359443423799180262e-01 -1.757510890032161766e-01 -5.463187580284998290e-01
6.772809139173512072e-02 2.828925087580077061e-02 1.433026871058945724e-02 5.195640294294819744e-02 1.113806835160711939e-01 -1.989139177883787746e-02 -1.509820623135280397e-03 3.186670225605477136e-02 5.651601477805181725e-03 3.332611540429116035e-03
-5.651804198356176201e-01 -2.821790284538159277e-01 -4.559413855316954978e-01 6.324431594347348362e-01 -4.842055671938969574e-01 6.899940381270285306e-01 -3.439345047245436771e-01 -4.539978490107675624e-01 4.819706400637128185e-01 5.616178872942652056e-01
-5.399113955105805385e-01 -7.971692774821328986e-02 3.621228316886828114e-01 -4.025682940111146094e-03 8.202561573791317118e-01 -2.675281765311454119e-01 -2.277250603224660885e-01 5.789975284789027343e-01 -2.556253811750043847e-01 4.227247053156690249e-01
-3.330099755695554303e-02 -2.228900534782966847e-02 3.034103403933576318e-02 6.100556188936469976e-02 1.891010062100281081e-02 8.082801630416490413e-02 1.923471803843669267e-02 -1.522259800709905436e-02 8.910262272683205399e-04 1.201778464492338216e-01
-8.484486077589110942e-02 2.292645591023241558e-01 -1.932802032543858711e-02 6.258866236167404118e-02 1.464971729379694332e-01 5.606936648542473756e-02 -1.154908912860524717e-01 -1.316777032402502434e-01 -3.818539756739867952e-02 -4.954914338014060338e-02
6.218316326136476106e-03 -6.863230354706958969e-02 1.634682220243255032e-02 -1.616685724302895921e-01 8.196253475870718397e-02 5.793698679581565925e-02 -8.141118074374632807e-02 -2.026746214430681647e-01 -2.651206606680012734e-01 -5.125603063176983332e-01
5.175210201054946113e-01 -9.967822576290195913e-02 -5.258685893447966331e-01 -5.591171189409496201e-01 1.222273173472575858e-01 8.614516239278505183e-02 -5.118706840898421540e-01 -6.820033853419028846e-02 -6.179928140541989245e-01 5.101785480318465904e-01
4.609869923850618001e-01 -6.361628464206816602e-01 3.782364408224035968e-01 5.747104130150675338e-01 6.291708126418051883e-01 -3.057045924969911121e-01 4.008788055640065684e-01 1.720140706702104061e-01 -1.277739893807769249e-02 4.826278391569654436e-01
4.185229906593641580e-01 -4.460060956528715259e-01 -3.749325357081925159e-01 1.650592486722853025e-01 -1.396941620802006900e-01 -4.132905266086240315e-01 5.018458625010417951e-01 4.217075201102749582e-01 -1.273252626611751093e-01 1.116831438421718170e-01
2.125820415414404752e-01 7.906207600467018981e-01 5.095673300195071587e-01 6.025118618485811872e-01 7.222737893186251812e-01 -8.031504300759133574e-01 1.674390876923820826e-01 7.928688551108132865e-01 3.089495359496274851e-01 -8.702827180595354983e-01
2.584497101598683400e-01 -1.124935527426911691e-01 4.992600375400739476e-02 1.302969096782815028e-01 -2.069882594573184964e-01 3.376400370220304370e-01 -2.952615214966015575e-02 2.498917705001005296e-01 1.347668620860558164e-01 3.496483080580067293e-01
4.325086861669541483e-01 -5.367729415768430767e-01 5.569130307668689328e-01 -3.545702550519782004e-01 -1.779185781388672727e-01 -1.616566331344358454e-01 5.572942780642149430e-01 -4.452516759497818222e-01 3.265993848452153347e-01 -2.318644542474382342e-01
6.766387347234890104e-01 -2.550036001543870556e-01 -7.074584532560286299e-01 8.932583712407800025e-01 8.626010642852723065e-02 9.341072077569158028e-01 6.929450204352914922e-01 -2.708447988666320971e-01 -9.290677505436950590e-02 7.890342439403916774e-01
-2.193409874258009651e-01 7.378789864270126134e-03 6.590569601263189525e-02 -5.202988104919488155e-01 -4.259015331453667175e-01 -2.382119479079318758e-01 2.152478329019683889e-01 -4.017737441368285922e-01 -2.949295768176045662e-01 1.427001823956384197e-01
-3.544044481168997108e-04 4.856676667163929706e-02 1.479071639955329212e-02 9.628313885577952091e-02 5.666914096447626253e-03 8.665137486841745229e-02 -8.184339561220668573e-04 6.073285291915880152e-02 9.359687250049713789e-03 1.391259471899976459e-02
-1.264943065511441866e-01 -6.033987502038959949e-01 2.758272948135259139e-01 3.308729201054618624e-02 4.916385749091295998e-01 -4.561436301026684514e-01 2.474632246675200486e-01 -3.984909498619958468e-01 7.145468374454300164e-01 4.416720636725753879e-01
-4.830329076810416788e-01 6.765877673167571826e-01 -1.035375394043598490e-01 -1.625461742928219211e-01 4.552224955215783408e-01 5.135381741679503342e-01 2.686815368514832159e-01 4.593294433593516080e-01 -4.623727764441455390e-01 -3.979516590673021215e-01
-6.326421294132300588e-02 -4.101932783607655786e-01 5.329025306795517891e-02 -5.870224666049007889e-02 1.489779941168569988e-01 1.834286096595661442e-01 1.124761403909311230e-01 4.062258421037054923e-01 -2.668808757109724095e-01 3.241200129017060561e-01
-6.774086798605100102e-01 3.952154602687478757e-01 4.481628712030876205e-01 7.199214380439752370e-01 1.306621114822169860e-01 5.890212759565870426e-01 -1.913523184005083699e-01 -8.453247227855667512e-02 7.054182270544337996e-01 9.197277200002330899e-02
-1.490399873026510558e-01 6.238564178048044973e-01 -5.614753403524623820e-01 1.914780984435367761e-01 3.062839817446552093e-01 4.266251232398556859e-01 3.999816364157638415e-01 1.154902032765768166e-01 -4.288008021534572833e-02 -1.581598501188596906e-01
9.779736371686182511e-03 -5.049024486632879873e-03 3.287416024334992304e-02 5.479667959263734289e-02 8.620403961548123162e-02 1.562987726978391431e-02 1.093726671922265470e-02 1.006456660433459882e-01 4.380368038988673163e-02 4.402128106705482241e-02
-4.907782510813022414e-01 5.995263849040926019e-01 -4.901267179512768246e-01 -5.623267451340363890e-03 5.723062719164530021e-01 -7.475815780037068370e-01 -7.993299767535060329e-01 2.622041718155388446e-01 -3.389569947926903692e-01 -7.029662840126157386e-01
-2.112136845111133865e-01 -1.531945627604938964e-01 8.018703074834891698e-02 1.384813433059295384e-01 1.402615624864943511e-01 -4.117649604757275816e-01 1.102501774271049811e-01 5.765599137421439924e-01 2.044485332387188381e-01 -8.213694148428789255e-02
-5.440129697113708085e-01 1.965464735796334239e-01 -8.090242914907570526e-01 -3.327415633041485576e-01 -6.751291523606195444e-01 7.883321858783327862e-02 -8.322676419876973153e-01 -5.071694066233940479e-01 8.005577451398940836e-01 6.867844461667066414e-01
4.443808401433870653e-02 2.479756739286555212e-02 7.777550931592903949e-02 -3.929211965671647322e-02 2.232652443367069348e-02 3.973658408992106900e-02 4.586313881112216023e-02 5.011394523825431213e-02 1.772218614890785741e-03 2.443434429870468619e-02
7.418060131911732857e-02 -2.020861903246507496e-01 2.923349146375895380e-01 4.332447937522077575e-01 -4.828855390245105350e-01 1.870813044149190474e-01 2.235807055203791471e-01 3.825473074405526253e-02 -4.935270238170843538e-01 -5.550236931534894280e-01
1.998116548409717974e-01 -1.056441939291940108e-01 2.009699113112710378e-01 -2.600462843393510151e-02 -1.880446586149646937e-01 -2.190282921141532557e-01 2.270742197004161356e-01 -2.262263308858541433e-01 -9.924962033826310870e-02 2.630544017831923931e-01
6.965857842627645180e-01 -4.799379163863474740e-01 4.768035479166620183e-01 8.245667976920466602e-01 6.134293748968258075e-01 -3.286319537247003875e-02 5.271074007492178026e-01 6.936987003437108390e-01 5.925122247619026838e-01 1.054212820682197127e-01
9.731577428748167113e-02 1.149411696758743107e-01 4.744928932810630329e-01 -1.431162396108508761e-01 1.857701836260442496e-01 -1.967363807253751651e-01 8.824865255939842723e-02 2.644923871704297214e-01 -3.720026490034412658e-01 -3.558923105327431724e-01
-3.568842300572668824e-01 1.337308498038059512e-01 3.852046240645320974e-01 -5.816046520730349112e-01 5.703595609763688623e-01 -1.207040784272576106e-01 7.210825322981666563e-01 -5.607877891990448171e-01 7.488305449021523397e-02 -4.131637861164572101e-02
1.535195576818286223e-01 -2.125259076521576196e-01 -4.060334870115853700e-01 1.251114692644808395e-02 5.069397009228059775e-02 3.667802738888690378e-02 3.715305674840860273e-01 3.739854670330506337e-01 -2.857685953443446156e-02 -4.763389282043781203e-01
3.043515208570689579e-01 -6.138432769651754883e-01 -4.676043623605675159e-01 3.029437571326131992e-02 1.540633868682358687e-01 2.915174545999320022e-01 -2.633543529996630328e-01 1.998386580689998637e-01 -2.631764108635404886e-01 -4.027038676994197375e-01
-3.645690741086455439e-02 3.804502544428297051e-01 3.161188004021521780e-01 1.803690348638194441e-01 -4.807566449885483650e-02 2.227331171097831353e-01 -3.214899551919327414e-01 1.827759903128226837e-01 -6.875133822636281429e-04 -4.134073517572729450e-01
2.500557969315834184e-01 -1.879941789764746352e-01 -1.562030372169378734e-01 4.514262988754745298e-01 3.864826835743709887e-01 4.697543810583024726e-01 6.904619192823281404e-01 -9.486729294094424503e-02 -2.884566068969545150e-01 3.427119649104331534e-01
-5.087219090852609371e-01 -2.084932759940678060e-01 -5.607432136090019503e-02 -7.159360529056508701e-03 2.659920520133821631e-01 -2.212764337277650095e-01 2.713969532151410281e-03 -1.821878213720107831e-01 -2.860266531363937492e-01 2.353875973531341093e-01
-1.191561126061062570e-01 -5.211497921526416638e-02 -1.861439777677146856e-01 1.643378292357507986e-01 1.477915524012229642e-01 1.965625401711984244e-01 -2.539969634011086247e-02 5.103065311049741204e-02 -2.858272776395619479e-04 -2.722543824818490082e-02
2.089569660046904642e-01 2.438426487224451544e-01 1.701069165629594815e-01 -2.127255464692811571e-01 -3.639032162169386075e-01 -2.434024659629542009e-01 2.405048150142588270e-01 -3.056943521879915138e-01 3.480849166956005436e-01 6.477181716811465650e-02
-1.975462021216909888e-05 5.353131503988338702e-01 -4.410904998811822630e-01 4.749475503668272869e-01 6.461655215194335167e-01 1.768731505181211638e-01 3.234138797871622395e-01 2.757323882084949385e-01 -4.688936216719432615e-01 -6.461544667803590380e-01
2.795166690483704142e-01 -3.681147268593700228e-01 -3.839215146680282631e-01 -2.306788065654773179e-01 4.670401257000247330e-01 -3.958563930970709216e-02 2.077339685172836098e-02 5.130215963693065540e-01 2.599046931811573313e-01 -2.421731780729864392e-01
-6.484895363820883385e-02 2.960304705298856254e-01 -2.507609332645961420e-01 1.818061243109596048e-01 -5.112963413500914989e-01 -1.680058109204683459e-01 3.094308960568079025e-01 -2.797899148888221554e-01 6.664611558398464419e-01 4.492086814591915722e-01
2.646702423626189158e-03 9.109690591181017483e-02 2.067606901860702673e-01 1.999048577921452019e-01 9.046654320715141750e-02 3.454864254910682275e-01 1.658064225002068015e-01 -1.095563370414778942e-01 8.391638660174076392e-02 2.454792358397673291e-01
