6.298016441051808023e-01 -7.979386900492762003e-01 -1.145716847895935225e-01 -6.200606519038318609e-01 3.229005504717342712e-01 -4.558171655918965004e-01 3.510478651716645304e-01 5.925167628990380964e-01 8.038684358562017129e-01 7.084410372466903860e-01
1.497120110058429154e-01 1.206114525853463487e-01 -3.893715917835301465e-01 4.036471093527053688e-01 3.965371000367502452e-01 -1.089445959444736989e-01 -2.520754594002885818e-01 -4.319303341923214079e-01 5.166878674878035982e-01 -2.685427219504369911e-01
2.795756833552058840e-01 4.419671486920489500e-01 -2.029789764269182215e-02 6.574121885799286691e-01 -5.685905882356642183e-01 -2.938551913548648198e-01 5.565105992588064154e-01 2.493505283261124583e-01 6.815729575778026739e-01 -2.661329191196971644e-01
1.554098487506631043e-01 -2.368370728221242949e-01 -6.850695566287011429e-02 -7.230254174235041520e-02 -1.902200686251065975e-01 -2.131086454843973965e-01 2.611205855320130054e-01 -2.294667476171959875e-01 1.857620991771168351e-01 -1.209215715031081856e-01
-2.940183140463626266e-03 -1.862603483303953934e-03 4.819502446751156022e-02 -1.115812861931174751e-02 9.370816186240911450e-02 6.730752741460560920e-03 1.459163744566492789e-02 5.648758708196057604e-02 1.856983082947052423e-03 2.714841842543197492e-02
-4.456106760399757283e-01 -7.475607234340272411e-01 -4.072157329554521032e-02 -7.938140260564640061e-01 7.017673663161466679e-01 -6.937734325533776447e-01 5.531754059501081677e-01 7.117021719762274268e-01 6.745361473876320124e-01 2.297596203519989277e-01
-5.791947332497455331e-03 1.487223238170521655e-01 4.358580784832070953e-02 4.656347766834142109e-03 -1.575511740090095036e-02 9.596442007885135420e-03 4.684446298610353554e-02 1.750347450718617347e-03 5.195033742638469759e-02 -1.267584907836954685e-03
-5.352781632793459643e-01 6.810554651056751618e-01 7.892483722311777194e-02 6.863774039050462017e-01 2.263033113826092291e-01 -3.247264795747571986e-01 -3.841188276732347973e-01 3.205879379341361468e-01 -6.052240655995634322e-01 5.604976140420669939e-01
-6.884646541512838558e-02 5.906945155569985895e-01 5.511132706697627892e-01 -5.607693347937730000e-01 -2.793344883898286057e-01 3.695024080600914362e-01 -4.201106347653718043e-01 7.188438028173708139e-01 5.169263990253877283e-01 -1.892116677785750101e-01
1.739629664839806170e-03 -6.782293306073185896e-03 -2.794509032659078709e-03 2.294879544067858490e-02 6.605252651143905807e-02 3.135775180499345699e-02 3.013851043390049049e-03 3.442020053323644607e-02 2.212018907523051123e-02 1.829124714582036626e-02
-3.022418680016298806e-02 7.605598264389393237e-02 9.038357385276252209e-02 -1.132579204632908620e-01 2.496585413177547508e-01 -3.123590352901647015e-03 -3.658006380030644905e-02 -1.825824940712986524e-02 2.845069032790206037e-02 5.332823886643042050e-02
3.423681687139277230e-01 -3.189423370514427036e-01 5.941699533676666478e-01 1.864567446202469447e-01 -3.493657270261869840e-02 -2.090568967311262349e-01 5.403880105592581140e-01 5.066542589770574034e-01 -4.533631115188753724e-01 4.087998082567460001e-01
-4.248101982245389152e-01 -4.324804075493669797e-02 4.452450561904015558e-01 5.845593428318857088e-01 4.661942174925135518e-01 -4.679901195975740280e-01 2.078403816754122169e-01 -1.353151274758227496e-01 3.174067010132050060e-01 -1.292413561485907803e-01
4.195508485308435120e-01 1.980989622997804955e-01 -4.645731347774659237e-01 6.390883789759851386e-01 1.751855085613666652e-01 5.358744301946063993e-02 7.434266712055319637e-01 -1.640395061963285106e-01 4.113711676934675432e-01 2.869145378798416135e-01
3.110933597422189667e-01 -5.502765311943108584e-01 3.562007517300280757e-01 -2.369435858393840744e-01 2.907134000392606055e-01 -1.816470512969119155e-01 -4.556981649412371604e-01 -1.669329068486820611e-01 -2.005123029625446862e-01 -6.857599445834802188e-01
-3.154513547406238242e-03 1.473679514921850432e-02 4.652724324449969417e-02 1.294066288607355515e-02 1.293073911662167425e-02 3.325202137570029692e-02 8.016797485746175039e-03 8.790869864098232404e-04 2.104974136101149876e-02 4.466536194333647902e-02
-4.379082789844371271e-01 1.082104436958633981e-01 -5.697993033003742047e-01 -4.916603421614139102e-01 -1.025350177946056200e-02 2.136799283653431358e-01 -3.969641515338380444e-02 3.751241226989467936e-01 1.018370363405917689e-01 2.415312792402811159e-01
8.297840661256171702e-01 -5.337759877537764375e-01 -7.693869005678518613e-01 4.701085202458266110e-01 5.957334200991479811e-01 3.149380480483489619e-01 1.115850222687166104e-01 6.656929667495754543e-01 8.042211836908759182e-01 -4.411761606442677341e-01
1.758922408105095076e-03 4.228052011323373688e-02 -5.914086459543506091e-01 -4.777148312472501157e-01 -5.791663112423479642e-01 2.860219556424429821e-01 -3.646422829295427603e-01 6.675433236730465847e-01 6.740101442326180969e-02 1.285182908395286934e-02
-5.665340838783448907e-02 2.712627899323291070e-01 -1.430489820792052169e-01 5.831628898049903698e-02 1.856452974877725592e-01 -9.776661422823858250e-02 -2.328876683124664615e-01 1.684386109463723302e-01 1.665887489406880639e-01 2.408874308567491435e-02
2.782452568984628005e-03 -5.649764025670073186e-02 -2.524435246533975330e-01 3.767079491281211667e-01 -4.225440069516767649e-01 -2.444856590799763391e-02 1.868850015870885117e-01 1.799219424669063760e-01 -3.217104563710518339e-01 1.855063016846620894e-01
2.840897362619125288e-01 -9.507755067322674891e-02 -2.524400278438364564e-01 4.124399285400427995e-01 2.733205035544489236e-01 1.680922442332020705e-01 2.186182313090858087e-01 -8.685291926005093976e-02 -1.290070172486845468e-01 -2.147706033207406051e-01
6.306135827208554645e-02 4.405375679950456203e-01 -2.312714699696716281e-01 1.818866600966825287e-01 2.693394514140932117e-01 1.391293608339562171e-01 1.072435704304749160e-01 -7.528941707717219656e-02 2.581026335135701011e-01 -7.272296219599862221e-02
5.223012660231697302e-01 1.113937724984953581e-01 8.166802197622823334e-01 -8.843015239946221406e-01 -3.956698056096581984e-01 8.723192347186323192e-02 7.580721416347021568e-01 -7.726004209578781756e-01 -2.096646769798841403e-01 -8.081259549887953586e-01
-6.279018308101497192e-01 1.830100932077493581e-01 1.139159365695749382e-02 -6.570950596269498067e-02 3.368861902623274118e-01 -1.381198914723216487e-01 -6.839987219198373491e-01 4.655025360193935646e-01 -6.530559057961740077e-01 -6.051529044525433276e-01
1.249142354930722273e-02 -6.111037271697712658e-02 -1.671323892570475769e-02 2.573281232795716633e-01 -5.010227468011524410e-01 4.395006145525979790e-01 -2.135978812356084111e-01 -2.432255765356080082e-02 2.281441133712074076e-01 -1.172573495183176634e-01
1.710479831571739551e-01 -6.255086882283966698e-01 -8.100841322756958673e-01 -8.162664775667137496e-02 -3.101421765119928287e-01 -7.990831423065750672e-01 -6.674598694775789598e-01 -7.254224724952964554e-01 8.641853540110623344e-01 -5.170873562396716139e-01
3.698463251546452724e-01 4.750903836932330870e-01 -4.063163227238030667e-02 -2.686097409697079108e-01 4.386167678365474054e-01 -2.831806030840232635e-01 5.156779109658256033e-01 3.535527794746955443e-01 1.556466810270778489e-01 1.387629829221820321e-01
-3.193308514278883070e-01 2.871430627230213695e-01 -3.487619472330756587e-02 3.063911095191915526e-02 -6.916499349911731098e-01 -2.434429606151968517e-01 3.283791235252056517e-01 -6.552204381122458399e-01 3.875600587499905547e-01 1.380239073079320058e-03
-1.747534194046319878e-01 4.799042858439453996e-01 6.162083907926776405e-01 -6.776376889398717795e-02 -2.281891356028279416e-01 -5.426199462375075333e-01 -2.599738315624357532e-01 -4.157335946744770694e-01 5.235363221417804747e-01 3.651469150964800625e-01
-3.794558711654164584e-01 -5.448975972644445331e-01 8.693471691311551730e-01 6.492488029031919794e-01 5.120174887124857577e-01 -1.406214267696258291e-01 -6.777772139981687038e-01 -8.282788392346740469e-02 -5.801621838831061417e-01 -6.627088190382972588e-01
-6.634263353473802971e-02 -1.096690558415943095e-01 -6.930564687460735174e-01 3.341617419900846375e-01 -3.811886157914680107e-01 -5.855208737786259388e-01 8.004272001108065915e-01 -1.500414030686445799e-01 -1.320382126317994620e-01 3.510409056568423725e-01
-1.486657624469890915e-01 6.084070939005298273e-01 -4.899439566908093679e-01 -6.698614876480374347e-01 2.544302592864554624e-01 1.315003038011524905e-01 -4.241020600656381090e-02 2.496873309778742667e-01 3.143065428752010448e-01 2.518098549525326080e-01
3.112233473430432995e-01 6.372502626257900982e-01 -2.226272468883878086e-01 3.558671993544949563e-01 -6.234937364950871030e-01 -5.819968604112002453e-01 1.092108643256814587e-01 1.961837560649400958e-01 -1.150080057387113247e-01 -4.428280247745199905e-01
-3.358546403798413904e-02 3.146483517631250004e-01 3.526127555413371972e-01 3.140112194833205028e-01 5.181808002654739731e-01 -2.808129510317163291e-01 -3.710293307258824003e-01 -5.437962980346536246e-02 -5.650166930191372616e-01 -6.144461715656877182e-02
-3.529121348615715248e-01 5.924775459778776066e-01 2.735046807818739545e-01 4.316873170641438162e-01 4.063666859863013792e-01 -4.500787865287139144e-01 3.588083481193121149e-01 -2.675571503906035153e-01 7.199454524029951230e-01 -4.227023693628279566e-01
7.174614673884424643e-02 1.976627294808950067e-02 2.754440329178780081e-02 -7.204885000251235946e-03 -8.805365266022359416e-03 -1.112966516957093234e-02 2.993522411506202574e-03 1.311323235166426959e-01 -1.006982924016035924e-02 -2.854959753673046077e-03
1.863754120840267481e-01 -1.938622406567994463e-02 1.470364703651195169e-02 -2.240430303640579823e-01 -3.305505014689320564e-01 -6.386936060522269663e-03 -8.171208585768431620e-02 1.464304745899781823e-01 -1.267528023310608987e-01 -3.526221091489299408e-01
3.838403625257390539e-01 -5.502677469071456384e-01 -2.873782313266552979e-01 -7.044931493231644248e-01 -6.886394471525637828e-02 -6.992922483721736304e-01 -2.018582584495434151e-01 -6.334967782036109440e-01 -2.139992417378407466e-02 3.047830474572963411e-01
1.709154655612424301e-02 -1.124197348064887442e-01 6.720997458351277327e-03 -2.255681168784886420e-02 1.667489843616745682e-01 2.530055343699883635e-02 7.493148404184436784e-02 9.155601186449664752e-02 -3.669274303197687243e-02 9.321296748516512409e-02
1.193407506173912169e-01 2.541433922353470432e-01 -4.226082124659008565e-02 9.199365665434411365e-02 -5.182656731637744207e-02 1.982255213257290705e-01 -3.243263223719629051e-01 1.998765358805370818e-01 7.148693700501391611e-05 7.556790511333795479e-02
-3.913525606895724707e-01 -4.337033869074077147e-02 5.816866674270411153e-01 -5.056892819456176164e-02 -2.554325181054424854e-01 7.159545056107844418e-01 -3.186573856543248318e-01 -5.264133773655392812e-01 -4.081319635141429925e-01 5.386614056118841365e-01
5.805471373722371764e-01 -7.681893040388541871e-02 -2.597216932257553901e-01 6.620906540035713661e-01 -2.619394119342756677e-01 2.589266000095685055e-02 -7.757441627150286623e-01 1.501514519991424268e-01 -5.355402991330782125e-01 7.420136983454164170e-01
2.605493176875272043e-01 1.817338728256810421e-01 6.123175568867275133e-03 1.217012403071674048e-01 -8.073607524615585007e-02 3.866625557086086906e-02 4.264949619017806975e-02 6.100747194005844143e-02 1.260700287892677629e-01 1.492801486567265634e-01
-5.194388175783184458e-01 -8.473031772779183735e-01 1.534364369641443571e-01 6.033254217878950554e-01 -2.746989195578297682e-01 5.899155673490870111e-01 -8.406141834141445113e-01 -6.928148553042100255e-02 -6.878854544747885491e-01 6.391816419437391650e-01
-1.710771485702723693e-02 3.533196140036284905e-02 8.050954397250877081e-02 -2.154632525200364523e-02 -6.083562983009137282e-02 -5.154374734750762077e-02 -1.190065027185826796e-01 5.114934764987828786e-02 -9.865503539173821335e-02 -7.128639938298342305e-02
2.025282246145132525e-01 -2.385660347352497324e-01 -4.418501578602666569e-01 -2.973861680047731326e-01 4.312496646641174047e-01 3.678906362859249990e-01 -2.054832079900994479e-01 -5.443392847575795335e-01 -5.228097917542092743e-01 4.987721134157918068e-01
2.871620162231054429e-01 -5.244129135676172115e-01 -2.273782201177718468e-02 -3.496848995810587502e-01 9.666513380522492871e-02 -3.024705741670076775e-01 -4.258082060566640847e-01 -6.744324910476333368e-02 1.084020526023842315e-02 1.838299569606905159e-01
-1.212900334967984689e-01 -3.083613262158177992e-01 -8.400002770380901596e-02 8.303573102415748308e-02 1.537617850901281946e-01 2.326038695636224729e-01 2.595771390389038924e-01 2.199470732107074999e-01 1.394622023351760332e-01 4.886915481931690397e-02
-8.570550264764934534e-01 4.481734500274334732e-01 8.877173660991197202e-02 7.378147018496584719e-01 -2.691647925635913263e-01 -3.181285756593295599e-01 -1.516703876722059474e-01 7.629447856564829378e-01 -5.122460626409731238e-02 1.404755292922090504e-01
-2.469281798107644255e-01 8.425344562298764384e-02 5.666333528200527825e-01 -4.038973566326545250e-01 1.999670488795070866e-01 8.081469119874917784e-01 1.954938294432777279e-01 -7.714059640277898082e-03 3.374031921749123808e-01 -4.155106978381814531e-01
4.082695012269339958e-03 1.498296487508028463e-01 -7.130143108515316075e-02 -1.669109873066418614e-01 1.980534672000746343e-01 -2.289368615562918652e-01 -1.606325790288698485e-02 2.107653031966404827e-02 -1.694509575243276223e-02 -1.520627949653428068e-01
7.818750244774599900e-02 -3.273050187914545300e-02 1.593389322783299866e-01 -1.133218774409348699e-02 -4.193282087764411276e-02 -5.355525245902013898e-02 -3.116849202040666497e-02 2.926309197437818033e-02 -1.576647136167633190e-01 5.640797693019083958e-02
-2.860709517457738493e-01 7.687364753721377397e-01 9.168298799283136624e-01 -6.230472553860076923e-01 -1.045569050807846068e-01 -2.660884738995679122e-01 -3.114457552676402896e-01 -2.199743037703532356e-01 6.836698904496626428e-01 -4.141222739475479142e-01
-3.405143680385118721e-01 -4.368996408796969599e-01 -4.454797979333419700e-01 2.756337188777343572e-01 -2.321134350386896417e-01 7.250765815870031661e-01 -2.114018549000991065e-01 -5.147539250564334701e-01 7.579894261028143065e-02 4.410995586364940269e-01
-5.076497270051405497e-01 4.420365101357734416e-01 5.395435982796604746e-01 -3.209414022096293007e-01 -1.565887124601553770e-01 3.175281960983539764e-01 -3.199097282938042630e-01 2.314527015237781427e-01 -5.809684967978946402e-01 -7.127133849431237511e-01
-2.367811428509178084e-01 -4.551843373937009551e-01 -6.288075626817667407e-01 -4.000749858111242174e-01 3.822853002656170229e-01 -5.409469995533442432e-01 4.916813371027034529e-02 -3.202539483567149459e-01 -3.686125116613957475e-01 1.509235427711260735e-01
4.312363963155320390e-02 -5.011187435617261293e-02 -2.523160195777233716e-01 1.816712111132965934e-01 2.391765753179227877e-02 -9.459220203854035169e-02 6.903936071586924683e-02 -2.328180820244747651e-02 1.063981710368626654e-01 -2.441232564449386522e-01
-2.621420490833424322e-01 1.647989480114714633e-01 1.999519937853106166e-01 -1.516180622769140174e-01 -5.836237489904944065e-01 5.628348893667504127e-01 -1.292386906597934593e-01 4.415243321057181203e-01 -1.800662628767315532e-01 -5.519670271206775780e-01
9.611415565806104289e-02 4.803907196046804801e-02 6.855665830001815043e-03 1.172957013596009485e-01 1.258649762472706379e-01 4.154736522967569790e-02 4.322663795151377580e-02 -1.683498735657252415e-02 -3.158746352669077745e-02 1.580042523125804385e-02
-5.666103444672071499e-01 -2.824671403556701099e-01 -4.573552335833044880e-01 6.328177902951380718e-01 -4.810296711397819003e-01 6.965321982592241890e-01 -3.440464473655138189e-01 -4.637882363145415798e-01 4.827234156839074752e-01 5.603475896137637413e-01
-5.397344625069687707e-01 -7.966982862315656611e-02 3.621764793552426087e-01 -3.917006733004406091e-03 8.202303351763925443e-01 -2.675103958926587366e-01 -2.276139999241177936e-01 5.784342456610940264e-01 -2.557651777194072662e-01 4.230701340725167570e-01
-1.163741720925874218e-01 -6.170748359317898557e-02 6.657625624916388429e-02 3.475146908971488147e-02 -3.181112485954658287e-02 -1.287268872993410120e-02 6.268335676555203406e-02 -3.052185265035978635e-03 1.781067909717823361e-02 8.325819182161089960e-02
-1.141895004788557599e-01 2.444114271598792354e-01 -1.050830986066247398e-02 9.404256786992784556e-02 2.020076906232043390e-01 4.168029941527661569e-02 -1.916484546598656580e-01 -1.492894130069846170e-01 -6.167176726545114951e-02 -9.939168642998714998e-02
1.286104441797540805e-02 -8.537956660262539799e-02 1.378355903419848510e-02 -1.872403872648485679e-01 1.186065418673430405e-01 9.854922566259938232e-02 -8.654723250468704387e-02 -2.945579368265849873e-01 -2.931496658640055930e-01 -5.876315991809383243e-01
5.256599525366545400e-01 -1.249023193677749610e-01 -5.327414556660793332e-01 -5.687725768531661785e-01 1.288242869832725845e-01 8.780747389232830546e-02 -5.232317763790456100e-01 -6.703173580994203906e-02 -6.315557000211333705e-01 5.177910881712330937e-01
4.636374246662905985e-01 -6.379934213357302264e-01 3.792306015378731909e-01 5.757340211113767259e-01 6.322332602216731434e-01 -3.028852456004342275e-01 4.022173004609061464e-01 1.676820503138949647e-01 -1.259293531230345868e-02 4.818928716767685860e-01
4.278840384174156242e-01 -4.516892462423853782e-01 -3.998071052626913646e-01 1.719346868540926054e-01 -1.401915902108952228e-01 -4.178502968849482357e-01 5.128282554353043032e-01 4.296009474589736477e-01 -1.290223624299018379e-01 1.141351119455090990e-01
2.100891155459615744e-01 7.918407424088904634e-01 5.090720052894860403e-01 6.014139683356218846e-01 7.221881205235510803e-01 -8.033810030543840908e-01 1.669180109245502197e-01 7.952087727508363457e-01 3.090327427740123811e-01 -8.710066262469385867e-01
3.023536055286077939e-01 -1.241081460081293053e-01 5.747638309237061011e-02 1.405748108780573991e-01 -2.048482000323141039e-01 4.007594208503839073e-01 -4.220958958696958280e-02 2.317389895180775872e-01 1.470603884589005983e-01 3.391410903617778638e-01
4.361905101679657837e-01 -5.506419824845640854e-01 5.601544394109815306e-01 -3.538605515867459528e-01 -1.779854575972150132e-01 -1.574445688597624071e-01 5.528592112180046314e-01 -4.499339395475202008e-01 3.285835239108885197e-01 -2.359165890733643800e-01
6.766499848630981306e-01 -2.549986703638956742e-01 -7.074440893260784957e-01 8.932679753100684072e-01 8.627351710489225556e-02 9.340414413152530182e-01 6.929501408196655499e-01 -2.708241980104155178e-01 -9.289853225053035235e-02 7.890499604833908220e-01
-2.185483227556741515e-01 5.259830806140858989e-03 5.591219480841638084e-02 -5.322702291931160623e-01 -4.350221523019927594e-01 -2.345476754716246393e-01 2.261672909079298910e-01 -4.114688134314711254e-01 -3.012660000737412136e-01 1.469226817696003273e-01
3.587469259601818155e-03 3.426765835774612384e-02 4.969616472637462638e-03 6.688240050040680784e-02 -8.344514558714761013e-03 6.321948501292745659e-02 1.119624134115221152e-03 3.285091731317062169e-02 7.652241020492931735e-03 1.073856234561121510e-02
-1.239663463567964585e-01 -6.046345705864293318e-01 2.798095228558727388e-01 3.220317658652444709e-02 4.867774466488542506e-01 -4.559215454749885876e-01 2.426112986231279689e-01 -3.976711472300599182e-01 7.158793583089457790e-01 4.420889813944114399e-01
-4.831456131711336366e-01 6.676021585583316043e-01 -1.041675406774914686e-01 -1.644194608804950275e-01 4.589763224099351335e-01 5.149474880493866147e-01 2.661120035463589439e-01 4.615739095152509019e-01 -4.659803588744450553e-01 -3.979524374604306858e-01
-6.941311984939849133e-02 -4.332781647510481893e-01 6.054557294238871457e-02 -5.328035628906661880e-02 1.713055089973073708e-01 1.717074219504096666e-01 1.193454645502900896e-01 4.215587292935504826e-01 -2.917586842355737176e-01 3.402274990783619169e-01
-6.779163054725895199e-01 3.949149021764579714e-01 4.485916000851836172e-01 7.209523362566621074e-01 1.308960660999483605e-01 5.897690845879157706e-01 -1.914987128247536419e-01 -8.728120281428188021e-02 7.060697400689729397e-01 9.206546095912079841e-02
-1.492774537827989134e-01 6.249098961634030891e-01 -5.619919709328410340e-01 1.919240541403198497e-01 3.069795187487629473e-01 4.208797389253772225e-01 4.006332645018517713e-01 1.157589571570655090e-01 -4.277178473898976541e-02 -1.581112065842907310e-01
1.743247869532685984e-02 -8.876479146924555474e-03 1.609160382056907049e-02 4.262242499541948199e-02 5.760949088406764479e-02 3.721604255528861843e-02 2.749204790738237359e-03 5.603400759452810409e-02 2.259948733188872280e-02 4.182945468890677393e-02
-4.907454438638880201e-01 5.977924933011764530e-01 -4.898588807235397247e-01 -5.459983622811209573e-03 5.720414403968351325e-01 -7.476691442864614734e-01 -7.993207089989033953e-01 2.625232318804621157e-01 -3.388616899905255719e-01 -7.030210793982512030e-01
-2.191138464071982483e-01 -1.812151582693964924e-01 8.440752320061375991e-02 1.400553430719406467e-01 1.485937014394178302e-01 -4.263625669666213924e-01 1.144406426827203754e-01 5.794987684613774892e-01 2.137522345757522091e-01 -8.384508588286680719e-02
-5.441356911147329223e-01 1.976043037905249877e-01 -8.117515101334968897e-01 -3.337297201163780813e-01 -6.752412206327063071e-01 7.839480527506932639e-02 -8.327624790468554083e-01 -5.073438714885430967e-01 7.990975003657806441e-01 6.882714217443919313e-01
4.430552871999643427e-02 4.355719629539723387e-02 8.427472645240551008e-02 -9.445614853330742966e-02 2.626171341771307843e-02 -2.904020992537643953e-02 -9.222452781217941806e-03 -4.686596895572981022e-04 -7.912426441383660705e-04 3.105681093148762902e-03
7.678473038237339232e-02 -2.081487942657975487e-01 2.928139279453567112e-01 4.345552840026320474e-01 -4.860258087800640725e-01 1.805014820209645821e-01 2.317516123836812214e-01 3.705903198318645508e-02 -4.983920083862893868e-01 -5.620610396972207656e-01
2.834828588358779267e-01 -1.413561671679502418e-01 2.820191125985422875e-01 -3.963752128278016928e-02 -2.344367209939701435e-01 -2.838840140733694950e-01 2.252137191414795847e-01 -3.214878157753588428e-01 -1.559947412807828893e-01 3.537128751483118450e-01
6.965905860438537101e-01 -4.808655567474045545e-01 4.769876214855928165e-01 8.245268684155556693e-01 6.135722959933183063e-01 -3.281416528977128266e-02 5.270757806715534732e-01 6.937245333029212757e-01 5.925201168223007686e-01 1.054551953483022081e-01
9.263418107012848235e-02 1.168354419367231278e-01 4.657573060663951492e-01 -1.449313040257010077e-01 1.892131588792830832e-01 -1.984026121172449697e-01 8.905101691769584660e-02 2.670911549034948318e-01 -3.737546516729474133e-01 -3.578469324971842447e-01
-3.580930948645988376e-01 1.338543618671964586e-01 3.856694432179228471e-01 -5.822616417871292471e-01 5.711028117312300090e-01 -1.245184299232468261e-01 7.219556342709914087e-01 -5.614260073643304594e-01 7.498651335842443366e-02 -4.129304290233576369e-02
1.617710741747205583e-01 -2.248381726967999816e-01 -4.296820561599767885e-01 1.357217215932652460e-02 4.955171992630166833e-02 -8.309755408664555587e-03 3.953975822285170638e-01 4.101692664518789000e-01 -2.976289972605664774e-02 -5.324071382237764993e-01
3.060173071488544450e-01 -6.168424008522047641e-01 -4.762736725128607906e-01 3.010485635947124372e-02 1.558020811890188373e-01 2.930373747145138541e-01 -2.640582311241657654e-01 2.013514399276175315e-01 -2.701297347623192735e-01 -4.040915244561159581e-01
-3.749330774937571081e-02 3.723725803976737914e-01 3.219700938482499830e-01 1.853899176354353306e-01 -6.030970703494974161e-02 2.231167394393878400e-01 -3.266280082685945052e-01 1.862241465994631251e-01 -4.845067209262436691e-04 -4.227559620572845511e-01
2.511979110299937257e-01 -1.879414566408480203e-01 -1.580152684966031895e-01 4.528085447214296733e-01 3.884769949816495038e-01 4.641173767419760621e-01 6.955434780591531752e-01 -9.232044979401939078e-02 -2.954645054636573231e-01 3.386071121759058333e-01
-5.147760425690851571e-01 -2.206644396855160228e-01 -5.260156919103869261e-02 -1.288306281418441328e-02 2.637808563319636868e-01 -2.553390461350624197e-01 7.131627476416120721e-03 -1.850843832644789577e-01 -2.872084781953414545e-01 2.415530745932250034e-01
-1.907220827192834256e-01 -8.890175071476336122e-02 -2.889914939531335047e-01 3.042515035727656469e-01 1.983966657587813431e-01 3.507555579290176362e-01 -1.581395649437616069e-01 5.004735476601918781e-02 -6.767953697012038528e-03 -4.114954717720906152e-02
2.183760071320030582e-01 2.397149249670070814e-01 1.768501635586680332e-01 -2.182907453826649080e-01 -3.683916388875234649e-01 -2.451184340116632498e-01 2.264776518721207388e-01 -3.242350825754435339e-01 3.575861525769161720e-01 6.504009850568534534e-02
-1.015843632878564033e-04 5.335228038309985932e-01 -4.412031279920903271e-01 4.752914363947393084e-01 6.467930594175222980e-01 1.771255495543137548e-01 3.228787938166219340e-01 2.758335508899589228e-01 -4.690803114861712975e-01 -6.464073626429149844e-01
2.895307393340465496e-01 -3.815429826014589687e-01 -4.135673882729016260e-01 -2.384995524581517423e-01 4.839770720995611453e-01 -6.052331842739688134e-02 2.133024715219559303e-02 5.312751659900741830e-01 2.685317279742608365e-01 -2.525684272948721110e-01
-7.233756511386878196e-02 2.989907728415948096e-01 -2.521884289896647591e-01 1.813599221254436900e-01 -5.133331976675189479e-01 -1.677013613277295312e-01 3.094032365208695956e-01 -2.768925668802522666e-01 6.706421007325521488e-01 4.535834497550906286e-01
-3.026328085902565621e-02 1.007665397629306930e-01 2.363616955017212307e-01 2.150137413865078062e-01 7.727663540439848322e-02 3.810529933346161746e-01 1.752444286279976338e-01 -1.016844570116482993e-01 9.347975432006842833e-02 2.729152052106063597e-01
