6.284995602243511614e-01 -7.932108429134673289e-01 -1.145627535642123468e-01 -6.190854001588956823e-01 3.216055483608174503e-01 -4.556465316584797920e-01 3.522742768603869257e-01 5.921227082655360352e-01 8.049232406883387592e-01 7.072803636605131672e-01
1.491618806937614616e-01 1.205795065298328472e-01 -3.868405975953606024e-01 4.043903273256021502e-01 3.952193080941984182e-01 -1.073997003695203595e-01 -2.523476211913405209e-01 -4.307743230839536919e-01 5.160603010521023215e-01 -2.686646637292675055e-01
2.783149088121579795e-01 4.414573347494490929e-01 -2.008445264944850803e-02 6.557070635056212460e-01 -5.670170077495734207e-01 -2.936521000122114256e-01 5.544593128219081901e-01 2.522889778406768868e-01 6.817526084840777045e-01 -2.659180433665517818e-01
1.648815486096717187e-01 -1.778319497061897070e-01 -4.428609731309345737e-02 -4.525944175417499771e-02 -1.454060777609176569e-01 -1.378421161381622462e-01 1.889611199515298379e-01 -1.530316257279289716e-01 1.371518288225183346e-01 -8.297840380017694473e-02
-5.621538766197866147e-03 -2.211797898205384791e-03 7.858363235149688764e-02 -9.463384413381969312e-03 7.717200217968844811e-02 1.240432450141851044e-02 1.356153579491786547e-02 6.371683739729536167e-02 8.995921355669470043e-03 3.854389053902511353e-02
-4.455921878524805591e-01 -7.468224922321723414e-01 -4.071472295553535403e-02 -7.938468814258777817e-01 7.015782051127958940e-01 -6.938183007694118665e-01 5.530830342798757071e-01 7.119414074255890901e-01 6.743619438437498115e-01 2.297319299937334580e-01
-4.993741220410407265e-03 1.770918891562197062e-01 6.275633589762645570e-02 6.949903064993315747e-03 -1.304176346104263945e-02 1.060418749879970743e-02 3.751207688340112839e-02 1.427149106768440742e-02 5.533913971868809761e-02 5.543034839572137142e-03
-5.348283781013531968e-01 6.801270453741744548e-01 8.211578815944087228e-02 6.852687249556250748e-01 2.256083426684110937e-01 -3.245083231328437789e-01 -3.837874337995511587e-01 3.201379641432163803e-01 -6.046064566732478607e-01 5.596605538705544669e-01
-7.008798506342510393e-02 5.908617539387690520e-01 5.494866525298632842e-01 -5.608773487877874997e-01 -2.790255452009988701e-01 3.696274364123380840e-01 -4.168028110225957539e-01 7.205894607807699082e-01 5.173384863666848910e-01 -1.901389749652987737e-01
8.272374228340149613e-03 -4.063628125138515554e-03 -5.718074161043944746e-03 2.640770118928209217e-02 8.784498363252740694e-02 4.370275969379378012e-02 1.099327864554979807e-02 5.032827927900494075e-02 3.280275239276548432e-02 1.399105745109793623e-02
-1.327045806941453548e-02 9.908391774917557626e-02 6.049626841933450350e-02 -6.626404033776336910e-02 2.149426647102854471e-01 1.538684953433441284e-02 -2.812414324720434802e-02 -6.102574161036876475e-04 2.757168886536206023e-02 4.898226978911143087e-02
3.422690149240198987e-01 -3.188809949644174080e-01 5.951649454949976548e-01 1.864081602264694992e-01 -3.493828286132800304e-02 -2.090170337085370533e-01 5.402717227515704268e-01 5.067720544776479485e-01 -4.532688055309775366e-01 4.087053609701709611e-01
-4.218161757724837035e-01 -4.400565985172396472e-02 4.412105799698401443e-01 5.798088423685112680e-01 4.668946960329686258e-01 -4.578049835551796232e-01 2.075365749943449412e-01 -1.355984964917557045e-01 3.158656980999773878e-01 -1.276238510648151081e-01
4.145555366489837579e-01 2.016136949500860476e-01 -4.656743247493976834e-01 6.357087769422783419e-01 1.751167917370210769e-01 5.414464904921713340e-02 7.430592715694689376e-01 -1.596865083948888486e-01 4.120750813604412977e-01 2.875629555513756208e-01
3.103538874119809443e-01 -5.498301728650335507e-01 3.611504209042414315e-01 -2.360670119578193449e-01 2.913851277296783948e-01 -1.801319131046716371e-01 -4.542784082130916223e-01 -1.668265678584365530e-01 -2.011207340727612092e-01 -6.823155779085653405e-01
-4.372896394933317200e-03 1.764482220595659304e-02 5.167812897568396791e-02 1.821389226087778354e-02 1.702845664997566788e-02 4.589306530534310868e-02 2.269816042694232285e-03 -1.097666222077349528e-03 2.394811122936152045e-02 4.279274756100696214e-02
-3.990391191950122818e-01 9.692423897326249427e-02 -5.362823370640033005e-01 -4.592495082609507340e-01 -1.426090769926599555e-02 1.946227812794528444e-01 -4.195088004298546530e-02 3.551515806484902837e-01 9.632307930588922262e-02 2.439658918590683068e-01
8.297674993357494477e-01 -5.337672889918059216e-01 -7.693720843250761998e-01 4.700892913885785784e-01 5.959902643426567836e-01 3.149311655225539575e-01 1.115673361303175376e-01 6.657052080934207083e-01 8.042207363400075693e-01 -4.411909402282131465e-01
1.382893353539084999e-03 4.165099040105881001e-02 -5.885191270959646559e-01 -4.765553248639813888e-01 -5.777217025640011272e-01 2.850327629812749453e-01 -3.637022652790885546e-01 6.705108683273348635e-01 6.701031273675382705e-02 1.281373334767063089e-02
-4.121317908412505671e-02 2.375099706009353162e-01 -1.332992516335536060e-01 6.309888416339862194e-02 1.908201525317044234e-01 -8.729168280920920897e-02 -1.966170645748896162e-01 1.333816614670548240e-01 1.422469588979305422e-01 4.917653338847673833e-02
-2.667850649624660744e-03 -5.325862177728505481e-02 -2.345590101044276454e-01 3.615690328373400431e-01 -4.055061322578770167e-01 -2.559345601210711446e-02 1.762156919264024624e-01 1.956962262556929955e-01 -3.039842024689406452e-01 1.735536923412228094e-01
2.744018259825654060e-01 -9.165089674834844824e-02 -2.209774776932955931e-01 4.001289646424603386e-01 2.631039562857863112e-01 1.634418322001448820e-01 2.070747454630793849e-01 -8.989757891216268448e-02 -1.248485942561675804e-01 -2.128580352477272841e-01
5.778984512135532103e-02 4.144541391549829146e-01 -1.991874414408061900e-01 1.703356944302425457e-01 2.525252480769785146e-01 1.293255692624792341e-01 1.011704600366784973e-01 -5.067901760294290375e-02 2.428460959043935996e-01 -6.971842909287065404e-02
5.222775458681601091e-01 1.115609093928896234e-01 8.166484319961972993e-01 -8.842806067921340496e-01 -3.956499033363705120e-01 8.721101425330099466e-02 7.580178090701410465e-01 -7.725622497664313970e-01 -2.094901619551833849e-01 -8.075633239578577927e-01
-6.267925026195771965e-01 1.825462304279720505e-01 1.288893751542565490e-02 -6.599194290038758182e-02 3.362597889413992402e-01 -1.336291813329292810e-01 -6.821859905999592133e-01 4.614683855003977597e-01 -6.515394332434186753e-01 -5.974908818833951640e-01
1.099943604914093223e-02 -3.189425987061334650e-02 -1.607259081587561478e-02 2.445645957509210433e-01 -4.846450534489815665e-01 4.158346735771529801e-01 -2.042300713089749697e-01 -2.447333560378006298e-02 2.171271726598654750e-01 -1.158681139243797897e-01
1.708338332474569621e-01 -6.254828184938139302e-01 -8.085457133837256061e-01 -8.180219354557173583e-02 -3.101101514098751899e-01 -7.991778350271141473e-01 -6.672452342736190367e-01 -7.253580117251408055e-01 8.637325152731800681e-01 -5.173551090768452321e-01
3.679766835171259798e-01 4.727490799401782851e-01 -4.057101476973501430e-02 -2.681461976788598323e-01 4.400455346527170075e-01 -2.757131079130258899e-01 5.125249586671581925e-01 3.511610521391025364e-01 1.543310836635944372e-01 1.384421105560966481e-01
-3.189352769768020734e-01 2.911673926633848719e-01 -3.575034727889817021e-02 3.160101913964115383e-02 -6.896223229325312287e-01 -2.373136408443372036e-01 3.311550491796733664e-01 -6.521286025566792599e-01 3.851723969343271992e-01 4.109638390872452987e-04
-1.716920279041271868e-01 4.748569189168794780e-01 6.125084206309054924e-01 -7.181722603702388186e-02 -2.128330056703867657e-01 -5.385603221853625389e-01 -2.583633014706598341e-01 -4.071720286789799470e-01 5.182108751832255056e-01 3.577432673657140461e-01
-3.801013759080659749e-01 -5.395471925735590979e-01 8.694431857823456955e-01 6.501510361167777141e-01 5.099618101674298076e-01 -1.409144370471190066e-01 -6.754385708725350046e-01 -8.335683730705560623e-02 -5.772372632691484817e-01 -6.631108202921366379e-01
-6.650208351663740303e-02 -1.099522422933297133e-01 -6.913636647028086335e-01 3.337066510448165046e-01 -3.806703587831288815e-01 -5.782652215596857381e-01 7.970747976026836268e-01 -1.520601669398566613e-01 -1.319948859860933243e-01 3.548748246254670446e-01
-1.488948754598301838e-01 6.064182084599689659e-01 -4.887141746685442767e-01 -6.683949207634475309e-01 2.550833376826144860e-01 1.323298086380072791e-01 -4.330599507676705789e-02 2.554323679607904962e-01 3.152809690786450014e-01 2.480475740405330976e-01
3.091250912626999359e-01 6.336127618604939782e-01 -2.221878098139400404e-01 3.525773604617467027e-01 -6.107224302284811612e-01 -5.779948497935781804e-01 1.087970705266443072e-01 1.923443543698552527e-01 -1.169167480312329060e-01 -4.402319884580861431e-01
-3.423155179946945487e-02 3.176751871325038667e-01 3.511079186757699588e-01 3.132338667700372836e-01 5.174576054828001759e-01 -2.783908692095822257e-01 -3.700735884250480612e-01 -5.304956306732606236e-02 -5.641381891812786709e-01 -6.187353197571773822e-02
-3.528399305724171930e-01 5.889466210310477789e-01 2.755307545758995391e-01 4.287391144755324790e-01 4.006647800383341673e-01 -4.512640821000354907e-01 3.559194919126891232e-01 -2.608987800821319092e-01 7.169640358236678557e-01 -4.218949378026748409e-01
1.041210014822284285e-01 3.631079594457102544e-02 3.566406942640049788e-02 9.239325889463821662e-03 -6.786705716437781144e-03 -8.801424644700539882e-03 1.451354419806240087e-03 1.684374996387434653e-01 -8.580314621781687245e-03 1.857903949396509267e-03
1.371764896319894733e-01 -2.481444414147974953e-02 -9.138909956869799289e-03 -1.683026675159585150e-01 -2.258724003374267542e-01 -1.276403326325173219e-02 -5.817506417099133770e-02 9.504073353041622707e-02 -1.160525972453189392e-01 -2.816011915640371788e-01
3.828235366265739792e-01 -5.490685236247428991e-01 -2.856862443095080084e-01 -7.031079564388100778e-01 -6.882423197389704594e-02 -6.943527641907405457e-01 -2.032998028212352759e-01 -6.339705361025892438e-01 -2.114837644068469358e-02 3.125356061376113326e-01
2.709206924873407141e-02 -7.870384453731658903e-02 -1.990858195128564212e-03 -1.818825932141344189e-03 1.723230308313040970e-01 1.087862075540219900e-03 6.887828049078972836e-02 6.258195579297960720e-02 -1.880359666852268047e-02 7.403001249832186215e-02
1.126772973606630646e-01 2.484409573795115234e-01 -3.473034678017396237e-02 1.148867639488860143e-01 -4.234920000648509375e-02 1.641042216406868037e-01 -2.796616605684760226e-01 1.806801409707697037e-01 -3.460230010027647452e-03 7.180405074837316326e-02
-3.825707606752132839e-01 -4.046798523819648136e-02 5.793178551205949711e-01 -5.068481228047955200e-02 -2.531456497626916047e-01 7.110833750000127296e-01 -3.183851175216155793e-01 -5.172660398170889628e-01 -4.078711334335655692e-01 5.435742858226628726e-01
5.803805058557875984e-01 -7.577784974265197593e-02 -2.596669655785077691e-01 6.618676226695751064e-01 -2.619483772311324565e-01 2.617240026354226978e-02 -7.756186452604834081e-01 1.503474148687760359e-01 -5.355025738100976929e-01 7.418778824542873185e-01
2.479223663364428509e-01 1.683418418561727081e-01 1.067801306807885688e-02 1.151736057244022449e-01 -7.225216125190152272e-02 7.281618894464939040e-02 4.429195862158118169e-02 5.101513823032592654e-02 1.151598364938817842e-01 1.377180800429206875e-01
-5.197956491740605145e-01 -8.463190201352249753e-01 1.550359334310346671e-01 6.035862215656624397e-01 -2.752803413411861744e-01 5.896832667599325450e-01 -8.403513050736368672e-01 -6.963807818919270920e-02 -6.876872252466736946e-01 6.391919875630439618e-01
-9.476151996658714691e-04 1.323747227991773669e-02 3.098209643016006098e-02 -2.480544878589236585e-02 2.549079805144044072e-02 3.310018942915021051e-02 -4.646028568013704091e-02 4.352506551751676028e-02 -5.713607063406620640e-02 -3.871437665057330529e-02
1.997536316961163738e-01 -2.353781872464631997e-01 -4.379062596438830224e-01 -2.986708744704981711e-01 4.339483923229540130e-01 3.655746878825587021e-01 -2.078141710522179442e-01 -5.329617247181981377e-01 -5.172651860345455210e-01 4.915178046016747682e-01
2.782951269951990381e-01 -5.085401038663321938e-01 -2.074156364705042471e-02 -3.385825404889103440e-01 9.757106856971592412e-02 -2.921945341542996899e-01 -3.950705931098749679e-01 -6.319003399293274259e-02 9.475538932041654289e-03 1.779208171511759973e-01
-1.113564392393030095e-01 -2.856723065822192598e-01 -7.695462695662644292e-02 6.931317269330343478e-02 1.730547854266993868e-01 2.148683909003967496e-01 2.351551939943886116e-01 1.946141565626569037e-01 1.223069833564312536e-01 7.803620873903721611e-02
-8.560330227707148021e-01 4.487969314648278529e-01 8.848077331134075740e-02 7.397596924445904998e-01 -2.688779468428216801e-01 -3.178846067035673850e-01 -1.515073009178665164e-01 7.620301917158534000e-01 -5.124829915562360838e-02 1.401778794834047936e-01
-2.421959642782285926e-01 8.393884964855678754e-02 5.651967043815256941e-01 -4.028370580301978143e-01 1.992843413007567566e-01 8.062891895463891734e-01 1.950889041782696287e-01 -7.679421084544349463e-03 3.365945215348016273e-01 -4.146720655803410871e-01
-3.220185217469218389e-03 1.240266862295674316e-01 -4.902667663521941693e-02 -1.130156139312124414e-01 1.428572676865534075e-01 -1.629762665700456858e-01 5.488505921032323098e-02 2.212986220242032717e-02 -3.645110930260996290e-03 -1.218540566563056510e-01
7.140284014482252417e-02 4.911579090550790075e-03 1.805493195942300955e-01 -1.799950615370901966e-02 -2.947143078113283535e-02 -4.399416251726504662e-02 -4.821013531601819717e-03 2.725365456312374771e-02 -1.225493375360859616e-01 3.013670937530396263e-02
-2.854934861533727219e-01 7.644647350725453094e-01 9.152482689423813156e-01 -6.203724376348117575e-01 -1.044194198699219533e-01 -2.517750299762624988e-01 -3.171356925527388237e-01 -2.256439451571384258e-01 6.805322624278216104e-01 -3.996040288734263868e-01
-3.385189539125499358e-01 -4.366737445443603094e-01 -4.448106892919947986e-01 2.743700357813128599e-01 -2.325361505951644425e-01 7.269896960228011684e-01 -2.089824377461579896e-01 -5.144316293213549995e-01 7.511294796577139277e-02 4.386995498836780971e-01
-5.075794474862442840e-01 4.419433213225910650e-01 5.393927786678570646e-01 -3.210082475315070294e-01 -1.558872395387514154e-01 3.177874479090995741e-01 -3.198790027875974551e-01 2.312071034671696057e-01 -5.809773505139818051e-01 -7.119599777987544176e-01
-2.343500156883776830e-01 -4.527018500631718734e-01 -6.241451173615668591e-01 -3.871621017787992836e-01 3.789470968055657085e-01 -5.362927904482485131e-01 4.751998521858505353e-02 -3.168837164414369800e-01 -3.663948739121766773e-01 1.465069544976302929e-01
8.196089519678390056e-02 -4.180572065361497225e-02 -2.393071711977094729e-01 1.684158150977580759e-01 2.868191291634994422e-02 -9.286171789487153438e-02 6.536974306662002299e-02 1.887425353963853537e-03 9.615070303344307179e-02 -2.207820952243142731e-01
-2.582786317519125685e-01 1.632779415904431763e-01 1.956810675012675138e-01 -1.449104995173948196e-01 -5.744257886277477354e-01 5.647243829522980985e-01 -1.265580298849402208e-01 4.389871834599598510e-01 -1.763593994590961778e-01 -5.500570896667276166e-01
7.513104967791103816e-02 3.185849237909797044e-02 1.735824366342459540e-02 7.196714058631524524e-02 1.038127831790994771e-01 -5.482851662909639032e-03 1.576069092679874620e-02 1.288752990758702463e-02 -6.243043669248582971e-03 3.926703344803451554e-03
-5.660528089865647372e-01 -2.820392885026987151e-01 -4.567048743294959134e-01 6.322123856863802738e-01 -4.834276843002953128e-01 6.928701347059431637e-01 -3.442093412147093634e-01 -4.583302167242530034e-01 4.825013369558098231e-01 5.609005666107391708e-01
-5.398430936738430885e-01 -7.968440524246568624e-02 3.621512120916462463e-01 -4.015771559570269905e-03 8.202419096114385022e-01 -2.675065304733386107e-01 -2.276438522082398219e-01 5.787918258966180396e-01 -2.556733808247961814e-01 4.228532618377260910e-01
-6.445681828945612479e-02 -3.761811931682363525e-02 4.472189810398351922e-02 5.390032639726097252e-02 1.358102479254748004e-03 3.073257946142478672e-02 3.512617085574086528e-02 -1.080110151523007780e-02 7.418740449503633157e-03 1.123050068825640624e-01
-1.021340532802008788e-01 2.412210029433545233e-01 -1.881425051574879895e-02 7.789441782968628547e-02 1.768853844131619280e-01 4.534816471773354257e-02 -1.561343939282270055e-01 -1.401474543275822715e-01 -5.089507381220465670e-02 -8.184408817129339153e-02
1.027935475830185109e-02 -7.140112981690353855e-02 1.552262568661066239e-02 -1.722447087688453171e-01 9.704690291969175764e-02 7.388197957230401014e-02 -8.486906891521163454e-02 -2.472778914705820730e-01 -2.764636937997690391e-01 -5.493856419122329360e-01
5.200798819569010245e-01 -1.097309960809856877e-01 -5.283254429901896865e-01 -5.624872540267609189e-01 1.244535532326176419e-01 8.687486989679640836e-02 -5.150736635497268345e-01 -6.757794772059912136e-02 -6.223536970987398886e-01 5.125811100725680136e-01
4.615495922990806021e-01 -6.364821867284460311e-01 3.784204577081043963e-01 5.747842279126069709e-01 6.294940977569040141e-01 -3.050475349535892167e-01 4.010235317550158163e-01 1.713748901623060039e-01 -1.255414080048659377e-02 4.827054358366988929e-01
4.211325565887748534e-01 -4.474422270562237736e-01 -3.834084764375701448e-01 1.671321284992016154e-01 -1.394481692105648263e-01 -4.142788596442175120e-01 5.048966211536697335e-01 4.238284330807928768e-01 -1.278396083567856223e-01 1.122823307986426239e-01
2.124389016277125897e-01 7.906613208870900689e-01 5.095089691331836645e-01 6.025221829747451352e-01 7.223137405821145052e-01 -8.030461597129584517e-01 1.673200868953709786e-01 7.929625943796574372e-01 3.089695202103091565e-01 -8.703791567542057406e-01
2.807084914535810660e-01 -1.157630274770749673e-01 5.437198995374285804e-02 1.363520604499445787e-01 -2.048955098332630731e-01 3.669160054822688255e-01 -3.377022510606516453e-02 2.366243124791508057e-01 1.439009168931996707e-01 3.480910615676913733e-01
4.324451561096460117e-01 -5.411426201078954890e-01 5.567596662476211877e-01 -3.539025954333598900e-01 -1.761112233419241391e-01 -1.590694797717901732e-01 5.542178885237709629e-01 -4.461940239938548824e-01 3.270552185573225024e-01 -2.337920095237359941e-01
6.766387347234890104e-01 -2.550036001543870556e-01 -7.074584532560286299e-01 8.932583712407800025e-01 8.626010642852723065e-02 9.341072077569158028e-01 6.929450204352914922e-01 -2.708447988666320971e-01 -9.290677505436950590e-02 7.890342439403916774e-01
-2.178899784153007224e-01 6.682070163115644279e-03 6.054667917337433480e-02 -5.235390767998903128e-01 -4.287085998685800647e-01 -2.352124230799781668e-01 2.194191660901138041e-01 -4.079572475726306879e-01 -2.970796485630141648e-01 1.437650608388955364e-01
4.137552060709356883e-03 3.896899382433872266e-02 7.559637554385709342e-03 7.828103203515601738e-02 2.129759383629186743e-03 6.874862229438560846e-02 4.242123997376926262e-03 4.509782906917157025e-02 9.593282195822953190e-03 1.850021931998219529e-02
-1.268779411364319154e-01 -6.031779579097432675e-01 2.763673486430431314e-01 3.372889379196430254e-02 4.916129352920750040e-01 -4.555536781608147123e-01 2.463220807727482531e-01 -3.980741676845544474e-01 7.153727913600627097e-01 4.429972694497659735e-01
-4.828983101878785433e-01 6.721926932829631607e-01 -1.039061747910098865e-01 -1.633887678680930045e-01 4.564506306620655929e-01 5.140378692898829316e-01 2.680668147235588106e-01 4.600511457977175533e-01 -4.638032119262235908e-01 -3.978468438976460742e-01
-6.627888122757169542e-02 -4.183018158962001354e-01 5.624598124351003203e-02 -5.719191244642326394e-02 1.583313791157457961e-01 1.739290130342345531e-01 1.138536541230040361e-01 4.117466856144216814e-01 -2.763473441418061727e-01 3.278309796752403860e-01
-6.774261589965391295e-01 3.952411964694761970e-01 4.481622029336956858e-01 7.200047993507953104e-01 1.306724958342798948e-01 5.890697214846173368e-01 -1.913531284984007486e-01 -8.509301199223107126e-02 7.054624634465537225e-01 9.196194760932975554e-02
-1.490646168743036959e-01 6.239759818505244970e-01 -5.614668248373424486e-01 1.915379388787828430e-01 3.063564296813232057e-01 4.248999580821321564e-01 4.000470524503030312e-01 1.155156099117092411e-01 -4.285528830510608456e-02 -1.581088944417070041e-01
1.179947529677327633e-02 -5.174051026080640076e-03 2.355479159710189077e-02 5.409110376507197254e-02 6.050220305451098346e-02 3.055541408029682077e-02 7.488400840555070083e-03 8.383439738145528897e-02 3.926633069470594067e-02 4.599411478341575849e-02
-4.907703891345310820e-01 5.990405241386372870e-01 -4.900761037267080678e-01 -5.595523425895965880e-03 5.722917648420392522e-01 -7.475710191521296455e-01 -7.993149208826502150e-01 2.622451627750833625e-01 -3.389253882733433976e-01 -7.029576008580814550e-01
-2.131005851296793319e-01 -1.623162791150032924e-01 8.092001104062758465e-02 1.388913046809306662e-01 1.422781224694979474e-01 -4.152819852922945421e-01 1.112399433377826985e-01 5.747916815196008056e-01 2.065859747871899021e-01 -8.262462423367492037e-02
-5.440560844209191282e-01 1.970225142871412372e-01 -8.104202943152747363e-01 -3.333012382897344028e-01 -6.752798500715067043e-01 7.863849266934942739e-02 -8.325245151067888205e-01 -5.071952320064815334e-01 7.999917127665259198e-01 6.874159439428761953e-01
4.736426511839360309e-02 3.155240923992055913e-02 7.965981513444535256e-02 -5.065585531089949328e-02 1.465237577772486241e-02 1.360297088523130214e-02 2.858979867865805644e-02 2.622705158200100764e-02 -4.301998824422534166e-03 1.419581323223613467e-02
7.533711664018176435e-02 -2.060061104407061028e-01 2.921117096657072643e-01 4.345287218682881702e-01 -4.835369487609895711e-01 1.845783821155471960e-01 2.263523295987672213e-01 3.696227731787678911e-02 -4.954865644111508538e-01 -5.567432039743440697e-01
2.184961709940795305e-01 -1.189246179869687253e-01 2.205927417116208267e-01 -2.716158779725786482e-02 -1.973776815795185713e-01 -2.253529968775548065e-01 2.245671540809676681e-01 -2.511471313635709746e-01 -1.164793574159187911e-01 2.905729493000849817e-01
6.965951452975022162e-01 -4.801905824365104158e-01 4.768306565244776474e-01 8.245691603836201589e-01 6.134469093058032563e-01 -3.285571079141302864e-02 5.271076839538845205e-01 6.937013677649375154e-01 5.925076876768848866e-01 1.054225898432022274e-01
9.592072885494080936e-02 1.154026644132071788e-01 4.715134248855844534e-01 -1.434136305275840462e-01 1.866367490032873888e-01 -1.969655153570148698e-01 8.842528635637507406e-02 2.652317731160621639e-01 -3.722890816649047641e-01 -3.560805926011864075e-01
-3.568945811004329283e-01 1.337347285232403094e-01 3.852157965102598336e-01 -5.816215208902932865e-01 5.703761036418569796e-01 -1.212759618608476170e-01 7.211034465212939892e-01 -5.608040542455898780e-01 7.488522639265346448e-02 -4.131757694876025955e-02
1.576739154438839829e-01 -2.182375113678594880e-01 -4.160703570286823916e-01 1.502668688923467118e-02 5.116394766009728368e-02 2.006753095032040579e-02 3.794822159939325590e-01 3.854297752016331291e-01 -2.962939593741152969e-02 -4.917558174421388650e-01
3.046374637887774850e-01 -6.142959356601811471e-01 -4.704631431529436858e-01 3.026803747624526655e-02 1.543410630349300039e-01 2.917353494061190045e-01 -2.634242673231448895e-01 2.000505911779099089e-01 -2.645728841588303459e-01 -4.029213300311261237e-01
-3.675438048051951623e-02 3.758953349135829014e-01 3.178762317552559225e-01 1.818320222205124237e-01 -5.321339621899718458e-02 2.232659309084037980e-01 -3.229978117244203251e-01 1.838771179615806273e-01 -5.430559968730688716e-04 -4.155299736146603751e-01
2.503306777795284432e-01 -1.879592095330738510e-01 -1.566516009233613338e-01 4.520216372487145806e-01 3.869837875987618969e-01 4.675366752533712811e-01 6.916662840306981863e-01 -9.404518505499347147e-02 -2.907977950867656758e-01 3.416571424286177217e-01
-5.110098607871116361e-01 -2.147254032657343326e-01 -5.470083132491244254e-02 -7.378637452105047366e-03 2.650886884224997186e-01 -2.378195530533793178e-01 5.788285968705507087e-03 -1.842103505640909633e-01 -2.860054021583977590e-01 2.399810999119229571e-01
-1.660308798267442765e-01 -6.615647364251889262e-02 -2.425486051640742269e-01 2.329108944501241396e-01 1.741321457946002904e-01 2.908932812899065468e-01 -9.735677078119917005e-02 6.255292941898779602e-02 -1.586836802162252310e-03 -4.362653338177984591e-02
2.123975599307191264e-01 2.407088301527695318e-01 1.724476594791168882e-01 -2.150823288817107770e-01 -3.651597794406142294e-01 -2.425402658336412443e-01 2.335837778228007922e-01 -3.130296895079493491e-01 3.509889357298971446e-01 6.449601884516346917e-02
-1.941863368987582742e-05 5.347186735629607668e-01 -4.410951187906618776e-01 4.749903504709669377e-01 6.462119084440755001e-01 1.769100054887941809e-01 3.234223795805832857e-01 2.757604514959380304e-01 -4.689033344322369734e-01 -6.461648056974722554e-01
2.817330161971611791e-01 -3.709887104804561742e-01 -3.930623098388232317e-01 -2.324847687125515816e-01 4.706163649420592732e-01 -4.711171212652440210e-02 2.090365976545321622e-02 5.170841829970319603e-01 2.617083781614784055e-01 -2.438831217574856658e-01
-6.739290140876431912e-02 2.967975624730251893e-01 -2.510279675288225043e-01 1.816434777022794822e-01 -5.121650717409770293e-01 -1.679069551984766762e-01 3.092607812345661844e-01 -2.789975082077839064e-01 6.674339601613680228e-01 4.501225992308658941e-01
-1.680314661727395215e-02 9.499892234542726965e-02 2.162406386873982067e-01 2.088924031476565302e-01 8.667409468007472584e-02 3.609312402282995880e-01 1.704702440936071151e-01 -1.085200686791567559e-01 8.895448695785668214e-02 2.601480278368445420e-01
