6.281961983774226876e-01 -7.915422878745431712e-01 -1.144493419265149164e-01 -6.187153433338475894e-01 3.211468744248676677e-01 -4.557513890758310149e-01 3.527321493617538439e-01 5.919186675405045950e-01 8.053343480027272960e-01 7.070421989924436934e-01
1.490122946347736677e-01 1.206170318407125686e-01 -3.859453114414291286e-01 4.046642773372413626e-01 3.949486399216457500e-01 -1.071140245806977420e-01 -2.524006194433638384e-01 -4.300919699238706650e-01 5.159235824559772476e-01 -2.688574943746213641e-01
2.779708435452955539e-01 4.413163381245645001e-01 -1.998084130001630265e-02 6.554463358816922103e-01 -5.667430687445859094e-01 -2.937443986375896099e-01 5.540255287190628541e-01 2.534190252999217741e-01 6.820479201338323083e-01 -2.662228414460375836e-01
1.767507795254535941e-01 -1.571201775141292112e-01 -2.988807629533675458e-02 -3.311480416756760331e-02 -1.302078821278243870e-01 -1.080515589535557541e-01 1.596247775125578527e-01 -1.292664978177960056e-01 1.160637040523289781e-01 -7.056667190494383957e-02
-3.794835777350108203e-03 -2.401945148222334528e-03 8.116205967571446522e-02 -2.617690925934574447e-03 8.249709688909501182e-02 2.622121468148869150e-02 1.318504900757130546e-02 6.052104755411130688e-02 1.334149429635549805e-02 3.866007906862475862e-02
-4.455966065655429520e-01 -7.467447772053278365e-01 -4.072125869598521714e-02 -7.939163098820936071e-01 7.015180214431651073e-01 -6.938940969573720308e-01 5.530621125353081258e-01 7.121946827012273218e-01 6.743217179033320630e-01 2.297063327561018886e-01
-5.196343296750101023e-03 1.681545533915076995e-01 8.036033481825154146e-02 1.054487254326666110e-02 -1.428573878712207507e-02 5.875299018158379807e-03 3.820285126924982677e-02 1.477440800809698591e-02 7.183371170437405362e-02 6.369698991229271433e-03
-5.348075039765441963e-01 6.800886975286900560e-01 8.257295397320152386e-02 6.852189361200419215e-01 2.255610850139201373e-01 -3.245044636684369932e-01 -3.837712635029517094e-01 3.201068603010078228e-01 -6.045809235589353348e-01 5.596248778933116119e-01
-6.983570315195521128e-02 5.906970831210416328e-01 5.496028270580504138e-01 -5.612535490201961963e-01 -2.796113688186712687e-01 3.685348327263853752e-01 -4.151038170945640648e-01 7.205599732196962259e-01 5.174520452253049685e-01 -1.896939040839600576e-01
6.833794080133550643e-03 -5.520480020965911651e-03 -9.855987928331784789e-03 2.881625701038295281e-02 1.035391880183344909e-01 5.407284775169008545e-02 1.310040646764405216e-02 4.240591036963931720e-02 2.713458690834717746e-02 1.105558227967884388e-02
-8.683767225073375090e-03 1.111195548580974496e-01 5.107113881952161927e-02 -4.883062470518207548e-02 2.021444306806403080e-01 2.566508585389164557e-02 -2.712368949624551634e-02 7.420814044394048736e-03 2.618726080357797192e-02 4.517846698665877597e-02
3.422650339332204417e-01 -3.188772860037702994e-01 5.954452055972604407e-01 1.864059920805420378e-01 -3.493787648804688728e-02 -2.090146025948462494e-01 5.402654387566315775e-01 5.067661601232124058e-01 -4.532635334821918938e-01 4.087006072466063400e-01
-4.214601249551058193e-01 -4.413347742797706086e-02 4.406828028295801669e-01 5.791890271487831754e-01 4.673242990751066417e-01 -4.555058759938420132e-01 2.075048974030328230e-01 -1.357041034288359871e-01 3.157298210139727890e-01 -1.273977329748652021e-01
4.146768589719582732e-01 2.022749443590676766e-01 -4.651586756488243490e-01 6.350015135717120840e-01 1.744146435306191956e-01 5.307939520688909757e-02 7.440986460957683679e-01 -1.598822961184359071e-01 4.120393782078149436e-01 2.891416685607117731e-01
3.106287438299134562e-01 -5.499713082828779909e-01 3.632752641796790360e-01 -2.359754083575725525e-01 2.918625642469607762e-01 -1.800748558765369045e-01 -4.541489388030963137e-01 -1.670144689607461486e-01 -2.014517571295238452e-01 -6.817500130054875429e-01
-2.631813128949720033e-03 1.538312319727262560e-02 5.635989076869161313e-02 1.376933229467447797e-02 1.628132724582980959e-02 5.237714350297786869e-02 4.832256558624292708e-03 6.338285470390671653e-03 2.057781778665949621e-02 4.103180261511169685e-02
-3.855152735442677336e-01 9.460504100758458657e-02 -5.245839820228518358e-01 -4.477374589001665850e-01 -1.444499523704833796e-02 1.871375806185135993e-01 -4.412257168514695932e-02 3.532823865495905435e-01 9.195429779486767596e-02 2.432606124558059635e-01
8.297674749151705553e-01 -5.337672732826990174e-01 -7.693720616819722524e-01 4.700892775535553403e-01 5.960032698542130358e-01 3.149311562539319209e-01 1.115673328468207576e-01 6.657051885012981174e-01 8.042207126712860310e-01 -4.411909272436866369e-01
1.326416402547212544e-03 4.152630376909704352e-02 -5.879796497011804401e-01 -4.763643327153780360e-01 -5.774932881961334363e-01 2.848734275246066483e-01 -3.635487765914094949e-01 6.720412331251731652e-01 6.693600908998335874e-02 1.282141473651979453e-02
-3.245721164520835866e-02 2.254550502739007256e-01 -1.286827556756327817e-01 6.091702111035219441e-02 1.871784307859606089e-01 -8.462994874932706912e-02 -1.844116371687685718e-01 1.213787670276398889e-01 1.330145269439673705e-01 5.635614304871491842e-02
-5.801078209884884956e-03 -5.385307986756737719e-02 -2.293683201731998855e-01 3.566939950450688235e-01 -3.991337719169271714e-01 -2.616510728122137253e-02 1.709230981857456089e-01 2.052630904631881914e-01 -2.975302939333727692e-01 1.665107810694839430e-01
2.719051418781026630e-01 -9.079961825045948509e-02 -2.082300516037440818e-01 3.971155413026481451e-01 2.608476034773045682e-01 1.620817665189981105e-01 2.039905804231189612e-01 -8.994993169723182469e-02 -1.234327423467842383e-01 -2.124467354617076142e-01
5.575374941575581694e-02 4.049970594294610149e-01 -1.870253624734648235e-01 1.664524790099360940e-01 2.468083650057171785e-01 1.262686843132515835e-01 9.896950044608338048e-02 -3.941929106907059860e-02 2.375962862003640208e-01 -6.830106246525853575e-02
5.222585594812255705e-01 1.115854560764308334e-01 8.166443085471896124e-01 -8.842753742747364587e-01 -3.956878409526817797e-01 8.720260869449047991e-02 7.579989810787812754e-01 -7.725769304831525686e-01 -2.091842334792914926e-01 -8.074626108548250691e-01
-6.266975724718650831e-01 1.823621234233957500e-01 1.304116823924678266e-02 -6.639940960673895720e-02 3.360506904085707180e-01 -1.323876834124185220e-01 -6.818270260970283880e-01 4.607762462004002524e-01 -6.512520788746251066e-01 -5.965811621354688565e-01
1.080673233709401708e-02 -2.451213495416674007e-02 -1.656060079646255734e-02 2.421112097212723691e-01 -4.814758403828733879e-01 4.109997094104284043e-01 -2.026036925965148672e-01 -2.454419125390663523e-02 2.148953718806855817e-01 -1.158064753029351551e-01
1.707820505376583531e-01 -6.254499605589085576e-01 -8.078334149014940735e-01 -8.181398881938586887e-02 -3.100818895146078558e-01 -7.991510136494831551e-01 -6.671805429110200247e-01 -7.253176757969814759e-01 8.636444552208984993e-01 -5.173592396194884868e-01
3.677932504754065079e-01 4.725795730800570471e-01 -4.058422482747249538e-02 -2.680296651990993761e-01 4.402489698304357102e-01 -2.739120729091198414e-01 5.121791310375777284e-01 3.509038567939782860e-01 1.541891741036176544e-01 1.383525789715608911e-01
-3.189340951463169871e-01 2.918204726379924896e-01 -3.603964430101162103e-02 3.175518128071608964e-02 -6.892992285908674521e-01 -2.349120896173644557e-01 3.324873398077447528e-01 -6.515547658964055966e-01 3.846462759602042869e-01 4.677010944878243572e-05
-1.707799540058451693e-01 4.733222849189534509e-01 6.112483255141232252e-01 -7.292068298096233969e-02 -2.069853683119824705e-01 -5.376110927138787465e-01 -2.579013120686463600e-01 -4.039109755449933337e-01 5.165845151076619013e-01 3.551025199468341165e-01
-3.801539877068265683e-01 -5.375467386089456401e-01 8.693861182580023828e-01 6.503701790549523132e-01 5.092975957568905976e-01 -1.410425559866979039e-01 -6.748992611542122821e-01 -8.360536635068839539e-02 -5.764405607536459142e-01 -6.630569087620971080e-01
-6.685446409549918034e-02 -1.096822022254962115e-01 -6.904304779094644351e-01 3.332213318748458719e-01 -3.807538880762498246e-01 -5.766616256269179175e-01 7.958415363736427439e-01 -1.529135267125537323e-01 -1.317632027674958684e-01 3.558951506927239272e-01
-1.493366314749755563e-01 6.059254047281712463e-01 -4.881843036503168420e-01 -6.684478978946303274e-01 2.555063819705430395e-01 1.323582431870834464e-01 -4.401749485176026377e-02 2.583389091865060383e-01 3.158021327095126840e-01 2.468630096295287846e-01
3.089462466251714501e-01 6.333169515311970477e-01 -2.221505646949474277e-01 3.522552830201655105e-01 -6.092320797642575281e-01 -5.777278338548628156e-01 1.098336266757458241e-01 1.920037230754155222e-01 -1.170409476699378615e-01 -4.399971408635880987e-01
-3.432065762571892553e-02 3.190485642179866632e-01 3.507508186992375765e-01 3.131004228107018839e-01 5.172926652642063639e-01 -2.779650375024141362e-01 -3.697610484583759849e-01 -5.289140391755671466e-02 -5.640243680261998183e-01 -6.202279970565315742e-02
-3.534223199864542919e-01 5.877323250071647687e-01 2.763899912582397644e-01 4.286599943893982800e-01 3.987716332883837200e-01 -4.533115093558920394e-01 3.553089364494890767e-01 -2.578898361295348662e-01 7.155946726300863592e-01 -4.216782608079755468e-01
1.038343717419724782e-01 4.870029697482113756e-02 3.470197646750930454e-02 9.573315405502219252e-03 -4.992939133645412503e-03 -1.527556253364150719e-02 4.655741191115723965e-04 1.945686436920097129e-01 -1.322410118724548500e-02 -3.313445421511998848e-03
1.221795521473250240e-01 -2.871549177903096745e-02 -8.890999699169732651e-03 -1.519537519285455163e-01 -1.910236582817953777e-01 -1.315967030433511965e-02 -4.845192366885189145e-02 7.776571020692882308e-02 -1.067846378508304911e-01 -2.568945216038174828e-01
3.824913332572741353e-01 -5.487091070109182400e-01 -2.850158985706942039e-01 -7.031759268184265554e-01 -6.882278664410652891e-02 -6.932621897234068076e-01 -2.039646327721352514e-01 -6.343263210902329030e-01 -2.096614956400128654e-02 3.142482666025144256e-01
3.364705562951664924e-02 -6.918493086165691808e-02 -5.832702821247579862e-03 7.794918422433145828e-04 1.774311011596990117e-01 -7.323524235214932260e-03 6.774974930681385010e-02 5.055994022800966436e-02 -1.311922453133862465e-02 5.659780637785249979e-02
1.121640236583977268e-01 2.453418854588789721e-01 -3.119617926555172741e-02 1.248482275275003689e-01 -4.078314984872531690e-02 1.534184125103552898e-01 -2.646032547015325642e-01 1.741478933244173244e-01 -4.869100589821597283e-03 7.215042765637712241e-02
-3.804067145417743823e-01 -4.018376206814375240e-02 5.792799154854226806e-01 -5.101693170201147126e-02 -2.527246937557226514e-01 7.102540465276292458e-01 -3.181677883964746933e-01 -5.159728372777647731e-01 -4.078226520029228364e-01 5.445922076832940828e-01
5.803723409300683977e-01 -7.549055578267378774e-02 -2.596647909976927959e-01 6.618580171182779637e-01 -2.619443406337539360e-01 2.617181115843473377e-02 -7.756084071311342143e-01 1.503449773496961517e-01 -5.354963600197543139e-01 7.418671807448858901e-01
2.414113992439394507e-01 1.621777420250724022e-01 1.293647564428051545e-02 1.120124404412533997e-01 -6.952169864818219525e-02 9.014758359195297610e-02 4.737823636020203899e-02 4.722729001724688264e-02 1.107030272260781517e-01 1.319145814160581354e-01
-5.198428496596165793e-01 -8.462425910039613752e-01 1.554608356315109186e-01 6.036274541599253585e-01 -2.753446338712930430e-01 5.896561214795117412e-01 -8.403376754000329019e-01 -6.971817286836842764e-02 -6.876850755532694093e-01 6.391912882326151735e-01
3.287372391201750024e-03 5.076520627377675149e-03 2.148347497423358163e-02 -2.284892636659635948e-02 5.359634268205190621e-02 5.063870943916687350e-02 -2.353877818795400631e-02 4.089636464454218107e-02 -4.670360286816362810e-02 -2.189138012665955632e-02
1.984925555547956688e-01 -2.349353289147950996e-01 -4.369158427550898782e-01 -2.994126036005176350e-01 4.348761715545366169e-01 3.654661121861950690e-01 -2.091401766169423970e-01 -5.284884821816200340e-01 -5.154578472386133203e-01 4.893625615033643794e-01
2.765013969957368367e-01 -5.050597043573342715e-01 -2.062681564346627999e-02 -3.361674614165839903e-01 9.788115188623927598e-02 -2.898710767447763015e-01 -3.852852243538928967e-01 -6.217537916923421282e-02 9.094078592527921057e-03 1.765648665668107242e-01
-1.067132393794414519e-01 -2.742634111794162166e-01 -7.519246702814211258e-02 6.582766933439623824e-02 1.843301764265248277e-01 2.055821276803809494e-01 2.249231301086287715e-01 1.859621503332208048e-01 1.161135173939147197e-01 8.831106165153683463e-02
-8.559899186545192329e-01 4.488764072754788947e-01 8.840742612343646667e-02 7.401583099125311760e-01 -2.688831353094524035e-01 -3.179347448068424176e-01 -1.515038433937436202e-01 7.619912668431094716e-01 -5.127160987474834591e-02 1.401158035154035364e-01
-2.412462257149166622e-01 8.390746892047207250e-02 5.651062915232264450e-01 -4.027743188804164265e-01 1.992236337687254000e-01 8.061721413641754763e-01 1.950667691909632739e-01 -7.678902957489514361e-03 3.365417228157159268e-01 -4.146362976586483451e-01
6.026732585965832202e-03 1.105518414884578138e-01 -3.288244277646139996e-02 -9.401498786965595267e-02 1.123132055615385094e-01 -1.541212251108946829e-01 9.055104152497726877e-02 1.128923263162385365e-02 -4.122596604799366043e-03 -9.696425862590368761e-02
6.319994859702141032e-02 1.815825416284982258e-02 1.975905584553676597e-01 -1.695926920867755691e-02 -2.412627622643187530e-02 -4.074575412879059139e-02 3.241849250479209629e-03 3.127319866449312924e-02 -1.089401068545022416e-01 2.242291010132062973e-02
-2.851426677938272425e-01 7.626680977215880564e-01 9.139178755615341432e-01 -6.202308100544714486e-01 -1.044932702122077367e-01 -2.484038237833205709e-01 -3.175769004452648203e-01 -2.265292627423270422e-01 6.794686515618627576e-01 -3.975879428340901023e-01
-3.377264395859245760e-01 -4.366863748376908494e-01 -4.449487643664350456e-01 2.740711771587344692e-01 -2.329385124788138361e-01 7.286028274316685982e-01 -2.082616528392398636e-01 -5.145749016085757743e-01 7.491725533935614245e-02 4.379210122966524787e-01
-5.075763938246390383e-01 4.419378344868625241e-01 5.393781546175485664e-01 -3.210277691086270702e-01 -1.556754157442581110e-01 3.177494951887832597e-01 -3.198826458237177817e-01 2.311649261154866408e-01 -5.809904568221921917e-01 -7.118467406639426009e-01
-2.341578786938899037e-01 -4.524868090228577611e-01 -6.237259661255143417e-01 -3.840054688880565892e-01 3.784084612691407945e-01 -5.359431267354415329e-01 4.723108609384785161e-02 -3.166582090021968776e-01 -3.662011017516978995e-01 1.459610917184248069e-01
9.734730597149890419e-02 -3.965791866503705354e-02 -2.323736482002016490e-01 1.617249671390999788e-01 3.117063753874143098e-02 -9.294846889646322941e-02 6.458707001677951864e-02 9.733026346131871953e-03 9.219049172839033357e-02 -2.103010680019144207e-01
-2.544141921697236630e-01 1.633056298053827404e-01 1.975619439631593199e-01 -1.458604479363841688e-01 -5.749631282887031070e-01 5.608924242459898402e-01 -1.225683486442472742e-01 4.371016999076152709e-01 -1.756019867567725490e-01 -5.478053331076494503e-01
7.938043604335004444e-02 2.719229501679886266e-02 2.057626197457459657e-02 6.667217368846276027e-02 1.047658137863726607e-01 -1.055501687221721552e-02 7.798351550784284741e-03 2.342645973054291453e-02 -2.410614756585367866e-03 7.226347014030525158e-03
-5.654603715299030275e-01 -2.822961606453958661e-01 -4.561752706434699101e-01 6.325299087009288446e-01 -4.839154002068241089e-01 6.913775103155850310e-01 -3.440840040286301527e-01 -4.564126290294489574e-01 4.821690080254710242e-01 5.612849000806763300e-01
-5.398896169229272513e-01 -7.970970820269158985e-02 3.621489726623701166e-01 -4.034500573158002722e-03 8.202696599911841746e-01 -2.675116538960567447e-01 -2.277029799134106802e-01 5.789332777619211612e-01 -2.556344402095300783e-01 4.227537515913445398e-01
-4.650819300726713457e-02 -2.916266338622535217e-02 3.651670026336739650e-02 5.728777909563538551e-02 1.132994064346911148e-02 5.628855652436749041e-02 2.653593457172310349e-02 -1.314304737277035597e-02 3.805225031078478520e-03 1.183236476050284480e-01
-9.367463300102323032e-02 2.346262353162116010e-01 -1.900073192764388519e-02 6.974458403265532125e-02 1.627859854657726368e-01 4.813259750041891383e-02 -1.368755730317096075e-01 -1.354273005958850640e-01 -4.493513942487162294e-02 -6.457548205310396916e-02
1.044818126251017415e-02 -7.091996054021086626e-02 1.743518542629180976e-02 -1.658412206975496406e-01 8.999783620268116124e-02 6.551423656734790824e-02 -8.323458394941739280e-02 -2.268736458363018182e-01 -2.722462729695594441e-01 -5.315013354322358774e-01
5.184061001351593090e-01 -1.036945239299106730e-01 -5.266364968336829655e-01 -5.601927647399873589e-01 1.229245697012475436e-01 8.632000425912786379e-02 -5.130048661833217505e-01 -6.806415225724518625e-02 -6.194352880399552896e-01 5.109805320545519614e-01
4.611999038398938433e-01 -6.363213589026722738e-01 3.783406763896765557e-01 5.747997244227424085e-01 6.292842647644502074e-01 -3.055101078875827048e-01 4.009431689160044554e-01 1.719086840140253980e-01 -1.265224264619732933e-02 4.827144795479024197e-01
4.196554133269946862e-01 -4.465445333749357704e-01 -3.790121354131611997e-01 1.660391991394587763e-01 -1.395474444696018779e-01 -4.136541768988200585e-01 5.032465971819369832e-01 4.226976033859194404e-01 -1.275191120536385003e-01 1.120093430944160001e-01
2.125820415414404752e-01 7.906207600467018981e-01 5.095673300195071587e-01 6.025118618485811872e-01 7.222737893186251812e-01 -8.031504300759133574e-01 1.674390876923820826e-01 7.928688551108132865e-01 3.089495359496274851e-01 -8.702827180595354983e-01
2.708748938767436276e-01 -1.138555374966303546e-01 5.305554543514600513e-02 1.347190154812855367e-01 -2.041691798264129443e-01 3.514137506071350892e-01 -3.080294142493379683e-02 2.409233835554886183e-01 1.386395122944156233e-01 3.472542824498895953e-01
4.325083963069755177e-01 -5.390171406401245147e-01 5.568568322055158504e-01 -3.540650873649417441e-01 -1.773152255770949759e-01 -1.604802751954983175e-01 5.560955755953584934e-01 -4.458333154040686752e-01 3.267030183496634210e-01 -2.322478623197755387e-01
6.766387347234890104e-01 -2.550036001543870556e-01 -7.074584532560286299e-01 8.932583712407800025e-01 8.626010642852723065e-02 9.341072077569158028e-01 6.929450204352914922e-01 -2.708447988666320971e-01 -9.290677505436950590e-02 7.890342439403916774e-01
-2.182055852138725938e-01 6.918685537201293805e-03 6.356572687803070665e-02 -5.213715576285344877e-01 -4.267291689522287879e-01 -2.364652247346838709e-01 2.170409414313779761e-01 -4.057078244843512205e-01 -2.960689488154601978e-01 1.428482849149836365e-01
2.060800323820672752e-03 4.644186676908947792e-02 1.723951469894839314e-02 8.043888053842486452e-02 5.766901541053873204e-03 7.387266022021631018e-02 -2.302936806562247331e-03 5.498369909460223970e-02 9.042043328741098188e-03 1.562878430291281609e-02
-1.264574338370289819e-01 -6.032645560663635331e-01 2.758836556330468426e-01 3.311099185123993205e-02 4.913837388164813968e-01 -4.560975694679693659e-01 2.469902563147671204e-01 -3.981951328475882845e-01 7.146955688346480207e-01 4.418514992292267296e-01
-4.830294751085283944e-01 6.748906247443869910e-01 -1.036470544355416884e-01 -1.628056233503376304e-01 4.555939753897337852e-01 5.137014275547948650e-01 2.685757850014847126e-01 4.595883265635299919e-01 -4.627516943669676142e-01 -3.979445261494221064e-01
-6.516961448360847342e-02 -4.138430710478699925e-01 5.481984212964962494e-02 -5.779265065113339123e-02 1.539741255608626791e-01 1.776645673259824865e-01 1.129439471374906884e-01 4.089874674472971372e-01 -2.717224702810482895e-01 3.256723054551368124e-01
-6.774078369556402190e-01 3.952169971847496188e-01 4.481613537513934875e-01 7.199267581405092153e-01 1.306627179110720627e-01 5.890234327607923870e-01 -1.913518161256024253e-01 -8.455664939669826907e-02 7.054197258135040949e-01 9.197135274086049028e-02
-1.490455970286428122e-01 6.238829338448257378e-01 -5.614610852649887240e-01 1.914934212269855662e-01 3.063025306347522125e-01 4.259721161733507344e-01 3.999962027403931586e-01 1.154962424535643101e-01 -4.287268468908513736e-02 -1.581436504141915389e-01
1.146374595830602049e-02 -5.784278977559479014e-03 3.189116941903674673e-02 5.372749466325107276e-02 7.521521908529180123e-02 2.201669952685800236e-02 7.465771368081637605e-03 9.423608304828874627e-02 3.997469623306561942e-02 4.568042835666763501e-02
-4.907740856713239674e-01 5.993391076806989792e-01 -4.900964763129436186e-01 -5.609269456644948477e-03 5.723016635710286293e-01 -7.475760243014334394e-01 -7.993199875936752852e-01 2.622253510501396656e-01 -3.389359474272941597e-01 -7.029622738049884356e-01
-2.119159092916977072e-01 -1.565157989581417164e-01 8.028220304328255452e-02 1.386980477871176398e-01 1.410725500371926844e-01 -4.130462998223229376e-01 1.105942996721705068e-01 5.751896768733030241e-01 2.052394096457134942e-01 -8.232324380577549228e-02
-5.440346746798727651e-01 1.967546179740425338e-01 -8.097177586721188147e-01 -3.330487947860502618e-01 -6.752593385923132407e-01 7.872985067108023705e-02 -8.324087713999444027e-01 -5.071967104807336701e-01 8.002520477023143952e-01 6.870507482407585131e-01
4.720581706813284373e-02 2.889397449097575593e-02 8.358143689391832332e-02 -4.350251944349713823e-02 1.976010550000070407e-02 3.235238036063145528e-02 3.518869943255341359e-02 3.643495443918522841e-02 -9.478369908634917034e-04 1.368272088815767652e-02
7.458705859497054280e-02 -2.038222548321069472e-01 2.925616585608677989e-01 4.334549106524103745e-01 -4.831380014245814647e-01 1.857518354054527032e-01 2.244880101971669373e-01 3.741181748238196075e-02 -4.940993114466268321e-01 -5.555431554496355062e-01
2.111831499519108146e-01 -1.126915413402438948e-01 2.116451841288112257e-01 -2.815129323204619213e-02 -1.916126188037757805e-01 -2.271000546758838168e-01 2.284678013732764079e-01 -2.405902432467071916e-01 -1.073418462587115846e-01 2.783745514337884197e-01
6.965874996104772787e-01 -4.800067597142496090e-01 4.768107666434427960e-01 8.245664027971945087e-01 6.134338418863266584e-01 -3.286057964064608566e-02 5.271073115515410024e-01 6.936991257145688206e-01 5.925104809504502246e-01 1.054216590755478744e-01
9.686192528248316336e-02 1.150679030138669345e-01 4.730650366134541152e-01 -1.432711027427303885e-01 1.860691808280676429e-01 -1.967719714270984854e-01 8.840595916783948460e-02 2.647767695294817036e-01 -3.721457333867707051e-01 -3.559610970848877676e-01
-3.568852938570577504e-01 1.337312484284524372e-01 3.852057722816958907e-01 -5.816063857190050257e-01 5.703612611029941215e-01 -1.208510052210066688e-01 7.210846816995197806e-01 -5.607894607941522613e-01 7.488327770147253093e-02 -4.131650176742349134e-02
1.551454646734407861e-01 -2.149045597113542483e-01 -4.096912173883853203e-01 1.271472226264108892e-02 5.157161575822505339e-02 2.837202807604190247e-02 3.730771537018168771e-01 3.790240471036553926e-01 -2.818329097404169079e-02 -4.836795496033781672e-01
3.044443683986053917e-01 -6.139858818501895410e-01 -4.688685952688805281e-01 3.028720342034642993e-02 1.541510742847840287e-01 2.915916790781192813e-01 -2.633796749819251048e-01 1.999094410021059476e-01 -2.637254426087226045e-01 -4.027749254553114611e-01
-3.662742254118563079e-02 3.776355279337094695e-01 3.170865098143755834e-01 1.812121779438261859e-01 -5.134537655938034573e-02 2.233836276886102257e-01 -3.223166966350625162e-01 1.833846997925681899e-01 -6.088732753084813171e-04 -4.144927086859576670e-01
2.500816250658906559e-01 -1.879046816073948745e-01 -1.562025190913302608e-01 4.514219828089072739e-01 3.866639099342693009e-01 4.686460684585707637e-01 6.906103646430145071e-01 -9.478043897458815481e-02 -2.889573158285962395e-01 3.424904698420725424e-01
-5.091739366398390088e-01 -2.116738386343450795e-01 -5.554438920426199577e-02 -7.412035209682056418e-03 2.643691120236774106e-01 -2.297337339735452955e-01 4.323238716824624912e-03 -1.834923947157250657e-01 -2.859052667302953155e-01 2.370021043945098327e-01
-1.420181535599084333e-01 -6.008994113173958540e-02 -2.139029575717117937e-01 1.978277914154338846e-01 1.617845476624278356e-01 2.398088561333041324e-01 -6.147982392492849779e-02 5.514708030047350829e-02 1.673352385787964854e-03 -3.154958261935181252e-02
2.107519452784411274e-01 2.418497892118590398e-01 1.714304802384379600e-01 -2.133244400056640289e-01 -3.640768219273803896e-01 -2.429413776287201732e-01 2.376055499442721319e-01 -3.089786813819139222e-01 3.495544857665728311e-01 6.534528769829936468e-02
-1.988993831340745365e-05 5.350846462293999961e-01 -4.410900624072777165e-01 4.749581331959797370e-01 6.461783032187740083e-01 1.768831221831684009e-01 3.234150086245875522e-01 2.757396422721544726e-01 -4.688949312703969974e-01 -6.461554652255355746e-01
2.803064853099230813e-01 -3.690983512426450619e-01 -3.876604386443195382e-01 -2.313245853088548853e-01 4.682781082605685374e-01 -4.280166553202020829e-02 2.083446932180311670e-02 5.144649063116170096e-01 2.604976811430929629e-01 -2.426742815570257783e-01
-6.621955578086821670e-02 2.962482409594843213e-01 -2.508610979703014832e-01 1.818358569222126020e-01 -5.116332408391877085e-01 -1.680180423789196242e-01 3.094454052239570263e-01 -2.794633566245194323e-01 6.668650387262400336e-01 4.496076609788456913e-01
-9.042747842433961417e-03 9.304804480768119612e-02 2.105422975132775210e-01 2.042426057091399072e-01 8.969112112407717774e-02 3.526457369242680384e-01 1.683737318684337958e-01 -1.088142521043482802e-01 8.621391149437215851e-02 2.521810644083198327e-01
