6.281521085341348343e-01 -7.912036577070590271e-01 -1.144595483533222130e-01 -6.186696337023199765e-01 3.210776952957851704e-01 -4.557711245331135808e-01 3.527972080720750414e-01 5.919023167696709775e-01 8.053850436706687654e-01 7.070085897217975868e-01
1.489524146296573870e-01 1.206338686138031108e-01 -3.856542077626790577e-01 4.048329193387026348e-01 3.948883569995448872e-01 -1.070401295499093797e-01 -2.524198117343282033e-01 -4.298541850213483673e-01 5.158904359448847066e-01 -2.688845728565292803e-01
2.779005951912324468e-01 4.412915635196483777e-01 -2.001185996084725235e-02 6.553810769947677750e-01 -5.667177631258689674e-01 -2.938029325299272299e-01 5.539190527736717051e-01 2.535796062884643765e-01 6.821440728606756876e-01 -2.663608316432590772e-01
1.798675352393988291e-01 -1.505264704797058539e-01 -2.464103806159913951e-02 -3.025899957543691163e-02 -1.245603128413059757e-01 -9.623805258313263000e-02 1.508563833296373002e-01 -1.227340333623230945e-01 1.088322718666558664e-01 -6.558608128613015176e-02
-6.585306906714792630e-03 -2.722428816209129625e-03 8.496034101128679961e-02 -4.462347092395659888e-03 8.120442436327966751e-02 2.329687157900983685e-02 1.193509496564409099e-02 6.771649756688649657e-02 1.590751482759044863e-02 3.806184996049827990e-02
-4.455957569992740064e-01 -7.467231512768680579e-01 -4.072269216280013926e-02 -7.939313145675739314e-01 7.014986321818923454e-01 -6.939109681754059844e-01 5.530577719724389940e-01 7.122701349342919208e-01 6.743120962811626207e-01 2.297000067230449416e-01
-4.911864775713998404e-03 1.680443186738345418e-01 8.741084994570855193e-02 1.374628070726486781e-02 -1.426354362872802109e-02 6.365131815383819058e-03 3.823212329067295079e-02 1.532033680960894796e-02 7.282556188131876496e-02 6.747550466067888005e-03
-5.348080198398111884e-01 6.800827611088314795e-01 8.265438904680885712e-02 6.852099219222724802e-01 2.255508396372390700e-01 -3.245031899932078190e-01 -3.837693429972054426e-01 3.201020812656723558e-01 -6.045776856752991257e-01 5.596203295472332861e-01
-6.957708730204743841e-02 5.905707522989792624e-01 5.496323272700440743e-01 -5.612927400048868254e-01 -2.799097646480392387e-01 3.677542900904627321e-01 -4.140303248917381884e-01 7.201403999653516186e-01 5.174316960125905362e-01 -1.893069693731516401e-01
7.095484589895588098e-03 -5.795059724305290198e-03 -1.164365926986831758e-02 3.229246057587156771e-02 1.077701759082957261e-01 6.009985926384462523e-02 1.280247697801370141e-02 4.141022121417582691e-02 3.329780591546448176e-02 1.325600475214480309e-02
-6.643270717434202922e-03 1.147221551202042278e-01 4.889651127662186098e-02 -4.649501467558495721e-02 1.991150871602210548e-01 2.766350416786634431e-02 -2.518199845334707226e-02 8.976780112746144194e-03 2.686186217993441830e-02 4.378504021752442632e-02
3.422648439164392986e-01 -3.188771089712678086e-01 5.954819020039225919e-01 1.864058885927092624e-01 -3.493785709143264889e-02 -2.090144865552918951e-01 5.402651388150965239e-01 5.067658787796189834e-01 -4.532632818418865228e-01 4.087003803464963614e-01
-4.214036795368068522e-01 -4.415989873901914053e-02 4.405983488532907999e-01 5.790883040161987072e-01 4.675365868360252253e-01 -4.550502660475254091e-01 2.075013912732996124e-01 -1.357203941292855487e-01 3.156998568652283899e-01 -1.273581887633472298e-01
4.146688184297041557e-01 2.024051199456775585e-01 -4.651315082044771843e-01 6.349525885031657157e-01 1.743017713646721478e-01 5.295556269519307441e-02 7.442480298911555714e-01 -1.599169183085487056e-01 4.120225637403246988e-01 2.894179907418301112e-01
3.107327194308224794e-01 -5.498917461681264163e-01 3.637096007836487788e-01 -2.359819498995790743e-01 2.921144453232173421e-01 -1.800550695176963978e-01 -4.541610847597910561e-01 -1.670713519158148197e-01 -2.015238441302494021e-01 -6.816713949186827826e-01
-9.976935081976248416e-04 1.596833163829632779e-02 5.614233706292335452e-02 1.858807817702785511e-02 1.391763739385906001e-02 5.961821578924138970e-02 4.230518461253469399e-03 5.812439409088738553e-03 2.437374463824908480e-02 4.533849180178423088e-02
-3.834139349417471920e-01 9.436507523659749819e-02 -5.221681114468191831e-01 -4.454755579084097028e-01 -1.494903546572164121e-02 1.856318581254471634e-01 -4.508487278920995933e-02 3.517363142245876761e-01 9.077641653468621064e-02 2.424180770033920740e-01
8.297674737614654239e-01 -5.337672725405513408e-01 -7.693720606122405048e-01 4.700892768999452298e-01 5.960049269312730491e-01 3.149311558160529656e-01 1.115673326916980235e-01 6.657051875757044046e-01 8.042207115531011530e-01 -4.411909266302567190e-01
1.322568222980209261e-03 4.150654157967240132e-02 -5.878510346201342163e-01 -4.763623098305566073e-01 -5.774927300419306908e-01 2.848625070701275575e-01 -3.635460869765778091e-01 6.721147487362011397e-01 6.692501409609241669e-02 1.282408343811072653e-02
-3.146590345308634268e-02 2.221035961530289371e-01 -1.271224626769522081e-01 6.100354788963278929e-02 1.876630793731099978e-01 -8.384857511343572767e-02 -1.811209268368200453e-01 1.188301839884398636e-01 1.311784485469357497e-01 6.022151863108909237e-02
-6.424158633902507000e-03 -5.440900759318577362e-02 -2.289043456767219098e-01 3.554000097555421456e-01 -3.979462366800723405e-01 -2.664422867245426138e-02 1.696065479062845716e-01 2.075691184848007242e-01 -2.959523276228675503e-01 1.643760788325286382e-01
2.712164623561116872e-01 -9.048244048855869082e-02 -2.046480815649116269e-01 3.963037442284458312e-01 2.598614408737963122e-01 1.616456197700631425e-01 2.030415613730771618e-01 -9.000831830371748554e-02 -1.230000480890452302e-01 -2.123187493950196292e-01
5.532876627514789897e-02 4.026145293757378840e-01 -1.833298976905621547e-01 1.654788988402044470e-01 2.453402499889990040e-01 1.255051317499061847e-01 9.840754578482216464e-02 -3.650123064366440906e-02 2.362248055152722237e-01 -6.791964022686941549e-02
5.222564455168964281e-01 1.115869631623729458e-01 8.166426620559231742e-01 -8.842747989100502304e-01 -3.956911193096446788e-01 8.720172363782301150e-02 7.579967625329793179e-01 -7.725782690824859467e-01 -2.091353779145953551e-01 -8.074170390451502755e-01
-6.267233685318260861e-01 1.823710107631457411e-01 1.315072357697347899e-02 -6.640425191998163001e-02 3.359616108518715394e-01 -1.318877552261678576e-01 -6.817537136531754971e-01 4.606260254841105795e-01 -6.512022409461223349e-01 -5.963218808729542353e-01
1.077630381904342259e-02 -2.237522859556516364e-02 -1.665175797096387494e-02 2.415493962238616232e-01 -4.807615733462436425e-01 4.099394227990009187e-01 -2.022301248775265625e-01 -2.457075920791242790e-02 2.143745060496779486e-01 -1.157219135876252913e-01
1.707740434051270018e-01 -6.254409095200745838e-01 -8.075079087186691762e-01 -8.181945482082415844e-02 -3.100795600320772616e-01 -7.991501588152113422e-01 -6.671633131265205519e-01 -7.253047781960976215e-01 8.636122908733327996e-01 -5.173647306600978046e-01
3.677700225778651744e-01 4.725647369946563980e-01 -4.058256693658665593e-02 -2.680197053996929979e-01 4.402872360574520694e-01 -2.735162391341715016e-01 5.121183066197015910e-01 3.508567975852642795e-01 1.541617892461711603e-01 1.383409112720330181e-01
-3.188820571698062767e-01 2.921562565366875863e-01 -3.606815368613724981e-02 3.175689903657080704e-02 -6.892100296188520270e-01 -2.344047727249806978e-01 3.327465216272455506e-01 -6.514170854784617770e-01 3.845411913506002755e-01 8.087978260587429016e-06
-1.701402232595930764e-01 4.727941703148609842e-01 6.110236035994320858e-01 -7.359605595133886236e-02 -2.047407320952943366e-01 -5.377220291983563216e-01 -2.575674860715625458e-01 -4.028833200504442491e-01 5.159614450070090230e-01 3.542949120169757160e-01
-3.801488226049323793e-01 -5.370765094355162139e-01 8.693383231089801821e-01 6.503629904370195058e-01 5.092055871701207659e-01 -1.410438939269685610e-01 -6.747992926474881692e-01 -8.362107177822525328e-02 -5.763242890150024333e-01 -6.630243677274834102e-01
-6.688832383071134646e-02 -1.096446944656316730e-01 -6.902480987858076178e-01 3.332089617204972432e-01 -3.807999488717517256e-01 -5.761543211237160067e-01 7.956160955735390727e-01 -1.530903489998101663e-01 -1.317366718827189254e-01 3.561927471935439904e-01
-1.494621184410620529e-01 6.057203510956258308e-01 -4.882926881278983888e-01 -6.683598153869773073e-01 2.553970350388309885e-01 1.322417000251347174e-01 -4.422927902139211359e-02 2.592332680664484190e-01 3.159119670772770894e-01 2.464481992910604602e-01
3.089154986356744681e-01 6.333459268229765238e-01 -2.220731626056831887e-01 3.520742197650286176e-01 -6.083795722788005733e-01 -5.776849744510148543e-01 1.099341143573842328e-01 1.917538313586356347e-01 -1.171446624305227668e-01 -4.399116411482364986e-01
-3.436952829028491058e-02 3.194920692408462770e-01 3.506094524794273748e-01 3.130734167473837037e-01 5.172798339560065184e-01 -2.778276113646671597e-01 -3.697398551546838830e-01 -5.283846231303825081e-02 -5.640384291407884998e-01 -6.207252551200257568e-02
-3.537269065861374240e-01 5.875337607502482129e-01 2.765297596178685757e-01 4.283672624224595937e-01 3.983989809699271523e-01 -4.536837264924665769e-01 3.550861335114468553e-01 -2.571224581698658973e-01 7.151087580250110598e-01 -4.219131176179558573e-01
1.063468949959237714e-01 4.882744580915910487e-02 3.224257434612857326e-02 1.124453986265725250e-02 -6.836995126743435416e-03 -1.673912674612329163e-02 -1.907142391039751825e-05 2.030778628770674166e-01 -1.283342816754929304e-02 -4.609845854078063049e-03
1.175324723933377086e-01 -2.957147459067100553e-02 -9.408666043888909425e-03 -1.464123721510155185e-01 -1.800536934736622352e-01 -1.321178665921080540e-02 -4.563855243595230787e-02 7.209600864750441429e-02 -1.034569683829327791e-01 -2.491379900636973010e-01
3.824287047929819661e-01 -5.487245278013553884e-01 -2.849955276126741599e-01 -7.030979506105887733e-01 -6.891965206556824319e-02 -6.925498433442586199e-01 -2.040106970926047480e-01 -6.343992831923026543e-01 -2.095648891605442210e-02 3.146106039688172373e-01
3.252762194516541083e-02 -6.677647039245804272e-02 -7.486827217203855314e-03 3.001819779269178454e-03 1.810731929885498193e-01 -9.766557016529528110e-03 6.699800660918370232e-02 4.939173318823857073e-02 -9.341680729834741029e-03 5.744728137135170221e-02
1.131839396964747918e-01 2.435925983057420086e-01 -3.032455514826220416e-02 1.280421308858461504e-01 -4.019012542944174621e-02 1.497207113957199076e-01 -2.596901628202353818e-01 1.718660352251523971e-01 -5.730224479230103425e-03 7.142340771626318197e-02
-3.794049392871943760e-01 -4.027753268739137082e-02 5.791281097717002613e-01 -5.112689352835973061e-02 -2.526109014812382147e-01 7.098272887696044364e-01 -3.179179806502876460e-01 -5.156399910280824450e-01 -4.077700311876308881e-01 5.447016607040217062e-01
5.803712172531935165e-01 -7.543654754739735624e-02 -2.596642882526439822e-01 6.618567356744601282e-01 -2.619438334751983954e-01 2.617176048638008776e-02 -7.756069054516612216e-01 1.503446862621263258e-01 -5.354953232286567832e-01 7.418657443928469153e-01
2.388682255281045774e-01 1.607785860121425381e-01 1.312206758309552267e-02 1.110997698807381501e-01 -6.837433226821809651e-02 9.538437876082019040e-02 4.806283859041059203e-02 4.661075733719653030e-02 1.092859481769640762e-01 1.304880558958238790e-01
-5.198601123898273224e-01 -8.462122548808045375e-01 1.556257290997516141e-01 6.036403014521956045e-01 -2.753737572263440514e-01 5.896484048368657582e-01 -8.403334569800643417e-01 -6.975491160857812123e-02 -6.876939345172458085e-01 6.391977165436023567e-01
2.713278248491434851e-03 3.162420384584780676e-03 1.780222119106533371e-02 -1.852892063944566736e-02 6.185368871770388632e-02 5.539094429395807762e-02 -1.438841580639642868e-02 3.964308185348507790e-02 -4.361801855789412125e-02 -1.744149003158333711e-02
1.982228100128417270e-01 -2.350445206170905799e-01 -4.369579183101371389e-01 -2.994534641000690112e-01 4.348010711880136436e-01 3.657130104509705992e-01 -2.094890183933784678e-01 -5.276663393387381884e-01 -5.151047446629066773e-01 4.889604761989306825e-01
2.761693586393383915e-01 -5.044413521938549971e-01 -2.062421354224763803e-02 -3.357535109176548738e-01 9.794892088690504428e-02 -2.895140326484688664e-01 -3.832302760009652087e-01 -6.206200714369990157e-02 9.046384678471528287e-03 1.763216839212627118e-01
-1.060188377699092382e-01 -2.725761830938422947e-01 -7.477052300676272079e-02 6.492160089276778623e-02 1.880609802154214194e-01 2.044417369980657817e-01 2.229468279969182287e-01 1.842494188982853609e-01 1.149156480199598207e-01 9.025673751815732615e-02
-8.559848287750392304e-01 4.488751976503533303e-01 8.838407793664301848e-02 7.402461831678146531e-01 -2.688897334118293125e-01 -3.179496563619271243e-01 -1.515048694993349487e-01 7.619861579404345608e-01 -5.127726709370746677e-02 1.401011483171648864e-01
-2.411464724764687817e-01 8.390496429041453819e-02 5.651007275045129008e-01 -4.027707552959080006e-01 1.992197805671789279e-01 8.061666705960135459e-01 1.950652115222895333e-01 -7.679886137930768721e-03 3.365395656372092148e-01 -4.146354053800588857e-01
6.722776624674194068e-03 1.099785040632071109e-01 -3.078971353677794481e-02 -8.710303947183911655e-02 1.062730907855698459e-01 -1.492700733389920598e-01 9.591847152022064948e-02 1.198280647677158611e-02 -2.876080035421685593e-03 -9.460458214576705771e-02
6.045625316248551262e-02 2.139254678788960959e-02 1.999698134633859092e-01 -1.671739056745817284e-02 -2.225833032160102337e-02 -4.052568560308741213e-02 6.907977736233193375e-03 3.078925927587494379e-02 -1.048764014158108382e-01 2.061789353974743597e-02
-2.851436524224317259e-01 7.621854233495157782e-01 9.136380390817460118e-01 -6.200308556062813503e-01 -1.046803469294119160e-01 -2.467569897651480659e-01 -3.178125387986296402e-01 -2.269103861978258030e-01 6.790849631447721801e-01 -3.966637868469982120e-01
-3.376408193049799111e-01 -4.367303602180525601e-01 -4.450832698778766638e-01 2.739417652421884397e-01 -2.330330020604044206e-01 7.289720917749141771e-01 -2.082293866206197663e-01 -5.146687286410320805e-01 7.486174227169754836e-02 4.377289104186396496e-01
-5.075754643312355707e-01 4.419361612777867321e-01 5.393729502715906010e-01 -3.210375959044079464e-01 -1.555856693660678525e-01 3.177333681049654412e-01 -3.198839143905276017e-01 2.311462348454206284e-01 -5.809968502595239670e-01 -7.118007928074647772e-01
-2.341091463025531949e-01 -4.524926753906148846e-01 -6.237301249169764361e-01 -3.832676248846134670e-01 3.782979370295819765e-01 -5.359211622605385417e-01 4.717814835956357644e-02 -3.166122564250915539e-01 -3.662096082443000444e-01 1.458250172711873238e-01
9.992293060543280814e-02 -3.895127241160550868e-02 -2.306284191463248978e-01 1.598712847319358199e-01 3.248942616574321263e-02 -9.283936194787682783e-02 6.437663494989827317e-02 1.290691537109053301e-02 9.061540128463087262e-02 -2.080520757407290644e-01
-2.541556433525342662e-01 1.634664354502339545e-01 1.976272840399108666e-01 -1.457161363068910087e-01 -5.749172220751803675e-01 5.607118423158495846e-01 -1.218397621595950497e-01 4.368646503852660068e-01 -1.756117572818850781e-01 -5.470921439002334186e-01
7.366635821652048333e-02 2.750505231597175082e-02 1.980607397510908765e-02 6.393432715427453672e-02 1.045248703896070747e-01 -1.588748299476656911e-02 4.817660421390090007e-03 2.455749716344444653e-02 2.945585363285013747e-03 5.067549027458169604e-03
-5.653065788111493184e-01 -2.823261842036565161e-01 -4.561433726771604302e-01 6.324713721898069796e-01 -4.838373500896528956e-01 6.912113596577553754e-01 -3.440944905824372957e-01 -4.563202679516012994e-01 4.819801497266646972e-01 5.611095202710506546e-01
-5.399055935465065792e-01 -7.971652283062496958e-02 3.621288391544223439e-01 -4.026552229827073254e-03 8.202593676742391260e-01 -2.675231759187770009e-01 -2.277194995878893402e-01 5.789692990017825114e-01 -2.556300075048599796e-01 4.227351011292795335e-01
-4.308839050850468005e-02 -2.699150536498931552e-02 3.438688437003978304e-02 5.993042770809926117e-02 1.450056060460465888e-02 6.279898106723472151e-02 2.443019138070007604e-02 -1.429538820905953966e-02 2.698763990393617668e-03 1.186483373313062112e-01
-9.126621848039515039e-02 2.324576487894868537e-01 -1.934779346678048434e-02 6.775270540556399546e-02 1.582482145136198670e-01 5.080082689781552363e-02 -1.314477203139874650e-01 -1.338013806693759689e-01 -4.317549319070902725e-02 -5.935484365707235227e-02
7.699764840324739047e-03 -6.984639530264910579e-02 1.662647477011450908e-02 -1.641568638641882349e-01 8.675627464028673463e-02 6.275804152975086869e-02 -8.297879998915015654e-02 -2.221622480343097839e-01 -2.692200069629095971e-01 -5.271984101194358008e-01
5.181181363080998858e-01 -1.026396168698088807e-01 -5.264081101894507730e-01 -5.599041077889692630e-01 1.227989394145838631e-01 8.630454259290457064e-02 -5.126787609610052865e-01 -6.804675172678942285e-02 -6.190788230298448491e-01 5.107163338636810934e-01
4.610572054901699857e-01 -6.362968179231988097e-01 3.783156268014726265e-01 5.747536691158460220e-01 6.292077954606567491e-01 -3.056382472701021924e-01 4.009023454783945950e-01 1.719661062359805481e-01 -1.273211280973055720e-02 4.826124010730937774e-01
4.193800519915192870e-01 -4.463674264776021361e-01 -3.782156342312594788e-01 1.658133950827983816e-01 -1.395642283266680383e-01 -4.135922023856071217e-01 5.029635043182306697e-01 4.225270942297151278e-01 -1.274700000697241153e-01 1.119329886985095251e-01
2.125820415414404752e-01 7.906207600467018981e-01 5.095673300195071587e-01 6.025118618485811872e-01 7.222737893186251812e-01 -8.031504300759133574e-01 1.674390876923820826e-01 7.928688551108132865e-01 3.089495359496274851e-01 -8.702827180595354983e-01
2.656117367386194306e-01 -1.132831090720830269e-01 5.205057008994314061e-02 1.337861759637026526e-01 -2.056761957701316867e-01 3.457543418538656099e-01 -3.057390610599125189e-02 2.434311823614133674e-01 1.377883211686868892e-01 3.471780343949003034e-01
4.323268640244251060e-01 -5.380842746067746596e-01 5.566512222961296219e-01 -3.540323507625257049e-01 -1.775035114960424598e-01 -1.606962523022124889e-01 5.565541549350058181e-01 -4.455204137287527844e-01 3.266535863907460424e-01 -2.320929483097282087e-01
6.766387347234890104e-01 -2.550036001543870556e-01 -7.074584532560286299e-01 8.932583712407800025e-01 8.626010642852723065e-02 9.341072077569158028e-01 6.929450204352914922e-01 -2.708447988666320971e-01 -9.290677505436950590e-02 7.890342439403916774e-01
-2.188007169662276319e-01 7.109934237432791355e-03 6.437348123390533583e-02 -5.210440111035500310e-01 -4.265762019525525250e-01 -2.370916864936305768e-01 2.164772025839851177e-01 -4.046482786415678268e-01 -2.955405141142333214e-01 1.428974904025561155e-01
1.322349821244083162e-03 4.372520684582013178e-02 1.288822591974030964e-02 8.932230589871480164e-02 6.584529023623353697e-03 8.129805053366997991e-02 2.716634450269814162e-04 5.075240287310690823e-02 6.251626071921048688e-03 1.498496529930903355e-02
-1.264112611116794405e-01 -6.032462940640126448e-01 2.757637435380635438e-01 3.308910166634742439e-02 4.915196211899584000e-01 -4.561971706437542573e-01 2.471110822769258530e-01 -3.982234283401860919e-01 7.146483537221909321e-01 4.417506166499998166e-01
-4.829829023820084721e-01 6.754005838469911982e-01 -1.036588051409710887e-01 -1.627695074348869952e-01 4.554884417545115305e-01 5.136601331863734909e-01 2.685414931890733325e-01 4.594887301476893726e-01 -4.627112495892498067e-01 -3.979041251873520757e-01
-6.481951898225404851e-02 -4.129259687468131990e-01 5.440277181543458351e-02 -5.806938472210480123e-02 1.528715120483429835e-01 1.786822578930716277e-01 1.127734730484442338e-01 4.085007122853362982e-01 -2.706549662959403801e-01 3.251266603822164369e-01
-6.774084908459118148e-01 3.952156370557657894e-01 4.481624820711108126e-01 7.199222755057214096e-01 1.306622061989497763e-01 5.890214904524764261e-01 -1.913521930817603245e-01 -8.453943751902165404e-02 7.054184793859207270e-01 9.197241687130902621e-02
-1.490433786656741311e-01 6.238720776410172641e-01 -5.614677285849016819e-01 1.914871899086919016e-01 3.062947882645032371e-01 4.261588389215480999e-01 3.999904927707140234e-01 1.154936812191813267e-01 -4.287600898563521945e-02 -1.581503617400223660e-01
1.174060852310111064e-02 -4.748181393410640626e-03 3.084087766921147361e-02 5.695395644805049951e-02 7.754121803890563769e-02 2.182658146829717302e-02 7.864176157885609600e-03 9.629286622337625279e-02 4.080116688200445541e-02 4.480094891290888059e-02
-4.907757833977944295e-01 5.993720259753464452e-01 -4.901078916841063449e-01 -5.612678234846361393e-03 5.723046183594118208e-01 -7.475766311007593368e-01 -7.993244387293546582e-01 2.622177752317864652e-01 -3.389448714993933964e-01 -7.029631365654684938e-01
-2.115849511177287090e-01 -1.547015211225290787e-01 8.018078654641239145e-02 1.385113368924948407e-01 1.407150640798674468e-01 -4.123829239697961446e-01 1.104183851550550183e-01 5.755128977722344663e-01 2.048779331965094597e-01 -8.220630261968130126e-02
-5.440088978997669189e-01 1.966844126194887965e-01 -8.093937185409104673e-01 -3.329169711068017956e-01 -6.752212344832650981e-01 7.875020459910996029e-02 -8.323618867698637791e-01 -5.071671132931075965e-01 8.002936202016562861e-01 6.869628958465928692e-01
4.329752346775157107e-02 2.751661380109455407e-02 8.223936854552424403e-02 -4.140953937768374060e-02 1.803834076326546812e-02 3.255787767881267170e-02 3.764744655763234416e-02 4.153664177655071871e-02 -6.975270062461399762e-04 1.843788940325294043e-02
7.442316924785484511e-02 -2.036664588183864366e-01 2.925509841976506320e-01 4.334510632899898908e-01 -4.831739408954047743e-01 1.861681626340240259e-01 2.241539065654095664e-01 3.751301760772120242e-02 -4.939081926679216306e-01 -5.553571857303329917e-01
2.079548324339917931e-01 -1.110708601718884553e-01 2.090222562039475152e-01 -2.713588777497888405e-02 -1.915239271150030176e-01 -2.239050483198008479e-01 2.270244529965438907e-01 -2.362067590663185224e-01 -1.048301982084354350e-01 2.751473826185312777e-01
6.965865036752948436e-01 -4.799838514936158318e-01 4.768074271899950256e-01 8.245666349503745218e-01 6.134324172278968756e-01 -3.286141440805748215e-02 5.271071445712915970e-01 6.936986890382090820e-01 5.925112237972081086e-01 1.054213534511146133e-01
9.692972187630563563e-02 1.150300845879650979e-01 4.732804630643681620e-01 -1.432292473208998107e-01 1.860438994195827700e-01 -1.967680025048121617e-01 8.836525265937263118e-02 2.647253648121012382e-01 -3.721162390813492760e-01 -3.559408271406068192e-01
-3.568848768080373213e-01 1.337310921527887497e-01 3.852053221379305170e-01 -5.816057060654087341e-01 5.703605945902255892e-01 -1.208090703693867063e-01 7.210838390543748977e-01 -5.607888054667982125e-01 7.488319019437109092e-02 -4.131645348578542182e-02
1.545616137851952565e-01 -2.142271344738823080e-01 -4.082047560727137259e-01 1.236861513484772274e-02 5.119342822329895487e-02 3.153122011446282680e-02 3.720195346284465021e-01 3.767758639389787167e-01 -2.818601662522823154e-02 -4.805455257280636383e-01
3.044101906116103429e-01 -6.139343995628598893e-01 -4.684807206121794354e-01 3.028904656321448202e-02 1.541231334233592043e-01 2.915628954989823440e-01 -2.633671933689148981e-01 1.998823209279500801e-01 -2.635149710377484022e-01 -4.027473255593351231e-01
-3.658123921631661890e-02 3.783864179470607381e-01 3.168241643347681769e-01 1.809652880812843700e-01 -5.072347222396337424e-02 2.232110993168963664e-01 -3.220980505695732465e-01 1.832074086162403803e-01 -6.324696228784348982e-04 -4.142131768067293107e-01
2.500619194094563791e-01 -1.879376950803575974e-01 -1.561909639411390160e-01 4.514191386285277274e-01 3.865764008859142176e-01 4.689609116417333690e-01 6.905550008467530310e-01 -9.485653342514767383e-02 -2.888102778957005734e-01 3.426073652205371967e-01
-5.090209813927225602e-01 -2.106568689572485553e-01 -5.598582825107257382e-02 -7.100326595774851014e-03 2.652874089583612260e-01 -2.274233631529023747e-01 3.878714093811400608e-03 -1.831178719713341674e-01 -2.857875129851921159e-01 2.368768304388926549e-01
-1.359681815517867487e-01 -5.885725860344658000e-02 -2.079286386594430547e-01 1.897110182341652795e-01 1.611231736143288462e-01 2.291924063096354991e-01 -5.370231003258064961e-02 5.442466107746853077e-02 8.664850913703023381e-04 -3.016918809228728501e-02
2.101919951835012346e-01 2.425658362201555673e-01 1.709730567277273905e-01 -2.131059166181338282e-01 -3.639164986728096185e-01 -2.431666430022536296e-01 2.385910048894055169e-01 -3.082024368683511928e-01 3.490512120420125597e-01 6.496413024054595309e-02
-1.980466304732523416e-05 5.352173150557184567e-01 -4.410898483739054687e-01 4.749516822366275925e-01 6.461701211624035768e-01 1.768771433087766021e-01 3.234140242294557543e-01 2.757350419411975229e-01 -4.688935989552279748e-01 -6.461542848178425391e-01
2.799073733887835203e-01 -3.686178969929454485e-01 -3.858108958556812906e-01 -2.309975287508929664e-01 4.676660989419909042e-01 -4.158488326517225525e-02 2.080393575445138588e-02 5.137496436526544086e-01 2.602098222615056300e-01 -2.424321353874411278e-01
-6.552382039426066229e-02 2.961237569292464733e-01 -2.507928891965312546e-01 1.818167430443831112e-01 -5.114830991781332825e-01 -1.680103541057595962e-01 3.094500252460060663e-01 -2.795797069447543137e-01 6.666779561833959811e-01 4.494218566755412425e-01
-6.605336845189714069e-03 9.249979175411364440e-02 2.094362413520328425e-01 2.033538960561419306e-01 9.087487600308487290e-02 3.505261688150664301e-01 1.677242459263740548e-01 -1.091036191447504605e-01 8.577268269631339870e-02 2.507364029999510913e-01
