6.425353562101933091e-01 -8.264977641155779597e-01 -1.179885072887640052e-01 -6.305369734782731994e-01 3.355151277139942212e-01 -4.616207564131010743e-01 3.454801452366970116e-01 6.005010198486214756e-01 8.099050981361789470e-01 7.247826017745775395e-01
1.565843140478091478e-01 1.223610555149141632e-01 -4.415173789441725338e-01 4.400614110372932930e-01 4.286172397841221393e-01 -1.199437639711667669e-01 -2.514965991119229027e-01 -4.551694298206414024e-01 5.421237055743505229e-01 -2.836580780131599533e-01
3.159003057582113749e-01 4.637655040710650933e-01 -1.828480513327351842e-02 7.132590295222529519e-01 -6.318131079326894106e-01 -3.172162430314416359e-01 6.141484147756793854e-01 2.568534595015508626e-01 7.222652393462354325e-01 -2.795354907691522950e-01
1.357200324172347650e-01 -3.905575049201267523e-01 -1.402936202812778144e-01 -1.717971319498908800e-01 -3.149856687487020968e-01 -3.459722072461415832e-01 4.335816928718367880e-01 -4.312856500338125287e-01 2.677655447033706615e-01 -2.149743797082696306e-01
2.967699104039629027e-02 -1.083954822771557996e-02 5.732516884660843193e-02 -2.220693132945531639e-02 2.085726348576296199e-02 -1.249284908847761097e-02 1.044007779684960960e-02 4.922527513180076364e-02 -1.449255579865527457e-02 4.358404856502654662e-02
-4.474111554903685284e-01 -7.529976291548140521e-01 -4.065699496544269986e-02 -7.953351335422030877e-01 7.082489030482157499e-01 -6.948242156641257772e-01 5.575541274614458365e-01 7.145015252550904750e-01 6.812922869203720255e-01 2.294612885863669682e-01
-2.242220616858664820e-02 8.864184334276897781e-02 4.674996202016024061e-02 -4.371846922092399723e-02 -7.058602047547910246e-04 3.025263646698362827e-02 7.066746711910533441e-02 2.576632188336886267e-04 -2.120431216385871773e-02 -7.445122455922638383e-02
-5.581040225797421206e-01 7.112667578042474181e-01 6.473355956353891993e-02 7.115806326769072987e-01 2.349830273108295953e-01 -3.334920017796242364e-01 -4.004422604365751037e-01 3.309760511458436083e-01 -6.280352318613746654e-01 5.897799496399341868e-01
-7.213869924459374861e-02 6.057713606927637162e-01 5.633501636545744651e-01 -5.736437746582689901e-01 -2.841425244731177191e-01 3.764922450702919976e-01 -4.470445290708977559e-01 7.314444693008832488e-01 5.310538803674399455e-01 -1.935886560543978452e-01
-1.058962577307356748e-03 -2.322893444441351263e-02 -1.097892212914556784e-02 1.354315332076610340e-02 2.984205088220215352e-02 7.438814648742126182e-03 1.622249106258573381e-02 2.159548023418437698e-02 1.567652755437622114e-02 1.864352191461527558e-02
-7.757643752117041047e-02 -1.027849098766381135e-02 1.951670372059970959e-01 -2.802345187082181943e-01 3.754056087607582914e-01 -8.373789620205313727e-03 -4.607875011608142390e-02 -9.749561867412191718e-02 2.373328408062382044e-02 8.836047861485424315e-02
3.561417651551509467e-01 -3.307725458052015455e-01 5.991388235504448989e-01 1.915638970889875226e-01 -3.439104927973789250e-02 -2.164115857810406107e-01 5.593400309241507440e-01 5.214730738930591913e-01 -4.708519879784979212e-01 4.174216183141224445e-01
-4.658217985888933876e-01 -3.454559189136547498e-02 5.037160696621911793e-01 6.474607593171648467e-01 4.933642511546099674e-01 -5.594211468201695237e-01 2.119725076671315211e-01 -1.483196559925874791e-01 3.453684178709395813e-01 -1.455390196617738774e-01
4.498691632143582142e-01 1.766078126544618487e-01 -4.816633301766303221e-01 6.909618992041819396e-01 1.898189595679268538e-01 4.691484434979894397e-02 7.859142059351170717e-01 -1.884604277297426689e-01 4.406885507659688561e-01 3.060643629821552802e-01
3.299696287617119861e-01 -5.756606634806816780e-01 3.526599724850489337e-01 -2.492595608321198919e-01 3.066801676346393446e-01 -1.965947050063664159e-01 -4.805792104138768561e-01 -1.834242408231793742e-01 -2.045392633491622536e-01 -7.171506760120589519e-01
-1.981884386175648827e-02 4.021531008354217729e-02 3.141400818714767951e-02 1.257806448078282145e-02 1.849258708057984271e-02 5.356192080031094149e-02 1.963496744622186471e-02 -7.828102390293391333e-03 5.588641111670687028e-02 3.326720791800230614e-02
-5.770320200396863441e-01 1.299737827642243881e-01 -7.224574461153943084e-01 -6.247313930003685067e-01 -4.275799556629465703e-02 3.116107736274064677e-01 -5.203409832173871985e-02 4.681207314055885749e-01 1.047913148321241716e-01 2.315939212367495448e-01
8.387485493707343975e-01 -5.373105465884823184e-01 -7.745356901790018123e-01 4.763725233307189999e-01 5.940351612888383759e-01 3.154584001319789555e-01 1.127708071720182614e-01 6.673607351672078414e-01 8.082543750762124501e-01 -4.402852481147888075e-01
4.068647250360844791e-03 4.095626524718244676e-02 -6.321043417139635689e-01 -4.964791864706437630e-01 -6.001498522350153797e-01 2.979653131118046305e-01 -3.797287983267334521e-01 6.837470555988580667e-01 7.222020864995645772e-02 1.117592410240753585e-02
-8.555619480811914312e-02 4.151684063459028518e-01 -1.888365631938811184e-01 5.600477655562761253e-02 1.748077476880262049e-01 -1.049298575815021395e-01 -3.599783058911171785e-01 2.962181422623341165e-01 2.813829936358669959e-01 -1.627624259784424959e-02
3.922265405093098428e-02 -6.240198153879513571e-02 -3.454354435038239357e-01 4.728475925761575493e-01 -5.358873347445426427e-01 -2.115251563262693368e-02 2.671814409875207796e-01 1.710270259783937541e-01 -3.942543791647397655e-01 2.314142186741660612e-01
3.388453038917504934e-01 -1.120734834067601132e-01 -3.728701395519096184e-01 4.991745431686435142e-01 3.391617238890557440e-01 1.778619377971247528e-01 2.853351148575876128e-01 -9.709478938719828811e-02 -1.577500498592948608e-01 -2.470575289377965056e-01
9.143492429691192636e-02 5.786194821962592494e-01 -3.348980524708576323e-01 2.506497992106990202e-01 3.626859774442042772e-01 1.804257872111122707e-01 1.334600356998034976e-01 -1.799680975537767680e-01 3.363456768849735212e-01 -9.890837215148957917e-02
5.316302018574776689e-01 1.031161052323223692e-01 8.274170316126826519e-01 -8.954046493459799638e-01 -4.020186058017407582e-01 9.420555588881414366e-02 7.693160150585727219e-01 -7.848707595954180771e-01 -2.147290148968324652e-01 -8.244379286089374981e-01
-6.538882406345347675e-01 1.867019492451159057e-01 -3.104353481570057069e-03 -6.262645180037859638e-02 3.514124093404060178e-01 -1.523346566612872044e-01 -7.134706464238793622e-01 5.029933167087684565e-01 -6.902662891329593986e-01 -6.654680634227054803e-01
3.290146923683468644e-02 -1.670279180529849750e-01 -4.222794539717134032e-02 3.378086291735196145e-01 -6.150201106977634113e-01 5.617559505435185674e-01 -2.750464909460865748e-01 -2.900646040200729678e-02 2.706970768072295974e-01 -1.147103243879190604e-01
1.730277113158183444e-01 -6.294620386450925364e-01 -8.221370207736499180e-01 -8.117524125093678045e-02 -3.121036290777027822e-01 -8.058296487270311115e-01 -6.731369149168715538e-01 -7.289913696043622826e-01 8.702645637950345847e-01 -5.197719311672948095e-01
4.014718795829646525e-01 5.115608004435959755e-01 -4.842282159742167247e-02 -2.779406128688224342e-01 4.668537079229448383e-01 -3.464945492312830888e-01 5.611963037973235480e-01 3.784788857457895839e-01 1.687463978794034869e-01 1.497841165240403061e-01
-3.395640821193280368e-01 2.934685228489465336e-01 -3.613649502459036905e-02 2.274817992108196449e-02 -7.212777960980970571e-01 -2.738295732989668996e-01 3.487465917463290488e-01 -6.922770154914626994e-01 4.045317154767936740e-01 9.803212003918837861e-04
-1.887680208164410622e-01 5.095279867277754393e-01 6.370799734989079921e-01 -5.194425231549465449e-02 -2.803855433833178368e-01 -5.945399728970790498e-01 -2.646060675866727108e-01 -4.413860755638893685e-01 5.659750884830243578e-01 3.994830142421934016e-01
-3.822687555124753556e-01 -5.629752136827068654e-01 8.753248035777939640e-01 6.528215919893058938e-01 5.217806175879186048e-01 -1.407993469356847993e-01 -6.870626650074395103e-01 -7.947597731065765558e-02 -5.918796887009684093e-01 -6.609758865459705035e-01
-6.986925788937614623e-02 -1.113669199295293927e-01 -7.268754757326041371e-01 3.511549953140012392e-01 -4.019856558727062379e-01 -6.457496829924052051e-01 8.424698706496650535e-01 -1.493759032830634381e-01 -1.408660357810313513e-01 3.528227321238489034e-01
-1.618917519549206707e-01 6.466182864050009638e-01 -5.415216041556899507e-01 -7.149300002223303308e-01 2.495565350407591421e-01 1.414728836224845576e-01 -4.241277045082920971e-02 2.528930096762108115e-01 3.293670888415028419e-01 2.919511034192188159e-01
3.340273881021519897e-01 6.796685058388010070e-01 -2.279720930628366116e-01 3.850907362765865205e-01 -6.840558242453453897e-01 -6.296377730360663838e-01 1.104730244231678787e-01 2.166081788620040360e-01 -1.088168808345914007e-01 -4.653523672756980090e-01
-1.984769414197694662e-02 3.173011295517414454e-01 3.627512943616664765e-01 3.189703798890118902e-01 5.442120770572654864e-01 -3.117886991127953311e-01 -3.966149972301550308e-01 -7.519538473892939390e-02 -5.877427596679787314e-01 -6.061839850493772747e-02
-3.709063156965354824e-01 6.211274127006652934e-01 2.574137341325734019e-01 4.790691946731341355e-01 4.467882433210151327e-01 -4.521784122018572272e-01 3.967050187525048566e-01 -3.023789449718137234e-01 7.565740636064068880e-01 -4.337739547324550027e-01
3.561705261649403265e-02 1.749834142786298868e-02 7.363725428671175598e-03 -2.934617713067511416e-02 -8.302197363168136932e-03 5.022533313285910961e-02 3.135442737359440957e-02 5.500711479814691246e-02 -4.791386179701873083e-03 3.504957585938783815e-02
3.277273608958008455e-01 -1.662867217100132480e-02 6.187645577548508274e-02 -4.104972205354230352e-01 -6.256361442361292324e-01 1.980222873033207071e-02 -1.525790981528830637e-01 3.361925448974186770e-01 -1.711472274014970429e-01 -5.816581987685799371e-01
4.087907936039383849e-01 -5.851340647745552070e-01 -3.079089344386850557e-01 -7.482477456773177771e-01 -7.610517690859378015e-02 -7.485413952284791783e-01 -2.123767017759041198e-01 -6.732670029977070314e-01 -2.682455877686075116e-02 2.855937007926119819e-01
-2.651353567977414796e-02 -2.889275391341735721e-01 -1.913591385398150796e-02 -1.646211904371846224e-01 1.264809637405075460e-01 2.081010623769533885e-01 1.016538303395065901e-01 2.968779496990743283e-01 -8.163811951603051897e-02 1.753059015730374648e-01
1.484073596589346455e-01 2.838470416134372121e-01 -7.502659902443890860e-02 8.163155926421222786e-02 -8.569546919981352318e-02 3.340734733107175169e-01 -4.883370078716410823e-01 2.663879514472170529e-01 1.864787581325780957e-02 1.053750278764756798e-01
-4.234037293475385044e-01 -6.107024307940869812e-02 6.113509245882344789e-01 -6.770431580964889062e-02 -2.649902309348245999e-01 7.606632810580739035e-01 -3.309710578504847511e-01 -5.795346518600976715e-01 -4.267069762206662786e-01 5.381110529687896937e-01
5.951175384511490085e-01 -8.814807443558854427e-02 -2.638399452567299908e-01 6.855303026361346808e-01 -2.681561123810225489e-01 2.317678014429968431e-02 -7.923730904166743638e-01 1.487022020317342874e-01 -5.445926807878525011e-01 7.589510444842741954e-01
2.981993223736960630e-01 2.662179255782540777e-01 -8.445303716604129693e-04 1.815605513431648721e-01 -1.386947047906712249e-01 -5.621996237792258044e-02 5.403491153109242495e-02 1.226647657057397672e-01 1.460637197605976212e-01 2.253858703958995235e-01
-5.186669020210245007e-01 -8.664196132451962296e-01 1.457278400317209843e-01 6.094730069517549920e-01 -2.704593656536887214e-01 6.077723830867549637e-01 -8.509671864933828767e-01 -6.800695209180313006e-02 -6.984904135907341605e-01 6.462073146702854709e-01
-6.673043665813409298e-02 7.340335980830797746e-02 1.988307857282569924e-01 2.219474704004090887e-02 -2.849811434120487208e-01 -3.136275455221458341e-01 -3.511163750489000313e-01 5.950119686357114440e-02 -2.179849108120544277e-01 -1.877023156236644896e-01
2.304087957005417353e-01 -2.610477756936467331e-01 -4.681734094139737845e-01 -2.939468275682800558e-01 4.146206108856969608e-01 3.895654211143114165e-01 -2.002374462343953776e-01 -5.919975650830173741e-01 -5.496350345396510129e-01 5.315791217274491443e-01
3.487856528703209280e-01 -6.139867239510498065e-01 -4.293495875333049744e-02 -4.080405012560102129e-01 1.297640814284176103e-01 -3.623538557159062257e-01 -5.442228826877663073e-01 -7.164782604368288843e-02 -2.206800584096834522e-02 2.173877768214921846e-01
-1.767827836855715706e-01 -4.072160445761180414e-01 -1.171839659513046472e-01 1.430448688061624340e-01 1.467143045363804854e-01 3.089012625099200604e-01 3.592660397783657977e-01 3.169565176973688780e-01 2.278180768487854113e-01 -1.087731770656095651e-02
-8.833899968629672639e-01 4.481296758456569385e-01 9.758708882595865108e-02 7.507259325671906680e-01 -2.775101675812405300e-01 -3.253556156014590361e-01 -1.544885472146609873e-01 7.869972777185973989e-01 -5.348742762037796139e-02 1.430298651727452408e-01
-2.943423676732657146e-01 8.975868075433103555e-02 6.065602621979413467e-01 -4.282833766101702411e-01 2.166540639866975648e-01 8.577840753406881236e-01 2.103010449535489546e-01 -7.435018931089952370e-03 3.591145272869586957e-01 -4.358967017080307982e-01
3.221723860799911854e-02 2.324121056729250290e-01 -1.641937652008390869e-01 -3.102641229490888941e-01 3.741447922339862786e-01 -4.310751166648493782e-01 -2.144770826088686078e-01 1.710082348466636024e-02 -4.508519967124744593e-02 -2.699296486277048546e-01
6.207767253303889468e-03 -2.410924163767842465e-01 1.469547723319492571e-01 1.033474350139746388e-02 -6.723722771151433020e-02 -1.300894048916327594e-01 -8.812262424605503408e-02 4.596843557529691621e-02 -3.284699859602483452e-01 1.298427035818604802e-01
-2.928127473185922480e-01 7.816537541501906716e-01 9.221307467514533451e-01 -6.314374955526224076e-01 -1.047333108139578695e-01 -2.890678121110673571e-01 -3.091542778518548973e-01 -2.081801411485729447e-01 6.847892105877854130e-01 -4.433804881966073030e-01
-3.550273838594226739e-01 -4.417900149486722050e-01 -4.618054125038033031e-01 2.834797657679974936e-01 -2.383990076697209415e-01 7.269623763103643110e-01 -2.193011457333052250e-01 -5.267094531551602676e-01 8.126829440814854755e-02 4.629882351519048478e-01
-5.143901393553274026e-01 4.486071621051727631e-01 5.458200443202880781e-01 -3.221828556741375693e-01 -1.650659769551335865e-01 3.135540378167064324e-01 -3.194272206810113146e-01 2.346383636204156797e-01 -5.857719193900462473e-01 -7.213093838881018405e-01
-2.761699664072522209e-01 -4.999339583047985314e-01 -7.108191712688335384e-01 -4.811711122359826898e-01 4.219053320380730665e-01 -5.990983656847638228e-01 5.550215376507843662e-02 -3.572233086493515342e-01 -4.007820140170776924e-01 1.873448988700609774e-01
-8.806744700218727129e-02 -9.096116695759536019e-02 -3.416021799880838983e-01 2.640195726985907210e-01 6.357734019591910861e-03 -1.061453168818210224e-01 8.082863420382076225e-02 -9.568609750720237506e-02 1.602683737758240357e-01 -3.525390188265509206e-01
-3.000121549191131498e-01 1.824683934178848999e-01 1.948850991127880350e-01 -1.862507770562850939e-01 -6.323608654063068713e-01 5.878179254586117786e-01 -1.391325567476295599e-01 4.823891858128370735e-01 -1.940312164004049378e-01 -5.992358989641279887e-01
1.899396290931731901e-01 1.443490935882387749e-01 -8.535026394373512737e-02 3.137390759802223261e-01 1.148368857805213000e-01 3.075606011759091096e-01 9.047874329836189111e-02 1.834264547441229534e-02 -1.285645605292284888e-01 1.271764213478472801e-02
-5.789737974751874017e-01 -2.950813715928206071e-01 -4.666217675867598835e-01 6.458120522015434739e-01 -4.806486440080923739e-01 7.413477902529792551e-01 -3.520807976115880589e-01 -4.798309077649811627e-01 4.859523493581048292e-01 5.709917976173468634e-01
-5.491025557261648427e-01 -7.967443708504592936e-02 3.695504552756462280e-01 -9.416358247444103725e-04 8.412906160092913366e-01 -2.688843624952148015e-01 -2.446895584535514756e-01 6.035838780054052499e-01 -2.609208379469293293e-01 4.303256987173680881e-01
-3.010178146216652140e-01 -1.415700934038695014e-01 1.584165758265871360e-01 7.482779823969440587e-04 -1.730426035707289811e-01 -1.088569477994198037e-01 1.862162411786936200e-01 3.621279396357902219e-02 7.206036352547263990e-02 -1.726390638118616280e-03
-1.823538423185496471e-01 2.885597478219272261e-01 4.022363910082018797e-04 2.018707227980006402e-01 3.530530666037187681e-01 7.466070146823511333e-02 -3.300256364032560508e-01 -2.167296438265204350e-01 -1.119552586764645252e-01 -1.957079204697187158e-01
-2.033612622924688487e-02 -1.427855604238976728e-01 -1.548282236763907568e-02 -2.213874208545140720e-01 1.277921516971933791e-01 2.093971198793272981e-01 -1.218865035909730277e-01 -4.088118552438555486e-01 -3.588739140626224233e-01 -6.817013926758820341e-01
5.581618332974225272e-01 -1.780674149711862497e-01 -5.600509502863217914e-01 -6.058232655399357069e-01 1.538264857954052822e-01 8.904028271939530559e-02 -5.836654309584520250e-01 -6.753457426801220964e-02 -6.710567312874777812e-01 5.595309119213994764e-01
4.719162749210934482e-01 -6.542672696440869906e-01 3.822209741286742291e-01 5.932406815404581701e-01 6.362781667962376098e-01 -2.954986977477258581e-01 4.083108940756491334e-01 1.667469166954250182e-01 -1.153868395143909688e-02 4.946482790850883493e-01
4.581413380620766862e-01 -4.717808547027408927e-01 -4.485113033813274974e-01 1.906461790198607786e-01 -1.468815532193012141e-01 -4.432126194897374472e-01 5.543534074812463963e-01 4.574949636371481998e-01 -1.451194363463997605e-01 1.200209527415401489e-01
2.062659101638019410e-01 7.989950070074249844e-01 5.050793775726194479e-01 6.080764257243986837e-01 7.236176356239414353e-01 -8.110212226634808674e-01 1.713828362842318986e-01 8.094365147754211121e-01 3.094844170275377060e-01 -8.871943954027815549e-01
3.767479750043402076e-01 -2.037687557193163801e-01 5.813694976149449273e-02 1.889219305534784177e-01 -2.489505829461337028e-01 6.009368494952546103e-01 -8.284952246413820887e-02 2.453590201835647300e-01 1.605538309963678578e-01 3.580169110131851684e-01
4.698998665230265104e-01 -6.092338802765258077e-01 5.977343920551003720e-01 -3.586205023651857782e-01 -1.982645094961958676e-01 -1.704149344797808441e-01 5.708183560083105457e-01 -4.802273268968376696e-01 3.558262268131711092e-01 -2.611789171062282033e-01
6.791077632293439637e-01 -2.563220450728088129e-01 -7.096160256355977802e-01 8.969847430070089223e-01 8.868770455592137059e-02 9.333182888484404804e-01 6.967418277300589935e-01 -2.728334575342215573e-01 -9.281725699071459446e-02 7.913988091758962229e-01
-2.378518884318757687e-01 8.394234877746948459e-03 2.049915223544062845e-02 -5.945207348763513755e-01 -4.812388423275525962e-01 -2.619634437656155335e-01 2.767439579096843127e-01 -4.450643804704240147e-01 -3.328182739508773746e-01 1.536997398172787743e-01
5.505429201788284571e-02 -9.773000498651127771e-03 1.196918422785980818e-02 -8.062390911285648512e-03 -3.458716915546156123e-02 5.646036913497130827e-02 -2.339654060480028577e-03 -1.564588859541726079e-02 3.351527993810590744e-02 6.109954822739083885e-02
-1.254904387772898533e-01 -6.272811697469743430e-01 2.990553344188266460e-01 3.673142412291188763e-02 4.903994222708422113e-01 -4.593420744472687667e-01 2.306813144522915637e-01 -4.119260866752824102e-01 7.381158019380973379e-01 4.501303365405206480e-01
-5.078733783825192249e-01 6.762585332100325974e-01 -1.052770397018053528e-01 -1.813618024849726063e-01 4.985574536828122350e-01 5.378690361318092528e-01 2.593074405141067573e-01 4.868791738025118887e-01 -4.944365633560479090e-01 -4.143882876505649016e-01
-7.348612725506779852e-02 -5.300955349776856895e-01 6.902691135163603608e-02 -1.243260012498571820e-02 2.084996836271236775e-01 1.956134493797085927e-01 1.826754593512657510e-01 4.886296359718271254e-01 -3.684851466851778445e-01 4.190862117200410686e-01
-7.055355782141226051e-01 4.065204764013053418e-01 4.673531649369666030e-01 7.571641486579729907e-01 1.419685604836985193e-01 6.117872714881147367e-01 -2.021332320365543112e-01 -1.059792309434230140e-01 7.328119958358391139e-01 8.942626799783370828e-02
-1.599294078538284480e-01 6.617762262275218577e-01 -5.932339072834686977e-01 2.070178895815552311e-01 3.159847232156935970e-01 4.190853045776856689e-01 4.237689850922725099e-01 1.258894984510532944e-01 -4.524447427649471581e-02 -1.676022169887710078e-01
3.386053324817198118e-02 -1.894268224531788641e-02 7.509964372193091153e-02 6.658647435200554243e-02 -2.889330185532735379e-02 5.920533475895354419e-02 3.680658317582231887e-02 5.117240741559111322e-02 4.216272471246985953e-02 -6.745018514827789968e-02
-4.983179818169644060e-01 5.969199080202987062e-01 -4.921986605369575440e-01 -3.001711314995510367e-03 5.770998717655400068e-01 -7.562049570064316439e-01 -8.053700481575086778e-01 2.671779411358651268e-01 -3.433625021386185194e-01 -7.105544207318393868e-01
-2.659068867247843526e-01 -2.587372079781559142e-01 9.763951116809774233e-02 1.675220735193307664e-01 1.990699463557851212e-01 -5.163797852676710320e-01 1.358131290290673365e-01 6.782987034398498816e-01 2.769187492254355787e-01 -9.596835018357233182e-02
-5.546862359350586136e-01 2.059890938850204023e-01 -8.258623926045273178e-01 -3.437144547744036549e-01 -6.820763135173942837e-01 7.540107658949452007e-02 -8.442653418865395665e-01 -5.151567003116360732e-01 8.050606157097907056e-01 6.973738868206172947e-01
1.255840883347737191e-01 1.073091736953044606e-01 7.178364376720366979e-02 -3.590105897588912742e-01 6.677350064833910415e-02 -1.664670528191747045e-01 -1.089405436365973173e-01 -1.581605071706355947e-01 2.041115471855799862e-02 4.799820022566868294e-03
1.045490323380448977e-01 -2.472484413836296413e-01 3.055042989795767050e-01 4.615663811663676674e-01 -5.258638281211093224e-01 1.930712309266985338e-01 2.721199054946024098e-01 3.804085818810637454e-02 -5.484640744403007639e-01 -6.269290931111325405e-01
4.251482066794380899e-01 -2.244723957290467309e-01 3.487338736603213807e-01 -6.792157263226196104e-03 -2.682828220032802968e-01 -4.026821665035071884e-01 2.299114152678187750e-01 -5.266480205862560382e-01 -2.345963989840122998e-01 5.072713967268267510e-01
6.991430601526084088e-01 -4.827748192331689503e-01 4.858249342393446413e-01 8.290111619625059047e-01 6.247459264677197588e-01 -2.814289971797637527e-02 5.282326417919502859e-01 7.006849959085227342e-01 6.007411610554411752e-01 1.039686507833738061e-01
9.261465591197244607e-02 1.297567591653498165e-01 4.579329252274544904e-01 -1.604285326816498047e-01 2.180563228938996456e-01 -2.196146380877903037e-01 1.076635078665440226e-01 2.944611326666669027e-01 -4.117717950818449713e-01 -3.954329536965172087e-01
-3.863807241760167654e-01 1.371127042838857502e-01 4.123568938623558555e-01 -6.122253640130262964e-01 6.042497174359676704e-01 -1.483596776171649534e-01 7.671926448384636110e-01 -5.902418278734574697e-01 7.852997365961027210e-02 -4.603915278631630359e-02
1.777772273229549505e-01 -2.766470067449515735e-01 -4.992650889354057209e-01 1.613826523534782342e-02 3.406730185097109342e-02 -6.873945565697822668e-02 4.720228188170002004e-01 5.031165360115782414e-01 -7.551382943424220229e-02 -6.892900755631340415e-01
3.259915091475758531e-01 -6.478103105179670029e-01 -5.038319731452618466e-01 2.525773584461002072e-02 1.711197397868404191e-01 3.072234299242493916e-01 -2.639272640308141238e-01 2.169715691037503169e-01 -3.074330525362553024e-01 -4.323350321473495850e-01
-5.947624215266881370e-02 4.252564758577040416e-01 3.897388664966318639e-01 2.225076533305585802e-01 -9.248169878594234006e-02 2.529617943379995904e-01 -3.866651808131677526e-01 2.264523213418008496e-01 -9.518755304776142095e-03 -5.280440930053695858e-01
2.714005290381322211e-01 -2.065866585745500250e-01 -1.779225298698181301e-01 4.895434356160402456e-01 4.242805229393968869e-01 4.806603456488717230e-01 7.548627014937240309e-01 -9.160920102264552556e-02 -3.418032466358692512e-01 3.503560129207344831e-01
-5.605746745914466089e-01 -2.605051242121619315e-01 -6.122320247920944036e-02 -5.953335752458539104e-02 2.890752047559407290e-01 -3.139860726121287415e-01 1.718003321908176048e-02 -1.996208102900149661e-01 -3.194277921896056527e-01 2.634536006442755318e-01
-2.327817179797945224e-01 -1.832334257002538602e-01 -4.183316529648979376e-01 5.234451173231547960e-01 2.701607814186035017e-01 4.445920974529955494e-01 -3.283690762815568709e-01 -4.074571850363696568e-02 -1.299847952421283315e-02 2.078788898515825361e-03
2.504024905390728750e-01 2.354882500604795204e-01 1.971685873026637337e-01 -2.523470167043002088e-01 -4.111746109576492336e-01 -2.713403735564341446e-01 2.482158005878428164e-01 -3.725469497828218235e-01 4.043432134416054535e-01 6.985495885897027857e-02
-5.499251104187590986e-03 5.443129804648420000e-01 -4.496925693347557096e-01 4.868960785445380357e-01 6.672701684885095075e-01 1.834345009087562650e-01 3.097276003335137640e-01 2.777992824815881390e-01 -4.794533323290203763e-01 -6.619324937361312777e-01
3.321481701047392376e-01 -4.390142453586825533e-01 -5.071646920487213883e-01 -2.752741282547397361e-01 5.480604670693648428e-01 -8.244713350127243212e-02 1.630101560669675390e-02 6.080332698904201694e-01 3.056013923011147160e-01 -2.894918126533183589e-01
-9.758860382219400331e-02 3.371442441230501630e-01 -2.961975118456721123e-01 2.005371702567246006e-01 -5.545636994866348646e-01 -1.637094980929207633e-01 3.332013661469140353e-01 -2.864761878260752570e-01 7.355658735200729659e-01 5.136128230461453059e-01
-1.321741799165979114e-01 1.346658919946070454e-01 3.606456483049059747e-01 3.039246373672848667e-01 9.544416114709637633e-02 5.486308822963756882e-01 2.348417577406074208e-01 -7.900299957568480969e-02 1.518195792092180973e-01 3.871007366462338450e-01
