6.280974204562856933e-01 -7.907227550761695145e-01 -1.144456105320045408e-01 -6.186166761012467097e-01 3.209831460703718164e-01 -4.557715081813138447e-01 3.528782129419124614e-01 5.918742334853550613e-01 8.054759272536372583e-01 7.069572809585668027e-01
1.489174229895973978e-01 1.206430090873250316e-01 -3.855424442949101360e-01 4.049647313093548973e-01 3.948168516285410212e-01 -1.070242099896878546e-01 -2.524287425859270684e-01 -4.295457134916201847e-01 5.158673361420825776e-01 -2.689209145831190084e-01
2.778493191674930030e-01 4.412868321277662598e-01 -2.002430163515189418e-02 6.552996508577920709e-01 -5.666351602068656623e-01 -2.937905628251603063e-01 5.538315094144132811e-01 2.538238142492201810e-01 6.821760718041297578e-01 -2.664482282096074517e-01
1.836695633878363543e-01 -1.453512231910008556e-01 -2.225684528830220582e-02 -2.796419865565353408e-02 -1.204415050965628453e-01 -8.692332402363861510e-02 1.444313613116689488e-01 -1.165388016467871490e-01 1.050592548517376712e-01 -6.361187225440430304e-02
-7.225434024708358820e-03 -2.610317875836627201e-03 8.296636920646545399e-02 -5.410224965957764233e-03 7.725942834847919494e-02 3.051225520601791655e-02 1.288303221526199832e-02 6.542250820279645052e-02 1.616161514194952922e-02 4.327394608474388615e-02
-4.455954193871452529e-01 -7.467146615610793514e-01 -4.072227557382239460e-02 -7.939372131256363652e-01 7.014865111908418216e-01 -6.939194102246996065e-01 5.530552335096592387e-01 7.123315459564502072e-01 6.743071988908483361e-01 2.296976399851060890e-01
-5.032229310933922749e-03 1.638251283527049629e-01 9.285352009434941212e-02 1.613151692850761307e-02 -1.501975163028200846e-02 6.373293241090838626e-03 3.779450188279080691e-02 1.755779735387910656e-02 7.786688314387590903e-02 7.075967053385659455e-03
-5.348089398639065406e-01 6.800726002128154590e-01 8.283948807517749202e-02 6.851930111344668450e-01 2.255275197833865042e-01 -3.245036528983294977e-01 -3.837665041045314474e-01 3.200916475076134304e-01 -6.045742360409638305e-01 5.596119825494264566e-01
-6.976715013145630417e-02 5.906330353639616115e-01 5.494256662641824329e-01 -5.613018231588422502e-01 -2.799291970485162651e-01 3.677991403180584928e-01 -4.136919668368778669e-01 7.202958254918594427e-01 5.175309698273093950e-01 -1.895772139583333238e-01
5.268835333180012584e-03 -4.512311535992039567e-03 -1.111072777746294725e-02 3.288003466317637735e-02 1.090074400118563602e-01 6.446703508152683282e-02 1.326377281018301796e-02 4.460892541314507437e-02 3.765355774417381007e-02 1.065460310305861406e-02
-4.692698264712468446e-03 1.182114473590113596e-01 4.628186129393433573e-02 -4.003566465910669836e-02 1.926198447842231154e-01 2.799273416268254974e-02 -2.312047593371217846e-02 1.081143877182541742e-02 2.701260772403086055e-02 4.117046335315013850e-02
3.422647574389383052e-01 -3.188770284029711077e-01 5.955067304829912977e-01 1.864058414949260334e-01 -3.493784826394532445e-02 -2.090144337451631806e-01 5.402650023103402477e-01 5.067657507388706462e-01 -4.532631673192395461e-01 4.087002770832247611e-01
-4.213675566081155344e-01 -4.418546811204206171e-02 4.405336138775112209e-01 5.790208762614452720e-01 4.676064966134306222e-01 -4.546852660938072166e-01 2.075063925948316401e-01 -1.357446228125994137e-01 3.156923050971319755e-01 -1.273193033047611833e-01
4.145928206720816966e-01 2.024781967886341294e-01 -4.652203111284637371e-01 6.349672455501080837e-01 1.742891342716220426e-01 5.296310619206642117e-02 7.444013163289435742e-01 -1.598687669664612954e-01 4.120510019053443829e-01 2.895720810582502747e-01
3.108416536316758183e-01 -5.498911165730866468e-01 3.642381566712877827e-01 -2.359798933306822277e-01 2.923132974110446702e-01 -1.800274935822353817e-01 -4.541669820571349603e-01 -1.671230360141657267e-01 -2.015950953636401477e-01 -6.815860401945599278e-01
-2.882491300790694549e-05 1.506176312659134563e-02 6.319502088876495505e-02 1.753245308160973973e-02 1.578043743989769251e-02 4.973791448677182536e-02 3.250977141265399498e-03 8.707535962991268946e-03 1.392767642033498378e-02 4.178017624208656827e-02
-3.780779770343968282e-01 9.366217786825602187e-02 -5.187700019513338257e-01 -4.421318775796247436e-01 -1.512627163968462141e-02 1.841996212577932668e-01 -4.561507888792096926e-02 3.495069274033376638e-01 9.012888765994273021e-02 2.415605843211814929e-01
8.297674730298686407e-01 -5.337672720699346840e-01 -7.693720599338937927e-01 4.700892764854727179e-01 5.960066512697069774e-01 3.149311555383817463e-01 1.115673325933303345e-01 6.657051869887594675e-01 8.042207108440285745e-01 -4.411909262412636035e-01
1.320184476349622795e-03 4.148889425329271852e-02 -5.877139312332060328e-01 -4.763426731560589933e-01 -5.774706203249648784e-01 2.848424093100433430e-01 -3.635301146705741115e-01 6.723966612982896773e-01 6.691276303555142302e-02 1.282589773612701801e-02
-3.022457309106311649e-02 2.179354810473912996e-01 -1.258593018074203040e-01 6.059040478604123953e-02 1.892523864142741097e-01 -8.337153481845034630e-02 -1.769116832867793088e-01 1.147437225060758959e-01 1.281307236546736505e-01 6.144551235825222724e-02
-7.246499804684954950e-03 -5.476352284998108055e-02 -2.294576054383953845e-01 3.537310968440088299e-01 -3.959439280704062369e-01 -2.647949279098097547e-02 1.678261417548568002e-01 2.102890768200752214e-01 -2.949424630043360751e-01 1.624779381354512220e-01
2.704265881436712649e-01 -9.021565545538577646e-02 -1.993937843086715789e-01 3.952667351500162574e-01 2.587792049549537121e-01 1.611410632411416910e-01 2.020003127240217744e-01 -9.013256041226509752e-02 -1.225584992824106934e-01 -2.121176037056352603e-01
5.495481451589603189e-02 4.004836258040106456e-01 -1.799219965153920353e-01 1.646297261696456071e-01 2.440810726357402483e-01 1.248551930217069866e-01 9.790792726948217839e-02 -3.403732648483177858e-02 2.350296554493901402e-01 -6.757421706060486033e-02
5.222546873662509137e-01 1.115889767350359135e-01 8.166424838334545022e-01 -8.842741619754057592e-01 -3.956939753369462798e-01 8.720107798198499516e-02 7.579953308529209233e-01 -7.725790106522212319e-01 -2.091108479935636366e-01 -8.073662477918313041e-01
-6.267358697190750227e-01 1.823788461166407637e-01 1.325551195847965089e-02 -6.648964457851802567e-02 3.358869462242713988e-01 -1.315725928763075425e-01 -6.816539490858157802e-01 4.604879459494878868e-01 -6.511459357765678746e-01 -5.961867825493563089e-01
1.072233236544302588e-02 -1.934183250444586680e-02 -1.655220633194503035e-02 2.407023045643674197e-01 -4.795609702473065394e-01 4.084495014447978578e-01 -2.016293099600396932e-01 -2.460412783958957142e-02 2.136127965692052044e-01 -1.154046288775587847e-01
1.707695235176295567e-01 -6.254401224578274299e-01 -8.072855343431631914e-01 -8.183018641611568278e-02 -3.100812024534566058e-01 -7.991692993800297851e-01 -6.671520674856940003e-01 -7.252960396773824314e-01 8.635838385903845671e-01 -5.173841119490270035e-01
3.677574019553155327e-01 4.725521136045588988e-01 -4.058230481157317632e-02 -2.680110932661884382e-01 4.402950304487505684e-01 -2.732627426619320121e-01 5.120908506134065341e-01 3.508368653324508424e-01 1.541500843369236762e-01 1.383325871547422814e-01
-3.188457117267990415e-01 2.924188004649481698e-01 -3.612075281651890707e-02 3.175079959415995356e-02 -6.891428070872831491e-01 -2.337680702938222943e-01 3.330244348269181254e-01 -6.513039846682342482e-01 3.844338499065909631e-01 -4.380040243296272779e-05
-1.700640218265556669e-01 4.724818405665880405e-01 6.105236564714586756e-01 -7.397990269727861001e-02 -2.030680628366869356e-01 -5.375384884543757957e-01 -2.577343389843470001e-01 -4.019267817733803150e-01 5.157403913935002526e-01 3.536585215686174899e-01
-3.802113199880330363e-01 -5.363430327514765450e-01 8.693298914487485041e-01 6.504328442750515471e-01 5.090513993301869489e-01 -1.410420578674614900e-01 -6.746286958213860707e-01 -8.366271453424525828e-02 -5.761308645227921632e-01 -6.630525928842850858e-01
-6.686565376229872126e-02 -1.097003149751128448e-01 -6.902692586374443717e-01 3.331918949610176983e-01 -3.807934791067906777e-01 -5.756806529765137181e-01 7.955623041831503262e-01 -1.530392940247497779e-01 -1.317075339220621366e-01 3.561983352788788970e-01
-1.494565910267262598e-01 6.056421197139932877e-01 -4.882795731743994061e-01 -6.682711317034857323e-01 2.552912148699711392e-01 1.322211323708362141e-01 -4.429273521600866903e-02 2.598626831677025018e-01 3.158940797661741740e-01 2.462865812539062060e-01
3.088575658954072489e-01 6.332466572715282904e-01 -2.220664566880022062e-01 3.519969560174933121e-01 -6.077541016069533120e-01 -5.775696452920309198e-01 1.101957221810824922e-01 1.916754472816064314e-01 -1.171722522782192993e-01 -4.398235819791863621e-01
-3.440618248227853698e-02 3.200076203609093506e-01 3.504557610038377957e-01 3.130432260805910416e-01 5.172514404514007014e-01 -2.778067177940624077e-01 -3.696797195355165933e-01 -5.280102935105523976e-02 -5.640589538042577455e-01 -6.215244791542824665e-02
-3.541086792400754413e-01 5.875127102666017898e-01 2.764256217289278172e-01 4.282257725700822082e-01 3.981591172952184676e-01 -4.539775925964154024e-01 3.550569114730152132e-01 -2.567261891043298161e-01 7.152070234250953451e-01 -4.215504561455899468e-01
1.046474164670613410e-01 5.245201733381917031e-02 2.979169359432723777e-02 1.134891226193669375e-02 -8.073876752723245509e-03 -1.813768936951503513e-02 -8.246121694014381474e-04 2.125512539074664586e-01 -1.208936682024543477e-02 -3.159245265799340632e-03
1.143036843730069613e-01 -3.205448101752944590e-02 -7.767937385426281101e-03 -1.429693558976432022e-01 -1.730391970956206005e-01 -1.148946768227515798e-02 -4.140735254364866225e-02 6.721884276005224423e-02 -1.031172090302322902e-01 -2.435843201563851756e-01
3.823482687674327751e-01 -5.486903398560800671e-01 -2.849016379099464924e-01 -7.030319718370778848e-01 -6.899427609411160067e-02 -6.919714837116822670e-01 -2.040934289557654602e-01 -6.344666281298837474e-01 -2.098158445636442299e-02 3.150020193069251184e-01
3.769526621555151225e-02 -6.451948634794806015e-02 -8.032257162399985065e-03 2.210320872400988249e-03 1.810499017931108123e-01 -1.252668835380463426e-02 6.517492557822915367e-02 4.675565260622611269e-02 -8.367829706699494302e-03 5.078512052610178323e-02
1.141612107118718383e-01 2.424198714236907859e-01 -2.937205559765599869e-02 1.305072945320864541e-01 -4.011257237874775450e-02 1.468354263542051286e-01 -2.557111787876302222e-01 1.699278189230053748e-01 -6.269616847072479425e-03 7.117381106358498799e-02
-3.785948958217277838e-01 -4.034781900331858157e-02 5.790994806737875811e-01 -5.127387520617870953e-02 -2.525355565936967528e-01 7.095104965174946487e-01 -3.177350061965981687e-01 -5.153745145472761191e-01 -4.077568368972708246e-01 5.449943551623879223e-01
5.803700816926469219e-01 -7.537390620783272766e-02 -2.596637801907134002e-01 6.618554406784745714e-01 -2.619433209530851459e-01 2.617170927843289960e-02 -7.756053878908737431e-01 1.503443920961011482e-01 -5.354942754727656240e-01 7.418642928503770273e-01
2.370350470432134871e-01 1.594640247020647772e-01 1.338714452785080659e-02 1.104151950675148763e-01 -6.756969678857878414e-02 9.944968071773116480e-02 4.906448146456975773e-02 4.595344994188572951e-02 1.082462974443981485e-01 1.293816605704505296e-01
-5.198628660724008421e-01 -8.461935191533346279e-01 1.558548666698986451e-01 6.036406761643910990e-01 -2.753823209561369612e-01 5.896364385647258066e-01 -8.403249563731135519e-01 -6.977004949711179682e-02 -6.876892605985673868e-01 6.391915110067342143e-01
4.524680311982635580e-03 8.131719358026672471e-04 1.437436614928083722e-02 -1.438741564655848792e-02 7.122889570721130381e-02 6.531877426892704341e-02 -7.543565292434059946e-03 3.784379801806062732e-02 -3.951866836625558127e-02 -1.466259555288061504e-02
1.981318837789769471e-01 -2.350684230084791049e-01 -4.370062802941825919e-01 -2.993909804537596697e-01 4.346890753522727469e-01 3.659893562681556523e-01 -2.095975158999728583e-01 -5.270514397901150394e-01 -5.150280588655761216e-01 4.886924354618784605e-01
2.759824663305958103e-01 -5.040819672998110290e-01 -2.062469153630298868e-02 -3.355038459214088054e-01 9.801167294708819366e-02 -2.892741949826459491e-01 -3.818719564982293035e-01 -6.195577429746026293e-02 9.010197822045431029e-03 1.761746614158757052e-01
-1.052228075761020287e-01 -2.707989998244524354e-01 -7.454929986612354731e-02 6.432048503935926254e-02 1.906048393279998199e-01 2.030047114088440185e-01 2.213095287824494717e-01 1.828880233273051659e-01 1.138588818420741416e-01 9.249698896609637178e-02
-8.559820528681382212e-01 4.488715466290772449e-01 8.837083253115406156e-02 7.403241749866527055e-01 -2.688915743734608399e-01 -3.179599400050152069e-01 -1.515054446650154485e-01 7.619823292652401214e-01 -5.128065113340003062e-02 1.400924460355178480e-01
-2.410949093712660973e-01 8.390424636158060057e-02 5.650992250463808819e-01 -4.027697006926327372e-01 1.992185675534690059e-01 8.061649898104883416e-01 1.950648109233697469e-01 -7.680092967158368492e-03 3.365388649369927543e-01 -4.146349168883243785e-01
6.714980263577819027e-03 1.086811887933547688e-01 -2.787694300895819308e-02 -8.268042950063271557e-02 1.021360362866652327e-01 -1.426687530512493751e-01 1.006160147427874602e-01 1.265616144698251608e-02 -1.299612996982263576e-03 -9.516660409064497950e-02
5.805389885011301432e-02 2.455033894313357265e-02 2.029207126746210843e-01 -1.691201880894836404e-02 -2.172530505894353092e-02 -3.994481912111446514e-02 8.277315227374010612e-03 3.127451092199105831e-02 -1.012695085624976538e-01 1.987932448187429077e-02
-2.850571454614393985e-01 7.619040425991139287e-01 9.132865068473683401e-01 -6.196883717250866175e-01 -1.047326134501083139e-01 -2.455273903520066858e-01 -3.177373585767033770e-01 -2.266719136645180266e-01 6.788320668960736715e-01 -3.965410553568727292e-01
-3.375197766126238341e-01 -4.367364608618126698e-01 -4.450818631762230582e-01 2.738944094350495018e-01 -2.331125438060659416e-01 7.290674900137777970e-01 -2.080510406625947772e-01 -5.147150148459636032e-01 7.483982374740820454e-02 4.376730432157403539e-01
-5.075735762684081553e-01 4.419336700783146332e-01 5.393688032619313732e-01 -3.210424239725120921e-01 -1.554906199547890777e-01 3.177197021736845595e-01 -3.198847647774004099e-01 2.311367933553981902e-01 -5.810001419170442993e-01 -7.117771051835587448e-01
-2.340862927806903471e-01 -4.525151512346801130e-01 -6.237057368407431523e-01 -3.828490415912058076e-01 3.782771636198269394e-01 -5.358735166886740009e-01 4.715140767643243719e-02 -3.165867172665320362e-01 -3.662078910431867396e-01 1.457972176910850293e-01
1.045904701016602684e-01 -3.943605728053187209e-02 -2.289204110958634186e-01 1.577810679481740641e-01 3.319500818243336510e-02 -9.359622314834339929e-02 6.538972898819170321e-02 1.449526329846939458e-02 9.001380594135525992e-02 -2.061200858801353897e-01
-2.537151402815229218e-01 1.634022650440900282e-01 1.974545693282423742e-01 -1.451239419241224793e-01 -5.744730849830989028e-01 5.612902604134333284e-01 -1.218367213078388606e-01 4.366493496615553305e-01 -1.755327702450993621e-01 -5.469587731900370509e-01
6.780889242802064232e-02 2.733632852930302851e-02 1.756498427349839284e-02 6.035824022395706867e-02 1.098165189475095588e-01 -1.762917596491196670e-02 2.921826603961521183e-03 3.053082633956360342e-02 6.753794227905116250e-03 6.799161258386005047e-03
-5.653674530968417766e-01 -2.821255868144499912e-01 -4.560231900847337427e-01 6.325957993882166397e-01 -4.840100038103462010e-01 6.905571947658878385e-01 -3.439492155080179359e-01 -4.550795049120045510e-01 4.822168160307973017e-01 5.614934801270176079e-01
-5.399070330182780264e-01 -7.971686924476575897e-02 3.621267419102381369e-01 -4.025279515223841552e-03 8.202569588363285424e-01 -2.675244033100424579e-01 -2.277207035395716062e-01 5.789851906132547077e-01 -2.556302817484211731e-01 4.227325085696295170e-01
-3.922935112794227047e-02 -2.530195435682099439e-02 3.270082752588111125e-02 5.982189930924589061e-02 1.620771931845924052e-02 7.037722070949158082e-02 2.259374117436157431e-02 -1.451003459427550879e-02 2.095004213717261039e-03 1.185394108768207250e-01
-8.883967741474560476e-02 2.312104316106230739e-01 -1.990494519469897597e-02 6.632552065988137069e-02 1.533825562146390875e-01 5.322087460768455680e-02 -1.253663848515478296e-01 -1.332414654919807928e-01 -4.048826028145798006e-02 -5.535496146985039584e-02
6.342007684484081594e-03 -6.861425387306090140e-02 1.587487891327450315e-02 -1.637549119370905193e-01 8.483324259666362444e-02 5.944202000743462055e-02 -8.158351672472989591e-02 -2.123436170653617006e-01 -2.663338924871973545e-01 -5.201998200902182568e-01
5.178927603892504727e-01 -1.013740309197241757e-01 -5.262118539298683562e-01 -5.595687517977487868e-01 1.224755183665914987e-01 8.621883380392279805e-02 -5.123020927447153872e-01 -6.815341341615269166e-02 -6.185466466804293573e-01 5.105275748200149843e-01
4.610063516138440676e-01 -6.362338862897214398e-01 3.782858397917402971e-01 5.747367472949135303e-01 6.291787518678441105e-01 -3.056980187907936131e-01 4.009003262661410827e-01 1.720225812286837741e-01 -1.273226634285704560e-02 4.826440252068796011e-01
4.189728925319631814e-01 -4.461867657229863227e-01 -3.767813794694663265e-01 1.654219959082429137e-01 -1.396428315841753975e-01 -4.134971729757264680e-01 5.024554593452890128e-01 4.221499667675457368e-01 -1.273888470276536011e-01 1.118374519665485817e-01
2.125820415414404752e-01 7.906207600467018981e-01 5.095673300195071587e-01 6.025118618485811872e-01 7.222737893186251812e-01 -8.031504300759133574e-01 1.674390876923820826e-01 7.928688551108132865e-01 3.089495359496274851e-01 -8.702827180595354983e-01
2.633939440920879393e-01 -1.123317801561491691e-01 5.149852799671807840e-02 1.331517210896648595e-01 -2.060414062982401651e-01 3.423186635963420543e-01 -2.965991093005070078e-02 2.462929469431610341e-01 1.379462216043490785e-01 3.488049089347543541e-01
4.321547260147698410e-01 -5.374328091797209161e-01 5.565442568522569466e-01 -3.541758872045325801e-01 -1.775259326467054088e-01 -1.607636990992591386e-01 5.566410950089060172e-01 -4.451662852595048570e-01 3.267151446905887657e-01 -2.322739500649287081e-01
6.766387347234890104e-01 -2.550036001543870556e-01 -7.074584532560286299e-01 8.932583712407800025e-01 8.626010642852723065e-02 9.341072077569158028e-01 6.929450204352914922e-01 -2.708447988666320971e-01 -9.290677505436950590e-02 7.890342439403916774e-01
-2.191865089548075407e-01 7.309757356072793706e-03 6.523322707517163754e-02 -5.207550578132468244e-01 -4.264921825684301893e-01 -2.377548583066889654e-01 2.161391452934547097e-01 -4.032108196346198548e-01 -2.950880277319113398e-01 1.429120140004364048e-01
-2.082327180473880226e-04 5.162087942281681774e-02 1.671685455868462955e-02 9.327793739436923692e-02 2.634162011389016688e-03 7.786135893540262198e-02 -8.653278715132515847e-04 4.801612202123577144e-02 1.014464861199948671e-02 1.606154854158436951e-02
-1.265511610759318117e-01 -6.034079283181270625e-01 2.757836775963785625e-01 3.312744327094320484e-02 4.916544381780645900e-01 -4.561318028543603353e-01 2.473542869213549156e-01 -3.983800488276501017e-01 7.145890185935548367e-01 4.417546375158032945e-01
-4.830424159769816095e-01 6.759192538301752595e-01 -1.035794678181203993e-01 -1.626349645233101937e-01 4.553539275930016395e-01 5.136077928339948251e-01 2.686423901696551320e-01 4.594183474583149462e-01 -4.625226751049470453e-01 -3.979593577451887576e-01
-6.387421268001514107e-02 -4.113164043947516446e-01 5.389466239854329155e-02 -5.832813732241252935e-02 1.506545112258061980e-01 1.814258757411432998e-01 1.126524936541795224e-01 4.070665497432728874e-01 -2.684543732479077183e-01 3.244321706792846483e-01
-6.774086798605100102e-01 3.952154602687478757e-01 4.481628712030876205e-01 7.199214380439752370e-01 1.306621114822169860e-01 5.890212759565870426e-01 -1.913523184005083699e-01 -8.453247227855667512e-02 7.054182270544337996e-01 9.197277200002330899e-02
-1.490418631888303647e-01 6.238646765256735671e-01 -5.614684426773095538e-01 1.914835697464532249e-01 3.062906700171522667e-01 4.263548587417991809e-01 3.999863175014366501e-01 1.154918364056546354e-01 -4.287703167778165320e-02 -1.581528340687416434e-01
1.001530711101570464e-02 -5.503754052347130561e-03 3.209302788498900882e-02 5.458533407850978819e-02 7.905627591879821336e-02 1.855138819296592301e-02 8.567412582933277981e-03 1.014436611568822616e-01 4.428150266185911649e-02 4.233108145887308493e-02
-4.907776455146934391e-01 5.994175973969745330e-01 -4.901157953392825117e-01 -5.616934299680523095e-03 5.723062922363606475e-01 -7.475784283684506759e-01 -7.993271996085064002e-01 2.622110188774194883e-01 -3.389500784666242272e-01 -7.029644623625882494e-01
-2.114434548700129257e-01 -1.543863486862864787e-01 8.019078746298517746e-02 1.385151259048672534e-01 1.405588924671196671e-01 -4.121622473388765751e-01 1.103600083643727220e-01 5.761427318135784459e-01 2.047205605799051198e-01 -8.218431531226713660e-02
-5.440056179734958919e-01 1.966836507173537474e-01 -8.093961432069278761e-01 -3.328606871456086247e-01 -6.752245717292132410e-01 7.874732840010258139e-02 -8.323586182057606253e-01 -5.071703697259034582e-01 8.003727672067098009e-01 6.869558037093170810e-01
4.299416383017629767e-02 2.501117647947434172e-02 7.754767384904569238e-02 -4.237004080770485209e-02 2.164857423375528278e-02 3.882780528828265465e-02 4.089570410514787452e-02 4.391285962226330192e-02 5.444667777669638577e-04 1.663689880622479939e-02
7.435835991548948865e-02 -2.030483030174926595e-01 2.924522138347258604e-01 4.332191840811994155e-01 -4.830157696230118480e-01 1.865681083582702571e-01 2.239345550151292663e-01 3.775509456583216877e-02 -4.937422975320229779e-01 -5.552235458810793611e-01
2.041962416958875981e-01 -1.082155592742999467e-01 2.066488218601192917e-01 -2.753541474798643779e-02 -1.918835923672694010e-01 -2.208474314534401850e-01 2.262279915743143355e-01 -2.306628562868889842e-01 -1.024333712143611907e-01 2.692914713045471142e-01
6.965862290749272878e-01 -4.799616020830561602e-01 4.768052989129116237e-01 8.245666390539514445e-01 6.134304538312903565e-01 -3.286252875508427485e-02 5.271075003645854240e-01 6.936989017840217153e-01 5.925118120583754422e-01 1.054213977948196962e-01
9.712348172895930720e-02 1.149805639173496902e-01 4.738275785721242639e-01 -1.431676682309602489e-01 1.858759891525735286e-01 -1.967472954915176486e-01 8.830545869276829052e-02 2.645904082490884157e-01 -3.720520480352687565e-01 -3.559160100979598118e-01
-3.568844332285268650e-01 1.337309259356799784e-01 3.852048433583595832e-01 -5.816049831757847954e-01 5.703598856773807180e-01 -1.207483213899115254e-01 7.210829428045276712e-01 -5.607881084509257485e-01 7.488309712052290679e-02 -4.131640213272060741e-02
1.541782496489473298e-01 -2.133793632341693114e-01 -4.072994512117180665e-01 1.191321893229452950e-02 5.076318969280271126e-02 3.239263472312957359e-02 3.722454968836893530e-01 3.756654412040464353e-01 -2.798714557486810250e-02 -4.795302255685232051e-01
3.043891032433801436e-01 -6.138984447424498114e-01 -4.682223459153795897e-01 3.028958743510592674e-02 1.540973500432067655e-01 2.915475781106857678e-01 -2.633631125100613923e-01 1.998664260922858593e-01 -2.633457634343820963e-01 -4.027321581109183368e-01
-3.652670664974086434e-02 3.791879998541065611e-01 3.165104546423691545e-01 1.807123927753445936e-01 -4.957550675664787465e-02 2.230304054479810560e-01 -3.218246920604129202e-01 1.830213328228960934e-01 -6.543555680650615892e-04 -4.138510860953122372e-01
2.500763075880167441e-01 -1.879794296519593511e-01 -1.562088570346363003e-01 4.514080511669750218e-01 3.865336298192599829e-01 4.693036822400755703e-01 6.905263276703672570e-01 -9.483370550879803573e-02 -2.886928141016869565e-01 3.426037488977480838e-01
-5.086815179676229537e-01 -2.095638200361713555e-01 -5.619928094615900260e-02 -7.183875630803881508e-03 2.658675070141608421e-01 -2.246808818205720260e-01 3.295284741685955161e-03 -1.825987123990215899e-01 -2.858072785330085797e-01 2.361577011294186956e-01
-1.373607238987107904e-01 -5.436307294369124854e-02 -2.067567830400269813e-01 1.846178071415311428e-01 1.608874166969300190e-01 2.290270024738669252e-01 -5.355902827257422172e-02 5.974047864218873238e-02 2.091271068204786018e-03 -3.600864816226616305e-02
2.097868382930817011e-01 2.431227243922964021e-01 1.706198032705876499e-01 -2.129264659536470317e-01 -3.638545122923904085e-01 -2.430837001531005459e-01 2.399169302046087748e-01 -3.075048604887596349e-01 3.487513375312298880e-01 6.491789677603275466e-02
-1.977246382834686473e-05 5.352763605713873885e-01 -4.410902119754327999e-01 4.749485994340787443e-01 6.461669679021803114e-01 1.768742915727849474e-01 3.234138511656000081e-01 2.757331322645258931e-01 -4.688935100023270408e-01 -6.461542994663533879e-01
2.797976361688238045e-01 -3.684384498113976725e-01 -3.852739319291358933e-01 -2.309109510678856170e-01 4.674692152421101587e-01 -4.091494547987901270e-02 2.081407301619313255e-02 5.135280481239538064e-01 2.601124718273438163e-01 -2.423414014468990019e-01
-6.536370357454571178e-02 2.960910836055387074e-01 -2.507689197829651162e-01 1.818185520572522251e-01 -5.113978280657626163e-01 -1.680167266192198472e-01 3.094525766404616629e-01 -2.796722968478893012e-01 6.665955944258112886e-01 4.493343866157673006e-01
-2.567610128484770250e-03 9.159056213725012829e-02 2.079918988360066612e-01 2.014097106753311439e-01 9.071654168629962600e-02 3.479485265304697594e-01 1.668117733843986206e-01 -1.093705905759443514e-01 8.463099136349967744e-02 2.474696432526604928e-01
