6.281432674869441568e-01 -7.909700821534062509e-01 -1.144621510890901916e-01 -6.186458795133881194e-01 3.210283377163933305e-01 -4.557745625079106522e-01 3.528225908066014438e-01 5.918740705727637552e-01 8.054241537912407711e-01 7.070048757940838868e-01
1.489349742081270689e-01 1.206349162072564984e-01 -3.856559370685077592e-01 4.048607548387700983e-01 3.948723285639013647e-01 -1.070416781669902284e-01 -2.524239055784224250e-01 -4.297543534266085596e-01 5.158840237389649142e-01 -2.688906951126635581e-01
2.778884349966720957e-01 4.412940728086344744e-01 -2.001521720854326433e-02 6.553925978420591658e-01 -5.667411367130267275e-01 -2.938177182976361435e-01 5.539087396716251277e-01 2.536415575617900209e-01 6.821451502721858073e-01 -2.663784135097322370e-01
1.800311191571776215e-01 -1.488051049774102852e-01 -2.349805496818081763e-02 -2.935287434496579653e-02 -1.230813788744783144e-01 -9.116704907651421164e-02 1.481408163022241986e-01 -1.199302065392135463e-01 1.063524769346590737e-01 -6.429538612752203064e-02
-7.569572132859863842e-03 -2.447886536179059731e-03 8.230178216270502001e-02 -5.475835073253202193e-03 7.990587591751519003e-02 2.542744085788446740e-02 1.170761900824335983e-02 6.510530619803343855e-02 1.532530533874125293e-02 3.980126607585257603e-02
-4.455954367864186083e-01 -7.467200727100105073e-01 -4.072278035730846069e-02 -7.939361751117581800e-01 7.014915116178995769e-01 -6.939171090165529021e-01 5.530560773524272333e-01 7.123095954312050893e-01 6.743089738668021083e-01 2.296982312874256416e-01
-4.959117953420849947e-03 1.699745330709656610e-01 8.674101170410060402e-02 1.527985563200212268e-02 -1.431676792698261154e-02 5.274101562310809684e-03 3.806766515579645960e-02 1.653533628073882225e-02 7.380860944633005349e-02 6.223024007289162073e-03
-5.348086953858722792e-01 6.800782539825683815e-01 8.272507908677892430e-02 6.852024921614034980e-01 2.255407281756513227e-01 -3.245031980655120329e-01 -3.837681329638576999e-01 3.200976514951961449e-01 -6.045760548785485966e-01 5.596166821266425062e-01
-6.968657169549033470e-02 5.904789716419643897e-01 5.494210399286272306e-01 -5.611501204065535431e-01 -2.798808291845035767e-01 3.678016289047711385e-01 -4.137260975763910609e-01 7.201245054915207389e-01 5.174816631839265213e-01 -1.893471225265414282e-01
5.365790961794222880e-03 -4.142340816581115658e-03 -1.225875076941873761e-02 3.291887301794774179e-02 1.052319526446200970e-01 6.023929026090344557e-02 1.578503879770723484e-02 4.260885410176862287e-02 3.274434380046153947e-02 1.272526417967944322e-02
-6.486235879164345408e-03 1.161751447699536227e-01 4.816120494179312872e-02 -4.554499563461808509e-02 1.975634053057427064e-01 2.846854297503488562e-02 -2.581833813244360440e-02 1.031309294647946538e-02 2.575642209469920785e-02 4.353359036587012287e-02
3.422647841708877370e-01 -3.188770533082656566e-01 5.954979462274406776e-01 1.864058560538060516e-01 -3.493785099270069194e-02 -2.090144500698450369e-01 5.402650445067289642e-01 5.067657903188628188e-01 -4.532632027205124037e-01 4.087003090039963427e-01
-4.213852089292662306e-01 -4.417041110922323432e-02 4.405670412093673494e-01 5.790555774765390185e-01 4.675499730056624226e-01 -4.548586252819524778e-01 2.075021363193913226e-01 -1.357322795506230861e-01 3.156967315460595946e-01 -1.273414969764334326e-01
4.146212306455441809e-01 2.023985907537887707e-01 -4.652048923709652950e-01 6.349928734334031599e-01 1.743198222925042562e-01 5.298893454262130348e-02 7.442945068238298045e-01 -1.599022824001683774e-01 4.120444967075882481e-01 2.894684264116387795e-01
3.107805148000676865e-01 -5.498579307189909171e-01 3.639125711959768639e-01 -2.359663139857456349e-01 2.921247731318520335e-01 -1.800367492659774860e-01 -4.541343308662860179e-01 -1.670704857974816826e-01 -2.015220230261111634e-01 -6.816448976998079612e-01
-2.821125614558076585e-03 1.725078982793691942e-02 5.341679189868650535e-02 1.686378022599732338e-02 1.710941163028664724e-02 6.245214978308166048e-02 5.120562453208244748e-03 5.516550331420725338e-03 1.890820604558535525e-02 4.313686262654236464e-02
-3.804699041656728342e-01 9.372604105367120242e-02 -5.206236700710804577e-01 -4.437266865023936080e-01 -1.476635140000336424e-02 1.850154979187734194e-01 -4.526700659379211816e-02 3.497753368864372492e-01 9.056197409761500283e-02 2.422732494283750815e-01
8.297674734448704514e-01 -5.337672723368941385e-01 -7.693720603186892104e-01 4.700892767205842038e-01 5.960055436761770853e-01 3.149311556958920288e-01 1.115673326491298661e-01 6.657051873217066928e-01 8.042207112462533836e-01 -4.411909264619217619e-01
1.322547423792601144e-03 4.150588883274389934e-02 -5.877997945745856434e-01 -4.763548183840818351e-01 -5.774836481817848810e-01 2.848580272190135432e-01 -3.635403697189453776e-01 6.721877293905299533e-01 6.692396160904512392e-02 1.282388176192291590e-02
-3.143288777301169595e-02 2.203034618532394850e-01 -1.271648509504004210e-01 6.085903632255246221e-02 1.893010289627964360e-01 -8.428364947261721141e-02 -1.795667809610407839e-01 1.177609937056425665e-01 1.299688263661572252e-01 6.013512014301165831e-02
-6.626730033324670227e-03 -5.449104116492257260e-02 -2.291905668180011790e-01 3.551814319357385341e-01 -3.977311803656996547e-01 -2.661445819599822168e-02 1.692553021509984323e-01 2.079471847214798830e-01 -2.958444909973019787e-01 1.639520469985548401e-01
2.708266830419828186e-01 -9.035265457539742862e-02 -2.025455107899698792e-01 3.957242701257530082e-01 2.592534700692900040e-01 1.613405367621255637e-01 2.026595875464169416e-01 -9.018599722300861543e-02 -1.228901986411004565e-01 -2.122115809795471486e-01
5.532692765349588732e-02 4.026095397627434402e-01 -1.833290732638575560e-01 1.654726324455420283e-01 2.453224866159876838e-01 1.254949448208355911e-01 9.840545678921906736e-02 -3.639370212985878345e-02 2.362196498155738900e-01 -6.792092583877688827e-02
5.222553238533903519e-01 1.115884739941263581e-01 8.166426600600371621e-01 -8.842745340302002877e-01 -3.956938673157276432e-01 8.720145644471630209e-02 7.579955963889378756e-01 -7.725790349220578168e-01 -2.091232258728581705e-01 -8.073958220378121275e-01
-6.267011621508316033e-01 1.823340232794317117e-01 1.314610835744021294e-02 -6.643696340506628772e-02 3.359417854406187565e-01 -1.317496257551068750e-01 -6.816912205888960852e-01 4.606118766291877331e-01 -6.511854688239101518e-01 -5.963082542350730542e-01
1.075027426211894004e-02 -2.094414051184484427e-02 -1.660593275290398602e-02 2.411112437465959546e-01 -4.801351818608691757e-01 4.091796650969630744e-01 -2.019262839639258955e-01 -2.459474404414157753e-02 2.139770770238443587e-01 -1.155536616348648710e-01
1.707725697857674085e-01 -6.254409798256939101e-01 -8.074351363141145654e-01 -8.182226190829847146e-02 -3.100805878372158708e-01 -7.991567928389821107e-01 -6.671596389318898979e-01 -7.253018425859937279e-01 8.636023486475983280e-01 -5.173720915889602479e-01
3.677596208790221977e-01 4.725513713700098539e-01 -4.058141913330299416e-02 -2.680121249551531970e-01 4.402747833425685320e-01 -2.733403647601996278e-01 5.121038222950682339e-01 3.508468742458906164e-01 1.541574290634308841e-01 1.383369985537352409e-01
-3.188800625665308419e-01 2.923198850510625446e-01 -3.610357419059372769e-02 3.179247504045758232e-02 -6.891819140754064099e-01 -2.341670952625242719e-01 3.328568737646320774e-01 -6.513660622750326867e-01 3.844986354360503955e-01 -1.601990926683281050e-05
-1.701371290165092365e-01 4.726641167392607312e-01 6.107380786496975356e-01 -7.365468761054838609e-02 -2.040740252068381222e-01 -5.375691565187610266e-01 -2.576105038994578877e-01 -4.025648382482465704e-01 5.158311775705861635e-01 3.541111265203467084e-01
-3.801692086536775372e-01 -5.367714595158782354e-01 8.693279055460531035e-01 6.503895265651529201e-01 5.091367104479627148e-01 -1.410413533818303811e-01 -6.747387186293141159e-01 -8.364695188081339161e-02 -5.762547642508607515e-01 -6.630313228468410758e-01
-6.686026015680515688e-02 -1.096977741122679428e-01 -6.902628468803923001e-01 3.331679893600097420e-01 -3.808241881893162373e-01 -5.759500697298544081e-01 7.955942355865858184e-01 -1.530971168327603105e-01 -1.317172589122490300e-01 3.561990236268103849e-01
-1.494672811132536638e-01 6.056990240314469309e-01 -4.882794043395616290e-01 -6.683072420272284653e-01 2.553248953307701852e-01 1.322229648662862356e-01 -4.425154164794856126e-02 2.595392202916617652e-01 3.158900224699651149e-01 2.464054159992930260e-01
3.088916447411055866e-01 6.332761208017366750e-01 -2.220781664636017616e-01 3.520493785231130213e-01 -6.081261185879366371e-01 -5.776221777728448581e-01 1.099898427721751060e-01 1.917469691990371095e-01 -1.171503494113564636e-01 -4.398864332563642288e-01
-3.438430034211838876e-02 3.196846823836011486e-01 3.505241606719871617e-01 3.130561067617384507e-01 5.172697055276190836e-01 -2.778299451467860504e-01 -3.697305355941528093e-01 -5.281851883483695831e-02 -5.640603456714060604e-01 -6.212168125386184625e-02
-3.539781071275756030e-01 5.874684005919609264e-01 2.764025471028602743e-01 4.283191862060554134e-01 3.982414195339376017e-01 -4.537991163913235315e-01 3.550578668358894685e-01 -2.569371667046772556e-01 7.152193835098392682e-01 -4.217013919123933641e-01
1.068655558110260251e-01 4.988333241670644264e-02 3.213380031510362084e-02 1.166744685327204822e-02 -7.007107194357061093e-03 -1.758704892274399328e-02 -3.739332484449872521e-04 2.052632118920673654e-01 -1.238041700782040178e-02 -4.117906650748563713e-03
1.162649373527050445e-01 -3.092567289770428024e-02 -9.225648290467999835e-03 -1.452123224917975797e-01 -1.769264455442058070e-01 -1.309502278933479154e-02 -4.383352806505888544e-02 7.027703097750734318e-02 -1.035279085610044392e-01 -2.470721394108076618e-01
3.824225620494443034e-01 -5.487489167656229849e-01 -2.850398301156861214e-01 -7.030246911801905085e-01 -6.894688646470716054e-02 -6.923799422477626697e-01 -2.039891564642870025e-01 -6.343468114020629489e-01 -2.100055075957666870e-02 3.146855399997592340e-01
3.451202061073833927e-02 -6.585280315144158292e-02 -8.549373282321848927e-03 2.680812942889225763e-03 1.806720910219442588e-01 -1.029847488537407457e-02 6.597651843531142368e-02 4.927176244649709297e-02 -8.057631144755706548e-03 5.509575832054915828e-02
1.133910644231172909e-01 2.434955388281945798e-01 -2.981562544491260167e-02 1.290174711879906178e-01 -3.990654987185808522e-02 1.486517891724628004e-01 -2.582818895533752768e-01 1.715412437905975973e-01 -6.177005526245541236e-03 7.173698283551174781e-02
-3.792170485989399542e-01 -4.030358212088129555e-02 5.792116965834587239e-01 -5.123171390432115779e-02 -2.525862931254886368e-01 7.097399195671899585e-01 -3.178519323115972517e-01 -5.155343463866473019e-01 -4.077991624860916597e-01 5.449475161492103314e-01
5.803708985706063084e-01 -7.541993655516066042e-02 -2.596641456706469397e-01 6.618563722480692579e-01 -2.619436896415001104e-01 2.617174611543250304e-02 -7.756064795649046939e-01 1.503446037076643371e-01 -5.354950291874811530e-01 7.418653370334056252e-01
2.384568771663542752e-01 1.606206624773914293e-01 1.325357919594454328e-02 1.110610603497176468e-01 -6.807531172177627710e-02 9.652102022493495859e-02 4.813523686361403930e-02 4.641034312465388417e-02 1.090616692556247991e-01 1.302562057326845657e-01
-5.198585538562876529e-01 -8.462097179479846076e-01 1.556639793693930240e-01 6.036384917467897404e-01 -2.753729316595687759e-01 5.896466370789754663e-01 -8.403309376718005597e-01 -6.975470248430275244e-02 -6.876918728201922848e-01 6.391958002375500714e-01
2.181828202386766006e-03 1.231261243726735179e-03 1.461655257788977737e-02 -1.623918909654673351e-02 6.496948626147694417e-02 5.942452914127480806e-02 -1.165584441307847968e-02 3.771975198923586958e-02 -4.197981176638151263e-02 -1.718335320492616128e-02
1.981966965154501603e-01 -2.350623391012822139e-01 -4.369983481281371485e-01 -2.994075144441964431e-01 4.347000301895172503e-01 3.658532380987862820e-01 -2.095264010173539249e-01 -5.274453498441503685e-01 -5.151106787094783535e-01 4.889049044109592401e-01
2.761092253536470698e-01 -5.043191510957509838e-01 -2.062354759890783554e-02 -3.356644809740051416e-01 9.797889547525977239e-02 -2.894294741133769389e-01 -3.827709318346329548e-01 -6.201335709008560376e-02 9.022698923060647885e-03 1.762681233368596223e-01
-1.057099832537521655e-01 -2.720003851007813944e-01 -7.467667784101281181e-02 6.475657363428187485e-02 1.883763462305779457e-01 2.039600474837801047e-01 2.224266642816353223e-01 1.838462192958439101e-01 1.145597748208186939e-01 9.121307500053717210e-02
-8.559835578570835768e-01 4.488751945614612993e-01 8.838394670895313721e-02 7.402835889193827290e-01 -2.688893341795312586e-01 -3.179491842882247732e-01 -1.515046445534567743e-01 7.619850265863993277e-01 -5.127719096011575800e-02 1.401009403028881939e-01
-2.411464724764687817e-01 8.390496429041453819e-02 5.651007275045129008e-01 -4.027707552959080006e-01 1.992197805671789279e-01 8.061666705960135459e-01 1.950652115222895333e-01 -7.679886137930768721e-03 3.365395656372092148e-01 -4.146354053800588857e-01
7.130314419801434510e-03 1.099250711628591698e-01 -3.135269363138613874e-02 -8.429708691363642370e-02 1.071986952801757265e-01 -1.478335824875473548e-01 9.577000213713990351e-02 1.139780226517893812e-02 -2.001766163790214340e-03 -9.531757964899992275e-02
5.893926010322927261e-02 2.229860562083686368e-02 2.006363484144456921e-01 -1.688618818126113794e-02 -2.198823615288969177e-02 -3.992940784493857753e-02 7.889484338040169201e-03 2.971824679851859524e-02 -1.028932230797401093e-01 1.999142063249542342e-02
-2.850939799248391471e-01 7.620342192021821726e-01 9.134831017824301957e-01 -6.198460092836458601e-01 -1.047824203464035042e-01 -2.461493621692127653e-01 -3.177721595532552734e-01 -2.267895961499529212e-01 6.789545219583795754e-01 -3.966386473663762180e-01
-3.376052039534331306e-01 -4.367512314309586197e-01 -4.450999227630927368e-01 2.739108806552298936e-01 -2.330666555097709869e-01 7.290027315676846920e-01 -2.081773888481519008e-01 -5.147016329350939667e-01 7.484761818487982443e-02 4.376980154804143708e-01
-5.075743109877897119e-01 4.419345507768200343e-01 5.393706979102740329e-01 -3.210401026880659869e-01 -1.555278355120600919e-01 3.177247510669271580e-01 -3.198845035557366101e-01 2.311413585474615395e-01 -5.809986117241511261e-01 -7.117922287730540365e-01
-2.340998448518661901e-01 -4.525125154224668989e-01 -6.237265558622739903e-01 -3.831238786273722385e-01 3.782940248171787201e-01 -5.359034716194305270e-01 4.716819475029442738e-02 -3.166045602377034474e-01 -3.662121068614075936e-01 1.458183165578200713e-01
1.011604461424787660e-01 -3.905037326864777003e-02 -2.301127170541510669e-01 1.592420767716635766e-01 3.309868488198740993e-02 -9.320376611187501659e-02 6.456480278385594296e-02 1.370801458531895750e-02 9.043274808693066436e-02 -2.071509768924980066e-01
-2.539030752358586995e-01 1.633874217539000862e-01 1.975932894257874661e-01 -1.451920871315645345e-01 -5.746434122978981707e-01 5.612122284201384037e-01 -1.220323328263512030e-01 4.367604155144680922e-01 -1.755266895953745132e-01 -5.472217179039641222e-01
7.040629175133238105e-02 2.762205319614928836e-02 1.690508361090292677e-02 6.030368732954704408e-02 1.037069217170502322e-01 -1.882390577964699122e-02 4.231690429276919324e-03 2.988354804861124633e-02 6.242409626712536880e-03 7.012402870713630582e-03
-5.653762983827403943e-01 -2.822646531078497611e-01 -4.561612287114218400e-01 6.324493917582927338e-01 -4.838342501418940733e-01 6.910604162150142393e-01 -3.440469345285140368e-01 -4.560980033307766579e-01 4.820429981279045761e-01 5.611802073702545357e-01
-5.399070330182780264e-01 -7.971686924476575897e-02 3.621267419102381369e-01 -4.025279515223841552e-03 8.202569588363285424e-01 -2.675244033100424579e-01 -2.277207035395716062e-01 5.789851906132547077e-01 -2.556302817484211731e-01 4.227325085696295170e-01
-4.181112685940267110e-02 -2.638538369905860104e-02 3.410556623331027770e-02 5.894537684610460376e-02 1.585394461432565461e-02 6.573240247527679936e-02 2.384844552281826374e-02 -1.451326756624287187e-02 2.480037929587453061e-03 1.185424312941029401e-01
-9.070415005388816898e-02 2.318126819113363879e-01 -1.965395056103128382e-02 6.734576226808286492e-02 1.569252783265298878e-01 5.114702181676675230e-02 -1.293614917897993044e-01 -1.333024282344658085e-01 -4.240039434836823801e-02 -5.755814681107130487e-02
6.088682635461437585e-03 -6.959723660879925389e-02 1.581182982672982990e-02 -1.646543777653486085e-01 8.602168423594983016e-02 6.124877568794696164e-02 -8.256264590010835291e-02 -2.193453110308226650e-01 -2.684205506795465657e-01 -5.253185579353311097e-01
5.180679389110527389e-01 -1.023076771303754878e-01 -5.263693266067118737e-01 -5.598181083431256200e-01 1.226923613423955978e-01 8.627993527298434551e-02 -5.125755848844210094e-01 -6.808811117634842869e-02 -6.189277927445225869e-01 5.106786338503357392e-01
4.610295461969327602e-01 -6.362686685575968948e-01 3.782946948788001862e-01 5.747456242083262001e-01 6.291914086458145761e-01 -3.056535596979172986e-01 4.008996698551658966e-01 1.719804637387876423e-01 -1.272692822488502400e-02 4.826362696172390998e-01
4.191770566895413608e-01 -4.462683095159108992e-01 -3.774925420678637011e-01 1.656166767872725154e-01 -1.395798755881816622e-01 -4.135587005958672457e-01 5.027154318475236527e-01 4.223260020552280225e-01 -1.274406440056131129e-01 1.118462980321014433e-01
2.125820415414404752e-01 7.906207600467018981e-01 5.095673300195071587e-01 6.025118618485811872e-01 7.222737893186251812e-01 -8.031504300759133574e-01 1.674390876923820826e-01 7.928688551108132865e-01 3.089495359496274851e-01 -8.702827180595354983e-01
2.641890488257535585e-01 -1.130491138533124273e-01 5.142107538145146428e-02 1.335139428001432538e-01 -2.061688877433544009e-01 3.443973940202285644e-01 -2.999841592591737799e-02 2.453814487110707321e-01 1.384080081400496931e-01 3.483731501063346281e-01
4.323139068814658703e-01 -5.379489552926499663e-01 5.566346805054127600e-01 -3.540230796967177573e-01 -1.774982839777083654e-01 -1.606925992761861210e-01 5.565381138615659307e-01 -4.454906536789865479e-01 3.266438825967123982e-01 -2.320863608492987062e-01
6.766387347234890104e-01 -2.550036001543870556e-01 -7.074584532560286299e-01 8.932583712407800025e-01 8.626010642852723065e-02 9.341072077569158028e-01 6.929450204352914922e-01 -2.708447988666320971e-01 -9.290677505436950590e-02 7.890342439403916774e-01
-2.191813064942650657e-01 7.158244037617302741e-03 6.417711082207508411e-02 -5.210134008111378945e-01 -4.265634654158504402e-01 -2.373348478397816763e-01 2.164461444402017709e-01 -4.039794468388844817e-01 -2.952923966139391898e-01 1.431431378164126633e-01
5.390317343912614904e-04 4.771915105960315012e-02 1.443775651808593997e-02 9.130140287786747688e-02 3.758202895460729422e-03 7.827281423339922661e-02 -6.325958267823087236e-05 4.609420093039841987e-02 7.459082256626336192e-03 1.443757053528061524e-02
-1.264553681293220655e-01 -6.033466201417313490e-01 2.757129492159319795e-01 3.311167340399810699e-02 4.916140658185160772e-01 -4.562073043647087434e-01 2.472235213583899582e-01 -3.982798126829563135e-01 7.146125554743245623e-01 4.417397044617605295e-01
-4.830004163172184617e-01 6.756669848607730344e-01 -1.036362588525928524e-01 -1.627152141951251629e-01 4.554207797683656467e-01 5.136405661249910937e-01 2.685719410893447345e-01 4.594448919708115642e-01 -4.626437935562697779e-01 -3.979203155513801882e-01
-6.452079879045782840e-02 -4.119188073243612025e-01 5.411777486893621508e-02 -5.810163229459297529e-02 1.520698031448082244e-01 1.799064363153076163e-01 1.125568543053524218e-01 4.074942777538454464e-01 -2.697164540710843550e-01 3.246999634392399026e-01
-6.774085733241888008e-01 3.952156658970663039e-01 4.481626967064275546e-01 7.199221029670923588e-01 1.306621710421473626e-01 5.890215675804005846e-01 -1.913522513833769145e-01 -8.453465970099341420e-02 7.054183748941369458e-01 9.197261742190937506e-02
-1.490424770471467097e-01 6.238683036080545641e-01 -5.614643320589293163e-01 1.914860315318506478e-01 3.062929353740331817e-01 4.262781100660188449e-01 3.999880730802701234e-01 1.154929825551835043e-01 -4.287574961279739388e-02 -1.581494050299857290e-01
1.093938735896001803e-02 -4.988384248903336531e-03 3.078257967486797836e-02 5.612800957430896104e-02 7.573905304155034712e-02 2.135744384155957229e-02 8.364247002245056573e-03 9.951543128034204266e-02 4.200261665588859300e-02 4.431531632876213600e-02
-4.907763520830131232e-01 5.993743125550470285e-01 -4.901102932841466253e-01 -5.613753869651569479e-03 5.723057715855880412e-01 -7.475769683483839412e-01 -7.993253523955139439e-01 2.622157966472220547e-01 -3.389465734436090671e-01 -7.029633793899779937e-01
-2.115583335402539955e-01 -1.547186340037395580e-01 8.019547634035209538e-02 1.385356561134020170e-01 1.406793994706867501e-01 -4.123609857922517774e-01 1.104128734821355762e-01 5.756546853329739255e-01 2.048500497179257807e-01 -8.220846743794471556e-02
-5.440084970306700018e-01 1.966842782598434702e-01 -8.093932705536085459e-01 -3.328865844895255166e-01 -6.752213729884661841e-01 7.874991182638803322e-02 -8.323611877368596312e-01 -5.071676535043964096e-01 8.002924360201323362e-01 6.869617948308259781e-01
4.213403107946256387e-02 2.668739414806926835e-02 7.846982980343515657e-02 -4.134039095667565306e-02 1.925994462098314097e-02 3.728506540444574691e-02 3.913324467382866406e-02 4.151158261989677800e-02 -7.260124318198248527e-04 1.915775413264526883e-02
7.440700054919102691e-02 -2.034309324053176493e-01 2.925049443610295286e-01 4.333499615388582971e-01 -4.831827202690772149e-01 1.861859659489988050e-01 2.240915295567618981e-01 3.765386395252447865e-02 -4.938425203644917216e-01 -5.553381473254300760e-01
2.062076213907826083e-01 -1.118408469948521389e-01 2.065047439263270335e-01 -2.532737105831366076e-02 -1.903843474241578571e-01 -2.217561309260517033e-01 2.266236261045468103e-01 -2.350896768473267062e-01 -1.037492705262496595e-01 2.741036596965741867e-01
6.965860849966872825e-01 -4.799709635970462185e-01 4.768058508857311306e-01 8.245668229222213874e-01 6.134314042166032488e-01 -3.286207200509519422e-02 5.271070947617865210e-01 6.936985281773838663e-01 5.925115728703225226e-01 1.054212550662197018e-01
9.704335119170025281e-02 1.150162691556214367e-01 4.735129692114536937e-01 -1.432044392627635221e-01 1.859654352807935673e-01 -1.967535113175407635e-01 8.833751389772859230e-02 2.646693970626207149e-01 -3.720866535198298353e-01 -3.559285992459706449e-01
-3.568846073402609509e-01 1.337309911784343441e-01 3.852050312866551196e-01 -5.816052669210052262e-01 5.703601639365019071e-01 -1.207753844936225313e-01 7.210832945962840634e-01 -5.607883820403034569e-01 7.488313365343013395e-02 -4.131642228958302965e-02
1.545498445454925041e-01 -2.140867911099706700e-01 -4.081678954655362235e-01 1.235008573627484514e-02 5.118359239323034410e-02 3.148149674210072579e-02 3.723372310553455522e-01 3.767081483292752941e-01 -2.818805828039313774e-02 -4.804953520126889477e-01
3.043964221691766725e-01 -6.139117828410974864e-01 -4.683064934272562763e-01 3.028974039856411477e-02 1.541080077604008169e-01 2.915522968151977867e-01 -2.633640443391369601e-01 1.998717995857118568e-01 -2.634246759626805434e-01 -4.027371976044384905e-01
-3.656472069576581496e-02 3.784892900823773054e-01 3.167376572448691308e-01 1.808903572775053814e-01 -5.033208922984481332e-02 2.231792074375304469e-01 -3.220261456694216151e-01 1.831551397298772643e-01 -6.398778571130571370e-04 -4.141170686584468297e-01
2.500777620305959514e-01 -1.879845907518937487e-01 -1.562224456244211135e-01 4.514264083521384308e-01 3.865477333760271583e-01 4.691702326638615417e-01 6.905509418131587918e-01 -9.483734192641224414e-02 -2.888192248270629592e-01 3.426106238381647073e-01
-5.090270151899756179e-01 -2.099842480802750488e-01 -5.611551792213442802e-02 -7.137358326836105819e-03 2.654200513123543548e-01 -2.264676643813461898e-01 3.426052433351600007e-03 -1.828558798434383181e-01 -2.858363182780682688e-01 2.366353911078224459e-01
-1.355414931426707770e-01 -5.864746652564581386e-02 -2.072579541189092656e-01 1.891003613459427135e-01 1.618173505355526010e-01 2.284587849759680267e-01 -5.355034853633657693e-02 5.423423048541570896e-02 8.662944360640197289e-04 -3.008996618413251750e-02
2.101040736783801877e-01 2.428217933736227241e-01 1.707806455667999768e-01 -2.130739129107326046e-01 -3.638322817311908097e-01 -2.431541650588746328e-01 2.389899029653576590e-01 -3.081148400156091816e-01 3.489182602143516831e-01 6.486383145891116975e-02
-1.978368511252023005e-05 5.352517336398995296e-01 -4.410898234568320642e-01 4.749506141393626257e-01 6.461686309182006482e-01 1.768761308119536357e-01 3.234138585538930410e-01 2.757343176547059072e-01 -4.688933746213081455e-01 -6.461540598302575322e-01
2.799073733887835203e-01 -3.686178969929454485e-01 -3.858108958556812906e-01 -2.309975287508929664e-01 4.676660989419909042e-01 -4.158488326517225525e-02 2.080393575445138588e-02 5.137496436526544086e-01 2.602098222615056300e-01 -2.424321353874411278e-01
-6.544145447671094462e-02 2.961073773122694930e-01 -2.507773230588668523e-01 1.818040829600621189e-01 -5.114548670166600974e-01 -1.680092936994456165e-01 3.094549402198972232e-01 -2.796186898012994471e-01 6.666433768949406868e-01 4.493840984865277166e-01
-5.849237837822886775e-03 9.218979103726412938e-02 2.088818762607838331e-01 2.027314087221676608e-01 9.078978179539243243e-02 3.497659564186565984e-01 1.674595477901281160e-01 -1.092389142013682340e-01 8.540172718281677233e-02 2.495911539789382183e-01
