6.282831544563202142e-01 -7.919145761567172315e-01 -1.145253451130208572e-01 -6.188256502844848850e-01 3.212546174291164292e-01 -4.557119159424168342e-01 3.526318039187620323e-01 5.919525548465642828e-01 8.051966271817613263e-01 7.071378554930436433e-01
1.490650923110057868e-01 1.206272498286609374e-01 -3.862386739048869200e-01 4.045543793440373737e-01 3.950039562170190033e-01 -1.071980325690049807e-01 -2.523961641436682779e-01 -4.302829480584596245e-01 5.159586548040355769e-01 -2.688210378431854508e-01
2.780802490402761729e-01 4.413477933715156398e-01 -2.001013619261720472e-02 6.554573207040477190e-01 -5.667878007682592978e-01 -2.937259707576720946e-01 5.541131849405374066e-01 2.530002674025690346e-01 6.819856349945637719e-01 -2.660702090588695778e-01
1.708798730725071546e-01 -1.617521501701060793e-01 -3.533099242745158658e-02 -3.726470747694123065e-02 -1.327972830666759030e-01 -1.130352540625279012e-01 1.682075961483307514e-01 -1.357870297852445951e-01 1.232926462476443552e-01 -7.279199829896317031e-02
-6.144528760255715816e-03 -2.364947703210111291e-03 7.442005173170672394e-02 -7.948918140804658861e-03 8.186958391093315801e-02 2.982995609296819686e-02 1.263220888694521066e-02 6.366770951776599963e-02 1.190532467567388848e-02 4.111538924100441306e-02
-4.455972085761415458e-01 -7.467635157781470356e-01 -4.072109084235962795e-02 -7.939046754926442073e-01 7.015366860731588883e-01 -6.938797475948603743e-01 5.530677422651795183e-01 7.120911731443604342e-01 6.743329940275071266e-01 2.297115297465083805e-01
-4.853658288892697369e-03 1.712981190316517632e-01 7.558092301320255835e-02 9.263032861557230976e-03 -1.400415994182018301e-02 6.979565799439303025e-03 3.818289339212371791e-02 1.508718085079007419e-02 6.843872979500398301e-02 5.544019701646254843e-03
-5.348090633584137166e-01 6.800953284205396576e-01 8.247900481093749236e-02 6.852293129011703954e-01 2.255742671864572613e-01 -3.245032834747146877e-01 -3.837731230303436658e-01 3.201135991537254477e-01 -6.045843883079892178e-01 5.596310827383566000e-01
-6.979859551939371354e-02 5.905886624548416508e-01 5.496828626227708847e-01 -5.611111307061604769e-01 -2.796012809806419086e-01 3.687454798612969653e-01 -4.152805960153942988e-01 7.204445628042648320e-01 5.172948181672009094e-01 -1.895560866787061316e-01
7.749538426900189070e-03 -5.577529623006754166e-03 -7.916470908737030174e-03 2.654420565510285865e-02 1.004185829582655981e-01 5.488221366664094297e-02 1.769467054378181040e-02 4.484094958163863109e-02 2.788703349238584595e-02 1.388376851655326143e-02
-1.056016108611228244e-02 1.078747488697468365e-01 5.344095350870065042e-02 -5.488112605823570328e-02 2.071699259252938741e-01 2.294357379097818755e-02 -2.664125776834383799e-02 4.270084579704341333e-03 2.857920851785347716e-02 4.590027104522335227e-02
3.422654514465420239e-01 -3.188776749874574490e-01 5.953910464158507221e-01 1.864062194686103568e-01 -3.493791910715025872e-02 -2.090148575621152693e-01 5.402660978015106918e-01 5.067667783038671825e-01 -4.532640863974612411e-01 4.087011058016182252e-01
-4.215460236982009889e-01 -4.412564507783603429e-02 4.407987207314927880e-01 5.793232568055286524e-01 4.671762126630391032e-01 -4.562103240705969176e-01 2.075306948235027815e-01 -1.356949437920772494e-01 3.157669417876671214e-01 -1.274351345978603778e-01
4.146543364427167644e-01 2.020488120827783618e-01 -4.652923601466289472e-01 6.351819300095542520e-01 1.746350004859391902e-01 5.327521938989691203e-02 7.439717691778926500e-01 -1.598920710162838599e-01 4.119849193468383963e-01 2.887201561020225071e-01
3.106087984406578073e-01 -5.498654617189007165e-01 3.627526018933068253e-01 -2.359887344836113510e-01 2.917398534927629905e-01 -1.800918787203592553e-01 -4.541470356981367473e-01 -1.669684521413155598e-01 -2.013310131640463629e-01 -6.818697676218709036e-01
-3.246931508296399538e-03 1.568158972069769869e-02 5.244391741174757315e-02 1.988791760319164395e-02 1.242892240963852125e-02 4.918701054783840981e-02 2.505106414628706368e-03 9.480526409570456947e-03 2.123289432228660234e-02 4.130701980560472913e-02
-3.900788979493909903e-01 9.534260923872477089e-02 -5.287731678721279138e-01 -4.518185764368337631e-01 -1.327809222864347397e-02 1.890112457123174494e-01 -4.317424741935933785e-02 3.533103354307457478e-01 9.287609003830570031e-02 2.424353201862423923e-01
8.297674766016119863e-01 -5.337672743675418996e-01 -7.693720632456644282e-01 4.700892785089772485e-01 5.960015304549997062e-01 3.149311568940063588e-01 1.115673330735731661e-01 6.657051898542950541e-01 8.042207143058055507e-01 -4.411909281403747496e-01
1.330521075872967939e-03 4.155086011523873718e-02 -5.881121110176420475e-01 -4.764022922016421524e-01 -5.775371241048565807e-01 2.849064628676828970e-01 -3.635788603430073485e-01 6.716224859159116711e-01 6.695228898457725175e-02 1.281966354097932234e-02
-3.447055673373527335e-02 2.285812594302226719e-01 -1.296816286134856167e-01 6.165748738655141975e-02 1.883629375859862398e-01 -8.479995496085458717e-02 -1.876913067936507862e-01 1.256975676870702163e-01 1.354911497697196265e-01 5.621586999118922956e-02
-4.702601392709033525e-03 -5.387959369094653256e-02 -2.304577082398494847e-01 3.576674882817073020e-01 -4.005031918967811855e-01 -2.574799449327953155e-02 1.723776613165696192e-01 2.029324936147207659e-01 -2.991985660407079917e-01 1.681068444639836068e-01
2.724604409925956428e-01 -9.099567323516757900e-02 -2.113845587186801156e-01 3.978336456197461013e-01 2.611184069326879520e-01 1.623438681702789599e-01 2.045876904438131694e-01 -9.002720504263592161e-02 -1.236906124612213720e-01 -2.125662489473705841e-01
5.632338862253048056e-02 4.077948890839986906e-01 -1.903876315629189075e-01 1.675814325978736974e-01 2.484945771696101258e-01 1.271313417161935577e-01 9.962729210088061560e-02 -4.320929365362576741e-02 2.391498698501412778e-01 -6.873625774668923327e-02
5.222596301259192497e-01 1.115855050316722358e-01 8.166462351908376771e-01 -8.842755576865282130e-01 -3.956869090051168825e-01 8.720326600904645953e-02 7.580003152326401095e-01 -7.725760880981163981e-01 -2.092148703170393087e-01 -8.074929388802490893e-01
-6.267449430759532980e-01 1.824072706034064739e-01 1.309309596381338751e-02 -6.641751324907500809e-02 3.360649129317823669e-01 -1.325767747556188814e-01 -6.820369401478570959e-01 4.607921783714121200e-01 -6.512699477339666254e-01 -5.966732740260779488e-01
1.081784228675914013e-02 -2.562577233885833874e-02 -1.645709180645940281e-02 2.424195959563251734e-01 -4.819525707845464524e-01 4.116012836398095232e-01 -2.028235344940182427e-01 -2.457029625276695509e-02 2.151635903209395406e-01 -1.157813344451899124e-01
1.707837171624912997e-01 -6.254502706283067148e-01 -8.079137785756065337e-01 -8.181073798091484384e-02 -3.100809808516957200e-01 -7.991437923208718486e-01 -6.671845352827934228e-01 -7.253214976320633278e-01 8.636556890250099983e-01 -5.173520422774989802e-01
3.678374609066031309e-01 4.726129381909596194e-01 -4.058937170177984860e-02 -2.680642117526056967e-01 4.402377991470247665e-01 -2.745269432726388237e-01 5.122837352105580333e-01 3.509807163354418669e-01 1.542298877617332420e-01 1.383841203816703613e-01
-3.188847561280667708e-01 2.916271432274424313e-01 -3.592905825843756978e-02 3.170404075029666785e-02 -6.893599851146421376e-01 -2.354694615018275705e-01 3.319276092797137645e-01 -6.516669447951506378e-01 3.847810087713279259e-01 1.643467245532943713e-04
-1.711573996710227530e-01 4.737741586498232516e-01 6.115562763423623149e-01 -7.260507629063847612e-02 -2.085984875218619972e-01 -5.377325279092930455e-01 -2.581822392261692301e-01 -4.048196550494190804e-01 5.172253987170322143e-01 3.557427770742771500e-01
-3.801132282465733980e-01 -5.378633855849764833e-01 8.693482664257343728e-01 6.502911173048199212e-01 5.094084159314264948e-01 -1.410062579763969592e-01 -6.750222772002348881e-01 -8.357362246411223494e-02 -5.766252494585604182e-01 -6.630323867461778153e-01
-6.678820535324095364e-02 -1.096208990881073625e-01 -6.905406018508265520e-01 3.333357566502050950e-01 -3.807159150525468716e-01 -5.771089475481714359e-01 7.960717821884404355e-01 -1.527453203554948735e-01 -1.316873354623509518e-01 3.557557895560975458e-01
-1.492205260925984767e-01 6.060302025547430471e-01 -4.882383222645140242e-01 -6.684648639488954824e-01 2.554906823519144110e-01 1.322914317647035376e-01 -4.385110185258885018e-02 2.577630103190006183e-01 3.157701464149996196e-01 2.471333982828754217e-01
3.089333368567460103e-01 6.332677182779560265e-01 -2.221850062938295067e-01 3.523767717889044193e-01 -6.096164893468600798e-01 -5.776961244065994538e-01 1.097525811384992694e-01 1.921680384232806738e-01 -1.169512620051520735e-01 -4.400036452760169303e-01
-3.431564653165928430e-02 3.186685256919745135e-01 3.508620531634045192e-01 3.131494336790584532e-01 5.173576730867076590e-01 -2.780927840282642616e-01 -3.698691864438311550e-01 -5.293214277856283373e-02 -5.640518995955458026e-01 -6.195841426501314669e-02
-3.531942145131526378e-01 5.880735614160739200e-01 2.762918799309352358e-01 4.285423040042339871e-01 3.994007279587765136e-01 -4.528470515603955637e-01 3.554086384729381320e-01 -2.590933624146262160e-01 7.156492279276617241e-01 -4.222753918845197907e-01
1.053125959367369191e-01 4.314016551936111776e-02 3.530467836450914415e-02 9.951123190268933508e-03 -5.351866795678596189e-03 -1.352809681705486634e-02 8.294388566861707291e-04 1.862155178641694553e-01 -1.278141259066628045e-02 -2.320498967055463317e-03
1.264202035642807420e-01 -2.784415578871286476e-02 -9.010620210527477830e-03 -1.560487260215847327e-01 -1.984838071975216500e-01 -1.348461810387985120e-02 -5.114807281746491796e-02 8.329932983500681898e-02 -1.084282406672170407e-01 -2.625275211251339447e-01
3.825487392550776522e-01 -5.487097230712174589e-01 -2.850832423508162794e-01 -7.031536509908636878e-01 -6.882474190553411475e-02 -6.935508770103122611e-01 -2.038562658170766095e-01 -6.342777433709715362e-01 -2.093939764184487434e-02 3.139734628608960576e-01
3.139325636382321594e-02 -7.093816527195585808e-02 -6.769424618518242280e-03 8.285094891381859609e-05 1.757572540809785311e-01 -5.081176980690650831e-03 6.843341189666898861e-02 5.599651606240067803e-02 -1.476504778437146351e-02 6.045821988011814557e-02
1.122313843124335270e-01 2.474222461105157478e-01 -3.163736577705063974e-02 1.208374811200377402e-01 -4.129464507302434140e-02 1.564820086730950577e-01 -2.688190334038417784e-01 1.758201329063894813e-01 -4.807699724473106853e-03 7.276518485965101368e-02
-3.811765373065234552e-01 -4.012004726188494325e-02 5.792534866176251018e-01 -5.085152214894055056e-02 -2.526940923764642855e-01 7.105396026751177319e-01 -3.183247078950788844e-01 -5.162492774824517516e-01 -4.078272777658390469e-01 5.443819717012847725e-01
5.803737623389846334e-01 -7.555126589886815291e-02 -2.596653577589275730e-01 6.618596514556510657e-01 -2.619449968934748352e-01 2.617188091096638372e-02 -7.756102777708838714e-01 1.503453614903067781e-01 -5.354976101845546621e-01 7.418690085274203261e-01
2.434001358216161537e-01 1.643423346349232039e-01 1.198515568284672442e-02 1.131550897367014086e-01 -7.007950597658803293e-02 8.288914590027948726e-02 4.760984207698219089e-02 4.844090265847434545e-02 1.122294931500932014e-01 1.342279909364012813e-01
-5.198232021778529388e-01 -8.462679224622424723e-01 1.552753771703292707e-01 6.036125863837371597e-01 -2.753183668049555832e-01 5.896680741963021832e-01 -8.403396495332923211e-01 -6.968280572398684314e-02 -6.876803660775014926e-01 6.391896268330679032e-01
5.317185791931302967e-03 5.351644665441235120e-03 2.559485773886902016e-02 -2.196382810160775120e-02 4.490918564469501689e-02 4.687575958542232468e-02 -2.876856509985087004e-02 3.488100259502747297e-02 -5.224756827454814234e-02 -2.442820995598746561e-02
1.989461918380896477e-01 -2.350757942011190982e-01 -4.370318497410241587e-01 -2.992712760065134869e-01 4.346967393325552043e-01 3.654878965849103767e-01 -2.087793157671506694e-01 -5.303615748196455204e-01 -5.158383862943078935e-01 4.900352911283303858e-01
2.769544273341323914e-01 -5.059687841080969806e-01 -2.065286683278708818e-02 -3.368163437321191056e-01 9.774874409437366019e-02 -2.905244861143519985e-01 -3.882089255909162984e-01 -6.251404615530981035e-02 9.227727659439790772e-03 1.769352450906309382e-01
-1.079315120710534898e-01 -2.775193881675910301e-01 -7.586624157358526355e-02 6.697160789303047146e-02 1.800277669296365679e-01 2.080991932728057103e-01 2.281415886505220869e-01 1.887133124627988767e-01 1.179023167062756977e-01 8.521458396575201655e-02
-8.559967509800985308e-01 4.488621354912096240e-01 8.842124351176516850e-02 7.400682382729569797e-01 -2.688818759779781908e-01 -3.179246948849264731e-01 -1.515043911874396076e-01 7.619989353839323742e-01 -5.126670481417452269e-02 1.401270830327745465e-01
-2.414366431745979258e-01 8.391152095935403010e-02 5.651172163222106803e-01 -4.027818521574968447e-01 1.992308384775356433e-01 8.061855440363383529e-01 1.950696929461091245e-01 -7.678332674579207984e-03 3.365474547157025764e-01 -4.146404280305017731e-01
2.248613475697247219e-03 1.126550692143747645e-01 -4.052934618332353078e-02 -9.803683189745651672e-02 1.231286970363163896e-01 -1.551564920621482657e-01 8.012210233521240010e-02 1.337221676091761118e-02 -5.142587876481656897e-03 -1.022174268320394652e-01
6.540176990759657971e-02 1.529075921329408824e-02 1.933452881320664452e-01 -1.753085177939138137e-02 -2.564290227641119121e-02 -4.195172176424982052e-02 7.453628630197887267e-04 2.977079538859110988e-02 -1.128925882289570082e-01 2.411686304615253892e-02
-2.853310333939389487e-01 7.634692390218363878e-01 9.145861147226683752e-01 -6.205360543012514718e-01 -1.044681461458913801e-01 -2.500456661372805756e-01 -3.176219433939750925e-01 -2.264323176184999675e-01 6.800889459883089350e-01 -3.981156757465382223e-01
-3.380070979692772482e-01 -4.366902570867124966e-01 -4.449183608634929010e-01 2.741034300623553244e-01 -2.328361142302265707e-01 7.281136134412127259e-01 -2.084442184651721652e-01 -5.145498348565957780e-01 7.495969179822611905e-02 4.381010547934061639e-01
-5.075770116320579284e-01 4.419393656469626230e-01 5.393827098739089054e-01 -3.210216197966764273e-01 -1.557280667812774577e-01 3.177613050337446676e-01 -3.198813550719974974e-01 2.311762705083805214e-01 -5.809862626172973554e-01 -7.118823149503790138e-01
-2.341769582953049933e-01 -4.524963044419841318e-01 -6.237226347707378604e-01 -3.844707450413462069e-01 3.784665186820880822e-01 -5.359607857930930308e-01 4.727048641762775921e-02 -3.166801307568858914e-01 -3.662070979565644757e-01 1.460601467285259636e-01
9.293362620640746585e-02 -4.010726296837270610e-02 -2.335812432008428641e-01 1.632925534675369050e-01 3.115659927447202507e-02 -9.287039397712912314e-02 6.488772718831289921e-02 7.047816527478576593e-03 9.362648499683719205e-02 -2.119125673155949352e-01
-2.549137708802936553e-01 1.630078467433011824e-01 1.975575304211019956e-01 -1.456113914225683481e-01 -5.749053833392723245e-01 5.612878883965277677e-01 -1.230348909418616798e-01 4.368927515283563823e-01 -1.762883063320122012e-01 -5.474673995200064480e-01
8.005730284884984838e-02 2.758619529629677616e-02 1.874859671963296365e-02 6.481873883426193805e-02 1.074592854900810052e-01 -4.517049927881187227e-03 1.053098769610140255e-02 1.616182198034786174e-02 -3.062118608568430850e-03 4.495186107401191213e-03
-5.655501374562766914e-01 -2.822700728101966705e-01 -4.563974458646680721e-01 6.323591086691047192e-01 -4.835704695735640324e-01 6.919644089868057790e-01 -3.441374631384018223e-01 -4.574275190519329071e-01 4.821489608918784753e-01 5.609160253437289745e-01
-5.398710884483347572e-01 -7.969979229276798194e-02 3.621455310672410666e-01 -4.034498156758327750e-03 8.202649887925490546e-01 -2.675088669704252520e-01 -2.276850659035016544e-01 5.788806095056562295e-01 -2.556424388382238511e-01 4.227860084003051688e-01
-5.126335114612903809e-02 -3.155338965908897897e-02 3.876735379030507578e-02 5.564482051525218576e-02 9.288742930186095689e-03 4.833201908045352269e-02 2.891372111681882184e-02 -1.238114280515018213e-02 4.847222639319802816e-03 1.184567367915728836e-01
-9.527899014884878837e-02 2.367927689184724793e-01 -1.819449170060996601e-02 7.204121363809723455e-02 1.661608251941763537e-01 4.590575434821084211e-02 -1.426722763870932054e-01 -1.376875441343460849e-01 -4.659513614979983454e-02 -6.745455657446881859e-02
1.075025484650914132e-02 -7.027146881984330795e-02 1.677312793854238496e-02 -1.681545782912504672e-01 9.415598546817796621e-02 6.899182838672400508e-02 -8.394847126656972136e-02 -2.349037066563696430e-01 -2.737392409542695471e-01 -5.373547380891098291e-01
5.189003244428698203e-01 -1.057444504412251712e-01 -5.272417446782489137e-01 -5.609959830035400330e-01 1.234558934519318085e-01 8.657662429052030706e-02 -5.136283238597869616e-01 -6.785266037255056892e-02 -6.204530776471929299e-01 5.114651108969840987e-01
4.612838716120168936e-01 -6.363863948705051898e-01 3.783371078524694897e-01 5.747671775208674783e-01 6.293532782124051650e-01 -3.053597990072414725e-01 4.009343645309604298e-01 1.716748385497789964e-01 -1.267320707934588113e-02 4.826387094398702504e-01
4.200770131476453950e-01 -4.467855319947877102e-01 -3.803211743142623225e-01 1.663910955088198362e-01 -1.395357564737833289e-01 -4.137893156091168034e-01 5.037098940270524627e-01 4.230435760544306589e-01 -1.276002441596789660e-01 1.121196481598877998e-01
2.125820415414404752e-01 7.906207600467018981e-01 5.095673300195071587e-01 6.025118618485811872e-01 7.222737893186251812e-01 -8.031504300759133574e-01 1.674390876923820826e-01 7.928688551108132865e-01 3.089495359496274851e-01 -8.702827180595354983e-01
2.746097617159242721e-01 -1.143457920400279548e-01 5.394676604531854769e-02 1.357448308732083220e-01 -2.035474319630197482e-01 3.557910047230471440e-01 -3.152086793941630272e-02 2.393758765324307536e-01 1.395980630862952154e-01 3.464194741106963460e-01
4.324076610486360939e-01 -5.396266693816557103e-01 5.566391121075159321e-01 -3.536795400781961862e-01 -1.768209226374762855e-01 -1.598789422373475544e-01 5.555515637505343829e-01 -4.461414808172237123e-01 3.265599074822368442e-01 -2.324747341661519973e-01
6.766387347234890104e-01 -2.550036001543870556e-01 -7.074584532560286299e-01 8.932583712407800025e-01 8.626010642852723065e-02 9.341072077569158028e-01 6.929450204352914922e-01 -2.708447988666320971e-01 -9.290677505436950590e-02 7.890342439403916774e-01
-2.182443296016911560e-01 6.958194305461306434e-03 6.307469767169140984e-02 -5.219748366592955602e-01 -4.270484268223070923e-01 -2.360031840497334166e-01 2.176835500168977366e-01 -4.063604328320846726e-01 -2.962184037497865852e-01 1.432656538510692634e-01
4.015765161673416975e-03 4.630547332911255642e-02 1.429725263777094010e-02 7.878027835512213528e-02 6.028720508883104491e-04 7.394059775115292832e-02 -2.164429874336099881e-03 4.482628425778597409e-02 1.314579220473030378e-02 1.872261116193223510e-02
-1.263702088389121736e-01 -6.032960147765380476e-01 2.758578593548340896e-01 3.308298625672326243e-02 4.913586087111053158e-01 -4.560635976369126765e-01 2.468195779530176215e-01 -3.980357034886303769e-01 7.146526439856325519e-01 4.418104650153165669e-01
-4.828904422395824958e-01 6.740421607818364302e-01 -1.038595129839132852e-01 -1.631032426584675676e-01 4.558315628670877584e-01 5.138265419265540812e-01 2.683693234449339715e-01 4.597068890032047217e-01 -4.631510476870291382e-01 -3.978053583406204186e-01
-6.538324676202161845e-02 -4.147249445930963896e-01 5.510780455063879479e-02 -5.770863859368285248e-02 1.547638992448002737e-01 1.769757152933143229e-01 1.131100383218387878e-01 4.096625321745498427e-01 -2.725874326002900028e-01 3.256051839951883964e-01
-6.774076976786989057e-01 3.952189493472779702e-01 4.481593400010890904e-01 7.199335204584103032e-01 1.306636011620299631e-01 5.890259286988763776e-01 -1.913513825253747025e-01 -8.462471278952463094e-02 7.054229437133522351e-01 9.196899408236976214e-02
-1.490485254227252587e-01 6.238961694469921104e-01 -5.614556503367820195e-01 1.915017162334935186e-01 3.063105005375080792e-01 4.257852208985246634e-01 4.000029725504096745e-01 1.154999724165355068e-01 -4.286815279686456703e-02 -1.581335132008893363e-01
1.147111861705078784e-02 -5.720867221565219436e-03 2.736649742892079823e-02 5.816291636636676532e-02 6.887304452350036243e-02 2.485483922265305928e-02 5.299923952108489059e-03 9.479455714726092719e-02 3.970526867480653893e-02 4.547433558410088339e-02
-4.907734829401390053e-01 5.992800458586552415e-01 -4.900929166881805021e-01 -5.605933247648755245e-03 5.723008069044721591e-01 -7.475746596158393542e-01 -7.993191100619941869e-01 2.622291206795048235e-01 -3.389336844562831352e-01 -7.029614282928583480e-01
-2.123964242058309360e-01 -1.589699927712361072e-01 8.045193306486783658e-02 1.389023479658253735e-01 1.415348737891975461e-01 -4.139702329702041328e-01 1.108474729645517326e-01 5.750488299903721012e-01 2.057658363783154420e-01 -8.246666847123645949e-02
-5.440173970643368273e-01 1.968219261689516386e-01 -8.098109510211735085e-01 -3.330971273315293524e-01 -6.752727091063787102e-01 7.869019097426986631e-02 -8.324396153155902978e-01 -5.071798517825522046e-01 8.001515804708904112e-01 6.871442640441928207e-01
5.040366377116993479e-02 2.813304406983827693e-02 7.595374025936325879e-02 -4.491095846019289156e-02 1.753283130441861751e-02 2.499329465581554693e-02 3.665834416339313478e-02 3.399588947129784933e-02 -2.531489619059859846e-03 1.227873281783156863e-02
7.476676424114216124e-02 -2.047842335314670192e-01 2.925734707193056172e-01 4.336741535974660833e-01 -4.832901727981184781e-01 1.855825371344711483e-01 2.247842224876110406e-01 3.708867599188966913e-02 -4.944562610979413853e-01 -5.557026754784298861e-01
2.139903031961822855e-01 -1.155938368579841197e-01 2.155218131513667590e-01 -2.721626453096321827e-02 -1.929957465516050630e-01 -2.253714331150107886e-01 2.268196131629305334e-01 -2.451912464638979494e-01 -1.123038484766534228e-01 2.827356500530922023e-01
6.965879480417451752e-01 -4.800382341741759595e-01 4.768132540220786919e-01 8.245669880253062578e-01 6.134359756039753364e-01 -3.285972110559589460e-02 5.271067873784890390e-01 6.936988941329744751e-01 5.925099170651823011e-01 1.054216473386428848e-01
9.666148433604317136e-02 1.150921237812633363e-01 4.729361291088193253e-01 -1.432866388818631875e-01 1.861867441888557795e-01 -1.967825972342853447e-01 8.843891480499846414e-02 2.648422726321652543e-01 -3.721451578420131856e-01 -3.559304327647259680e-01
-3.568862251690759213e-01 1.337315974075810876e-01 3.852067774975772574e-01 -5.816079034532075642e-01 5.703627494924187191e-01 -1.209233264525890889e-01 7.210865634100910304e-01 -5.607909242054317511e-01 7.488347311354941194e-02 -4.131660958513216908e-02
1.557505241499709814e-01 -2.155423565599141333e-01 -4.109728814169230082e-01 1.324682882656261391e-02 5.163371556485437525e-02 2.647677191172846320e-02 3.746677259754799261e-01 3.804613864423966874e-01 -2.812609669682602023e-02 -4.852806636766467396e-01
3.044719509855179362e-01 -6.140420904266209456e-01 -4.692109647676042661e-01 3.028932752488884203e-02 1.541876090766033935e-01 2.916126059705046458e-01 -2.633898250924229800e-01 1.999321040511868597e-01 -2.638596746055650866e-01 -4.027972096909178679e-01
-3.664454259820128929e-02 3.771765981019747915e-01 3.172558756105780531e-01 1.813484583211073253e-01 -5.180161632325188531e-02 2.234001172505481470e-01 -3.224803884342757887e-01 1.835087850978256441e-01 -6.033316018628089679e-04 -4.147195894864568744e-01
2.501549273867722523e-01 -1.879559527680022546e-01 -1.563468651247991725e-01 4.515125443182893550e-01 3.867114333092498413e-01 4.683684959712156037e-01 6.908337260064710827e-01 -9.462702874872370995e-02 -2.893237655944041475e-01 3.423173476744115207e-01
-5.098641197397868474e-01 -2.121047286468094317e-01 -5.550706722146871858e-02 -7.244429334792007631e-03 2.650891309233633364e-01 -2.323986852836153194e-01 4.192624805195000783e-03 -1.831834760296424947e-01 -2.861780256612093676e-01 2.378547179838024772e-01
-1.463291104747971305e-01 -6.333143283293782289e-02 -2.198821143083187213e-01 2.068238309570101796e-01 1.660396862830016418e-01 2.508424880176727267e-01 -6.869741135268458976e-02 5.352079335452796655e-02 -9.984124477429052059e-04 -3.286198019778950596e-02
2.112363792136539298e-01 2.420141175363287045e-01 1.715922101429303848e-01 -2.138582785496079552e-01 -3.638054924037065763e-01 -2.426363598381467146e-01 2.364291725370035457e-01 -3.107524616258188765e-01 3.497808805928621090e-01 6.465035188313669745e-02
-1.989828576875938936e-05 5.349624102666514780e-01 -4.410897791072876939e-01 4.749684651831748705e-01 6.461908158045628348e-01 1.768929596162396034e-01 3.234161179321017876e-01 2.757469330971233923e-01 -4.688962194169864484e-01 -6.461567175023813503e-01
2.806605732801838449e-01 -3.695739544278647259e-01 -3.888301216601506294e-01 -2.316106604439037431e-01 4.688503422377158780e-01 -4.424114870962435331e-02 2.084294532660797492e-02 5.151183272668550250e-01 2.607770285708842506e-01 -2.429254159322243589e-01
-6.670656758396681374e-02 2.963584989542054626e-01 -2.509403478027948386e-01 1.818062772204110666e-01 -5.117421539794939633e-01 -1.680053575310934411e-01 3.094291017470363614e-01 -2.793516077480370785e-01 6.670307341877655949e-01 4.497782153682989836e-01
-1.263066749317367198e-02 9.429769617448831298e-02 2.124532337143027194e-01 2.059722756658279863e-01 8.899530605931242622e-02 3.557408435552462667e-01 1.689140900393474032e-01 -1.086275397592576658e-01 8.707696143011907364e-02 2.546389369140493741e-01
