6.281407472833969718e-01 -7.910352767491765080e-01 -1.144651043433831672e-01 -6.186547649014860761e-01 3.210395542268474345e-01 -4.557698283092425640e-01 3.528307880617220227e-01 5.918879803528518391e-01 8.054237120226338531e-01 7.070046338455941992e-01
1.489435538105807200e-01 1.206337334685054913e-01 -3.856594438503128108e-01 4.048301813232054180e-01 3.948766176568216379e-01 -1.070455268133202742e-01 -2.524205325632711272e-01 -4.298220564356003970e-01 5.158932532227600287e-01 -2.688938725644455796e-01
2.778884349966720957e-01 4.412940728086344744e-01 -2.001521720854326433e-02 6.553925978420591658e-01 -5.667411367130267275e-01 -2.938177182976361435e-01 5.539087396716251277e-01 2.536415575617900209e-01 6.821451502721858073e-01 -2.663784135097322370e-01
1.791959016203225064e-01 -1.494409479942707675e-01 -2.427098843521129784e-02 -3.029495330871977490e-02 -1.237166671755926400e-01 -9.279246936798536682e-02 1.489960632573234245e-01 -1.201005563495752687e-01 1.066953921713338499e-01 -6.453408148774153474e-02
-7.666842323928199469e-03 -2.351702474398975184e-03 8.241530348197698141e-02 -5.597685578210801101e-03 7.764726430991851502e-02 2.429501110976894224e-02 1.024113222807506059e-02 6.557363310621525110e-02 1.575469033782649422e-02 4.115342138071658579e-02
-4.455955293604388356e-01 -7.467206076341311727e-01 -4.072317548999052766e-02 -7.939356085319155820e-01 7.014950968528511632e-01 -6.939156581708511018e-01 5.530568604032632951e-01 7.122946832118486338e-01 6.743103392201043045e-01 2.296987442243512978e-01
-4.862010967981804897e-03 1.704113337010942086e-01 8.782094114283571507e-02 1.517886205147371895e-02 -1.436184709450921346e-02 5.810172119874287312e-03 3.898376279664595573e-02 1.675112124090831836e-02 7.210697752535351335e-02 6.204445490459711311e-03
-5.348083606815071667e-01 6.800803795991657852e-01 8.269103301831243202e-02 6.852059274237519704e-01 2.255454487057647617e-01 -3.245032203648703928e-01 -3.837686445187381001e-01 3.200997617051468125e-01 -6.045767702056734638e-01 5.596183678763378966e-01
-6.968255727105097941e-02 5.905035483762930415e-01 5.494449797805964764e-01 -5.611705739226745537e-01 -2.798567185547223279e-01 3.678422358751357035e-01 -4.138797492487629182e-01 7.201668805779485316e-01 5.174947724430714047e-01 -1.893555349619092942e-01
5.765669112142149909e-03 -4.859959070585220461e-03 -1.216035050105898629e-02 3.022540067868691865e-02 1.059237180046912336e-01 5.991699234151610931e-02 1.692390485947653164e-02 4.123626258337040329e-02 3.275385462019248656e-02 1.361743627625861333e-02
-6.436054670725792695e-03 1.168402814636181203e-01 4.874783575967960719e-02 -4.645699931100083502e-02 1.987581745483432138e-01 2.884559547682502903e-02 -2.580748497448340922e-02 1.054156072007006104e-02 2.572427342405721878e-02 4.394429834653983125e-02
3.422648010451426748e-01 -3.188770690294643884e-01 5.954930106213481844e-01 1.864058652439421204e-01 -3.493785271519810054e-02 -2.090144603746244834e-01 5.402650711427444685e-01 5.067658153033062218e-01 -4.532632250671843055e-01 4.087003291536393523e-01
-4.213958373587909367e-01 -4.415982718811232999e-02 4.405848462581050673e-01 5.790814975855675950e-01 4.675112352804480786e-01 -4.549549976563920239e-01 2.075009407894464197e-01 -1.357276785442427247e-01 3.157048072975705555e-01 -1.273510735560696161e-01
4.146240198442299185e-01 2.024087300906287634e-01 -4.651969826053363732e-01 6.349868209005861130e-01 1.743296973546398509e-01 5.300485161939124529e-02 7.442370841070057308e-01 -1.598863112736197967e-01 4.120508079972233784e-01 2.894274890777519538e-01
3.107805148000676865e-01 -5.498579307189909171e-01 3.639125711959768639e-01 -2.359663139857456349e-01 2.921247731318520335e-01 -1.800367492659774860e-01 -4.541343308662860179e-01 -1.670704857974816826e-01 -2.015220230261111634e-01 -6.816448976998079612e-01
-1.140914743580944682e-03 1.692827856780893328e-02 5.487189962778757368e-02 1.525707738514042733e-02 1.269462992979565781e-02 5.827695369766004718e-02 3.911514766461424326e-03 5.369422046857674422e-03 2.024423211398212671e-02 4.318443591503440954e-02
-3.811977601929104620e-01 9.382548580541383298e-02 -5.211313453010396612e-01 -4.442955706629468926e-01 -1.491953481972108086e-02 1.851715374475587927e-01 -4.506172668199453363e-02 3.503151152500179610e-01 9.073680084841265203e-02 2.422783031713852953e-01
8.297674735878791674e-01 -5.337672724288878845e-01 -7.693720604512889194e-01 4.700892768016031731e-01 5.960052502248163186e-01 3.149311557501697778e-01 1.115673326683582767e-01 6.657051874364396937e-01 8.042207113848591771e-01 -4.411909265379601597e-01
1.322548526701891949e-03 4.150592344566559483e-02 -5.878207044618206645e-01 -4.763552156296894657e-01 -5.774841297615523894e-01 2.848582647700904635e-01 -3.635406728854286285e-01 6.721882899466798955e-01 6.692401741880869837e-02 1.282389245611662530e-02
-3.071719976281244227e-02 2.210932693916874414e-01 -1.272816561154388737e-01 6.018447102213421440e-02 1.875463102914109448e-01 -8.435063507823103990e-02 -1.806083136581096982e-01 1.185811074362692064e-01 1.300218726206945341e-01 5.896930661944328744e-02
-6.621028846218728926e-03 -5.448650241950520751e-02 -2.291924324963267035e-01 3.551745072778377810e-01 -3.977296345780286235e-01 -2.661208902859403536e-02 1.692515778854286335e-01 2.079250775596116207e-01 -2.958411464632637045e-01 1.639527237520955194e-01
2.709429696090486228e-01 -9.037317682433329558e-02 -2.033397783717728613e-01 3.959362807386835881e-01 2.593780616848226361e-01 1.614703920216456201e-01 2.027536513489489045e-01 -9.021255909130314332e-02 -1.229330290193273167e-01 -2.122678053328566905e-01
5.532790428979687813e-02 4.026120116929995385e-01 -1.833283588509422857e-01 1.654760942902969989e-01 2.453296447494855426e-01 1.254984592915769082e-01 9.840621775711132224e-02 -3.644573020669920893e-02 2.362221981008152116e-01 -6.791962159447703651e-02
5.222553980207581548e-01 1.115884666466888386e-01 8.166428194390110695e-01 -8.842744236491389964e-01 -3.956936565777465775e-01 8.720153092255168714e-02 7.579956801643609188e-01 -7.725787785557580722e-01 -2.091231082206607972e-01 -8.074018867576321368e-01
-6.267037114758414740e-01 1.823360363595364630e-01 1.314590163469444260e-02 -6.643186478613472001e-02 3.359425371995500287e-01 -1.317440809236472554e-01 -6.817315369341634401e-01 4.606145464025613312e-01 -6.511868024882880857e-01 -5.963081606941941226e-01
1.076716255508548131e-02 -2.159306591296033043e-02 -1.663763270895081414e-02 2.413444960255337057e-01 -4.803537555530011383e-01 4.095916816315748887e-01 -2.020585782152576337e-01 -2.454991645891999377e-02 2.141926576182899555e-01 -1.156237496368323348e-01
1.707732731670861537e-01 -6.254435559039348558e-01 -8.074838428045272298e-01 -8.182259891939197560e-02 -3.100818650030573442e-01 -7.991600844212282118e-01 -6.671623868417400072e-01 -7.253048299730615600e-01 8.636059056694292968e-01 -5.173742225510024051e-01
3.677646037256916411e-01 4.725577740604992028e-01 -4.058196897884798482e-02 -2.680157563035894808e-01 4.402807487112856411e-01 -2.734263768014972285e-01 5.121107608894120977e-01 3.508516279384646941e-01 1.541595177724363608e-01 1.383388729086490743e-01
-3.188744743164250717e-01 2.922345409855702236e-01 -3.608350519570242831e-02 3.176326978218520919e-02 -6.891820352009914163e-01 -2.342883442542398331e-01 3.327917235160790521e-01 -6.513918250748137462e-01 3.845218164295572394e-01 2.857098784330492738e-06
-1.701362097794081041e-01 4.727075178259923516e-01 6.107816637469735133e-01 -7.363649678280237421e-02 -2.041950357342008082e-01 -5.376145344841211093e-01 -2.576160594175470608e-01 -4.027411911222448793e-01 5.158445831275064730e-01 3.541045462527779297e-01
-3.801692086536775372e-01 -5.367714595158782354e-01 8.693279055460531035e-01 6.503895265651529201e-01 5.091367104479627148e-01 -1.410413533818303811e-01 -6.747387186293141159e-01 -8.364695188081339161e-02 -5.762547642508607515e-01 -6.630313228468410758e-01
-6.686026015680515688e-02 -1.096977741122679428e-01 -6.902628468803923001e-01 3.331679893600097420e-01 -3.808241881893162373e-01 -5.759500697298544081e-01 7.955942355865858184e-01 -1.530971168327603105e-01 -1.317172589122490300e-01 3.561990236268103849e-01
-1.494670101310014432e-01 6.056997767116599762e-01 -4.882781949675545907e-01 -6.683063775085165137e-01 2.553251869492961790e-01 1.322217011874749215e-01 -4.425117757155470205e-02 2.595400055020529173e-01 3.158902736313325410e-01 2.464064012115137203e-01
3.089132916005120633e-01 6.333414019068209777e-01 -2.220715760123246063e-01 3.520717043840062010e-01 -6.083752257338261860e-01 -5.776808472024402841e-01 1.099930970825685611e-01 1.917524613805988987e-01 -1.171438254948875685e-01 -4.399084982160603730e-01
-3.437858676520347267e-02 3.196235547665483567e-01 3.505528561013284139e-01 3.130585478099595087e-01 5.172687901385318865e-01 -2.778213454452526099e-01 -3.697264638150170590e-01 -5.282597457848062228e-02 -5.640502822657869064e-01 -6.210606653377555991e-02
-3.537393746031601838e-01 5.875181020360668027e-01 2.765431468691732508e-01 4.283620197574597999e-01 3.983981918417086043e-01 -4.536746938999562939e-01 3.550757143794158743e-01 -2.571253458131245173e-01 7.151275130568410798e-01 -4.219194798765638632e-01
1.083192570043495506e-01 4.902779805018160630e-02 3.248640908933364546e-02 1.169245746052705037e-02 -7.001874167200788750e-03 -1.742514947510197948e-02 -1.087044388963308403e-04 2.038600829243437940e-01 -1.268926428479091699e-02 -5.094631192967289356e-03
1.175324386225502227e-01 -2.957166347381346913e-02 -9.409291060899339573e-03 -1.464124767007368988e-01 -1.800537967169407727e-01 -1.319834501067748168e-02 -4.563855898536142708e-02 7.209589408895446250e-02 -1.034571850558678036e-01 -2.491383921610535179e-01
3.824264223590552736e-01 -5.487212528707265946e-01 -2.849938266852776736e-01 -7.030937543392415945e-01 -6.891924073516830784e-02 -6.925457100267576882e-01 -2.040094795037297182e-01 -6.343954969324616666e-01 -2.095636384228070567e-02 3.146859582132171540e-01
3.465002960397130238e-02 -6.599087886926134627e-02 -8.541926035117594629e-03 2.524677013977744220e-03 1.793165767865529392e-01 -1.028587842187820775e-02 6.614820253856340537e-02 4.945808714795862926e-02 -8.073932747917256583e-03 5.516133110062425293e-02
1.130609647366828396e-01 2.441455240410959071e-01 -3.005216465951883464e-02 1.285645514249817711e-01 -3.992178938541249278e-02 1.492729644759674401e-01 -2.590883078164342712e-01 1.719004290986679284e-01 -6.268949838621225637e-03 7.165729217307198473e-02
-3.793784058553130722e-01 -4.025943339044722041e-02 5.791667945483036650e-01 -5.115802222517423087e-02 -2.525958482212353751e-01 7.098119951170481778e-01 -3.179362482648034893e-01 -5.155455052143075312e-01 -4.078293971646348437e-01 5.448780804563106983e-01
5.803708985706063084e-01 -7.541993655516066042e-02 -2.596641456706469397e-01 6.618563722480692579e-01 -2.619436896415001104e-01 2.617174611543250304e-02 -7.756064795649046939e-01 1.503446037076643371e-01 -5.354950291874811530e-01 7.418653370334056252e-01
2.382310852656923383e-01 1.606515117369517742e-01 1.309609069437025694e-02 1.108845839161085312e-01 -6.812283152541000197e-02 9.656942603661251845e-02 4.819891778362839913e-02 4.657779050172875662e-02 1.091159031464932483e-01 1.302577734798722464e-01
-5.198585538562876529e-01 -8.462097179479846076e-01 1.556639793693930240e-01 6.036384917467897404e-01 -2.753729316595687759e-01 5.896466370789754663e-01 -8.403309376718005597e-01 -6.975470248430275244e-02 -6.876918728201922848e-01 6.391958002375500714e-01
2.454171777249557033e-03 1.855143265566413331e-03 1.517099401171510126e-02 -1.684162600088511333e-02 6.428683295260072261e-02 5.889952796205044638e-02 -1.304747139276717614e-02 3.863583873139491559e-02 -4.219020769199818138e-02 -1.839495720364965961e-02
1.981984518887685287e-01 -2.350497568613182098e-01 -4.369774251406057797e-01 -2.994389243418446034e-01 4.347126037566483303e-01 3.657778461253995972e-01 -2.095356439301957197e-01 -5.274674918853996530e-01 -5.150905821134598161e-01 4.889055357457161577e-01
2.761693586393383915e-01 -5.044413521938549971e-01 -2.062421354224763803e-02 -3.357535109176548738e-01 9.794892088690504428e-02 -2.895140326484688664e-01 -3.832302760009652087e-01 -6.206200714369990157e-02 9.046384678471528287e-03 1.763216839212627118e-01
-1.057728849274573169e-01 -2.721622362234914494e-01 -7.472111345511810165e-02 6.479510638908544951e-02 1.884884377010298817e-01 2.040814118806026367e-01 2.225590170550378333e-01 1.839556151593387812e-01 1.146279424749390846e-01 9.072173421164791973e-02
-8.559835578570835768e-01 4.488751945614612993e-01 8.838394670895313721e-02 7.402835889193827290e-01 -2.688893341795312586e-01 -3.179491842882247732e-01 -1.515046445534567743e-01 7.619850265863993277e-01 -5.127719096011575800e-02 1.401009403028881939e-01
-2.411464724764687817e-01 8.390496429041453819e-02 5.651007275045129008e-01 -4.027707552959080006e-01 1.992197805671789279e-01 8.061666705960135459e-01 1.950652115222895333e-01 -7.679886137930768721e-03 3.365395656372092148e-01 -4.146354053800588857e-01
6.632650076173171420e-03 1.096113738305718455e-01 -3.169058243927379975e-02 -8.465710861117962949e-02 1.071320338150600904e-01 -1.477465448488739508e-01 9.548421720191757611e-02 1.181080916318354157e-02 -1.912534007873863042e-03 -9.539759237066952613e-02
5.936739061175972526e-02 2.193413530054272309e-02 2.008701091773576752e-01 -1.679073241500281949e-02 -2.192949721168377733e-02 -4.010913626264785148e-02 7.346867633761356743e-03 3.009914198731954149e-02 -1.034926364722320441e-01 2.031122999777364851e-02
-2.850868226976007169e-01 7.620855210817587544e-01 9.135684115992662724e-01 -6.199740776396196473e-01 -1.047311538287839933e-01 -2.464567597352096129e-01 -3.178098459114000462e-01 -2.268798764447972349e-01 6.790364623085707318e-01 -3.966360732094880159e-01
-3.376005214152923428e-01 -4.367308093128585145e-01 -4.450699156560468661e-01 2.739366094619553604e-01 -2.330587661487150131e-01 7.289757224601892682e-01 -2.082011811277932056e-01 -5.146798636293163920e-01 7.485279748953758971e-02 4.377226743120818941e-01
-5.075745809722513879e-01 4.419350769213359897e-01 5.393714950350262383e-01 -3.210386556787213630e-01 -1.555448971331696018e-01 3.177287966007162900e-01 -3.198839986632118770e-01 2.311436380968598658e-01 -5.809974120904458639e-01 -7.117916742657458551e-01
-2.340998111150445760e-01 -4.525126623285310457e-01 -6.237266267905378081e-01 -3.831239095024432939e-01 3.782875737967015817e-01 -5.359035372857045010e-01 4.716830465013223395e-02 -3.166045104561049928e-01 -3.662121533670774087e-01 1.458184181016214109e-01
1.004504189129993563e-01 -3.887039313558995207e-02 -2.303137858768514457e-01 1.595966188448946776e-01 3.289882156948514130e-02 -9.288316392237211394e-02 6.420676406914609113e-02 1.368991002171729421e-02 9.028229481916238974e-02 -2.074721444576488050e-01
-2.540208578012073670e-01 1.633300240340514742e-01 1.974972561550988326e-01 -1.453094984405032819e-01 -5.747143141267050392e-01 5.610612853744209039e-01 -1.219417992825769653e-01 4.368047639586251640e-01 -1.754901909651913616e-01 -5.472434619045206672e-01
7.223981979129712183e-02 2.769336859539213089e-02 1.835964952299573225e-02 6.157031659814262564e-02 1.031115182616360593e-01 -1.785941280438350584e-02 4.389198394913126043e-03 2.870281274956123715e-02 5.650430870494724603e-03 5.039858768482828079e-03
-5.654076440553604810e-01 -2.822651716370994102e-01 -4.561620666942760027e-01 6.324505535881744800e-01 -4.838351389609789610e-01 6.910616857152337422e-01 -3.440475665538024752e-01 -4.560988411974837287e-01 4.820438836564018836e-01 5.611812382763514684e-01
-5.399073307282822309e-01 -7.971616435847431181e-02 3.621283595445374259e-01 -4.024906383960455414e-03 8.202560285689772801e-01 -2.675252881848328435e-01 -2.277209728976161418e-01 5.789781492403591745e-01 -2.556298535879443223e-01 4.227325894179851939e-01
-4.225511859778539187e-02 -2.669720116985110567e-02 3.436144471624760083e-02 5.974582723155110603e-02 1.557741481543888258e-02 6.477615443782049065e-02 2.415467626041104682e-02 -1.428697608445779650e-02 2.670370694393634642e-03 1.181448053074197896e-01
-9.117306277836700890e-02 2.321921675026994425e-01 -1.960704782619305739e-02 6.770769438333934520e-02 1.578416996063854993e-01 5.085211978949378403e-02 -1.304744503717266690e-01 -1.333072359158748443e-01 -4.291916249338741801e-02 -5.836272590130125310e-02
6.972603240920073782e-03 -6.935894772042557055e-02 1.649731067360689016e-02 -1.643565256281848408e-01 8.677139483195063507e-02 6.182868314744254662e-02 -8.264140350701054683e-02 -2.203172076981689542e-01 -2.688137074223387324e-01 -5.265083724255893438e-01
5.180679389110527389e-01 -1.023076771303754878e-01 -5.263693266067118737e-01 -5.598181083431256200e-01 1.226923613423955978e-01 8.627993527298434551e-02 -5.125755848844210094e-01 -6.808811117634842869e-02 -6.189277927445225869e-01 5.106786338503357392e-01
4.610553256470089623e-01 -6.362689447177165558e-01 3.783146319218647635e-01 5.747517557793165865e-01 6.292070749925178230e-01 -3.056388171603069415e-01 4.009019951316051822e-01 1.719623460283423999e-01 -1.273210866523735198e-02 4.826117736531909674e-01
4.191770566895413608e-01 -4.462683095159108992e-01 -3.774925420678637011e-01 1.656166767872725154e-01 -1.395798755881816622e-01 -4.135587005958672457e-01 5.027154318475236527e-01 4.223260020552280225e-01 -1.274406440056131129e-01 1.118462980321014433e-01
2.125820415414404752e-01 7.906207600467018981e-01 5.095673300195071587e-01 6.025118618485811872e-01 7.222737893186251812e-01 -8.031504300759133574e-01 1.674390876923820826e-01 7.928688551108132865e-01 3.089495359496274851e-01 -8.702827180595354983e-01
2.650076070341919054e-01 -1.129234611634475777e-01 5.193851024072284467e-02 1.336532256867254131e-01 -2.056414821361494116e-01 3.448647681162535505e-01 -2.997544546072985691e-02 2.446660157112040823e-01 1.381364633109837814e-01 3.475491247285645846e-01
4.323139068814658703e-01 -5.379489552926499663e-01 5.566346805054127600e-01 -3.540230796967177573e-01 -1.774982839777083654e-01 -1.606925992761861210e-01 5.565381138615659307e-01 -4.454906536789865479e-01 3.266438825967123982e-01 -2.320863608492987062e-01
6.766387347234890104e-01 -2.550036001543870556e-01 -7.074584532560286299e-01 8.932583712407800025e-01 8.626010642852723065e-02 9.341072077569158028e-01 6.929450204352914922e-01 -2.708447988666320971e-01 -9.290677505436950590e-02 7.890342439403916774e-01
-2.189943770231567166e-01 7.186951465355536674e-03 6.429533826158072285e-02 -5.209942889460122961e-01 -4.264431145907683907e-01 -2.372281515835857335e-01 2.164514601171188823e-01 -4.041430135901679654e-01 -2.953545235547699321e-01 1.429549354520596727e-01
4.370493075333973577e-04 4.792198763932743050e-02 1.533939510414131929e-02 8.950139657288842809e-02 6.864387423267171752e-03 8.060647868878302591e-02 -6.964059432663138914e-04 4.941552252894763214e-02 6.462790018189753030e-03 1.530413121240299483e-02
-1.264254639537431557e-01 -6.033115723331721192e-01 2.757123665418417247e-01 3.308081153766133375e-02 4.915454840968336292e-01 -4.562034820754821141e-01 2.471583119223944025e-01 -3.982313008676432453e-01 7.146161945678219940e-01 4.416906696303558033e-01
-4.830050524010832125e-01 6.755470550186580825e-01 -1.036416915624194524e-01 -1.627315594639181795e-01 4.554414132934599957e-01 5.136492750017329634e-01 2.685870204912609860e-01 4.594704799464728873e-01 -4.626446062193234066e-01 -3.979207606318937995e-01
-6.470159166724145927e-02 -4.120166998905309130e-01 5.417082132787413851e-02 -5.797001555015538626e-02 1.524356049624890908e-01 1.795692449781426947e-01 1.125166051160366720e-01 4.078294632110125995e-01 -2.700509393525877266e-01 3.247557534855737282e-01
-6.774085824731539418e-01 3.952156712347819623e-01 4.481627027592368639e-01 7.199221126902380918e-01 1.306621728068484700e-01 5.890215755356258409e-01 -1.913522539677479373e-01 -8.453725947988466327e-02 7.054183844213977039e-01 9.197261866407592523e-02
-1.490426770535406009e-01 6.238691408032766006e-01 -5.614650855116266603e-01 1.914862884950426780e-01 3.062933464014576668e-01 4.262527789791020205e-01 3.999886098411565838e-01 1.154931375400939791e-01 -4.287580714957640871e-02 -1.581496172573508552e-01
1.060219306596464628e-02 -5.097094434911251908e-03 3.167191535861597212e-02 5.647720006688149164e-02 7.622077244931856066e-02 2.132306509728449165e-02 8.834056520773805876e-03 9.824791609066546583e-02 4.134879738852249159e-02 4.577641727697406154e-02
-4.907757831332831278e-01 5.993720256523055179e-01 -4.901078914199550329e-01 -5.612678231821321105e-03 5.723051371683037791e-01 -7.475766306978411935e-01 -7.993244382985462693e-01 2.622177750904600702e-01 -3.389448713167137472e-01 -7.029631361865955608e-01
-2.115583335402539955e-01 -1.547186340037395580e-01 8.019547634035209538e-02 1.385356561134020170e-01 1.406793994706867501e-01 -4.123609857922517774e-01 1.104128734821355762e-01 5.756546853329739255e-01 2.048500497179257807e-01 -8.220846743794471556e-02
-5.440086102723147299e-01 1.966843086288432296e-01 -8.093932905996507055e-01 -3.329005359625925031e-01 -6.752208774814512093e-01 7.875016296243673997e-02 -8.323614466849134086e-01 -5.071668451445806580e-01 8.002931970717849230e-01 6.869625326367478912e-01
4.265790568577813163e-02 2.704077834333163885e-02 7.823563105486408542e-02 -4.134120511149514537e-02 1.899546670915246149e-02 3.609091279717226153e-02 3.794533054785836218e-02 4.245093737788636912e-02 -6.202823641632098902e-04 1.900184043579686288e-02
7.440599529519559274e-02 -2.035425911518880526e-01 2.925448058758066683e-01 4.333937367331645585e-01 -4.831993017790615630e-01 1.861939673682778129e-01 2.241026228631458894e-01 3.756461020690181341e-02 -4.938529555813145899e-01 -5.553601611216670841e-01
2.062111284863837879e-01 -1.118154924161021135e-01 2.065298768163531806e-01 -2.540872558092584221e-02 -1.903730399512035265e-01 -2.217416260180421206e-01 2.266356529926533414e-01 -2.350817996886493400e-01 -1.037326727259358927e-01 2.741191801747824841e-01
6.965862368620051592e-01 -4.799744019090482761e-01 4.768065440564848712e-01 8.245667343129452487e-01 6.134318475889880551e-01 -3.286175707107940464e-02 5.271070954672907316e-01 6.936985653185718803e-01 5.925114041770312978e-01 1.054213047424018279e-01
9.701412138619265602e-02 1.150300217324479179e-01 4.734119519781558871e-01 -1.432240271728427716e-01 1.859802880552743065e-01 -1.967516109524905243e-01 8.835343268898385172e-02 2.646951611367308055e-01 -3.721047794005196141e-01 -3.559396891547017550e-01
-3.568846844477007729e-01 1.337310200719594167e-01 3.852051145129224974e-01 -5.816053925809305802e-01 5.703602871668432828e-01 -1.207858042665779924e-01 7.210834503914222982e-01 -5.607885032025937688e-01 7.488314983245999978e-02 -4.131643121628784943e-02
1.545520297340320648e-01 -2.141417616358430309e-01 -4.081555645379761343e-01 1.235601316976054319e-02 5.118389117857199966e-02 3.149931012099189270e-02 3.723423094117302989e-01 3.767154858794524164e-01 -2.818295148371775111e-02 -4.804868285642901471e-01
3.044027453473440170e-01 -6.139205949570614163e-01 -4.683906188990060726e-01 3.028924319878080820e-02 1.541116693990695063e-01 2.915583124792984759e-01 -2.633668413040362033e-01 1.998771489867013362e-01 -2.634678386466946520e-01 -4.027425597636637988e-01
-3.657549429211223724e-02 3.785168779768039449e-01 3.167698407249469605e-01 1.809149752086162966e-01 -5.052029692471524808e-02 2.231738410653383575e-01 -3.220463810273381244e-01 1.831663114119467528e-01 -6.339120757945078616e-04 -4.141505997289419705e-01
2.500796292336880944e-01 -1.879712069336932079e-01 -1.562001896936700551e-01 4.513929974204582973e-01 3.865611079688736074e-01 4.690900376851873665e-01 6.905411100609849528e-01 -9.486089457327936958e-02 -2.887978479348458083e-01 3.426112953934389860e-01
-5.090107361381270845e-01 -2.102740115531945009e-01 -5.613607880531529259e-02 -7.185392467731744476e-03 2.653076106805265511e-01 -2.269417566662827457e-01 3.570592919804812648e-03 -1.829903867312734078e-01 -2.858250241029018923e-01 2.365793942192521426e-01
-1.355414931426707770e-01 -5.864746652564581386e-02 -2.072579541189092656e-01 1.891003613459427135e-01 1.618173505355526010e-01 2.284587849759680267e-01 -5.355034853633657693e-02 5.423423048541570896e-02 8.662944360640197289e-04 -3.008996618413251750e-02
2.101187081169315074e-01 2.426652244906148670e-01 1.708541444456375680e-01 -2.130676605454063510e-01 -3.638346263579536610e-01 -2.431321382610342197e-01 2.390003321942705261e-01 -3.081339367432515131e-01 3.489440360625363780e-01 6.490382613562627190e-02
-1.977611028959072142e-05 5.352410820731507979e-01 -4.410897993301363118e-01 4.749516029922976612e-01 6.461688361706837691e-01 1.768769098350816693e-01 3.234139425476443841e-01 2.757348318439755142e-01 -4.688934330101039438e-01 -6.461540882543571618e-01
2.799073733887835203e-01 -3.686178969929454485e-01 -3.858108958556812906e-01 -2.309975287508929664e-01 4.676660989419909042e-01 -4.158488326517225525e-02 2.080393575445138588e-02 5.137496436526544086e-01 2.602098222615056300e-01 -2.424321353874411278e-01
-6.543985642024562066e-02 2.961078275519865577e-01 -2.507730360790405566e-01 1.818147207276393507e-01 -5.114915569197555634e-01 -1.680064514292417266e-01 3.094578178730323925e-01 -2.796026029457638340e-01 6.666536219745093916e-01 4.493939264483585716e-01
-5.828488201654322305e-03 9.212441791529812907e-02 2.088794990646033189e-01 2.027427321286265627e-01 9.081037763233089366e-02 3.497618763177990364e-01 1.674840078255967757e-01 -1.092207596657575608e-01 8.537260905569465930e-02 2.496162729997992435e-01
