6.280922236227867161e-01 -7.905271012042318635e-01 -1.143864438312586912e-01 -6.185960565435679737e-01 3.209123365001945727e-01 -4.558235208279140527e-01 3.529434069457546008e-01 5.918380295964904558e-01 8.055180977638694007e-01 7.069443128569077306e-01
1.488928974104789804e-01 1.206450502034771000e-01 -3.854579992719089354e-01 4.050040864279453312e-01 3.947574503050148564e-01 -1.068554784669901447e-01 -2.524367024376210633e-01 -4.294177456087022171e-01 5.158390686899146926e-01 -2.689355974636869484e-01
2.778218194216832693e-01 4.412666495938323830e-01 -2.005876557664816595e-02 6.552714500951853926e-01 -5.665942772295228247e-01 -2.937993532679381570e-01 5.537832977423514658e-01 2.539405221031231785e-01 6.822006604632244731e-01 -2.664915093045219785e-01
1.863912335727529457e-01 -1.412836779783965269e-01 -1.802602691543756311e-02 -2.655034560094770082e-02 -1.172371985828096624e-01 -7.898894026291101989e-02 1.378785506355802437e-01 -1.117030695074282959e-01 9.929183750879309878e-02 -6.095219143299922954e-02
-6.274117581737386623e-03 -2.467646926100594204e-03 8.902523146807649057e-02 -5.415883666553747769e-03 7.524515379535884341e-02 2.808284807253202606e-02 1.091503563481253936e-02 5.587346652973041589e-02 1.395416754209181757e-02 3.936489867667427450e-02
-4.455952965734530369e-01 -7.467083177737278143e-01 -4.072315427234705215e-02 -7.939429321472648571e-01 7.014848768802258716e-01 -6.939246214103335086e-01 5.530547972012883617e-01 7.123532683099158547e-01 6.743057901668821907e-01 2.296966774445833859e-01
-4.708492517142501450e-03 1.627609395394894742e-01 1.017723881425498106e-01 1.727876656222583629e-02 -1.371722593336996768e-02 5.576085555300104232e-03 3.596060838764150724e-02 1.729811164833891524e-02 8.104847860784258895e-02 7.840283956293337894e-03
-5.348079160911147767e-01 6.800712638532899756e-01 8.288524094187189883e-02 6.851909198340244700e-01 2.255249559653182134e-01 -3.245041766334126332e-01 -3.837659470260067485e-01 3.200900921530176468e-01 -6.045736966907430121e-01 5.596106378272296400e-01
-6.975913161257749073e-02 5.905314093609486115e-01 5.492287104658060137e-01 -5.612415073075700533e-01 -2.798381890196570132e-01 3.675746763766533087e-01 -4.131056632401955975e-01 7.202226932825894767e-01 5.175765967537269141e-01 -1.894910905935175971e-01
4.925586374780624097e-03 -2.481709915931077856e-03 -9.752716173334122912e-03 3.254484893623373065e-02 1.119964599563439273e-01 6.664480554978950699e-02 1.609630527710336281e-02 4.597811844028774908e-02 4.248836833330926072e-02 7.548187720773601866e-03
-2.157388664761937004e-03 1.213663237752235780e-01 4.381526129522506779e-02 -3.336089058080509567e-02 1.866705536642648267e-01 2.958129130670854312e-02 -2.196021953366984747e-02 1.197953786271279200e-02 2.615569554413515671e-02 3.917270950379708044e-02
3.422647302488605048e-01 -3.188770030708531489e-01 5.955175768845031303e-01 1.864058266865380176e-01 -3.493784548842493454e-02 -2.090144171407112283e-01 5.402649593907958847e-01 5.067657104805621815e-01 -4.532631313112646665e-01 4.087002446153995550e-01
-4.213405333161814315e-01 -4.421544740229778336e-02 4.404762018553671776e-01 5.789555137248078021e-01 4.677205710280820661e-01 -4.544091309841435944e-01 2.075125324615345324e-01 -1.357808802778003310e-01 3.156912494328838470e-01 -1.272835287753724121e-01
4.146423675733744707e-01 2.025429473079046194e-01 -4.651569637357348408e-01 6.349037893761451112e-01 1.742241668426330881e-01 5.284930441005762647e-02 7.444909624599265197e-01 -1.599026155458816989e-01 4.120436513330672512e-01 2.896514884676712476e-01
3.109593773783129178e-01 -5.498683085319003849e-01 3.644821377298015919e-01 -2.359847206927375984e-01 2.924233417954674175e-01 -1.800671258199768587e-01 -4.541815943631621888e-01 -1.671630936475585472e-01 -2.016486648728815501e-01 -6.815607794474283221e-01
-2.567100998314741315e-03 1.132039327512697653e-02 6.381501303847969542e-02 2.024125897851005579e-02 2.201975064570820678e-02 5.402281598336622359e-02 6.058446103723281150e-03 2.736465072377103434e-03 1.532334694503901043e-02 4.894947109233743071e-02
-3.751467272163009903e-01 9.324021662975465197e-02 -5.167364823105037308e-01 -4.401808623263400722e-01 -1.488428500636662481e-02 1.837894498492139150e-01 -4.641080973637841389e-02 3.495229225555325780e-01 8.915514601421713203e-02 2.419354861543252799e-01
8.297674728929651522e-01 -5.337672719818684630e-01 -7.693720598069549998e-01 4.700892764079125929e-01 5.960072222812629050e-01 3.149311554864211438e-01 1.115673325749228229e-01 6.657051868789246596e-01 8.042207107113400477e-01 -4.411909261684714423e-01
1.313388646328564856e-03 4.144169554591724258e-02 -5.875521333640840727e-01 -4.763405670268531233e-01 -5.774730852021031646e-01 2.848164369480835623e-01 -3.635256024386981921e-01 6.726480804151541149e-01 6.688432637897270827e-02 1.283278897397911907e-02
-2.905067321947734163e-02 2.155832429083562041e-01 -1.252161732301289576e-01 6.077972102376615754e-02 1.895022782663826344e-01 -8.312551209193690116e-02 -1.742018428783124184e-01 1.126275130404809366e-01 1.267659182832212850e-01 6.406853947132569449e-02
-7.628964582850139911e-03 -5.496801617775831650e-02 -2.292297874117419365e-01 3.524499542776030059e-01 -3.947387506529807522e-01 -2.673312509818852323e-02 1.666641337660123290e-01 2.121843460079874122e-01 -2.937610652340673090e-01 1.610914969488217441e-01
2.700822280817428700e-01 -9.011825979177057189e-02 -1.972238978165159196e-01 3.947477873774202228e-01 2.580361889657655783e-01 1.607079348445581701e-01 2.015364294167033832e-01 -9.037433928348199974e-02 -1.224585725775708261e-01 -2.121868411500937024e-01
5.460156880344745750e-02 3.982695245212717894e-01 -1.751651085371970229e-01 1.637830487801665014e-01 2.428064685177050153e-01 1.241520196432103207e-01 9.740976972705921166e-02 -3.215783560258596990e-02 2.337775227422776159e-01 -6.721587390209728119e-02
5.222530326122664102e-01 1.115910650166647006e-01 8.166425104905101762e-01 -8.842736666706977333e-01 -3.956981310047718581e-01 8.720090475852988743e-02 7.579935808601268032e-01 -7.725799098358241412e-01 -2.090709503960370141e-01 -8.073586349404545670e-01
-6.267237508643835886e-01 1.823716984484252401e-01 1.328005762521451173e-02 -6.647357507756845862e-02 3.358615017773249334e-01 -1.312737337756019751e-01 -6.816426556502708234e-01 4.604611445519573021e-01 -6.511324456489120394e-01 -5.961077223705075756e-01
1.070063004303825442e-02 -1.774411262748492799e-02 -1.665124996938143961e-02 2.402894980232427036e-01 -4.790573351027683224e-01 4.076567590933420360e-01 -2.013764262047058329e-01 -2.462740725511261899e-02 2.132251653095658672e-01 -1.153429789510229814e-01
1.707651076789437339e-01 -6.254375046464643040e-01 -8.070791610958558682e-01 -8.184244916454010144e-02 -3.100875226387936334e-01 -7.991939552895352961e-01 -6.671406796384613536e-01 -7.252829016079334057e-01 8.635516331005310686e-01 -5.174075500271504424e-01
3.677505570034361737e-01 4.725450175655446228e-01 -4.058165281076522163e-02 -2.680059418132246241e-01 4.402924546184155408e-01 -2.731145265953352497e-01 5.120782957988870843e-01 3.508279243544910608e-01 1.541455551195633211e-01 1.383288699390642640e-01
-3.188215882256352773e-01 2.926600459549276723e-01 -3.615749949202010788e-02 3.169518268998594568e-02 -6.890754387202598918e-01 -2.333486646143258791e-01 3.331511302102600491e-01 -6.512579113799218389e-01 3.843652274892650489e-01 -7.304941018910888714e-05
-1.697128502329652011e-01 4.721992980399914441e-01 6.103143303748154169e-01 -7.436560307845961615e-02 -2.018028100647760448e-01 -5.376953145704138626e-01 -2.576332606298840644e-01 -4.013851844710964456e-01 5.153554318320729966e-01 3.532425475645583068e-01
-3.802500497128986634e-01 -5.360773993071992205e-01 8.693520619058539012e-01 6.504792938235617328e-01 5.089925041425131802e-01 -1.410525871665261610e-01 -6.745415902934118746e-01 -8.367017774111018547e-02 -5.760226307489755282e-01 -6.630785705964743482e-01
-6.687399020170785302e-02 -1.097084070674318457e-01 -6.901786021352088740e-01 3.332006912209841687e-01 -3.807979954191056393e-01 -5.749759198697896867e-01 7.953966732495771907e-01 -1.531070684142154248e-01 -1.317264068123301934e-01 3.563693921757478122e-01
-1.494247402856384022e-01 6.055251288107280638e-01 -4.883439918297969862e-01 -6.682193739850365022e-01 2.552031285890766776e-01 1.322169969731940287e-01 -4.434658626256154923e-02 2.604436803973937953e-01 3.158337294717616928e-01 2.461774369377006388e-01
3.088633750078116913e-01 6.332743356194404649e-01 -2.220453991708307984e-01 3.519523621439237804e-01 -6.075878613690296470e-01 -5.775991822221197003e-01 1.101690141569148795e-01 1.916071507762736881e-01 -1.171999135238115525e-01 -4.398284684332115502e-01
-3.442161156599495009e-02 3.201337856772404344e-01 3.504276143650594810e-01 3.130450004413604659e-01 5.172448165419094579e-01 -2.777707642985672298e-01 -3.696158966741506235e-01 -5.279158361920088804e-02 -5.640612533541755624e-01 -6.216893930014873865e-02
-3.543189893087385633e-01 5.872911722089403375e-01 2.766179298218722216e-01 4.280642332605457678e-01 3.977694308638585752e-01 -4.543344899199262543e-01 3.549434907918367355e-01 -2.555384063246277093e-01 7.148585154203227487e-01 -4.212375038140725447e-01
9.966359601341859276e-02 5.602917536083894257e-02 2.765327545539135110e-02 1.112057945545387623e-02 -6.945458766055066444e-03 -1.847715193896351873e-02 -1.606488754551940561e-03 2.212507758600175956e-01 -1.286099928911803997e-02 -3.749873768320985314e-03
1.101821807806450670e-01 -3.228436691064861391e-02 -7.866278782792423749e-03 -1.394265657565730288e-01 -1.683807758024343793e-01 -1.117790045156265115e-02 -3.979862408683838143e-02 6.234037434659325111e-02 -1.013008921287861658e-01 -2.390133863602036390e-01
3.823064574701665608e-01 -5.486824938242276239e-01 -2.848738701637043014e-01 -7.029740558259454097e-01 -6.902302620662918720e-02 -6.914882654385176020e-01 -2.041595383865555946e-01 -6.344666955277317166e-01 -2.103465551969426958e-02 3.152817415654455835e-01
3.619431585565112408e-02 -6.195989005806380040e-02 -9.256980890579292326e-03 5.117003352611728187e-03 1.871818243936396731e-01 -1.321479442876252394e-02 6.474552625216167812e-02 4.566708770091283676e-02 -6.640938969980379747e-03 5.227411005364246410e-02
1.155962791489505426e-01 2.427969627019500864e-01 -2.884268709484998777e-02 1.305053816280594414e-01 -3.984951390893390344e-02 1.457522489721222170e-01 -2.544139978349750919e-01 1.696163164527405287e-01 -6.818700876240526773e-03 7.131879044676850410e-02
-3.780471200992846503e-01 -4.042755919400665282e-02 5.790528357507058743e-01 -5.135940460443219613e-02 -2.525253477207211050e-01 7.093302492477446819e-01 -3.176583824746586626e-01 -5.152281398823135294e-01 -4.078220849153462169e-01 5.450919374085841929e-01
5.803694385683226820e-01 -7.533307426698671039e-02 -2.596634924500140218e-01 6.618547072579443746e-01 -2.619430306863629321e-01 2.617168027682965567e-02 -7.756045284208447077e-01 1.503442254952741530e-01 -5.354936820765776595e-01 7.418634707697993047e-01
2.354260349721533918e-01 1.584511344964820156e-01 1.366666285145390174e-02 1.097114273717327559e-01 -6.702862595948108626e-02 1.040439819750032246e-01 4.997006406647971910e-02 4.549327205082377701e-02 1.073266891077701152e-01 1.282104168851793957e-01
-5.198707635950624573e-01 -8.461794226092379523e-01 1.560157471237171578e-01 6.036463487161265462e-01 -2.753947219922325829e-01 5.896278954101165093e-01 -8.403230769528146071e-01 -6.978819896421886715e-02 -6.876901698673999475e-01 6.391900735252636911e-01
6.546829602958198664e-03 2.443904276333285245e-04 1.297366648117379700e-02 -1.598029193736875617e-02 7.812510402498011597e-02 7.601195385440091823e-02 -3.808677379674256774e-03 3.885068795795559859e-02 -3.677159228276188213e-02 -1.500250461598955955e-02
1.980045767475921703e-01 -2.350155368668298550e-01 -4.371101217206342371e-01 -2.993578639777564887e-01 4.346394790552418064e-01 3.660775447555447148e-01 -2.097344406416727092e-01 -5.267196513488359155e-01 -5.149117260659242801e-01 4.885554785344272677e-01
2.757566898221531781e-01 -5.036691521072891309e-01 -2.063847690479823915e-02 -3.352306560964919968e-01 9.802780110400921565e-02 -2.890291411445335412e-01 -3.802320871608992903e-01 -6.187684392796530264e-02 8.995345337125997334e-03 1.760060073655315971e-01
-1.043558689291887859e-01 -2.686297482246251533e-01 -7.414660482452070656e-02 6.366011219798556331e-02 1.937676912284261033e-01 2.013032775128008600e-01 2.194074745925849446e-01 1.812982453123326010e-01 1.127654788752353032e-01 9.496280174029425591e-02
-8.559815924262031972e-01 4.488713051762538431e-01 8.837078499553460698e-02 7.403469583028001733e-01 -2.688914297337964832e-01 -3.179597689709502961e-01 -1.515053631686103797e-01 7.619819193867656271e-01 -5.128062354898730441e-02 1.400923706782872813e-01
-2.410379428860059126e-01 8.390321723389126962e-02 5.650977688153888678e-01 -4.027687125976535110e-01 1.992169401967741338e-01 8.061635242573444993e-01 1.950644818024508120e-01 -7.680393739769129403e-03 3.365382336363186844e-01 -4.146347405505552142e-01
1.133728947377926968e-02 1.060045440722193338e-01 -2.150260300914501668e-02 -7.826835505770828039e-02 9.529373076132048592e-02 -1.431222331943647619e-01 1.083490349415512227e-01 8.607767528243855451e-03 -2.258826116389367998e-03 -8.983271504171892741e-02
5.580939006800039043e-02 2.572843564693513135e-02 2.071344309805699391e-01 -1.674843645226687175e-02 -1.945187320385438623e-02 -3.909097275731208965e-02 1.254960161501731189e-02 3.208109949244169340e-02 -9.886364757908663869e-02 1.783192613647043706e-02
-2.850718666809734514e-01 7.617413656995146720e-01 9.132966823622341579e-01 -6.194446517660842089e-01 -1.047970201019240571e-01 -2.442102209526650913e-01 -3.180099176092622271e-01 -2.268960073537107380e-01 6.785683885075347588e-01 -3.959000859055026855e-01
-3.371539017432695906e-01 -4.367365799302937446e-01 -4.450683535007284308e-01 2.738760192700164797e-01 -2.332096831406929582e-01 7.291824738721800481e-01 -2.079530713920433038e-01 -5.147464127794055821e-01 7.480768827280516453e-02 4.376105360494462748e-01
-5.075724136190264968e-01 4.419320451838751329e-01 5.393640470193383774e-01 -3.210456464326763570e-01 -1.554209143296887974e-01 3.177134834449891199e-01 -3.198848596603566796e-01 2.311300342663992202e-01 -5.810021090116894715e-01 -7.117431957354112271e-01
-2.340565149115440557e-01 -4.525118870459352016e-01 -6.236908328758059561e-01 -3.822484264339625071e-01 3.781776309066709474e-01 -5.358599490582600655e-01 4.711850698335903753e-02 -3.165705565164234625e-01 -3.662148726548496991e-01 1.457312011102379901e-01
1.076718396432539276e-01 -3.902095705348079119e-02 -2.272020439710371043e-01 1.559259989672582003e-01 3.413581208335419309e-02 -9.328705543450636906e-02 6.513787226457391777e-02 1.678780567730417742e-02 8.829751039452335415e-02 -2.042065044557833386e-01
-2.529091536328664791e-01 1.633964103985230121e-01 1.976501463311911566e-01 -1.451280908704505324e-01 -5.742731098270572598e-01 5.605622811221346868e-01 -1.209029877566913658e-01 4.361848019518970165e-01 -1.755534771331851152e-01 -5.467319300874297072e-01
7.022880227474538606e-02 2.964588346108095254e-02 1.738934882883231420e-02 5.758222714937601822e-02 1.080777627649407158e-01 -1.708107711434675782e-02 -4.254649338554983198e-05 3.031793564069001218e-02 5.560165769256757845e-03 5.758237948978704029e-03
-5.652328468477019197e-01 -2.821679939175835705e-01 -4.559834064316798385e-01 6.325099424821644112e-01 -4.840816805563313285e-01 6.902698151862176612e-01 -3.439586317207702915e-01 -4.544584919201756779e-01 4.820317373047499077e-01 5.615780845727644799e-01
-5.399113955105805385e-01 -7.971692774821328986e-02 3.621228316886828114e-01 -4.025682940111146094e-03 8.202561573791317118e-01 -2.675281765311454119e-01 -2.277250603224660885e-01 5.789975284789027343e-01 -2.556253811750043847e-01 4.227247053156690249e-01
-3.593256605385850705e-02 -2.370639630933096473e-02 3.118357405229088206e-02 5.991072979726713016e-02 1.765448105551033209e-02 7.591383407875224032e-02 2.067470380221278839e-02 -1.501357281796039320e-02 1.371958178374870158e-03 1.201832235319105630e-01
-8.664330883151911966e-02 2.295740560757105475e-01 -1.966249752334722420e-02 6.441161964823070851e-02 1.496430303606370305e-01 5.546853013084523942e-02 -1.203845474771289004e-01 -1.324631420194596898e-01 -3.929284250465510386e-02 -5.225656196688922145e-02
6.834356036159014783e-03 -6.879236027508461859e-02 1.607088614524338974e-02 -1.632080972544867614e-01 8.311346350957966866e-02 5.916222827345433977e-02 -8.169236358757211991e-02 -2.073541669467979243e-01 -2.661106784634622024e-01 -5.164278459736796334e-01
5.176687145027771830e-01 -1.002260104772689508e-01 -5.260031972852929893e-01 -5.592749131814327423e-01 1.222672941285394416e-01 8.615319955149654263e-02 -5.119879999732136477e-01 -6.819988345604356683e-02 -6.181232506311484798e-01 5.103267382027448784e-01
4.609889206464775069e-01 -6.361976833546503229e-01 3.782651131478856343e-01 5.747200445795322965e-01 6.291690131764627880e-01 -3.057014827865851547e-01 4.008881369478364820e-01 1.720262467777894932e-01 -1.275679000943317695e-02 4.826310158624604330e-01
4.187252605834113073e-01 -4.460845536224971042e-01 -3.758158806563088317e-01 1.652437292722769013e-01 -1.396656813240522987e-01 -4.133762039905380381e-01 5.021301987579349646e-01 4.219238525218491076e-01 -1.273563895090922826e-01 1.117547917623738507e-01
2.125820415414404752e-01 7.906207600467018981e-01 5.095673300195071587e-01 6.025118618485811872e-01 7.222737893186251812e-01 -8.031504300759133574e-01 1.674390876923820826e-01 7.928688551108132865e-01 3.089495359496274851e-01 -8.702827180595354983e-01
2.608047750448375668e-01 -1.124990865583564009e-01 5.060230553203880904e-02 1.316295734833665965e-01 -2.059393342820558248e-01 3.399069608783112373e-01 -2.967588306298219944e-02 2.480282840712181858e-01 1.357790814992700101e-01 3.489935553217921038e-01
4.323836328025765785e-01 -5.373267504485108592e-01 5.567452055937578415e-01 -3.543200256030852868e-01 -1.777232634327191030e-01 -1.612037586050380500e-01 5.569955620944402330e-01 -4.453275413463608778e-01 3.266297768425627246e-01 -2.320004601502253239e-01
6.766387347234890104e-01 -2.550036001543870556e-01 -7.074584532560286299e-01 8.932583712407800025e-01 8.626010642852723065e-02 9.341072077569158028e-01 6.929450204352914922e-01 -2.708447988666320971e-01 -9.290677505436950590e-02 7.890342439403916774e-01
-2.191551961737401022e-01 7.391927691525470960e-03 6.533640920651735684e-02 -5.204393097726831563e-01 -4.263219940078545322e-01 -2.380526344945622097e-01 2.158214380934482257e-01 -4.024808252477448667e-01 -2.950298227804294959e-01 1.427931162212003890e-01
7.565996431027776259e-05 4.674596043229491127e-02 1.577688765058006190e-02 9.875497655995353619e-02 1.854165937631784998e-03 8.231801599636716371e-02 -2.007771133706930339e-04 5.165823461103290909e-02 9.088341143810848427e-03 1.368473583286340146e-02
-1.265341831097681891e-01 -6.033730587111713062e-01 2.758041259002172452e-01 3.314381324944833812e-02 4.917178217557762188e-01 -4.561313958160057025e-01 2.474073534035322597e-01 -3.984502866252007669e-01 7.145865461795765095e-01 4.417634630813057628e-01
-4.830594210762957363e-01 6.763699617544014497e-01 -1.035221987848153891e-01 -1.625463731325917094e-01 4.552637236740613713e-01 5.135552420186081379e-01 2.686830694237674066e-01 4.593593512490646291e-01 -4.624008271809260662e-01 -3.979799097691282261e-01
-6.355632188890394940e-02 -4.107487805863730412e-01 5.356193239355552804e-02 -5.855905633684303779e-02 1.497756046642312600e-01 1.823828578900127673e-01 1.125554804149542926e-01 4.065570749452097066e-01 -2.676346029220315614e-01 3.242610158693557398e-01
-6.774086798605100102e-01 3.952154602687478757e-01 4.481628712030876205e-01 7.199214380439752370e-01 1.306621114822169860e-01 5.890212759565870426e-01 -1.913523184005083699e-01 -8.453247227855667512e-02 7.054182270544337996e-01 9.197277200002330899e-02
-1.490407729478211152e-01 6.238598258481589109e-01 -5.614696719246378143e-01 1.914810667522397758e-01 3.062872400129014183e-01 4.265298162747305222e-01 3.999833552796192015e-01 1.154910729587915047e-01 -4.287812150113042009e-02 -1.581550543002657461e-01
1.051722468582471162e-02 -4.976183855732800934e-03 3.233527961892337932e-02 5.751219394553033076e-02 8.093891043596786183e-02 1.633142506398288854e-02 9.303844435817673966e-03 1.007765798099573423e-01 4.547109514730736379e-02 4.354298363804993272e-02
-4.907780427131341328e-01 5.994787313133479456e-01 -4.901187341780912088e-01 -5.619408069210816981e-03 5.723059533667816945e-01 -7.475794633870268546e-01 -7.993276784820806391e-01 2.622080151104394519e-01 -3.389516737541457547e-01 -7.029649768440895397e-01
-2.113220682860450506e-01 -1.537816957241570914e-01 8.019177247377955176e-02 1.385013910802078974e-01 1.404025299123356496e-01 -4.119539438371478957e-01 1.103030408621410302e-01 5.763476780782176290e-01 2.045762974557908676e-01 -8.216194398330919912e-02
-5.440272433947507258e-01 1.965782420207663472e-01 -8.091810662367535656e-01 -3.327700065893882675e-01 -6.751420258810312269e-01 7.883281236410759341e-02 -8.322966167803276250e-01 -5.071729771622830452e-01 8.005582300821396657e-01 6.868443420929629673e-01
4.224538876066967485e-02 2.451178905477981868e-02 7.804898466429376069e-02 -4.067179617316185603e-02 2.206004402350078553e-02 3.881234236203108534e-02 4.158612483968082696e-02 4.882645212889495656e-02 1.706219598569579674e-03 2.241597255922365278e-02
7.425038337192213511e-02 -2.025813938331729736e-01 2.923484570784299907e-01 4.332338466402775867e-01 -4.829880373084032841e-01 1.868549975247148498e-01 2.237057682333202790e-01 3.792755037964461867e-02 -4.936650413920599112e-01 -5.550680831015838423e-01
2.011551549875817690e-01 -1.076894956971638090e-01 2.014625571055822795e-01 -2.492775103031014128e-02 -1.872765218475976601e-01 -2.189527748738067936e-01 2.273136887146126883e-01 -2.285227977294795043e-01 -1.005425413103874510e-01 2.659606319193281720e-01
6.965856664591182357e-01 -4.799452337827992965e-01 4.768039123880756791e-01 8.245669377533736411e-01 6.134299808802398113e-01 -3.286292972616790958e-02 5.271071089829021394e-01 6.936983996380468032e-01 5.925120067881776142e-01 1.054211778367937641e-01
9.721611828383537601e-02 1.149471047750231095e-01 4.743051322253977187e-01 -1.431231439578717346e-01 1.858038434685420903e-01 -1.967486322043341118e-01 8.826322028540135867e-02 2.645123083650306461e-01 -3.720093033602278054e-01 -3.558962120218202574e-01
-3.568843529205442677e-01 1.337308958428547745e-01 3.852047566775717580e-01 -5.816048523000207915e-01 5.703597573320466907e-01 -1.207333032964705705e-01 7.210827805427112436e-01 -5.607879822594825647e-01 7.488308026994075495e-02 -4.131639283548992070e-02
1.537933380233124370e-01 -2.128315959280645819e-01 -4.063395575028985185e-01 1.229613389354893005e-02 5.065628334699131402e-02 3.524395828687495319e-02 3.718794909933587078e-01 3.744402895710567392e-01 -2.828558561395227294e-02 -4.772722036855453487e-01
3.043657017017357691e-01 -6.138653413944127335e-01 -4.678572173063575423e-01 3.029333803675489725e-02 1.540800532906161924e-01 2.915277835756719393e-01 -2.633565832509683902e-01 1.998493963875985768e-01 -2.632371055048186026e-01 -4.027131702458761064e-01
-3.648021472716547059e-02 3.799729075218488128e-01 3.162665404989365436e-01 1.805045293725356936e-01 -4.871355935836124695e-02 2.228575628994310664e-01 -3.216193647720773652e-01 1.828778137933968484e-01 -6.762825362109804034e-04 -4.135748505676807851e-01
2.500710614798302700e-01 -1.879622767536440475e-01 -1.561738453726591869e-01 4.514067148002426921e-01 3.865175112101456034e-01 4.695116130492756890e-01 6.904748734743259009e-01 -9.485426895136113423e-02 -2.885129598773905069e-01 3.426565784407935022e-01
-5.087421468973352123e-01 -2.087700913415501403e-01 -5.612196202616288182e-02 -7.035911115227085413e-03 2.663116685571442765e-01 -2.223986667336187995e-01 2.881237002072867519e-03 -1.822732071449260915e-01 -2.857752766431008173e-01 2.358499253273340368e-01
-1.257925332347298863e-01 -5.460650645990750007e-02 -1.939382833296300901e-01 1.736948158939560505e-01 1.526660482853233469e-01 2.107330775549856594e-01 -3.747448782303625103e-02 5.331215212576594087e-02 5.013542027641994985e-04 -2.894316110549399398e-02
2.091137202979118370e-01 2.436971054803957759e-01 1.702165809797756280e-01 -2.129546669889601507e-01 -3.637458224995984701e-01 -2.433319616874794755e-01 2.404849031272260351e-01 -3.064159319490949440e-01 3.481384287681978940e-01 6.448734875347367224e-02
-1.975686701225782399e-05 5.352977248335314409e-01 -4.410903857938330286e-01 4.749478406349668669e-01 6.461660775148465596e-01 1.768735099066131855e-01 3.234138585839810842e-01 2.757326420299380798e-01 -4.688935719229909704e-01 -6.461543921168183546e-01
2.796463831254797916e-01 -3.682591887155505228e-01 -3.844856303199751246e-01 -2.307863238601197409e-01 4.672380015883066950e-01 -4.032319896763325584e-02 2.079515907598134331e-02 5.132510729287906859e-01 2.600065513002687290e-01 -2.422575245591163107e-01
-6.518865259227644982e-02 2.960440478810673071e-01 -2.507552191020888110e-01 1.818159683034831220e-01 -5.113088635415304894e-01 -1.680172502326512940e-01 3.094638734846333339e-01 -2.797142486254967642e-01 6.665320011332361849e-01 4.492830304469169200e-01
-6.191798228586339620e-04 9.138660883025803705e-02 2.075583956552191356e-01 2.009272257971082276e-01 9.066280246791141861e-02 3.468848210626085948e-01 1.664466759487932546e-01 -1.096308652109715398e-01 8.443065167957702899e-02 2.469520583260427782e-01
