6.301454158743879930e-01 -7.994299506640789588e-01 -1.146920162456908782e-01 -6.202975753489224919e-01 3.231595403058025173e-01 -4.556391915378037449e-01 3.509107129742775610e-01 5.927801527354350508e-01 8.037976624806877357e-01 7.088960005728822678e-01
1.498618384796772118e-01 1.205362883729350076e-01 -3.896149968577413136e-01 4.034712645616680970e-01 3.970026151023122174e-01 -1.093418604653932785e-01 -2.519358935695616419e-01 -4.319198040824391849e-01 5.169450112820830334e-01 -2.684226994043303338e-01
2.803429833005223193e-01 4.422855071700005358e-01 -2.024581433010690101e-02 6.577634386663750998e-01 -5.690312122406608886e-01 -2.940854461597569025e-01 5.572871825963654491e-01 2.485561166111790732e-01 6.818330943509106623e-01 -2.664153255496889972e-01
1.509439522870089645e-01 -2.483592581471597838e-01 -7.025472505722395178e-02 -7.910170243671499346e-02 -1.990796454507224311e-01 -2.224804605274473823e-01 2.742317944047114042e-01 -2.461630995507117781e-01 1.919505531048300573e-01 -1.262821205503198430e-01
2.652919707871803819e-03 -5.413846203892853058e-03 4.830189243706976832e-02 -1.286887592836291443e-02 8.255288538277510968e-02 5.882928840729782609e-03 1.904844974089809836e-02 5.360130179477236301e-02 -2.089092464777497164e-03 2.186072255688846847e-02
-4.456086999087315870e-01 -7.476414568847695730e-01 -4.073031024295233060e-02 -7.937995369568823234e-01 7.018325210222204902e-01 -6.937572986627745797e-01 5.532009044042534018e-01 7.116492789838597677e-01 6.745824079019808739e-01 2.297786613790127053e-01
-7.021581909874634667e-03 1.414612384253359778e-01 4.925935089752027374e-02 6.745835218483625662e-03 -1.626424335591330692e-02 1.379571557897091988e-02 4.663429689496518399e-02 1.305501266343758390e-03 4.634768597751540847e-02 -2.997646780136488474e-03
-5.356816348681429085e-01 6.817139499614321974e-01 7.769401276089837882e-02 6.871144137258824447e-01 2.266915070127871190e-01 -3.248769769231917848e-01 -3.843469532459236060e-01 3.209220771499457503e-01 -6.055655731554180354e-01 5.611707253234392567e-01
-6.882662863960008204e-02 5.909703807624659966e-01 5.515596945479326330e-01 -5.610660092237955698e-01 -2.794791972515633383e-01 3.698468954835139044e-01 -4.216038731957969521e-01 7.188051103194154079e-01 5.171355013253358113e-01 -1.893926895189698700e-01
1.176804318479589533e-03 -6.274790582130717470e-03 -5.182814988655666012e-03 1.483046055862118420e-02 5.546184173987168259e-02 3.151688615340852290e-02 9.357643229136906188e-03 3.527652291132291063e-02 2.644141529744679572e-02 2.886521513259811614e-02
-3.491841202065792960e-02 7.453660164814564226e-02 9.500101763051239934e-02 -1.205872243903374497e-01 2.568441246488574747e-01 -7.657280269359824192e-03 -3.682762364928170162e-02 -2.147383444897658922e-02 3.098436700558186360e-02 5.449619410790208784e-02
3.424551910982502334e-01 -3.189984976201053479e-01 5.937976798764230679e-01 1.864934146598734577e-01 -3.493971189800777061e-02 -2.090974229790688033e-01 5.404921257673122037e-01 5.066010379047516388e-01 -4.534496828826801162e-01 4.088655937699645082e-01
-4.256990033497692894e-01 -4.294422364617254267e-02 4.465760059473716237e-01 5.860713516891802310e-01 4.660214935705906947e-01 -4.701684237571119862e-01 2.079146358752232138e-01 -1.352837035622975748e-01 3.178845727170357960e-01 -1.297453398889774623e-01
4.210621354803167349e-01 1.967780926901832039e-01 -4.647037916883516306e-01 6.414555202250329380e-01 1.747295449857612926e-01 5.448103401229217879e-02 7.439136695468655525e-01 -1.648287002991865313e-01 4.114766074970742094e-01 2.864569633694004636e-01
3.113738115721194077e-01 -5.506078346512023325e-01 3.554349322603619354e-01 -2.371216999203698550e-01 2.908598887180234849e-01 -1.819023104356049247e-01 -4.561262490289811899e-01 -1.672805765889289198e-01 -2.004583411900429657e-01 -6.865321109972222224e-01
1.688239411117730803e-03 1.476736226828467315e-02 4.579559849231056717e-02 1.041479654523904709e-02 1.024889910870581400e-02 3.297211331584480598e-02 8.067731802614691583e-03 4.682998889932086205e-04 2.175641142390209726e-02 3.475149554146120257e-02
-4.426290859507007736e-01 1.095261752390258164e-01 -5.759399266017378727e-01 -4.960285676032458735e-01 -8.142201615793997344e-03 2.170257119417677016e-01 -3.866994939310512691e-02 3.793517378223023040e-01 1.033116638174040314e-01 2.440655725530772036e-01
8.298376225800448980e-01 -5.337618860118708008e-01 -7.693583075927025172e-01 4.701263116840983525e-01 5.956647780168811135e-01 3.149249392443219109e-01 1.116235145593039574e-01 6.656302269124637627e-01 8.042212352862410096e-01 -4.411521299143423835e-01
1.843877067767917856e-03 4.249114055790234601e-02 -5.925521106935788263e-01 -4.782440704258977826e-01 -5.798187532468280780e-01 2.864621024933572957e-01 -3.650689247244177094e-01 6.669282911868691377e-01 6.755790913866736858e-02 1.289495859359899264e-02
-6.150954044503444823e-02 2.783615666701276803e-01 -1.458142950114046099e-01 5.943899631978697556e-02 1.869990118322795436e-01 -9.944219146079971705e-02 -2.402164061841659259e-01 1.746533270952406736e-01 1.729604794608769758e-01 2.042154752003103382e-02
3.939788633584813578e-03 -5.666562814689473510e-02 -2.549284732187192537e-01 3.790385483989646143e-01 -4.257403320948320857e-01 -2.563562822982308129e-02 1.890532550144834456e-01 1.781176595195146928e-01 -3.231163856865439388e-01 1.880610614071026310e-01
2.861194253051907999e-01 -9.561656280793651153e-02 -2.590704956351467803e-01 4.149701674467010659e-01 2.747000319095000420e-01 1.692806990009486923e-01 2.209527014210146134e-01 -8.715822491193231381e-02 -1.308190844773905737e-01 -2.157450697226414027e-01
6.451429190768799560e-02 4.475506905452255602e-01 -2.385720281495454509e-01 1.851415907495323199e-01 2.739202197422760943e-01 1.419012633058144568e-01 1.087546521200539879e-01 -8.127799052457636286e-02 2.621415421271457991e-01 -7.346411427058610610e-02
5.223205366155260210e-01 1.113304902627375303e-01 8.167198920451567146e-01 -8.843176546262496718e-01 -3.956803869645867944e-01 8.725003305154083177e-02 7.581117631402842783e-01 -7.726270355122495381e-01 -2.096589270187690646e-01 -8.083592069907201694e-01
-6.285318513211338720e-01 1.834609883879793901e-01 1.125764667663112575e-02 -6.589423413742794000e-02 3.374130299701436630e-01 -1.386264277964503466e-01 -6.857463919643990158e-01 4.667644486732100972e-01 -6.537444272240158227e-01 -6.068009407949389589e-01
1.303067657960227388e-02 -6.639443220931613709e-02 -1.720142275319433076e-02 2.595355104422599202e-01 -5.043111593405535942e-01 4.438673969465483649e-01 -2.155796275908147264e-01 -2.503241574215483989e-02 2.298761309928701035e-01 -1.172500383007135938e-01
1.711155559405940774e-01 -6.255265329296805232e-01 -8.105215498702822430e-01 -8.161875486132219581e-02 -3.101613096639793121e-01 -7.991111945660533955e-01 -6.675114138761395477e-01 -7.254096508352397832e-01 8.642969042287349524e-01 -5.170809482809600732e-01
3.706191309183349825e-01 4.759492083358616288e-01 -4.063724401086259846e-02 -2.691284988677347667e-01 4.394839712492445427e-01 -2.857656984824061830e-01 5.169589577507738287e-01 3.544195377281114667e-01 1.561501204502185047e-01 1.391779899088184114e-01
-3.197538765053398180e-01 2.865121904238795425e-01 -3.458788762986540755e-02 3.075040608024067618e-02 -6.924742587790456705e-01 -2.449897660011268741e-01 3.285072585572447745e-01 -6.563245682587867114e-01 3.884668420447885406e-01 1.531724560843541246e-03
-1.755436520704831971e-01 4.801900945771516160e-01 6.159312513442409820e-01 -6.562810725278893365e-02 -2.311015020606222159e-01 -5.431860574295637178e-01 -2.596780369625632523e-01 -4.166040307593336656e-01 5.247683297757010923e-01 3.666682032743044939e-01
-3.793039644990687242e-01 -5.456421462716370963e-01 8.692405197233490366e-01 6.490652689548770393e-01 5.124102129486183266e-01 -1.406950124057486373e-01 -6.784230787150753450e-01 -8.285047031538408935e-02 -5.809507009573875447e-01 -6.625867801116392952e-01
-6.620309989316051913e-02 -1.100014909292142684e-01 -6.940111173031269232e-01 3.346845527512087859e-01 -3.815515609199895408e-01 -5.876723795038713005e-01 8.016086730774147906e-01 -1.498945317435193547e-01 -1.323284844878507005e-01 3.509866437071881839e-01
-1.489288238193115232e-01 6.090425318279554245e-01 -4.903832560703825227e-01 -6.705587762510160088e-01 2.538641913016796980e-01 1.313239028061169433e-01 -4.243106306443407416e-02 2.490055945491173039e-01 3.148190633038099318e-01 2.523295627348466352e-01
3.118044560001858589e-01 6.384955447893405633e-01 -2.226676371430820478e-01 3.572192593983662956e-01 -6.270863793611578529e-01 -5.836171024288548947e-01 1.094117476497109831e-01 1.970948753355892813e-01 -1.144054496053211606e-01 -4.435237463580076200e-01
-3.349572751977123591e-02 3.141849465281056353e-01 3.531540563824707157e-01 3.142797661252126895e-01 5.186114976200886240e-01 -2.820631966778905375e-01 -3.714577885703518323e-01 -5.476935038235309500e-02 -5.654170755860550290e-01 -6.135213439025424820e-02
-3.528015331264706123e-01 5.935056304279613393e-01 2.736796216052049813e-01 4.328057161190956847e-01 4.083995955624745156e-01 -4.505050336588548587e-01 3.602460068479144129e-01 -2.690315158100148873e-01 7.210601238266594049e-01 -4.229593172524179767e-01
7.195158931136574898e-02 1.558878916305081810e-02 3.149098431426299027e-02 -1.981476639605489476e-03 7.258742456356476690e-05 -7.066565720443420545e-03 8.926017917578382699e-03 1.160392755251567765e-01 -6.733970627723681775e-03 7.612267669325028380e-03
1.976506494135976399e-01 -2.139354150566849869e-02 1.950672931663802179e-02 -2.374997986900798663e-01 -3.539062344310933139e-01 -6.831958095572135230e-03 -8.471791304502468423e-02 1.553226518664384548e-01 -1.302164232357447549e-01 -3.696683459511261871e-01
3.840981967278009335e-01 -5.503749612939689007e-01 -2.873162060787740613e-01 -7.049196080840931522e-01 -6.891619819327152174e-02 -7.002969607292174326e-01 -2.017984014772576939e-01 -6.338153130988044559e-01 -2.139538560464796998e-02 3.035159000270090113e-01
1.826093534862898229e-02 -1.211064898302221110e-01 9.432658933003238919e-03 -2.657077404712839333e-02 1.696174272382121040e-01 3.462478107793233451e-02 7.767125849994993558e-02 1.009758161239926455e-01 -4.163980896354144839e-02 9.845836305839787694e-02
1.206399282633575654e-01 2.550505403438199092e-01 -4.332816365756410326e-02 8.884380158156492124e-02 -5.278505779264233005e-02 2.048713570625778635e-01 -3.330711691183820822e-01 2.038368204240123271e-01 1.002436978204958654e-03 7.606616692187394280e-02
-3.920631905242926707e-01 -4.480572840103509702e-02 5.822522311268422124e-01 -5.114203022668833282e-02 -2.570322423718761629e-01 7.161655126314879771e-01 -3.177868790909905705e-01 -5.289772220843405037e-01 -4.078005909390197137e-01 5.381712190602155887e-01
5.806821312863835738e-01 -7.706053837266807482e-02 -2.597497444687699719e-01 6.622615756183499736e-01 -2.619519581805401787e-01 2.579821437999842149e-02 -7.758267504157364547e-01 1.499910511164241345e-01 -5.355784558987528587e-01 7.421211578922476404e-01
2.646286793197932252e-01 1.855794410419751017e-01 4.168601154172929708e-03 1.239381521265000979e-01 -8.192337906623496646e-02 3.040812505637358401e-02 4.256700687372391712e-02 6.311354521858913991e-02 1.281174795800585353e-01 1.522899297961274878e-01
-5.193312479060601117e-01 -8.475665581793745407e-01 1.533126711026265299e-01 6.032117414171085379e-01 -2.746254407579306611e-01 5.901174079120911076e-01 -8.407637365724111023e-01 -6.928775965130867798e-02 -6.880533318495934969e-01 6.393228392921185277e-01
-1.770331608463011561e-02 3.705338994818740961e-02 8.946805057752775514e-02 -1.558392208738723639e-02 -8.134986640680659520e-02 -6.443196640247517148e-02 -1.282690760319006307e-01 5.027188541137999483e-02 -1.071470704560222864e-01 -7.879768367695584586e-02
2.029690108729206577e-01 -2.395632956396074320e-01 -4.422114418987066475e-01 -2.971830438893788284e-01 4.304012413843574802e-01 3.684696777535090284e-01 -2.050164059087168922e-01 -5.463224621065220221e-01 -5.230665004168916221e-01 4.996624258772931482e-01
2.889171991534629780e-01 -5.275591037880912326e-01 -2.319401471504316942e-02 -3.518242425561052822e-01 9.688754393678786214e-02 -3.044299504206726126e-01 -4.307912115718584567e-01 -6.788194719891241236e-02 1.100958203576240212e-02 1.849904083069471572e-01
-1.245631806413712572e-01 -3.140508167230938730e-01 -8.535304767466052323e-02 8.809048691818407995e-02 1.491821932248282301e-01 2.376403785832322535e-01 2.653689656628675508e-01 2.265591513648451127e-01 1.448558537942247759e-01 4.567738385051445943e-02
-8.580835893378272461e-01 4.484742150051141407e-01 8.910833754417044061e-02 7.370868569281417981e-01 -2.694509360602732606e-01 -3.183253398114976318e-01 -1.518141026017985340e-01 7.638882848403798498e-01 -5.118399428953438607e-02 1.408127178268558377e-01
-2.487301535124556984e-01 8.444521257727843899e-02 5.675224249469978943e-01 -4.045848240193307688e-01 2.004567379230769442e-01 8.092615200793329411e-01 1.957275414162487626e-01 -7.751227595510875278e-03 3.379022739282321330e-01 -4.160384537901001822e-01
2.754270969305368244e-03 1.586086020268541452e-01 -7.779604312645561903e-02 -1.834570127518972138e-01 2.106086108586516792e-01 -2.433162356677746607e-01 -3.175072362074133486e-02 2.598261791221381095e-02 -1.764999713992978711e-02 -1.666241685715779131e-01
7.442298668268887418e-02 -4.261769535326283970e-02 1.562644124909207122e-01 -9.984367569290015371e-03 -4.188705562176246039e-02 -5.611316724324141164e-02 -3.204174420923654176e-02 3.035809113373971746e-02 -1.652090022373964850e-01 5.919207677053343886e-02
-2.861144923532256690e-01 7.696990305587391168e-01 9.179520877795130929e-01 -6.233718381394384167e-01 -1.045684451342260846e-01 -2.677032594711945546e-01 -3.111791925045450102e-01 -2.196892320504317264e-01 6.842144671787252497e-01 -4.157362062799795921e-01
-3.410853951684066909e-01 -4.370592774721203666e-01 -4.456394946193442674e-01 2.759020213913359054e-01 -2.321216525327770286e-01 7.248034985196273317e-01 -2.117189545439637499e-01 -5.151282042970065644e-01 7.614469115667006627e-02 4.420591019924710596e-01
-5.076991002281799892e-01 4.420908999407283102e-01 5.396293290335788528e-01 -3.209197729484365436e-01 -1.569383495861435274e-01 3.173285372916850866e-01 -3.199208140485252372e-01 2.315457891924118106e-01 -5.809914867054932763e-01 -7.127238917516558470e-01
-2.380236370906425869e-01 -4.565924518043281144e-01 -6.312997625816475500e-01 -4.038863024064947016e-01 3.841223089248691491e-01 -5.428331523870074671e-01 4.941835728093353641e-02 -3.213916065376248299e-01 -3.697311069006342654e-01 1.518463648043850700e-01
3.891463551124512560e-02 -5.133086601551474504e-02 -2.547913715933526335e-01 1.839596994199535207e-01 2.338045981689713601e-02 -9.606675190728077018e-02 6.976177103098417376e-02 -2.568254933461210782e-02 1.098398984074504259e-01 -2.463952648765104503e-01
-2.636734856365983704e-01 1.635199285783805190e-01 2.010096516075469131e-01 -1.495919301987306271e-01 -5.863009447148909148e-01 5.654310058788301063e-01 -1.318605878132591835e-01 4.415558954765061994e-01 -1.817332302797533827e-01 -5.544192026591875377e-01
9.571158125965831265e-02 5.214843250344942949e-02 3.785878484807449294e-03 1.266991047913660906e-01 1.292946289348114730e-01 5.229515365818331041e-02 4.839109489736263814e-02 -1.458608556109528172e-02 -3.380059440082663208e-02 2.273467199538294417e-02
-5.663732444870047678e-01 -2.826798919913190988e-01 -4.575443085431021850e-01 6.330930033009457558e-01 -4.810613837703951456e-01 6.978049458278908768e-01 -3.442170737594575369e-01 -4.641979903210050051e-01 4.826749608443782757e-01 5.607997625812310982e-01
-5.396633283713677676e-01 -7.967525151495785662e-02 3.622566047023623170e-01 -3.826902079881649120e-03 8.203527457341047713e-01 -2.674877093346396117e-01 -2.278930769803871048e-01 5.784809753008829381e-01 -2.557605094888970587e-01 4.232022033060844346e-01
-1.286708988676560916e-01 -6.704612523033492977e-02 7.150591916303671025e-02 3.487089887779770692e-02 -3.993366935887089630e-02 -2.274694560051043757e-02 6.970992497480060779e-02 -2.883384446480300551e-04 2.060752926548415492e-02 7.571668864951122679e-02
-1.185209673162015837e-01 2.464972134794599645e-01 -9.345822478809669154e-03 9.766038695249429358e-02 2.089937095984849003e-01 4.229647468338924160e-02 -1.980283877132740511e-01 -1.511518600025318626e-01 -6.330739677721057557e-02 -1.081551423293396624e-01
1.377280879759208883e-02 -8.690845124010732059e-02 1.464742281509546530e-02 -1.887221612955355676e-01 1.182892130626145982e-01 1.025342866882245213e-01 -8.798772841130603206e-02 -3.007559709991271535e-01 -2.946771341870372263e-01 -5.916184574118273920e-01
5.267593646803173657e-01 -1.278407237958343323e-01 -5.336289408301991832e-01 -5.700011211479815154e-01 1.298391355569440409e-01 8.811365887392172414e-02 -5.255028657725497876e-01 -6.693771111190628675e-02 -6.337836164814292239e-01 5.189852216330039791e-01
4.640570669373897394e-01 -6.383356443301454464e-01 3.794949415593139586e-01 5.761655510169962913e-01 6.327344088089780216e-01 -3.029460810469864485e-01 4.031872254973343783e-01 1.680484402578557301e-01 -1.183041327395368061e-02 4.828742481008746479e-01
4.290897698342643896e-01 -4.524301706728465211e-01 -4.023875383683689355e-01 1.725327810512853333e-01 -1.407863070104865277e-01 -4.186899548044123454e-01 5.142026323431313495e-01 4.307393947929761824e-01 -1.291942050680343346e-01 1.146424877261262715e-01
2.096207622112746527e-01 7.919640755967234380e-01 5.088429034852369748e-01 6.014991366803286166e-01 7.221388899544340934e-01 -8.033389580223673221e-01 1.669946063504652023e-01 7.955141587370007095e-01 3.090278183464542083e-01 -8.710841703481592146e-01
3.082119751257965667e-01 -1.272695377246104986e-01 5.759921616997989297e-02 1.420116067970083884e-01 -2.059031218899407267e-01 4.114031511995713264e-01 -4.459962303328200706e-02 2.303963880207302029e-01 1.483752767547192319e-01 3.411769068246336967e-01
4.377221299776829500e-01 -5.540130022726970083e-01 5.616798447930867466e-01 -3.544449209440746484e-01 -1.802831678926815340e-01 -1.560690961948096867e-01 5.522232851393725772e-01 -4.504644685297812812e-01 3.287196331897473400e-01 -2.380666836236094985e-01
6.766557941280516575e-01 -2.550021381871663273e-01 -7.074391807227992102e-01 8.932719627360473647e-01 8.627282161753628553e-02 9.340186867060030762e-01 6.929514141392435489e-01 -2.708275577536449208e-01 -9.290439140592159084e-02 7.890492329463741905e-01
-2.184063076658646352e-01 4.967486632524658642e-03 5.373854859486099783e-02 -5.342674940393498106e-01 -4.364503851872687523e-01 -2.343543879046557088e-01 2.278385772359974581e-01 -4.125059577574158864e-01 -3.024297742841552394e-01 1.477826953658966103e-01
1.036892308956307955e-02 3.756180079649628495e-02 7.371168015803993522e-03 6.675667313954421200e-02 -8.605323307715476155e-03 5.690935150040765667e-02 3.942606468211854245e-03 2.450419207958653631e-02 9.844790131688511622e-03 7.735243198275738863e-03
-1.238438962769878582e-01 -6.048024109838217033e-01 2.804406218889367031e-01 3.251110769184119981e-02 4.862451103363817362e-01 -4.556541657485838059e-01 2.419318181013772884e-01 -3.977651637796433826e-01 7.164153756058891931e-01 4.424405493818063251e-01
-4.833027911704971258e-01 6.665083642306229850e-01 -1.043467038218743037e-01 -1.650018364617183153e-01 4.602906338201833703e-01 5.153933585373177140e-01 2.653469848291791222e-01 4.624383738967217106e-01 -4.666979658367468864e-01 -3.978529384981381312e-01
-6.890711653702871753e-02 -4.364989398636287543e-01 6.130815893070445943e-02 -5.246115662996041207e-02 1.735576339062056272e-01 1.722979350120205089e-01 1.213445843702351534e-01 4.223225658215383760e-01 -2.943192918102068290e-01 3.418884230082391285e-01
-6.782544727927397599e-01 3.948023630827381392e-01 4.487886647821604513e-01 7.214136999819839025e-01 1.310426670074776589e-01 5.900606443254318156e-01 -1.915682686222700548e-01 -8.817013703077657139e-02 7.063661482084382381e-01 9.207135781950154252e-02
-1.493930083718771062e-01 6.254358271269815361e-01 -5.624230652790447316e-01 1.921287876560040242e-01 3.073705848619641690e-01 4.196275323013078928e-01 4.009885483302846887e-01 1.159324001877798521e-01 -4.273142961025853254e-02 -1.581570163449688149e-01
2.130308308279457025e-02 -1.151617573165015888e-02 1.179306391489059677e-02 4.344086373460489398e-02 6.075414379014131699e-02 4.079365197991950687e-02 3.553257903932596513e-03 5.394123972596130689e-02 1.990134393485188530e-02 4.187321134547351831e-02
-4.908461082659697494e-01 5.973512456347738198e-01 -4.898095049106835353e-01 -5.343137019114556699e-03 5.717780561614225210e-01 -7.477480099168964944e-01 -7.993944407357016502e-01 2.626095021186534706e-01 -3.388712398723126018e-01 -7.030892079687631746e-01
-2.213561010587139777e-01 -1.865395787334901967e-01 8.564524636403440805e-02 1.401099489967801426e-01 1.509388095028775523e-01 -4.304345657736382558e-01 1.155802472285534788e-01 5.833488441451047946e-01 2.166632020817438331e-01 -8.415349359205410995e-02
-5.442250436946394210e-01 1.977279987720967636e-01 -8.119808781194328695e-01 -3.337247461624655021e-01 -6.751916804915869541e-01 7.837187460976413611e-02 -8.327628648486918861e-01 -5.074252033790751515e-01 7.989583330786946824e-01 6.883671006875528020e-01
4.944106245812261019e-02 4.884236569890998414e-02 8.822612182102315681e-02 -1.078871879902539715e-01 3.065865859260172299e-02 -3.853314300519686958e-02 -1.385021562373060615e-02 -1.419445199300136025e-02 -9.316669931059494121e-05 -2.914705573844024889e-03
7.769214000024289579e-02 -2.088274113422484146e-01 2.938967980970781935e-01 4.335831747237468559e-01 -4.856555895258874989e-01 1.801017727286667591e-01 2.331890682979751162e-01 3.704511900689652637e-02 -4.990585307569458950e-01 -5.639680459632819831e-01
2.894004810810064665e-01 -1.511380203079165097e-01 2.854892946710935187e-01 -2.742409299263310479e-02 -2.410399055352146214e-01 -2.774416746107121745e-01 2.215145462765319984e-01 -3.312455422151628359e-01 -1.631567458996975861e-01 3.655122945867147477e-01
6.966208779968258158e-01 -4.808794283890603927e-01 4.770360859245365015e-01 8.242822315637028385e-01 6.136368864272596646e-01 -3.278358942528062508e-02 5.270438769867488160e-01 6.937740525834484862e-01 5.925717539898592845e-01 1.054751775672042036e-01
9.269805302719535955e-02 1.168741567155673206e-01 4.645599697196075573e-01 -1.455077933884870722e-01 1.898732868738642332e-01 -1.986174523723937269e-01 8.904115471892731781e-02 2.677895085786931029e-01 -3.745889991155005316e-01 -3.585466537831620282e-01
-3.589005381265684136e-01 1.339141182292094556e-01 3.860602143316728685e-01 -5.828869380300641945e-01 5.718810441977099090e-01 -1.259482464310071603e-01 7.227545861722802778e-01 -5.620164669494078780e-01 7.506494968211707697e-02 -4.121876885840478760e-02
1.626431983616266896e-01 -2.272949458151602431e-01 -4.325126104277468575e-01 1.410414933505924583e-02 4.876227700978381235e-02 -1.095166531082032019e-02 3.970591239350165780e-01 4.140421566225863104e-01 -3.091573455255448161e-02 -5.388583303813127001e-01
3.069784035037450565e-01 -6.184692337755093305e-01 -4.790399709792027561e-01 2.986844577318507887e-02 1.566246186038661725e-01 2.938265389427436869e-01 -2.644346719674067758e-01 2.022491671180271233e-01 -2.726696768606687860e-01 -4.050102555577472785e-01
-3.791696924198786900e-02 3.733111909127387329e-01 3.234067972963491355e-01 1.865669757912357396e-01 -6.242662488100048090e-02 2.231605297397409315e-01 -3.277700495902816646e-01 1.865949351105725684e-01 -7.529182073912695124e-04 -4.255762555646255274e-01
2.516062205149087738e-01 -1.877128544782999953e-01 -1.583010969782440991e-01 4.533163998094074665e-01 3.891073021544750876e-01 4.636330980968814686e-01 6.965911345272869371e-01 -9.224713072644898093e-02 -2.967046620599548823e-01 3.384680210335469508e-01
-5.163943866749607370e-01 -2.226927930331224770e-01 -5.252640784358975773e-02 -1.482377055027933078e-02 2.643917032432978598e-01 -2.595064169902984719e-01 7.544677174044414798e-03 -1.856042549997176383e-01 -2.879613250406906633e-01 2.424566224114268476e-01
-1.946802639239474941e-01 -1.031910737666749678e-01 -2.958821883647350104e-01 3.324236103217342309e-01 1.900871874725556243e-01 3.740454043739008250e-01 -1.729771929253491880e-01 4.230608834701369420e-02 -1.207119525227321778e-02 -3.238597377597944582e-02
2.206515952412894110e-01 2.403252210752806484e-01 1.779031169646097255e-01 -2.188979465097736499e-01 -3.695278912239303160e-01 -2.454091446261869036e-01 2.251080755789194310e-01 -3.261861152733955271e-01 3.600965629609017560e-01 6.610018452387735055e-02
-1.055155719916212585e-04 5.333133460697572215e-01 -4.412719587796301579e-01 4.753704488630875469e-01 6.469725965948618374e-01 1.771694629885309236e-01 3.225840250729131720e-01 2.758946911259751444e-01 -4.691493068924982301e-01 -6.465067319040862515e-01
2.918832800847881992e-01 -3.841540231730650734e-01 -4.182662217418972594e-01 -2.400904504761166847e-01 4.876910585203103610e-01 -6.345211394089322887e-02 2.180017131649111123e-02 5.351201435865908795e-01 2.706654128384298197e-01 -2.553217568854090347e-01
-7.331151765504406725e-02 2.999284369191873578e-01 -2.530968991069434404e-01 1.811401028256595103e-01 -5.145253756730558958e-01 -1.676701534223595247e-01 3.093643753786750605e-01 -2.768394732540776504e-01 6.717939923611938591e-01 4.546861396954782197e-01
-3.820988834596896616e-02 1.033111307186073691e-01 2.439916163029960949e-01 2.203933849801658906e-01 7.801992574941750413e-02 3.901770580325916171e-01 1.792920309757321529e-01 -1.018940188361470850e-01 9.735379278789470237e-02 2.803396495936300581e-01
