6.283991892583795646e-01 -7.928321056065876782e-01 -1.144906234217907409e-01 -6.189556547624590621e-01 3.215102170988350383e-01 -4.556560842787864551e-01 3.523946047023168715e-01 5.920630183057647988e-01 8.050178620920240835e-01 7.072165071287814797e-01
1.491109520471888827e-01 1.206417872577733447e-01 -3.865686075405708189e-01 4.044234029215405535e-01 3.951200664856940881e-01 -1.072904110371738218e-01 -2.523935460969416456e-01 -4.305031822905474037e-01 5.160259407243872332e-01 -2.687707953077415612e-01
2.782867562867706868e-01 4.414218528469092684e-01 -2.001506842156159857e-02 6.556328371290817136e-01 -5.669733424255088972e-01 -2.936805054403557880e-01 5.543820638521208544e-01 2.524620899638713722e-01 6.818101414615047595e-01 -2.658754727681557628e-01
1.687239852066674817e-01 -1.696079450785546172e-01 -3.879629697576716940e-02 -4.143049575541175172e-02 -1.373161519861876290e-01 -1.257236954066570933e-01 1.786925515241617191e-01 -1.443315501916057619e-01 1.302806857256459672e-01 -7.897502022394614629e-02
-4.246800872946146152e-03 -2.898751556403498554e-03 7.758733576515061681e-02 -7.193055394855213912e-03 8.101261623768106490e-02 2.041326052406175137e-02 1.414047572917086215e-02 6.794462949760543546e-02 6.513064017236962558e-03 4.076542670642694516e-02
-4.455953412357060994e-01 -7.467995095219941426e-01 -4.071588967896189876e-02 -7.938694609725850393e-01 7.015607230122147264e-01 -6.938427598080826320e-01 5.530765500300189874e-01 7.119846474196662722e-01 6.743509313830977625e-01 2.297241826965225886e-01
-4.700899572538030577e-03 1.708263718503868489e-01 6.823313932257885073e-02 8.000467417726395830e-03 -1.399498399903381998e-02 9.682887285811497130e-03 3.691613905706585264e-02 1.259102748329670070e-02 6.724312071043443695e-02 5.491962448415061565e-03
-5.348149218011148953e-01 6.801030804135164143e-01 8.237205515660095401e-02 6.852386933738391361e-01 2.255817904469292479e-01 -3.245045163920087239e-01 -3.837768537988318074e-01 3.201197731408686464e-01 -6.045899087862156573e-01 5.596384471576402175e-01
-6.964216431361992810e-02 5.906034015108339030e-01 5.498518863122755507e-01 -5.612189302352283971e-01 -2.794431079319505407e-01 3.687382642627118345e-01 -4.158298806660147839e-01 7.203440637918239187e-01 5.173677573139036090e-01 -1.895953636198308978e-01
9.797360023105126936e-03 -4.506033654265676792e-03 -8.304309831778960982e-03 2.240314536378733290e-02 9.158944133832223888e-02 4.984441391444352498e-02 1.475350304138047311e-02 4.484563920625116856e-02 2.563262571182163552e-02 1.069513686749540629e-02
-1.192735214409717040e-02 1.040971323082859057e-01 5.765249962052276106e-02 -5.946305260410014726e-02 2.098869208331736735e-01 1.686524921745564606e-02 -2.694761039396765395e-02 9.705225409776612432e-04 2.870164861655349203e-02 4.757281912079903280e-02
3.422661235496203269e-01 -3.188783011642043475e-01 5.953297874777668808e-01 1.864065855125490168e-01 -3.493798771437568035e-02 -2.090152680023995291e-01 5.402671587163822009e-01 5.067677734364762765e-01 -4.532649764673951642e-01 4.087019083636943551e-01
-4.216329257285234000e-01 -4.409875436889253847e-02 4.409272428414615641e-01 5.794807762576559274e-01 4.671518430126644361e-01 -4.568564012339659808e-01 2.075490180913049376e-01 -1.356674947228177774e-01 3.157969485661346609e-01 -1.274761941683240640e-01
4.146731149686050388e-01 2.016904907487897247e-01 -4.655046004795891923e-01 6.354641705042908262e-01 1.749447698566417575e-01 5.368724324854688007e-02 7.436279723684525722e-01 -1.598658081916226048e-01 4.121270306109186543e-01 2.880611927649587289e-01
3.104834082895759351e-01 -5.498542454766717213e-01 3.618796621236241018e-01 -2.360479849136053188e-01 2.915250124062405135e-01 -1.801214111712247656e-01 -4.542507092789601630e-01 -1.669433406667326092e-01 -2.012403175745327844e-01 -6.821082177932282775e-01
-2.014738358726922971e-05 2.171723418122021437e-02 4.829414594916944109e-02 1.504862549937584053e-02 3.725288786408940782e-03 4.835727887767667793e-02 3.863875385175894774e-03 2.473240655914410707e-03 2.225233080517197495e-02 3.583475531598568492e-02
-3.943760957239952347e-01 9.665023551170472127e-02 -5.324693053471172277e-01 -4.549720078305631299e-01 -1.353835530702848441e-02 1.921090359057697761e-01 -4.263106302066053954e-02 3.551899012241784281e-01 9.498538434722204882e-02 2.442229927057101291e-01
8.297674828560364091e-01 -5.337672783908462559e-01 -7.693720690448547783e-01 4.700892820523047688e-01 5.959972339810678532e-01 3.149311592678197269e-01 1.115673339145189374e-01 6.657051948720897894e-01 8.042207203676696725e-01 -4.411909314658790660e-01
1.354658397909900246e-03 4.158916955365285495e-02 -5.882472908859950333e-01 -4.764559892259920271e-01 -5.776027296060061156e-01 2.849505728274458471e-01 -3.636225274923539086e-01 6.711663647406880262e-01 6.697201376854615418e-02 1.281733645142991290e-02
-3.514750832061448033e-02 2.330552211693545928e-01 -1.327532651855142798e-01 6.004700876306012791e-02 1.858566495782408012e-01 -8.707718520372667581e-02 -1.936153912565541646e-01 1.316819989740311003e-01 1.370685978621886125e-01 4.881644650515612471e-02
-3.355919851792482211e-03 -5.374173207349834669e-02 -2.323045561318856089e-01 3.594035061463450864e-01 -4.024468292089012356e-01 -2.502401875257318289e-02 1.744305348473320638e-01 2.000619525526965981e-01 -3.017219791240666749e-01 1.701745571125191092e-01
2.733357833848060747e-01 -9.125306229629739918e-02 -2.162144160782736579e-01 3.989788130284170342e-01 2.623807322771203876e-01 1.631049262248547571e-01 2.058007706870304543e-01 -8.999412416598059905e-02 -1.242935327893732317e-01 -2.126226006405824154e-01
5.695022667586440573e-02 4.105605098486791449e-01 -1.938111129625594009e-01 1.686858711862543048e-01 2.501163098818219299e-01 1.279806734080842223e-01 1.002629137689613065e-01 -4.637276844687185373e-02 2.406446732904078123e-01 -6.916029330309061973e-02
5.222700480361012199e-01 1.115716133481352429e-01 8.166476338592827400e-01 -8.842782278170598920e-01 -3.956653235124318879e-01 8.720758594549000986e-02 7.580104167229096968e-01 -7.725675573717840638e-01 -2.093776174240506438e-01 -8.075155319798573705e-01
-6.267626968510406904e-01 1.824527073507071218e-01 1.296954275671954350e-02 -6.612331903246077003e-02 3.361548755126411714e-01 -1.328874291268336838e-01 -6.821055739292326558e-01 4.611237967434278495e-01 -6.513919065257373076e-01 -5.969534283554662757e-01
1.085773925206308735e-02 -2.827690722232553341e-02 -1.622834692785965829e-02 2.433165641989839534e-01 -4.834434904211175610e-01 4.132984287453304595e-01 -2.035066341146746505e-01 -2.466140256138741119e-02 2.159367313948629685e-01 -1.158504548774652171e-01
1.708102016145972291e-01 -6.254711511881931862e-01 -8.082459524937884998e-01 -8.181524217858536507e-02 -3.100979523394856718e-01 -7.991839805609673997e-01 -6.672130017507869049e-01 -7.253298883488977777e-01 8.636781059465434840e-01 -5.173713643921655780e-01
3.679118677781454405e-01 4.726990654811723536e-01 -4.056178574398701386e-02 -2.680975125639804002e-01 4.400465670684720609e-01 -2.751596892684057272e-01 5.124096838578519053e-01 3.510757503499445931e-01 1.542920986991593024e-01 1.384197621323050853e-01
-3.189139125707182165e-01 2.914791657528120750e-01 -3.585246454607428357e-02 3.163872311590726349e-02 -6.894343462288610169e-01 -2.362528241232058901e-01 3.316887907710300287e-01 -6.518488505194712790e-01 3.849252863426365634e-01 2.459587369929609681e-04
-1.713602644845966805e-01 4.740352771412522648e-01 6.117402246120817733e-01 -7.224188942362638755e-02 -2.098495760756876327e-01 -5.378550549035535644e-01 -2.582383266007423073e-01 -4.053910817506112263e-01 5.175868468212462270e-01 3.560885700147936039e-01
-3.801390440865740072e-01 -5.389402611585767389e-01 8.694456866700822628e-01 6.502259682007203168e-01 5.097580003218712408e-01 -1.409639187427769447e-01 -6.752148430066405860e-01 -8.340377822604037872e-02 -5.769304012920546398e-01 -6.631099706933519800e-01
-6.657620694491218905e-02 -1.098844902383680489e-01 -6.911377766979828197e-01 3.336261243082807582e-01 -3.806406529765668512e-01 -5.779029395617013565e-01 7.968077263185996406e-01 -1.522621972706556526e-01 -1.319010159003559113e-01 3.551963164317386012e-01
-1.490279232676458010e-01 6.062080326329274405e-01 -4.884453892092034955e-01 -6.683604478364274515e-01 2.552165355291223792e-01 1.323215676636615434e-01 -4.348963559461976186e-02 2.567319773930210602e-01 3.155268626439081681e-01 2.474423974571305085e-01
3.090395747952730532e-01 6.334994104755339306e-01 -2.221460029081606113e-01 3.524349115871047711e-01 -6.101387902375098315e-01 -5.778484122565283876e-01 1.094079660306474105e-01 1.922191595555556576e-01 -1.169422366001126729e-01 -4.400810639633120913e-01
-3.425789534602381725e-02 3.181484511892165301e-01 3.510030331492718925e-01 3.131876754412483144e-01 5.174020905717779950e-01 -2.782706381275000806e-01 -3.699770519153556814e-01 -5.298820404340647688e-02 -5.640884026156396391e-01 -6.190171111761771233e-02
-3.527427255735498535e-01 5.884726858158509932e-01 2.760103455894798996e-01 4.288312663594991414e-01 3.999292569880619763e-01 -4.518949544434427978e-01 3.557269962268209129e-01 -2.601100335956900156e-01 7.165014048159198401e-01 -4.218243478402094460e-01
1.068697844918498202e-01 3.732850173348577216e-02 3.633556685004488834e-02 9.484954630328891814e-03 -6.661228750080764802e-03 -1.038553346180987394e-02 7.403568264008929863e-04 1.791615590611198017e-01 -1.063495619376683687e-02 6.890121759008690887e-04
1.344425741917656958e-01 -2.437725178870731729e-02 -9.793453951513335712e-03 -1.640020493096182863e-01 -2.157513130927889988e-01 -1.320854649083643036e-02 -5.705295327568855879e-02 9.311373786057952628e-02 -1.125432848293454191e-01 -2.751901525640518820e-01
3.826888285375063536e-01 -5.489195827557815655e-01 -2.853878137073859733e-01 -7.031831414426700233e-01 -6.881056589135274570e-02 -6.939293449180803375e-01 -2.036041828998001457e-01 -6.342011937454841153e-01 -2.100980774067869733e-02 3.133774106789093961e-01
3.315353435122209147e-02 -7.475957251325575370e-02 -4.163516892768068592e-03 -1.888942135818556496e-03 1.708589449373617286e-01 -1.352133089418320775e-03 6.817131619276092791e-02 5.938524777078715844e-02 -1.913369734112791917e-02 6.406155745240529886e-02
1.122567209516262404e-01 2.473076701755940188e-01 -3.276609905864832917e-02 1.178453334000411495e-01 -4.134618187480121332e-02 1.598843559491204269e-01 -2.737597848421727265e-01 1.784969499291136075e-01 -4.486826611163893981e-03 7.265949633895860127e-02
-3.817964987567183943e-01 -4.019503693634511599e-02 5.792770403299195570e-01 -5.075549605566451877e-02 -2.527490137325698605e-01 7.107728574049110293e-01 -3.183655523561541578e-01 -5.166054797015354749e-01 -4.078414159959999341e-01 5.440745023172631756e-01
5.803777589560229488e-01 -7.569437996366228105e-02 -2.596664644544834921e-01 6.618643392129608394e-01 -2.619469551389390638e-01 2.617215082453519179e-02 -7.756153097190249257e-01 1.503465430120897728e-01 -5.355006830056624478e-01 7.418742394853284905e-01
2.451350389595534363e-01 1.671208613326432557e-01 1.136145197698573694e-02 1.141312549801162535e-01 -7.087194751838164775e-02 7.846008889226706307e-02 4.467515524948644651e-02 5.043868841975687745e-02 1.134037554040958351e-01 1.364154434658135240e-01
-5.198111830356528795e-01 -8.462895755339479020e-01 1.551240833615570858e-01 6.036040957102629667e-01 -2.752998307398145106e-01 5.896747796735593017e-01 -8.403434191158583033e-01 -6.965830043629640811e-02 -6.876773034036063326e-01 6.391876415397038658e-01
3.727622685468180794e-03 9.192908596336830246e-03 2.777682868077841621e-02 -2.401049062482631113e-02 3.927274523798437306e-02 3.971660213461407352e-02 -4.057460540879737065e-02 3.947253476186873833e-02 -5.536316724687756485e-02 -3.390324107597287445e-02
1.994063494444529294e-01 -2.352905650467353449e-01 -4.376430212927280294e-01 -2.987113832188272311e-01 4.341929203808730930e-01 3.655553095893164794e-01 -2.081234306816593660e-01 -5.314578969364284200e-01 -5.167034502461982370e-01 4.905361302819645219e-01
2.776386143354798719e-01 -5.072478578142093353e-01 -2.067260682843253747e-02 -3.376794196279934157e-01 9.774264668944782075e-02 -2.913161388563616505e-01 -3.917708742875382066e-01 -6.279025388217064629e-02 9.314419298869806504e-03 1.774305531699409688e-01
-1.093290715189466494e-01 -2.807214551795813584e-01 -7.617995073254452132e-02 6.784668286034169216e-02 1.771075266701219175e-01 2.109403006363199107e-01 2.309409138824076724e-01 1.910185560705211782e-01 1.196425277158494754e-01 8.205393910196441543e-02
-8.560117284589171538e-01 4.488326629669984191e-01 8.845546001516882417e-02 7.399102178568197630e-01 -2.688793404657417452e-01 -3.178982883180383467e-01 -1.515049121733997861e-01 7.620131717414573291e-01 -5.125790940091787956e-02 1.401554142294605676e-01
-2.418093239066554934e-01 8.392601911808869608e-02 5.651517476294549702e-01 -4.028063776795341999e-01 1.992584235957545746e-01 8.062268232533635892e-01 1.950776087312990070e-01 -7.677766748609561424e-03 3.365663057515886902e-01 -4.146519457823398813e-01
-3.565594027715169841e-04 1.200494516955451230e-01 -4.468210079646327965e-02 -1.093224999469926406e-01 1.353692303259363960e-01 -1.629514703276569443e-01 6.535922191487121558e-02 1.795868473674419943e-02 -3.461959212397808672e-03 -1.126786531657438528e-01
6.905476314223366052e-02 1.053498592094224799e-02 1.868168903145140947e-01 -1.770390301674034522e-02 -2.748872953623721777e-02 -4.280796485664676437e-02 -1.892028308810156075e-03 2.965681229859046947e-02 -1.178081696658303534e-01 2.670137811317649726e-02
-2.852985300012486070e-01 7.636889685059125021e-01 9.145377709578044190e-01 -6.204770647270938522e-01 -1.044097379575995022e-01 -2.506028106829225610e-01 -3.172379572535605763e-01 -2.259479650863485678e-01 6.802773296953625870e-01 -3.988217769437903959e-01
-3.381735732034087394e-01 -4.366328589307365560e-01 -4.447637728911196242e-01 2.741975390217394337e-01 -2.327326433942354944e-01 7.276351606509244840e-01 -2.086811455224227285e-01 -5.144503561793011270e-01 7.501048647617918064e-02 4.383598505693074299e-01
-5.075783374707087958e-01 4.419414734786146215e-01 5.393884562802060412e-01 -3.210138418474284272e-01 -1.558257351346759856e-01 3.177769376951574687e-01 -3.198799118433610644e-01 2.311940751924177473e-01 -5.809814178396646156e-01 -7.119156510493851453e-01
-2.342345657130544545e-01 -4.526558829133173756e-01 -6.239270123434813575e-01 -3.856074203293293756e-01 3.787017089631104505e-01 -5.360454490964990937e-01 4.737303217658184878e-02 -3.167337651694502321e-01 -3.662973387474821041e-01 1.462417081869673563e-01
8.773713210321169853e-02 -4.139480865214693883e-02 -2.360637143426856377e-01 1.653528430049035214e-01 2.973028975339176566e-02 -9.302950876300566940e-02 6.550029912222536665e-02 4.645925279749422813e-03 9.456421786614870040e-02 -2.161597021955714293e-01
-2.564221352163460477e-01 1.627710880293423701e-01 1.968303767524239023e-01 -1.453474436239886591e-01 -5.746309575491681532e-01 5.623802409726598173e-01 -1.241564254698446224e-01 4.375846124110284174e-01 -1.762870449731404054e-01 -5.482871832771717413e-01
7.644424960665058277e-02 3.033056247605449979e-02 1.756484239314462167e-02 6.855404297251263546e-02 1.066585929152338158e-01 -3.440254419470528419e-03 1.319156035510333537e-02 1.440623293991518186e-02 -3.394553236098499932e-03 5.702608456066842781e-03
-5.656180783721502792e-01 -2.821692713094681726e-01 -4.565280682339926677e-01 6.323930607306886831e-01 -4.835212563988280365e-01 6.924146133853674723e-01 -3.441359402752899310e-01 -4.576416309844796304e-01 4.823489983026201244e-01 5.611575362844096748e-01
-5.398497112090171468e-01 -7.969457820833426853e-02 3.621555301218072342e-01 -4.025828855176044954e-03 8.202590404334786367e-01 -2.675033458784638052e-01 -2.276587095715297548e-01 5.788409410847223935e-01 -2.556526356730375316e-01 4.228063077310247886e-01
-5.725911490878848181e-02 -3.419366974091343769e-02 4.156913766871501298e-02 5.468514530041410082e-02 5.758642646334279080e-03 3.978387015026872003e-02 3.143884051647494876e-02 -1.126932556667904761e-02 6.104527817491474037e-03 1.170254455813612288e-01
-9.817958889073288842e-02 2.388843745029216592e-01 -1.797743273708404463e-02 7.439234492986843139e-02 1.712075462952488414e-01 4.443235740554648400e-02 -1.471862170226846955e-01 -1.391208855914046749e-01 -4.896202619163353420e-02 -7.469773668678905687e-02
1.327954142432787379e-02 -7.217217581065570042e-02 1.714974017554935296e-02 -1.692686116977405730e-01 9.511516091034705189e-02 7.329740545786342376e-02 -8.414577868417776052e-02 -2.405675600740262432e-01 -2.749310124924173038e-01 -5.422359677525545596e-01
5.193031368623881594e-01 -1.071268404036428701e-01 -5.275036165511058917e-01 -5.614445726571587469e-01 1.237955461201784430e-01 8.658222208787336172e-02 -5.140786743512052448e-01 -6.774266042648899311e-02 -6.209571323679621280e-01 5.118264128298902760e-01
4.614865517658686134e-01 -6.364400119831428171e-01 3.784014469430971306e-01 5.747712848084893800e-01 6.294617995316155179e-01 -3.051107883138307608e-01 4.009871639368901564e-01 1.713743611629569563e-01 -1.261270999883765467e-02 4.825978233190151290e-01
4.203803359483912483e-01 -4.469582511319168949e-01 -3.812451723385639757e-01 1.666044118002127095e-01 -1.395254926544899632e-01 -4.139165216263406277e-01 5.040488484491810750e-01 4.233014168506412100e-01 -1.276576841107526783e-01 1.121967818985365600e-01
2.124992883003910815e-01 7.906411686053337329e-01 5.095431851461548201e-01 6.024782291672815537e-01 7.222846662909161441e-01 -8.031446608689575273e-01 1.674355147767690732e-01 7.929160106927864993e-01 3.089622832551360276e-01 -8.702837645523670007e-01
2.788237584562106575e-01 -1.152594283950241494e-01 5.437938820400690237e-02 1.355297454870686424e-01 -2.039900304505262996e-01 3.629962301321308926e-01 -3.292666962847958650e-02 2.359243103450800461e-01 1.416094514674068050e-01 3.458755150723710203e-01
4.324666887380285707e-01 -5.401908104840283942e-01 5.566049159312932426e-01 -3.537170733988115878e-01 -1.761905964785659695e-01 -1.593773293841121708e-01 5.545962322989147486e-01 -4.461755173705487243e-01 3.267735052380760785e-01 -2.331194016898371357e-01
6.766387347234890104e-01 -2.550036001543870556e-01 -7.074584532560286299e-01 8.932583712407800025e-01 8.626010642852723065e-02 9.341072077569158028e-01 6.929450204352914922e-01 -2.708447988666320971e-01 -9.290677505436950590e-02 7.890342439403916774e-01
-2.179306928092415441e-01 6.806691180069318094e-03 6.141183334078918060e-02 -5.225470683724575682e-01 -4.277403967933976481e-01 -2.355263670044589475e-01 2.185669900784763808e-01 -4.073241973914692449e-01 -2.965943371697989384e-01 1.435741131411424343e-01
2.845869491150765460e-03 4.666031880796139841e-02 1.230115168982411772e-02 7.363845786838177365e-02 2.354664900059001958e-03 7.647886509448190151e-02 -4.365387413967433146e-05 4.547587964139600258e-02 7.589591595074177133e-03 2.262949640524885078e-02
-1.264374807279500801e-01 -6.032620274104905089e-01 2.759396222224395623e-01 3.317556622368359603e-02 4.914839114247467888e-01 -4.559592222913243509e-01 2.465443420001464103e-01 -3.979980224549060641e-01 7.147881605627589563e-01 4.420011071269134839e-01
-4.829803299814098283e-01 6.728742000545716584e-01 -1.037572997618643189e-01 -1.631729341103158037e-01 4.561995993910418767e-01 5.138997421593038961e-01 2.682950857503819120e-01 4.599494977220908720e-01 -4.633863417753417147e-01 -3.979238207156146068e-01
-6.599135050815872761e-02 -4.168647236573587711e-01 5.571008723375087818e-02 -5.762498351223552251e-02 1.567899981160676692e-01 1.748262917697817609e-01 1.134929313095120879e-01 4.113854882704691684e-01 -2.748666657886301712e-01 3.265292046785155389e-01
-6.774130918235480303e-01 3.952289443525845436e-01 4.481595278492658263e-01 7.199582128615124033e-01 1.306663189437320960e-01 5.890406768893963196e-01 -1.913516499327242437e-01 -8.483848260682418096e-02 7.054361666218756932e-01 9.196610952978633013e-02
-1.490555433004721597e-01 6.239323085501038424e-01 -5.614487577023923315e-01 1.915197766583809080e-01 3.063311614029270991e-01 4.253706426379108563e-01 4.000217626675162674e-01 1.155070645547287833e-01 -4.286114670594533965e-02 -1.581142084261648317e-01
1.224257998829575596e-02 -4.926623984339466474e-03 2.771111438335498167e-02 5.519428936688500903e-02 6.581008932182812188e-02 2.680937369819185248e-02 7.332770745814272927e-03 8.626791762186959700e-02 3.764720575407450726e-02 4.605582347522896303e-02
-4.907708876399566877e-01 5.991480085455085369e-01 -4.900834209328930879e-01 -5.599903687119323938e-03 5.722966785609131524e-01 -7.475721054297391754e-01 -7.993165360825547072e-01 2.622395416962161052e-01 -3.389285918280900423e-01 -7.029590838304823341e-01
-2.128083416264160976e-01 -1.608088404624730683e-01 8.071041275196530473e-02 1.388953627138677371e-01 1.419810188960594632e-01 -4.147236982094673619e-01 1.110691020687084585e-01 5.746620140417362244e-01 2.062480148291958582e-01 -8.254507161521285052e-02
-5.440229930915738699e-01 1.969265206876656404e-01 -8.101582039775696575e-01 -3.332566650378079309e-01 -6.752954446972129210e-01 7.864631439407386571e-02 -8.325063864043699136e-01 -5.071734585041668408e-01 7.999550695548942603e-01 6.873026934713168945e-01
5.196375308858006137e-02 2.938868406773178718e-02 8.067780682379543933e-02 -4.576303106799547993e-02 1.437823274483950899e-02 1.914149006095982805e-02 3.666768682336483259e-02 3.147418757559913849e-02 -4.087014069228627963e-03 1.241331264128543027e-02
7.517566834635967810e-02 -2.053184086373975314e-01 2.920958409540482248e-01 4.342934739788758547e-01 -4.835404451799907299e-01 1.851207006051839576e-01 2.258139977468089366e-01 3.678817306236085299e-02 -4.951219451591134524e-01 -5.560313241332142109e-01
2.169380151612210483e-01 -1.179940051155797809e-01 2.187838208937589457e-01 -2.787133643583209267e-02 -1.954140186785143229e-01 -2.262502581509712174e-01 2.263718199018490140e-01 -2.487933741119762177e-01 -1.132308708733773123e-01 2.877396627922184091e-01
6.965933041735228315e-01 -4.801284157197910907e-01 4.768226145020324491e-01 8.245663563785400330e-01 6.134403577355153070e-01 -3.285685676768636959e-02 5.271100421583361229e-01 6.937023394298131862e-01 5.925106696611338597e-01 1.054232960020082682e-01
9.635886202053038641e-02 1.152446966018201152e-01 4.722236620085522030e-01 -1.433659474943478895e-01 1.863294466769231938e-01 -1.968652601309167083e-01 8.844143828547482156e-02 2.650072051272255313e-01 -3.722252437179637274e-01 -3.560290458266071600e-01
-3.568884844107497734e-01 1.337324439855004932e-01 3.852092160203988147e-01 -5.816115852787325791e-01 5.703663601313339049e-01 -1.210492342943676886e-01 7.210911281948868545e-01 -5.607944742506197899e-01 7.488394715779995992e-02 -4.131687113685261065e-02
1.569740648833213847e-01 -2.171740933560359910e-01 -4.141994367196631388e-01 1.432280945371988343e-02 5.160693696006569270e-02 2.223523900615874058e-02 3.781037797583192694e-01 3.835582309978275983e-01 -2.871183365723586206e-02 -4.892087982644213184e-01
3.045659763987269009e-01 -6.141791105107967663e-01 -4.699881855306102252e-01 3.027543991119681713e-02 1.542709837299116593e-01 2.916813110284124932e-01 -2.634068280543591656e-01 1.999985254745742791e-01 -2.641915418386716619e-01 -4.028655703473901784e-01
-3.666220532275117627e-02 3.767060259990042681e-01 3.174412611397967598e-01 1.815011310032319247e-01 -5.227598366865082030e-02 2.234322984067826923e-01 -3.226579476533048552e-01 1.836443473856791131e-01 -5.969403473879675813e-04 -4.149839775552017218e-01
2.503085917162768959e-01 -1.880920565710786641e-01 -1.566931427318352110e-01 4.518884538316545463e-01 3.868844799442569538e-01 4.679277541287239495e-01 6.914333954477429600e-01 -9.425967253926287315e-02 -2.903713313474502455e-01 3.419911277850639642e-01
-5.102495209603163939e-01 -2.130250910131994413e-01 -5.524549708373312218e-02 -7.403824223198915769e-03 2.652065990096186265e-01 -2.347493145973389428e-01 4.711076550343746075e-03 -1.832527629613260045e-01 -2.863495658650708209e-01 2.385387593241390103e-01
-1.551960955174134793e-01 -6.778056059855880333e-02 -2.317246912160191019e-01 2.204865002399092611e-01 1.680845770985518739e-01 2.706126997355494113e-01 -8.106785322830634133e-02 5.675509700528849621e-02 -5.965904605332828740e-04 -3.662087510531076423e-02
2.121376926644357175e-01 2.411252639477655946e-01 1.721129322548351770e-01 -2.142392491157891210e-01 -3.643773451010063336e-01 -2.422963158991544852e-01 2.354505227294396708e-01 -3.115622273486072791e-01 3.503234601150126415e-01 6.490394074883616693e-02
-1.977607605532826288e-05 5.348331179425297455e-01 -4.410922018466352235e-01 4.749782363635442484e-01 6.462006591915863130e-01 1.769005528006135641e-01 3.234189764958310120e-01 2.757531295175349451e-01 -4.688996073496986550e-01 -6.461608194167439700e-01
2.811599874589257309e-01 -3.702497801416705370e-01 -3.906465154754744651e-01 -2.320167312182133124e-01 4.696756026543288942e-01 -4.592952614652698329e-02 2.086247798478710683e-02 5.160421250211395527e-01 2.612075221645894785e-01 -2.433254419627596810e-01
-6.714253823410616662e-02 2.965244436579664300e-01 -2.509757695826486668e-01 1.817304144513801623e-01 -5.120607251261117820e-01 -1.679864161746310591e-01 3.093890454939665635e-01 -2.792880965105179469e-01 6.671953214882048178e-01 4.499023062202943679e-01
-1.358437452587215113e-02 9.430647381567092147e-02 2.143206909170944918e-01 2.066931149315246463e-01 8.706625811207338583e-02 3.584789699929527007e-01 1.695838995990297526e-01 -1.082263698736159463e-01 8.722522697469486941e-02 2.562302234211513152e-01
