6.280907441992448215e-01 -7.902155267274811878e-01 -1.143005915314806720e-01 -6.186422418465309381e-01 3.207932117584004761e-01 -4.559627822380875051e-01 3.530604611620954958e-01 5.918222188301009989e-01 8.055584842744900609e-01 7.069216909399853588e-01
1.488606143026199868e-01 1.206531814172896039e-01 -3.852739958133400422e-01 4.050843407756440917e-01 3.947160362495740205e-01 -1.067367962121361785e-01 -2.524418535848032552e-01 -4.291966640818137280e-01 5.158128732840219222e-01 -2.689542093742546269e-01
2.778208561597567128e-01 4.412655824091081258e-01 -2.006242839207262804e-02 6.552742789164212045e-01 -5.665984098381218192e-01 -2.938006730932024024e-01 5.537812870054074077e-01 2.539538909568100356e-01 6.821972128605670038e-01 -2.664944559422146586e-01
1.847883053278231158e-01 -1.374522157569407488e-01 -1.650368398958572055e-02 -2.549313590379364072e-02 -1.126646660781839698e-01 -6.875473785801004822e-02 1.316001398357216634e-01 -1.067129680195410685e-01 9.454136070941734915e-02 -5.898753930153230463e-02
-7.466830133335161310e-03 -1.749431976283964121e-03 8.936850215811820153e-02 -5.485070968762971629e-03 7.020183570957919117e-02 2.595165687016910347e-02 8.762376926634268121e-03 5.249866151001909842e-02 1.414011255440275443e-02 4.411795778006128571e-02
-4.455945641321998885e-01 -7.466938408011565276e-01 -4.072433056843539206e-02 -7.939515291366729954e-01 7.014799127439821369e-01 -6.939331501724687046e-01 5.530533328723483688e-01 7.124053546013036087e-01 6.743023952506019825e-01 2.296946991602817623e-01
-4.683915707589168982e-03 1.662968829255722925e-01 1.032459045307078105e-01 1.713985343539658340e-02 -1.352128867260200470e-02 5.382018857767611845e-03 3.358637180570547831e-02 1.708789171938638815e-02 8.367131052809420599e-02 7.259015778820133123e-03
-5.348065859851224291e-01 6.800683444201368610e-01 8.299238361642036210e-02 6.851872997616560435e-01 2.255213522852391461e-01 -3.245036675127364600e-01 -3.837646427509557312e-01 3.200879788730779385e-01 -6.045719373950999564e-01 5.596083418658400754e-01
-6.946018890617881858e-02 5.905382586091142416e-01 5.495374680926745636e-01 -5.615495615346629554e-01 -2.802402996003929836e-01 3.668579011561707848e-01 -4.122868298006239218e-01 7.199448565616632933e-01 5.175235083882333553e-01 -1.893604838127439793e-01
8.272658330250764677e-03 -3.465767553234412406e-05 -1.085224682138364455e-02 3.574285848475643179e-02 1.208989533538326056e-01 6.981118358433695270e-02 1.403016291814859241e-02 4.110614707477584784e-02 4.038610150057821840e-02 7.189235075172775540e-03
4.056896478469642644e-04 1.241189032452853502e-01 4.205611576956645725e-02 -2.916803658533668325e-02 1.818721235876221420e-01 3.283589756422902045e-02 -2.137471171751656809e-02 1.194000732923199658e-02 2.511579246069976790e-02 3.823761682429874242e-02
3.422647180832877334e-01 -3.188769917365815720e-01 5.955235130156829593e-01 1.864058200608665616e-01 -3.493784424658238907e-02 -2.090144097114324251e-01 5.402649401874363155e-01 5.067656924679111441e-01 -4.532631152003273600e-01 4.087002300884204908e-01
-4.213299549849522929e-01 -4.422702356064872609e-02 4.404544553200885337e-01 5.789293261537373780e-01 4.677858105439924308e-01 -4.542799565260809413e-01 2.075139114631536497e-01 -1.357940923420792589e-01 3.156885427558790980e-01 -1.272703339645965548e-01
4.146693757755096077e-01 2.026001911799675814e-01 -4.651120834896688150e-01 6.348527540324212515e-01 1.741647392034681718e-01 5.276368764947186180e-02 7.445634147150167470e-01 -1.599191780964104304e-01 4.120439200533388968e-01 2.897432918015694359e-01
3.111132290002309175e-01 -5.498500083549356932e-01 3.647089758801325132e-01 -2.360039829887513041e-01 2.926324964260524353e-01 -1.800745540784678411e-01 -4.542350182270242231e-01 -1.672266946091122419e-01 -2.017228507716087027e-01 -6.815414225327842690e-01
-4.362253175292378667e-03 1.478314908502817437e-02 6.130828763835438622e-02 2.028452687115057246e-02 1.892501842303895981e-02 4.871626603884737089e-02 3.126467859650549058e-03 1.601684505483008886e-03 2.620536226002330785e-02 4.823607243651682752e-02
-3.731892926774578179e-01 9.313208105807008197e-02 -5.155003559175922456e-01 -4.387135060240374140e-01 -1.504605657306603596e-02 1.830004733375558412e-01 -4.661089317864995640e-02 3.495363420279319344e-01 8.906418622240544480e-02 2.423326245450266592e-01
8.297674728414160539e-01 -5.337672719487082107e-01 -7.693720597591579002e-01 4.700892763787083983e-01 5.960075265616948670e-01 3.149311554668560720e-01 1.115673325679917283e-01 6.657051868375678527e-01 8.042207106613780132e-01 -4.411909261410625338e-01
1.312228487611895875e-03 4.143368544059226888e-02 -5.874782247290438741e-01 -4.763348836379682205e-01 -5.774669958487834709e-01 2.848091630639452143e-01 -3.635208354536098585e-01 6.727612351263673185e-01 6.687916630620240055e-02 1.283372342798214452e-02
-2.775822738129633122e-02 2.149018829836024103e-01 -1.243483867990160668e-01 6.004275877252043120e-02 1.873134724697003983e-01 -8.232230768781528818e-02 -1.728901939951801303e-01 1.107818639027192409e-01 1.253648718888439317e-01 6.351139478925914295e-02
-8.081050055591322556e-03 -5.482402584340959062e-02 -2.282499475185158500e-01 3.517575455656324346e-01 -3.936584570008861417e-01 -2.684044910605088569e-02 1.661115837454862076e-01 2.147156498046465800e-01 -2.925680315014003718e-01 1.599344551214686716e-01
2.697733046834338011e-01 -8.996527220417566140e-02 -1.947596219410295815e-01 3.943831913497259922e-01 2.570377625428757473e-01 1.602879379495859014e-01 2.009211295428753596e-01 -9.063235075380063344e-02 -1.222624298227696776e-01 -2.123591649689348382e-01
5.423111977055225519e-02 3.962524079547709577e-01 -1.725526741451785528e-01 1.629760353265487516e-01 2.416277374048237392e-01 1.235571128718066375e-01 9.693623219273563019e-02 -2.903077823136586758e-02 2.326530824313074453e-01 -6.688553024321523821e-02
5.222513313715302363e-01 1.115932211981829347e-01 8.166425097296412527e-01 -8.842732244518101137e-01 -3.957027722204408127e-01 8.720079158567653477e-02 7.579916010039887686e-01 -7.725807926649853608e-01 -2.090371649271818011e-01 -8.073453208047062235e-01
-6.267101944287615245e-01 1.823411260272602696e-01 1.324910215914631290e-02 -6.645661632089204518e-02 3.358472024036465164e-01 -1.310782508677006408e-01 -6.815056607089264862e-01 4.604699121793634498e-01 -6.511329678195361126e-01 -5.960838556302840985e-01
1.067839656507774647e-02 -1.494564930431582436e-02 -1.693310765235572085e-02 2.395317647514600967e-01 -4.782606026227494422e-01 4.062330689089416191e-01 -2.009495717234308088e-01 -2.469805876410550646e-02 2.125172023743637506e-01 -1.153281935790168855e-01
1.707619377478266920e-01 -6.254322171213015924e-01 -8.068911149500180846e-01 -8.185296858401978903e-02 -3.100904302620561270e-01 -7.992042618245267516e-01 -6.671291310826820142e-01 -7.252693429910116452e-01 8.635232106923702577e-01 -5.174228001315053227e-01
3.677413932664709284e-01 4.725332425235691525e-01 -4.058064158295090346e-02 -2.679992635474569007e-01 4.402814832570808856e-01 -2.729145022125357145e-01 5.120655356528616142e-01 3.508191823016031941e-01 1.541417140667230568e-01 1.383254230119157213e-01
-3.188105840578663863e-01 2.929047288202384358e-01 -3.617502218613746073e-02 3.167894492741877427e-02 -6.890592701277783449e-01 -2.332810632997855682e-01 3.331278235718501124e-01 -6.512441101981827352e-01 3.843385466314391263e-01 -8.338540210995309791e-05
-1.695134386065982324e-01 4.720360496453281374e-01 6.103873229630722985e-01 -7.470478006543662675e-02 -2.006764499416625880e-01 -5.376687380511416814e-01 -2.575322290218152177e-01 -4.007095885770066701e-01 5.152264978205434165e-01 3.529301989195229305e-01
-3.802534675145666787e-01 -5.358319905248749571e-01 8.693409414284039016e-01 6.504880439522692237e-01 5.089455858168243640e-01 -1.410581026983547259e-01 -6.744922905277765945e-01 -8.368106295708989395e-02 -5.759590439899867631e-01 -6.630707521252618974e-01
-6.688737548334622307e-02 -1.097195424771393590e-01 -6.901510074171356424e-01 3.332295819088353928e-01 -3.807863038541599021e-01 -5.746299683180160489e-01 7.953411398194495385e-01 -1.531153926380827146e-01 -1.317455912618436531e-01 3.564409633454471704e-01
-1.495030394694210618e-01 6.054784999599935880e-01 -4.883424023584011509e-01 -6.681475423905389732e-01 2.551717708182693611e-01 1.321684810958398126e-01 -4.446086027254139705e-02 2.611864625456081224e-01 3.158589321430729790e-01 2.460015276227051906e-01
3.088176837749651016e-01 6.332098269814440128e-01 -2.220458017725195354e-01 3.518831008227176760e-01 -6.070062881926470144e-01 -5.775164703026843815e-01 1.102822605114677779e-01 1.915430832301269759e-01 -1.172233924784328168e-01 -4.397611377275744138e-01
-3.443072246271092901e-02 3.203650642827560180e-01 3.503798512087158423e-01 3.130346070730470331e-01 5.172241866293417756e-01 -2.777523379745979737e-01 -3.695543413403726829e-01 -5.278168647121835727e-02 -5.640597722447439066e-01 -6.219588603364210183e-02
-3.547848885648247630e-01 5.870787164525030910e-01 2.764424756448984888e-01 4.278280837886936916e-01 3.974064665920343242e-01 -4.545851798319489045e-01 3.548141310170105367e-01 -2.548948240218379402e-01 7.146253627302140421e-01 -4.211370650161092577e-01
9.861685556729450630e-02 5.331739759102201159e-02 2.569134448624529887e-02 1.214447858994720415e-02 -8.963160349887077175e-03 -1.999992586097759303e-02 -2.242663673659677729e-03 2.370806677804621343e-01 -1.238046992186169794e-02 -1.284760841669108349e-03
1.043588722266493435e-01 -3.159304954281692140e-02 -9.018198657318433897e-03 -1.339635373401115714e-01 -1.557452723750872570e-01 -1.179789978842683482e-02 -3.805013708875171902e-02 5.757111307333461631e-02 -9.777963047139276442e-02 -2.304407385636493832e-01
3.822623440978220044e-01 -5.487907293490763561e-01 -2.849293952260686935e-01 -7.028542430239412830e-01 -6.905735879855308401e-02 -6.907445200754293024e-01 -2.042228078200077901e-01 -6.345067410614337877e-01 -2.117784113057506051e-02 3.155537378547835226e-01
3.806105280552227188e-02 -6.068524921344971984e-02 -9.199014986743549865e-03 6.706368477837066668e-03 1.911482143382888244e-01 -1.413949787699950167e-02 6.602998756903022404e-02 4.386084782931570086e-02 -5.878219313212389684e-03 5.063777425046931541e-02
1.153336234269376204e-01 2.442165247210271728e-01 -2.830593458335300960e-02 1.319013680973631919e-01 -3.915728638458141481e-02 1.444329389515310591e-01 -2.524847387827152123e-01 1.686021315256021613e-01 -7.225861349012408473e-03 7.118056691983172535e-02
-3.778829516059186711e-01 -4.043277708990532932e-02 5.790559045373352420e-01 -5.142557935296977051e-02 -2.524453190606891773e-01 7.092507814537262201e-01 -3.176155676090073876e-01 -5.151802166532410965e-01 -4.078429768074475215e-01 5.452470466112593339e-01
5.803687886395181295e-01 -7.528571126248767564e-02 -2.596632016649174646e-01 6.618539660775684119e-01 -2.619427373485171961e-01 2.617165096837930152e-02 -7.756036598573220475e-01 1.503440571317521401e-01 -5.354930824020505131e-01 7.418626399913215153e-01
2.335451178245877835e-01 1.578865396986892655e-01 1.416219768605817692e-02 1.093249803756477789e-01 -6.620838015815963540e-02 1.087153488128567297e-01 4.951769507147002480e-02 4.531845977317287139e-02 1.060300029945828448e-01 1.276399571650023712e-01
-5.198726275505192174e-01 -8.461743482841923569e-01 1.561240880927149410e-01 6.036471738415941646e-01 -2.753976476590490607e-01 5.896228724818501910e-01 -8.403216397577586427e-01 -6.979414943756045986e-02 -6.876885053497233669e-01 6.391870348331282203e-01
9.515914178412522920e-03 -7.102670223382072335e-04 1.195215688722326038e-02 -1.566853388776663636e-02 8.108513769889155731e-02 8.325057831687332488e-02 -1.200123286155012434e-03 3.885853482078146376e-02 -3.495401880504156455e-02 -1.385320641468396063e-02
1.978075139770008595e-01 -2.349807434583548460e-01 -4.369725527282742883e-01 -2.994904942525932201e-01 4.348296622202357797e-01 3.662425592045825962e-01 -2.099377845136169984e-01 -5.257974821260440468e-01 -5.145507099650400429e-01 4.881128072444431143e-01
2.755656993542416333e-01 -5.033270004214707161e-01 -2.064298026261895264e-02 -3.350086814323432471e-01 9.806157034658702365e-02 -2.888328584385660980e-01 -3.787840572956537311e-01 -6.183391483716690201e-02 8.997213454861608881e-03 1.758754890449877317e-01
-1.039028519821732777e-01 -2.671539985475399059e-01 -7.390096823029529416e-02 6.327280748075449213e-02 1.955978602649517395e-01 2.002904865427987402e-01 2.182263596841776399e-01 1.802516143361097556e-01 1.121299325387148244e-01 9.727095145709216406e-02
-8.559810858108133358e-01 4.488710395103641670e-01 8.837073269300835254e-02 7.403762769082699036e-01 -2.688912705895604716e-01 -3.179595807854638245e-01 -1.515052734996860662e-01 7.619814684053769493e-01 -5.128059319838942920e-02 1.400922877641783415e-01
-2.409989997517950622e-01 8.390286459644996642e-02 5.650971701749489817e-01 -4.027683297126570805e-01 1.992164178815121756e-01 8.061629282599143131e-01 1.950642951540944858e-01 -7.680554256834398394e-03 3.365380046173384043e-01 -4.146346640869374989e-01
1.265655869783520113e-02 1.055248727652208646e-01 -1.600499040957339969e-02 -7.574877920178520185e-02 8.910709362735499961e-02 -1.429278621017250062e-01 1.132651704789279651e-01 7.069371109713409006e-03 -2.195205810067372108e-03 -8.655091200867034984e-02
5.425667572733731958e-02 2.806294275510969397e-02 2.101745142043552894e-01 -1.644074220852918475e-02 -1.951577822811114554e-02 -3.868877616776100065e-02 1.309283819237641588e-02 3.162824461893028183e-02 -9.550332239513784072e-02 1.604683320231908156e-02
-2.851405041488394576e-01 7.615673181585550511e-01 9.132070620085370738e-01 -6.192551116015868606e-01 -1.048516772418602583e-01 -2.430245058092718180e-01 -3.181125499998660455e-01 -2.269639418401206421e-01 6.783400038848468316e-01 -3.955573895623411551e-01
-3.370074262301300805e-01 -4.367293305400989367e-01 -4.451289127741406282e-01 2.738455500852137736e-01 -2.332523205963980550e-01 7.294947438222527669e-01 -2.078540273200182031e-01 -5.147624728320661092e-01 7.478646591703792812e-02 4.375093958242682324e-01
-5.075721605237525358e-01 4.419315389089712998e-01 5.393636398858916436e-01 -3.210484040092932978e-01 -1.553937354738170740e-01 3.177073280976769332e-01 -3.198857967742290143e-01 2.311250045472084957e-01 -5.810049523583876718e-01 -7.117221810199312326e-01
-2.340445922682988233e-01 -4.525246363753003265e-01 -6.236897654562232329e-01 -3.819246672086193395e-01 3.781463593243680199e-01 -5.358415977373532924e-01 4.709782780138296876e-02 -3.165597327911164327e-01 -3.662228708349315465e-01 1.457025952605812691e-01
1.104892949719197132e-01 -3.924908732061695854e-02 -2.259007031913308483e-01 1.546465102037892503e-01 3.482958408704341785e-02 -9.326382972269856020e-02 6.544684199225163368e-02 1.801028042110896718e-02 8.746808474153580648e-02 -2.030297469839781876e-01
-2.522241799938473861e-01 1.637056266854826081e-01 1.982959994101413936e-01 -1.455989099690847277e-01 -5.748120955016586819e-01 5.597808067725094094e-01 -1.202156834238623934e-01 4.357978657040151305e-01 -1.757479401287769250e-01 -5.461244649248621075e-01
6.709008507977548552e-02 2.863749602503514596e-02 1.406643429692111362e-02 5.134915688792053567e-02 1.119444710096119816e-01 -1.959735209841403231e-02 -1.369306499942360986e-03 3.143846193664919658e-02 6.262507095355129665e-03 3.126220036945893694e-03
-5.652008789470718275e-01 -2.821560459612329486e-01 -4.559521680312003666e-01 6.325239897875905015e-01 -4.842429792378257769e-01 6.899538204814797959e-01 -3.439394103530035163e-01 -4.538025090697879738e-01 4.820593472984133210e-01 5.617544669501178811e-01
-5.399113955105805385e-01 -7.971692774821328986e-02 3.621228316886828114e-01 -4.025682940111146094e-03 8.202561573791317118e-01 -2.675281765311454119e-01 -2.277250603224660885e-01 5.789975284789027343e-01 -2.556253811750043847e-01 4.227247053156690249e-01
-3.283947089685903403e-02 -2.222050004767759171e-02 3.028194346152856056e-02 6.170481244060947029e-02 1.871305692477998397e-02 8.065327142653884451e-02 1.907357840052218215e-02 -1.521121336847160339e-02 8.476422808721036919e-04 1.209301753874797158e-01
-8.449967361487056849e-02 2.291359342629863127e-01 -1.931957812440504227e-02 6.245061091388990487e-02 1.458763762189632107e-01 5.655023527419667656e-02 -1.152401038068876643e-01 -1.316690488549773219e-01 -3.778675827208630156e-02 -4.880797986701927021e-02
6.218684234329657605e-03 -6.849120259606776562e-02 1.630076664447047130e-02 -1.610905544551410051e-01 8.166341673769904330e-02 5.770025075079616983e-02 -8.137428587909015243e-02 -2.011035636216913502e-01 -2.643812573620964446e-01 -5.113853184708735400e-01
5.174643022529756831e-01 -9.937584325559779830e-02 -5.258498673593342554e-01 -5.590700273460257330e-01 1.221779005802763884e-01 8.615418344596323386e-02 -5.117840928340877671e-01 -6.820308428806710899e-02 -6.179105690674405738e-01 5.101355994152789730e-01
4.609869923850618001e-01 -6.361628464206816602e-01 3.782364408224035968e-01 5.747104130150675338e-01 6.291708126418051883e-01 -3.057045924969911121e-01 4.008788055640065684e-01 1.720140706702104061e-01 -1.277739893807769249e-02 4.826278391569654436e-01
4.185229906593641580e-01 -4.460060956528715259e-01 -3.749325357081925159e-01 1.650592486722853025e-01 -1.396941620802006900e-01 -4.132905266086240315e-01 5.018458625010417951e-01 4.217075201102749582e-01 -1.273252626611751093e-01 1.116831438421718170e-01
2.125820415414404752e-01 7.906207600467018981e-01 5.095673300195071587e-01 6.025118618485811872e-01 7.222737893186251812e-01 -8.031504300759133574e-01 1.674390876923820826e-01 7.928688551108132865e-01 3.089495359496274851e-01 -8.702827180595354983e-01
2.583873771433468636e-01 -1.124829325286046816e-01 4.988811888450910004e-02 1.302882370127974310e-01 -2.069596688715989452e-01 3.375659586117180089e-01 -2.942443765061504568e-02 2.498283359430174544e-01 1.347424093690061664e-01 3.498523370298354251e-01
4.325940587801602177e-01 -5.367560273889216971e-01 5.570478426057837718e-01 -3.546243887489523017e-01 -1.781259484442237750e-01 -1.618368977754070237e-01 5.573941190257293288e-01 -4.453470677949759038e-01 3.265965939081388325e-01 -2.317090408273638213e-01
6.766387347234890104e-01 -2.550036001543870556e-01 -7.074584532560286299e-01 8.932583712407800025e-01 8.626010642852723065e-02 9.341072077569158028e-01 6.929450204352914922e-01 -2.708447988666320971e-01 -9.290677505436950590e-02 7.890342439403916774e-01
-2.193721452658595750e-01 7.413790642757135674e-03 6.588927499670665933e-02 -5.201757113431026980e-01 -4.259585091525413536e-01 -2.382731966562143255e-01 2.152403619623197706e-01 -4.014762546465479587e-01 -2.947944817115913940e-01 1.429081839543496490e-01
-2.621122676506307172e-04 4.729211141962234161e-02 1.332520341883261517e-02 9.738681859628738058e-02 4.764608529268353140e-03 8.522425772809280597e-02 -3.396599302917792341e-04 5.936019815195504173e-02 9.748429085079883538e-03 1.298177104409767996e-02
-1.264892118946225608e-01 -6.033977408406521192e-01 2.758353397823810060e-01 3.308406155311994362e-02 4.916261999748397504e-01 -4.561543874918855823e-01 2.474691827304936753e-01 -3.984966424215647396e-01 7.145466708947617596e-01 4.416813380518452292e-01
-4.830329076810416788e-01 6.765877673167571826e-01 -1.035375394043598490e-01 -1.625461742928219211e-01 4.552224955215783408e-01 5.135381741679503342e-01 2.686815368514832159e-01 4.593294433593516080e-01 -4.623727764441455390e-01 -3.979516590673021215e-01
-6.313170336612694555e-02 -4.101260877078209410e-01 5.327089814416134661e-02 -5.872289117814433190e-02 1.487201147563054771e-01 1.838422869267055115e-01 1.125111928053584565e-01 4.060623908939923754e-01 -2.666467826135336949e-01 3.239331871599552826e-01
-6.774086798605100102e-01 3.952154602687478757e-01 4.481628712030876205e-01 7.199214380439752370e-01 1.306621114822169860e-01 5.890212759565870426e-01 -1.913523184005083699e-01 -8.453247227855667512e-02 7.054182270544337996e-01 9.197277200002330899e-02
-1.490399873026510558e-01 6.238564178048044973e-01 -5.614753403524623820e-01 1.914780984435367761e-01 3.062839817446552093e-01 4.266251232398556859e-01 3.999816364157638415e-01 1.154902032765768166e-01 -4.288008021534572833e-02 -1.581598501188596906e-01
9.454718627811168480e-03 -4.970525320117629396e-03 3.398024959705250869e-02 5.582417125147579040e-02 8.563230646045510985e-02 1.608431643555216506e-02 1.135486732689735580e-02 1.003056887073091041e-01 4.376237539476306171e-02 4.473135768712632049e-02
-4.907780638709036136e-01 5.995399666452090326e-01 -4.901265309894095590e-01 -5.623265306310222533e-03 5.723060536066867376e-01 -7.475812928340912489e-01 -7.993296718441437188e-01 2.622040717961361400e-01 -3.389568654954487337e-01 -7.029660158617798693e-01
-2.111815591217593713e-01 -1.528954912868254468e-01 8.017483438148047259e-02 1.384602804326490189e-01 1.402402288436638278e-01 -4.117023314386543675e-01 1.102334084858103275e-01 5.764722195581343245e-01 2.044174368220811056e-01 -8.212444853795423938e-02
-5.440125408868726753e-01 1.965464359192670152e-01 -8.090263012663435616e-01 -3.327412768742928906e-01 -6.751306497261083672e-01 7.883250074217754144e-02 -8.322675148549835145e-01 -5.071705323322860393e-01 8.005716419600982237e-01 6.867830894017448173e-01
4.433437869214692378e-02 2.434139263386984539e-02 7.766345615105774147e-02 -3.852493446392245974e-02 2.116969240981086964e-02 3.936631157202522685e-02 4.512037790836304074e-02 5.088833673076375436e-02 1.659470441087068692e-03 2.399719529546798236e-02
7.418312035129683013e-02 -2.019604732051430707e-01 2.923374391267364869e-01 4.332260040085208486e-01 -4.828726959875099256e-01 1.871601270819060747e-01 2.235679374047590262e-01 3.825525400101877777e-02 -4.934927664943767334e-01 -5.550061716787703103e-01
1.998019156907129001e-01 -1.056555706704369185e-01 2.009498169641123211e-01 -2.602029881363463262e-02 -1.880465084680053300e-01 -2.189870398481327807e-01 2.270626727515944465e-01 -2.262449879906565653e-01 -9.925194116337976435e-02 2.630380235131239419e-01
6.965857690880703501e-01 -4.799346055988760740e-01 4.768035375297891010e-01 8.245667797293645407e-01 6.134293615336430250e-01 -3.286319465656548089e-02 5.271073892665062433e-01 6.936986852319100283e-01 5.925122118543871830e-01 1.054212797716817251e-01
9.731375266596146989e-02 1.149387819073560552e-01 4.745849524653833473e-01 -1.431132665381706637e-01 1.857663244675082370e-01 -1.967322937569058461e-01 8.824681929673933167e-02 2.644868926500834605e-01 -3.719949210830059139e-01 -3.558849172857684318e-01
-3.568842145114614617e-01 1.337308439785169778e-01 3.852046072850960345e-01 -5.816046267384530344e-01 5.703595361316209367e-01 -1.206994062754112307e-01 7.210825008879563347e-01 -5.607877647712412594e-01 7.488305122832442096e-02 -4.131637681191256684e-02
1.535191756602329871e-01 -2.124823108057991294e-01 -4.060340617355084891e-01 1.248917300627550887e-02 5.068662538153923675e-02 3.664851737070708160e-02 3.716540253050137910e-01 3.739585935117483717e-01 -2.858192233530804094e-02 -4.763301929564745518e-01
3.043482324090611146e-01 -6.138394003162001011e-01 -4.675477332681030607e-01 3.029534149679720401e-02 1.540621019324937280e-01 2.915146007490730939e-01 -2.633537148685308749e-01 1.998366795168965704e-01 -2.631512838091053519e-01 -4.027009881005920167e-01
-3.645690741086455439e-02 3.804502544428297051e-01 3.161188004021521780e-01 1.803690348638194441e-01 -4.807566449885483650e-02 2.227331171097831353e-01 -3.214899551919327414e-01 1.827759903128226837e-01 -6.875133822636281429e-04 -4.134073517572729450e-01
2.500556214186648862e-01 -1.879948645366322502e-01 -1.562032066438689137e-01 4.514261784731464222e-01 3.864812167326245884e-01 4.697538393196462048e-01 6.904615820177730789e-01 -9.486730420977065870e-02 -2.884379616702745230e-01 3.427114753489603483e-01
-5.087143880936593199e-01 -2.084241833537718858e-01 -5.607323853082450682e-02 -7.160869110984700858e-03 2.659855397543403055e-01 -2.212755293274439594e-01 2.716864277620311980e-03 -1.821825553703610989e-01 -2.860226711421330337e-01 2.353863473853206045e-01
-1.176709577315092764e-01 -5.173408137134522661e-02 -1.838048968762244217e-01 1.631262339523726623e-01 1.458474898333687875e-01 1.935939258002720431e-01 -2.400922901195744197e-02 4.962079528838291009e-02 -3.216690294193554197e-04 -2.509844862442153768e-02
2.089253314891628688e-01 2.438781849684892034e-01 1.700902443262996833e-01 -2.126005640594517965e-01 -3.639610638848216895e-01 -2.434646517394695453e-01 2.404972297787009439e-01 -3.053923114854951715e-01 3.482220785855400513e-01 6.498300088708976185e-02
-1.975462021216909888e-05 5.353131503988338702e-01 -4.410904998811822630e-01 4.749475503668272869e-01 6.461655215194335167e-01 1.768731505181211638e-01 3.234138797871622395e-01 2.757323882084949385e-01 -4.688936216719432615e-01 -6.461544667803590380e-01
2.795166690483704142e-01 -3.681147268593700228e-01 -3.839215146680282631e-01 -2.306788065654773179e-01 4.670401257000247330e-01 -3.958563930970709216e-02 2.077339685172836098e-02 5.130215963693065540e-01 2.599046931811573313e-01 -2.421731780729864392e-01
-6.477728114348453581e-02 2.960435895612598678e-01 -2.507554059572594252e-01 1.818087644862824703e-01 -5.113243559561785334e-01 -1.680050052722216469e-01 3.094189915748815634e-01 -2.797902753866498560e-01 6.664549824913682530e-01 4.491952532603227799e-01
2.646702423626189158e-03 9.109690591181017483e-02 2.067606901860702673e-01 1.999048577921452019e-01 9.046654320715141750e-02 3.454864254910682275e-01 1.658064225002068015e-01 -1.095563370414778942e-01 8.391638660174076392e-02 2.454792358397673291e-01
