6.342868128772506386e-01 -8.109154656277619555e-01 -1.156136555815682199e-01 -6.246133414304640974e-01 3.273571881073714107e-01 -4.567464481057643133e-01 3.477217702659036735e-01 5.952500965462348415e-01 8.033416882547128601e-01 7.137426796044006316e-01
1.495646048805484019e-01 1.215581911818062466e-01 -3.989053542034702859e-01 4.074245632912802950e-01 4.030384970935399491e-01 -1.128680200912186293e-01 -2.519655574427644429e-01 -4.351309273591779658e-01 5.218327244024841827e-01 -2.714340503480292544e-01
2.895687639733796059e-01 4.496493324755769794e-01 -1.875824775376518094e-02 6.732618895104629519e-01 -5.889027720278112721e-01 -3.012713735966153217e-01 5.742917502024038612e-01 2.482600136049722406e-01 6.942940793942192768e-01 -2.735662059940576207e-01
1.515156971528244523e-01 -3.089109719154777833e-01 -1.113335646768015552e-01 -1.130565121137585699e-01 -2.539244985992621384e-01 -3.064255919502710812e-01 3.570759986093032801e-01 -3.181459669260813805e-01 2.413697745195517441e-01 -1.683506192010991442e-01
9.628939971648337731e-03 -9.177434837954454028e-03 4.193616708835647133e-02 -1.423779572121195748e-02 4.695002053729000618e-02 3.680914015930411912e-03 2.107585223425459398e-02 5.085588988035423530e-02 -1.266152498513455765e-02 1.526794459363012627e-02
-4.458966394858188687e-01 -7.488181457452142142e-01 -4.090007330107370276e-02 -7.939568631565304679e-01 7.030291406092216144e-01 -6.938159797569501963e-01 5.538976976078897607e-01 7.111894608875320989e-01 6.757193806336931896e-01 2.294805575764500560e-01
-6.933509836236358831e-03 1.164369274271271626e-01 3.461986439613436856e-02 4.703985894193225478e-03 -1.250423995487401352e-02 2.569749495427614550e-02 5.527762457679376296e-02 5.226078819930646486e-04 3.157944245295715019e-02 -1.509512293458208955e-02
-5.392517464397813542e-01 6.871355003847502418e-01 7.201523008382608448e-02 6.921436062089534325e-01 2.282202614142365138e-01 -3.265924943841077566e-01 -3.863693803412953653e-01 3.228827659381034998e-01 -6.084678776852439075e-01 5.664147149784134472e-01
-6.897725824403029560e-02 5.940740718733550363e-01 5.547826721294163432e-01 -5.637149388617063162e-01 -2.809546896049475717e-01 3.713167577303086442e-01 -4.288155563582378704e-01 7.204144696722051266e-01 5.199316336257080451e-01 -1.899365814528025664e-01
3.538929018222273203e-04 -2.147823804243329578e-03 -4.346842630693971074e-03 6.570045430624625420e-03 4.699591173624691198e-02 1.402059631621262528e-02 3.298197897021546560e-03 2.699163725855281692e-02 2.285096544802623850e-02 3.186903863495958722e-02
-4.818619704518147667e-02 4.967307518671452982e-02 1.348564946089907124e-01 -1.864871492843643008e-01 3.004403402661950939e-01 -2.301756523808078797e-02 -4.410861507037285023e-02 -4.380504558891210043e-02 3.623262593309105328e-02 6.566928371761726613e-02
3.445214516929894777e-01 -3.207567250534753001e-01 5.921348428773826056e-01 1.875560015362508492e-01 -3.499228895660163458e-02 -2.100856043979139054e-01 5.434510788611954801e-01 5.080542548116940837e-01 -4.559289347646960366e-01 4.093538194534554475e-01
-4.394213891816981521e-01 -4.013726102828169690e-02 4.646948918182187693e-01 6.074020744090944390e-01 4.750990114453712554e-01 -5.025611828110994050e-01 2.111485529280444640e-01 -1.379874393884638895e-01 3.268768343247705488e-01 -1.345768413513573347e-01
4.320822979646578577e-01 1.891769701363052447e-01 -4.684675331371725981e-01 6.549883428345716352e-01 1.796576633626198183e-01 5.259352308412096333e-02 7.491957604387969871e-01 -1.706475119275960017e-01 4.168952164824176743e-01 2.843417073122235239e-01
3.148151284959357921e-01 -5.546032317351196061e-01 3.515281841427678189e-01 -2.392419218662042157e-01 2.937743928378618308e-01 -1.849083205511525829e-01 -4.603341742748056631e-01 -1.695352862150597273e-01 -2.006139850826865190e-01 -6.937494122478525815e-01
-1.105185548026489922e-03 1.973637402371621052e-02 3.907168717870591196e-02 9.065295119646498562e-03 -1.053057654591199599e-02 4.401624974806078727e-02 9.526445587685519745e-03 -8.679755519886811488e-03 2.545968216268145942e-02 1.563910139958804221e-02
-5.141391518784168557e-01 1.320121486858895909e-01 -6.440064332081617549e-01 -5.614053398696400299e-01 -1.634107502913148199e-02 2.570374020066362175e-01 -4.388149122123308210e-02 4.332205397083294662e-01 1.063955037868328235e-01 2.357790251007206295e-01
8.304665113757843109e-01 -5.339058262978287894e-01 -7.695110328203361716e-01 4.705386384261816546e-01 5.945040454409542541e-01 3.147286660577112150e-01 1.118727857207685028e-01 6.654295951692211775e-01 8.044492399718409237e-01 -4.410253579537521396e-01
3.161267202736908581e-03 4.382291658373232285e-02 -6.045615422901956526e-01 -4.833538463221249692e-01 -5.866591059440025013e-01 2.904225874267863938e-01 -3.690926378753093262e-01 6.678255905669253645e-01 6.928618691846812061e-02 1.309885123687238619e-02
-6.442610138550709797e-02 3.377808079323991741e-01 -1.593957607110074726e-01 4.188101312824985684e-02 1.642725981226045018e-01 -1.118313647355875240e-01 -2.998910094792083258e-01 2.435239566931988453e-01 2.155832819415286761e-01 -1.966346855480671785e-02
1.446289604732577984e-02 -5.829671231270313475e-02 -2.801682472924014178e-01 4.100571186450813754e-01 -4.704757041550018393e-01 -3.024986455549143541e-02 2.183983610325430924e-01 1.736373731359965589e-01 -3.490261220731658010e-01 2.023156111914597710e-01
3.072477775810391054e-01 -1.004828979009478179e-01 -3.128247322047824075e-01 4.496673659342232399e-01 3.001525087592583629e-01 1.763311852096566545e-01 2.514048478308254508e-01 -9.043905136512815635e-02 -1.418015368978189916e-01 -2.307433385167491080e-01
7.421551091193667737e-02 4.995115366619024000e-01 -2.832276965623302667e-01 2.092262209674175810e-01 3.097409221243944688e-01 1.609486524666290941e-01 1.195932441964012022e-01 -1.219257956462090342e-01 2.935063427558918803e-01 -8.032244939338706313e-02
5.227376543502766371e-01 1.103801926018515706e-01 8.175154620377154124e-01 -8.849363124035150019e-01 -3.963857032454354834e-01 8.743658826757573499e-02 7.589990146362837198e-01 -7.741981172746533746e-01 -2.098096250129435902e-01 -8.103126049455620095e-01
-6.385448598880965054e-01 1.852996963067491121e-01 6.027636954223701202e-03 -6.546519674021955559e-02 3.418769667523539613e-01 -1.446621021871004886e-01 -6.975507914969025780e-01 4.820586762680630910e-01 -6.679538654689521904e-01 -6.317794819568113285e-01
1.685642022728217268e-02 -1.049200464261333399e-01 -1.989947840685388908e-02 2.873165145163227852e-01 -5.444556953418352441e-01 4.815689068133495176e-01 -2.332757112758586104e-01 -2.671164652156092847e-02 2.503388604108903182e-01 -1.187698284158688611e-01
1.717372908579235524e-01 -6.262993441617237256e-01 -8.141626171210856189e-01 -8.153149664939400576e-02 -3.106321435507279349e-01 -8.002218637595386319e-01 -6.685931510766103258e-01 -7.259692812424044517e-01 8.655349134747750695e-01 -5.174487530193738749e-01
3.818486861157218692e-01 4.884534637728980555e-01 -4.277440287677728575e-02 -2.741507888786595681e-01 4.500771763558468197e-01 -3.092184223330372017e-01 5.337114937194881170e-01 3.658488547125688939e-01 1.616364461699419386e-01 1.439576544179942408e-01
-3.246421763681608397e-01 2.847048302731481351e-01 -3.246248163347106863e-02 2.854609016844335961e-02 -7.006863172182309363e-01 -2.567211605056585744e-01 3.338442072400813476e-01 -6.682437728345409500e-01 3.944947234228809996e-01 1.839682737795010018e-03
-1.821805954744092626e-01 4.878421488791973015e-01 6.187601099118327230e-01 -5.729705786121278011e-02 -2.493740680568029555e-01 -5.534852416152786780e-01 -2.604084956764829428e-01 -4.247470596202522763e-01 5.366799177429376622e-01 3.790766102131761239e-01
-3.796709553883452770e-01 -5.544090124636361638e-01 8.714893005228647738e-01 6.501385888559159110e-01 5.170164014196493296e-01 -1.410864114630948629e-01 -6.812512906583788608e-01 -8.102414130053475771e-02 -5.850365126615576505e-01 -6.619841699011288494e-01
-6.738248035243298018e-02 -1.103636871204019265e-01 -7.023267573634465188e-01 3.397751242873237598e-01 -3.861606524804848672e-01 -6.059232605356350554e-01 8.126893030947572871e-01 -1.489410173375356750e-01 -1.357290711271825490e-01 3.498437464166956889e-01
-1.531545861579841628e-01 6.206320886304630413e-01 -5.041531157020526788e-01 -6.796226460099621391e-01 2.466577309783848648e-01 1.320101392480033942e-01 -4.313055726486168806e-02 2.451108041113188585e-01 3.200925326095475643e-01 2.660896371665738558e-01
3.196465814299814800e-01 6.521213378691070872e-01 -2.250545451293818888e-01 3.686803793133748841e-01 -6.518852881059438165e-01 -5.988808937801233245e-01 1.101699639346843951e-01 2.069494132400472586e-01 -1.119170235486398740e-01 -4.524583373831351785e-01
-3.039244866600470871e-02 3.132724364133817607e-01 3.569457697930929485e-01 3.167360740122666107e-01 5.229332698175072069e-01 -2.919456544719380986e-01 -3.782711498173085274e-01 -6.017833017565632492e-02 -5.705111251325646338e-01 -6.042538658323675510e-02
-3.570485982854229579e-01 6.020783868495418467e-01 2.649535235469501204e-01 4.455793456082537962e-01 4.234515610671797381e-01 -4.501670210212452838e-01 3.723303290165482227e-01 -2.795641973392131718e-01 7.300044149703518448e-01 -4.295019070402417150e-01
4.216875670372884771e-02 8.434298259599341818e-03 2.544074194384539356e-02 -1.035874126958126300e-02 -2.848665031291562448e-03 7.202277512977420509e-04 1.126147167260675534e-02 9.768407237247478392e-02 -2.244258053563704097e-03 6.980650430233280995e-03
2.759157163336130036e-01 -1.430372708826630965e-02 4.308610257348579470e-02 -3.383675617729609009e-01 -5.117282417196338251e-01 -7.998790402004603631e-03 -1.278496872874616275e-01 2.491407265732732412e-01 -1.503080941912918467e-01 -4.978526461770723111e-01
3.883364811959174601e-01 -5.565680436098752182e-01 -2.913305332088738653e-01 -7.117006943523266349e-01 -6.963421070384187561e-02 -7.096561536830788830e-01 -2.026982822066895062e-01 -6.398866578758389823e-01 -2.374650143280622114e-02 2.937370057347385433e-01
8.912439283807719811e-03 -1.817875877181738264e-01 1.442519708032273876e-02 -8.048769815591337584e-02 1.464149674530976220e-01 9.219664962176188361e-02 9.325745021197530404e-02 1.971910708582398919e-01 -5.783555509858594873e-02 1.290846128259231229e-01
1.323075467597747135e-01 2.645755497771865028e-01 -5.525436814685596304e-02 8.069411029178619188e-02 -7.032406264862332834e-02 2.524016907628368056e-01 -3.890056608348788636e-01 2.212386441265878356e-01 1.167235212761821156e-02 8.191363538047813364e-02
-4.043255865205578337e-01 -4.537306079456712021e-02 5.892424065246508746e-01 -5.211001751057129511e-02 -2.582377621285086300e-01 7.301751368285471777e-01 -3.246755858756569246e-01 -5.388538531911662988e-01 -4.131588557339788137e-01 5.368952418408048377e-01
5.831408805138430518e-01 -7.961079365651582695e-02 -2.605981264961204080e-01 6.659232855797241335e-01 -2.627085675600314141e-01 2.400973769752446155e-02 -7.786548691883028450e-01 1.493399563292024390e-01 -5.366691072929111739e-01 7.449943441787804099e-01
2.696188074918774991e-01 2.054667287128562614e-01 -2.114392411276342504e-03 1.377438264148624636e-01 -9.976109080121021988e-02 -1.103094960671585113e-02 5.022630957726394174e-02 7.610516104617434663e-02 1.328576004083480977e-01 1.733990316231416584e-01
-5.181489965979418910e-01 -8.517177397203489209e-01 1.515743510773207015e-01 6.038055679181560942e-01 -2.731831165320884880e-01 5.927538029807186692e-01 -8.423253318037418058e-01 -6.893157171404615258e-02 -6.893650069855227214e-01 6.400892299827112275e-01
-3.589925775800440616e-02 5.909543003876436412e-02 1.414030549301630579e-01 -5.302472054631702722e-03 -1.808303968721589328e-01 -1.699014241388030200e-01 -2.230332635175918399e-01 5.907210096309916530e-02 -1.584005621453115631e-01 -1.273028651223654106e-01
2.079669515703611304e-01 -2.435292707406812862e-01 -4.471317888319779610e-01 -2.994110503264545420e-01 4.288396380403182162e-01 3.714652422272421983e-01 -2.021900652791001340e-01 -5.596497091806303947e-01 -5.307136570308448320e-01 5.089736397974148341e-01
3.029697293577699457e-01 -5.472945433873774856e-01 -2.932901502109432068e-02 -3.657829792249301382e-01 1.001119218427743013e-01 -3.174222672434128811e-01 -4.613505202906467151e-01 -7.006813288450867983e-02 6.521425885412079557e-03 1.947950358046220409e-01
-1.452120520170265272e-01 -3.558311834094786685e-01 -9.822800637328284179e-02 1.160387182490875413e-01 1.410357159682172623e-01 2.701103790758248024e-01 3.101889390455170870e-01 2.740470161353444900e-01 1.816099700983998810e-01 1.630597305751915055e-02
-8.666221698878111557e-01 4.486471681912453380e-01 9.090176412591387256e-02 7.388960538044530013e-01 -2.721947336010575591e-01 -3.209914221117067812e-01 -1.532245587099513584e-01 7.719083007230980176e-01 -5.120895320888505658e-02 1.427058035666995961e-01
-2.620716161712886572e-01 8.608638817536171106e-02 5.765970781074699625e-01 -4.104987501439613107e-01 2.040473089037956600e-01 8.220231453293905810e-01 1.982892106945452482e-01 -8.563521857827632866e-03 3.434543191337992019e-01 -4.206608693569199864e-01
1.751383148799954756e-02 1.871896665894464684e-01 -1.099131914780089730e-01 -2.394289840437470174e-01 2.730240846792177933e-01 -3.257788116496874165e-01 -1.078635722190429413e-01 2.097259533522043487e-02 -3.441266383484020003e-02 -2.082310970235066450e-01
5.137692548045612317e-02 -1.156446098428853680e-01 1.456522334655161732e-01 -1.070765971495048208e-02 -6.113430722352604374e-02 -8.608165880625991140e-02 -6.447356615394612966e-02 4.150508468758838665e-02 -2.336143759301194667e-01 8.987846167585775148e-02
-2.887438445707662948e-01 7.750146871844235674e-01 9.220705000424076481e-01 -6.246377560350256930e-01 -1.055699214018317039e-01 -2.759190752654049339e-01 -3.103667539535141517e-01 -2.164708687156332023e-01 6.848950551476400417e-01 -4.258344413695688835e-01
-3.457889233679678487e-01 -4.387246871481800259e-01 -4.492341630229991223e-01 2.772162402578691176e-01 -2.334765289074584582e-01 7.233657416201624279e-01 -2.162596271788416458e-01 -5.182307267844599163e-01 7.600721487106645857e-02 4.473791735369107014e-01
-5.082739123630700684e-01 4.426599903830889526e-01 5.402549217124293923e-01 -3.210195654701528123e-01 -1.579685762860771892e-01 3.161947771613922709e-01 -3.199474295692785186e-01 2.321249826998340315e-01 -5.814429796492580627e-01 -7.147783816752801833e-01
-2.515248472420211767e-01 -4.670263069573682424e-01 -6.525840163821418072e-01 -4.255494957226587105e-01 3.939303770382927561e-01 -5.552525600436977182e-01 4.975133214604349902e-02 -3.296459086683020123e-01 -3.773994181918493562e-01 1.621274622155848555e-01
-1.692528049626754877e-02 -6.312711376366458849e-02 -2.856921627279084830e-01 2.104906887791586911e-01 1.813806124480236287e-02 -1.005803249960231238e-01 7.411385927106863003e-02 -5.547856670471607021e-02 1.281118247041974079e-01 -2.832694095211090168e-01
-2.835020337300237503e-01 1.708817521878614742e-01 1.964109782511349045e-01 -1.667960855620229665e-01 -6.029001439511149085e-01 5.714755008768164224e-01 -1.358579087529999396e-01 4.605829517424437358e-01 -1.838217237654787006e-01 -5.710447133721970880e-01
1.226693591287136703e-01 9.625032019499640823e-02 -2.633117585957010440e-02 1.887435255237232823e-01 1.444249919069168220e-01 1.294334575594954517e-01 6.479225250782393031e-02 -1.931691062863683580e-03 -6.734874975773949557e-02 1.176423020144645899e-02
-5.681047388841498069e-01 -2.845664245557565364e-01 -4.573539962933861891e-01 6.359140440490215207e-01 -4.801335185450071319e-01 7.054050023390550095e-01 -3.446869384410590209e-01 -4.694041315905376766e-01 4.847341570511728426e-01 5.615662627445715538e-01
-5.405841703305316326e-01 -7.971154417294348815e-02 3.639758357306361880e-01 -3.387263172047113267e-03 8.223416502351401647e-01 -2.678098714725875018e-01 -2.316160281259786735e-01 5.816304049573878254e-01 -2.568009900137823154e-01 4.248740325846604438e-01
-2.013762906672782738e-01 -9.826386914475636336e-02 1.081867345820739096e-01 2.096651662817908615e-02 -9.324470335397914977e-02 -6.780507711691782791e-02 1.143114708556575432e-01 1.303565616163463239e-02 4.069450375922013113e-02 3.346005345424953731e-02
-1.459089517960400761e-01 2.616809499324905808e-01 -6.375395514946798591e-03 1.339920266928084081e-01 2.629485173563928524e-01 5.678314223823983931e-02 -2.581863272334565251e-01 -1.756571886851354125e-01 -7.851494455210808465e-02 -1.490787740098299674e-01
6.279961822399574359e-03 -1.017480220204064756e-01 6.944551415576295794e-03 -2.033866126435827648e-01 1.312026780605918541e-01 1.354268715190705963e-01 -9.787246125135795616e-02 -3.438470706743987915e-01 -3.170457728215191340e-01 -6.369035871130435122e-01
5.375042929808749870e-01 -1.481074083068172065e-01 -5.418287933995683536e-01 -5.839133492443007167e-01 1.389024311133874034e-01 8.826932421836508613e-02 -5.414289390060300633e-01 -6.378729152828216398e-02 -6.457370507270125959e-01 5.316633922370778143e-01
4.679763653938986412e-01 -6.427657493416610857e-01 3.808555394539679950e-01 5.818700531432348111e-01 6.330850719903274859e-01 -2.989896958023308127e-01 4.052970680771699197e-01 1.670465092661354012e-01 -1.096870767857660058e-02 4.849482221758674716e-01
4.382791595931782580e-01 -4.577594088584551191e-01 -4.187180279760187029e-01 1.788048549307375834e-01 -1.432587863804216932e-01 -4.235092717419398634e-01 5.259443231706832922e-01 4.379667169027476881e-01 -1.329033918448783991e-01 1.166000992870968450e-01
2.043970401973689288e-01 7.954000808840652192e-01 5.074771791348959837e-01 6.010720886769120863e-01 7.208180637112094891e-01 -8.038182067170724920e-01 1.669340203846338688e-01 8.015145375105362513e-01 3.087534807850305096e-01 -8.759559903092861699e-01
3.368673714195911106e-01 -1.505503579411562876e-01 6.308765867042694098e-02 1.558856914762300760e-01 -2.145944493141466181e-01 4.739743389416787855e-01 -5.981491046989084737e-02 2.341115674499063826e-01 1.546237776074324555e-01 3.412635252302996802e-01
4.556152701463052068e-01 -5.737122483905353620e-01 5.812783965968360000e-01 -3.628915409120181956e-01 -1.941380347733774603e-01 -1.640293849365754564e-01 5.570344903012195426e-01 -4.613658629509657105e-01 3.371828888397135904e-01 -2.489296758293387812e-01
6.768172570724406700e-01 -2.548819273211057612e-01 -7.074995096510908743e-01 8.936763677242286485e-01 8.646957878108595119e-02 9.335449682525215342e-01 6.932878852260205838e-01 -2.710826348098800964e-01 -9.277540425719475736e-02 7.891039961220348564e-01
-2.226467978620705890e-01 5.340903041066376138e-03 4.178011865921640172e-02 -5.482605749908777693e-01 -4.480331913908505714e-01 -2.388550748284078706e-01 2.413329357485750337e-01 -4.204327757984944736e-01 -3.098037013244960836e-01 1.492115083235973361e-01
1.406436870796520799e-02 3.747660274681841042e-02 1.336577743703450463e-02 6.067530397272687115e-02 -8.021186585972152339e-03 5.123147721124984844e-02 7.980967048984461288e-04 1.431894975824360428e-02 1.076439195456583946e-02 1.118101290407575929e-02
-1.232922714708330897e-01 -6.086907068744966676e-01 2.871400339063315266e-01 3.083888803398721068e-02 4.853639036744561430e-01 -4.566924873121414041e-01 2.366514324435877725e-01 -3.986820149203955665e-01 7.212802791446215611e-01 4.434003080312657330e-01
-4.868264574088553842e-01 6.663353259342517099e-01 -1.055516907086177791e-01 -1.696517940782535649e-01 4.706346656930400774e-01 5.199341012407844298e-01 2.600491969551196325e-01 4.676565339622658080e-01 -4.745315196199942909e-01 -4.010838284889235994e-01
-7.291632735569822388e-02 -4.693102330237170494e-01 6.962191355378116731e-02 -3.955716582335055964e-02 1.898764870887507117e-01 1.804427700067880169e-01 1.419308146638666168e-01 4.487965626679335518e-01 -3.233150919750624186e-01 3.682581216118098189e-01
-6.817115690998428734e-01 3.937269731375952486e-01 4.512560288854842727e-01 7.263962294155712485e-01 1.331094967094734738e-01 5.937792049916348347e-01 -1.929685045195907167e-01 -9.315043521808787086e-02 7.104340789423265745e-01 9.234901931370780026e-02
-1.509675437229932304e-01 6.326332503726651568e-01 -5.683919357164370911e-01 1.949003531866515537e-01 3.089029881466113792e-01 4.130553730578975236e-01 4.051279876181938522e-01 1.177689679370151621e-01 -4.321843000136943447e-02 -1.598299066859681372e-01
2.464188695391491407e-02 -1.165391189122193770e-02 1.131756129956773722e-02 2.585344578358581349e-02 4.297242399136706748e-02 4.290201652744608102e-02 1.593710629928105083e-02 3.862895783833401875e-02 2.026113735652010014e-02 2.410027751440793967e-02
-4.923267701067073343e-01 5.951440930556120001e-01 -4.904624194881826438e-01 -4.669730196290699381e-03 5.715788367415223226e-01 -7.500194471428784926e-01 -8.017911741911283308e-01 2.640619284565495217e-01 -3.398931287039006488e-01 -7.050183342940600228e-01
-2.354592228415164634e-01 -2.130780275888622954e-01 9.196319994024346189e-02 1.481428072745126501e-01 1.655542039609358140e-01 -4.574677413918824542e-01 1.232654870484495013e-01 6.087438378214975465e-01 2.353402627769088651e-01 -8.835247123794724711e-02
-5.464821215984005942e-01 1.992088901539078305e-01 -8.150808303426632095e-01 -3.365387020936451701e-01 -6.765917167926644993e-01 7.810350373666632984e-02 -8.349838464097216750e-01 -5.084647373785460278e-01 7.980793541071322661e-01 6.908127749236604442e-01
5.261326945864341909e-02 8.030484506005197698e-02 8.214970561407698713e-02 -2.070595563352743695e-01 5.420955604303317327e-02 -8.875214818520622828e-02 -5.979092100345273497e-02 -6.769004538361900192e-02 1.936397540122046512e-02 -3.935151148211213715e-03
8.457338013149658107e-02 -2.175547109477636298e-01 2.971225941809566007e-01 4.438882223501168789e-01 -4.996421282862144042e-01 1.753936837619993194e-01 2.472674686813048361e-01 4.151800652851815598e-02 -5.148692107550355557e-01 -5.831380579333688141e-01
3.379234061464133632e-01 -1.754329781181385162e-01 3.164473856466231694e-01 -3.520423933633153729e-02 -2.558314072571243880e-01 -3.277266779224579651e-01 2.272950923258872657e-01 -3.958439138574015859e-01 -1.879490387103672777e-01 4.110702600458422395e-01
6.965777399452387497e-01 -4.812929408468316073e-01 4.784887207464733061e-01 8.244645442508257149e-01 6.154481797573544410e-01 -3.214931437934524100e-02 5.260249259941085498e-01 6.945477009334318774e-01 5.936892342696306057e-01 1.054577072962926548e-01
8.950627060355548226e-02 1.209789368126177184e-01 4.549779929994083316e-01 -1.495574233483999704e-01 1.978537657689498075e-01 -2.035621968499793655e-01 9.051225316133285070e-02 2.763501345607123350e-01 -3.823445873621956759e-01 -3.669722450127197444e-01
-3.652921910238413061e-01 1.332412744498725210e-01 3.908718901626074271e-01 -5.879208930258453814e-01 5.780365640204482292e-01 -1.317245768847950527e-01 7.302784442928665909e-01 -5.671803925916791833e-01 7.605418614949611966e-02 -4.152287505138735346e-02
1.674048451324083031e-01 -2.491466428047852399e-01 -4.568773700071700472e-01 2.120641267835770075e-02 4.529544140601221569e-02 -2.638403777867503325e-02 4.184052347358777624e-01 4.508750976288936618e-01 -4.801836388797584010e-02 -5.922378211972136874e-01
3.125002833816324932e-01 -6.260871483819171468e-01 -4.896414804189966330e-01 2.948822600624862247e-02 1.617260641290713952e-01 2.986706413082520495e-01 -2.655833483772240822e-01 2.063819702861829919e-01 -2.832534046101340963e-01 -4.115949915276020388e-01
-4.286011529437011580e-02 3.856493490176925443e-01 3.407343800690322833e-01 1.985114917911768861e-01 -7.394329976755319167e-02 2.260477752172904975e-01 -3.440611616502813885e-01 1.952982758225870474e-01 -3.378907165311946861e-03 -4.552262040664885046e-01
2.565589706796773117e-01 -1.901480231482221561e-01 -1.646319627913946093e-01 4.614149988234810262e-01 3.960649680249543891e-01 4.632672878772217673e-01 7.104027249079427619e-01 -9.089316953761264473e-02 -3.090618625986124579e-01 3.388216509947004074e-01
-5.254056866814680316e-01 -2.369729727829802679e-01 -5.374728795303232443e-02 -3.336480803361963066e-02 2.666660372958395420e-01 -2.857907359931362024e-01 1.205320374677529283e-02 -1.913910097181354131e-01 -2.940568020696784912e-01 2.460931978954424559e-01
-2.259443000995295103e-01 -1.210912284685112805e-01 -3.611948458926560468e-01 4.116364501260552089e-01 2.205859117897410737e-01 4.185440583772329637e-01 -2.443277293125362126e-01 2.261201238624053339e-02 -1.865936713426405436e-02 -2.247687498406628764e-02
2.336238665488633293e-01 2.372737370092933562e-01 1.851273152987235604e-01 -2.287119905220831306e-01 -3.871248424143878819e-01 -2.527206721329019468e-01 2.243185286228412956e-01 -3.402580922863106538e-01 3.782711881319855141e-01 6.949254750464689545e-02
-1.315723993741654482e-03 5.357515868487670030e-01 -4.432507834512205425e-01 4.783357734298392949e-01 6.525487876095205086e-01 1.788946254763946198e-01 3.169130701866373911e-01 2.758771630869094049e-01 -4.718057697848682674e-01 -6.503876652648036272e-01
3.049586421702729089e-01 -4.011662143920364798e-01 -4.465814943111971469e-01 -2.499660457295016791e-01 5.095909637839881601e-01 -7.280458737525817570e-02 2.261720926158133568e-02 5.576148571045944635e-01 2.822900296776985063e-01 -2.688315962140799265e-01
-8.164912805202304003e-02 3.111893488432475596e-01 -2.606412136339725794e-01 1.825769350593407225e-01 -5.245610707017631658e-01 -1.686531476573830401e-01 3.093450986443165296e-01 -2.745930239750532520e-01 6.844917197456262814e-01 4.673129232530936483e-01
-8.301501169534861169e-02 1.138212132472525284e-01 3.053276037233342843e-01 2.568223732189080510e-01 8.789310816830744888e-02 4.662310768651591886e-01 2.090493579170716876e-01 -9.073956878863634334e-02 1.181698690068320873e-01 3.354251373870922870e-01
