6.281760993138625349e-01 -7.914524822937967219e-01 -1.145009414409150633e-01 -6.186963090482962002e-01 3.211419353146991451e-01 -4.557195478453535120e-01 3.527362909152609860e-01 5.919316525369586746e-01 8.053588190374578737e-01 7.070464220873534655e-01
1.489968584147563224e-01 1.206109427968773684e-01 -3.857955225642821229e-01 4.047248115910567212e-01 3.949209756765680313e-01 -1.070947545510441551e-01 -2.524044092359640779e-01 -4.300298614182199164e-01 5.159001918358486760e-01 -2.688656168461279194e-01
2.779455382019007659e-01 4.413058290678335549e-01 -1.998473781923579273e-02 6.554279748932632099e-01 -5.667390930343761957e-01 -2.937749852404241691e-01 5.539881142128706415e-01 2.534488261138548859e-01 6.820907042136357123e-01 -2.662700381220470813e-01
1.783565146586001404e-01 -1.547981495026401755e-01 -2.808644962835054118e-02 -3.092579857516302572e-02 -1.288728677501322362e-01 -1.025716643727015431e-01 1.568220027252743842e-01 -1.281784134689469556e-01 1.143849701951917264e-01 -6.989703256585909352e-02
-5.181287360086786475e-03 -2.205170497490211139e-03 8.462034266235458901e-02 -4.088635210514886091e-03 8.120644452552661097e-02 2.772098480776582705e-02 1.381960497038866795e-02 5.767213562231344320e-02 1.425725219053499207e-02 3.659008267351761962e-02
-4.455966003462640823e-01 -7.467411064722373482e-01 -4.072239232378059570e-02 -7.939238545694702331e-01 7.015118648193670037e-01 -6.939018987543748018e-01 5.530609191133259994e-01 7.122097333191931279e-01 6.743187665827190536e-01 2.297038110333909922e-01
-5.268266478570178026e-03 1.714122115757147347e-01 7.991186184140319781e-02 1.312742058673214106e-02 -1.348134570009790027e-02 6.070219190278887227e-03 3.787503292447330638e-02 1.489256505864038245e-02 7.123700196991099298e-02 6.878047411813722860e-03
-5.348078643474145633e-01 6.800856024509913667e-01 8.261530954346850419e-02 6.852136819841576632e-01 2.255542001659378293e-01 -3.245045592588521322e-01 -3.837704596290906767e-01 3.201037018350624819e-01 -6.045795780747821313e-01 5.596222032936685187e-01
-6.986048904306654816e-02 5.906995211495245091e-01 5.495081113430780873e-01 -5.611776547190934217e-01 -2.796200146361279559e-01 3.684949579054609403e-01 -4.148893544194905969e-01 7.205264818955650075e-01 5.174080853538843838e-01 -1.896589655814448494e-01
7.211234721642641003e-03 -5.095419888250247997e-03 -9.518094397379134319e-03 3.282082427646632050e-02 1.034966950227026866e-01 5.368148295606083031e-02 1.506388513117128992e-02 4.396534060767061380e-02 3.058346271172183647e-02 1.405681466271158434e-02
-7.669534935013793374e-03 1.134718677039498885e-01 5.025471612172998509e-02 -4.858092526649347709e-02 2.018680649853900333e-01 2.575764081470535358e-02 -2.609591308873341134e-02 8.581815454726041126e-03 2.702682769207399166e-02 4.448822315909977537e-02
3.422649831328070658e-01 -3.188772386746646648e-01 5.954537318632503462e-01 1.864059644133820581e-01 -3.493787130242057004e-02 -2.090145715720213571e-01 5.402653585681668202e-01 5.067660849068512663e-01 -4.532634662069152109e-01 4.087005465855462205e-01
-4.214410437099687101e-01 -4.415838491313760911e-02 4.406393357039983805e-01 5.791499560125434876e-01 4.674131729570406568e-01 -4.554069344093160665e-01 2.075195592092668739e-01 -1.357263244531403401e-01 3.157289205321477943e-01 -1.273671834373563405e-01
4.146552696242452041e-01 2.023153123611672044e-01 -4.651698194561068589e-01 6.350057293963757843e-01 1.744022752810590327e-01 5.307050642969542154e-02 7.441489645771850459e-01 -1.598787837619282670e-01 4.120316751708394953e-01 2.891980489387157016e-01
3.106851041965099647e-01 -5.499218271556463034e-01 3.633974805515121087e-01 -2.359984445433631339e-01 2.920371690241548857e-01 -1.800659631388733528e-01 -4.541794450607194999e-01 -1.670652472639288788e-01 -2.014868342055298744e-01 -6.817206544889834463e-01
-1.536114897995683555e-03 1.411811554704366437e-02 6.270973562713037797e-02 1.681833685212092214e-02 2.110379552452977189e-02 4.826250172448465908e-02 5.277467395839867056e-03 3.791900748128564265e-03 1.682175076902508656e-02 3.488382260984396188e-02
-3.842981769596233166e-01 9.466973039431762771e-02 -5.233532705674871499e-01 -4.462971729930547693e-01 -1.465009395275778878e-02 1.866862934026945198e-01 -4.455325217176933639e-02 3.523336864417074277e-01 9.172748467551694596e-02 2.431071967118463850e-01
8.297674745383573081e-01 -5.337672730403050236e-01 -7.693720613325856217e-01 4.700892773400787705e-01 5.960037460912419593e-01 3.149311561109156554e-01 1.115673327961558964e-01 6.657051881989886066e-01 8.042207123060740592e-01 -4.411909270433334029e-01
1.324732567171229376e-03 4.151641648153125974e-02 -5.879297870216884103e-01 -4.763672478609193850e-01 -5.774978827819499116e-01 2.848700441546019868e-01 -3.635504284352840676e-01 6.720406254857319572e-01 6.693077910591635482e-02 1.282290251409200221e-02
-3.039849168369326490e-02 2.237421996195152751e-01 -1.283985771417967825e-01 5.978585205229767358e-02 1.859431188939033586e-01 -8.443218434814894757e-02 -1.832869784921729583e-01 1.211288692558410152e-01 1.313637609689177477e-01 5.664370464795700361e-02
-6.181722612885114793e-03 -5.429641779232648874e-02 -2.293334731155326212e-01 3.563843625403113058e-01 -3.987180683340533216e-01 -2.644450527344768126e-02 1.703151801679669286e-01 2.060352919518698700e-01 -2.969513425535772466e-01 1.656106049340987929e-01
2.715282360751869462e-01 -9.062478525064934787e-02 -2.064373470243520137e-01 3.966723039503515791e-01 2.603072563602858436e-01 1.618827713565989257e-01 2.035214820953334391e-01 -9.001131350133505238e-02 -1.232309024382010204e-01 -2.123415707799896079e-01
5.568448499124998424e-02 4.045173500909955422e-01 -1.857146150459888234e-01 1.662561565528888063e-01 2.464928651807232196e-01 1.260918377882629671e-01 9.885834568336339390e-02 -3.922882771807062463e-02 2.373061645343871318e-01 -6.822553765679775784e-02
5.222574054728648107e-01 1.115861869098226378e-01 8.166434949738141658e-01 -8.842751827815747978e-01 -3.956886757788169451e-01 8.720181715065038197e-02 7.579983257448478229e-01 -7.725776796474337349e-01 -2.091576869551308726e-01 -8.074407651793468199e-01
-6.267241586433084377e-01 1.823791344961686045e-01 1.312977497586311632e-02 -6.643899942234111899e-02 3.360363287355233597e-01 -1.322334264948469285e-01 -6.818261445588081893e-01 4.606392767840545854e-01 -6.512179542697524859e-01 -5.963911752758643825e-01
1.080305690971441156e-02 -2.358796340181244441e-02 -1.669939405779175337e-02 2.418371147850010006e-01 -4.810485965496883454e-01 4.104482170533433893e-01 -2.024184686990797288e-01 -2.453813449657129414e-02 2.146292361135649640e-01 -1.158038969787979211e-01
1.707768225150362307e-01 -6.254457218827566001e-01 -8.076833370929592526e-01 -8.181724736276418941e-02 -3.100815740113994079e-01 -7.991514135287467457e-01 -6.671710990585389967e-01 -7.253121022291534326e-01 8.636262726621767305e-01 -5.173632140662035583e-01
3.677848897138036310e-01 4.725780721041961119e-01 -4.058447977015158109e-02 -2.680320635581653343e-01 4.402910851357413891e-01 -2.738054753557951915e-01 5.121546112512961324e-01 3.508825995967118638e-01 1.541773923170064176e-01 1.383527737423188575e-01
-3.189262575291026969e-01 2.919420288340375258e-01 -3.603712506108414787e-02 3.177389955026827667e-02 -6.892538374541625767e-01 -2.347499136847848999e-01 3.326490092161598633e-01 -6.514976876066601585e-01 3.846129812318084817e-01 3.198235443277020840e-05
-1.704372809890293272e-01 4.730028966985609928e-01 6.111654122721136284e-01 -7.322135634686988137e-02 -2.059080945645962446e-01 -5.376307163138707157e-01 -2.576649951675888395e-01 -4.034126307426793567e-01 5.162265168670021609e-01 3.547396177297653108e-01
-3.801488226049323793e-01 -5.370765094355162139e-01 8.693383231089801821e-01 6.503629904370195058e-01 5.092055871701207659e-01 -1.410438939269685610e-01 -6.747992926474881692e-01 -8.362107177822525328e-02 -5.763242890150024333e-01 -6.630243677274834102e-01
-6.686156951012886540e-02 -1.097196195804733265e-01 -6.903856053892047928e-01 3.332256839652615876e-01 -3.807513331858644046e-01 -5.764135422254028640e-01 7.957100055565949903e-01 -1.530403563174261572e-01 -1.317998779582117141e-01 3.561300902607052454e-01
-1.494084602371143489e-01 6.057909747871931261e-01 -4.881872346187204337e-01 -6.684542996143698623e-01 2.555460145397793759e-01 1.323025877402741746e-01 -4.411371265896388283e-02 2.587854186152921954e-01 3.159083203197475820e-01 2.466362634818642097e-01
3.089409902949771247e-01 6.333979939905711731e-01 -2.221218185094543385e-01 3.521651651367889158e-01 -6.088589452569852511e-01 -5.777467429469116400e-01 1.097564244418225560e-01 1.918497849627872065e-01 -1.171137278278887583e-01 -4.399603288982833482e-01
-3.434863116861625043e-02 3.192000284718787273e-01 3.507192219487709761e-01 3.131051485255219591e-01 5.173046328010024730e-01 -2.778882020379724316e-01 -3.697672577395705873e-01 -5.286369919770132070e-02 -5.640309262511638000e-01 -6.202571026763618184e-02
-3.533774777594985705e-01 5.877022801240462391e-01 2.764225803627253231e-01 4.287794858565214806e-01 3.985411591422440281e-01 -4.532660735956496323e-01 3.552517781505084571e-01 -2.574169138005875102e-01 7.157667033719933292e-01 -4.212504883375828846e-01
1.045555017765195382e-01 5.008597057997118962e-02 3.320448106461704879e-02 1.172836451437485501e-02 -5.405392710136960703e-03 -1.609006498795921905e-02 2.871100319394516063e-04 1.945625005906252147e-01 -1.281097841453988050e-02 -3.444588553643529623e-03
1.205082192883660253e-01 -2.699897916714052992e-02 -1.098354046300797221e-02 -1.489755358198416313e-01 -1.846285826329193136e-01 -1.399655008827859447e-02 -4.862028693352505454e-02 7.612924934869212679e-02 -1.039984698269599828e-01 -2.535551587124436623e-01
3.824466093353462437e-01 -5.486571864633515982e-01 -2.849253180154848186e-01 -7.032172373061246207e-01 -6.884389251610616156e-02 -6.931556145511746925e-01 -2.040363993907214901e-01 -6.344156010849555383e-01 -2.091449000314019036e-02 3.143605148827520179e-01
3.301338818768556616e-02 -6.701440534305032337e-02 -7.633886080265775247e-03 2.893792759271733225e-03 1.778744739051529855e-01 -9.424602388666084365e-03 6.694527224136388732e-02 5.194227781890502910e-02 -1.084016532073254525e-02 5.867135419740796692e-02
1.126402399201014981e-01 2.441476205950889600e-01 -3.117811356017251290e-02 1.266948449551913158e-01 -4.080181840954598405e-02 1.513635274174132406e-01 -2.618572917412242407e-01 1.724752115352716497e-01 -4.883540918624276056e-03 7.108909124213395880e-02
-3.799320745075585037e-01 -4.029648302982043184e-02 5.792116001594272978e-01 -5.108249034324820886e-02 -2.527953190005914341e-01 7.100412981274176749e-01 -3.180133546088973473e-01 -5.158981617974139899e-01 -4.077558301778679839e-01 5.445779850912839670e-01
5.803719361473338445e-01 -7.547182890430313706e-02 -2.596646098935692093e-01 6.618575555030713486e-01 -2.619441579397503994e-01 2.617179290481280382e-02 -7.756078661803171848e-01 1.503448724910618484e-01 -5.354959865359307791e-01 7.418666633270061261e-01
2.411900228029914550e-01 1.620805261113122675e-01 1.290388865862496931e-02 1.118787764734770623e-01 -6.936330754288945466e-02 9.015804155127105091e-02 4.818049540684091886e-02 4.712176674903695295e-02 1.106427164997477453e-01 1.317770332752142004e-01
-5.198488267901276716e-01 -8.462356337608680779e-01 1.554989762151937072e-01 6.036321734132262806e-01 -2.753528596566825470e-01 5.896534382629949889e-01 -8.403377336124308039e-01 -6.972865415395654298e-02 -6.876875872159403658e-01 6.391927800694038320e-01
2.342696184296666918e-03 5.336996557558090944e-03 1.935831224120974220e-02 -1.916521052250507243e-02 5.427686479645368878e-02 5.599800047309255735e-02 -2.068911663715103030e-02 4.203786661537584762e-02 -4.437010369408850990e-02 -1.849274025391783524e-02
1.983800363792519172e-01 -2.349970195191764255e-01 -4.368586228012319439e-01 -2.994299216067327629e-01 4.348521694290972128e-01 3.655174686294035413e-01 -2.093146089970349399e-01 -5.281910349944335392e-01 -5.153071438923260139e-01 4.892888630050323262e-01
2.763362340547774743e-01 -5.047439829652342613e-01 -2.062830843224541452e-02 -3.359503596012378135e-01 9.793829939643178273e-02 -2.896782148186097805e-01 -3.842335150229522767e-01 -6.209603819495768118e-02 9.056030584439624803e-03 1.764337478754745281e-01
-1.065940030035242986e-01 -2.737188985123060747e-01 -7.501192381088588046e-02 6.539441144721699906e-02 1.859238156197218494e-01 2.052718574158320097e-01 2.241318305477913997e-01 1.852096425050620276e-01 1.157163928695514044e-01 8.910278565690117614e-02
-8.559878888261612806e-01 4.488722117179235749e-01 8.839551394407518803e-02 7.401826711450257834e-01 -2.688869988282359125e-01 -3.179429971567542812e-01 -1.515043615274825617e-01 7.619892709059787883e-01 -5.127492371377360275e-02 1.401079049497968021e-01
-2.412172880604971648e-01 8.390718553837979432e-02 5.651047919485951976e-01 -4.027734877703017524e-01 1.992232932651070432e-01 8.061703311899272029e-01 1.950662596861210962e-01 -7.679052832689985987e-03 3.365410162976207320e-01 -4.146359115140850760e-01
4.648002544678429999e-03 1.092386786619133909e-01 -3.389896206545555540e-02 -8.896563560913033075e-02 1.116309420157192700e-01 -1.493420637106614435e-01 9.227347829787216349e-02 1.250245980212031857e-02 -3.469184466843079108e-03 -9.628619368486329710e-02
6.170293701282136140e-02 1.877764284787465654e-02 1.988829336487785981e-01 -1.722865548334356553e-02 -2.410962329994574896e-02 -4.083552203739126973e-02 4.584478474640780142e-03 2.996593697020185146e-02 -1.073418095355702651e-01 2.144462947944157649e-02
-2.851597767788686122e-01 7.625773900053244292e-01 9.140264043178008002e-01 -6.202204865616343099e-01 -1.044870263111473407e-01 -2.478035733613714875e-01 -3.178951062513693526e-01 -2.268363639001176879e-01 6.793799848061133906e-01 -3.970193186194089785e-01
-3.377209487025484846e-01 -4.366739572076906994e-01 -4.449313239508778106e-01 2.740575288025981493e-01 -2.329420530651303556e-01 7.286815648431248515e-01 -2.082247798841521946e-01 -5.145746001359833288e-01 7.491396657181494112e-02 4.379161584332351143e-01
-5.075757521256587523e-01 4.419366051200556145e-01 5.393735422945264979e-01 -3.210330367347405955e-01 -1.556170785212500629e-01 3.177416293394943470e-01 -3.198831767513987678e-01 2.311540685387484251e-01 -5.809934756166384995e-01 -7.118298378336461729e-01
-2.341425552003577049e-01 -4.525175116921955620e-01 -6.237364836551119174e-01 -3.838592093711642450e-01 3.783819239319302086e-01 -5.359477277749425950e-01 4.721863112663420708e-02 -3.166577991291672500e-01 -3.662201685004942142e-01 1.459358625775503404e-01
9.884712850512185345e-02 -3.960040195443206845e-02 -2.321684587366636132e-01 1.611712936590937728e-01 3.140053043188818088e-02 -9.332140616025931534e-02 6.467304877862573020e-02 1.069620209881372297e-02 9.224931690122259442e-02 -2.097940137726401755e-01
-2.548168000162690516e-01 1.635346114845296073e-01 1.971848171675936456e-01 -1.455616448089409320e-01 -5.746043988114293288e-01 5.618196597921991664e-01 -1.228949272657246655e-01 4.375561974905787244e-01 -1.755244908994482156e-01 -5.478584868477361924e-01
7.520807667727225088e-02 2.825785204223741839e-02 2.021236664241994954e-02 6.791888767053601283e-02 1.030842428800501642e-01 -1.409989231575737439e-02 7.118779912154224974e-03 2.571521254281479429e-02 1.973397889560253582e-03 8.539330318255725083e-03
-5.653816771372567329e-01 -2.822981415678816886e-01 -4.561753263385153745e-01 6.325259113321796134e-01 -4.839124979084418188e-01 6.913743443818933798e-01 -3.440824005892594850e-01 -4.564225519101877127e-01 4.821669944807194241e-01 5.612820262506799107e-01
-5.398896169229272513e-01 -7.970970820269158985e-02 3.621489726623701166e-01 -4.034500573158002722e-03 8.202696599911841746e-01 -2.675116538960567447e-01 -2.277029799134106802e-01 5.789332777619211612e-01 -2.556344402095300783e-01 4.227537515913445398e-01
-4.538451681039851193e-02 -2.846029122852554438e-02 3.617794321482786790e-02 5.893615084480305355e-02 1.177714604407248226e-02 5.710508553805147131e-02 2.584561395863546954e-02 -1.335596870387542080e-02 3.556160163399340549e-03 1.192554721682678037e-01
-9.310047204638272067e-02 2.335397619552843362e-01 -1.926284346643034745e-02 6.920062683303115914e-02 1.615125890662811037e-01 4.968150982865525422e-02 -1.352113856528668334e-01 -1.341437768019825560e-01 -4.445199171902381591e-02 -6.223671535080194800e-02
8.374766687478231095e-03 -7.009973154279629248e-02 1.654377376557800497e-02 -1.645039767711833911e-01 8.725122350674184568e-02 6.362435451773282291e-02 -8.339097685845178742e-02 -2.227759256068296279e-01 -2.698290598375328031e-01 -5.282881995903097039e-01
5.183370430799364437e-01 -1.033191018720764631e-01 -5.266061263481752741e-01 -5.601378676333848006e-01 1.228588446401555623e-01 8.631490708370047338e-02 -5.128499902560835766e-01 -6.804409031406290220e-02 -6.192679166246325417e-01 5.109362045110714678e-01
4.611311820067384160e-01 -6.362917531384117975e-01 3.783332629139518066e-01 5.748306902737131407e-01 6.292459715185656499e-01 -3.055633447105117750e-01 4.009389437474638607e-01 1.719321724812569729e-01 -1.262032514491490467e-02 4.827305141248441345e-01
4.195158159870249759e-01 -4.464422936701253897e-01 -3.785774407856256629e-01 1.659309268923891134e-01 -1.395486952690783988e-01 -4.136019216013570587e-01 5.031008648713862774e-01 4.226158847768828331e-01 -1.274837031482427552e-01 1.119837113130772027e-01
2.125820415414404752e-01 7.906207600467018981e-01 5.095673300195071587e-01 6.025118618485811872e-01 7.222737893186251812e-01 -8.031504300759133574e-01 1.674390876923820826e-01 7.928688551108132865e-01 3.089495359496274851e-01 -8.702827180595354983e-01
2.687394965479030229e-01 -1.132007594031977232e-01 5.261017057851700984e-02 1.352334939948941772e-01 -2.053658033355733881e-01 3.495864970018263129e-01 -3.058799901511015037e-02 2.421509523690697774e-01 1.397894024582808370e-01 3.483386058215688363e-01
4.321994935175545449e-01 -5.386468829637985900e-01 5.564324177441801744e-01 -3.537874992772729876e-01 -1.771704427421021133e-01 -1.602559525903327620e-01 5.562798169641033352e-01 -4.455710794149493337e-01 3.267195685833944041e-01 -2.322685708992893450e-01
6.766387347234890104e-01 -2.550036001543870556e-01 -7.074584532560286299e-01 8.932583712407800025e-01 8.626010642852723065e-02 9.341072077569158028e-01 6.929450204352914922e-01 -2.708447988666320971e-01 -9.290677505436950590e-02 7.890342439403916774e-01
-2.185789235559509602e-01 7.060559542677161994e-03 6.375477049677093222e-02 -5.210852494815544356e-01 -4.268331210039565393e-01 -2.367500379080777484e-01 2.168896686568026755e-01 -4.049827535822880797e-01 -2.956086131795423455e-01 1.433644295845636352e-01
9.946778738378794608e-04 4.550683014074725918e-02 1.681524161763737341e-02 8.174142542858599259e-02 6.925292446556244666e-03 7.599750855927278614e-02 -2.944393292299285481e-03 5.505211109096022626e-02 7.855882493278351988e-03 1.875579850266973631e-02
-1.264479759266136372e-01 -6.032759836646156559e-01 2.757776318770840396e-01 3.312155580506491448e-02 4.914601916079452959e-01 -4.561570792528241713e-01 2.470379796007340922e-01 -3.982427752718815106e-01 7.146717763599367279e-01 4.417952092567287714e-01
-4.830096726399766283e-01 6.750405004318833502e-01 -1.036744759935821908e-01 -1.628115878378842418e-01 4.555500574313949835e-01 5.136970572410788360e-01 2.685843261278079153e-01 4.595615554068786524e-01 -4.627287916636247944e-01 -3.979186346347296510e-01
-6.507156473213678016e-02 -4.133226538809908202e-01 5.461549541211200426e-02 -5.785689531019748422e-02 1.537004886883125976e-01 1.779625619410552251e-01 1.127797665828978307e-01 4.085143914773022855e-01 -2.713561021111738913e-01 3.256275345319330494e-01
-6.774084150920145486e-01 3.952156076627585946e-01 4.481622984572043999e-01 7.199224091819546034e-01 1.306622323080603165e-01 5.890214190903729774e-01 -1.913521421534285782e-01 -8.454117622979784308e-02 7.054185577095283266e-01 9.197224905523151972e-02
-1.490450332514927922e-01 6.238800315797695673e-01 -5.614644683903416977e-01 1.914918342475059876e-01 3.063002937736634679e-01 4.260025422570783427e-01 3.999949123990247379e-01 1.154954611763966271e-01 -4.287386098776700682e-02 -1.581461088843881535e-01
1.196382672851203054e-02 -5.377113330561449946e-03 3.323940091860261292e-02 5.459868835147632660e-02 7.415746008725224159e-02 2.203346249734778120e-02 8.270919554522110362e-03 9.569162552077732642e-02 4.086257148580082349e-02 4.739723253516335555e-02
-4.907754106441052366e-01 5.993519420917324814e-01 -4.901018394947291856e-01 -5.610412128508298138e-03 5.723027992686569032e-01 -7.475758482501546620e-01 -7.993220688312855371e-01 2.622210260140767080e-01 -3.389400196102951845e-01 -7.029625847803729899e-01
-2.118065688671402769e-01 -1.557557530221322095e-01 8.023345673640049081e-02 1.386087735121489806e-01 1.409765487311361587e-01 -4.128091241667223854e-01 1.105302856388390431e-01 5.750959513644108290e-01 2.051224491170363373e-01 -8.227771119771408459e-02
-5.440334989724386894e-01 1.967470959491343652e-01 -8.097133900579697174e-01 -3.329903517774416288e-01 -6.752646856570772016e-01 7.873920820208434035e-02 -8.324123938492911101e-01 -5.071961636932553752e-01 8.002501195361727548e-01 6.870550745660255476e-01
4.739303466139051235e-02 2.842886194572808237e-02 8.522497106173365644e-02 -4.358600660873900023e-02 1.938494061946734529e-02 3.166531539294199782e-02 3.544500266609362099e-02 3.672868910445097751e-02 7.810160752769884640e-05 1.511428082415266182e-02
7.450425865066975795e-02 -2.038575188211431133e-01 2.926711219580335754e-01 4.334387894970892496e-01 -4.831649765432005084e-01 1.859939119656105477e-01 2.242759088580000282e-01 3.737745797884494542e-02 -4.940252105118986270e-01 -5.553505735960152512e-01
2.090361736608302157e-01 -1.125116765700321514e-01 2.089577158791004474e-01 -2.624165614330177185e-02 -1.899037950244149842e-01 -2.241939421893501816e-01 2.274162129645539154e-01 -2.384639264111542700e-01 -1.063808773785200334e-01 2.774045192637053514e-01
6.965868025572281574e-01 -4.799999177544628237e-01 4.768093003723469225e-01 8.245667894213404292e-01 6.134335851853367494e-01 -3.286091085914934207e-02 5.271068616530880657e-01 6.936985961180769378e-01 5.925106091769276606e-01 1.054213872411783603e-01
9.686192528248316336e-02 1.150679030138669345e-01 4.730650366134541152e-01 -1.432711027427303885e-01 1.860691808280676429e-01 -1.967719714270984854e-01 8.840595916783948460e-02 2.647767695294817036e-01 -3.721457333867707051e-01 -3.559610970848877676e-01
-3.568851341846029368e-01 1.337311885963520519e-01 3.852055999385023410e-01 -5.816061255050904988e-01 5.703610059202105509e-01 -1.208359944552356152e-01 7.210843590822439975e-01 -5.607892098938450642e-01 7.488324419827982470e-02 -4.131648328219202776e-02
1.548561960773179313e-01 -2.146017445797063494e-01 -4.088833804037378949e-01 1.248341532391223328e-02 5.148892325844252327e-02 3.030618070167378705e-02 3.724593276078023707e-01 3.776664313833003050e-01 -2.811071284816065233e-02 -4.816502518146441036e-01
3.044256175502879636e-01 -6.139608605899530280e-01 -4.686702722010098743e-01 3.028929684098679437e-02 1.541407746340748008e-01 2.915751088345662212e-01 -2.633721428753900695e-01 1.998955415364961352e-01 -2.636153549984566746e-01 -4.027584759799890946e-01
-3.659280944265021207e-02 3.779244820528253612e-01 3.169447019045217306e-01 1.810934149699336415e-01 -5.093877659733470759e-02 2.233067155579817054e-01 -3.222104353172611790e-01 1.833112449989617032e-01 -6.271988079273004002e-04 -4.143420889717858158e-01
2.500568614434637849e-01 -1.878762711770550764e-01 -1.561534646640503621e-01 4.513983270088456345e-01 3.866513387967928095e-01 4.687016523308289440e-01 6.905696383661378279e-01 -9.482804541333032800e-02 -2.888884818136357446e-01 3.425437048193108458e-01
-5.092095495034665298e-01 -2.110726382147936064e-01 -5.588127810559296443e-02 -7.072941059267342893e-03 2.652370002766724633e-01 -2.285437096727425954e-01 4.078045480950896057e-03 -1.834007073256018749e-01 -2.857681706801765142e-01 2.372094698125531143e-01
-1.407772533055663688e-01 -6.050766736581272842e-02 -2.135671649368889591e-01 1.966552841383797656e-01 1.635849811960980726e-01 2.391985920380769182e-01 -6.063442794923512569e-02 5.549492807568279229e-02 7.469797128324890453e-04 -3.200087592778103757e-02
2.103954798206459642e-01 2.422178251039902863e-01 1.713017893109841927e-01 -2.131618971614226699e-01 -3.641337786019277489e-01 -2.430324473180092704e-01 2.378116841363854261e-01 -3.088259605333572022e-01 3.496021646115693993e-01 6.538723540649722665e-02
-1.974477214532991288e-05 5.351431230532341932e-01 -4.410897881291535039e-01 4.749577357382467890e-01 6.461732927107221025e-01 1.768822386208916131e-01 3.234146317153950845e-01 2.757388104939249018e-01 -4.688941761302382050e-01 -6.461545730902773510e-01
2.801446565424137725e-01 -3.689228504384476914e-01 -3.870711729997876049e-01 -2.311903023471967578e-01 4.680391444155774239e-01 -4.228741663834068715e-02 2.081393832619559889e-02 5.141881437225205298e-01 2.603814514503284827e-01 -2.425763068153597435e-01
-6.601187364704576288e-02 2.961506436367437045e-01 -2.508116118427502483e-01 1.818562532112552033e-01 -5.115979056684265558e-01 -1.680113997573464968e-01 3.094923640399637743e-01 -2.795267880058519006e-01 6.667842329224672460e-01 4.495360852631066217e-01
-7.519482490223682036e-03 9.290860469566397661e-02 2.096629271127300465e-01 2.037877370021130563e-01 8.992046808052162055e-02 3.516619173517805397e-01 1.680156532293459459e-01 -1.087985231592559082e-01 8.597743243192708384e-02 2.513308845404972902e-01
