6.291425759515281158e-01 -7.949007872557845022e-01 -1.148112258444976413e-01 -6.197472938724586378e-01 3.220835007354566626e-01 -4.557071278911232759e-01 3.515756591338674020e-01 5.922913001445575532e-01 8.043461303974546173e-01 7.077604653567587389e-01
1.493321969758861500e-01 1.205485812636553772e-01 -3.876193020599568162e-01 4.041910523812741185e-01 3.954616325992472148e-01 -1.076210592506994523e-01 -2.522495797273340834e-01 -4.312875472797532694e-01 5.162210024157017907e-01 -2.684778538307056039e-01
2.786571679127415879e-01 4.415423093812070876e-01 -2.014755388598844787e-02 6.560263289310594992e-01 -5.672179551222458205e-01 -2.936279208004321517e-01 5.549256468920320540e-01 2.512834093307532157e-01 6.814759771591158977e-01 -2.657447939658054703e-01
1.594946843149946947e-01 -1.909754934565688622e-01 -5.323560196133107769e-02 -5.447501319853624568e-02 -1.530167709898185013e-01 -1.586725746126701198e-01 2.067441610326136714e-01 -1.703533926959927280e-01 1.501068754580283382e-01 -9.233976014086760220e-02
-4.383629897577885279e-03 -1.963904388777172171e-04 6.996269180279464373e-02 -6.925803403446206472e-03 9.030323500040861318e-02 7.503825856124510252e-03 1.740079033767849559e-02 6.414482185441687523e-02 8.939638102381179674e-03 3.121645381938267100e-02
-4.455900185845323436e-01 -7.469652135165790741e-01 -4.071130162721027512e-02 -7.938351289424543378e-01 7.016029446276704773e-01 -6.938054246617690879e-01 5.530943067840232708e-01 7.118881588431610341e-01 6.743824047428311763e-01 2.297375733780411822e-01
-6.136177182674363954e-03 1.581754495892088996e-01 6.048151891154647519e-02 5.438283787394099927e-03 -1.241309397615485838e-02 9.917387598979754415e-03 3.717117552746457276e-02 4.813585726638460772e-03 5.482299391270278877e-02 3.450615997204246020e-03
-5.348584623832105533e-01 6.801837117255342680e-01 8.169200195935975850e-02 6.853375920427008383e-01 2.256615139665106851e-01 -3.245200281311838020e-01 -3.838116281204839719e-01 3.201721620539318969e-01 -6.046449181777318049e-01 5.597110739405107838e-01
-6.999906542934083986e-02 5.908641789663207078e-01 5.497114536679615915e-01 -5.606949130519767177e-01 -2.789169747304808822e-01 3.701080080861609556e-01 -4.180076592547829484e-01 7.203907476771675977e-01 5.172418973735328773e-01 -1.900694269328321584e-01
9.621859944056530833e-03 -4.804823398979725727e-03 -5.152513671265966481e-03 2.301128559607892518e-02 8.605274656082302631e-02 3.340220833103981629e-02 9.800624035692285033e-03 4.202246939439296947e-02 2.223837573595733794e-02 2.137690972833369493e-02
-1.738420093736918470e-02 9.389251307006817038e-02 6.756454526123309434e-02 -7.453323217176437143e-02 2.219756195571526147e-01 6.503960338486120679e-03 -3.048371412346545170e-02 -6.185103843699578906e-03 2.718583270997394427e-02 4.901211429763573796e-02
3.422799386663442633e-01 -3.188911722625929479e-01 5.948322686104298151e-01 1.864141095663766623e-01 -3.493939793976802433e-02 -2.090237046256172015e-01 5.402889658814686857e-01 5.067882284434436224e-01 -4.532832719051434478e-01 4.087184050724856910e-01
-4.222896517174138942e-01 -4.386640453621586111e-02 4.418789847892626854e-01 5.806119994464477019e-01 4.666814214347841938e-01 -4.599959228088896790e-01 2.075528298844461217e-01 -1.354747628284509176e-01 3.160586505404546220e-01 -1.279126232702112176e-01
4.157017194158421636e-01 2.012408901134014050e-01 -4.649240025085694117e-01 6.360650729302746997e-01 1.748618900487194372e-01 5.393015132555296215e-02 7.428998184946025152e-01 -1.604961828614975550e-01 4.119134256658958937e-01 2.868011089990713525e-01
3.103858536733207774e-01 -5.497137390449112759e-01 3.597878038652025934e-01 -2.362472620359419295e-01 2.909334062988009895e-01 -1.805117692036561083e-01 -4.545987146696034986e-01 -1.668870138308151951e-01 -2.010923080427444443e-01 -6.829857931382388170e-01
-5.041873041393661603e-03 1.649679133100433528e-02 5.503892610311202777e-02 1.863884285168847590e-02 1.317207206583232044e-02 5.123597125502769162e-02 5.195504513118852190e-03 1.725925764379537429e-04 1.670875884847056181e-02 3.982928022263645257e-02
-4.136466872455999977e-01 1.010727808575618419e-01 -5.495875390316732334e-01 -4.721959420681905439e-01 -1.203284373951146215e-02 2.019083804149618133e-01 -4.063234012023664993e-02 3.635467577012742035e-01 9.802554328207654932e-02 2.453574663724827354e-01
8.297676246885236084e-01 -5.337673696279003899e-01 -7.693722005539297415e-01 4.700893624048533281e-01 5.959650505577505086e-01 3.149312130991284153e-01 1.115673529847678314e-01 6.657053086613445858e-01 8.042208578334385516e-01 -4.411910068788211237e-01
1.426510815945036554e-03 4.171828352120755812e-02 -5.889550517306156863e-01 -4.767242450520133845e-01 -5.779275058354398364e-01 2.851536138893966954e-01 -3.638345323233514450e-01 6.697630432642586173e-01 6.705143885767407552e-02 1.281538556010758043e-02
-4.557896091534178323e-02 2.467468988616025316e-01 -1.351048583600757969e-01 6.221691502296945731e-02 1.904148380162127285e-01 -8.887486201195018976e-02 -2.063526984783266849e-01 1.426833186230322958e-01 1.490303755617317094e-01 4.256130970521301154e-02
-9.753910480468244801e-04 -5.429528287203889969e-02 -2.393886740042761307e-01 3.672286743782089413e-01 -4.109955156600119119e-01 -2.538990505303076808e-02 1.795481303714159538e-01 1.891070786549005067e-01 -3.097512497674926313e-01 1.778865608842344903e-01
2.771799836795361127e-01 -9.280235436871020482e-02 -2.315845011058942082e-01 4.035397370295156771e-01 2.667412320594521602e-01 1.648205794773451305e-01 2.103929402264659299e-01 -8.894881712249504135e-02 -1.261269245929898253e-01 -2.133689122686831530e-01
5.926604052488004121e-02 4.217220506251412315e-01 -2.080437869974599563e-01 1.734473494929224258e-01 2.570697226286473569e-01 1.317703321691244545e-01 1.029088689076914503e-01 -5.854023309649351164e-02 2.469550513999856922e-01 -7.074941301603664134e-02
5.222876685856601142e-01 1.115488016414078604e-01 8.166471081410775490e-01 -8.842810203644122513e-01 -3.956413688961833430e-01 8.721959068677541393e-02 7.580195034078148764e-01 -7.725554427943792657e-01 -2.095829761733180863e-01 -8.076834819547074051e-01
-6.269497504653323006e-01 1.826380750645643924e-01 1.253056077835189470e-02 -6.586692377158438749e-02 3.364408881531079087e-01 -1.349092363512192361e-01 -6.826959783940759197e-01 4.622542575243674401e-01 -6.517839268113188034e-01 -5.989370465035680491e-01
1.132056960542204664e-02 -3.966593946613426735e-02 -1.621710412884859454e-02 2.473483688586781970e-01 -4.879088840749938871e-01 4.212256722275514176e-01 -2.062360098069631331e-01 -2.456729268854331710e-02 2.194616657934815029e-01 -1.160972975655849282e-01
1.708812999315741654e-01 -6.254913650040829776e-01 -8.090161669171164194e-01 -8.174011837276688730e-02 -3.101099162830386891e-01 -7.991386953295366302e-01 -6.673033912779280374e-01 -7.253873629093251507e-01 8.638837282445891441e-01 -5.172907205034189548e-01
3.684384374732527778e-01 4.733883259530859422e-01 -4.053968510631973665e-02 -2.683508054846677204e-01 4.397017080461444460e-01 -2.782484964722797827e-01 5.131139577535035468e-01 3.515855020924161800e-01 1.545690005760037289e-01 1.385174805620222882e-01
-3.188146921253760535e-01 2.899120906009215459e-01 -3.568315548907877166e-02 3.121487689477552355e-02 -6.898765355736014016e-01 -2.383444677793828681e-01 3.297821003069264512e-01 -6.526635968792974252e-01 3.855085785371321072e-01 6.907428507031283240e-04
-1.725723919847902410e-01 4.764310060978446115e-01 6.131334710461735504e-01 -7.006888186095334980e-02 -2.174377770567388346e-01 -5.391332613521759853e-01 -2.591538390919110868e-01 -4.102867296092113092e-01 5.192360709427268350e-01 3.599050828675047775e-01
-3.797119497961859991e-01 -5.411695229199234847e-01 8.693277914498854786e-01 6.497981304067876884e-01 5.104014001032582959e-01 -1.409542049721754231e-01 -6.761100645195641246e-01 -8.329304597625269979e-02 -5.779174040216610297e-01 -6.628217600974980472e-01
-6.653963183194482045e-02 -1.096046022520285879e-01 -6.915370231949449220e-01 3.337209699565165111e-01 -3.806615236338906638e-01 -5.807363978131239168e-01 7.978471842619119236e-01 -1.517110125038731994e-01 -1.317963972809805540e-01 3.540335524095539199e-01
-1.488185804634193921e-01 6.067633623132854259e-01 -4.887474078771220642e-01 -6.684428984655994554e-01 2.550086820396390008e-01 1.319532009747031720e-01 -4.299111183306914691e-02 2.541142458170264073e-01 3.151833218523926172e-01 2.486693683992463599e-01
3.096794612190447715e-01 6.347791934685621529e-01 -2.221151362566676224e-01 3.532443771281951195e-01 -6.145026316246244846e-01 -5.790542122979728257e-01 1.083127334909587264e-01 1.929021695920221380e-01 -1.166221458403893241e-01 -4.408199435938487953e-01
-3.417990226947240084e-02 3.169488011311738518e-01 3.513937162989604346e-01 3.133714917781553755e-01 5.176502407279967022e-01 -2.786846401198392886e-01 -3.703193742302849922e-01 -5.320755795800508753e-02 -5.642565789587934422e-01 -6.174335628055908215e-02
-3.525090261924175294e-01 5.896738900463849298e-01 2.751844524580955853e-01 4.293694653622700530e-01 4.016462024093832572e-01 -4.513256694126921431e-01 3.564470993146410804e-01 -2.620431306265165183e-01 7.176551059069189442e-01 -4.215415590589421946e-01
9.420334040301514555e-02 2.923260933983994406e-02 3.131024594159145108e-02 -7.743865488871900485e-05 -5.280745682518294369e-03 -3.047117943426216283e-03 5.265911498127984897e-03 1.524859119822685183e-01 -8.133367781571088084e-03 3.856623032770466891e-03
1.574697681460550114e-01 -2.430411101716269118e-02 1.811558299484783982e-03 -1.873339454632468315e-01 -2.632982420196472995e-01 -6.148488773796995793e-03 -6.352272258030579322e-02 1.153109158638883497e-01 -1.205274024758086759e-01 -3.051969043146163241e-01
3.830063801180505489e-01 -5.492354714983460617e-01 -2.860979455033986762e-01 -7.032675569928448223e-01 -6.877783426562351921e-02 -6.958361928770381288e-01 -2.028802205084911936e-01 -6.338450884717379274e-01 -2.117066812438803819e-02 3.106300311322737207e-01
2.740003212685852840e-02 -8.848801491581639866e-02 2.238622844323096689e-03 -1.067156014655020781e-02 1.674424089850539699e-01 1.007898611924537037e-02 7.252491016422801806e-02 7.296063552110121364e-02 -2.510729600270301259e-02 7.461033926560860230e-02
1.128200984964213699e-01 2.508722740887965874e-01 -3.694426118148958632e-02 1.081665999737364686e-01 -4.386822152415904147e-02 1.733492980148192697e-01 -2.917444596960585002e-01 1.859517406590422417e-01 -2.229274387853431069e-03 7.204437917647285583e-02
-3.847733874337819771e-01 -4.032785561811333408e-02 5.799645975000370379e-01 -5.050949881553647158e-02 -2.531600193500608276e-01 7.123679798787295736e-01 -3.189043317564800861e-01 -5.184786202673159483e-01 -4.080330354694430284e-01 5.430290118260253651e-01
5.803884879035937638e-01 -7.597583706261866465e-02 -2.596686666247937092e-01 6.618788011150822381e-01 -2.619545994938928257e-01 2.616662251547874005e-02 -7.756292733754028834e-01 1.503501674959133727e-01 -5.355062841907614057e-01 7.418877402761427930e-01
2.513343685810394690e-01 1.732799846327663651e-01 8.993792459198875558e-03 1.166448591717468841e-01 -7.380690745850412848e-02 6.078013633930261228e-02 4.381204425113168627e-02 5.487029619416164405e-02 1.186639800102720771e-01 1.417652747244820544e-01
-5.197659774650482678e-01 -8.463965039488696718e-01 1.546562734478560686e-01 6.035572052790334485e-01 -2.752431800267981510e-01 5.897048299340792443e-01 -8.403766115239992285e-01 -6.959276776617216720e-02 -6.877071536886623093e-01 6.392123719235244250e-01
-6.413661604353509266e-03 1.896558563550789639e-02 4.048860884662625059e-02 -2.476307864420733418e-02 -1.173278695835327330e-03 1.777752128819206495e-02 -7.015259960207179124e-02 4.999632679111115641e-02 -6.688408166129053423e-02 -4.893618511085393030e-02
2.006970844016499056e-01 -2.360745691121405310e-01 -4.386857366289644289e-01 -2.976699017944807180e-01 4.326808291551563768e-01 3.657879245461366780e-01 -2.069588122076910786e-01 -5.369374743605264122e-01 -5.185700155886816543e-01 4.936584269785937451e-01
2.808421291114062690e-01 -5.134433796792332583e-01 -2.100098057878233351e-02 -3.419940552392103927e-01 9.715455015532258043e-02 -2.955278893299108089e-01 -4.060205825578720451e-01 -6.463416102513971917e-02 9.988294724583433176e-03 1.797835722471869402e-01
-1.140848393869167421e-01 -2.911794632358976620e-01 -7.899557932622468248e-02 7.212348104757752842e-02 1.680617549282951151e-01 2.199111932734429120e-01 2.402142846241291652e-01 1.997986680065713672e-01 1.255778842825447938e-01 6.994981870865693563e-02
-8.561330602502262854e-01 4.484950220759766348e-01 8.852269468339103720e-02 7.393499093361587393e-01 -2.689002607774278464e-01 -3.178928846621988380e-01 -1.515192022159714269e-01 7.621170893956648040e-01 -5.123976062147785060e-02 1.402182993803307576e-01
-2.437053884194842757e-01 8.402105576313444180e-02 5.655026421879737475e-01 -4.030582887525089864e-01 1.994522697004522116e-01 8.066777542094404341e-01 1.951713153577314952e-01 -7.684007451516696070e-03 3.367649538079350857e-01 -4.148266255969474958e-01
-4.717617266313972949e-03 1.343489299984028940e-01 -5.482460944300595468e-02 -1.361790184618940358e-01 1.588330352890701125e-01 -1.840809100938172460e-01 3.422373005970291704e-02 2.609585331250685938e-02 -5.330312095151713142e-03 -1.314170350851845970e-01
7.376601655343846542e-02 -3.472081653739221303e-03 1.724380187960049271e-01 -1.728923997783910621e-02 -3.544850268492067552e-02 -4.602493827943030663e-02 -1.514347408614337767e-02 2.605882695766632146e-02 -1.313215482864314998e-01 3.528796337280620116e-02
-2.857699252540871204e-01 7.661565697322998414e-01 9.160037596719448061e-01 -6.210585656822763534e-01 -1.043056668289908256e-01 -2.567187889144998403e-01 -3.155613588836320149e-01 -2.244461527708812021e-01 6.818385780004241337e-01 -4.029286042142373181e-01
-3.390770454886974372e-01 -4.367373500334404413e-01 -4.448795030796388050e-01 2.747894293295360391e-01 -2.322123200968254086e-01 7.262312518139830697e-01 -2.093014498231079157e-01 -5.143639330880747096e-01 7.528792173854662040e-02 4.393410058514379268e-01
-5.075847769989398905e-01 4.419535953048675525e-01 5.394130660878068140e-01 -3.209896811889374479e-01 -1.560791515026629661e-01 3.177926273803901025e-01 -3.198791269736749876e-01 2.312454217000352585e-01 -5.809659920967165103e-01 -7.120980919627769579e-01
-2.350267440198246793e-01 -4.530083840288788855e-01 -6.251645436112174270e-01 -3.909737442601300961e-01 3.798949875566053902e-01 -5.368170375588360299e-01 4.785834927681392043e-02 -3.173396811002607287e-01 -3.666954977894623102e-01 1.474196703553781185e-01
7.119794076618775336e-02 -4.283013186455706528e-02 -2.439051466646714461e-01 1.732074718643460964e-01 2.715916695332800876e-02 -9.354560949356285904e-02 6.642038578010811545e-02 -3.180537875979121479e-03 9.962120498255425116e-02 -2.265420312821589399e-01
-2.603424462592270339e-01 1.647399212105977728e-01 1.971380895109076659e-01 -1.478418956794967654e-01 -5.772269123510772593e-01 5.644838193772716561e-01 -1.282871379121626465e-01 4.408368003895370424e-01 -1.779203398755120347e-01 -5.501772604952946955e-01
7.761203724157160477e-02 3.901082279396714952e-02 8.892180122565290779e-03 7.918911998709191047e-02 1.104871514337696647e-01 1.050738728577441800e-02 2.605816944790685999e-02 7.870141578473638117e-04 -1.828147557833361900e-02 8.176609784387434826e-03
-5.660269176252794576e-01 -2.821558032432839314e-01 -4.569254034412905119e-01 6.322428723986842636e-01 -4.824259293986640773e-01 6.938571402785022046e-01 -3.440316091759503814e-01 -4.603219004833656314e-01 4.824269715195734221e-01 5.606684629788637464e-01
-5.398014963617527862e-01 -7.967368090962696769e-02 3.621717625015812292e-01 -3.979299106558590454e-03 8.202188773630150198e-01 -2.675156144087459387e-01 -2.275844746388537287e-01 5.786424166620675047e-01 -2.557106180189529510e-01 4.229331642921174694e-01
-7.592498999365086820e-02 -4.307172080680058551e-02 4.906431690596203127e-02 4.607731347257634780e-02 -8.048867711913071377e-03 2.029561303820227869e-02 4.121875986693127741e-02 -9.384968189146237344e-03 9.577426720724159168e-03 1.088528162395760307e-01
-1.047356235158874160e-01 2.424642302536901550e-01 -1.537384138873806524e-02 8.177288118830287889e-02 1.828657358975550595e-01 4.345343246357206979e-02 -1.662435959243843964e-01 -1.428430564004756487e-01 -5.437432306860476294e-02 -8.828840551286791516e-02
1.177976792897836127e-02 -7.473933499304870332e-02 1.352086221403190312e-02 -1.771130014661157492e-01 1.043473818191142932e-01 8.043916219332312989e-02 -8.592050019314811937e-02 -2.596667372492870163e-01 -2.823032996925228799e-01 -5.595328083377656414e-01
5.224115613036679484e-01 -1.158613775729509660e-01 -5.299964021879843834e-01 -5.649638124643437953e-01 1.259552626730550129e-01 8.692243278947449359e-02 -5.175081723701553393e-01 -6.722130035890939992e-02 -6.250019199193300734e-01 5.147500841944283589e-01
4.618991714848452168e-01 -6.366598795329373450e-01 3.784024188513385178e-01 5.749010086543663300e-01 6.305103777741258853e-01 -3.048813837522171277e-01 4.014223824484843828e-01 1.701390183661131983e-01 -1.255736730464953807e-02 4.825691999426006684e-01
4.230268244804874511e-01 -4.486194344128413003e-01 -3.885027000793695451e-01 1.684791033047554343e-01 -1.394179319193617206e-01 -4.152988534170543033e-01 5.070926582992885123e-01 4.254294405386387368e-01 -1.281573557940282049e-01 1.127714217840515565e-01
2.120280479704025334e-01 7.908378585171892405e-01 5.093495328054725713e-01 6.022241699732782116e-01 7.223028456147646548e-01 -8.030477894912908532e-01 1.672833351020065751e-01 7.932765224586101338e-01 3.090015464135276169e-01 -8.704612388094559172e-01
2.846762520591274992e-01 -1.174813764729100291e-01 5.373827592362766942e-02 1.360909827796711047e-01 -2.052599373158648099e-01 3.751571222556570606e-01 -3.660734484711381659e-02 2.356810694251801619e-01 1.440157667241527828e-01 3.456199624456524622e-01
4.336712708355400236e-01 -5.446419374378257405e-01 5.578201224582647333e-01 -3.540149740488806041e-01 -1.765543559153997799e-01 -1.587230237819233780e-01 5.541195982735869219e-01 -4.475051071357662447e-01 3.273416884640377167e-01 -2.340981901175851754e-01
6.766387347234890104e-01 -2.550036001543870556e-01 -7.074584532560286299e-01 8.932583712407800025e-01 8.626010642852723065e-02 9.341072077569158028e-01 6.929450204352914922e-01 -2.708447988666320971e-01 -9.290677505436950590e-02 7.890342439403916774e-01
-2.179169235928845316e-01 6.300053135009989203e-03 5.909691733234747474e-02 -5.257031656402957331e-01 -4.299684097100118785e-01 -2.346644703384510311e-01 2.212155240109004994e-01 -4.090698465348870938e-01 -2.982929005072765816e-01 1.445741809406337897e-01
3.327033832384409303e-03 3.806650489712395252e-02 7.858182601230084829e-03 7.501911246245233922e-02 1.937726586134487809e-03 6.291213705944603829e-02 4.750953064533337475e-03 3.863983308369953185e-02 9.613195732529170728e-03 1.743044916141026079e-02
-1.259392944668008829e-01 -6.032264237615765357e-01 2.771184922952571461e-01 3.296558071219429092e-02 4.901440960823594817e-01 -4.555473907741327544e-01 2.451827645607239925e-01 -3.972533207917506859e-01 7.157806513092711542e-01 4.423862087500601281e-01
-4.828224631842837899e-01 6.711076832924385283e-01 -1.040951570087348538e-01 -1.637285217661874626e-01 4.568103044579929217e-01 5.141891712436853501e-01 2.679825903881660198e-01 4.603399199082471305e-01 -4.641074131927171442e-01 -3.977368734122115890e-01
-6.717296044973800062e-02 -4.222587615469738376e-01 5.769779155088117228e-02 -5.615503688896032047e-02 1.616088848945460010e-01 1.723391333939839898e-01 1.150619621014881133e-01 4.141159778674466385e-01 -2.800498171625807609e-01 3.306509815987854206e-01
-6.775076851496277808e-01 3.952707330764295701e-01 4.482292584941861002e-01 7.202917947918665575e-01 1.307042776569679876e-01 5.892691080540489734e-01 -1.913677364102056577e-01 -8.578398198423481391e-02 7.055983718962820506e-01 9.197883585105677551e-02
-1.491022819332178395e-01 6.241358380967085839e-01 -5.615234067008973984e-01 1.916113520960690264e-01 3.064612830480932804e-01 4.237777116004338707e-01 4.001451277052598954e-01 1.155516570747029403e-01 -4.283114517444105984e-02 -1.580960336486857409e-01
1.293196336112067794e-02 -6.492368669863720146e-03 1.964159307533014029e-02 4.770895253298716027e-02 6.373023960080057004e-02 3.197855817949342427e-02 6.603055670256944600e-03 7.261303363907166408e-02 3.361405874917832576e-02 4.203936542569944312e-02
-4.907638919565843194e-01 5.987399629370174781e-01 -4.900424737557224630e-01 -5.573512831326733231e-03 5.722841994376102193e-01 -7.475726915950966500e-01 -7.993090512220482058e-01 2.622844850224706481e-01 -3.389093480536003455e-01 -7.029570251032239980e-01
-2.142950679975776374e-01 -1.662563545182948466e-01 8.155429837994114528e-02 1.390896743397188884e-01 1.433909341124907089e-01 -4.172631980015737430e-01 1.118577522941700958e-01 5.743707531350135120e-01 2.079392517842880428e-01 -8.281626620026395769e-02
-5.440700802495938015e-01 1.972701763775772665e-01 -8.111703120787827626e-01 -3.334934631319540488e-01 -6.753508371148444489e-01 7.852556953016023855e-02 -8.326529340397104129e-01 -5.072754903861298459e-01 7.997965768365409289e-01 6.877599180748199537e-01
4.505265449916872472e-02 3.336949521244612915e-02 7.738506676256329264e-02 -5.966694514583098519e-02 1.597541041033918169e-02 4.109932173880536874e-03 1.919026322528679523e-02 1.974987820991353990e-02 -4.731397773063767548e-03 8.324205184331910298e-03
7.566511336799219833e-02 -2.066435622073252154e-01 2.922576493260596320e-01 4.352061192839146164e-01 -4.842853904245340568e-01 1.837622839207130598e-01 2.277572949349079001e-01 3.661087708046229655e-02 -4.965622937423230243e-01 -5.572311134285433676e-01
2.371473400442813406e-01 -1.244086420026400686e-01 2.405335146598990004e-01 -3.297829331229099742e-02 -2.111524282321399770e-01 -2.415571540481611379e-01 2.254823642693279673e-01 -2.703964350476544265e-01 -1.274103208001544085e-01 3.088434936413851917e-01
6.966051265543291571e-01 -4.804171784316790261e-01 4.768735485775293381e-01 8.245778962627600128e-01 6.134775465287861662e-01 -3.284607499125755115e-02 5.271049867491720553e-01 6.937017329658422549e-01 5.925052974397195804e-01 1.054262177904504855e-01
9.527967050763860857e-02 1.156250093516364014e-01 4.697650211106139673e-01 -1.437837354281265023e-01 1.874403640604943855e-01 -1.971944316489344651e-01 8.871621898133276451e-02 2.658532621133008478e-01 -3.727452986398723800e-01 -3.563888684067741952e-01
-3.569670661719044347e-01 1.337497215281052143e-01 3.852618474379521651e-01 -5.816895466456823982e-01 5.704435178515763205e-01 -1.220729038609640466e-01 7.211891162427456203e-01 -5.608706544692992901e-01 7.489397446665610469e-02 -4.132044737557668407e-02
1.582667835756741970e-01 -2.191091477746045513e-01 -4.182390827840423153e-01 1.452122642266162958e-02 5.131150602656717880e-02 1.364329193871390705e-02 3.821388299544534739e-01 3.902495140452065248e-01 -2.904227510812346785e-02 -4.996771270998250358e-01
3.049765921410650948e-01 -6.148945148425992713e-01 -4.723383619327813365e-01 3.028249897605550175e-02 1.547138450564386758e-01 2.920207854553319993e-01 -2.635421009019013883e-01 2.003693073453038931e-01 -2.661132047488522501e-01 -4.031855952522399034e-01
-3.687819772169664834e-02 3.743629899051151844e-01 3.190557144356285790e-01 1.827397053391337511e-01 -5.574431113349371386e-02 2.230903989593529813e-01 -3.240474183520506979e-01 1.846799959119883594e-01 -4.520164433898884613e-04 -4.176135771735209334e-01
2.504854369150385507e-01 -1.877544931787984428e-01 -1.567046226528313879e-01 4.523324949288515251e-01 3.873279963565367523e-01 4.665006968281918409e-01 6.926396822422666855e-01 -9.362621045050319168e-02 -2.923397115499337673e-01 3.409099722024099277e-01
-5.120371082016087483e-01 -2.158177741345660705e-01 -5.448497203865813876e-02 -8.555938937061408414e-03 2.652664262505857184e-01 -2.437304770085053918e-01 5.553815148366000182e-03 -1.840621051938702846e-01 -2.861678895371959075e-01 2.402127934143874766e-01
-1.762060339257282560e-01 -7.071167137367058431e-02 -2.547491884556727926e-01 2.496760782081088870e-01 1.756866983655013537e-01 3.100242243226883354e-01 -1.133183690222002021e-01 6.348048417116121389e-02 -7.119437557619758255e-04 -4.383180786623381425e-02
2.136131458020513463e-01 2.408017984658267774e-01 1.729580320409762895e-01 -2.154041089519070917e-01 -3.649197351593995720e-01 -2.430664004874951156e-01 2.320789413931519940e-01 -3.162334787367088729e-01 3.525841746642517371e-01 6.523635687257106630e-02
-1.974690801628357228e-05 5.344278549684485791e-01 -4.411040989025131753e-01 4.750186299839728732e-01 6.462541431572198514e-01 1.769303140149335318e-01 3.234324399645374104e-01 2.757788487289180024e-01 -4.689155368800234647e-01 -6.461804094062327808e-01
2.830191353212276884e-01 -3.726914648920678363e-01 -3.959393017534494907e-01 -2.335047263700347486e-01 4.727665567607699515e-01 -5.128162182679929515e-02 2.099765673451512230e-02 5.194306521370674057e-01 2.628624010415972490e-01 -2.452390774584011779e-01
-6.837771999252953425e-02 2.970861189074990860e-01 -2.511292713351995221e-01 1.813957642370776502e-01 -5.122437740861904842e-01 -1.677951544502250258e-01 3.094136268124801359e-01 -2.784113544671074081e-01 6.680478164561503007e-01 4.508867821024561962e-01
-2.096786795059086411e-02 9.750671924639733867e-02 2.229127212953584403e-01 2.100254840885949770e-01 8.164256916368066441e-02 3.691481108641282427e-01 1.718486206200941224e-01 -1.049068114675413693e-01 9.038138209303929471e-02 2.628198957591111329e-01
