6.297766498486663256e-01 -7.978901038618708697e-01 -1.145711008536096781e-01 -6.201020864451800563e-01 3.228608288389124836e-01 -4.557729724988443532e-01 3.511128787201351353e-01 5.925874145286353922e-01 8.039208996335381885e-01 7.083772998456274728e-01
1.497162136721236492e-01 1.206523149052629584e-01 -3.893728503276803754e-01 4.036453005601333688e-01 3.965072967855938768e-01 -1.089598645341392363e-01 -2.520831764641812689e-01 -4.318837041632612173e-01 5.167068908704529617e-01 -2.685209924189727038e-01
2.794860264866678157e-01 4.419069425046109889e-01 -2.036212133298242327e-02 6.572282279780783387e-01 -5.684960630622858391e-01 -2.938354355380410343e-01 5.563292789247304970e-01 2.494148494036797781e-01 6.813954286612117217e-01 -2.659442692192059976e-01
1.589438047593020598e-01 -2.346541394764699029e-01 -6.743767367880584840e-02 -6.889080950158624206e-02 -1.862833482177813083e-01 -2.150859219984571913e-01 2.600597026346497254e-01 -2.259080478392432312e-01 1.850811257482099237e-01 -1.191875198930645585e-01
-3.120631521877496525e-03 -1.384551836374581062e-03 5.330159578962141709e-02 -1.449157105925022969e-02 8.575233685559559282e-02 5.789820912257197076e-03 1.211584217853944531e-02 5.271617058636710040e-02 1.963930739854586466e-03 2.655699270541027335e-02
-4.456041171532517109e-01 -7.474783564772577993e-01 -4.072779505184057763e-02 -7.938076267991783785e-01 7.017595385175369183e-01 -6.937691195891797502e-01 5.531750845880003542e-01 7.116890463151801516e-01 6.745274185615596219e-01 2.297654987939899696e-01
-5.804757439818076722e-03 1.515862115983873937e-01 3.989476844931545696e-02 5.392763946344948656e-03 -1.573154060958201206e-02 1.030960493183607704e-02 4.665558246431586453e-02 3.958689617455945250e-04 5.020418783635555160e-02 -1.380942041691527421e-03
-5.352196768654090553e-01 6.809322858991788685e-01 7.919864341877477787e-02 6.862256798286595627e-01 2.262131334798581084e-01 -3.247026185766624384e-01 -3.840831139594417798e-01 3.205309580922072743e-01 -6.051618370182076934e-01 5.603774071607925400e-01
-6.887468159226153852e-02 5.907209155846752102e-01 5.510803771835035558e-01 -5.607892521103864381e-01 -2.793723347090220077e-01 3.695337206784177209e-01 -4.198454922857043914e-01 7.189680370152017330e-01 5.169601544209514454e-01 -1.892832095138897996e-01
5.775197758241456744e-03 -7.032768477058629585e-03 -4.839076419681522488e-03 1.890887161768584762e-02 5.993813792533900925e-02 3.613976509249329505e-02 5.839878821111066896e-03 2.836080620722558968e-02 2.320220559153085907e-02 2.040334883740237484e-02
-3.012340598932951308e-02 7.717690438619410898e-02 8.985654584088784147e-02 -1.129012336294444863e-01 2.489859115328555972e-01 -1.922782827148201328e-03 -3.593127786612062419e-02 -1.793956746816233183e-02 2.809058806791969731e-02 5.307951408898870654e-02
3.423658346293300125e-01 -3.189403967437438037e-01 5.941664241301422011e-01 1.864538755736812881e-01 -3.493904552017567527e-02 -2.090574868318460788e-01 5.403853443759721875e-01 5.066979040158963166e-01 -4.533620558660172439e-01 4.087959412747437793e-01
-4.248083081191745825e-01 -4.325479696688146886e-02 4.452450133527783294e-01 5.845614911885830267e-01 4.661872674826046947e-01 -4.679940269119352569e-01 2.078369552071031856e-01 -1.353214260628351762e-01 3.174296820191146451e-01 -1.292463748096273068e-01
4.193848798288760116e-01 1.982930873382769965e-01 -4.643752498273570617e-01 6.389372843586705875e-01 1.750511401411297963e-01 5.357634315230173916e-02 7.432084285524408473e-01 -1.640788387587450992e-01 4.112080811244991363e-01 2.871952285403377436e-01
3.109344002063760826e-01 -5.499930942887459873e-01 3.565077599539497877e-01 -2.368034522021046084e-01 2.905897040044712609e-01 -1.815349608162178940e-01 -4.554647425220126888e-01 -1.668607443597248108e-01 -2.004392960050659089e-01 -6.855311778326131922e-01
-1.056499483647707844e-03 9.272767675389523290e-03 4.869464292280378109e-02 1.417186565866723411e-02 1.062185422946239181e-02 3.454962582053687503e-02 9.203691545817184808e-03 2.198872014881663763e-03 2.223593985038890483e-02 3.866930715865907198e-02
-4.348885016114376612e-01 1.081533081887382231e-01 -5.672792203357387431e-01 -4.893166850304423998e-01 -9.015438125045330611e-03 2.124502424374238030e-01 -4.042460244686683912e-02 3.735942419412962567e-01 1.010813601490063579e-01 2.416978280462839246e-01
8.297777845794046536e-01 -5.337763721153916396e-01 -7.693908173009139650e-01 4.700990447700464925e-01 5.957562687166387816e-01 3.149368082833314819e-01 1.115754860785877767e-01 6.656980046355146508e-01 8.042118631317837218e-01 -4.411787795599381723e-01
1.751596127373222008e-03 4.227035572518478279e-02 -5.913409632020658613e-01 -4.777254267694321377e-01 -5.791591397178840195e-01 2.860072400269569326e-01 -3.646397520127704905e-01 6.675191062843000012e-01 6.739914238397887170e-02 1.284847796687004114e-02
-5.499806546574394911e-02 2.683066893206386139e-01 -1.425268572651204879e-01 5.760389096618716287e-02 1.842349566587181409e-01 -9.712047526273687170e-02 -2.307870933006938852e-01 1.661482158330558068e-01 1.640734852147801570e-01 2.390238561342798371e-02
2.833420373552888397e-03 -5.627470310468819792e-02 -2.516520515641436084e-01 3.765384460898557606e-01 -4.221478485839414430e-01 -2.444544218827490387e-02 1.867330061209163672e-01 1.796853107418135420e-01 -3.213369114183097786e-01 1.856094642114325677e-01
2.836569495805891794e-01 -9.485468367586211147e-02 -2.510927299457008099e-01 4.116584472875759459e-01 2.718783656559644601e-01 1.678295481103258824e-01 2.179030903608389358e-01 -8.727536389070990330e-02 -1.288230124341056548e-01 -2.146215807865108904e-01
6.296431703652409506e-02 4.398782009172064189e-01 -2.300579316787278172e-01 1.816093136747805592e-01 2.689305523004429932e-01 1.389235188934584975e-01 1.070874756022187346e-01 -7.510428793465709352e-02 2.577183172302369152e-01 -7.261874585024694073e-02
5.222964792124407118e-01 1.113947597137212864e-01 8.166732116186320445e-01 -8.842945540194360188e-01 -3.956699595049638640e-01 8.723026380486655074e-02 7.580646943575357621e-01 -7.725963283232645251e-01 -2.096529213332553876e-01 -8.080582424960057741e-01
-6.277955557359657934e-01 1.828896841557250130e-01 1.145307168009181316e-02 -6.578739901980258653e-02 3.369699007517806821e-01 -1.377421702016451699e-01 -6.842179325341708473e-01 4.651199242718976889e-01 -6.529937726998162884e-01 -6.043533109790231173e-01
1.247779610908254962e-02 -6.110919517189652983e-02 -1.666616316295263175e-02 2.573065380409137459e-01 -5.010311476723182667e-01 4.394975802683585009e-01 -2.136170943688706358e-01 -2.430482126267352258e-02 2.281219814753585595e-01 -1.172661922494010467e-01
1.710384794903299088e-01 -6.255044474661256571e-01 -8.100222675175435816e-01 -8.163523986250847964e-02 -3.101405269278113552e-01 -7.990860813775744198e-01 -6.674495618026653476e-01 -7.254141664102586873e-01 8.641672366427638474e-01 -5.171140927644096719e-01
3.696875395166998590e-01 4.748842022256236084e-01 -4.061099361600812446e-02 -2.685097249880264436e-01 4.384288695548051451e-01 -2.826194328458160321e-01 5.154617876708895707e-01 3.534032726273707015e-01 1.555846123054009378e-01 1.386968464270039725e-01
-3.192254506626970301e-01 2.872752978169719751e-01 -3.499374368602971297e-02 3.074877774674393202e-02 -6.915831435831303331e-01 -2.430293813533754566e-01 3.282579678046541605e-01 -6.549800723792303936e-01 3.873875127417112374e-01 1.307646060374690906e-03
-1.741946842455900368e-01 4.796627918832299109e-01 6.163158269536552769e-01 -6.823022881842502607e-02 -2.275542983257212437e-01 -5.426774752189502671e-01 -2.593107709463849386e-01 -4.153789217056524374e-01 5.231373836288162327e-01 3.648132862549054445e-01
-3.793015645427625926e-01 -5.446368913902320807e-01 8.692212033712855002e-01 6.491461654616852428e-01 5.118602023838247916e-01 -1.406636185133960659e-01 -6.776730170796418928e-01 -8.286947870421866591e-02 -5.799826961512923873e-01 -6.625662592402588036e-01
-6.626562948592434887e-02 -1.097801180668211835e-01 -6.930160131470161078e-01 3.341151876198068527e-01 -3.811269115973233146e-01 -5.851723446376785320e-01 8.002111432505445432e-01 -1.503677393140233631e-01 -1.320290096878553310e-01 3.516551150141637994e-01
-1.485995855351670281e-01 6.082810664339687312e-01 -4.899481846513056293e-01 -6.696898871307980228e-01 2.542746934272717696e-01 1.317573988488267012e-01 -4.247082012842889193e-02 2.497507936224817038e-01 3.142512672922836425e-01 2.517073403793756992e-01
3.111629297501697922e-01 6.370764870086321752e-01 -2.226171986662252578e-01 3.558220807741941383e-01 -6.233549146739489899e-01 -5.818685093009369202e-01 1.095202923417941399e-01 1.961323261669767615e-01 -1.149919840206361510e-01 -4.427505716365044419e-01
-3.358433367564852418e-02 3.146319661222078956e-01 3.525938485914947851e-01 3.139894542728766114e-01 5.181362880610338451e-01 -2.806620391669076842e-01 -3.710100181377737338e-01 -5.429882730786526890e-02 -5.649901623129077732e-01 -6.144595320338181593e-02
-3.530903356143427763e-01 5.923919991412083252e-01 2.734182946479418730e-01 4.311363211741798818e-01 4.064387815392073722e-01 -4.505049872325801452e-01 3.587906815679532957e-01 -2.674179935014712184e-01 7.194997125543342031e-01 -4.229989726707709674e-01
7.093255830673649009e-02 2.196644632288289808e-02 2.866354382390809072e-02 -8.381247547309990387e-03 -6.317581581525681840e-03 -9.500709016228995121e-03 4.527318395114561522e-03 1.306016608858565353e-01 -1.117004535716936003e-02 -2.616135446729420718e-03
1.863722500745772226e-01 -1.938589516272541322e-02 1.470339757726004531e-02 -2.240392292930304674e-01 -3.304644136265209586e-01 -6.342040626663517262e-03 -8.171069954612779351e-02 1.464279902786670695e-01 -1.267506518673583715e-01 -3.526161266299442931e-01
3.838403625257390539e-01 -5.502677469071456384e-01 -2.873782313266552979e-01 -7.044931493231644248e-01 -6.886394471525637828e-02 -6.992922483721736304e-01 -2.018582584495434151e-01 -6.334967782036109440e-01 -2.139992417378407466e-02 3.047830474572963411e-01
1.862354063174469221e-02 -1.120965963014611405e-01 6.786411743934689031e-03 -2.218945704088271659e-02 1.659313365903912207e-01 2.554056844246165373e-02 7.499483396803882651e-02 8.985575976506461615e-02 -3.618263860515421454e-02 9.242195006221383402e-02
1.198709062006285825e-01 2.557817574478913336e-01 -4.267314581936882539e-02 9.233667397555204992e-02 -5.055922244719562864e-02 1.975829951496686221e-01 -3.241981340615941454e-01 2.015036725260024864e-01 6.889709909226355710e-06 7.633534157930253750e-02
-3.910889242893280660e-01 -4.282482819344351349e-02 5.814458639878031798e-01 -5.025232194493652743e-02 -2.547128859205536888e-01 7.157012704453959984e-01 -3.187697442855683683e-01 -5.252661971715246736e-01 -4.081456678515495429e-01 5.390389720415292851e-01
5.805092656798196415e-01 -7.672815096324303585e-02 -2.597040858434039867e-01 6.620559421995512173e-01 -2.619473518550806679e-01 2.594464799513616915e-02 -7.757252201747273368e-01 1.501851854695042399e-01 -5.355320297207279978e-01 7.419989089989270648e-01
2.603390180787591990e-01 1.814624964885478142e-01 5.716407309047586739e-03 1.214487479141140858e-01 -8.049678757298024678e-02 3.897058259847626521e-02 4.349400791983486919e-02 6.085266647440748522e-02 1.262310515741692507e-01 1.488349570986878256e-01
-5.194099113079631014e-01 -8.472463890580166357e-01 1.534124602508389890e-01 6.033071214548928474e-01 -2.747262731135173275e-01 5.899009243247670398e-01 -8.405966110880397357e-01 -6.929227943579753524e-02 -6.878500008879532279e-01 6.392095038500158477e-01
-1.797342909315504875e-02 3.528485807604336832e-02 7.846054435936443416e-02 -2.403251569024658293e-02 -5.964379478122121270e-02 -4.811829459097997919e-02 -1.162662022422203678e-01 5.249423440554148307e-02 -9.791776738379956435e-02 -7.310279407282893605e-02
2.026165260990046013e-01 -2.385543236840667325e-01 -4.418334783012267675e-01 -2.973730134889406296e-01 4.313490796891867318e-01 3.678873177421811413e-01 -2.054836859767982249e-01 -5.443173236957151717e-01 -5.227880110365965560e-01 4.987400754601314379e-01
2.860930226587032332e-01 -5.228358120999909708e-01 -2.237225474427443142e-02 -3.485594209827455603e-01 9.650548367081636381e-02 -3.016124278982545981e-01 -4.232832128731205401e-01 -6.731863643852697976e-02 1.101051914374909235e-02 1.833093211381179588e-01
-1.207797542626125320e-01 -3.070729922031462666e-01 -8.365073909966388999e-02 8.266437104897951527e-02 1.539184909074607643e-01 2.316046383870291603e-01 2.584828801763041639e-01 2.190101717451616026e-01 1.388704212937891813e-01 4.987148752300060717e-02
-8.569320930221921984e-01 4.481091653448449064e-01 8.875900345289328142e-02 7.379766750335602365e-01 -2.691261843567622214e-01 -3.180829442313470312e-01 -1.516486325175242234e-01 7.628353510985556030e-01 -5.121725875711265891e-02 1.404553798951141130e-01
-2.469281798107644255e-01 8.425344562298764384e-02 5.666333528200527825e-01 -4.038973566326545250e-01 1.999670488795070866e-01 8.081469119874917784e-01 1.954938294432777279e-01 -7.714059640277898082e-03 3.374031921749123808e-01 -4.155106978381814531e-01
3.129938050373595997e-03 1.499825053466947722e-01 -6.976584911956387747e-02 -1.656808398342077826e-01 1.941173953086923754e-01 -2.248731394977582232e-01 -1.068483079734461501e-02 2.315171950622452526e-02 -1.496819740978609994e-02 -1.522545221107532154e-01
7.773855783430956568e-02 -3.031950845307989847e-02 1.589112371305265725e-01 -1.190189082207455604e-02 -4.116545692529452460e-02 -5.339045271684439431e-02 -2.978776936091845004e-02 2.988147341105334975e-02 -1.553559329561989000e-01 5.435257899792246550e-02
-2.859192143122019081e-01 7.685175208192766005e-01 9.169283257218689975e-01 -6.231377788889412850e-01 -1.044389415376401620e-01 -2.654033784046092026e-01 -3.118706944294111771e-01 -2.206176725958147178e-01 6.836872805821794241e-01 -4.129155532509455329e-01
-3.405143680385118721e-01 -4.368996408796969599e-01 -4.454797979333419700e-01 2.756337188777343572e-01 -2.321134350386896417e-01 7.250765815870031661e-01 -2.114018549000991065e-01 -5.147539250564334701e-01 7.579894261028143065e-02 4.410995586364940269e-01
-5.076442603753560379e-01 4.420309104685899992e-01 5.395312424066651680e-01 -3.209458005538602388e-01 -1.565322488801076384e-01 3.175251504997684826e-01 -3.199090514526778950e-01 2.314383759884371117e-01 -5.809711284426375411e-01 -7.127169832584765441e-01
-2.366088543731626748e-01 -4.552429087789628404e-01 -6.287372077577231266e-01 -4.002179538044307594e-01 3.823964193098817188e-01 -5.409970377722502777e-01 4.936487920564554960e-02 -3.201614207348555952e-01 -3.687114992709562000e-01 1.508443505365912041e-01
4.371906507915512136e-02 -5.010350817567405662e-02 -2.518520720513863220e-01 1.811675322807087263e-01 2.392922932980708767e-02 -9.435520508351348534e-02 6.920290985958214847e-02 -2.289375875526329998e-02 1.062195490283637661e-01 -2.436512431163110615e-01
-2.610833334306946196e-01 1.647779184674119379e-01 2.008329047580903470e-01 -1.507408350181111967e-01 -5.831867178616856329e-01 5.624009207010711719e-01 -1.294927868706373941e-01 4.409860372642187554e-01 -1.803296642128902616e-01 -5.519052794198427980e-01
9.844878695645550848e-02 4.800897364464504907e-02 8.965695401026175029e-03 1.190458717108110603e-01 1.258901644870052405e-01 4.143641074591952050e-02 4.266799450738818084e-02 -1.895350540916361515e-02 -3.264680481434230341e-02 1.544251882293371653e-02
-5.666442725360827382e-01 -2.825380306359884242e-01 -4.574873325478575614e-01 6.325652418789305953e-01 -4.808251047705837666e-01 6.963130180642433942e-01 -3.439912670502932035e-01 -4.636537916618431177e-01 4.824533868246070334e-01 5.601637051551433544e-01
-5.397366101220055778e-01 -7.966957306117088133e-02 3.621752988423165842e-01 -3.919668298843282002e-03 8.202182740960313190e-01 -2.675160205483497755e-01 -2.275818982018320003e-01 5.784224430696560670e-01 -2.557678084722126988e-01 4.230661502550279174e-01
-1.137509571662247004e-01 -6.076793397349655040e-02 6.574550521345894072e-02 3.468751324461578217e-02 -3.101379089894536201e-02 -1.069625844999237685e-02 6.144361049626684279e-02 -3.346465583561670197e-03 1.745893052409346058e-02 8.573522057848012579e-02
-1.131817678081721429e-01 2.431144396021970577e-01 -1.079281129279899450e-02 9.282723139952282765e-02 1.998870668450427324e-01 4.205110630672381083e-02 -1.889787986236624584e-01 -1.482434182259862454e-01 -6.125863963683130659e-02 -9.725094092197751616e-02
1.328723117125374040e-02 -8.469578335197669450e-02 1.347380680041504290e-02 -1.868283243856993792e-01 1.194663695428068301e-01 9.858501610629710754e-02 -8.664430936335444644e-02 -2.930549911674002472e-01 -2.931149839212718877e-01 -5.871446246504186117e-01
5.255736481729573750e-01 -1.247748066845857651e-01 -5.327265677848205261e-01 -5.686750767229555859e-01 1.287986163821153718e-01 8.787925709609019365e-02 -5.230134587826388293e-01 -6.702401563953314101e-02 -6.315436626273958076e-01 5.177355936853338392e-01
4.636382972997695751e-01 -6.379930652759252530e-01 3.791792108221450630e-01 5.757255054255239202e-01 6.323044748486552624e-01 -3.028474377559015052e-01 4.022158298089243966e-01 1.676889676079246216e-01 -1.262508777471015552e-02 4.818725245411791813e-01
4.278755246418879388e-01 -4.516803947342000192e-01 -3.997994559825526761e-01 1.719289892250435159e-01 -1.401057224167197024e-01 -4.178490751659160174e-01 5.128177663053834490e-01 4.295877968999101681e-01 -1.290239881627244234e-01 1.141299961873375041e-01
2.100891155459615744e-01 7.918407424088904634e-01 5.090720052894860403e-01 6.014139683356218846e-01 7.221881205235510803e-01 -8.033810030543840908e-01 1.669180109245502197e-01 7.952087727508363457e-01 3.090327427740123811e-01 -8.710066262469385867e-01
3.019424080110286179e-01 -1.244270899879363623e-01 5.681557901060321075e-02 1.394193209388127908e-01 -2.038525519673555497e-01 3.995550738399667456e-01 -4.196032545428828031e-02 2.322786828237618506e-01 1.457987984927117953e-01 3.384620329044899512e-01
4.360485661857061990e-01 -5.503524990977016751e-01 5.600067080970787536e-01 -3.538221599875444601e-01 -1.778952124686191960e-01 -1.573966690245202082e-01 5.528651799338071271e-01 -4.497720666693499347e-01 3.283385456816355075e-01 -2.359119577408468893e-01
6.766459057148800360e-01 -2.549982620426802238e-01 -7.074438527965848378e-01 8.932654926839039833e-01 8.626903522941962998e-02 9.340655486166505872e-01 6.929490632313520804e-01 -2.708312776124506271e-01 -9.289961098457216737e-02 7.890472542049055127e-01
-2.185658903124161334e-01 5.275391649655492531e-03 5.602558569082678047e-02 -5.321887583808676547e-01 -4.342639008108290510e-01 -2.345733028220735039e-01 2.259947258504515777e-01 -4.113760544319578494e-01 -3.011875958166902456e-01 1.469087582949768211e-01
1.783163516921732568e-03 3.368015114534664983e-02 6.431640579861349662e-03 7.092048531205517869e-02 -6.325644819843377273e-03 5.985363704734469187e-02 9.232693990184503334e-04 2.855116431636631202e-02 1.011348090929277757e-02 1.545131608024853838e-02
-1.240408665187853893e-01 -6.044897112843026221e-01 2.798112638560134036e-01 3.207963985593943051e-02 4.866590169403879895e-01 -4.557897841460959998e-01 2.428051359617456606e-01 -3.974605000007930822e-01 7.160357786122819590e-01 4.418989488783731101e-01
-4.829723181694512979e-01 6.678113671239739313e-01 -1.042704593044292832e-01 -1.644820278980684558e-01 4.587695077175049096e-01 5.148631181036870119e-01 2.663721747693364450e-01 4.614727466513171006e-01 -4.657745746960722522e-01 -3.977733780883351278e-01
-6.949682886301120077e-02 -4.327961023086264736e-01 6.064627599357231419e-02 -5.353403359406220391e-02 1.705535509662383375e-01 1.712651533844600227e-01 1.190986453207547868e-01 4.213720590742903171e-01 -2.913448423951920940e-01 3.402784937487644545e-01
-6.779157915865884343e-01 3.949900686153874907e-01 4.485677272567464291e-01 7.209407447435188798e-01 1.308941767534056166e-01 5.897630816305106105e-01 -1.914938348782817268e-01 -8.728654269867860971e-02 7.060964906897794213e-01 9.205489492957981412e-02
-1.492774537827989134e-01 6.249098961634030891e-01 -5.619919709328410340e-01 1.919240541403198497e-01 3.069795187487629473e-01 4.208797389253772225e-01 4.006332645018517713e-01 1.157589571570655090e-01 -4.277178473898976541e-02 -1.581112065842907310e-01
1.506609870815217751e-02 -9.345473187569315957e-03 1.480626767622442684e-02 4.253189106930655577e-02 5.784081051629659520e-02 3.423375596919091962e-02 2.265673911987659602e-03 5.782507892136733857e-02 2.423365579048371993e-02 4.048999136899132656e-02
-4.907373432617395670e-01 5.978980031661176309e-01 -4.898816707207738208e-01 -5.473417439906414633e-03 5.720177229663584439e-01 -7.476429070292356371e-01 -7.993188854830657331e-01 2.625039142920317925e-01 -3.388660486683941486e-01 -7.030098239462690968e-01
-2.186893984730672591e-01 -1.803071132249267627e-01 8.437695259274945181e-02 1.401046263709064543e-01 1.480257460189070007e-01 -4.255144213523352481e-01 1.141855637959953013e-01 5.790032122313956142e-01 2.131912349986495037e-01 -8.377434776003343797e-02
-5.441363546773323456e-01 1.975997641133458438e-01 -8.117472493425855751e-01 -3.336979208560526544e-01 -6.752468733122558575e-01 7.840536397783383349e-02 -8.327629953380331074e-01 -5.073425395678293759e-01 7.990957986683631109e-01 6.882776308686777700e-01
4.524236427670629002e-02 4.149245433845091813e-02 8.211966407875577467e-02 -9.111028604270367259e-02 2.519010941448210708e-02 -2.490216829673496529e-02 -6.527174152187793787e-03 4.349014880762428490e-04 -1.063433826407708237e-03 2.878058010589437058e-03
7.682808341836525057e-02 -2.082877760365575703e-01 2.928324046919855705e-01 4.345392091754329278e-01 -4.859197078143200899e-01 1.807914797797901263e-01 2.314696909865674168e-01 3.656235875491344045e-02 -4.983615827744780069e-01 -5.613061609384486506e-01
2.819609797022546993e-01 -1.393679359372128335e-01 2.814290770081587234e-01 -4.052143653156774217e-02 -2.361591482566623990e-01 -2.813577751786347503e-01 2.278708438598800456e-01 -3.179951677964625856e-01 -1.535960458419559083e-01 3.502081562656531033e-01
6.966041892990217921e-01 -4.808223296110288314e-01 4.769833057717194902e-01 8.245163429181479042e-01 6.135564860013406063e-01 -3.281547456515583605e-02 5.270949763731207494e-01 6.937289862715423361e-01 5.925188821314668619e-01 1.054564093871908637e-01
9.253617480885920066e-02 1.167286078403864391e-01 4.660355538767278483e-01 -1.447549031360211569e-01 1.890913484851893811e-01 -1.982797106675628085e-01 8.901825345139226242e-02 2.669630268056616962e-01 -3.735772675780556495e-01 -3.576860531816231648e-01
-3.580368740148521800e-01 1.338367516258640866e-01 3.856088326675255473e-01 -5.821762992471299913e-01 5.709924814016097416e-01 -1.242279029441478444e-01 7.218399075193902004e-01 -5.613475547251649544e-01 7.496770409969452653e-02 -4.129226536371959771e-02
1.620002642064285181e-01 -2.248382687849606598e-01 -4.291177581635765015e-01 1.345243003305846528e-02 5.026735823102152639e-02 -6.853736304488704245e-03 3.945757073207010746e-01 4.084469652203830403e-01 -2.959065076761949187e-02 -5.293510282270232903e-01
3.060056808944018880e-01 -6.168436887699505489e-01 -4.762804759971325241e-01 3.011485963997362694e-02 1.558088264380437238e-01 2.929944812440645197e-01 -2.640626563548619243e-01 2.013277458813658438e-01 -2.701258318831077365e-01 -4.040897495100621017e-01
-3.745627953160533818e-02 3.727083884968453997e-01 3.218657975617664757e-01 1.852981678542340860e-01 -6.030112592710882430e-02 2.229787085748813069e-01 -3.264613992968509182e-01 1.862069714872593429e-01 -3.868575812627049059e-04 -4.222933182085895631e-01
2.511230167281936487e-01 -1.878981198910701644e-01 -1.578790358505173241e-01 4.526817369770604338e-01 3.883504785756807243e-01 4.640124872152651681e-01 6.953587601054379563e-01 -9.229353927720383710e-02 -2.950461585835174594e-01 3.385483799042045550e-01
-5.143090881197169839e-01 -2.204127545840866009e-01 -5.256023713845715817e-02 -1.285387051843945444e-02 2.635113756619447134e-01 -2.542267698919305485e-01 7.141194397078665969e-03 -1.848705988066518535e-01 -2.869080791522949370e-01 2.414235157940466114e-01
-1.906617515009149666e-01 -8.694652284572385037e-02 -2.884297801718386234e-01 3.011223026926040380e-01 1.972557818765260096e-01 3.526128938497366527e-01 -1.534273701365908849e-01 5.421735101826080649e-02 -4.925657103098693597e-03 -4.491461064213913418e-02
2.183491979955646811e-01 2.397323187952831725e-01 1.769467687230753816e-01 -2.183245201752077869e-01 -3.684493975806554800e-01 -2.451499428814657711e-01 2.264611321540556665e-01 -3.242843087440667738e-01 3.575541100637827374e-01 6.509312768932207227e-02
-7.910825356397891144e-05 5.334633169263468533e-01 -4.411916135648951132e-01 4.752628775767713254e-01 6.467395933273630826e-01 1.771134261614941696e-01 3.230127176304249392e-01 2.758571111470906612e-01 -4.690581788457478529e-01 -6.463743029189589206e-01
2.891220215327425236e-01 -3.811199778902488733e-01 -4.122700108751285453e-01 -2.383144126340450974e-01 4.833748339338234112e-01 -6.045962352742912521e-02 2.119048263554458578e-02 5.306689116447205201e-01 2.681492298810906894e-01 -2.520776818855130497e-01
-7.232394897367651343e-02 2.989620956628873949e-01 -2.521246845523737456e-01 1.813245994555181262e-01 -5.133541918588780950e-01 -1.676958062821503059e-01 3.094115509806057984e-01 -2.769058322775234116e-01 6.706565880815050784e-01 4.535554645592591028e-01
-3.039003675042666400e-02 1.007895149331135415e-01 2.364238078761577710e-01 2.149766750882919908e-01 7.734526362710432423e-02 3.810165865830713039e-01 1.752047617824104286e-01 -1.016625877284265816e-01 9.376118583863642109e-02 2.727071961703304570e-01
