6.324872995779153850e-01 -8.082286676030139283e-01 -1.145855015592798926e-01 -6.227090338039134032e-01 3.265462806585808786e-01 -4.564183083840063215e-01 3.485159614794668403e-01 5.947268502311465754e-01 8.036657765543421261e-01 7.117211126315947656e-01
1.494290784314350196e-01 1.213836824130832687e-01 -3.964679981614943061e-01 4.062442144800933463e-01 4.013544917963511316e-01 -1.120380784767263244e-01 -2.516138934342257993e-01 -4.345346778999455428e-01 5.204334336498644964e-01 -2.707416472630833626e-01
2.867880723468460569e-01 4.483957681931938777e-01 -1.988716150357655241e-02 6.678325242423492902e-01 -5.816869000979206783e-01 -2.986295340082911198e-01 5.684247801958783874e-01 2.475443084516132930e-01 6.902461237525363558e-01 -2.701325489406267155e-01
1.512178258712092160e-01 -3.098082950462550111e-01 -1.122663886792322346e-01 -1.153338208309269697e-01 -2.475859343023092685e-01 -3.038717887855129640e-01 3.535244319942932867e-01 -3.173025327977068155e-01 2.406512169650327215e-01 -1.644782652679427082e-01
4.047164060766440287e-03 -1.127076996871649063e-02 4.507033359209599438e-02 -2.869864150597728827e-02 4.976031670895706555e-02 1.182472086353506500e-02 1.195048077213293168e-02 4.940075232639547925e-02 -1.028743281412779209e-02 3.241187726130320690e-02
-4.458964335861848038e-01 -7.488026051423591900e-01 -4.090005441483554605e-02 -7.939564965347326586e-01 7.030288159746987953e-01 -6.938156593767461633e-01 5.538974418371053199e-01 7.111891324848558238e-01 6.757190686098721866e-01 2.294804516102716963e-01
-6.223059268842958715e-03 1.105307730573039937e-01 4.421366092274866405e-02 9.433238767759323171e-03 -1.183747717809440804e-02 2.598342225819722656e-02 6.095451863774369733e-02 1.157599277141219086e-03 3.590838459015224110e-02 -8.025497308070865185e-03
-5.392517464397813542e-01 6.871355003847502418e-01 7.201523008382608448e-02 6.921436062089534325e-01 2.282202614142365138e-01 -3.265924943841077566e-01 -3.863693803412953653e-01 3.228827659381034998e-01 -6.084678776852439075e-01 5.664147149784134472e-01
-6.891423182202774389e-02 5.934282311113020514e-01 5.539587755278849723e-01 -5.630753367686455180e-01 -2.802983610770486411e-01 3.710600307967780176e-01 -4.277554834531541728e-01 7.200460851130203732e-01 5.193586366132271204e-01 -1.897806502764978198e-01
2.708541352297307719e-03 -4.669806684643440335e-03 -4.104332878571970850e-03 1.737281184180049579e-02 3.928280694994516070e-02 1.930240344902890010e-02 7.851492762155826144e-03 3.028356022902981351e-02 2.525037143386751198e-02 2.447864826930720716e-02
-4.621436154990690715e-02 5.585661482189506477e-02 1.302579662773166447e-01 -1.797550506496520539e-01 2.935065176283819799e-01 -2.074975212507991842e-02 -4.470523499933783118e-02 -4.027478726699469658e-02 3.612421521825141812e-02 6.348865619749292921e-02
3.440561300964866676e-01 -3.203974869954067661e-01 5.920516196955627475e-01 1.873537796601852656e-01 -3.495548899450722641e-02 -2.098410601586856161e-01 5.428080902599672353e-01 5.075991378034024892e-01 -4.553963116963339330e-01 4.091502636315588748e-01
-4.366734595842575173e-01 -4.104345677863840275e-02 4.606633494329798184e-01 6.032900342253069148e-01 4.735178812061227593e-01 -4.966152470637785199e-01 2.111319439806120524e-01 -1.373811475803107252e-01 3.251671783936594951e-01 -1.332717241282089793e-01
4.299544905257626781e-01 1.903809660654279534e-01 -4.675696623036083022e-01 6.515182028947469339e-01 1.778970254733974188e-01 5.373665494670891440e-02 7.483123186777385083e-01 -1.688923508123555128e-01 4.158894478307749720e-01 2.836742235754228236e-01
3.142876201180354601e-01 -5.544762531501620240e-01 3.520955199204311437e-01 -2.391990920743786997e-01 2.931774649706748725e-01 -1.846854621926394269e-01 -4.601658193438415423e-01 -1.693963688811082058e-01 -2.006852189005935150e-01 -6.926686305398773724e-01
1.271302654474481316e-03 1.871518655044275559e-02 4.078423806924753869e-02 8.318185283307034592e-03 -1.024185079697552750e-02 3.529800778945004630e-02 -2.374898626727134994e-04 -1.261756968473632008e-02 1.607572655220985969e-02 2.035019889591169542e-02
-5.062770428195032535e-01 1.304391222788958415e-01 -6.343597174169418595e-01 -5.519403273765243201e-01 -1.502649531176528108e-02 2.514177151889543937e-01 -4.120021793793061243e-02 4.269747127235514750e-01 1.073370523507382185e-01 2.328926786344741873e-01
8.304009021247953370e-01 -5.338800055933607958e-01 -7.694790583059542000e-01 4.704752976604382741e-01 5.947014053583330462e-01 3.147339771884289372e-01 1.118525022175039241e-01 6.653957297160485451e-01 8.044269763456598499e-01 -4.410641469620451005e-01
2.949295445078080943e-03 4.371279839428286740e-02 -6.024948449179007293e-01 -4.825854902643244571e-01 -5.856640210213721609e-01 2.898729102034156568e-01 -3.684935863608737039e-01 6.672193392423145797e-01 6.897647813698838670e-02 1.314186575196577174e-02
-6.102536007443586097e-02 3.290006818380206144e-01 -1.576241549314775503e-01 3.808139461992149366e-02 1.618525744079802875e-01 -1.133366812126486156e-01 -2.947000555014182011e-01 2.372893419985021846e-01 2.063413990826177269e-01 -2.339457231331419640e-02
1.302186308298336481e-02 -5.917785439731122754e-02 -2.812967122729095326e-01 4.027391875105097441e-01 -4.594281693580325454e-01 -2.638207806751328294e-02 2.125023796668599751e-01 1.754395926805768502e-01 -3.475319246316417310e-01 2.009103324679732128e-01
3.049585626264887939e-01 -1.000615006452754835e-01 -3.096648217727138719e-01 4.454334293440292414e-01 2.947370753038677793e-01 1.757822546774746031e-01 2.476413360705406463e-01 -9.186613502564501543e-02 -1.405037857427139936e-01 -2.285164733336662868e-01
7.311658062434248095e-02 4.920186717221018968e-01 -2.766237004287122048e-01 2.062839077236246488e-01 3.047325458898643147e-01 1.586538559361417022e-01 1.181200257741045756e-01 -1.173735601831202707e-01 2.891110220219355598e-01 -7.864282553688442534e-02
5.226365498366045692e-01 1.105510723981525251e-01 8.173228086076481658e-01 -8.848096892516568168e-01 -3.961696229684389947e-01 8.738061878835672036e-02 7.587970381042699053e-01 -7.735946392696144702e-01 -2.098216900872686419e-01 -8.102027889521412618e-01
-6.366095709247165946e-01 1.852630894890498758e-01 8.139503104637393557e-03 -6.712430885269693448e-02 3.411577870395210987e-01 -1.428631321256031150e-01 -6.964951186401667771e-01 4.794770723146557501e-01 -6.643758736385845243e-01 -6.281391209822626553e-01
1.621124114321285600e-02 -1.031601691445846181e-01 -1.974931404326982221e-02 2.849154583039743005e-01 -5.411814967340738969e-01 4.820446523729464694e-01 -2.328251153444352017e-01 -2.663753782642422352e-02 2.496021905099695959e-01 -1.192468864880349283e-01
1.717356149075762173e-01 -6.263000721726798004e-01 -8.141649627478682039e-01 -8.153174518709971341e-02 -3.106315537839491880e-01 -8.002043253197121953e-01 -6.685928465024574274e-01 -7.259707148390625031e-01 8.655334497756009826e-01 -5.174496763045211001e-01
3.799700444658028475e-01 4.871358298658150510e-01 -4.190597111378217832e-02 -2.742918420423122172e-01 4.489600519540050128e-01 -3.067236852853046924e-01 5.300135793869680256e-01 3.630501471944794223e-01 1.605031936092375933e-01 1.435934984098031497e-01
-3.237509935492165480e-01 2.853574214202723169e-01 -3.290620492838095684e-02 2.920219132014041652e-02 -6.992885211355008845e-01 -2.552687036006730525e-01 3.324539983134384702e-01 -6.658979011458814323e-01 3.932753189299002528e-01 1.514256575277662378e-03
-1.803154052612815361e-01 4.858593351870915678e-01 6.185839203571218414e-01 -5.924769554419136164e-02 -2.450378799949463060e-01 -5.503481249201035430e-01 -2.603319671268009006e-01 -4.230204797776929149e-01 5.349021008408951783e-01 3.759844675360516364e-01
-3.795017209630464627e-01 -5.536847104498615613e-01 8.711452915329344071e-01 6.496887938347410962e-01 5.166470455728545685e-01 -1.411873855321062465e-01 -6.815037559475376483e-01 -8.141921711797822647e-02 -5.847953724822334554e-01 -6.624493558657755798e-01
-6.703999736961288591e-02 -1.099769699237433673e-01 -6.995923903917401487e-01 3.382074428952829837e-01 -3.858288251254895496e-01 -6.022861385044314675e-01 8.101776051587615823e-01 -1.498548397480249095e-01 -1.341599432645410594e-01 3.503309955930189457e-01
-1.516846351653872438e-01 6.187164431759474281e-01 -5.017187512885373790e-01 -6.779309114260411162e-01 2.467460279050685545e-01 1.323088516391655034e-01 -4.169819451002823585e-02 2.461278693338266044e-01 3.185459151395537147e-01 2.642271600004851839e-01
3.179959846044440042e-01 6.503628911848889915e-01 -2.242744910737598241e-01 3.667604204942128687e-01 -6.494153160521548562e-01 -5.967959130738094142e-01 1.088593561658256353e-01 2.043701815174587821e-01 -1.122959955864957504e-01 -4.511023963069726306e-01
-3.128142158651303628e-02 3.132202929865206542e-01 3.563365410610170314e-01 3.166334394666675545e-01 5.218243040311620895e-01 -2.896706212239195111e-01 -3.763689139019661956e-01 -5.893189388495278375e-02 -5.690606478931985457e-01 -6.066703149905745135e-02
-3.564232009809520374e-01 5.997122597550668122e-01 2.656690982643645782e-01 4.430133959695318757e-01 4.200939415745083005e-01 -4.480695141852324981e-01 3.696902296189273907e-01 -2.785978394412222947e-01 7.281547737412895627e-01 -4.276611261228679961e-01
5.022895307005904170e-02 7.223408080709696477e-03 2.868090581792730187e-02 -4.678228772010168020e-03 4.274409746363848177e-03 1.859565594386025948e-03 1.016458850876923725e-02 9.856365474137804283e-02 -1.011941362969820575e-03 8.476329512650000036e-03
2.762361075123566101e-01 -1.505952759368658390e-02 4.340548642621919195e-02 -3.374555916597333227e-01 -5.096141623748753346e-01 -7.698444116450108704e-03 -1.267587001795050239e-01 2.477676855281814305e-01 -1.503862000023964696e-01 -4.963239611255138573e-01
3.875721751182873986e-01 -5.553909807241836916e-01 -2.903521613476971464e-01 -7.102213667157289967e-01 -6.959202512613876790e-02 -7.078763614194170106e-01 -2.022862163177503447e-01 -6.384928825646404293e-01 -2.318215677900999083e-02 2.945744215446948200e-01
1.018390728615450706e-02 -1.687172735963312631e-01 9.325849770607155115e-03 -7.455579444883220219e-02 1.422481439169099859e-01 7.561751867705415742e-02 8.861851985288364542e-02 1.885980511346551092e-01 -5.914473282382184255e-02 1.174923874093796172e-01
1.300886818980090676e-01 2.615610778669422709e-01 -5.396855768541199139e-02 8.279870864328370272e-02 -6.798501990068465950e-02 2.485693063514969881e-01 -3.832507963837691323e-01 2.196729364985670896e-01 8.219691461716712930e-03 7.997051576317093513e-02
-4.041587791744001845e-01 -4.544813245334190788e-02 5.889829437093759834e-01 -5.206383453985191645e-02 -2.581667134887251080e-01 7.298561863893557877e-01 -3.244701212059003526e-01 -5.385479869528424501e-01 -4.130670820691090261e-01 5.372747184651169849e-01
5.824635790474975705e-01 -7.931676775114721023e-02 -2.602970527087405395e-01 6.648756395517008144e-01 -2.624891108016547681e-01 2.450059337747287347e-02 -7.778333728818928039e-01 1.493343362809693153e-01 -5.363885197028807061e-01 7.442721825360316679e-01
2.690641573368071082e-01 2.010423349331391663e-01 -1.485025386214401015e-03 1.350990558892298243e-01 -9.611929874273039687e-02 -4.657376970590665528e-03 5.041922626750709041e-02 7.196920427405051335e-02 1.331692751080179038e-01 1.701574281392140564e-01
-5.187911124711293009e-01 -8.502289518734166274e-01 1.519679251247077201e-01 6.038548577993577693e-01 -2.734803563648237623e-01 5.921448994383544662e-01 -8.418155334581255422e-01 -6.908031124231352182e-02 -6.887631525928759046e-01 6.399976912428007036e-01
-3.329394305442474195e-02 5.749713476587542393e-02 1.343585350843641280e-01 -3.004765503928906369e-03 -1.668744150184866826e-01 -1.586788427471670093e-01 -2.131577678618761240e-01 5.509811696144278903e-02 -1.521055087923458560e-01 -1.194095113042995260e-01
2.082785539959983445e-01 -2.435386159458539646e-01 -4.471172457876257944e-01 -2.993683653540022971e-01 4.285004392054942990e-01 3.713451870019726098e-01 -2.024085217482985699e-01 -5.596027904873526193e-01 -5.306311449651404111e-01 5.092040986064692021e-01
2.995535227977684789e-01 -5.430665797035224562e-01 -2.759590886099070120e-02 -3.622839652998932070e-01 9.888878551028977559e-02 -3.147251008192155086e-01 -4.546873676154456478e-01 -6.994866200129239153e-02 8.667650862701485603e-03 1.920980325209792616e-01
-1.438525403310520201e-01 -3.503714002481971845e-01 -9.523828242628462615e-02 1.121972032393879354e-01 1.421040721233844117e-01 2.660214149842288767e-01 3.018869422056798535e-01 2.653035348053052189e-01 1.761129861253986351e-01 1.881787353992717474e-02
-8.643912259168402556e-01 4.478525751191776982e-01 9.043517655076065143e-02 7.383700856174651994e-01 -2.714561010383447215e-01 -3.201900755871841531e-01 -1.528159742200361215e-01 7.697684658093391086e-01 -5.110841664483364855e-02 1.423269468718682262e-01
-2.617578605807442949e-01 8.611046112240626493e-02 5.763859841269627360e-01 -4.104287559071967961e-01 2.040477255370980458e-01 8.218858121801098093e-01 1.982834918963025661e-01 -8.570543093187438580e-03 3.434878344147963558e-01 -4.206540148059569884e-01
1.399505667417361675e-02 1.862217546354341113e-01 -1.044665986304339766e-01 -2.415982149234782161e-01 2.660641841409969177e-01 -3.204230561402579558e-01 -1.019559993098002049e-01 2.550154156784974202e-02 -3.283773896946087789e-02 -2.092962545629987459e-01
5.784772420263181725e-02 -1.060153959801263257e-01 1.457780393530164198e-01 -1.270793143909871269e-02 -5.718462332119216701e-02 -7.959892058138208493e-02 -6.090604880897206030e-02 4.050451070978874218e-02 -2.224583555010900271e-01 8.616245641826195123e-02
-2.886648882019445250e-01 7.749705673217403001e-01 9.219568339038908267e-01 -6.245896920450041412e-01 -1.056634510200323979e-01 -2.758706581687323522e-01 -3.101360918520306709e-01 -2.165292245322902320e-01 6.848764796027415613e-01 -4.258545110450051574e-01
-3.446682174351272665e-01 -4.386056704156233721e-01 -4.484706376127459149e-01 2.769248904107318165e-01 -2.333599112992471025e-01 7.232086356316161924e-01 -2.154429727118516991e-01 -5.179555792828313132e-01 7.596132704213079401e-02 4.465168201494835176e-01
-5.082396847171852805e-01 4.425656137189967754e-01 5.401784840099715934e-01 -3.210636285960554170e-01 -1.576581191633899814e-01 3.161620128659862750e-01 -3.199499072499527585e-01 2.320176633357917129e-01 -5.814254421754677660e-01 -7.147678456103830902e-01
-2.476480003477765368e-01 -4.643204026829406139e-01 -6.455448797089080593e-01 -4.182467496525439365e-01 3.905039205753533804e-01 -5.506407493179102941e-01 4.968566842509615500e-02 -3.266527809972724627e-01 -3.753175932939891157e-01 1.591918009049095306e-01
-9.532273341346342646e-03 -6.257584155674315862e-02 -2.805020082620877653e-01 2.061964378643577900e-01 1.648190659633637367e-02 -9.898735282780021794e-02 7.357051675950479486e-02 -5.269575155114390730e-02 1.260338756063361376e-01 -2.789444434491183955e-01
-2.828296273384149906e-01 1.698110590499090633e-01 1.955262734844901984e-01 -1.668204056120194956e-01 -6.006019120040601011e-01 5.718144915568800224e-01 -1.362959300505485749e-01 4.591493447020985608e-01 -1.832018749107977851e-01 -5.679646418353089254e-01
1.256001521290466272e-01 8.958277610193352003e-02 -2.090320460115807980e-02 1.810182701770810254e-01 1.459370513788691981e-01 1.260631953401894489e-01 6.330105254258393266e-02 -7.030415325315396077e-03 -6.768165055907832128e-02 1.372264183530213372e-02
-5.679129970899589042e-01 -2.845514985949519904e-01 -4.573300073500906615e-01 6.358806893477022548e-01 -4.801083347796000211e-01 7.053680027266352459e-01 -3.446688590638413707e-01 -4.693795105985125171e-01 4.847087319749711076e-01 5.615368077024316396e-01
-5.399060684429136669e-01 -7.968721451101394571e-02 3.629777291416277363e-01 -3.543747036855969101e-03 8.216315035358170427e-01 -2.674263918647528659e-01 -2.303847637679399540e-01 5.802305921312483905e-01 -2.563628204668302324e-01 4.242814536355324906e-01
-1.921764082907052029e-01 -9.526637348273465922e-02 1.031547673204596532e-01 2.462684035880941327e-02 -8.766380836603240856e-02 -6.521291187305884585e-02 1.084898189737056873e-01 1.081654167675094765e-02 3.829473197454891925e-02 3.977981159018256774e-02
-1.433131143086799342e-01 2.580134319002202470e-01 -5.622636449666896900e-03 1.281790622934247392e-01 2.557309390782615544e-01 5.525932874975077874e-02 -2.489981102516068412e-01 -1.704764658553712120e-01 -7.607007750874481000e-02 -1.435624277405853078e-01
5.466186457950631891e-03 -9.531737768166907709e-02 5.781414804018845770e-03 -1.971234186173038416e-01 1.306507488257664662e-01 1.295509500446203333e-01 -9.425912157378922573e-02 -3.405402208376315243e-01 -3.096032553576396062e-01 -6.308733587486811123e-01
5.335027209569219719e-01 -1.419266552292975381e-01 -5.394762637986343368e-01 -5.795162382196992201e-01 1.365906752090443044e-01 8.908630228908274995e-02 -5.376440277208958118e-01 -6.474204923577976667e-02 -6.439598736392683209e-01 5.269915772912481255e-01
4.667513288122122073e-01 -6.410369307365895164e-01 3.805059516043012846e-01 5.809986120829957468e-01 6.332541642975536567e-01 -2.996587681010468573e-01 4.051445371195333545e-01 1.667632929022879462e-01 -1.000978182706893996e-02 4.853032482443107032e-01
4.368132385191809686e-01 -4.570683514873099540e-01 -4.164278515337905828e-01 1.777392759624519813e-01 -1.431440657822861395e-01 -4.231579129560544272e-01 5.236191693969883820e-01 4.369028664809188056e-01 -1.318479406276138188e-01 1.158159534240103677e-01
2.044321804322091762e-01 7.949831649217542484e-01 5.073244657544734304e-01 6.001365758581306276e-01 7.214257904440115610e-01 -8.033378680296628938e-01 1.668108382816111679e-01 8.013793203715215974e-01 3.090361645126431522e-01 -8.748467102997672384e-01
3.325136551907262317e-01 -1.438795648993104193e-01 6.211426943122633909e-02 1.584855633253257901e-01 -2.130836880921992693e-01 4.637963584514247506e-01 -5.568533941222255507e-02 2.338204532372253064e-01 1.574747158007674952e-01 3.424167349954840844e-01
4.528255683566956291e-01 -5.704513043788533855e-01 5.772879096648497743e-01 -3.628170040303446697e-01 -1.922970952075016005e-01 -1.640241772102482287e-01 5.537795663574454075e-01 -4.594919159961544097e-01 3.338636805290967624e-01 -2.482471495857564159e-01
6.767650796967826787e-01 -2.548687258432141278e-01 -7.074485134823972343e-01 8.935778733120862682e-01 8.644842299105327810e-02 9.336340582480385786e-01 6.931268492598964270e-01 -2.709289693139155242e-01 -9.284874295824170620e-02 7.890131408612468533e-01
-2.211044803559183147e-01 4.566616137937316855e-03 4.207844416129453979e-02 -5.430690707130149120e-01 -4.435063054211330624e-01 -2.371760049467256937e-01 2.399339910396444397e-01 -4.180472069024173676e-01 -3.084423770225790951e-01 1.483534447422998892e-01
1.089606583550055928e-02 3.888567404578690406e-02 1.527880085427246910e-02 5.760082406894470597e-02 -5.444946671428638370e-03 5.478293162670073990e-02 -1.235385642838787495e-03 2.145923013444758776e-02 1.471958045458623271e-02 1.233526855534353150e-02
-1.224710266305169687e-01 -6.079570328538896895e-01 2.855315478435070942e-01 3.053189371370962704e-02 4.841538525791125314e-01 -4.574975481003188960e-01 2.362493285681191157e-01 -3.985736955779035084e-01 7.195730869236941496e-01 4.415460592586873956e-01
-4.867449629220435003e-01 6.661135022510833448e-01 -1.055156818916527101e-01 -1.697103385946948095e-01 4.704819040776393457e-01 5.197797606351434174e-01 2.602019283975804398e-01 4.676800389740399244e-01 -4.744517216189232944e-01 -4.007948531313966223e-01
-7.231188942299815459e-02 -4.621712998640550296e-01 6.682484774849366260e-02 -4.160531338145343622e-02 1.869795543664483639e-01 1.797402878759697675e-01 1.380817208951787001e-01 4.422187338264961798e-01 -3.189437098188607211e-01 3.627247354664978607e-01
-6.815537937179738659e-01 3.937995662630897620e-01 4.510687484221886923e-01 7.261352591956613534e-01 1.328182819374778001e-01 5.934396526216123569e-01 -1.926759125930039285e-01 -9.315612577564628960e-02 7.104524990627694159e-01 9.228856966037207732e-02
-1.507641264221027400e-01 6.316244266537840435e-01 -5.674588412522318936e-01 1.944794943698130718e-01 3.085269149163988867e-01 4.134668529022015870e-01 4.044716431504157828e-01 1.175461981264095401e-01 -4.306666305009623080e-02 -1.594814150977420797e-01
2.622545469823591574e-02 -9.514698746449508360e-03 1.141718603504397050e-02 3.472481524749635590e-02 4.036833734220024450e-02 3.605601442239812077e-02 1.320817076817137371e-02 4.324788086065024795e-02 2.072208633245767664e-02 2.203324750520334330e-02
-4.922007465792627157e-01 5.949966685227878749e-01 -4.903412311492089115e-01 -4.665488089163015266e-03 5.717856311822105964e-01 -7.498314083059433033e-01 -8.015918368201288002e-01 2.639965473463498635e-01 -3.397955947483874972e-01 -7.048376994416786223e-01
-2.327804911441444247e-01 -2.081841158320032747e-01 9.074054402915630868e-02 1.456717539802560579e-01 1.627134476372816552e-01 -4.522380014703127338e-01 1.216659421163987231e-01 6.032105331568822226e-01 2.311493770120086610e-01 -8.753106547621102018e-02
-5.456451493057076219e-01 1.988843116489153462e-01 -8.141987231737176645e-01 -3.356303662361207474e-01 -6.758606339303944166e-01 7.793888526567932518e-02 -8.343396562185115828e-01 -5.084563371407790910e-01 7.978936031525994954e-01 6.902076965983987566e-01
5.430088848898757814e-02 7.518556295027276071e-02 8.154331363542592637e-02 -1.961976757721312914e-01 5.530829059201018000e-02 -8.314989960378760259e-02 -5.794080629396937410e-02 -6.494834776295663192e-02 1.750914979328145257e-02 -4.226000913652127634e-03
8.340957730639549095e-02 -2.158810602267405565e-01 2.955289425257921487e-01 4.413059357242498648e-01 -4.961177628384985105e-01 1.757744076717642212e-01 2.452874609526420058e-01 4.210230546763444465e-02 -5.130739176090780562e-01 -5.801920684161979702e-01
3.331940932622252660e-01 -1.744845966959582273e-01 3.198856116944893135e-01 -4.192706993967650064e-02 -2.605435417202576209e-01 -3.243730934144231082e-01 2.297433365752080403e-01 -3.869979955976873831e-01 -1.847415979099245875e-01 4.052173722165544612e-01
6.967772410680582729e-01 -4.813906251914137346e-01 4.784015979267560170e-01 8.244026475115261432e-01 6.151432181470156690e-01 -3.220558270571650950e-02 5.260172348230991446e-01 6.946397884915078702e-01 5.936823739961899493e-01 1.057084848874684652e-01
9.071599718994774464e-02 1.201517570188866679e-01 4.556663090732030463e-01 -1.497023558131748144e-01 1.960652334825795928e-01 -2.029907281993535706e-01 8.994002777760676248e-02 2.751226679724015356e-01 -3.814321447620916405e-01 -3.658324114475657307e-01
-3.636545632915180737e-01 1.330964965682099044e-01 3.894529110506048108e-01 -5.866189688797169843e-01 5.763988650589169094e-01 -1.306137971781460294e-01 7.282196914235020690e-01 -5.657092775212765323e-01 7.575096439968595496e-02 -4.134445600485071870e-02
1.669872577165264771e-01 -2.465989052653911606e-01 -4.521683798945940747e-01 1.969731934620776864e-02 4.518435655207631019e-02 -2.439537085176896741e-02 4.148458594755280449e-01 4.470852847002610431e-01 -4.510622516618982558e-02 -5.875787194953180359e-01
3.120211757420967014e-01 -6.252402009400134242e-01 -4.888352932227482683e-01 2.978770182424849561e-02 1.614653224097811479e-01 2.979711533539765589e-01 -2.654097983745147826e-01 2.060410522473682116e-01 -2.825725082633080421e-01 -4.105533001555488060e-01
-4.154534528425218171e-02 3.839699407016484711e-01 3.371244742527594873e-01 1.956404036125483914e-01 -7.282643387809649427e-02 2.249226888521223267e-01 -3.413713679996314698e-01 1.937986217729154859e-01 -3.350620143395848915e-03 -4.504793138784505269e-01
2.558317975413735845e-01 -1.892068640113497568e-01 -1.626246533671271144e-01 4.597985223009798395e-01 3.949086621440467404e-01 4.636334029407639390e-01 7.076470377309893589e-01 -9.197328403387364237e-02 -3.065685343069418645e-01 3.386967312959728860e-01
-5.236461210835415825e-01 -2.356622366133218072e-01 -5.301868905726452724e-02 -3.209543357178394618e-02 2.652152175524313260e-01 -2.834334712202017381e-01 1.191522456050172173e-02 -1.909193669123557813e-01 -2.925891397238553071e-01 2.446936132175260847e-01
-2.263485061707366242e-01 -1.208300668742779554e-01 -3.520335619361788515e-01 4.009656292041257619e-01 2.136129217905261279e-01 4.185824863221123127e-01 -2.377995728955409338e-01 3.033704597807448944e-02 -1.787663806095505722e-02 -2.893696839929808806e-02
2.315581914162406774e-01 2.385405161609780167e-01 1.846649022289571229e-01 -2.266294979515663943e-01 -3.840332936346227966e-01 -2.518357099704718327e-01 2.233654980401386936e-01 -3.385190048622246373e-01 3.761928028433846882e-01 6.957428815957002188e-02
-1.035560494826186792e-03 5.350990271189840497e-01 -4.428896223374710339e-01 4.777795670167054309e-01 6.513721008829651549e-01 1.785630317283298518e-01 3.178926017694018169e-01 2.758355083425643728e-01 -4.712249004571437694e-01 -6.495543539075813166e-01
3.022623482883481927e-01 -3.969612537620809123e-01 -4.407105765848340906e-01 -2.478736090694952099e-01 5.048576697305956484e-01 -7.010275877939282918e-02 2.279469954409230059e-02 5.523794032891026218e-01 2.798369669328992226e-01 -2.667850541997683345e-01
-8.028925914407256115e-02 3.081578686936778944e-01 -2.588695982256638550e-01 1.822126804552733625e-01 -5.218097987408969463e-01 -1.685666285712593970e-01 3.097894067030980136e-01 -2.747940367873736855e-01 6.813168279291920149e-01 4.649322972231676454e-01
-7.633479189463324155e-02 1.158148457315021640e-01 2.937922076881945843e-01 2.509302649954875397e-01 8.394766690514832153e-02 4.539245229916342717e-01 2.026376272867119466e-01 -9.184666601754609694e-02 1.121013082834879798e-01 3.225625433177842227e-01
