6.543793843459749793e-01 -8.544302623620901871e-01 -1.287158526227908106e-01 -6.434501749087719880e-01 3.561523993070963012e-01 -4.652224654513865132e-01 3.467108699907298641e-01 6.248177777525865118e-01 8.374299756498245761e-01 7.498106351170026329e-01
1.632470116442923391e-01 1.255289417845672217e-01 -4.642161658247461187e-01 4.739482874075481300e-01 4.658640993431080735e-01 -1.257822091244202578e-01 -2.545279512716565606e-01 -4.751337562891292388e-01 5.594399058607859576e-01 -2.975105163668102515e-01
3.202634060258673365e-01 4.804172806451689759e-01 -1.305014385605257794e-02 7.334030757135783229e-01 -6.580178907557439061e-01 -3.255610865032041445e-01 6.281757376264073267e-01 2.634282859856336145e-01 7.416878173992504930e-01 -2.911118253054089111e-01
9.850300967149783204e-02 -4.726564977673602952e-01 -1.523245933661679652e-01 -2.118946785852479642e-01 -3.642256070172749660e-01 -3.883796133175421161e-01 4.777810472924131635e-01 -5.601770351454127272e-01 2.871920305853887800e-01 -2.751680577935948224e-01
5.796499636009866396e-02 4.857429652308901252e-03 1.070039834880541357e-01 -1.424541194678642479e-02 -2.692100266536763195e-02 -2.067449870237728429e-02 -1.979828367082299770e-02 1.043511271057157297e-01 -4.374511948508307685e-03 2.640243695132121760e-02
-4.501857871989676241e-01 -7.671219379969362873e-01 -4.544311478230077944e-02 -7.985226124767971223e-01 7.266197305333031986e-01 -7.006595425445494296e-01 5.709776413029837849e-01 7.264775947458158578e-01 6.985297812156604502e-01 2.388906157510820027e-01
-4.365821348669114699e-02 4.724270093405961990e-02 1.251813033407029041e-01 -1.406313302369001372e-01 8.336238329753468609e-03 5.346052871546722041e-02 1.183608425160002087e-01 -2.488365211020355378e-02 -1.229144697550873799e-01 -1.530653005926333743e-01
-6.177261566272023163e-01 7.609285233369662560e-01 8.275626025203983160e-02 7.695012173503413822e-01 2.489217382313912152e-01 -3.481004149092864486e-01 -4.502519998158258097e-01 3.579441624963641821e-01 -6.863540163314301168e-01 6.302446118856603885e-01
-7.893883500718459900e-02 6.298834479281859577e-01 5.798208757232851118e-01 -5.922620364508285329e-01 -2.904106976860839073e-01 3.869232974217863830e-01 -4.678223891622856345e-01 7.530355137645046160e-01 5.548355401568056955e-01 -2.000532027181689820e-01
6.155738595576592392e-03 -3.500168490175905450e-02 -3.268681141533875609e-03 2.163471966107440372e-02 3.638570389993656118e-02 -2.145547592710083957e-03 4.395070581138423027e-04 1.066107943848178079e-02 -2.757956728662638857e-02 3.183051329399631379e-03
-9.761891004537899541e-02 -8.014049811536851087e-02 2.408756207761194312e-01 -3.569614518853651552e-01 4.363977354557816435e-01 -3.326822886791895671e-03 -5.406240569838485083e-02 -1.286809600019649946e-01 6.197049585912146538e-03 9.892683266249650831e-02
3.684816140825954989e-01 -3.441321311868145716e-01 6.171162556559308676e-01 1.936774402578203547e-01 -3.025763437766456482e-02 -2.233175652570445757e-01 5.750618946259666853e-01 5.349074999686751486e-01 -4.940071296963601810e-01 4.206988858811244181e-01
-4.854882125335854282e-01 -2.368014278050705954e-02 5.399119396829522577e-01 6.831135840419790828e-01 5.018535217700625939e-01 -5.988157313959248107e-01 2.056465318830368594e-01 -1.544637397119963118e-01 3.611745613504512842e-01 -1.566676156520477869e-01
4.640629732697934551e-01 1.624673634339718897e-01 -5.150215769112396202e-01 7.252763259415259123e-01 2.159624623928165510e-01 6.956697129748627695e-02 8.106387566564100533e-01 -2.009168341073500619e-01 4.591863607035577832e-01 3.298474195019730493e-01
3.500541417713285974e-01 -6.068061132590417683e-01 3.638660859090052657e-01 -2.603000079418858470e-01 3.248082898054667766e-01 -2.060716055683406989e-01 -5.005656147825960911e-01 -2.042246377867943108e-01 -2.119244952726493936e-01 -7.447998541921142523e-01
-4.801268532974417580e-02 7.942004573770235221e-02 5.496542967700773080e-02 2.832727904115956308e-03 -3.499428339944758715e-02 4.956998508079377141e-02 5.522684359315354480e-02 -5.133904638046066227e-02 1.071911347128983033e-01 1.046240871571605807e-01
-6.205354273130303522e-01 1.564488102947365900e-01 -7.802461277901998615e-01 -6.527928677573127114e-01 -4.949193345982232095e-02 3.495577921412902911e-01 -4.956625556074465561e-02 5.209131563066204951e-01 1.080824798616908944e-01 2.337887575156144260e-01
8.443316351069776182e-01 -5.418833737647881232e-01 -7.808690004342454527e-01 4.826329063864451263e-01 5.975921760038610531e-01 3.168899480697638937e-01 1.114131773554576793e-01 6.775565061690451696e-01 8.196274240093907038e-01 -4.394433316472948214e-01
1.383480582653626167e-03 3.909583856113593020e-02 -6.527823469742829454e-01 -5.069741497652755502e-01 -6.106551710252312581e-01 3.026534714486973643e-01 -3.910398427868789772e-01 6.994729374576162950e-01 7.572594830071965877e-02 7.682820523750897614e-03
-8.457818569747038717e-02 4.741772239192232896e-01 -2.021904283756321419e-01 3.898448222014558318e-02 1.553545931102428557e-01 -7.258485810617824885e-02 -4.127950923230220837e-01 3.361442069152539291e-01 3.338399176200430030e-01 -4.414449096119787974e-02
2.964138767057181850e-02 -3.558793035268999899e-02 -4.010424956905581650e-01 5.126522833708283544e-01 -6.070941468134096741e-01 -1.830176701859044172e-02 2.843436232311579159e-01 1.944531637839767291e-01 -4.185334118495490086e-01 2.687269198953456950e-01
3.779762147804822114e-01 -1.174602527563566035e-01 -4.456143102687786794e-01 5.601280292180647047e-01 3.931707397671665993e-01 1.809678453091957684e-01 3.202132752777722136e-01 -1.043217842816514251e-01 -1.736862086497535096e-01 -2.593866423581867031e-01
1.028955194576628429e-01 6.441354856311807264e-01 -3.941502880755671789e-01 2.812017950032147939e-01 4.199487681470879252e-01 2.004252093508030186e-01 1.415891071467609563e-01 -2.144193012179775870e-01 3.753021399922908397e-01 -1.144291689726319033e-01
5.433067999116686364e-01 9.692208977039819262e-02 8.487370377755365514e-01 -9.131690099014310169e-01 -4.167314411249991024e-01 1.020898091270000113e-01 7.887850117539064732e-01 -8.109160395693199019e-01 -2.230115649785232024e-01 -8.404016969700158768e-01
-6.788054047749613185e-01 1.868175715386267144e-01 -1.407434638072998026e-02 -5.475566151320663405e-02 3.592026796999886473e-01 -1.611960623551717264e-01 -7.437769424442813859e-01 5.269075268932589262e-01 -7.281277795893276172e-01 -6.946259006163860716e-01
3.722435778780539689e-02 -1.921324947746933798e-01 -4.694749848692661431e-02 3.614725705993526716e-01 -6.535283736380246289e-01 5.954484737772498537e-01 -2.984609290900139267e-01 -2.708269400485778522e-02 2.841717783114257601e-01 -1.125092031654199576e-01
1.759379807231505610e-01 -6.431242681634988800e-01 -8.380964686171947786e-01 -7.813806092957391314e-02 -3.191047914470659386e-01 -8.199261036270966141e-01 -6.824252275930590139e-01 -7.404506797137840879e-01 8.773545482291538189e-01 -5.226194042329966871e-01
4.196896583504678424e-01 5.336833456763574457e-01 -5.593618174414320687e-02 -2.750022085612728318e-01 4.913821731905350099e-01 -3.711368742668483822e-01 5.899706176088093112e-01 3.904823188744640516e-01 1.800005221929839028e-01 1.550575882428559260e-01
-3.499296887577070247e-01 2.955710044181276697e-01 -3.665795097215924364e-02 1.401520666855380140e-02 -7.502641810727034288e-01 -2.920768292724135184e-01 3.641636783915691566e-01 -7.189923619498338470e-01 4.168403369565177319e-01 2.212944764349261944e-03
-2.079003040128080404e-01 5.443478960539476219e-01 6.728271091506092816e-01 -4.298602948782540706e-02 -3.162959622612175337e-01 -6.310479419188274042e-01 -2.770925157915578585e-01 -4.488600471364525557e-01 6.131612579225020898e-01 4.336328213622993033e-01
-3.845835134323957183e-01 -5.795705753516761094e-01 8.845685357252054404e-01 6.603686768830112630e-01 5.287906508124196048e-01 -1.404750819642180404e-01 -6.981590564652789821e-01 -7.919665713472237578e-02 -6.007924335364771551e-01 -6.604865879844722398e-01
-7.869230194030805980e-02 -1.073682070686140244e-01 -7.549438393135281533e-01 3.680267263762720953e-01 -4.213655248290309463e-01 -6.818491421823164034e-01 8.723900250152262226e-01 -1.497580629156864962e-01 -1.527650855288307519e-01 3.550844289410011179e-01
-1.777198158559401830e-01 6.832657405243179882e-01 -5.714697203609873100e-01 -7.463015281736226081e-01 2.468649088295888361e-01 1.456155900767742983e-01 -3.903412307134022929e-02 2.611636447326948218e-01 3.622602696495806351e-01 3.314235161773724792e-01
3.448314500786703318e-01 6.892509998842971664e-01 -2.345729418614928563e-01 3.998318500741586679e-01 -7.040584000645946361e-01 -6.533843293835013277e-01 1.190182086122801158e-01 2.310969463970528881e-01 -1.041005118555295289e-01 -4.776415160491879197e-01
-2.198870678137770582e-02 3.346376424482640499e-01 3.880911426826126331e-01 3.426269097042908274e-01 5.854475677289279201e-01 -3.391813138520660686e-01 -4.341332567381228080e-01 -9.248232651721068065e-02 -6.362710072299627706e-01 -6.750208281579397895e-02
-3.871771857570129316e-01 6.480371098373490790e-01 2.483806456329926970e-01 5.029719803711050208e-01 4.760274209266668333e-01 -4.603796625142099752e-01 4.205845827928167413e-01 -3.270658624301678863e-01 7.819716085836242447e-01 -4.429744403765509264e-01
-2.914251179246639054e-02 7.986962743235384576e-02 -5.437708679463237188e-02 -8.634080628519434641e-02 -5.758505394834538549e-02 1.692464120293517560e-01 7.999720496627180100e-02 2.946383418105889222e-03 2.234501668482985481e-02 2.095813357990146744e-02
3.668542385390715643e-01 -1.738765097047042726e-02 1.046928469971088876e-01 -4.750958132518575683e-01 -7.081670228312046955e-01 4.225008455151581938e-02 -1.697383583511470062e-01 3.992244502297837006e-01 -1.487928789180344991e-01 -6.472083944584479109e-01
4.145320603666468595e-01 -6.067404851002373700e-01 -3.183606767622155220e-01 -7.675951136043549505e-01 -7.648920960381114242e-02 -7.711626245316608452e-01 -2.178023901399576967e-01 -6.901309692366839332e-01 -2.467183336416445966e-02 2.808214543840654165e-01
-6.469807465411991920e-02 -3.345886403519320873e-01 -1.633675704659088082e-02 -2.682524183031411713e-01 1.124408951697960790e-01 2.665801861484209945e-01 1.146853978530544133e-01 3.797133136112545992e-01 -7.762398157043230718e-02 1.882257687112263433e-01
1.658443995995628195e-01 3.151525768085008394e-01 -1.218822402399915017e-01 1.040674954758731147e-01 -1.252971953971905861e-01 4.196059896135448386e-01 -5.740946406399445312e-01 2.989914177090300940e-01 3.240639341493516817e-02 1.370582921338009408e-01
-4.423481652281859300e-01 -8.848402520738068988e-02 6.221193848596638931e-01 -7.350815013424880084e-02 -2.781172015206645476e-01 7.981030950847642913e-01 -3.380386292976039209e-01 -6.335595275016812078e-01 -4.331839079983966778e-01 5.373426368011664511e-01
6.138512482596817366e-01 -9.796317180840845296e-02 -2.724418581663441419e-01 7.170306019385233043e-01 -2.761045781418065559e-01 2.401701830670423601e-02 -8.147077512380797026e-01 1.463220532667297014e-01 -5.606402258339180378e-01 7.837261919277327404e-01
3.161561100743081054e-01 3.304612113229710157e-01 -1.355356007238005776e-02 2.439559151184473584e-01 -1.797420067347834105e-01 -9.255789851163141735e-02 8.790061328090947868e-02 1.720342822327072252e-01 1.750273949783951732e-01 2.593819951565035087e-01
-5.340580224913420437e-01 -8.683600189852940243e-01 1.428791561654053632e-01 6.245548031759072805e-01 -2.629715385530129179e-01 6.183515089806996823e-01 -8.738736085093142814e-01 -6.696333966742591681e-02 -7.274060620340463412e-01 6.518710505760609841e-01
-8.251688044160562785e-02 1.078077740818628033e-01 2.510950494313523573e-01 6.303584004905649074e-02 -3.436813543804442816e-01 -4.566142375002867348e-01 -4.462333860182135514e-01 4.731562966190420300e-02 -2.746439456922202260e-01 -2.246386078185687307e-01
2.517596208225517107e-01 -2.808931475873583383e-01 -4.770722398875139603e-01 -3.085016769076288079e-01 4.217835875696883119e-01 4.051259961351769134e-01 -2.033756623209560799e-01 -6.298970681278518446e-01 -5.711561667953275467e-01 5.408347823312542602e-01
3.856645121569775569e-01 -6.650549610984307636e-01 -4.379594828405554419e-02 -4.428075515479018009e-01 1.479536835892569790e-01 -4.025415403409507986e-01 -6.044876647780924594e-01 -8.278237473879848651e-02 -4.246816024847181736e-02 2.338448611471121985e-01
-1.780954889763895210e-01 -4.649602975611757949e-01 -1.394495663933449092e-01 1.618964701672740980e-01 1.406457559939205126e-01 3.180595154680393444e-01 4.133713691114493383e-01 3.527339038399281979e-01 2.689738976489424727e-01 -3.450054609158485081e-02
-9.061389416967982058e-01 4.528916177944106725e-01 1.050702738128153485e-01 7.669874265186533702e-01 -2.921959307405934125e-01 -3.298466702126894856e-01 -1.489116370972794479e-01 8.023171618413406092e-01 -5.638814999728955502e-02 1.485208225143785365e-01
-3.147065666696569619e-01 9.020639403017029212e-02 6.244990141962700747e-01 -4.359687773486015661e-01 2.235699130992204742e-01 8.764846608351305468e-01 2.177870714432646737e-01 -7.085905848113738942e-03 3.672124377790719207e-01 -4.478279419504795356e-01
3.338801646830676789e-02 2.754690144284271391e-01 -2.284296699440763467e-01 -3.422253579807439383e-01 4.468860642188740573e-01 -4.801882444853482479e-01 -2.627415966172392814e-01 5.188832838064445785e-02 -3.908953789234917431e-02 -3.261485550319571103e-01
-2.499154738701397580e-02 -3.750593963450660762e-01 1.283839018977148694e-01 4.190567404360998754e-02 -9.938422712265931880e-02 -1.802497468873903441e-01 -1.182749399097196008e-01 3.122973929474671256e-02 -4.014726959816329876e-01 1.759588619662101339e-01
-2.978239597806597860e-01 7.976768688147188868e-01 9.332938327231392606e-01 -6.464074123982027631e-01 -1.023004667267867762e-01 -2.932565163008173936e-01 -3.121093209432104221e-01 -1.987726986932325801e-01 6.924267395350842680e-01 -4.577218780763026018e-01
-3.693138080022009273e-01 -4.518048108355300907e-01 -4.932996298568046445e-01 2.974640874580640193e-01 -2.502736743628395377e-01 7.489069027147005064e-01 -2.194752178233275730e-01 -5.631000769118540417e-01 9.759411022929012636e-02 4.991109144576322265e-01
-5.287251129946325401e-01 4.614251631726280500e-01 5.554846181920093384e-01 -3.214713599067383631e-01 -1.739213823105278112e-01 3.106946067633526432e-01 -3.085975968894824062e-01 2.405649156977854863e-01 -5.964247009286455237e-01 -7.358245568726928809e-01
-2.852945186267309419e-01 -5.056011788901100257e-01 -7.261118653180095306e-01 -4.957665516321609900e-01 4.265185323806990336e-01 -6.062004270760650293e-01 6.115218346033664959e-02 -3.560092617071625165e-01 -4.032404508118931363e-01 1.844455549491860746e-01
-1.631802310881698415e-01 -1.340437941316642012e-01 -4.147416334622185397e-01 3.408488340437443309e-01 -1.145807723023422285e-02 -8.025192236663315770e-02 9.199463574503236041e-02 -1.644947785191574474e-01 1.857967575131738436e-01 -4.147111594811376811e-01
-3.392063998280004378e-01 2.088616318944816752e-01 1.810284189397375065e-01 -2.134457821654293375e-01 -6.667770777787003222e-01 6.161917030286455654e-01 -1.545168650273281985e-01 5.298242865613108643e-01 -2.092964039728765213e-01 -6.470000210518902506e-01
2.037945385138856813e-01 2.113908308375238299e-01 -1.590474068514849681e-01 4.045487128939307953e-01 1.315732995109289150e-01 4.534164254524077897e-01 1.105464698283489117e-01 1.956740664244783698e-02 -1.604983410184568915e-01 -7.392883010829100687e-04
-5.890611296895560400e-01 -2.922934723009288360e-01 -4.695380077776784566e-01 6.489851448184200677e-01 -4.876242941620310134e-01 7.482630811150742245e-01 -3.555898106014636073e-01 -4.868626236868447421e-01 4.901210529360890411e-01 5.761268774470074128e-01
-5.620869536829150581e-01 -8.566751515129328309e-02 3.744203859944845725e-01 -1.472454146717981291e-03 8.647841077334585957e-01 -2.767115036322711497e-01 -2.559354671679712756e-01 6.336231235344585988e-01 -2.676659406321951762e-01 4.435370650397376102e-01
-3.948482714957264328e-01 -1.856782223511579122e-01 2.099557338549052354e-01 -9.919009884851800671e-03 -2.306046007970072587e-01 -1.296511432201594705e-01 2.566124199219222968e-01 5.578245546896156565e-02 9.582056329620311508e-02 -8.260453649961590691e-03
-2.078290259364712067e-01 3.324483419540847917e-01 -1.307939246339916151e-02 2.536298912543809014e-01 4.040138992740630597e-01 9.649855537875633160e-02 -3.797825861304308104e-01 -2.573099233603020619e-01 -1.175066221505124547e-01 -2.189132360066424754e-01
-4.763952135152892814e-02 -1.798192596769819240e-01 -3.513527827145664084e-02 -2.297103005233986084e-01 1.303026653138430191e-01 2.335033996080284335e-01 -1.394854085092226970e-01 -4.708684839004430578e-01 -4.049010122459514860e-01 -7.416102542873458381e-01
5.756011444351450956e-01 -2.041013270869992402e-01 -5.795903822421226703e-01 -6.238932609367917603e-01 1.659588049737732718e-01 8.948431022987582417e-02 -6.099210632413104571e-01 -7.825095965416180299e-02 -6.920119370382096236e-01 5.825886219088278750e-01
4.768035692800425274e-01 -6.735873694183210914e-01 3.914998142955513072e-01 6.087219910828344238e-01 6.507760021047576116e-01 -3.100678939252600741e-01 4.249154102419627765e-01 1.729498585824958135e-01 -4.697954991626062358e-03 5.064968717916671359e-01
4.801601220642134349e-01 -4.894953200160119255e-01 -4.797496662573031978e-01 2.045974461501187946e-01 -1.470567721057932098e-01 -4.676397093242484204e-01 5.844380318656925422e-01 4.815600703736414023e-01 -1.595118215347053614e-01 1.261970109669630635e-01
2.020506434477453706e-01 8.049356820724907768e-01 4.999216024644989043e-01 6.042469280276764332e-01 7.283902326838577190e-01 -8.185360681444934228e-01 1.696596350224877370e-01 8.251470956113814426e-01 3.137709956642066866e-01 -9.033852638068884389e-01
4.063045239197460301e-01 -2.470467337563376498e-01 6.860124382871193860e-02 2.050229120904287772e-01 -2.742791462608178965e-01 6.477632741044961895e-01 -9.079346762727538711e-02 2.565117352128666872e-01 1.686267336736335942e-01 3.767037766349000671e-01
4.999355185977836236e-01 -6.394826977011308644e-01 6.328985428830180560e-01 -3.912322007867708451e-01 -2.226184439580079499e-01 -1.630304470599243383e-01 5.926088332023062843e-01 -4.936563692914139323e-01 3.727748486989723165e-01 -2.849391729014119079e-01
6.835767033624919886e-01 -2.525739953237012281e-01 -7.205362451441971183e-01 9.108447306382264630e-01 9.526712698108789901e-02 9.329514199650348338e-01 7.058658065309266760e-01 -2.776641837456139683e-01 -9.005386939298287707e-02 7.986245431059437738e-01
-2.626092359060476222e-01 2.732369677569005881e-02 1.732760667872523417e-03 -6.355572132258885398e-01 -5.175867841141409409e-01 -2.834081653035482873e-01 3.071552259726883505e-01 -4.935078369271175824e-01 -3.615888747928546754e-01 1.552095589617079052e-01
9.203849330410593388e-02 -1.004717295708090763e-01 6.598791735782467971e-02 -6.567662319229987389e-02 -4.851026884273603595e-02 5.668849928659602105e-02 -5.282283289335363424e-02 5.104915043111215786e-03 7.811800326536323669e-02 1.488859028254830019e-01
-1.366746568811337825e-01 -6.421371787094012351e-01 3.167608345501727873e-01 4.598343746640413954e-02 5.032365976158895693e-01 -4.629341564076598914e-01 2.393031743010574364e-01 -4.257523268380623005e-01 7.666491827440686802e-01 4.601740312135528255e-01
-5.267754239131622329e-01 6.926623427797758970e-01 -1.050338054094803603e-01 -1.847598237817912326e-01 5.160328124101106750e-01 5.608625401793904119e-01 2.659525656483201494e-01 5.054813626232851353e-01 -5.077478394672046980e-01 -4.267150279904367571e-01
-9.171251000736943548e-02 -5.657246354753580064e-01 7.865340418845076509e-02 -1.581800100807352269e-02 2.228688447126331018e-01 2.128696247070586967e-01 2.074583708298284590e-01 5.334628011255837521e-01 -3.970478267595826116e-01 4.683958444832100332e-01
-7.347085909932894454e-01 4.163700101485251492e-01 4.796602122833157344e-01 7.919570021711314078e-01 1.641550250688373624e-01 6.291101999336877748e-01 -2.051160852364936338e-01 -1.075177159873580701e-01 7.740417564379735715e-01 8.694389489815503025e-02
-1.747789714306120235e-01 7.035077646702847520e-01 -6.180124995358741158e-01 2.305165601577687517e-01 3.333021039064443247e-01 4.315845395103115045e-01 4.372389919385447632e-01 1.332982505073282975e-01 -5.782340976714007291e-02 -1.894022547375852350e-01
4.968481755287568885e-02 -6.733926326687109110e-03 1.998701871383815887e-01 1.081167612152963281e-01 -1.221009773997379783e-01 6.779864110605457461e-02 5.747089714754614193e-02 3.792070177495768246e-02 6.900710551311751983e-02 -2.236052098285850054e-01
-5.065708958415355845e-01 5.987921613755391448e-01 -4.974578893412248126e-01 -4.454632918565069530e-03 5.855807998473852027e-01 -7.675408805479517760e-01 -8.134609632390220613e-01 2.683654746947495284e-01 -3.522520848328292709e-01 -7.162789257028940870e-01
-2.804240583891502436e-01 -2.782299743370314493e-01 9.674742671439301445e-02 1.838473340975443626e-01 2.198987695958269095e-01 -5.564837499177196500e-01 1.365541917126691651e-01 7.235175754824934025e-01 2.994976578529152667e-01 -1.017505529536409381e-01
-5.647449400819423149e-01 2.134880067685379079e-01 -8.465942413885254592e-01 -3.520289727385735312e-01 -6.918058988432781442e-01 7.368403292096090129e-02 -8.540488522452418518e-01 -5.270760640411623621e-01 8.181926783312285512e-01 7.047127719899133336e-01
1.547013173713819856e-01 1.418032026793505374e-01 4.865389132645202980e-02 -4.529144985454502392e-01 6.790078821461061065e-02 -2.107454288857071589e-01 -1.421363983509444651e-01 -2.125693311970611732e-01 3.713115988570728221e-02 3.464228306153194908e-02
1.096604431469328789e-01 -2.646333761908523097e-01 3.344747887357122917e-01 4.923514453144360870e-01 -5.503317669285969771e-01 2.138398645716011459e-01 2.876654582620200573e-01 3.060768231187865548e-02 -5.681500592510584369e-01 -6.684530298704733919e-01
4.642918808505753780e-01 -2.516637806327932658e-01 3.830740991865896894e-01 -2.022405566484682463e-02 -2.988574866341314196e-01 -4.640280906383341120e-01 2.533025846329153841e-01 -5.934317666722335183e-01 -2.755318427228124478e-01 5.679935001075220313e-01
7.074854736350859596e-01 -4.912090484045016359e-01 4.962094326497499264e-01 8.363698283071916428e-01 6.298057389938052086e-01 -2.631858923427047789e-02 5.382801039493949613e-01 7.070415843786482801e-01 6.110836966640276202e-01 1.027133788683192162e-01
1.009636055001423838e-01 1.430973974043875940e-01 4.718090489648334440e-01 -1.697403030049348116e-01 2.593903396685319218e-01 -2.327288771392142519e-01 1.221666354477595612e-01 3.062150560677017186e-01 -4.494306888714963422e-01 -4.307848403139279414e-01
-4.124384674382868265e-01 1.436297428779718943e-01 4.386433631735195404e-01 -6.518116319093050226e-01 6.364191544812188850e-01 -1.616025800725426065e-01 8.152228582466709561e-01 -6.202184152472024481e-01 7.985559932528715765e-02 -4.970157946492558682e-02
1.917561980504854102e-01 -2.993430134557305555e-01 -5.220265938256378746e-01 6.667000489136590789e-03 4.542519755804882292e-02 -9.932624651386265380e-02 5.153156035086560172e-01 5.389355181180780496e-01 -8.648992011063717789e-02 -7.408733211532203544e-01
3.428781573367624680e-01 -6.831768390609708197e-01 -5.246118697869707193e-01 2.159587730259759919e-02 1.749856582853414333e-01 3.293971449592812406e-01 -2.682416828250911989e-01 2.145905924884670135e-01 -3.386254458466739226e-01 -4.584465761193659561e-01
-9.542556250275088803e-02 5.161718283100176219e-01 4.571752287986825536e-01 2.720341913141460233e-01 -1.350882187499614362e-01 2.758319329845400070e-01 -4.364328548964276355e-01 2.644648484799674293e-01 -1.970552281091127872e-02 -6.260247139494873325e-01
2.875761077742833849e-01 -2.227469000631605855e-01 -1.996439304811901960e-01 5.206558436321954142e-01 4.551952263851024028e-01 4.879403031943573832e-01 7.930222008240384035e-01 -8.647772750331400582e-02 -3.623550194796807400e-01 3.606366207274818159e-01
-6.102869727002757649e-01 -3.093559044504187727e-01 -6.572706160959503052e-02 -8.736813811099773674e-02 3.040520852673236352e-01 -3.745635047321277944e-01 3.903296273733932592e-02 -2.453047479340129122e-01 -3.536133573646300654e-01 2.772732870925081472e-01
-2.676250860226011552e-01 -1.799272506771746050e-01 -4.727603780964411140e-01 5.825606980371590415e-01 3.217210577773659264e-01 4.840967234322018364e-01 -3.872241914304738741e-01 -3.220166864457993383e-02 9.011215628731621824e-03 -7.243748474017762048e-03
2.757470061243200155e-01 2.489519102143894769e-01 2.250344818513828893e-01 -2.914639694559095218e-01 -4.563761733896899986e-01 -3.013253581770962697e-01 2.899609544858687826e-01 -4.184167165134334843e-01 4.542151808157658954e-01 7.290418793805553133e-02
-9.803886924447842433e-03 5.554395087836143663e-01 -4.550145770483360330e-01 4.944744937763058124e-01 6.818028548672947498e-01 1.882906711042034165e-01 3.093854395264972745e-01 2.835866049655735854e-01 -4.888727059463978120e-01 -6.750748423321765168e-01
3.594742169618689864e-01 -4.707427941132251159e-01 -5.538606643512692385e-01 -2.940338622314911388e-01 5.979909839629071744e-01 -8.233197089481553155e-02 1.546676603991012887e-02 6.561381973354381003e-01 3.358031090422671783e-01 -3.062375008486197259e-01
-1.253700827194607903e-01 3.751170033134386128e-01 -3.454427864375354540e-01 2.314283174379377639e-01 -6.267684084419302692e-01 -1.487891623181786804e-01 3.421136765096213783e-01 -3.163553484371881552e-01 8.091120515394663038e-01 5.931144295036637759e-01
-1.489354468906484985e-01 1.359201341959164755e-01 3.947487924608195642e-01 3.141101223998514214e-01 9.257862469829801488e-02 5.967486095543778069e-01 2.572018511612489955e-01 -6.326117521689655909e-02 1.953985503944488944e-01 4.076617656947835178e-01
