6.295672356729439256e-01 -7.967035863851897881e-01 -1.149692654712978629e-01 -6.200724622784813400e-01 3.226429859404351119e-01 -4.555640614742906824e-01 3.511753723693146756e-01 5.925255970758769308e-01 8.040774762156079891e-01 7.081473305520417094e-01
1.494890334873289761e-01 1.206239489016744243e-01 -3.884175708535599902e-01 4.039353552599916353e-01 3.958138888118559184e-01 -1.080103084362852989e-01 -2.521725263643709858e-01 -4.316793272131263515e-01 5.164032643857904281e-01 -2.683892861867282487e-01
2.789401205654432614e-01 4.417492741159618763e-01 -2.000849247388488891e-02 6.559827340618155089e-01 -5.671263670643853505e-01 -2.936352479328488974e-01 5.551759718715092440e-01 2.504496264324186372e-01 6.816207831822901353e-01 -2.661511056450688861e-01
1.595807595356464048e-01 -2.094359850236727216e-01 -5.685352380967753638e-02 -5.985620241501421468e-02 -1.668047855420258796e-01 -1.821299989201517200e-01 2.286147027311213054e-01 -1.974535639417219490e-01 1.658165692980913264e-01 -1.072039852856344899e-01
-1.454986033944071638e-03 -2.248757404832190439e-03 5.467762167246175559e-02 -1.161924144550320268e-02 9.079483574394081602e-02 8.305009559505475286e-03 1.808068013189369910e-02 6.119249833276659001e-02 3.949345757139319929e-03 3.033436910385707910e-02
-4.455935308857656429e-01 -7.471919000651100484e-01 -4.070867243964306631e-02 -7.938305903472770986e-01 7.016407888322172548e-01 -6.937968160485319391e-01 5.531130255691066866e-01 7.118225009640029022e-01 6.744145856290523211e-01 2.297480341813869509e-01
-7.154284883797391512e-03 1.560454345860342873e-01 5.260569219700849536e-02 5.633292330045511567e-03 -1.305733773268681272e-02 1.339068403454830684e-02 4.039561202203485746e-02 -2.233665168876560923e-04 5.208030758550138972e-02 2.677471578542695799e-03
-5.349392691510114206e-01 6.803679187904300152e-01 8.081720441192767612e-02 6.855668594363216739e-01 2.258467382121540357e-01 -3.245518470717783655e-01 -3.838800628372754375e-01 3.202798392701762809e-01 -6.047753580442603027e-01 5.598790643450949345e-01
-6.941272067631835962e-02 5.907278797346222632e-01 5.500718561581338095e-01 -5.604976615065617729e-01 -2.787674345377502694e-01 3.699897236998475614e-01 -4.188613588200384985e-01 7.196023178435294598e-01 5.170729043838498962e-01 -1.897457098926504104e-01
6.904455930725021673e-03 -2.548542613076441605e-03 -6.314996959125311095e-03 1.367179708039162334e-02 6.922594122220286639e-02 2.825037187027337401e-02 9.684095814302929109e-03 4.391532313245001540e-02 2.008144184712768940e-02 2.563944039268269484e-02
-2.503830362806721416e-02 8.518637474582951841e-02 7.828855188475554450e-02 -9.324277412333480120e-02 2.380136903014545835e-01 -8.261738086897158113e-04 -3.290849883341401966e-02 -1.061173486237553844e-02 2.686470433131083260e-02 4.961449278421294073e-02
3.423036297689392993e-01 -3.188987994179062202e-01 5.946399843807678165e-01 1.864225062458627902e-01 -3.493944673943483875e-02 -2.090303581468310468e-01 5.403080863557226943e-01 5.067612122162995503e-01 -4.532989110652344555e-01 4.087342568942293197e-01
-4.232397776944512580e-01 -4.361231006826590817e-02 4.432014820510650766e-01 5.820969555118731265e-01 4.659796141906476508e-01 -4.632328755832205158e-01 2.076362847425245461e-01 -1.353913416573014894e-01 3.166389673500670243e-01 -1.284776240514742818e-01
4.168731638001341722e-01 2.002083455066216988e-01 -4.649421940554310795e-01 6.373096171429664114e-01 1.753577821085893218e-01 5.431003350732394735e-02 7.421810771193497747e-01 -1.617404526739661952e-01 4.114944265830698944e-01 2.863175088431507698e-01
3.106853979075658301e-01 -5.501259530459819969e-01 3.575743714099678949e-01 -2.367107038336769553e-01 2.909712288798680935e-01 -1.810551381433377072e-01 -4.553469591629489832e-01 -1.671294537922257961e-01 -2.009788271786961122e-01 -6.843655718293054635e-01
-1.416106866804378583e-03 1.483359347596924400e-02 4.558854206027358053e-02 1.623833126832684159e-02 9.630789774984840901e-03 4.218971723940988933e-02 5.635584010853835965e-03 -2.208340188374777191e-03 2.105925526685941199e-02 3.548476488995731121e-02
-4.225895556977618539e-01 1.032997978085637286e-01 -5.562707228147975025e-01 -4.794876378992153354e-01 -1.082288026429745718e-02 2.098343002300231686e-01 -4.239239642884756742e-02 3.647419913644245892e-01 9.803585141017460980e-02 2.429292619566429945e-01
8.297685274221644480e-01 -5.337679503323611296e-01 -7.693730375812456446e-01 4.700898738317503822e-01 5.958946030386035320e-01 3.149315557239695251e-01 1.115674743628497639e-01 6.657060329057704617e-01 8.042217327738453436e-01 -4.411914868661718225e-01
1.582756411096381596e-03 4.203044065584165406e-02 -5.901550052403335966e-01 -4.771753436101700552e-01 -5.784856416086485709e-01 2.855865198067281119e-01 -3.642077976108589743e-01 6.683541298978656897e-01 6.725293092185846699e-02 1.282868041542029741e-02
-4.774520581121562135e-02 2.554878376455590461e-01 -1.376342451561035352e-01 6.012157338772374654e-02 1.852539528893890342e-01 -9.135220788475485743e-02 -2.168173267209698718e-01 1.530467212534089572e-01 1.563371753419411647e-01 3.413374558278726295e-02
3.930700995174066063e-04 -5.471021534629370853e-02 -2.439703667785780572e-01 3.685833987183445570e-01 -4.129491741499756730e-01 -2.461492051042435056e-02 1.805444491133357532e-01 1.866170678841315156e-01 -3.133718163507629439e-01 1.797724751282999689e-01
2.806400897999867805e-01 -9.411486117372630522e-02 -2.421887275395732397e-01 4.074821892534314927e-01 2.707007547861404184e-01 1.663224675983502876e-01 2.148614012461357303e-01 -8.762598344264403705e-02 -1.278446328026178469e-01 -2.138534963978137859e-01
6.094125944556156443e-02 4.298021375087301421e-01 -2.180610254108784896e-01 1.769364209422001066e-01 2.620373841033057372e-01 1.349314546952369298e-01 1.046564957053782580e-01 -6.632460522642635858e-02 2.516482143753622780e-01 -7.165994740544955055e-02
5.222954993226407439e-01 1.115351187898572377e-01 8.166509128554578778e-01 -8.842823112706894584e-01 -3.956366021601449012e-01 8.722718877845686558e-02 7.580247241360241750e-01 -7.725533436178049218e-01 -2.096305933152534384e-01 -8.078288221534905000e-01
-6.274393080055620242e-01 1.830484703831548321e-01 1.219887986698591116e-02 -6.603058651991716710e-02 3.367650841833991215e-01 -1.371474378224407376e-01 -6.832795717502750943e-01 4.638050918547126367e-01 -6.521256111461947169e-01 -6.021767060908631564e-01
1.156386572026956230e-02 -4.613022066133084381e-02 -1.606607999783194254e-02 2.497706698726026298e-01 -4.911949868342445069e-01 4.258224956943381101e-01 -2.080429172423349515e-01 -2.465526353622285796e-02 2.216379100692690562e-01 -1.163338076828620005e-01
1.709482337810699915e-01 -6.255187669241444315e-01 -8.096680331789052332e-01 -8.168498353267590606e-02 -3.101285664949151588e-01 -7.991210317531708407e-01 -6.673947889953011359e-01 -7.254361636478499076e-01 8.640282373031954455e-01 -5.172249716421697396e-01
3.691147475797378341e-01 4.743478976705073902e-01 -4.057808994231582728e-02 -2.686051189267811834e-01 4.391627053407574088e-01 -2.808608911736238944e-01 5.139980575889340209e-01 3.522425857567783591e-01 1.548696172120290204e-01 1.386104238414826717e-01
-3.189408963684214338e-01 2.886317021418312589e-01 -3.535686413605065859e-02 3.107516995041173513e-02 -6.905213899417214085e-01 -2.402081847375424350e-01 3.287232775117739925e-01 -6.535375902193176767e-01 3.862976112026900721e-01 1.121332204108751009e-03
-1.729379647163915568e-01 4.785465472309268775e-01 6.151567846842762588e-01 -7.018418340682981704e-02 -2.216893445381443728e-01 -5.408697116207845657e-01 -2.597015937041203260e-01 -4.138305775515668805e-01 5.211892840594144483e-01 3.623866666023290439e-01
-3.794169078351830593e-01 -5.427306277943881874e-01 8.691147779396040107e-01 6.493154671834957536e-01 5.111213493465335267e-01 -1.407643681472954544e-01 -6.768773563578022179e-01 -8.306574537869980401e-02 -5.789920204588743236e-01 -6.626021564027888555e-01
-6.658195940639355381e-02 -1.095793176006690656e-01 -6.919663421799562286e-01 3.337579678946641648e-01 -3.806228752207755361e-01 -5.820857273675296151e-01 7.983428619002884696e-01 -1.511890204583427877e-01 -1.319191452556560673e-01 3.532518253415998233e-01
-1.485300085796927849e-01 6.075919297136468389e-01 -4.887256364622467597e-01 -6.695235977628128943e-01 2.553206874291673589e-01 1.317359752936742845e-01 -4.271173581970622024e-02 2.512947418788263332e-01 3.148843066795197210e-01 2.501688704876714464e-01
3.104496968716140559e-01 6.365556409525943149e-01 -2.221341699894464616e-01 3.541181588014013504e-01 -6.187805411647003817e-01 -5.807302244034222571e-01 1.080251645131256599e-01 1.935764791962155673e-01 -1.162732998208048513e-01 -4.416357348538929584e-01
-3.388409114648766735e-02 3.153606804348595971e-01 3.519447928277636972e-01 3.136901405075516180e-01 5.178909365378802088e-01 -2.794062373316936188e-01 -3.706490912258361692e-01 -5.376424652876666405e-02 -5.646573328228847721e-01 -6.159361276980362260e-02
-3.529410446829361336e-01 5.907780326762953615e-01 2.740421873176751566e-01 4.300518661398124998e-01 4.041138658135854378e-01 -4.504928987090527359e-01 3.575755419234046273e-01 -2.650980256309079519e-01 7.192042545030655765e-01 -4.223183495299703272e-01
8.201449394258650272e-02 2.785807403660625278e-02 3.649843850766108094e-02 3.517960988024915452e-03 -6.391446590050039490e-03 -3.258702895487403887e-03 2.550077518659169418e-03 1.381409864612540284e-01 -8.033022940010651688e-03 6.063672954802400324e-03
1.708954736828470489e-01 -2.087651433714029017e-02 8.406290485196957554e-03 -2.045528455762523068e-01 -2.951306698241974447e-01 -4.902025220664974967e-03 -7.242961243704809648e-02 1.312171777172506104e-01 -1.249576130226413839e-01 -3.271007523538948525e-01
3.832566783915757336e-01 -5.494663167867660514e-01 -2.865056093232023482e-01 -7.038300437847617719e-01 -6.874438342055015638e-02 -6.975646338169804173e-01 -2.024091619255821983e-01 -6.333697420870388894e-01 -2.119879187741540924e-02 3.076384307605439794e-01
2.026517251823963320e-02 -1.022617064931267555e-01 4.968541750410194850e-03 -1.701906240868241924e-02 1.676997579526471605e-01 1.930647694015491522e-02 7.412583597706780270e-02 8.397258099418872246e-02 -2.703791106117776205e-02 8.686741245049954541e-02
1.161363132740939746e-01 2.518225887184437073e-01 -3.960664592120044514e-02 1.012120145479798311e-01 -4.564146983945562008e-02 1.849492272517823666e-01 -3.073010444240408812e-01 1.934259224423665879e-01 -1.233183453151623105e-03 7.201946517525693869e-02
-3.871089225320079596e-01 -4.154640472120636752e-02 5.806275116722776630e-01 -5.049995704033403282e-02 -2.540610320081135298e-01 7.136324341866908672e-01 -3.185704867887891312e-01 -5.213687338552558392e-01 -4.079368840698644472e-01 5.408350313177590074e-01
5.804145102253068789e-01 -7.633477072733145519e-02 -2.596747430669116286e-01 6.619141040098902584e-01 -2.619676603812811089e-01 2.611728791927608873e-02 -7.756583748394961786e-01 1.503440113695362623e-01 -5.355124953296303003e-01 7.419133635627669365e-01
2.541815058527912563e-01 1.770910555012455145e-01 7.159580412677107354e-03 1.185657757673610480e-01 -7.584883447031902370e-02 5.161050880132392327e-02 4.405666843402387955e-02 5.854499027728246596e-02 1.215255795802421129e-01 1.443649310258112994e-01
-5.196894129352120917e-01 -8.466984275144803229e-01 1.540620713154209620e-01 6.034814634488392393e-01 -2.750749555200991958e-01 5.897336575568562500e-01 -8.404410040826941763e-01 -6.941398197180657925e-02 -6.877082228636963723e-01 6.392056199227831303e-01
-1.536617973135986914e-02 2.877960198698526276e-02 5.413085602810258079e-02 -2.794287354697611026e-02 -2.796492643100553788e-02 -7.804588017073461025e-03 -9.303913509932462689e-02 5.546338481019415234e-02 -7.949782662327084526e-02 -6.365551057550782044e-02
2.018316984875557218e-01 -2.369933228838394246e-01 -4.394670748346728439e-01 -2.986591654548842456e-01 4.334490467654962265e-01 3.667539869223049309e-01 -2.064628701362670460e-01 -5.421768290278832225e-01 -5.206465403257104496e-01 4.965685319082641103e-01
2.834680452440392906e-01 -5.183523676689535398e-01 -2.137073585918954771e-02 -3.453274930284199740e-01 9.687945979316256451e-02 -2.986814308038609478e-01 -4.153257408341600732e-01 -6.599143144453051280e-02 1.048090888948804804e-02 1.815581667387322073e-01
-1.173238554888856588e-01 -2.970981072806298529e-01 -8.030945022842447822e-02 7.518483861509242527e-02 1.632364125503948937e-01 2.250004824638280332e-01 2.450893024917684127e-01 2.051093149640162705e-01 1.298366944149351998e-01 6.278391356437343362e-02
-8.564638024474992006e-01 4.480682516885942657e-01 8.861855916344563155e-02 7.386645980603586681e-01 -2.689910831549810477e-01 -3.179633119749566972e-01 -1.515732850001004217e-01 7.624114264675381225e-01 -5.122466391695812415e-02 1.403140179386045683e-01
-2.451938454704040982e-01 8.411906098358019890e-02 5.659478463165452666e-01 -4.033855374929357085e-01 1.996722452267104542e-01 8.072559594888758516e-01 1.952997577164169718e-01 -7.691078949811355064e-03 3.370152134392324639e-01 -4.150912683671277303e-01
3.842301757545877813e-03 1.457682329051077363e-01 -6.041093262213703685e-02 -1.545748522719164186e-01 1.803616275067018160e-01 -2.123782642604622184e-01 7.809217348372697251e-03 2.248584786553536885e-02 -1.121671108905214487e-02 -1.422781873548475406e-01
7.742871144866864119e-02 -1.719874882196797614e-02 1.653581840150848692e-01 -1.478215699051598810e-02 -3.807607363034734571e-02 -4.858940746542252109e-02 -2.594858751160088878e-02 3.038125908858233318e-02 -1.435752049721046864e-01 4.321886359145871159e-02
-2.860142953036062252e-01 7.673240251583292038e-01 9.164557879963538545e-01 -6.225843974050258023e-01 -1.041696520990439689e-01 -2.617479181542750055e-01 -3.140526509191606253e-01 -2.219401041764013371e-01 6.825995851962363137e-01 -4.091426470406920313e-01
-3.395814088396499897e-01 -4.367811738459567716e-01 -4.448749238224163904e-01 2.752286942512605639e-01 -2.322298616515876546e-01 7.257187062638265074e-01 -2.103913008686322805e-01 -5.145466329332174515e-01 7.546623577726321863e-02 4.402582583158141660e-01
-5.075984317053346961e-01 4.419706650899444256e-01 5.394372306891400681e-01 -3.209819528279166390e-01 -1.562980562421701081e-01 3.177568934941173984e-01 -3.198841585494786033e-01 2.312893419832190989e-01 -5.809652689768847189e-01 -7.123545544995616430e-01
-2.354291739422244845e-01 -4.537407134846896395e-01 -6.261997153739720101e-01 -3.936794929356782768e-01 3.807868951001833757e-01 -5.376289971063898943e-01 4.827798623025018887e-02 -3.179432429290809381e-01 -3.672618249018417824e-01 1.484418444316799035e-01
5.948795303251211419e-02 -4.600409980930147275e-02 -2.482736535175194548e-01 1.764824221337502608e-01 2.653813280294197233e-02 -9.484355828985951975e-02 6.804906104618693718e-02 -1.158249827889125394e-02 1.032749640845995603e-01 -2.359243641338232833e-01
-2.617309226766955654e-01 1.655122031761065149e-01 1.987994697839973179e-01 -1.494147755119068499e-01 -5.798081128924171823e-01 5.645649528010205920e-01 -1.296868390435849394e-01 4.419492893876880713e-01 -1.791848110747539802e-01 -5.519187928694827550e-01
8.804924348587400695e-02 4.219599447045204593e-02 1.040277533369387934e-02 9.854609140349723795e-02 1.174707575661605857e-01 2.818341285289914511e-02 3.116273931962060262e-02 -9.894060415831240629e-03 -2.722040231680316821e-02 1.233247950980160060e-02
-5.664144257485814737e-01 -2.823449125287118000e-01 -4.574371107059833630e-01 6.323701584620555760e-01 -4.816124970254503923e-01 6.953477016444942205e-01 -3.440268104189712628e-01 -4.620687102149904635e-01 4.826419636109898215e-01 5.606087093699430035e-01
-5.397691543410022552e-01 -7.965401871974504833e-02 3.621886290826676347e-01 -4.010077467944381073e-03 8.202651839423810154e-01 -2.675058107824266895e-01 -2.275789365751270943e-01 5.784967501416363733e-01 -2.557298380126138970e-01 4.230025516309202649e-01
-9.842932329642745115e-02 -5.390873809983733750e-02 5.976746151815752472e-02 3.775019156759491790e-02 -2.081019167772051731e-02 -1.010773851943229688e-03 5.322447936117619127e-02 -6.043544807874153511e-03 1.436194216908049347e-02 1.003788630706934082e-01
-1.077074850874721879e-01 2.413968309878062601e-01 -1.293395452700906410e-02 8.596999301205696109e-02 1.900068306153100128e-01 4.052189686175906164e-02 -1.752201033055403312e-01 -1.460093452580020212e-01 -5.773114776238522095e-02 -9.085829122030207594e-02
1.000101542289451306e-02 -7.761155972114963664e-02 9.990415456949681972e-03 -1.822335264167184166e-01 1.104238296427162286e-01 9.203540095299134194e-02 -8.789104149721642389e-02 -2.732676046995609620e-01 -2.851660864277960616e-01 -5.715322164099939650e-01
5.237143559326585818e-01 -1.200218203504540837e-01 -5.310569754225922257e-01 -5.666915617006704764e-01 1.276339188316722717e-01 8.735971821191841624e-02 -5.197265035099928321e-01 -6.678174276492176986e-02 -6.279223361740543519e-01 5.158944203975270870e-01
4.622221417988072178e-01 -6.367640853160677628e-01 3.786727322656239236e-01 5.754593011773221356e-01 6.313958611856411718e-01 -3.043824437549738637e-01 4.018360760730952386e-01 1.689670089364100902e-01 -1.202677210545887582e-02 4.824123799126927570e-01
4.259848408160437083e-01 -4.502665820611959080e-01 -3.951763192873364305e-01 1.703552475113159770e-01 -1.395342220427197855e-01 -4.168867852049746303e-01 5.104345301146667735e-01 4.278825225228378160e-01 -1.286164152088067059e-01 1.135571018010208683e-01
2.113255087827819734e-01 7.912856562979314612e-01 5.096925437717978458e-01 6.022429495469679983e-01 7.223463237432923290e-01 -8.033568974263252116e-01 1.672193177837454359e-01 7.939032690014777849e-01 3.088718174305538633e-01 -8.709744066757244552e-01
2.920195306886782527e-01 -1.201906097714927762e-01 5.386100956107731791e-02 1.368477440544056400e-01 -2.041251492515930022e-01 3.889286963714884693e-01 -3.946656080355810670e-02 2.326457925366668400e-01 1.451884722766880742e-01 3.408266412664199829e-01
4.346767761188402024e-01 -5.480976039106514319e-01 5.587265563905287058e-01 -3.540367280130761740e-01 -1.772255856402155938e-01 -1.574731056933519613e-01 5.528563251849570870e-01 -4.481239317656904864e-01 3.279470908962631714e-01 -2.355689807264919888e-01
6.766387347234890104e-01 -2.550036001543870556e-01 -7.074584532560286299e-01 8.932583712407800025e-01 8.626010642852723065e-02 9.341072077569158028e-01 6.929450204352914922e-01 -2.708447988666320971e-01 -9.290677505436950590e-02 7.890342439403916774e-01
-2.180878428277475134e-01 5.698723478306372964e-03 5.735210295895664528e-02 -5.281917896166785642e-01 -4.312045643802753236e-01 -2.342034646636899919e-01 2.236652059815131266e-01 -4.093805291418699532e-01 -2.994308203028636650e-01 1.456384748051956224e-01
2.987159872348744104e-03 4.440257757852145853e-02 1.591596222040110933e-02 6.076438364712460211e-02 -6.996098410647642700e-03 5.726387356844947485e-02 -1.220038221734722058e-03 3.558554548487875835e-02 1.517542073088736475e-02 1.778235589116900286e-02
-1.254474410022146103e-01 -6.037052386130165038e-01 2.776251420528760283e-01 3.273677810263567189e-02 4.896749846342304258e-01 -4.555435905950201425e-01 2.442190661096961812e-01 -3.969627163443705808e-01 7.160343901015617796e-01 4.422743241127364278e-01
-4.827789489619644936e-01 6.689271981869585604e-01 -1.043239907887232448e-01 -1.642771553592202727e-01 4.578589397438471154e-01 5.145998871352469584e-01 2.672245144595730704e-01 4.609348804831441271e-01 -4.651815556937261564e-01 -3.976549541250539721e-01
-6.817841042568811849e-02 -4.258144499073445721e-01 5.903405419573953816e-02 -5.578233998417687911e-02 1.657104167241046366e-01 1.712797419152027600e-01 1.159129481655118421e-01 4.172005348476592879e-01 -2.845540746409722099e-01 3.339422192631981701e-01
-6.776909055400618387e-01 3.951869165456620703e-01 4.483789642484100058e-01 7.206257672394785763e-01 1.307753308745343568e-01 5.895310386654233348e-01 -1.914222020179044137e-01 -8.658863224842883177e-02 7.058428923111353948e-01 9.201420085211121924e-02
-1.491792416564872437e-01 6.244763263707557854e-01 -5.616294126783737406e-01 1.917644578208329287e-01 3.066875476632974773e-01 4.223753638373021202e-01 4.003504360437955545e-01 1.156330301269886535e-01 -4.277650739309461075e-02 -1.580544656377398938e-01
1.129142536564991042e-02 -8.747809084890156156e-03 1.598837295358924299e-02 4.922782413964318926e-02 6.071721731974737135e-02 3.278679467468288006e-02 2.929852025476559381e-03 6.838551865909195393e-02 2.372686321373503049e-02 3.820295995857712901e-02
-4.907589968599961328e-01 5.983998872252115353e-01 -4.899834707858286564e-01 -5.544853759738805482e-03 5.722039222067725195e-01 -7.475820908133030684e-01 -7.993035404640764785e-01 2.623489510636211608e-01 -3.388811822148330988e-01 -7.029657158615519874e-01
-2.164396942492454734e-01 -1.732079688055273847e-01 8.266282352639707509e-02 1.393494082576142989e-01 1.454016400139775955e-01 -4.210417019644425718e-01 1.129355522797014094e-01 5.758074690178257571e-01 2.103643012940966950e-01 -8.324174741159660884e-02
-5.441623746005805895e-01 1.975081866898707184e-01 -8.115919438104294281e-01 -3.336114814135491269e-01 -6.752392439703964744e-01 7.846653049003085578e-02 -8.326841350593972013e-01 -5.073262045875637227e-01 7.996004348201586343e-01 6.880107134437284389e-01
4.553871368428659416e-02 3.599711023068057070e-02 8.175336098150678965e-02 -7.501001847708034520e-02 2.168772577740030877e-02 -1.004439708570137660e-02 1.027209417136502358e-02 4.737333070150100828e-03 -3.866719879847435159e-03 1.087549933331042815e-02
7.628301746776426639e-02 -2.080613125248467754e-01 2.931640198692925248e-01 4.339973835462517804e-01 -4.840942695306252319e-01 1.827264780437510561e-01 2.291065056051781734e-01 3.632532631205981355e-02 -4.974207312116912250e-01 -5.596440884842590613e-01
2.547521225474044249e-01 -1.286546612168460446e-01 2.534695876151661365e-01 -3.507613302229781876e-02 -2.156392033663180607e-01 -2.560288223321494638e-01 2.236113115380793104e-01 -2.907733510407089494e-01 -1.396396399579005465e-01 3.255686731835741865e-01
6.966187217970745138e-01 -4.806261110180095053e-01 4.769200766744263742e-01 8.245864611619161400e-01 6.135122039753080347e-01 -3.284399795738893874e-02 5.270957241729913312e-01 6.937013270583770597e-01 5.924948398435713193e-01 1.054268781805028227e-01
9.401414587636859610e-02 1.158513437991596923e-01 4.680221764876680290e-01 -1.441912378434560271e-01 1.881492729272371267e-01 -1.975841041739849480e-01 8.902318225149165321e-02 2.663474153647675813e-01 -3.732041366030139362e-01 -3.569363391340240610e-01
-3.572689215591277057e-01 1.337796918337112451e-01 3.853723923400044216e-01 -5.818511185584002154e-01 5.706253902934097511e-01 -1.230653885320421165e-01 7.214007623754701282e-01 -5.610292466491297869e-01 7.491608087147712258e-02 -4.131130636273402240e-02
1.595446441482585853e-01 -2.211789640314012761e-01 -4.216841604416067812e-01 1.237399258076528515e-02 5.096760499151196250e-02 2.175596756529629434e-03 3.875182229986834370e-01 3.990213928058890525e-01 -2.881146453716620232e-02 -5.154590917279829876e-01
3.055980819567284956e-01 -6.160353365027603223e-01 -4.748534424990191738e-01 3.025482010093315244e-02 1.553604376005831011e-01 2.925665503358417241e-01 -2.638110747839232384e-01 2.009575270911456712e-01 -2.685097335559198939e-01 -4.037060452089637486e-01
-3.716265547079853487e-02 3.737733105092606034e-01 3.204174342940130371e-01 1.838814474943817334e-01 -5.789204610780174232e-02 2.225770267235666067e-01 -3.249597003415772289e-01 1.854504712791286702e-01 -3.222651246978077083e-04 -4.193251300315519736e-01
2.507399056246042979e-01 -1.879408367585926887e-01 -1.572807855334084626e-01 4.524302114948827724e-01 3.878425089831123995e-01 4.654561807066250334e-01 6.937498772942075620e-01 -9.294143279962455151e-02 -2.937925426051453126e-01 3.397212019196076405e-01
-5.134432889207066752e-01 -2.175046512412487643e-01 -5.316375653842935617e-02 -1.113127651218048450e-02 2.640890431120955784e-01 -2.486660021272266985e-01 5.627251426822782628e-03 -1.837569881676988648e-01 -2.874799372907329564e-01 2.403194529416336489e-01
-1.809431503523566687e-01 -8.162195724951715192e-02 -2.720123545116819863e-01 2.768589232798580047e-01 1.869799753460069658e-01 3.327912176086196827e-01 -1.328533797635919056e-01 5.608679957593759591e-02 -3.962293000889014101e-03 -4.067857098515633568e-02
2.154697621647129469e-01 2.401393232834504732e-01 1.745398414072956150e-01 -2.161703655865256368e-01 -3.662216001681453115e-01 -2.438780208724631859e-01 2.296793485929078948e-01 -3.195232226611169901e-01 3.552769515830686009e-01 6.597649767910422625e-02
-2.881813043797465840e-05 5.339176556708427057e-01 -4.411198842940535769e-01 4.750891906848194179e-01 6.463972578974892524e-01 1.769924982383146439e-01 3.233402093953131051e-01 2.758221820505035726e-01 -4.689539435198363249e-01 -6.462273490829144595e-01
2.852969687890537509e-01 -3.760051083002882155e-01 -4.028833561742847791e-01 -2.353395473369948032e-01 4.767884697277734452e-01 -5.528381493111903661e-02 2.100406289904228202e-02 5.237591585092218338e-01 2.648502539832348068e-01 -2.478344159342480979e-01
-7.081778967532192937e-02 2.977361625178313598e-01 -2.514162933341930195e-01 1.814980138507965024e-01 -5.125279730803894429e-01 -1.678381756241067724e-01 3.096183842294577548e-01 -2.777111206349507921e-01 6.692780404826186302e-01 4.521641696041159841e-01
-2.536769943620955856e-02 9.944844572060583532e-02 2.285987620495925909e-01 2.121828342171965254e-01 7.956158538739872832e-02 3.752931275339869699e-01 1.734776493772850481e-01 -1.024198214121255085e-01 9.210337009517409468e-02 2.666846646523460818e-01
