6.639255161792251281e-01 -8.643779801160176302e-01 -1.372133089984688414e-01 -6.490146195929050732e-01 3.659303103791182732e-01 -4.664293078912301049e-01 3.478016659266648380e-01 6.378241353646906253e-01 8.586433505221968687e-01 7.663824796604505885e-01
1.725632153881482000e-01 1.292510508395606772e-01 -5.045272067533790317e-01 5.055465483842880303e-01 5.080634333200305663e-01 -1.325255535528068462e-01 -2.644865706698770746e-01 -5.050371510822302401e-01 5.966153799105153865e-01 -3.137256045513083236e-01
3.373190835116446906e-01 4.969216747034205794e-01 -1.531278930774774595e-02 7.756969135424136574e-01 -7.053176288010966077e-01 -3.448983014238378719e-01 6.621467553691227081e-01 2.690918631702958197e-01 7.726463310671921603e-01 -2.883181264943356914e-01
9.583023135531547332e-02 -4.876286876847891749e-01 -1.687752291162580576e-01 -2.100185705040506778e-01 -3.952950738386477592e-01 -4.061023578857305694e-01 4.974265103996908799e-01 -6.048610092107885583e-01 3.008390138252177159e-01 -2.793511235673313275e-01
7.355519385502606866e-02 4.014035982531154179e-02 1.693227114317166215e-01 -7.250186901222242797e-02 -1.038752086101903116e-01 1.621974724196658790e-03 -7.337466407815365632e-02 1.314211172567981145e-01 -1.896525937508187001e-02 3.773180665236395420e-02
-4.543215914687241952e-01 -7.773023895351147683e-01 -4.724397895728136426e-02 -8.001882653809473389e-01 7.364770560254768617e-01 -7.038740936261919101e-01 5.727019204209541359e-01 7.312812926260716662e-01 7.052000483609180970e-01 2.371487904814447711e-01
-4.912621925718602123e-02 1.693369922024367397e-02 1.930221051201924387e-01 -2.051398655295957330e-01 4.630423394762801272e-03 5.924774219168305045e-02 1.715298490691928579e-01 -2.061792541017683916e-02 -2.088129433471985485e-01 -2.157872790977844735e-01
-6.662137857685134223e-01 8.124338240509878517e-01 8.740732507753530556e-02 8.165909351033384667e-01 2.610384817644758049e-01 -3.652255914356586364e-01 -4.820773192523298278e-01 3.711915625133304086e-01 -7.289423699605102058e-01 6.752573922029971865e-01
-8.393604641911062147e-02 6.562517518452507526e-01 5.949351267188149883e-01 -6.064553182322627300e-01 -2.884441943617512827e-01 3.988402577889521572e-01 -4.866471511399213523e-01 7.761853448031600378e-01 5.765675192397312632e-01 -2.090789789768917051e-01
-1.695461623403558826e-02 -1.085992940960124956e-02 -8.036048694010439891e-03 1.228172220753802855e-02 6.739106698863940592e-02 -8.063108712126855482e-02 -1.152985702064101767e-03 4.986167111131434293e-02 -1.035925745616789878e-01 1.740089573231365372e-02
-1.147408043832671143e-01 -1.305448750755467680e-01 2.694100376163178212e-01 -4.302665860604820702e-01 5.065634506951376403e-01 1.059682934675426451e-02 -9.952832292705009187e-02 -1.573704870029893066e-01 -3.508677158840955122e-03 1.015418724431644409e-01
3.795601405265562334e-01 -3.584384911149104402e-01 6.375728400926649053e-01 1.944273597069905435e-01 -2.822330226670603445e-02 -2.326758040382174431e-01 5.943818630379192891e-01 5.586078189646013215e-01 -5.162342019082144517e-01 4.309972389070703680e-01
-4.960121664481508819e-01 -2.390509083681437857e-02 5.621974578727767513e-01 7.087816326820499668e-01 5.088733973687913359e-01 -6.208814099338624271e-01 2.148539777585324884e-01 -1.599140918933753264e-01 3.723201681560959764e-01 -1.590512918169084411e-01
4.693652569789049100e-01 1.643439431513060989e-01 -5.224686947889306543e-01 7.442116201140468457e-01 2.268774488354860508e-01 7.248701826711730078e-02 8.264265050990222683e-01 -1.968327350924825858e-01 4.754092263715453126e-01 3.291048116175094851e-01
3.589754877391236887e-01 -6.454751671831984172e-01 3.749174594487388879e-01 -2.783840150027905858e-01 3.503974302357032444e-01 -2.161462096030638824e-01 -5.362337542232241683e-01 -2.165065610386104067e-01 -2.269109490348398817e-01 -7.771543092337620529e-01
-1.383990318902922345e-01 2.154784685927784715e-01 8.827953189703967307e-02 -1.933004755709344597e-03 -8.557423373680581036e-02 2.039165286481532322e-02 -2.013308551576892258e-02 -1.086186945788221031e-01 2.090356690834720421e-01 1.398003744130252302e-01
-6.402743057986364228e-01 1.626036859480273766e-01 -8.106339942373076424e-01 -6.740801564761265130e-01 -5.013899754358178140e-02 3.723196247428461336e-01 -6.140762895699262286e-02 5.395476878310013769e-01 1.325516859361799693e-01 2.535997190230305232e-01
8.510011586340926470e-01 -5.423969096821568137e-01 -7.868237090865655148e-01 4.912249339409852644e-01 6.012130090490542811e-01 3.188741044912674072e-01 1.119389935148126791e-01 6.844011861432475197e-01 8.280188613878406434e-01 -4.450242297347452580e-01
-4.080875093584838964e-03 3.207612888233776771e-02 -6.712970205104173971e-01 -5.290171287964410274e-01 -6.195898179348801049e-01 3.054970727799048436e-01 -4.118383774252000751e-01 7.226863136861363390e-01 7.629949571002975217e-02 1.263435884285823291e-02
-8.376413252097508755e-02 5.269102312673143995e-01 -2.305706449153614723e-01 7.569354501055964440e-03 1.419836796616368024e-01 -6.606134903252321167e-02 -4.837741162876592615e-01 4.328082542120710308e-01 3.880217588134411422e-01 -7.858490923189055677e-02
3.972205444340469460e-02 -1.385221258676021597e-02 -4.378707495870303723e-01 5.780398996208382378e-01 -6.721271715157665083e-01 -2.656185965791967724e-02 2.944133104803674517e-01 1.784929655762386436e-01 -4.436620204102157961e-01 2.997134878344823172e-01
4.197299031309021933e-01 -1.328980820887034897e-01 -4.852880574695984106e-01 5.882512736072116333e-01 4.195709215942573511e-01 1.793811128554839429e-01 3.356508924239457459e-01 -1.013219977167065938e-01 -1.898416904182945175e-01 -2.671840778073709677e-01
1.183498519938454147e-01 6.907333802922525079e-01 -4.476750818867152870e-01 3.160052140812343313e-01 4.444871244340627969e-01 2.181034594801407600e-01 1.465420353065182701e-01 -2.383337686613122286e-01 4.061779728198034456e-01 -1.143213555278217303e-01
5.515800977196462229e-01 8.639372436421537127e-02 8.563755178495516818e-01 -9.179318392013541272e-01 -4.345433450119829399e-01 1.166357964355365373e-01 7.907130703403019156e-01 -8.158943810025612864e-01 -2.284361680910877435e-01 -8.504171853009296900e-01
-6.856885547210046505e-01 1.781925835823127413e-01 -1.488864193931231650e-02 -5.319858248684002089e-02 3.603777845010054937e-01 -1.662834229769861727e-01 -7.639704222946241963e-01 5.325603793892342841e-01 -7.387787754858347045e-01 -7.021390553846743598e-01
3.956708549882052839e-02 -2.087017670172407191e-01 -4.194007034819716151e-02 3.824546122424734018e-01 -7.183929988151452894e-01 6.308828869526851291e-01 -3.091640349796505594e-01 -4.373574563205879367e-02 3.061659877302014277e-01 -1.307749378449363509e-01
1.730859232099035694e-01 -6.514680063336655280e-01 -8.468348854304351692e-01 -7.739444390124888828e-02 -3.178001511631332598e-01 -8.315091143825513731e-01 -6.943350365761798981e-01 -7.455636066042604648e-01 8.849368167521856066e-01 -5.250382190996072396e-01
4.412049342532188834e-01 5.580242840393304649e-01 -6.058051524576481967e-02 -2.868055697965994910e-01 5.091980798581595691e-01 -4.187417829783121048e-01 6.244473127887303354e-01 4.088468159858190676e-01 1.892177522806068046e-01 1.619333298170052005e-01
-3.677983378988617935e-01 3.057366051847960620e-01 -5.375421365944804686e-02 9.048585949347917601e-03 -7.816590192381680513e-01 -3.232393184615511839e-01 3.891391646075614830e-01 -7.391745465030611362e-01 4.353402420532601624e-01 5.933958031136619786e-03
-2.153816971808850678e-01 5.816140414269380665e-01 7.055455802267064369e-01 -2.272643103775568232e-02 -3.569399971849883113e-01 -6.714340603579616040e-01 -2.777150453605879976e-01 -4.779750810788354065e-01 6.576138919031407903e-01 4.559193270335770154e-01
-3.885559145240092827e-01 -5.880785866493603020e-01 8.912163356149982452e-01 6.649528461572810079e-01 5.329364049093333611e-01 -1.439884539462698843e-01 -7.029568396966364707e-01 -8.172701934215369224e-02 -6.003290684777089492e-01 -6.645041499575081723e-01
-9.073714921607550776e-02 -1.092114446572819420e-01 -7.926970675929457810e-01 3.827261528926846901e-01 -4.497000746092610912e-01 -7.255512880352894545e-01 9.185017538476012433e-01 -1.570281442417450213e-01 -1.617536155570469258e-01 3.660710303417022415e-01
-1.883837226050695257e-01 7.008915232218906333e-01 -6.059555390905921879e-01 -7.675951126528339774e-01 2.637996581718727307e-01 1.653720380350439667e-01 -4.932327888377741054e-02 2.675133780707552034e-01 3.839254316078961615e-01 3.423790198992533451e-01
3.604348478660339139e-01 7.099718018540827069e-01 -2.474125187681080473e-01 4.138369148900026828e-01 -7.289377018961771260e-01 -6.782948547885468971e-01 1.152704996403744186e-01 2.388885057913547327e-01 -1.035565280814541023e-01 -4.868064509847959132e-01
-2.715835757624055283e-02 3.395103000107474456e-01 3.957305678666503401e-01 3.534890233663021131e-01 5.824079201381996418e-01 -3.556683139661460658e-01 -4.437658674141884418e-01 -9.562609022107958212e-02 -6.454324454512816445e-01 -7.070329878465635154e-02
-4.040505684775894113e-01 6.592999541839102973e-01 2.608667790309010526e-01 5.150464606199214312e-01 4.812165723300669828e-01 -4.799431023189343892e-01 4.321807679466412866e-01 -3.377592467862758907e-01 7.955146568715535382e-01 -4.556744558091719299e-01
-6.579015586900345547e-02 1.657406261532014258e-01 -1.364256419329389902e-01 -8.213360923506901612e-02 -1.294484400924699741e-01 2.615378477104297050e-01 1.362482978948381662e-01 -5.323205302403394984e-02 1.033806722640881748e-01 2.639964411225514430e-03
3.946409082617539643e-01 1.657732954696411465e-02 1.201696610968739642e-01 -5.296243988999692620e-01 -7.733116755079261218e-01 6.457914772651145163e-02 -2.088196738147766740e-01 4.729451545636782495e-01 -1.270595774781698717e-01 -7.044683318287171536e-01
4.253847162562369166e-01 -6.363744484807660751e-01 -3.312923370339326268e-01 -7.937501580264370027e-01 -8.249850856744235517e-02 -8.034488478457466609e-01 -2.326391304409448357e-01 -7.246660631351292681e-01 -1.999006243213753350e-02 2.816677381188472662e-01
-9.189061641367134159e-02 -3.760173992161506273e-01 -4.449854999873264355e-02 -3.410457032965671931e-01 1.255668517691500286e-01 2.857799548685156510e-01 1.127674337607076499e-01 4.341853295851476058e-01 -1.246720638428980843e-01 1.980088507801045505e-01
1.977809418232870098e-01 3.380771738479735333e-01 -1.464143349571850328e-01 1.097606922142145003e-01 -1.260232410172604511e-01 4.968874312935572801e-01 -6.362495532914057561e-01 3.363569059287465635e-01 3.647583351201820479e-02 1.493289480364466404e-01
-4.667329683278684249e-01 -1.043333724826528142e-01 6.404312289255851276e-01 -7.997451812043006314e-02 -2.714602229888127827e-01 8.287717317144133178e-01 -3.459595161501172189e-01 -6.619791571640103456e-01 -4.547527443799111446e-01 5.368551077554701845e-01
6.394760151687222116e-01 -1.108056218036075208e-01 -2.867138826048113986e-01 7.575082411461806497e-01 -2.924285435634573771e-01 2.035068456795029526e-02 -8.325105063251528881e-01 1.438624306089092419e-01 -5.868859616405716073e-01 8.044898634603464549e-01
3.446480646338695997e-01 4.166913693234740590e-01 1.337400657172689231e-02 3.091821668105874665e-01 -2.366757683975845294e-01 -1.143314905773418211e-01 1.152156947903908851e-01 2.225401924216633964e-01 2.345225691972445403e-01 2.869964231611779049e-01
-5.350634187077614179e-01 -8.751897708184648295e-01 1.433890237525786704e-01 6.219959808855388683e-01 -2.605579438801802761e-01 6.192626178680734617e-01 -8.802072595058855198e-01 -6.639138878193355520e-02 -7.293442819400389743e-01 6.566051260475422868e-01
-9.308001770891224935e-02 1.434232874249978529e-01 2.933619015250557571e-01 7.625544524505620259e-02 -3.855532441989409920e-01 -5.464988249503810458e-01 -5.042202027108196871e-01 4.728164476602859934e-02 -3.050530163942581918e-01 -2.768465832544399485e-01
2.735564085585833749e-01 -2.888765084735684940e-01 -4.989442837431301569e-01 -3.111211895028400676e-01 3.995044504165603527e-01 4.183338157041092686e-01 -2.063776732066763819e-01 -6.773312185423672194e-01 -5.733983020913198114e-01 5.772234257822638215e-01
4.196176831305096222e-01 -7.072309598420682963e-01 -4.089775848976405503e-02 -4.727737176700932409e-01 1.597533476870464375e-01 -4.505249432106598340e-01 -6.640641888241997082e-01 -9.471808615132434883e-02 -4.254192845137544365e-02 2.343658528859590140e-01
-1.982916401758698099e-01 -5.250549624691102091e-01 -1.657266332848852386e-01 1.729358302351148013e-01 1.587629096018292885e-01 3.420989672083873945e-01 4.608479123022214963e-01 3.861685763301906382e-01 3.187586616691357455e-01 -5.479958805049703341e-02
-9.157634415166004960e-01 4.529064141805913546e-01 1.081653229557164725e-01 7.755302860431365630e-01 -2.971473144452392856e-01 -3.380335981395112821e-01 -1.491334933974701182e-01 8.092444370305708068e-01 -6.596167642318731539e-02 1.467789142270157221e-01
-3.269242230675921679e-01 1.153531427504869977e-01 6.500352333044909781e-01 -4.417236997191025250e-01 2.205256290002313990e-01 9.004339115099830870e-01 2.336916043925070519e-01 3.272939337592426553e-03 3.865141248759562664e-01 -4.579638973351535247e-01
3.622683485731911096e-02 3.081267009302365301e-01 -2.436929484023888925e-01 -3.824292121029439495e-01 5.039782272560898724e-01 -5.285171971890685327e-01 -3.157815731764208045e-01 4.395478093502826200e-02 -2.086859237196168892e-02 -3.702717634694399074e-01
-6.890877302753560529e-02 -5.001961358637287969e-01 1.351476234538247223e-01 5.569223508579273368e-02 -1.389573339660246376e-01 -2.634755894312926783e-01 -1.729856015127536895e-01 3.559684214826135118e-02 -4.758052622160248712e-01 2.222705329980427802e-01
-3.002485418070109380e-01 8.084606284467600323e-01 9.468664032023781374e-01 -6.605515213509481898e-01 -9.991265513821190325e-02 -3.022331549879624379e-01 -3.166188567247516517e-01 -1.963141568015182858e-01 7.007645627089182927e-01 -4.665201951307298422e-01
-3.808627980447526484e-01 -4.589576840999493035e-01 -5.163038142483404869e-01 3.035025620096281629e-01 -2.579365318037509791e-01 7.729240272581170412e-01 -2.218207224848188774e-01 -5.861942752538421564e-01 1.045831490980114881e-01 5.162652670100229546e-01
-5.385766744949410656e-01 4.618522023310355218e-01 5.582689985434898805e-01 -3.188920321333257868e-01 -1.803725413314512804e-01 3.115620658161038503e-01 -3.007035200581804069e-01 2.422377251506959706e-01 -6.018716126171378411e-01 -7.423152692429589861e-01
-2.908392361816775629e-01 -5.145978896088004850e-01 -7.507529781963068194e-01 -5.148537794223680963e-01 4.437791128097756110e-01 -6.122410020705995048e-01 6.241903528664206197e-02 -3.505791028419913968e-01 -4.079260666894563570e-01 1.842061697159322053e-01
-2.423713184282207667e-01 -1.633250381254413852e-01 -4.697044766734698173e-01 4.182696077388466382e-01 -1.568672802249075973e-02 -7.136436117149498604e-02 7.494033151549446548e-02 -2.058620895964912156e-01 1.805214478541684875e-01 -4.644917595399015164e-01
-3.565975120113755725e-01 2.334858997937288572e-01 1.962687643752925037e-01 -2.281052800301612005e-01 -6.946792320856655101e-01 6.266982518261001722e-01 -1.797367048786677746e-01 5.564903830291565434e-01 -2.277661784861320649e-01 -6.996069377861250382e-01
2.475527534788170836e-01 2.518577139682434129e-01 -1.892681134538583554e-01 4.860877320367000265e-01 1.296256218770882318e-01 5.333915346177305894e-01 1.235276760123519141e-01 1.777622354832084431e-02 -1.645738474628949677e-01 2.686074482480407463e-02
-6.006279294164013072e-01 -2.853498846103361686e-01 -4.794016754100923761e-01 6.609543259596472042e-01 -5.026935147447927354e-01 7.602556688094658233e-01 -3.629065096620988085e-01 -4.886742653391508151e-01 5.010375881760517069e-01 5.846569975149205067e-01
-5.707373105867810104e-01 -8.337482322488992681e-02 3.700567511967985390e-01 9.094941086019405624e-03 8.760820116041933003e-01 -2.913309180283762401e-01 -2.639454880390393887e-01 6.416998683990250418e-01 -2.634231007628485832e-01 4.550347083240434132e-01
-4.508817147472508613e-01 -2.265284818535333311e-01 2.489574035764690052e-01 -9.550590825749671192e-04 -2.824405808267515527e-01 -1.377845369045309631e-01 3.004672679151101922e-01 6.693386505828811950e-02 1.224325558621349730e-01 -2.710385901398505021e-02
-2.393829313782055157e-01 3.789701763166130055e-01 -1.092441577404210107e-02 2.753715062995846785e-01 4.282962954738777639e-01 1.207506524472518744e-01 -4.327749013466589689e-01 -2.724168318520177046e-01 -1.339472528532287543e-01 -2.357159900541808684e-01
-9.795281817628681553e-02 -1.985488025756097785e-01 -2.739991249923333025e-02 -2.410843355430185575e-01 1.512010157529868892e-01 2.441023165089100389e-01 -1.619663464990702684e-01 -5.128384057522259454e-01 -4.388897384701710980e-01 -8.085207406194381274e-01
5.842220279635920166e-01 -2.184604000183850425e-01 -5.936884440093075366e-01 -6.411203565278491556e-01 1.773391057804234172e-01 9.778542732288190986e-02 -6.304915377834884316e-01 -7.151739565396936227e-02 -7.054179990335671668e-01 5.913509236902971811e-01
4.786143468278004076e-01 -6.905499309875352543e-01 3.934807906698199464e-01 6.242878981997013188e-01 6.560912479914959849e-01 -3.177282297274551248e-01 4.459645351899717558e-01 1.789429654756386212e-01 2.002343861834219186e-03 5.129998829732880239e-01
5.049055030115200404e-01 -5.205099329365183713e-01 -5.153241279112996676e-01 2.274421346919569820e-01 -1.447434601810796417e-01 -4.970811537698279770e-01 6.218214771787311523e-01 5.153583261527979742e-01 -1.710378203359252947e-01 1.388686187464634736e-01
2.030371419196078664e-01 8.165871298554679969e-01 5.063615544430914994e-01 6.006178335673760804e-01 7.327378862220872424e-01 -8.367855254199134674e-01 1.647460225964180736e-01 8.416884715294161712e-01 3.197328032672249742e-01 -9.300530548940816322e-01
4.300664781739527154e-01 -3.023852354716787261e-01 6.645859817570753947e-02 2.104755767833934865e-01 -3.061082238427906832e-01 7.085534683668643918e-01 -1.107132666361661383e-01 2.762780368953192678e-01 1.892947512336174698e-01 4.177657582299533212e-01
5.296869481403974067e-01 -6.756836304432997098e-01 6.605913165077323956e-01 -4.091360356003539978e-01 -2.250237320261389562e-01 -1.719421657559934979e-01 5.948083963432669874e-01 -5.157613166096769453e-01 3.800471469824254767e-01 -2.910086348139871992e-01
6.879480577418926046e-01 -2.532834913546885280e-01 -7.278823552041274736e-01 9.163134171857750809e-01 9.796223457907879406e-02 9.304860919455131274e-01 7.129233085045534324e-01 -2.864787834265952737e-01 -8.909560444407678415e-02 8.022823628934192541e-01
-2.741920955477933908e-01 1.871152440999526018e-02 -6.281938851383124522e-03 -6.944609383480050413e-01 -5.535077787415949579e-01 -3.120157752561359965e-01 3.454987581522899198e-01 -5.154881728903935034e-01 -4.039654865508746084e-01 1.513064706515674929e-01
1.734115016842207868e-01 -2.039142789413842527e-01 1.108754957912153755e-01 -1.619191425226307324e-01 -9.087579797948522331e-02 6.184505764721867638e-02 -1.278426399921377132e-01 -2.049909034301671679e-02 1.347476950194406164e-01 2.238764335766795510e-01
-1.446673755102046988e-01 -6.573103796775914276e-01 3.358756195932199873e-01 4.804160827190835648e-02 5.223703562812622714e-01 -4.725926152906361755e-01 2.449478993084936718e-01 -4.468382709402111685e-01 7.881203532684605273e-01 4.748531638079062089e-01
-5.408954055852726039e-01 7.024799332417276387e-01 -1.101378298091259811e-01 -1.789272186977041990e-01 5.194816481494799465e-01 5.683177567141033393e-01 2.690270931139288058e-01 5.131515884785631254e-01 -5.096513943140731362e-01 -4.354360106219631321e-01
-9.890230200606933697e-02 -5.861678855908465380e-01 8.412260032776172625e-02 3.128915782496668931e-03 2.126733973393639399e-01 2.241457487624085865e-01 2.257721204251874891e-01 5.698965957819854822e-01 -4.146705439224824263e-01 4.883073901846326503e-01
-7.470105973442502378e-01 4.171357526802331739e-01 4.692196966231735322e-01 7.930653127297492277e-01 1.853915937934285663e-01 6.408132819097406285e-01 -2.234935473493342706e-01 -9.269092216887425684e-02 8.131329474431545634e-01 9.072124441721615695e-02
-1.894020433525280545e-01 7.446741438230867205e-01 -6.339899251008969117e-01 2.389689758595922031e-01 3.463879063649938916e-01 4.417124343089250949e-01 4.429000081491624163e-01 1.407413078283078767e-01 -5.485795897105861380e-02 -2.052843448200797616e-01
5.919425778375334707e-02 2.104199383023249229e-02 2.689453345365763748e-01 1.504206421528742066e-01 -2.129979841147752739e-01 8.676833686563276138e-02 7.744030898826555209e-02 9.627386584230316832e-03 1.268744991623001472e-01 -3.040617914670098454e-01
-5.246336225176677637e-01 6.050524062622819610e-01 -5.093507959775976923e-01 -9.310057082397854436e-04 5.903738759480491316e-01 -7.916853047905356711e-01 -8.293310499763374422e-01 2.743578721381658148e-01 -3.680179138156473573e-01 -7.265455895220894744e-01
-2.861533045712769119e-01 -2.836803814201335205e-01 9.217898336183988350e-02 2.073183366784428772e-01 2.374182843919794283e-01 -5.891860257778078758e-01 1.487840244364324882e-01 7.596213293260369870e-01 3.192293708694304288e-01 -1.087879718826288700e-01
-5.755433158457269327e-01 2.200431936036961189e-01 -8.583198750867022664e-01 -3.580837658942526702e-01 -7.100462809777334794e-01 7.377604631959010228e-02 -8.764662375067010514e-01 -5.306686073739850240e-01 8.271999076426501674e-01 7.170773960662546465e-01
1.919592554929810957e-01 1.559248385853868324e-01 4.397735014293978340e-02 -5.245566895659050655e-01 4.593431197901778201e-02 -2.646281988791511219e-01 -1.597083259301314562e-01 -2.648907380385945864e-01 5.560115199808659397e-02 7.689735356367870256e-02
1.182146496862430951e-01 -2.744836263673157695e-01 3.488396299613990004e-01 5.071691986127419005e-01 -5.621507932233167359e-01 2.138868573979662846e-01 3.000490733315470671e-01 2.517034793163368603e-02 -5.809862770380755936e-01 -6.901252127347193843e-01
4.890501342199911616e-01 -2.587380594309667825e-01 3.855436485143810543e-01 -1.496524050932924055e-03 -2.859746378509551157e-01 -4.918737253887863758e-01 2.527953130645878010e-01 -6.351353877929347691e-01 -2.899423941817330097e-01 5.918266216064744789e-01
7.224133362633793354e-01 -5.003534128111429835e-01 5.043808196956000023e-01 8.437683290254824886e-01 6.365776685016540926e-01 -2.347064100072704385e-02 5.454788510972601312e-01 7.181897054339900777e-01 6.268066233110366481e-01 1.073639253720177905e-01
9.656691489651629545e-02 1.473475112709949908e-01 4.837085733907331986e-01 -1.939001657673448398e-01 2.909253363783467772e-01 -2.361281346477721588e-01 1.359343277218374724e-01 3.244541571999098317e-01 -4.795752249386110999e-01 -4.606261841559182724e-01
-4.181737213868418346e-01 1.450531764234782861e-01 4.474063214611118666e-01 -6.695069138364533323e-01 6.410914579369514366e-01 -1.704589327734266357e-01 8.393551495623221559e-01 -6.334931940818118168e-01 8.596856270504599218e-02 -5.354321515857636549e-02
1.920593675220177710e-01 -3.177255421245553380e-01 -5.459443949159386023e-01 -2.163327822927887945e-02 3.957389448872265098e-02 -1.376728318319965505e-01 5.735473197508159648e-01 5.517395689405840686e-01 -8.862431037352450081e-02 -7.918127553647382744e-01
3.706028800970931902e-01 -7.200508008711202779e-01 -5.508839084913216277e-01 1.826481469470430871e-02 1.729252276870814342e-01 3.576274431363617445e-01 -2.697648999465256936e-01 2.202243408602493069e-01 -3.592219581932110661e-01 -4.802416988799609321e-01
-1.181816837367210687e-01 5.533484540097952653e-01 4.808093010425360525e-01 3.002746612113258440e-01 -1.503156334602158695e-01 2.931986684435588519e-01 -4.727585913179659372e-01 2.697399754874735822e-01 -1.756075124739037152e-02 -6.731842312751834534e-01
2.905591660789836328e-01 -2.301304103035948512e-01 -1.975197183986434624e-01 5.344129273236285504e-01 4.580424968039358280e-01 4.966854901682816181e-01 8.029893210936790426e-01 -8.467650422221101314e-02 -3.715986846230397433e-01 3.645258394242796296e-01
-6.501953967433028447e-01 -3.355019633343670482e-01 -6.052362290872279060e-02 -1.002369710882253656e-01 3.214667550622233860e-01 -4.118464581150068082e-01 3.394284556008245191e-02 -2.613541093389579184e-01 -3.875819906087595856e-01 2.665987536652477674e-01
-2.841343204114097909e-01 -2.167992003522237754e-01 -5.371532849618738670e-01 6.227617598207306759e-01 3.654229484270969941e-01 5.136497710962922847e-01 -4.289473042383818990e-01 -5.561821858292007731e-02 7.756331834818488632e-03 -9.270113188316855130e-03
2.843292720590925304e-01 2.560786173954965328e-01 2.246900835229892757e-01 -3.153356487327914071e-01 -4.829560647043045218e-01 -3.298087604226671576e-01 3.270892620704069498e-01 -4.388201040226273886e-01 4.760912198245035309e-01 6.877378270433756602e-02
-7.731170608187230495e-03 5.575500269390615271e-01 -4.607367239855357788e-01 4.963313892934874128e-01 6.895075075566907685e-01 1.928234905930488463e-01 3.100534376713263707e-01 2.857970584783476875e-01 -4.960899113893463830e-01 -6.850338730495613149e-01
3.764788453544322677e-01 -4.914639617681137995e-01 -5.889701928029510425e-01 -3.142149056988279288e-01 6.405645148482748130e-01 -7.129975839385337133e-02 1.158865115833246362e-02 7.068124428812080362e-01 3.723093111677043265e-01 -3.245885714361220753e-01
-1.264480455720643493e-01 3.885042477922339699e-01 -3.582913225970186244e-01 2.456390989346010911e-01 -6.517520638007004985e-01 -1.368404793920643403e-01 3.599056912995151625e-01 -3.326177696826692620e-01 8.450663274315107776e-01 6.233342407650813710e-01
-1.691594388858368714e-01 1.561737487756467146e-01 4.411279314937905927e-01 3.246368335551874096e-01 9.548548660939906729e-02 6.402986207005171293e-01 2.616726763116243304e-01 -5.537710909384629954e-02 2.247591091727388635e-01 4.264777613484448393e-01
