6.282831544563202142e-01 -7.919145761567172315e-01 -1.145253451130208572e-01 -6.188256502844848850e-01 3.212546174291164292e-01 -4.557119159424168342e-01 3.526318039187620323e-01 5.919525548465642828e-01 8.051966271817613263e-01 7.071378554930436433e-01
1.490566925091813266e-01 1.206169680118543974e-01 -3.861844473296259239e-01 4.045872662672271858e-01 3.949836632367789147e-01 -1.071719940570736718e-01 -2.523932377854130604e-01 -4.302797065179829183e-01 5.159428973479708302e-01 -2.688306489279373990e-01
2.780802490402761729e-01 4.413477933715156398e-01 -2.001013619261720472e-02 6.554573207040477190e-01 -5.667878007682592978e-01 -2.937259707576720946e-01 5.541131849405374066e-01 2.530002674025690346e-01 6.819856349945637719e-01 -2.660702090588695778e-01
1.720115302567643001e-01 -1.611046428162491162e-01 -3.400691001542062442e-02 -3.678007300208867986e-02 -1.315608966466272067e-01 -1.129095293832372837e-01 1.672639679581501837e-01 -1.351873580830252053e-01 1.222024674695589563e-01 -7.293388699217936977e-02
-6.527400695121685949e-03 -1.662379864615215214e-03 7.373979367504251980e-02 -8.665668110447550046e-03 8.215480198279064006e-02 2.861473820001978960e-02 1.310083737124996019e-02 6.489437495950921286e-02 1.356228135900665668e-02 4.295236564133347174e-02
-4.455970252262633768e-01 -7.467632585181599447e-01 -4.071969900674174414e-02 -7.939056339584291688e-01 7.015276504489229570e-01 -6.938827855039034764e-01 5.530651186041920520e-01 7.121176366610676434e-01 6.743288774912471473e-01 2.297104013421472635e-01
-4.748103211525577481e-03 1.696909056337072841e-01 7.764221982357046026e-02 8.298430331704936824e-03 -1.409343376351609826e-02 6.057879845031456656e-03 3.842371852440714525e-02 1.457949193608693711e-02 6.933982269060970371e-02 5.365383750215282736e-03
-5.348094387649496850e-01 6.800913752513367827e-01 8.252736289891740573e-02 6.852228013686166852e-01 2.255655450821487107e-01 -3.245039003607540495e-01 -3.837722751414835987e-01 3.201096862630001816e-01 -6.045825088959159155e-01 5.596276550129440919e-01
-6.979859551939371354e-02 5.905886624548416508e-01 5.496828626227708847e-01 -5.611111307061604769e-01 -2.796012809806419086e-01 3.687454798612969653e-01 -4.152805960153942988e-01 7.204445628042648320e-01 5.172948181672009094e-01 -1.895560866787061316e-01
6.225044264926892813e-03 -5.748073175767128527e-03 -8.590385345457677083e-03 2.610779452091191791e-02 9.711600539313634817e-02 5.603928504206304867e-02 1.723323321774208536e-02 4.550861210264650625e-02 2.781083749037890906e-02 1.366296349940955730e-02
-1.044165167582996288e-02 1.076271165760764453e-01 5.282090111429057350e-02 -5.310233267695403658e-02 2.057456492479418642e-01 2.399349793321988930e-02 -2.647614970340783636e-02 4.167364689766974231e-03 2.860435688843771321e-02 4.511853450997819343e-02
3.422654514465420239e-01 -3.188776749874574490e-01 5.953910464158507221e-01 1.864062194686103568e-01 -3.493791910715025872e-02 -2.090148575621152693e-01 5.402660978015106918e-01 5.067667783038671825e-01 -4.532640863974612411e-01 4.087011058016182252e-01
-4.215240711713988397e-01 -4.412334718068654238e-02 4.407757655968521648e-01 5.792930878355770918e-01 4.672289987788566523e-01 -4.560448230383122858e-01 2.075198874077420486e-01 -1.356878773112588921e-01 3.157504978364419901e-01 -1.274284982567480962e-01
4.146488239729166914e-01 2.020875257090542776e-01 -4.652912292288285401e-01 6.351733822676012275e-01 1.746262128795589286e-01 5.327222356441342621e-02 7.439599516046507821e-01 -1.598946585068138915e-01 4.119778853082892156e-01 2.887872984668055643e-01
3.106087984406578073e-01 -5.498654617189007165e-01 3.627526018933068253e-01 -2.359887344836113510e-01 2.917398534927629905e-01 -1.800918787203592553e-01 -4.541470356981367473e-01 -1.669684521413155598e-01 -2.013310131640463629e-01 -6.818697676218709036e-01
-3.043620485448775281e-03 1.276536507237019218e-02 4.875334573943041622e-02 2.118608930586685438e-02 6.089649283074751937e-03 4.761144647746129444e-02 2.633650148473916288e-03 7.671924366790546825e-03 2.032917967321780373e-02 4.554841519061821054e-02
-3.891731226875723149e-01 9.535105982311020689e-02 -5.279887490046425436e-01 -4.511938316409708216e-01 -1.326860379495433534e-02 1.888147649369925907e-01 -4.339408809711260001e-02 3.528992940265350819e-01 9.256499926974251502e-02 2.421705063233116906e-01
8.297674766016119863e-01 -5.337672743675418996e-01 -7.693720632456644282e-01 4.700892785089772485e-01 5.960015304549997062e-01 3.149311568940063588e-01 1.115673330735731661e-01 6.657051898542950541e-01 8.042207143058055507e-01 -4.411909281403747496e-01
1.330070252564060198e-03 4.155070818415695921e-02 -5.880882857026731303e-01 -4.764016003505610608e-01 -5.775362579624968573e-01 2.849064096570024796e-01 -3.635784376808073315e-01 6.716214714941511899e-01 6.695298856562843792e-02 1.281948476858477820e-02
-3.372373490627082054e-02 2.276445371020849318e-01 -1.294502007536320887e-01 6.108527474999002338e-02 1.874382482758196744e-01 -8.460517022637518980e-02 -1.871666150950342389e-01 1.247527164459890509e-01 1.342664472853056790e-01 5.486741606959220224e-02
-4.916697949433291789e-03 -5.357716724009727732e-02 -2.302513609318317389e-01 3.572885902858169427e-01 -4.003141938338185546e-01 -2.594145650680924203e-02 1.720494832296661225e-01 2.035617759713497787e-01 -2.985927969292330730e-01 1.676824399749027861e-01
2.723892075552982739e-01 -9.095375426215898673e-02 -2.108170150631714368e-01 3.977840168388897535e-01 2.611264776232019580e-01 1.623287984758707281e-01 2.044342449434564390e-01 -8.987870333438448267e-02 -1.235550076091354865e-01 -2.125046636057269511e-01
5.632375807152831954e-02 4.077954074614600910e-01 -1.903848270217907979e-01 1.675795012945794082e-01 2.484763704363851522e-01 1.271252203461514518e-01 9.962200543839622169e-02 -4.315596981275969524e-02 2.391415750521793948e-01 -6.873853147528133367e-02
5.222593598592704112e-01 1.115854472867523345e-01 8.166458125806481672e-01 -8.842751000785151749e-01 -3.956867042391944977e-01 8.720322088180874898e-02 7.579999229714098341e-01 -7.725756882939992520e-01 -2.091986764221255846e-01 -8.074925210068428783e-01
-6.267345791995596604e-01 1.824159234329442159e-01 1.309400491158462312e-02 -6.643377150363878603e-02 3.360558301294919725e-01 -1.324950120106092033e-01 -6.819731031726068426e-01 4.607880588150102263e-01 -6.512265273126029985e-01 -5.966510948339904807e-01
1.081739571242082074e-02 -2.548104597306135449e-02 -1.645641243670254231e-02 2.424095885659611760e-01 -4.819326751672233233e-01 4.115842922134215209e-01 -2.028151616796148582e-01 -2.456928195957423441e-02 2.151547080932798284e-01 -1.157765548439118608e-01
1.707837171624912997e-01 -6.254502706283067148e-01 -8.079137785756065337e-01 -8.181073798091484384e-02 -3.100809808516957200e-01 -7.991437923208718486e-01 -6.671845352827934228e-01 -7.253214976320633278e-01 8.636556890250099983e-01 -5.173520422774989802e-01
3.678248766228708333e-01 4.725967693774432155e-01 -4.058798307711733444e-02 -2.680550408647606742e-01 4.402227379366724924e-01 -2.743867622680660756e-01 5.122662091982278509e-01 3.509687087467964761e-01 1.542246113207127733e-01 1.383793860486564331e-01
-3.189036330166979960e-01 2.916661274813172611e-01 -3.592746465740049439e-02 3.173260770582513740e-02 -6.893577879462908786e-01 -2.354388152159599679e-01 3.320510897678817797e-01 -6.516497584548999189e-01 3.847748028950267463e-01 1.487876889152436963e-04
-1.709440673339295558e-01 4.737419586434195029e-01 6.115963826769248435e-01 -7.280029401730930827e-02 -2.082755486870479233e-01 -5.378510314450708485e-01 -2.580785604047257653e-01 -4.047853895000655400e-01 5.170466390474307561e-01 3.556425693195124360e-01
-3.801132282465733980e-01 -5.378633855849764833e-01 8.693482664257343728e-01 6.502911173048199212e-01 5.094084159314264948e-01 -1.410062579763969592e-01 -6.750222772002348881e-01 -8.357362246411223494e-02 -5.766252494585604182e-01 -6.630323867461778153e-01
-6.678820535324095364e-02 -1.096208990881073625e-01 -6.905406018508265520e-01 3.333357566502050950e-01 -3.807159150525468716e-01 -5.771089475481714359e-01 7.960717821884404355e-01 -1.527453203554948735e-01 -1.316873354623509518e-01 3.557557895560975458e-01
-1.492205260920502763e-01 6.060302025525166059e-01 -4.882383222627203478e-01 -6.684648639464396691e-01 2.554907252096280668e-01 1.322914317642175375e-01 -4.385110185242774988e-02 2.577630103180536536e-01 3.157701464138395475e-01 2.471333982819675090e-01
3.089333368567460103e-01 6.332677182779560265e-01 -2.221850062938295067e-01 3.523767717889044193e-01 -6.096164893468600798e-01 -5.776961244065994538e-01 1.097525811384992694e-01 1.921680384232806738e-01 -1.169512620051520735e-01 -4.400036452760169303e-01
-3.431825220080516464e-02 3.186734783897055001e-01 3.508616714447685969e-01 3.131529252239260153e-01 5.173570886792677737e-01 -2.780585727331561507e-01 -3.698511141131684554e-01 -5.292962491178877793e-02 -5.640518003883165932e-01 -6.196050372628961189e-02
-3.531996563837189185e-01 5.880504236255658101e-01 2.763331885858325565e-01 4.285472384661714873e-01 3.994170126277111210e-01 -4.528226012060622696e-01 3.554188213298863919e-01 -2.590878999354170875e-01 7.156596420310761264e-01 -4.222908268002772414e-01
1.041069169072153938e-01 4.526581344141764746e-02 3.450822923815156235e-02 9.021716895573701073e-03 -4.293727702428776390e-03 -1.394257068566448661e-02 9.375226079171699320e-04 1.869434878755908969e-01 -1.303077846269163828e-02 -3.676853518787027118e-03
1.264202035642807420e-01 -2.784415578871286476e-02 -9.010620210527477830e-03 -1.560487260215847327e-01 -1.984838071975216500e-01 -1.348461810387985120e-02 -5.114807281746491796e-02 8.329932983500681898e-02 -1.084282406672170407e-01 -2.625275211251339447e-01
3.825467455644873671e-01 -5.487068634162259873e-01 -2.850817566113028612e-01 -7.031499864360667429e-01 -6.882438321858462549e-02 -6.935472625013217041e-01 -2.038552033999850854e-01 -6.342744377697793201e-01 -2.093928851410307296e-02 3.140298433527501931e-01
3.132202689520043742e-02 -7.157389704585820356e-02 -6.734846580806797683e-03 -7.479690551932549353e-04 1.757645179388892531e-01 -5.298294578547229489e-03 6.861994283774844328e-02 5.437590163715400049e-02 -1.619037668763907006e-02 5.848254436868075695e-02
1.123362599159246911e-01 2.478246983533071990e-01 -3.149950398374642968e-02 1.207973777197854509e-01 -4.085067130085315995e-02 1.566090008899905794e-01 -2.689889066534672524e-01 1.760637710786231158e-01 -5.167230542737338665e-03 7.297100658895855352e-02
-3.811765373065234552e-01 -4.012004726188494325e-02 5.792534866176251018e-01 -5.085152214894055056e-02 -2.526940923764642855e-01 7.105396026751177319e-01 -3.183247078950788844e-01 -5.162492774824517516e-01 -4.078272777658390469e-01 5.443819717012847725e-01
5.803737623389846334e-01 -7.555126589886815291e-02 -2.596653577589275730e-01 6.618596514556510657e-01 -2.619449968934748352e-01 2.617188091096638372e-02 -7.756102777708838714e-01 1.503453614903067781e-01 -5.354976101845546621e-01 7.418690085274203261e-01
2.431539915146809783e-01 1.638811057354755685e-01 1.194279168879920812e-02 1.130975357156902977e-01 -7.007861733001508053e-02 8.399020320314105892e-02 4.796715138599787209e-02 4.811157994784594216e-02 1.120585501592717276e-01 1.337263589220000770e-01
-5.198299855612268372e-01 -8.462603593591149220e-01 1.553136647163082529e-01 6.036179229644605959e-01 -2.753274810844286713e-01 5.896659793538476801e-01 -8.403399554449026976e-01 -6.969424144957005185e-02 -6.876834082107250445e-01 6.391919200209535967e-01
6.243807284265699177e-03 5.313694206635381431e-03 2.612634046144897762e-02 -2.120453745987503635e-02 4.719113401240053463e-02 4.768906459724955166e-02 -2.862396663538536307e-02 3.407978017546823418e-02 -5.213628005218344519e-02 -2.453575239071630401e-02
1.988776670712635031e-01 -2.349387467960593057e-01 -4.369718696960384618e-01 -2.994167750574858178e-01 4.347626990284454429e-01 3.654623419848329058e-01 -2.088865418566669685e-01 -5.301568410588811675e-01 -5.156168033453044641e-01 4.898983978110739157e-01
2.768579094898087067e-01 -5.057707959750216142e-01 -2.064406768648131829e-02 -3.366734944618617886e-01 9.779296872157872134e-02 -2.903722949016472876e-01 -3.875878186876600684e-01 -6.242923867266860632e-02 9.195486007648329130e-03 1.768561702968806937e-01
-1.077401384696909103e-01 -2.771368697533932446e-01 -7.586793020015886180e-02 6.688272812532877754e-02 1.806451818285865762e-01 2.078234748058806203e-01 2.277836750963909418e-01 1.884408688662947418e-01 1.176167974464284172e-01 8.519950733127076847e-02
-8.559934604268164549e-01 4.488636826456144924e-01 8.840779192093697891e-02 7.400981919989119140e-01 -2.688842478492371457e-01 -3.179360603041945788e-01 -1.515044702610743588e-01 7.619944196834650407e-01 -5.127182201786303212e-02 1.401163832632024986e-01
-2.413922087899137148e-01 8.391078361807594033e-02 5.651138703339233516e-01 -4.027796299761507437e-01 1.992298117196136531e-01 8.061820046471068757e-01 1.950684025619213446e-01 -7.678800339490207162e-03 3.365461782814577751e-01 -4.146390011038606493e-01
2.228459706526390253e-03 1.121485734354828734e-01 -4.007396270857505050e-02 -9.672135793197560172e-02 1.220272198322502888e-01 -1.540532328220429181e-01 8.143982009278116774e-02 1.316217841311917956e-02 -5.162738265323508872e-03 -1.014943574504348772e-01
6.480735825898152613e-02 1.475734108859492501e-02 1.940172410175085849e-01 -1.753239138745641551e-02 -2.521066387429593200e-02 -4.152868392819272780e-02 1.815847958516154676e-03 3.035253552648581668e-02 -1.124877401486269607e-01 2.357615449559451529e-02
-2.853310333939389487e-01 7.634692390218363878e-01 9.145861147226683752e-01 -6.205360543012514718e-01 -1.044681461458913801e-01 -2.500456661372805756e-01 -3.176219433939750925e-01 -2.264323176184999675e-01 6.800889459883089350e-01 -3.981156757465382223e-01
-3.379510212653204504e-01 -4.367074582161721286e-01 -4.449217594531046926e-01 2.741023165865530409e-01 -2.328539617964417996e-01 7.282004038238536481e-01 -2.083916831322477903e-01 -5.145577708627815383e-01 7.494132224355745664e-02 4.380707253714901106e-01
-5.075770116320579284e-01 4.419393656469626230e-01 5.393827098739089054e-01 -3.210216197966764273e-01 -1.557280667812774577e-01 3.177613050337446676e-01 -3.198813550719974974e-01 2.311762705083805214e-01 -5.809862626172973554e-01 -7.118823149503790138e-01
-2.341745493280547041e-01 -4.524754986459243455e-01 -6.237205527765879998e-01 -3.843102233077492214e-01 3.784459205901547496e-01 -5.359467974893258324e-01 4.725774635130363527e-02 -3.166686057005708710e-01 -3.661956933934994440e-01 1.460214820514000589e-01
9.303499248487316631e-02 -4.016425648671794607e-02 -2.335417375754900993e-01 1.631229209712891925e-01 3.108557491490084035e-02 -9.292231002340189949e-02 6.486580625508167608e-02 7.458884564418594154e-03 9.358678237928999555e-02 -2.118749445781577256e-01
-2.548760039354117657e-01 1.629845524665102796e-01 1.975454393784971951e-01 -1.456116363919596757e-01 -5.749609122424829133e-01 5.614056795362415420e-01 -1.230334709533569548e-01 4.368841808756430134e-01 -1.762732493488669561e-01 -5.475010009396444888e-01
8.197488908475003555e-02 2.736320368192157390e-02 1.987787824351062646e-02 6.542683368319872350e-02 1.072881666936092021e-01 -4.960966171397311088e-03 1.008620420093674780e-02 1.567816880013742434e-02 -3.442814194977507434e-03 3.820936743854073860e-03
-5.656585238433358143e-01 -2.822112881677871776e-01 -4.564150371872127687e-01 6.322819973793468717e-01 -4.834401242088824380e-01 6.918068995636924567e-01 -3.441262991451725095e-01 -4.573586946820947796e-01 4.820876658131100778e-01 5.607219340332145752e-01
-5.398710884483347572e-01 -7.969979229276798194e-02 3.621455310672410666e-01 -4.034498156758327750e-03 8.202649887925490546e-01 -2.675088669704252520e-01 -2.276850659035016544e-01 5.788806095056562295e-01 -2.556424388382238511e-01 4.227860084003051688e-01
-5.047057881836179011e-02 -3.117421719928423207e-02 3.821944742732445027e-02 5.481916912225358318e-02 9.616769988024199620e-03 5.010260574058129912e-02 2.856580037107136344e-02 -1.260340979671427213e-02 4.627230085187130325e-03 1.184766598096242407e-01
-9.520289610499321764e-02 2.368352358268073499e-01 -1.824500142338111169e-02 7.197884507230416229e-02 1.659988857096312553e-01 4.585725088616870310e-02 -1.415259679430319328e-01 -1.374446511195073772e-01 -4.657544619771319949e-02 -6.733659010412942902e-02
1.074919259449112936e-02 -7.027934580788725016e-02 1.672128722282875332e-02 -1.681474368714259426e-01 9.408662803864678570e-02 6.911347286600692807e-02 -8.395142427996461765e-02 -2.349142856614163666e-01 -2.737506516596798223e-01 -5.373577849051643929e-01
5.189003244428698203e-01 -1.057444504412251712e-01 -5.272417446782489137e-01 -5.609959830035400330e-01 1.234558934519318085e-01 8.657662429052030706e-02 -5.136283238597869616e-01 -6.785266037255056892e-02 -6.204530776471929299e-01 5.114651108969840987e-01
4.612466025282980220e-01 -6.363535160082546271e-01 3.783305316911851346e-01 5.747403348737900597e-01 6.293954991851105074e-01 -3.054118614364920159e-01 4.009380818033602134e-01 1.716935479681984678e-01 -1.269313936368557556e-02 4.825749772470008248e-01
4.200770131476453950e-01 -4.467855319947877102e-01 -3.803211743142623225e-01 1.663910955088198362e-01 -1.395357564737833289e-01 -4.137893156091168034e-01 5.037098940270524627e-01 4.230435760544306589e-01 -1.276002441596789660e-01 1.121196481598877998e-01
2.125820415414404752e-01 7.906207600467018981e-01 5.095673300195071587e-01 6.025118618485811872e-01 7.222737893186251812e-01 -8.031504300759133574e-01 1.674390876923820826e-01 7.928688551108132865e-01 3.089495359496274851e-01 -8.702827180595354983e-01
2.738258612508867595e-01 -1.139757362836784776e-01 5.376758330857125956e-02 1.352717666698412813e-01 -2.027202222925263142e-01 3.547055087185287392e-01 -3.124880279584013251e-02 2.396246939522829467e-01 1.391838287321366385e-01 3.455850775683692033e-01
4.323807419229812599e-01 -5.396076909557864232e-01 5.565915086036823389e-01 -3.536567918193532778e-01 -1.768256846394878623e-01 -1.598703128557681374e-01 5.557311169733000211e-01 -4.460844489471534891e-01 3.265364336417433400e-01 -2.324455481290553238e-01
6.766387347234890104e-01 -2.550036001543870556e-01 -7.074584532560286299e-01 8.932583712407800025e-01 8.626010642852723065e-02 9.341072077569158028e-01 6.929450204352914922e-01 -2.708447988666320971e-01 -9.290677505436950590e-02 7.890342439403916774e-01
-2.183952203082335231e-01 7.041556370079398580e-03 6.337507680155880785e-02 -5.220816801093960402e-01 -4.269201133122109137e-01 -2.361728907170263514e-01 2.176088599844910598e-01 -4.062058231188264701e-01 -2.962049256422096821e-01 1.431010504507835013e-01
3.524210827716493279e-03 4.850929603703298815e-02 1.525989144222131624e-02 7.839090102805576499e-02 2.160362236534713130e-03 7.338787839771684918e-02 -2.011062409750055593e-03 4.598118490453366458e-02 1.408979970858358771e-02 1.910613127875767162e-02
-1.263690889953331398e-01 -6.033428695698335176e-01 2.758625920352206218e-01 3.305164217786105835e-02 4.912991366734798526e-01 -4.560551422324627957e-01 2.468464919604654306e-01 -3.980955874755268131e-01 7.145861668004787060e-01 4.417302629960908611e-01
-4.828687360230589087e-01 6.741617798292447450e-01 -1.038548444361855477e-01 -1.630959110693716574e-01 4.558110729635063141e-01 5.138034451136974656e-01 2.683572600820395282e-01 4.596862249013769497e-01 -4.631302287681919871e-01 -3.977874767499177122e-01
-6.530161187377256371e-02 -4.141794133005557432e-01 5.503523010473797966e-02 -5.763787723732471946e-02 1.545572420660530355e-01 1.774950564954609344e-01 1.129732669721710686e-01 4.090985593950943189e-01 -2.722188445628824782e-01 3.254540591772620006e-01
-6.774076976786989057e-01 3.952189493472779702e-01 4.481593400010890904e-01 7.199335204584103032e-01 1.306636011620299631e-01 5.890259286988763776e-01 -1.913513825253747025e-01 -8.462471278952463094e-02 7.054229437133522351e-01 9.196899408236976214e-02
-1.490485254227252587e-01 6.238961694469921104e-01 -5.614556503367820195e-01 1.915017162334935186e-01 3.063105005375080792e-01 4.257852208985246634e-01 4.000029725504096745e-01 1.154999724165355068e-01 -4.286815279686456703e-02 -1.581335132008893363e-01
1.163696908237130991e-02 -6.081219284987878469e-03 2.737695670329066966e-02 5.664517845451509659e-02 7.055005488562393623e-02 2.474840005385640224e-02 5.585596266216436012e-03 9.389097572177843021e-02 4.030700892504218702e-02 4.389327203045496201e-02
-4.907746408036310348e-01 5.992887552732795164e-01 -4.900934410736736413e-01 -5.606966055450429524e-03 5.723005411520054597e-01 -7.475750037132683490e-01 -7.993190683315052336e-01 2.622266935913069585e-01 -3.389336091378421512e-01 -7.029615831445888974e-01
-2.123653682781203866e-01 -1.589494948447202349e-01 8.043294190559475976e-02 1.388788452412280383e-01 1.415130089872046470e-01 -4.139182803092248952e-01 1.108312713572488645e-01 5.752542442159125358e-01 2.057330900709948007e-01 -8.246155619138571813e-02
-5.440211962980404659e-01 1.967979411816720980e-01 -8.097725681085569116e-01 -3.330906403428521290e-01 -6.752608074475421329e-01 7.871274255922088015e-02 -8.324283253176135711e-01 -5.071780546383479749e-01 8.001932754076719334e-01 6.871239062772631634e-01
4.954542561876824902e-02 2.841202129552388572e-02 7.763505539365450625e-02 -4.422836711138217886e-02 1.693078485875172332e-02 2.646296222482287866e-02 3.604887117862112800e-02 3.400002675983049977e-02 -2.695953851275465114e-03 1.327004872089181456e-02
7.473650223937304549e-02 -2.045707562402171442e-01 2.925883690033085904e-01 4.335829745818203795e-01 -4.832679312911275504e-01 1.856663385617396134e-01 2.247159663263387785e-01 3.717357172277787475e-02 -4.942910835818621895e-01 -5.557080872270696581e-01
2.139816110940541138e-01 -1.155702771620325808e-01 2.155127651166387215e-01 -2.691945181486590788e-02 -1.930036300188217591e-01 -2.253481773018261858e-01 2.267973497583430087e-01 -2.451690971295489851e-01 -1.122884762650579876e-01 2.826884563072456502e-01
6.965883060528628157e-01 -4.800309701971113840e-01 4.768131344378270797e-01 8.245664755045499783e-01 6.134350946612547872e-01 -3.286006700711317091e-02 5.271073702532469429e-01 6.936994200851136494e-01 5.925099950804117999e-01 1.054218233065900290e-01
9.670015153610111991e-02 1.150542420498903429e-01 4.730658654158346188e-01 -1.432697980711686025e-01 1.861631299716701160e-01 -1.967746383156965262e-01 8.843013650247757984e-02 2.648098304158097993e-01 -3.721411357363446082e-01 -3.559260648181069575e-01
-3.568859393170907834e-01 1.337314902937730976e-01 3.852064689619312254e-01 -5.816074376078987918e-01 5.703622926540408145e-01 -1.209032175875061205e-01 7.210859858478007034e-01 -5.607904750337135980e-01 7.488341313480006978e-02 -4.131657649213491684e-02
1.557429354081295292e-01 -2.154466419452609194e-01 -4.109735267031424111e-01 1.323595290187323456e-02 5.164255711273185029e-02 2.645046586453009621e-02 3.746496875105833624e-01 3.804337992960155623e-01 -2.813443426411539952e-02 -4.852871470690742206e-01
3.044719509855179362e-01 -6.140420904266209456e-01 -4.692109647676042661e-01 3.028932752488884203e-02 1.541876090766033935e-01 2.916126059705046458e-01 -2.633898250924229800e-01 1.999321040511868597e-01 -2.638596746055650866e-01 -4.027972096909178679e-01
-3.664454259820128929e-02 3.771765981019747915e-01 3.172558756105780531e-01 1.813484583211073253e-01 -5.180161632325188531e-02 2.234001172505481470e-01 -3.224803884342757887e-01 1.835087850978256441e-01 -6.033316018628089679e-04 -4.147195894864568744e-01
2.501564621572867075e-01 -1.879473081016088398e-01 -1.563462044464719314e-01 4.514953446496932643e-01 3.867011429152713009e-01 4.684432473968622168e-01 6.908264624427293832e-01 -9.462954045422419802e-02 -2.892214455923707850e-01 3.423288827331937845e-01
-5.097496497153733985e-01 -2.121753326218274449e-01 -5.554371466400039731e-02 -7.245171826732880842e-03 2.649208251489341692e-01 -2.320416652842246241e-01 4.196928730739188720e-03 -1.832094533182054008e-01 -2.861323885774150755e-01 2.377528734915269892e-01
-1.456685241355127058e-01 -6.356400043687382428e-02 -2.197441738999548477e-01 2.061891358355903980e-01 1.669175529502342492e-01 2.505288691956903957e-01 -6.822956234399527031e-02 5.372303462370693616e-02 -1.511017715962633063e-03 -3.313317301107041729e-02
2.111559047865418370e-01 2.421709360756775231e-01 1.715349694847749795e-01 -2.137952043317036255e-01 -3.636950207559037085e-01 -2.425609092573913494e-01 2.366654532849063464e-01 -3.106880285225487870e-01 3.496773964346453489e-01 6.463140925842540685e-02
-1.975675401254936008e-05 5.349906054292722368e-01 -4.410896662918668554e-01 4.749682872683901880e-01 6.461868256831446722e-01 1.768923197933170155e-01 3.234158671546559227e-01 2.757463577187512782e-01 -4.688957212300655653e-01 -6.461561183030440914e-01
2.806099091594368988e-01 -3.695174666917372397e-01 -3.885441574523715857e-01 -2.315708022853351367e-01 4.687822689872019888e-01 -4.425679478846264447e-02 2.084066051651985857e-02 5.150329154671912102e-01 2.607543073127049915e-01 -2.429082884397132380e-01
-6.655630167449745616e-02 2.963079290286987910e-01 -2.509103209828420500e-01 1.817995760321625687e-01 -5.117058014266644417e-01 -1.679982970129669795e-01 3.094478930864006383e-01 -2.793839280442807493e-01 6.669655119832526013e-01 4.497312828493583714e-01
-1.262997327589821146e-02 9.441197003922882636e-02 2.124409211905649297e-01 2.059640196577181837e-01 8.899268880904839807e-02 3.557270365940480850e-01 1.689594652409924513e-01 -1.086241754077344329e-01 8.707003290353734770e-02 2.546289636464412198e-01
