6.287120172726440304e-01 -7.937331474934761211e-01 -1.145765265555524909e-01 -6.193064824022894710e-01 3.217821612958199906e-01 -4.557488265610779576e-01 3.520715367779088112e-01 5.921727318445232369e-01 8.047901521353295617e-01 7.073906364141617775e-01
1.492650235735760444e-01 1.205520830138819000e-01 -3.875316275027519963e-01 4.043785297358262754e-01 3.953130470629263593e-01 -1.074909206282589347e-01 -2.522944040713782088e-01 -4.309988139536071738e-01 5.161045246443669576e-01 -2.685591321022657296e-01
2.785186671437381856e-01 4.415456568259601422e-01 -1.995420934931940379e-02 6.557659773425245087e-01 -5.670529099510532856e-01 -2.936462316406258100e-01 5.547286917930686068e-01 2.518669654682053061e-01 6.816522604023701470e-01 -2.658068816250490074e-01
1.631069939086531306e-01 -1.843338377788513449e-01 -4.920647358531484578e-02 -5.224156618468496494e-02 -1.482124265304149147e-01 -1.518521030756588008e-01 1.991785865163657465e-01 -1.626808642372090941e-01 1.448337163976047282e-01 -8.731959654589815933e-02
-3.299116697854708423e-03 -7.294025118624498396e-05 7.198936391524612954e-02 -6.104070465587523898e-03 8.472408985394001835e-02 6.254169010085089409e-03 1.570377767945931730e-02 5.971337447056476733e-02 8.089356136347617895e-03 3.659170637598901238e-02
-4.455897129520804412e-01 -7.468920366335578542e-01 -4.071435017176631282e-02 -7.938366639324313523e-01 7.015908899457895531e-01 -6.938091250547854250e-01 5.530886310308968934e-01 7.119153407817722101e-01 6.743722567280724389e-01 2.297351095162480927e-01
-5.421303769445201710e-03 1.666779398207033080e-01 5.869712176200327786e-02 4.265930131339309463e-03 -1.095651634015452729e-02 1.073782380334760943e-02 3.738045903476004683e-02 8.488181221947018948e-03 5.515320486018059076e-02 5.349757682200086475e-03
-5.348396583384684710e-01 6.801585995237586779e-01 8.187891429612956240e-02 6.853090637058001366e-01 2.256405812187949333e-01 -3.245148894267305684e-01 -3.837993258233861615e-01 3.201562552446387544e-01 -6.046269058841571287e-01 5.596867635778692840e-01
-7.003705769767318290e-02 5.909504251695790744e-01 5.496263115701239821e-01 -5.608808661407206353e-01 -2.789811974095955383e-01 3.698090328094196799e-01 -4.174110928156012368e-01 7.205894048914414096e-01 5.173792405924283466e-01 -1.902387621133339590e-01
7.278116842048753914e-03 -1.971673968776472413e-03 -6.588219488070382913e-03 2.315332563763818421e-02 9.182558474631868917e-02 4.316435499240484780e-02 8.962141198996773778e-03 3.413655060315577694e-02 2.937988255080215341e-02 1.954700344036231635e-02
-1.653164167852573183e-02 9.564588252683371705e-02 6.571422458022309343e-02 -7.193997325365830697e-02 2.210473064049592873e-01 9.629253838880380903e-03 -2.893465646328360549e-02 -5.476491530201217130e-03 2.785373993150794952e-02 5.020364849608707769e-02
3.422741975347289856e-01 -3.188858234355537169e-01 5.949805835241482876e-01 1.864109828042820605e-01 -3.493881189408006710e-02 -2.090201986281472468e-01 5.402799035038269304e-01 5.067797279805420496e-01 -4.532756688918522237e-01 4.087115495548463429e-01
-4.220173417485766354e-01 -4.392421167628141054e-02 4.415056582639901306e-01 5.801725447531527191e-01 4.667742354744294775e-01 -4.587679069362717854e-01 2.075392350458878654e-01 -1.355364083813510589e-01 3.159620232027393616e-01 -1.277661960440267253e-01
4.148814665464544138e-01 2.013849945062362867e-01 -4.656847758141464122e-01 6.360626923980555736e-01 1.754773899101230439e-01 5.431294326663797800e-02 7.427271958655876638e-01 -1.599170364601648631e-01 4.121585174477532809e-01 2.870001869187648325e-01
3.105213069990749308e-01 -5.497168790804098926e-01 3.598997962641478643e-01 -2.362234523101193473e-01 2.912409671905004660e-01 -1.803674898933589066e-01 -4.545540811609145582e-01 -1.669085725243173446e-01 -2.011082992185416474e-01 -6.828803434161740959e-01
-5.542675394635076733e-03 1.184991185129249253e-02 4.846691050157755226e-02 1.526821242716370521e-02 1.571512824034096770e-02 4.338761506456454559e-02 1.005028365925474815e-02 -2.459787355957918260e-03 2.462727611806245914e-02 3.728617420315657321e-02
-4.078170171477263906e-01 9.920459622270509648e-02 -5.444744407388725227e-01 -4.671970953816068084e-01 -1.302855378539462608e-02 1.987422673835231302e-01 -4.064140086799650914e-02 3.600315197215893659e-01 9.777695063060595770e-02 2.456839601838511633e-01
8.297675758833469306e-01 -5.337673382328327332e-01 -7.693721553010842706e-01 4.700893347551913237e-01 5.959726758177084083e-01 3.149311945755405850e-01 1.115673464226121098e-01 6.657052695059664238e-01 8.042208105308686905e-01 -4.411909809288992457e-01
1.408091376070261290e-03 4.168735964757259299e-02 -5.888311433405106765e-01 -4.766630286781547987e-01 -5.778536896510766407e-01 2.851057546087746308e-01 -3.637864255624834731e-01 6.700236766937890387e-01 6.703275250683193853e-02 1.281505807520585440e-02
-4.488189942120061893e-02 2.403798359691103614e-01 -1.346730742084716048e-01 6.412941380743351905e-02 1.931588260729109330e-01 -8.787563305938084213e-02 -1.997096218604894613e-01 1.359812361593601415e-01 1.451830987027183384e-01 4.766667958053303483e-02
-1.690201778223369760e-03 -5.354040516118127591e-02 -2.363110638692559884e-01 3.638764246807222880e-01 -4.075139129942051963e-01 -2.561727110917014216e-02 1.778812525256371624e-01 1.927298204589608377e-01 -3.063470534034505866e-01 1.759229269986534727e-01
2.764025387172480142e-01 -9.248501806398325142e-02 -2.279642513196001585e-01 4.025130960197871310e-01 2.652613060861180316e-01 1.642873837712821028e-01 2.093823871094732114e-01 -8.923040464486453605e-02 -1.256724847900398123e-01 -2.131048338498657824e-01
5.842318502333750802e-02 4.177427722967192447e-01 -2.034671089042365266e-01 1.718434037524778080e-01 2.546872516097403727e-01 1.305397562573679393e-01 1.019620995154496140e-01 -5.472277056629058778e-02 2.447735690593077773e-01 -7.015688131453531873e-02
5.222856999996587923e-01 1.115503273181691346e-01 8.166466590464981357e-01 -8.842793099602156426e-01 -3.956410309824736071e-01 8.721846002039100598e-02 7.580186647901295816e-01 -7.725544120833160999e-01 -2.095713718478167398e-01 -8.076279112430140295e-01
-6.268545602094498514e-01 1.826892857381540725e-01 1.283903974735640940e-02 -6.592228139537979759e-02 3.363297095173298779e-01 -1.343040154335084502e-01 -6.822507647840935219e-01 4.618980979956992527e-01 -6.515763560763369044e-01 -5.983562318999210428e-01
1.114322075749527019e-02 -3.570966124804780123e-02 -1.628221739102114415e-02 2.458104785775704071e-01 -4.862815361686113613e-01 4.181354406483900887e-01 -2.051693668348555932e-01 -2.445201313309820074e-02 2.181926316699770718e-01 -1.161793994133397401e-01
1.708605683950418508e-01 -6.254919711805577709e-01 -8.088825062658883125e-01 -8.176110934578727230e-02 -3.101098768577732478e-01 -7.991586450199182901e-01 -6.672871133565858592e-01 -7.253799289568149122e-01 8.638398952944956743e-01 -5.173216287755271203e-01
3.681699628742172714e-01 4.730270772840007298e-01 -4.056432429762137082e-02 -2.682136063646163859e-01 4.398654641041986335e-01 -2.769494152120626218e-01 5.128268764449754880e-01 3.513805755095798511e-01 1.544650435343757067e-01 1.384918867291000388e-01
-3.188110162000019066e-01 2.902384778249802455e-01 -3.572854827041809650e-02 3.128855597538512251e-02 -6.897555427184459687e-01 -2.378428587071285960e-01 3.301987338228883906e-01 -6.524542009193222691e-01 3.853478563619357478e-01 5.948223892805038328e-04
-1.722071304194599251e-01 4.755858038415174960e-01 6.126624081294864688e-01 -7.064538447773653640e-02 -2.147499451601171949e-01 -5.385024890356683303e-01 -2.587760158009251854e-01 -4.088797420896385648e-01 5.187010427718545813e-01 3.589333241703836497e-01
-3.799004276967233307e-01 -5.403087252073067726e-01 8.693624388266056879e-01 6.499864052807303727e-01 5.101432280719043755e-01 -1.409205971407472835e-01 -6.758175452954553464e-01 -8.338256472696044252e-02 -5.776291529555847015e-01 -6.629696430948015529e-01
-6.650772375380982482e-02 -1.097410737319079455e-01 -6.913928255526101685e-01 3.336050132451446326e-01 -3.806811550952972634e-01 -5.793853037374256942e-01 7.974077195578144206e-01 -1.519541844824853494e-01 -1.318063403026158431e-01 3.545030323128983141e-01
-1.488243831178009680e-01 6.066070727433416909e-01 -4.886109166439558948e-01 -6.683782559226721931e-01 2.550868755961270273e-01 1.321401414508339700e-01 -4.303732486623466913e-02 2.548055995537829022e-01 3.152457598412581885e-01 2.483933575725204568e-01
3.093991643944581371e-01 6.342120179929413570e-01 -2.221784714823046292e-01 3.530596588613490461e-01 -6.132010999023218556e-01 -5.785214715175115430e-01 1.086418200190487487e-01 1.928118330048669837e-01 -1.166488550605723207e-01 -4.405333910687889154e-01
-3.419707628972849106e-02 3.173773606413995418e-01 3.511914573580010024e-01 3.132622782461474409e-01 5.175231658205742269e-01 -2.786079455259009574e-01 -3.702178755100935525e-01 -5.312632959485986267e-02 -5.641897346969837468e-01 -6.183065411052472704e-02
-3.527152375902375403e-01 5.893636004178056664e-01 2.753452344502272942e-01 4.290816074742106467e-01 4.013494772256462895e-01 -4.515758810552049085e-01 3.563744267585963188e-01 -2.614790546674508054e-01 7.174170328892257587e-01 -4.215506172434192456e-01
9.933577000421839331e-02 2.934148610552078651e-02 3.231294038088321219e-02 3.651363546142659660e-03 -7.701984416418105120e-03 -5.946570792643967804e-03 3.598591082273867783e-03 1.600418720520630778e-01 -8.284319024071014337e-03 6.104151449117406827e-03
1.492254959957294291e-01 -2.996721830118809909e-02 -2.321134277858189453e-03 -1.794968060674127230e-01 -2.475139575646747858e-01 -9.241565443547041306e-03 -5.732481670822123926e-02 1.036941327080351943e-01 -1.201748990173277659e-01 -2.946029324405151639e-01
3.828917488785817946e-01 -5.490406301436493441e-01 -2.857999329420511936e-01 -7.032690234898217874e-01 -6.882739250616072557e-02 -6.952542604651552605e-01 -2.030334893533402296e-01 -6.338545786411544647e-01 -2.105501030876348947e-02 3.114819532906900612e-01
2.687620896474671520e-02 -8.599574837714214770e-02 1.186893331994197604e-03 -9.013825351561366439e-03 1.671501791759057998e-01 6.827223159349348272e-03 7.406246261584643886e-02 6.770019384613153168e-02 -2.392793381928290386e-02 7.346246581676503518e-02
1.123086042257823575e-01 2.506897231751809563e-01 -3.566885571213450346e-02 1.100614441176624575e-01 -4.293376742842883176e-02 1.698795669367282601e-01 -2.870220028457545203e-01 1.831323396157727712e-01 -3.127330686682332737e-03 7.160783093771229402e-02
-3.841985501762044675e-01 -4.014345949023783583e-02 5.798379414077483585e-01 -5.068872427934618952e-02 -2.528277696531929797e-01 7.120716068173238433e-01 -3.189962146771440632e-01 -5.180118645429889757e-01 -4.081549897268377802e-01 5.431904443797878068e-01
5.803868308586945801e-01 -7.594065845991218588e-02 -2.596686475948932205e-01 6.618761159865831356e-01 -2.619535552123677391e-01 2.617236606237974272e-02 -7.756272580906312664e-01 1.503492678934931492e-01 -5.355062498689180384e-01 7.418856520640274566e-01
2.499493301226783093e-01 1.711463096807377404e-01 8.410035986023373794e-03 1.154379005199558245e-01 -7.299832749264097143e-02 6.600806913633865125e-02 4.445224250249463216e-02 5.381779732461377391e-02 1.175905718250473270e-01 1.401873692846217212e-01
-5.197722735690150087e-01 -8.463604309451767671e-01 1.547925419582013573e-01 6.035645163385329193e-01 -2.752502982956164801e-01 5.896960591548876529e-01 -8.403572129281398073e-01 -6.959818046089949473e-02 -6.876860054642587317e-01 6.391959569139457065e-01
-3.096881504574278306e-03 1.588573662407416834e-02 3.515762538833298173e-02 -2.570801915439157453e-02 1.402665704367606590e-02 2.404695954540543926e-02 -5.846923541380692063e-02 4.506559062527207282e-02 -6.186755744001793539e-02 -4.511302249934174419e-02
2.004126477495471181e-01 -2.356479339395314287e-01 -4.379122370138778253e-01 -2.985036811806025536e-01 4.336158434153790653e-01 3.654854515177218266e-01 -2.072596832023319013e-01 -5.352595548474682330e-01 -5.177780291601848939e-01 4.927079548545436616e-01
2.798686172638110703e-01 -5.116233425774734389e-01 -2.087616640107019250e-02 -3.407444474559943592e-01 9.728275424523909198e-02 -2.943366515937434480e-01 -4.022305576714873543e-01 -6.418317997180364443e-02 9.840889542961842387e-03 1.791071480956967776e-01
-1.130423122714328821e-01 -2.895996477873513664e-01 -7.836243603365096455e-02 7.133352313377619436e-02 1.689037851219139519e-01 2.182101719267626749e-01 2.393718781880241342e-01 1.986049396115611709e-01 1.247445481029209463e-01 7.280434948844045906e-02
-8.561009050579225788e-01 4.486580712742598842e-01 8.851936989148315171e-02 7.394254149999670567e-01 -2.688901612496822913e-01 -3.178809450381930302e-01 -1.515135113609966389e-01 7.620884653152439903e-01 -5.123783612582071684e-02 1.402130329718827839e-01
-2.432674413629146992e-01 8.399320213268694768e-02 5.653914927355231379e-01 -4.029775694875679104e-01 1.993975181307479638e-01 8.065413394837882555e-01 1.951400137446429039e-01 -7.683976731181658103e-03 3.367061823200620529e-01 -4.147686867961219992e-01
-4.263227797331303921e-03 1.304020649464746051e-01 -5.325946012878618463e-02 -1.252761282436312407e-01 1.536720416549685886e-01 -1.757966859741015853e-01 4.275391548701461264e-02 2.477483688865431480e-02 -3.734036514219335121e-03 -1.274409510797807621e-01
7.295505255533418776e-02 -5.451579161073577236e-04 1.761359797299108798e-01 -1.864031839996748915e-02 -3.351558394519849743e-02 -4.534723319968025218e-02 -1.230789381192963668e-02 2.654888384395884260e-02 -1.280855957814708845e-01 3.356189786079932791e-02
-2.855409147350175258e-01 7.655185108285420537e-01 9.155417802623000423e-01 -6.209176763310815250e-01 -1.041589263598330095e-01 -2.551812801650217843e-01 -3.159819610090793263e-01 -2.246298024642463809e-01 6.814545461465858489e-01 -4.020412560030247051e-01
-3.388225873647255360e-01 -4.367854301979403053e-01 -4.449088354470159823e-01 2.746689355465451454e-01 -2.323910777223356927e-01 7.264068277022696085e-01 -2.092137843691751764e-01 -5.144270499480445569e-01 7.520471876020645707e-02 4.390791440180978333e-01
-5.075821619934770546e-01 4.419483671922749823e-01 5.394012737428671711e-01 -3.210005938556486083e-01 -1.559821861644019869e-01 3.177883820388675562e-01 -3.198797010163936805e-01 2.312216382309178753e-01 -5.809723332672601659e-01 -7.120166648960810640e-01
-2.346311508387741995e-01 -4.527143129847048253e-01 -6.244909625601321457e-01 -3.888313134747449218e-01 3.794838012687541395e-01 -5.363246621042661033e-01 4.771308301643177596e-02 -3.169630217752713031e-01 -3.663966207147901777e-01 1.470318542013714647e-01
7.567744146954202833e-02 -4.168283361165603385e-02 -2.409968511489406495e-01 1.710155350898197590e-01 2.777058518286815506e-02 -9.235999971456979041e-02 6.507163768630892797e-02 -8.634580536592271257e-04 9.742058326731885265e-02 -2.229373211193965698e-01
-2.594632406120133683e-01 1.641170779815498970e-01 1.964244138189874811e-01 -1.466806782617587901e-01 -5.757266567858968509e-01 5.645985591558018157e-01 -1.276976469732521990e-01 4.400487018673708839e-01 -1.769512471887157989e-01 -5.503082099976681629e-01
7.688309062276604822e-02 3.672358837146277172e-02 1.349783107640642639e-02 7.508919111639629496e-02 1.060448105267907531e-01 1.570138142380361626e-03 2.393541937151233076e-02 7.679717175253457546e-03 -1.177780547434413051e-02 1.013956377186651069e-02
-5.661392260209103799e-01 -2.822057054538051890e-01 -4.568889281880365028e-01 6.320362190596978680e-01 -4.829464504304401551e-01 6.934712324404980199e-01 -3.442007334586197898e-01 -4.593611886666607580e-01 4.823051793061096659e-01 5.606845132910215357e-01
-5.398147612953809737e-01 -7.966538260658852233e-02 3.621947491998270818e-01 -4.009667527038465566e-03 8.202435789562614321e-01 -2.675146588311565488e-01 -2.276094447410941246e-01 5.786997649749431316e-01 -2.556831988848494719e-01 4.229017143802626943e-01
-7.105064564581221875e-02 -4.078478559184862962e-02 4.712912990095084742e-02 4.869312806632564855e-02 -5.138710516093386235e-03 2.513991077225032414e-02 3.872643634222892178e-02 -1.033968142378467910e-02 8.407518716465202380e-03 1.096686089366737393e-01
-1.028101485497947554e-01 2.424115842852710145e-01 -1.676765173955552940e-02 7.895074655100141336e-02 1.789107012579847777e-01 4.389713405084334080e-02 -1.626557942145427649e-01 -1.422343210422732929e-01 -5.267946838677341204e-02 -8.540741986882426084e-02
9.686375796589929976e-03 -7.383621932418950318e-02 1.417227020874252744e-02 -1.761288913296250314e-01 9.952548359617791052e-02 7.899186344122907655e-02 -8.645917217392865006e-02 -2.548775491439325691e-01 -2.801288896403728024e-01 -5.545452521176047478e-01
5.209580167140936968e-01 -1.124690938012773145e-01 -5.289724358887235578e-01 -5.634147789293160180e-01 1.251007712600363531e-01 8.697477688517717132e-02 -5.162923654498735582e-01 -6.754899560586173635e-02 -6.237601068064291265e-01 5.133375904528157951e-01
4.616558915990432999e-01 -6.365782887872011298e-01 3.783488470300603868e-01 5.747741211225656510e-01 6.300510794017384342e-01 -3.049776226192887352e-01 4.012604679160594046e-01 1.708198316721384336e-01 -1.250399596704046719e-02 4.827656642023341327e-01
4.226253322535353796e-01 -4.482738386765874883e-01 -3.871781129334417870e-01 1.682265413073419646e-01 -1.393467097948063171e-01 -4.149465409022279339e-01 5.065325138805274463e-01 4.249443240379734976e-01 -1.280735577940836645e-01 1.126012712682506189e-01
2.122393354568349322e-01 7.907571286555611367e-01 5.094147174164367353e-01 6.023293321121282462e-01 7.223245193815046594e-01 -8.030865652046351721e-01 1.672764593986539039e-01 7.931078448391628566e-01 3.089953030418592927e-01 -8.704135047675307657e-01
2.830537075184256790e-01 -1.171766058543870087e-01 5.370285196241960518e-02 1.357739872204894449e-01 -2.056116981270506572e-01 3.720661057074564626e-01 -3.505282031677463273e-02 2.352484674094923733e-01 1.435465249031264712e-01 3.473079245451420327e-01
4.331204428279622487e-01 -5.431518424406347467e-01 5.572869930347081890e-01 -3.537746299577813613e-01 -1.762519686502824201e-01 -1.588068484227116162e-01 5.541121606552174006e-01 -4.469879748662751728e-01 3.272140553221911108e-01 -2.338574460450896508e-01
6.766387347234890104e-01 -2.550036001543870556e-01 -7.074584532560286299e-01 8.932583712407800025e-01 8.626010642852723065e-02 9.341072077569158028e-01 6.929450204352914922e-01 -2.708447988666320971e-01 -9.290677505436950590e-02 7.890342439403916774e-01
-2.178184641162058954e-01 6.365103232284950383e-03 5.959617176575513625e-02 -5.249420782487617121e-01 -4.297949908855619450e-01 -2.349652549776626298e-01 2.203162741802776325e-01 -4.089746167447976810e-01 -2.978409672499385819e-01 1.438847496195050923e-01
5.853168642974201398e-03 3.902050432714215117e-02 6.506301174972475669e-03 7.926947794142130688e-02 2.167479410447248605e-03 6.675400538983658483e-02 3.486362358534731646e-03 4.154159496645914995e-02 1.102366931876240519e-02 1.297828131110592004e-02
-1.261093390713756701e-01 -6.034276375448039964e-01 2.769593737651737109e-01 3.309486895933978767e-02 4.902737656787061749e-01 -4.555260872832770924e-01 2.458674552969252469e-01 -3.977534383024229347e-01 7.154301096612752930e-01 4.423695398125775946e-01
-4.828880688596836057e-01 6.715438403853878357e-01 -1.040318633782912339e-01 -1.635820701516716158e-01 4.566253718093555292e-01 5.141520823332434986e-01 2.680861952383210567e-01 4.602204638779116563e-01 -4.639599051039474675e-01 -3.978053044845363262e-01
-6.660919790502914384e-02 -4.212287194969661641e-01 5.721978205417304481e-02 -5.695472141819873935e-02 1.601234259989554876e-01 1.724801733649852509e-01 1.147556732732730456e-01 4.134445671215424278e-01 -2.785882937498726508e-01 3.299611150275223448e-01
-6.774687265982733964e-01 3.952794686491277742e-01 4.481850613386175741e-01 7.201898609225558801e-01 1.306908236122532874e-01 5.891842001105073168e-01 -1.913566774070148135e-01 -8.555383786740003438e-02 7.055481142849535647e-01 9.195910447242534869e-02
-1.490838309091669089e-01 6.240551516878951599e-01 -5.614921935680459164e-01 1.915717233725114654e-01 3.064011787188630209e-01 4.242779652652198807e-01 4.000943987677680891e-01 1.155297189191739765e-01 -4.284272791588020907e-02 -1.581009304631710299e-01
1.322577344871968957e-02 -6.467159397192018093e-03 2.340870912543865923e-02 4.962403265758651150e-02 6.256518698343356555e-02 3.265996582109288032e-02 7.247698657231901181e-03 7.587191020548265941e-02 3.544625733851721611e-02 3.605611354811812108e-02
-4.907599795032043799e-01 5.988487774693230792e-01 -4.900598343431619153e-01 -5.583484184779523816e-03 5.722905204168026172e-01 -7.475747795798544093e-01 -7.993144984665357944e-01 2.622770464865324946e-01 -3.389213601028079337e-01 -7.029581510976929959e-01
-2.137727995546291615e-01 -1.644980972225596749e-01 8.120356003029542691e-02 1.390194470129426096e-01 1.428917095222631828e-01 -4.164277364785661240e-01 1.115755298849711724e-01 5.743559782243131684e-01 2.073329426582727897e-01 -8.275543741730471969e-02
-5.440467404530532347e-01 1.971421709687657953e-01 -8.107929273934629810e-01 -3.333874603791928126e-01 -6.753181221252340105e-01 7.860182398867421316e-02 -8.325913849167968506e-01 -5.072190801651175196e-01 7.998326009931376879e-01 6.876364269340425883e-01
4.653819541524827075e-02 3.385604171424454190e-02 7.743846960462738571e-02 -5.660818244379530600e-02 1.632991470039034387e-02 8.016995150228072020e-03 2.437418924200870571e-02 2.110338623620902979e-02 -5.527270515040764304e-03 1.145872169554688902e-02
7.555329058113649521e-02 -2.066069320158546163e-01 2.923592398155931971e-01 4.348050485302955015e-01 -4.836817418150507475e-01 1.842138970823135602e-01 2.270887237828191629e-01 3.697047171957270478e-02 -4.959844372845692018e-01 -5.571412329786427087e-01
2.288122826733683113e-01 -1.226797297370691847e-01 2.315307132152144287e-01 -3.029782832702592257e-02 -2.037048226232511250e-01 -2.353482230858741364e-01 2.252026145182838557e-01 -2.628235240152287377e-01 -1.221968940442966917e-01 3.013568080341088584e-01
6.966001535934459588e-01 -4.803177054080129404e-01 4.768550782868743454e-01 8.245735822627251466e-01 6.134650720902676824e-01 -3.284990952231257172e-02 5.271047745780621518e-01 6.937003134820010075e-01 5.925053460470389721e-01 1.054238956954090672e-01
9.547559938173667826e-02 1.155467745579835115e-01 4.707422318381434545e-01 -1.436693254083179772e-01 1.871537345103963801e-01 -1.970529079453364196e-01 8.861568395553341693e-02 2.656136311456713250e-01 -3.725407984554547358e-01 -3.561714479944815825e-01
-3.569193640856593297e-01 1.337415955332280082e-01 3.852359244498136381e-01 -5.816517490106238863e-01 5.704058468255744918e-01 -1.217045832969163577e-01 7.211410740399496477e-01 -5.608333350440884990e-01 7.488910257344573440e-02 -4.131946787699832674e-02
1.581098749713355511e-01 -2.182094327413629242e-01 -4.172161023837033245e-01 1.422058267423272765e-02 5.138845329949101592e-02 1.549701342547530822e-02 3.807173201312442079e-01 3.884661651906464175e-01 -2.880651953735761939e-02 -4.974340579611192248e-01
3.048100401476134258e-01 -6.145791449720124922e-01 -4.714078890705922231e-01 3.027272423928116171e-02 1.545170795544076603e-01 2.918781017955316970e-01 -2.634793586640152840e-01 2.002061950752431208e-01 -2.654332605794851863e-01 -4.030521737942698302e-01
-3.686235296624553598e-02 3.750573560414957042e-01 3.186071941840095123e-01 1.823884067731412206e-01 -5.510128276243155682e-02 2.232683071756346449e-01 -3.236317192555788758e-01 1.843353225993857591e-01 -4.740268531759267217e-04 -4.167328089077516617e-01
2.504231481250692726e-01 -1.877238360871777423e-01 -1.566233281714300984e-01 4.521715401365832276e-01 3.872941726976395493e-01 4.667563465781444099e-01 6.923105722681348606e-01 -9.371383792303424054e-02 -2.918535971146417607e-01 3.410729985522428231e-01
-5.113019151493211067e-01 -2.159417099310068644e-01 -5.456381519583768797e-02 -7.933285450420272250e-03 2.655177605620732684e-01 -2.407739460190810310e-01 6.162832475030035305e-03 -1.844318498835175180e-01 -2.861139146082566920e-01 2.400963330116686056e-01
-1.716317598056038563e-01 -6.916662042604121430e-02 -2.509139074247403456e-01 2.444470568331506555e-01 1.741030556949425268e-01 3.015017252834107930e-01 -1.046501646866935670e-01 6.196941136087080748e-02 8.356034125999790060e-05 -4.273194727391570191e-02
2.128921221493187410e-01 2.408754967397333524e-01 1.726029716319024687e-01 -2.152751309205788444e-01 -3.646149315289478610e-01 -2.427295104278245630e-01 2.331361738295548713e-01 -3.144368914300112450e-01 3.517025366204696857e-01 6.495748267965541223e-02
-1.952850004383785591e-05 5.345850735696010547e-01 -4.410979429251816741e-01 4.750046856404532281e-01 6.462332309778512363e-01 1.769210007932194295e-01 3.234265598320461010e-01 2.757706737766146832e-01 -4.689078730621776270e-01 -6.461702987756582361e-01
2.825029545621015048e-01 -3.720190808135099281e-01 -3.952268146960714046e-01 -2.330927814385465868e-01 4.718967540233705016e-01 -4.930591855090934311e-02 2.094756154450739052e-02 5.184898902650227903e-01 2.623810875374087970e-01 -2.446810997678661170e-01
-6.784227047330709803e-02 2.969390421852545758e-01 -2.510369144796223972e-01 1.815694847510505028e-01 -5.122993622375361378e-01 -1.678284695865450149e-01 3.093761390444223491e-01 -2.786775833674138281e-01 6.677327083337463165e-01 4.505101494221696590e-01
-1.975386582323934367e-02 9.587322112159141207e-02 2.200851014833921093e-01 2.099813416044656600e-01 8.417853433623637138e-02 3.659479246615983672e-01 1.719683365559317723e-01 -1.070728684343637410e-01 8.981980907546742443e-02 2.627293184524222558e-01
