6.303147510639970363e-01 -7.999642619149027745e-01 -1.147816610892636591e-01 -6.205326827972604820e-01 3.234047899822306005e-01 -4.556167762360368578e-01 3.507105637986264179e-01 5.929136261103843397e-01 8.035452395189447428e-01 7.090299857930504324e-01
1.498734679338334097e-01 1.205509743077358004e-01 -3.896012614646627847e-01 4.034674247694948201e-01 3.970285963291537157e-01 -1.093364880513776199e-01 -2.519362658798799948e-01 -4.319578038680304544e-01 5.169509535183015592e-01 -2.684149559816017550e-01
2.804569559024896463e-01 4.424209093064910836e-01 -2.013770112898385228e-02 6.585229521757046678e-01 -5.697087381488645796e-01 -2.942711293172341480e-01 5.577511443009570691e-01 2.485767243719089192e-01 6.818220502671640260e-01 -2.665876158242859173e-01
1.513702220247878649e-01 -2.502046200421944033e-01 -7.050816329074362232e-02 -7.998819355431886768e-02 -1.989599947866919627e-01 -2.264882134162558291e-01 2.764605226084582146e-01 -2.481030591288353182e-01 1.933467529080080405e-01 -1.259574296336216925e-01
1.320354217748510937e-04 -6.141772883918834164e-03 4.926382882648277367e-02 -1.199570020910120313e-02 7.418825409483421895e-02 6.038699281131622125e-03 2.059660280846687536e-02 5.502452007927669669e-02 -3.119689456989279026e-03 2.204638369690808952e-02
-4.456242043494792471e-01 -7.477410518749250112e-01 -4.072267651954136758e-02 -7.938236015469857243e-01 7.018518083330564927e-01 -6.937767362511672031e-01 5.532270211659914283e-01 7.115973818410284979e-01 6.746122424184146649e-01 2.297853240747034786e-01
-7.419206395135073337e-03 1.383266759702684590e-01 4.834962323087258623e-02 7.281641665398945300e-03 -1.613042646606594258e-02 1.474725273743419419e-02 4.795161614991710203e-02 2.489601837372474018e-03 4.525771788229838999e-02 -4.496422020421548919e-03
-5.356816348681429085e-01 6.817139499614321974e-01 7.769401276089837882e-02 6.871144137258824447e-01 2.266915070127871190e-01 -3.248769769231917848e-01 -3.843469532459236060e-01 3.209220771499457503e-01 -6.055655731554180354e-01 5.611707253234392567e-01
-6.877945845464962515e-02 5.910520598295488925e-01 5.517059451855698127e-01 -5.611294428347639585e-01 -2.795647183906039834e-01 3.699401631713338801e-01 -4.219256529903284703e-01 7.189263435656111367e-01 5.173171365783340026e-01 -1.894891963736608786e-01
2.113538714501713312e-03 -5.934802571791073997e-03 -3.039106689503320077e-03 1.638312836056028329e-02 6.586595457806607157e-02 2.851517649490521028e-02 2.183907326642201257e-03 3.277096078753930636e-02 1.739338635810309605e-02 2.543231933141951173e-02
-3.401037384994309160e-02 7.418327890909426348e-02 9.619198748163509949e-02 -1.237195735896052667e-01 2.576744173404458271e-01 -9.762962932730203866e-03 -3.696569984662924357e-02 -2.237412644592685906e-02 3.194586096602277520e-02 5.350845367059765129e-02
3.424892632463718001e-01 -3.190280861186723937e-01 5.936562875031962117e-01 1.865152176693319619e-01 -3.493757049346307708e-02 -2.091119697603134597e-01 5.405435285997087780e-01 5.065764417406179998e-01 -4.534889821642610341e-01 4.088832046312088075e-01
-4.258774046309479755e-01 -4.295422215803158111e-02 4.467770096500217059e-01 5.863330834842831463e-01 4.658894248557681750e-01 -4.706163017272519400e-01 2.080062427135524195e-01 -1.353143492944864357e-01 3.180415531531441964e-01 -1.297702478729441666e-01
4.212818584821112489e-01 1.967808169883144553e-01 -4.644294399647587723e-01 6.415077171890124497e-01 1.745462168594956176e-01 5.464636531725640400e-02 7.439049596889868443e-01 -1.647404265409019852e-01 4.119066317389882825e-01 2.861830701637801955e-01
3.115363187030664172e-01 -5.509770018091054711e-01 3.552182047176014601e-01 -2.373160202936602514e-01 2.909425213427587753e-01 -1.820939171314106264e-01 -4.564237335886496272e-01 -1.674839415356508543e-01 -2.004726378207471738e-01 -6.867266990692918460e-01
-2.861138754342590178e-03 2.247502296232844338e-02 3.973019980810579832e-02 7.948449961934224775e-03 1.043334157044353838e-02 2.512369543640809166e-02 3.464404485913323388e-03 3.489198114161098756e-03 2.791557996618716786e-02 3.331514069946569373e-02
-4.429439032989078706e-01 1.100163623108343647e-01 -5.769463541175626764e-01 -4.961038485203757009e-01 -7.965980159996912530e-03 2.179806640860457445e-01 -3.850320718496566541e-02 3.789529586623005541e-01 1.037860041678788092e-01 2.449061629334367551e-01
8.298415657469677686e-01 -5.337584725529153085e-01 -7.693512369401804829e-01 4.701666747594024365e-01 5.956285657330011585e-01 3.149166223648226515e-01 1.116463617072977754e-01 6.656286373364529441e-01 8.042126026358569213e-01 -4.411407408905832495e-01
1.855145521584062500e-03 4.256979226728693777e-02 -5.926973335619374339e-01 -4.782201508637972664e-01 -5.797811398534221672e-01 2.864918013463698121e-01 -3.650563402497420395e-01 6.669255528187411075e-01 6.760473054639012935e-02 1.288240082504714216e-02
-5.913990635066239399e-02 2.795531957229456799e-01 -1.457349936164865634e-01 5.609509287711251374e-02 1.823805600570403973e-01 -1.012334828240653434e-01 -2.428816771534451635e-01 1.769179944283544303e-01 1.741744687066347219e-01 1.595970718079726958e-02
4.381837797892582272e-03 -5.637236789545893578e-02 -2.556172348225149160e-01 3.818439368914826049e-01 -4.285851644795947712e-01 -2.600577511444275222e-02 1.904004583803004802e-01 1.785278945684672658e-01 -3.239907428909395981e-01 1.886320931880364205e-01
2.864272623229940362e-01 -9.559314007403033053e-02 -2.604874401120170213e-01 4.154777500117623479e-01 2.751297090717880756e-01 1.693430791118619438e-01 2.212488117477373062e-01 -8.724370767881139965e-02 -1.309816641221680511e-01 -2.160730469230367767e-01
6.484309259689999272e-02 4.496249866149581997e-01 -2.410117044289936117e-01 1.859495354021875879e-01 2.751503804219946336e-01 1.426853088974674444e-01 1.091982544919451459e-01 -8.275115634587819347e-02 2.634277268855017562e-01 -7.376012295299633204e-02
5.223338032040665269e-01 1.113285539838886201e-01 8.167358688016203017e-01 -8.843225396666919425e-01 -3.956741620012261818e-01 8.726218853632533579e-02 7.581234336746011104e-01 -7.726281883770246273e-01 -2.096638482291128536e-01 -8.084503807408993659e-01
-6.288628104375877381e-01 1.836807658491885209e-01 1.147105489217240502e-02 -6.598959432598183739e-02 3.374291773935151340e-01 -1.389746934987935167e-01 -6.864023760313892053e-01 4.670558948269900590e-01 -6.538973235720372257e-01 -6.075480674033394424e-01
1.304661336017029320e-02 -6.674396516246693112e-02 -1.718265373773928198e-02 2.597291418864834389e-01 -5.045505101138323401e-01 4.439477410890328990e-01 -2.155576621908864288e-01 -2.504362224961570460e-02 2.299037149160519100e-01 -1.172883415580609628e-01
1.711155559405940774e-01 -6.255265329296805232e-01 -8.105215498702822430e-01 -8.161875486132219581e-02 -3.101613096639793121e-01 -7.991111945660533955e-01 -6.675114138761395477e-01 -7.254096508352397832e-01 8.642969042287349524e-01 -5.170809482809600732e-01
3.708610541971470997e-01 4.762598862891106455e-01 -4.066377015183280513e-02 -2.693041736870743219e-01 4.397708463575168425e-01 -2.865237140666995752e-01 5.172964049995449898e-01 3.546508866507366853e-01 1.562520481327766553e-01 1.392688389580128971e-01
-3.197639833418207678e-01 2.864383229244974460e-01 -3.457608955187181643e-02 3.073755436407114155e-02 -6.924552037993374487e-01 -2.449937008963727070e-01 3.285089353590040506e-01 -6.563390692752121280e-01 3.884405408075841115e-01 1.538712784309298519e-03
-1.754340638456155232e-01 4.802727909419731711e-01 6.162752033347824732e-01 -6.489603899987692048e-02 -2.320235112718403714e-01 -5.434626307355081565e-01 -2.593145715657176886e-01 -4.167142248932308446e-01 5.247057204926451890e-01 3.669491281726054432e-01
-3.791550459701371611e-01 -5.461784118336415750e-01 8.691586396496688849e-01 6.488267103033683592e-01 5.127270783229569417e-01 -1.406959630379524817e-01 -6.786477084003047500e-01 -8.263045951225934938e-02 -5.813440954727938648e-01 -6.623865299403475237e-01
-6.621943423393603090e-02 -1.100286316800484776e-01 -6.941823511896113574e-01 3.347671297233711374e-01 -3.816457014244304946e-01 -5.881686537582690999e-01 8.018064545899993290e-01 -1.499315153344061291e-01 -1.323611339946475229e-01 3.510732429065492322e-01
-1.489540905654376801e-01 6.091565209429620209e-01 -4.904450525034066977e-01 -6.706513040105692713e-01 2.535107553778097045e-01 1.314111009317918410e-01 -4.243529818024242145e-02 2.490901176474678291e-01 3.149044206306202409e-01 2.524172498534582032e-01
3.118247864504496980e-01 6.385371763365080833e-01 -2.226821556441335448e-01 3.572425510102940072e-01 -6.273078311399807871e-01 -5.836551557608253837e-01 1.094188815762827949e-01 1.971077264269805451e-01 -1.144129091340685966e-01 -4.435526652438434025e-01
-3.338323916568081834e-02 3.140235571558561700e-01 3.532816410967814513e-01 3.143598483863305759e-01 5.185732137464151847e-01 -2.824327522360055576e-01 -3.714463183331102591e-01 -5.478169223070802202e-02 -5.655186690050448828e-01 -6.132986517378434532e-02
-3.528920099599832660e-01 5.936386055954081531e-01 2.735423018124825134e-01 4.328112371534119096e-01 4.086053015551995293e-01 -4.508694603598360495e-01 3.605168782756058010e-01 -2.690779613085157451e-01 7.209432903820871541e-01 -4.229500384258039758e-01
7.345116064528367517e-02 1.339947289809968224e-02 3.092410164574715264e-02 -1.728227893077283282e-04 1.491625677636454169e-04 -8.038839313217839566e-03 7.988704181896684464e-03 1.129702747900549892e-01 -5.803201124628298152e-03 1.010864416203438414e-02
2.015782353438730912e-01 -1.996871416491587808e-02 1.986613031595519524e-02 -2.428542111204899379e-01 -3.609230008697289493e-01 -9.521426999532928148e-03 -8.843485475000471829e-02 1.593851876332537665e-01 -1.286603453702713507e-01 -3.768340500343383970e-01
3.841582783651236177e-01 -5.504426118101660714e-01 -2.872329339682739291e-01 -7.052285219517862025e-01 -6.896871146796600127e-02 -7.007195639457984848e-01 -2.019826623692189960e-01 -6.340283705221423372e-01 -2.139401251539279139e-02 3.028537783392061256e-01
1.655018655694417973e-02 -1.228649845300959637e-01 9.581634219554662976e-03 -2.751279441185393651e-02 1.669024380863066148e-01 3.476710290495317601e-02 7.944106815227676421e-02 1.018874937266081165e-01 -4.218092455119530626e-02 9.996687193111879199e-02
1.214756553382558696e-01 2.565683126099483347e-01 -4.419064428827490509e-02 8.811777267262506375e-02 -5.401254922396438174e-02 2.065324958938377642e-01 -3.349274021691139858e-01 2.055768557198843216e-01 1.636619315394932791e-03 7.740238179971048460e-02
-3.930282630018590018e-01 -4.497869311026751055e-02 5.824775161377671040e-01 -5.088856757490287791e-02 -2.570355903067893522e-01 7.167360168311931456e-01 -3.179227306992887803e-01 -5.293966672813374963e-01 -4.080074443407922802e-01 5.380665969955108485e-01
5.806936611355423272e-01 -7.706319454888091447e-02 -2.597540845988088321e-01 6.622774189159648106e-01 -2.619317654261867911e-01 2.572781944289715544e-02 -7.758363324030990160e-01 1.500135015097746605e-01 -5.355777893961385372e-01 7.421472591093112303e-01
2.654184165815923202e-01 1.853804732557028379e-01 4.662058251239530222e-03 1.242298210508431533e-01 -8.238805796571355144e-02 2.846512903701468866e-02 4.251829031637571060e-02 6.301680865717276814e-02 1.281410715333962669e-01 1.530316848554634790e-01
-5.193397917963781252e-01 -8.475854738846455572e-01 1.532236732394320622e-01 6.032221391879432071e-01 -2.746285405200997176e-01 5.901267484847095846e-01 -8.407783502832687494e-01 -6.928793615533584971e-02 -6.880643657883304121e-01 6.393325966862243304e-01
-1.795383467684579654e-02 3.749003700861990723e-02 9.124998004850438937e-02 -1.590092727507973203e-02 -8.525275664596100589e-02 -6.735472626739547053e-02 -1.302206350453744554e-01 5.160233556435350755e-02 -1.088118657771419973e-01 -7.949394021138060651e-02
2.028393797531539700e-01 -2.398669230581988165e-01 -4.422402940677296890e-01 -2.972495732433840243e-01 4.303347141110412388e-01 3.685137850479952015e-01 -2.051144681827896388e-01 -5.464094845154457980e-01 -5.232218531961623231e-01 4.997460389508129874e-01
2.902252248066936047e-01 -5.295535184099445791e-01 -2.364607405214491989e-02 -3.533417418675503519e-01 9.736372354427910714e-02 -3.054997153825472767e-01 -4.339056515919420542e-01 -6.816443873945644827e-02 1.071366446340347306e-02 1.857489881491460604e-01
-1.249946400505754229e-01 -3.150976922954925596e-01 -8.567113954402713616e-02 8.836120460750054861e-02 1.494853971467678955e-01 2.385503111529470865e-01 2.662778909317601861e-01 2.274361508520695574e-01 1.454150505612453737e-01 4.448343064725642643e-02
-8.584496375247666622e-01 4.485333634590190632e-01 8.927415042170262771e-02 7.370219876116429480e-01 -2.695216580738837853e-01 -3.183610544368851158e-01 -1.518638942227087674e-01 7.642315959090044686e-01 -5.111045101052345829e-02 1.409847550381324310e-01
-2.494357481054609027e-01 8.451413198759520629e-02 5.679083893504013325e-01 -4.048616612522743519e-01 2.005866182911682227e-01 8.097737929090732534e-01 1.958421374853419328e-01 -7.773091854587976975e-03 3.381243720543097298e-01 -4.162808683611093907e-01
2.767269552944864527e-03 1.602950018587721848e-01 -7.901996558222128264e-02 -1.850802813186730733e-01 2.132841521590559675e-01 -2.454485893244882089e-01 -3.452684098332935159e-02 2.643033722369364513e-02 -1.785287687263808001e-02 -1.684411423800964702e-01
7.528305188800681058e-02 -4.371707898880158177e-02 1.565502368588170545e-01 -9.405302118803079287e-03 -4.271869971562727852e-02 -5.833234417759140117e-02 -3.296950826747556407e-02 2.985909629848609512e-02 -1.678888290536284800e-01 5.980886269977232772e-02
-2.864651225654805122e-01 7.702815084111752642e-01 9.187021670263819662e-01 -6.235851355853293532e-01 -1.046520946602341323e-01 -2.683839871517273434e-01 -3.116574479172165013e-01 -2.195841480190065531e-01 6.842528067629257693e-01 -4.164452223279668797e-01
-3.412320783838775351e-01 -4.371257130625635923e-01 -4.457418557440744888e-01 2.758999457038925907e-01 -2.320621071748996955e-01 7.248181178531193369e-01 -2.118605894760223207e-01 -5.150083570889426587e-01 7.608842553430343603e-02 4.419493304550961565e-01
-5.077174905545781547e-01 4.421047037855011519e-01 5.396489196670966049e-01 -3.209236773569255075e-01 -1.569120865962840838e-01 3.172602827233867995e-01 -3.199317754361440391e-01 2.315714731026387030e-01 -5.810057724831243497e-01 -7.128370297274556622e-01
-2.380236370906425869e-01 -4.565924518043281144e-01 -6.312997625816475500e-01 -4.038863024064947016e-01 3.841223089248691491e-01 -5.428331523870074671e-01 4.941835728093353641e-02 -3.213916065376248299e-01 -3.697311069006342654e-01 1.518463648043850700e-01
3.552714503473905494e-02 -5.158385187844598957e-02 -2.547601925781979304e-01 1.852058982191569503e-01 2.327786895813604290e-02 -9.521157145601795435e-02 6.968185840658855379e-02 -2.677752565775527033e-02 1.098576673753714761e-01 -2.467595547597824790e-01
-2.642006214714440748e-01 1.635663684220689529e-01 2.014989398955869815e-01 -1.496728634398694913e-01 -5.869772519731877303e-01 5.658927688156759617e-01 -1.318726737495396484e-01 4.419183378470837309e-01 -1.812686626610026386e-01 -5.551766115199878726e-01
9.428041512323190321e-02 5.314841990406347916e-02 6.744537904539681106e-04 1.284077685232920818e-01 1.308331547758234403e-01 5.584165047959459283e-02 4.962136069106257152e-02 -1.602209824767845264e-02 -3.387097958725523300e-02 2.644782311475377123e-02
-5.665092808311450456e-01 -2.825130786241975001e-01 -4.579006833297760704e-01 6.330688514471267681e-01 -4.810162532728602947e-01 6.981464510854856753e-01 -3.441491128240359854e-01 -4.643852144384631453e-01 4.828439860927988270e-01 5.611691101370153145e-01
-5.396681716160786069e-01 -7.967570893579754843e-02 3.622762733687198144e-01 -3.778683508635168834e-03 8.203484289666668205e-01 -2.674815659605017659e-01 -2.279621830656181625e-01 5.785161092867326937e-01 -2.557648863616297508e-01 4.232405306355375707e-01
-1.315874596196685009e-01 -6.797521699701347675e-02 7.233716880257878845e-02 3.385056325181919762e-02 -4.188762876382928768e-02 -2.530245709196762144e-02 7.110904737471589188e-02 -1.206647303019852763e-04 2.105175151676060355e-02 7.598158661748648235e-02
-1.192542901079861190e-01 2.479880017268139558e-01 -9.515010200059509718e-03 9.866894264061655540e-02 2.103074021097346424e-01 4.299640480052130398e-02 -2.002402242042447267e-01 -1.517134612325374832e-01 -6.365473801216856020e-02 -1.101389882259397046e-01
1.368843458570407484e-02 -8.695101712343258904e-02 1.473121935535128858e-02 -1.887649232693412726e-01 1.185272103274886968e-01 1.019804187759238978e-01 -8.801058976984900417e-02 -3.008736446842352752e-01 -2.947676157012340536e-01 -5.917212184367386385e-01
5.273241689892594897e-01 -1.291827778578437114e-01 -5.339313977016283408e-01 -5.708014991129271021e-01 1.305549265647354129e-01 8.805824945688806027e-02 -5.264914539104602609e-01 -6.665985978009751622e-02 -6.346039041306368311e-01 5.194392837793685436e-01
4.640730349090009810e-01 -6.383271574357646250e-01 3.795845579253408486e-01 5.761638560123223396e-01 6.326153098470793656e-01 -3.029976003495100101e-01 4.031612073855213585e-01 1.680159287066145535e-01 -1.179674885542694902e-02 4.829041390445737436e-01
4.291193990352861198e-01 -4.524551043816180118e-01 -4.025091006638035207e-01 1.725433317618730589e-01 -1.408941084096365648e-01 -4.187047959071107939e-01 5.142451074057031724e-01 4.307872141558141132e-01 -1.291964811381955958e-01 1.146675293516890848e-01
2.096670068992659008e-01 7.919646489746403617e-01 5.089006457778225689e-01 6.015101224774167532e-01 7.221003052276192546e-01 -8.033041610527701382e-01 1.669927732030170031e-01 7.955327375493068676e-01 3.091183247419320157e-01 -8.711418161373273295e-01
3.082556662928131463e-01 -1.272887650135050008e-01 5.760676175644268565e-02 1.420342195939266750e-01 -2.059227962955867686e-01 4.114671226225432576e-01 -4.460560227469108352e-02 2.304355106040812395e-01 1.483997664539793426e-01 3.409644655024994808e-01
4.382769875027230366e-01 -5.538843282142111857e-01 5.619696285016401172e-01 -3.548703867940589118e-01 -1.810779265703046925e-01 -1.561470814590817102e-01 5.518854967433385328e-01 -4.500216265055619891e-01 3.292627001729895864e-01 -2.389602468737053731e-01
6.766557980348267831e-01 -2.550012044692032687e-01 -7.074389009321815358e-01 8.932720763501463823e-01 8.627271803524839966e-02 9.340188511612588229e-01 6.929517826482038956e-01 -2.708275695082771328e-01 -9.290408459987635481e-02 7.890431044765441326e-01
-2.187145373505194612e-01 4.884444002973433070e-03 5.352131824030577356e-02 -5.348110336134046516e-01 -4.366809712871468907e-01 -2.345933099046967618e-01 2.283420618300543437e-01 -4.125360111303494892e-01 -3.028201164084660113e-01 1.482251562199400075e-01
8.816215871988102026e-03 3.908824955140798724e-02 9.890805129754142236e-03 6.187999725622303493e-02 -6.919299613570928723e-03 5.701739881152399769e-02 1.572326902008369448e-03 2.770047228191728841e-02 8.514269303467460887e-03 7.335380131076744796e-03
-1.234269454914559694e-01 -6.046829858993643114e-01 2.805831590777959073e-01 3.208737650158480226e-02 4.855859544964554741e-01 -4.558052485132222942e-01 2.416190440335177214e-01 -3.973913393855296738e-01 7.167221454249556034e-01 4.417313905860224543e-01
-4.832377326790993077e-01 6.662672802721075760e-01 -1.044777479506334567e-01 -1.653583093961135952e-01 4.607544835482401679e-01 5.154724258287824989e-01 2.648142553219843265e-01 4.626514206148840125e-01 -4.671271859576467400e-01 -3.978492050329046070e-01
-6.921937608525818852e-02 -4.377910723841359486e-01 6.167822096451257285e-02 -5.197151610023586360e-02 1.739295583260836164e-01 1.715812345245980308e-01 1.220088207136840186e-01 4.237353131958534469e-01 -2.954512878462506875e-01 3.430367062656404231e-01
-6.784049107828786784e-01 3.948868561374395125e-01 4.488388169855849763e-01 7.216333273238522139e-01 1.310890044288414436e-01 5.901857985585484689e-01 -1.915933891858814520e-01 -8.852666715673838949e-02 7.064871835957309276e-01 9.204196455415109002e-02
-1.493929494000554026e-01 6.254356776138710883e-01 -5.624231297158820420e-01 1.921292359254193338e-01 3.073684371077062827e-01 4.196284091566255259e-01 4.009886447516207708e-01 1.159333256322711558e-01 -4.273099225116884503e-02 -1.581562785038144736e-01
2.240434972188959720e-02 -1.009233272519632733e-02 1.230663316607550836e-02 4.328274515378621040e-02 5.867223990191711147e-02 4.130352921442945191e-02 3.857625027827574823e-03 5.590363022782408181e-02 1.866143605303981906e-02 3.580300900593354207e-02
-4.908755064165161164e-01 5.972655195389731109e-01 -4.898140290821685894e-01 -5.324041447869695166e-03 5.717126545790749415e-01 -7.477533606759048102e-01 -7.994210762862813402e-01 2.626144715548771602e-01 -3.388806529188414518e-01 -7.031018510798844323e-01
-2.215300429618716760e-01 -1.866361892101623676e-01 8.581289812153984620e-02 1.398732357152847050e-01 1.510782528002151959e-01 -4.306984019723193446e-01 1.156866183914867507e-01 5.833039348656122725e-01 2.169006630188228257e-01 -8.413536663450632558e-02
-5.442392640947139038e-01 1.977343715209485542e-01 -8.120024489462519535e-01 -3.337622791390112975e-01 -6.752119372953782062e-01 7.837865350071876458e-02 -8.327870090261429992e-01 -5.074403015279588258e-01 7.988644085682661267e-01 6.883966804325918343e-01
4.979658015904468715e-02 4.876030946809472438e-02 9.085012881030807286e-02 -1.117731724053114828e-01 3.187532952963378213e-02 -4.241581856948842266e-02 -1.662748133655151533e-02 -1.564788992578368398e-02 4.426204041323322140e-04 -3.409925207861832629e-03
7.756783105156185576e-02 -2.083364702218014897e-01 2.946661054735328356e-01 4.338395656905354447e-01 -4.861900548008154521e-01 1.796016471598415876e-01 2.332927239230202510e-01 3.712445381627055285e-02 -4.992573900011486598e-01 -5.643791701611727829e-01
2.897237715313221718e-01 -1.511830652637269901e-01 2.858631506816447510e-01 -2.812002173239386282e-02 -2.411260349768707956e-01 -2.780867936365402082e-01 2.216909818607905869e-01 -3.314951690594573619e-01 -1.632568815407928753e-01 3.658561831984975532e-01
6.966228853843804414e-01 -4.808799026352872374e-01 4.770399289326424652e-01 8.242850081725795475e-01 6.136391405206711447e-01 -3.278212295195301329e-02 5.270086039589365612e-01 6.937759643216638850e-01 5.925745248542183541e-01 1.054773236643869322e-01
9.235052500123180907e-02 1.168144941289670224e-01 4.646184308054507328e-01 -1.455004228552468915e-01 1.898883699221192156e-01 -1.985655113570947150e-01 8.913043973756304417e-02 2.677432628543439108e-01 -3.745530979681866990e-01 -3.584089399056174519e-01
-3.589024766278606227e-01 1.338628739879802187e-01 3.860622995283913284e-01 -5.828900863315086278e-01 5.718841330538843026e-01 -1.259489267053799377e-01 7.227584899298687970e-01 -5.620195025248158061e-01 7.506535512453496595e-02 -4.121899149010412045e-02
1.624742192975401345e-01 -2.279040952691783473e-01 -4.330095519932549153e-01 1.416698398452986320e-02 4.894806872973625489e-02 -1.086730751804778662e-02 3.964990083180645053e-01 4.145780651666659544e-01 -3.121019905845321199e-02 -5.395275406791834039e-01
3.070510255967691671e-01 -6.186044828809774687e-01 -4.791317030358387408e-01 2.976332210083772536e-02 1.567721709908307670e-01 2.939556014918565108e-01 -2.644783498909312192e-01 2.023331566952382143e-01 -2.731407507928125811e-01 -4.051281215663025126e-01
-3.788223258544479166e-02 3.732403924877195078e-01 3.235760746631379248e-01 1.867477800098236163e-01 -6.252740999505221331e-02 2.229674611071306434e-01 -3.280578938141499590e-01 1.868724120407624922e-01 -9.114753049535386821e-04 -4.259209217776857015e-01
2.516062205149087738e-01 -1.877128544782999953e-01 -1.583010969782440991e-01 4.533163998094074665e-01 3.891073021544750876e-01 4.636330980968814686e-01 6.965911345272869371e-01 -9.224713072644898093e-02 -2.967046620599548823e-01 3.384680210335469508e-01
-5.164348857811702498e-01 -2.236606916654299282e-01 -5.264131252512953274e-02 -1.539885546768306017e-02 2.645743342880158555e-01 -2.612578149878333478e-01 8.258887712803487588e-03 -1.863660909715760816e-01 -2.877000249745323424e-01 2.425684588480517823e-01
-1.946932519120369853e-01 -1.031520895297040885e-01 -2.958847565653223155e-01 3.323893397523322024e-01 1.900867554535553006e-01 3.739314217553527109e-01 -1.729720267399545985e-01 4.234592045645516056e-02 -1.218523707019004802e-02 -3.235389494339677846e-02
2.210582736704002071e-01 2.405266822644787639e-01 1.778108062058364747e-01 -2.191113260403864116e-01 -3.700635249048953024e-01 -2.456479860553278938e-01 2.247309337196626566e-01 -3.267602374920927644e-01 3.606472141184633440e-01 6.660406158875163685e-02
-1.421843029811983232e-04 5.332900886690516984e-01 -4.413043107468870296e-01 4.754566228408310669e-01 6.471540887469039438e-01 1.772266733232283897e-01 3.224107736231099364e-01 2.758930624333339465e-01 -4.692001612481538908e-01 -6.465859024803680688e-01
2.918960601149133693e-01 -3.842368950243716941e-01 -4.182864581068959087e-01 -2.401522867499827907e-01 4.878160698961878650e-01 -6.337632557860388427e-02 2.178105704341948626e-02 5.352019270695576036e-01 2.706688865365098895e-01 -2.556032672599054534e-01
-7.361490148613136775e-02 3.001976055051313597e-01 -2.533244760982951149e-01 1.810381487989154159e-01 -5.148968906075714891e-01 -1.674983780418515256e-01 3.093730225227497854e-01 -2.766092218201790520e-01 6.721162870748894624e-01 4.552479183779221117e-01
-3.876677897977524878e-02 1.030872281489196296e-01 2.441263512060086183e-01 2.205275437707627240e-01 7.812735448998839316e-02 3.903912820038794029e-01 1.793453537433388201e-01 -1.019393881811017089e-01 9.739776502132706237e-02 2.804536072356534904e-01
