6.292632111253202432e-01 -7.951870096173909719e-01 -1.148175824337568790e-01 -6.198238727225765521e-01 3.221698269199206321e-01 -4.557087560336622878e-01 3.514074399521350811e-01 5.922856570764776230e-01 8.042298647468988371e-01 7.078340094985131614e-01
1.493476662042252934e-01 1.205544916186749582e-01 -3.875998605855548451e-01 4.041435316481727935e-01 3.954938632756883621e-01 -1.076109999057359157e-01 -2.522341658948046850e-01 -4.313484786290741058e-01 5.162463610540847236e-01 -2.684634843648842084e-01
2.786625477225012637e-01 4.415496202642499868e-01 -2.014803788219266326e-02 6.560389202372546302e-01 -5.672343864478898157e-01 -2.936301898394729215e-01 5.549359108551620290e-01 2.512909655032430356e-01 6.814894339706951687e-01 -2.658777557304961570e-01
1.594011714434072080e-01 -1.974458189242618844e-01 -5.399300752827256716e-02 -5.560006846692936572e-02 -1.580267602081791289e-01 -1.645040245005387480e-01 2.135501705235240966e-01 -1.790499815397916250e-01 1.531393037862034678e-01 -9.505781942429859799e-02
-4.030772396234492440e-03 -1.249627466856835425e-03 6.674674307412586938e-02 -8.001888083659454767e-03 8.325342429033123770e-02 1.192398070272311823e-02 1.684062947556548215e-02 5.859948580914108723e-02 6.646445956055802191e-03 3.312828771706878561e-02
-4.455874175654338520e-01 -7.469767030889351567e-01 -4.071362975488720948e-02 -7.938246911783459758e-01 7.016218346088568536e-01 -6.937944253268701900e-01 5.531014478687826808e-01 7.118425455136708768e-01 6.743958986902705011e-01 2.297421633303889654e-01
-6.234392417483898205e-03 1.545811989067779613e-01 5.827303638038521666e-02 8.142585183987227290e-03 -1.258050485862091152e-02 7.769420409039527048e-03 3.741628498253456170e-02 4.654031017715852536e-03 5.626796458650865779e-02 2.018266398170224119e-03
-5.348684535807690654e-01 6.802217820480086496e-01 8.148021250183676290e-02 6.853907505402655476e-01 2.257214445835491468e-01 -3.245180508066844993e-01 -3.838226169555752909e-01 3.202010469434921625e-01 -6.046677761387694305e-01 5.597496928742601296e-01
-6.992667435644799034e-02 5.907098233652737784e-01 5.498014904046296669e-01 -5.605524148005224250e-01 -2.789279581617548076e-01 3.702184875724941482e-01 -4.182038508038470326e-01 7.202067989356937261e-01 5.171724866305522639e-01 -1.899187278158488978e-01
7.332979407704103003e-03 -6.057105217170745924e-03 -6.549231378811351187e-03 1.929780309133760988e-02 7.961623661162636756e-02 3.355816146823864532e-02 1.168388361524739898e-02 4.448796534737908814e-02 3.145259539811018357e-02 2.172506052105537683e-02
-1.681559739458331551e-02 9.045732540476904282e-02 7.004076857437593895e-02 -7.940538105720444662e-02 2.253613261676740143e-01 4.555208579678104823e-03 -3.051744293787736831e-02 -7.367748952412455678e-03 2.667375666034625323e-02 5.014656479214980866e-02
3.422825388168111993e-01 -3.188935947388668590e-01 5.947751568641482800e-01 1.864155256725496534e-01 -3.493966335903922471e-02 -2.090252924869604734e-01 5.402930702196089285e-01 5.067920782911851107e-01 -4.532867152992134940e-01 4.087215099268219909e-01
-4.223758229427410082e-01 -4.387682751360388878e-02 4.419715802011491834e-01 5.807393240638629717e-01 4.666314531457061987e-01 -4.603645814260339808e-01 2.075979569698170324e-01 -1.354922013939537095e-01 3.161309528438874805e-01 -1.279334938234553964e-01
4.159973709492018057e-01 2.011988064838181878e-01 -4.646056489371577225e-01 6.359411184413261697e-01 1.745914991171188257e-01 5.378666929501487587e-02 7.428264574476431958e-01 -1.606307151359443186e-01 4.117728761851964792e-01 2.866024971748942218e-01
3.104588752682743147e-01 -5.497014068751258087e-01 3.592080310143890842e-01 -2.363115718338986149e-01 2.908239752955361079e-01 -1.807486618794994504e-01 -4.547836405801767845e-01 -1.669312252361685733e-01 -2.010734064600083193e-01 -6.833110780162026110e-01
-3.008687466957737141e-03 1.930240046077726784e-02 5.102304395047125435e-02 1.848353893568263628e-02 1.785979571596596829e-02 4.892693496191009850e-02 5.242433137063345384e-03 6.429832075336257757e-04 1.764868548451834288e-02 4.004684984019709487e-02
-4.167959107148507814e-01 1.021478398850049624e-01 -5.513582079982870532e-01 -4.738782850388451595e-01 -1.237688551449760838e-02 2.033353005859902529e-01 -4.080966639313991784e-02 3.647528941326551033e-01 9.849420679982445748e-02 2.458852744192157602e-01
8.297677444505016098e-01 -5.337674466675849105e-01 -7.693723115989185013e-01 4.700894302537668712e-01 5.959504684197510782e-01 3.149312585537639708e-01 1.115673690875012558e-01 6.657054047438887290e-01 8.042209739082019082e-01 -4.411910705567786972e-01
1.433028145073331422e-03 4.177382530964833529e-02 -5.891958588498954486e-01 -4.767873799589576467e-01 -5.779993539011681891e-01 2.852218315358204803e-01 -3.638867017780181290e-01 6.694660054107280933e-01 6.709178412169440608e-02 1.281275313786860333e-02
-4.610272881261590072e-02 2.477567007822687739e-01 -1.358317924313309222e-01 6.116405829554926593e-02 1.892670930880587243e-01 -8.925809095599546161e-02 -2.083179689238025545e-01 1.457280131695996295e-01 1.494158664768469869e-01 4.120227289793479408e-02
-7.902361769976304882e-05 -5.525776110323812884e-02 -2.410612793936247056e-01 3.679523654784603859e-01 -4.119705524980515343e-01 -2.478870629890881500e-02 1.807271809279911434e-01 1.872295282715775167e-01 -3.121407077977774724e-01 1.794552559877589937e-01
2.779750028822312591e-01 -9.322025606981587664e-02 -2.338954443729681920e-01 4.042223164929736323e-01 2.672184619239286185e-01 1.648890027039334460e-01 2.114144541938559885e-01 -8.861897609131318132e-02 -1.264941138416350863e-01 -2.133253176695551478e-01
5.982347696211696986e-02 4.241188405727441824e-01 -2.108831710111361557e-01 1.743809840813786705e-01 2.585765731529396927e-01 1.325967904294320099e-01 1.034710639280890521e-01 -6.104038305358601424e-02 2.483597767147742996e-01 -7.106902438543453993e-02
5.222911678221175968e-01 1.115452133556793651e-01 8.166472179213632998e-01 -8.842804865614465326e-01 -3.956384525355286508e-01 8.722317298183847323e-02 7.580200036360066340e-01 -7.725526887882776528e-01 -2.096022443039200212e-01 -8.077283014321620103e-01
-6.270344532891130029e-01 1.827976117142953716e-01 1.272550020006763330e-02 -6.587587044731858799e-02 3.364094972882788470e-01 -1.350597504258699566e-01 -6.827759708482616929e-01 4.622777950417796822e-01 -6.517560643083776251e-01 -5.991395426785564027e-01
1.137992884174319347e-02 -4.121307558990454367e-02 -1.627485942493045110e-02 2.479239053726478015e-01 -4.885875128322713090e-01 4.222311891962388652e-01 -2.066233341675619006e-01 -2.444845949868632365e-02 2.200084572636052394e-01 -1.162447539097670318e-01
1.709055811878673614e-01 -6.254798387788220726e-01 -8.091944544995426369e-01 -8.170576638996167318e-02 -3.100994229019202741e-01 -7.990904980421366099e-01 -6.673253724023594513e-01 -7.253899536443345619e-01 8.639385619657964366e-01 -5.172310554262843363e-01
3.684703737899178155e-01 4.734520699659912069e-01 -4.052413814231333594e-02 -2.683392927599185240e-01 4.395571472216294739e-01 -2.783234561519396522e-01 5.131127354730058432e-01 3.515876293134950759e-01 1.545798024670849147e-01 1.384861612896104155e-01
-3.188542092025797303e-01 2.895685266200965780e-01 -3.568521334459866245e-02 3.122154034533106831e-02 -6.900455452880306373e-01 -2.386217752881759357e-01 3.294829318215967695e-01 -6.528322888028762483e-01 3.856317779787511446e-01 7.438498227057855358e-04
-1.726011650868060354e-01 4.768004618307738474e-01 6.134534223640164541e-01 -6.999956807295963646e-02 -2.187577169292395651e-01 -5.397094133520274895e-01 -2.591533074101954881e-01 -4.104129605260580793e-01 5.196034027702869373e-01 3.600313806740486067e-01
-3.795496692954365980e-01 -5.417127203187968032e-01 8.692287009062534819e-01 6.496122420126412278e-01 5.106070034640071142e-01 -1.409239521452295141e-01 -6.763965798946169894e-01 -8.325475321262325312e-02 -5.782637509347683391e-01 -6.626962238850022668e-01
-6.653963183194482045e-02 -1.096046022520285879e-01 -6.915370231949449220e-01 3.337209699565165111e-01 -3.806615236338906638e-01 -5.807363978131239168e-01 7.978471842619119236e-01 -1.517110125038731994e-01 -1.317963972809805540e-01 3.540335524095539199e-01
-1.487851932539178135e-01 6.068203323646670366e-01 -4.888964799789220494e-01 -6.685440367649825300e-01 2.549851327212146468e-01 1.320388018429752564e-01 -4.289308474469140375e-02 2.535004004606399852e-01 3.149746541521952214e-01 2.489369451328596050e-01
3.098508425155290791e-01 6.352451199295827688e-01 -2.220201583974517057e-01 3.535068688938546311e-01 -6.158961913264078269e-01 -5.795909193663205672e-01 1.082455627009815680e-01 1.930512875084811064e-01 -1.164236526992654536e-01 -4.410496944849080503e-01
-3.410426948194218016e-02 3.165507606733553581e-01 3.515613921799148334e-01 3.134416864331808772e-01 5.176740434008533231e-01 -2.788824493252308745e-01 -3.703427514586391522e-01 -5.333853158088358581e-02 -5.643007176267721414e-01 -6.167847935888912808e-02
-3.528043875126530282e-01 5.899720601381372997e-01 2.749277588240523484e-01 4.292952223657242050e-01 4.017232395712876381e-01 -4.513948642053317029e-01 3.565856409885484468e-01 -2.623791737531269153e-01 7.178356152710179128e-01 -4.212907737169105937e-01
9.223475139044116922e-02 3.022537506606316760e-02 3.008027149006198275e-02 7.856356655365654426e-04 -4.272981737842247718e-03 -2.972231420952812630e-03 5.342503794304485215e-03 1.488984549938499324e-01 -8.209767003763209989e-03 4.916617581577724209e-03
1.613787571236343366e-01 -2.479634300069405786e-02 2.256983096966174839e-03 -1.929627461064668259e-01 -2.717280487794133670e-01 -7.631417999750661312e-03 -6.611311697965781276e-02 1.202783671663514298e-01 -1.224629365758086869e-01 -3.119422242888832963e-01
3.830508125751541093e-01 -5.492549276618118315e-01 -2.860997743192018605e-01 -7.033756414153846670e-01 -6.881149985617449061e-02 -6.960531050817388987e-01 -2.028170119725952181e-01 -6.338195177140321102e-01 -2.113115290108423180e-02 3.102414728782557085e-01
2.531269028638381130e-02 -8.924668004026484192e-02 3.002286260671332887e-03 -1.264425237881417613e-02 1.667280483720335049e-01 1.171635876587676615e-02 7.191692165809228376e-02 7.715963448786612722e-02 -2.467181519685884492e-02 7.753738267346585444e-02
1.127934631020520717e-01 2.500663627850183701e-01 -3.675456201162259628e-02 1.079737461270449811e-01 -4.425918642282241494e-02 1.758656902051055904e-01 -2.946802209793823457e-01 1.868650185095040162e-01 -3.031626491795369992e-03 7.224737805530398460e-02
-3.857155821875582480e-01 -4.103165122220803207e-02 5.802761115866128527e-01 -5.065278577589601983e-02 -2.538841413003721237e-01 7.127409587267828917e-01 -3.186402189627635662e-01 -5.198240049409648122e-01 -4.080520386485104178e-01 5.424300293168684561e-01
5.803942429610449150e-01 -7.609179150891243193e-02 -2.596693260686520066e-01 6.618873506248524885e-01 -2.619571844071884037e-01 2.616222623816350651e-02 -7.756360940844426732e-01 1.503530852553288943e-01 -5.355076489244814386e-01 7.418953140566074689e-01
2.520041487468275276e-01 1.739492638290203175e-01 7.829299190988476403e-03 1.170019170472031134e-01 -7.453690360356286793e-02 5.824290742223194733e-02 4.481002395422001294e-02 5.567317158425662965e-02 1.196401614299958949e-01 1.422881043777213528e-01
-5.197619221013757285e-01 -8.464348570709346875e-01 1.545306866670951296e-01 6.035527447304630533e-01 -2.752218803589205898e-01 5.897125802096176983e-01 -8.403843333115307290e-01 -6.956676729753498434e-02 -6.877059787224774068e-01 6.392064432460414780e-01
-7.192846355560546419e-03 2.059469901600717925e-02 4.468576243359252687e-02 -2.508203140007405837e-02 -6.386936615031447821e-03 1.452692907611739283e-02 -7.465144739069809465e-02 4.906135709636526288e-02 -6.938197841424868784e-02 -4.799234043079355500e-02
2.010074989101729159e-01 -2.365379831592028526e-01 -4.392822514420250957e-01 -2.975298270489281083e-01 4.324005909446397844e-01 3.660323726026413205e-01 -2.064903870141446551e-01 -5.381491842230188283e-01 -5.196643295668825768e-01 4.942419499058767762e-01
2.812066227197044244e-01 -5.141277851615307926e-01 -2.100452321726666710e-02 -3.424336409695618033e-01 9.699921436076094916e-02 -2.959202098895723498e-01 -4.073732363766421893e-01 -6.484507866421763966e-02 1.009182760489347325e-02 1.800832313467564116e-01
-1.148004905323126573e-01 -2.925859223527119135e-01 -7.952635787523285038e-02 7.294763887309012318e-02 1.669105993946751465e-01 2.208714816158016403e-01 2.416533829962861091e-01 2.012079814515662091e-01 1.266376172717365023e-01 6.764634840088121215e-02
-8.561830506336096658e-01 4.484655960954657128e-01 8.852786360356339201e-02 7.391647465239015169e-01 -2.689159621067565564e-01 -3.179114467151283874e-01 -1.515280495591712351e-01 7.621615901015139638e-01 -5.124275255742433838e-02 1.402264868535972875e-01
-2.442164275682810748e-01 8.404708145077015302e-02 5.656442714470638622e-01 -4.031606868227161633e-01 1.994999601541944112e-01 8.068553482451567005e-01 1.952181878915780489e-01 -7.681277235404585825e-03 3.368377815128675845e-01 -4.149157324357570231e-01
-4.419888817239056231e-03 1.366313219526026357e-01 -5.627115090696251792e-02 -1.404543574113116811e-01 1.623111244043294876e-01 -1.883560257487446876e-01 3.009468346375135037e-02 2.754335128251991782e-02 -5.017089849621582907e-03 -1.363362571108242827e-01
7.530409487724956663e-02 -6.585138849043714604e-03 1.716809479830481988e-01 -1.628464699305992927e-02 -3.533063298402222552e-02 -4.720484012440779448e-02 -1.823019305239065302e-02 2.734970070742967149e-02 -1.345203161882477239e-01 3.661124978372150979e-02
-2.857902263717881364e-01 7.665846188701099795e-01 9.165256962370272875e-01 -6.214316101253279934e-01 -1.044250007923078066e-01 -2.581051133941348885e-01 -3.152063161894197996e-01 -2.240100878837137655e-01 6.821401141576391991e-01 -4.045304998027657861e-01
-3.391728411153845935e-01 -4.366443245125919415e-01 -4.448230101864550368e-01 2.749312947498651627e-01 -2.321607366432897612e-01 7.261834400603526252e-01 -2.096376828170805062e-01 -5.143557791239525834e-01 7.538068306628278870e-02 4.396120677122337117e-01
-5.075860521025924443e-01 4.419550226974240381e-01 5.394147495728116581e-01 -3.209887136767278770e-01 -1.561040733006386627e-01 3.177911583072767221e-01 -3.198793639817097412e-01 2.312525570718249601e-01 -5.809649237235740005e-01 -7.121439422430029254e-01
-2.351492945047407024e-01 -4.533555383083509027e-01 -6.254402983226774460e-01 -3.919367251518594553e-01 3.802263323993732569e-01 -5.370420964853473977e-01 4.798216004076174407e-02 -3.175653995116458073e-01 -3.668636036373347786e-01 1.478894124184147452e-01
6.916049755661193843e-02 -4.420948736072634333e-02 -2.445804523888522042e-01 1.737538847644333473e-01 2.621230681679278390e-02 -9.378772501938734130e-02 6.750189112370662270e-02 -5.553751961734927807e-03 1.002774079291331583e-01 -2.281543197544964596e-01
-2.607728551852673271e-01 1.652472995909901043e-01 1.976403622137715421e-01 -1.486884697442631409e-01 -5.781462495654330347e-01 5.645043165929390927e-01 -1.286758346319843427e-01 4.414863259351952118e-01 -1.783784037002777434e-01 -5.505015474423743393e-01
7.484399633085397907e-02 3.903214627193189040e-02 7.768438952686146891e-03 8.296942027779553863e-02 1.128698247644136787e-01 1.335820934350266144e-02 2.574165177129449089e-02 2.094154525496394643e-03 -2.115195489943502705e-02 9.400877888048062361e-03
-5.661953737273166531e-01 -2.820819872512043136e-01 -4.570070765330555562e-01 6.323203086805924134e-01 -4.822731669315347691e-01 6.939414162989494539e-01 -3.439898593487368261e-01 -4.607077565412671105e-01 4.825719639332667898e-01 5.608347238549665770e-01
-5.397938203823549053e-01 -7.968339619841086074e-02 3.621511198498835737e-01 -3.976158858508914602e-03 8.202165851637519545e-01 -2.675049135739765438e-01 -2.275795783377705939e-01 5.785998761664667978e-01 -2.557367985891219608e-01 4.229499716161793099e-01
-7.975074119053150723e-02 -4.498083902978550902e-02 5.064158688302578676e-02 4.437794563954985949e-02 -1.161220354010940488e-02 1.697058043970576732e-02 4.338688552393397957e-02 -8.925346686821407707e-03 1.037156198428098620e-02 1.063615942363470845e-01
-1.051700889130459254e-01 2.410944515382365538e-01 -1.467091149212091002e-02 8.229029204279848797e-02 1.834176116771107090e-01 4.241883327048607405e-02 -1.672462558731941662e-01 -1.429193632766758704e-01 -5.526113370389846430e-02 -8.801509061417060742e-02
1.093900794287109256e-02 -7.511766860686446001e-02 1.383350848189628633e-02 -1.771511456283114128e-01 1.039700555428270390e-01 8.042714256858127242e-02 -8.598393329604625546e-02 -2.607307365274416089e-01 -2.825204412610993754e-01 -5.601381276956621802e-01
5.228303221595118622e-01 -1.172624103086671032e-01 -5.302518957617720075e-01 -5.654432119836555470e-01 1.264853563694726957e-01 8.700015403428174032e-02 -5.182469077826601378e-01 -6.712254330566347349e-02 -6.258945503718038594e-01 5.150741023564660015e-01
4.619609346114384452e-01 -6.367128335407677975e-01 3.784280424580249713e-01 5.750466623631397267e-01 6.306204886743851379e-01 -3.048321956960921564e-01 4.014156693153249078e-01 1.699719008816483190e-01 -1.257145550303425362e-02 4.826306448968304963e-01
4.237829472586913671e-01 -4.490412333772515474e-01 -3.901167494196174368e-01 1.690195322321241256e-01 -1.393316975277961167e-01 -4.156001598270526731e-01 5.078786753585732283e-01 4.258787393140640587e-01 -1.283036065638268608e-01 1.128570281619022952e-01
2.119673997975388691e-01 7.908274636229148946e-01 5.094056318227515590e-01 6.022670244091665737e-01 7.222803729415998575e-01 -8.030393376736340016e-01 1.672783125540732718e-01 7.933130652498575630e-01 3.089801545923378523e-01 -8.704937546278060934e-01
2.852263692972645814e-01 -1.176447050859296406e-01 5.392424123480250853e-02 1.362311338161448226e-01 -2.055774102291130778e-01 3.758303815865549069e-01 -3.700416808169502275e-02 2.361220398118914765e-01 1.442670534453197873e-01 3.450065245446519713e-01
4.338896794751175845e-01 -5.448151470847680811e-01 5.580768394831628898e-01 -3.540957537488058082e-01 -1.767058802446845045e-01 -1.586743536121009157e-01 5.537012453092390318e-01 -4.477331146575380671e-01 3.271883674975049061e-01 -2.343373883291969828e-01
6.766387347234890104e-01 -2.550036001543870556e-01 -7.074584532560286299e-01 8.932583712407800025e-01 8.626010642852723065e-02 9.341072077569158028e-01 6.929450204352914922e-01 -2.708447988666320971e-01 -9.290677505436950590e-02 7.890342439403916774e-01
-2.181374114004661080e-01 6.267662786759822455e-03 5.864702489518219125e-02 -5.262048551924936035e-01 -4.300678707516570887e-01 -2.346072995961693275e-01 2.218089230687594615e-01 -4.090677042824896747e-01 -2.983788502304998147e-01 1.449495817516930629e-01
2.628843307868776111e-03 3.450875770983456020e-02 1.002638071724497315e-02 7.111659259568378633e-02 -4.156959574313259277e-03 6.171824917777544994e-02 3.331323768190852692e-03 3.684659837864029397e-02 1.164168744964221881e-02 2.324074885983602387e-02
-1.258160194607836346e-01 -6.033786395602327435e-01 2.772254939627070702e-01 3.261677640113744975e-02 4.897081721088042960e-01 -4.557099548175819193e-01 2.448343371728841644e-01 -3.971987436331915200e-01 7.157018273659487839e-01 4.419873464997446932e-01
-4.828206949425213335e-01 6.707312634425416364e-01 -1.041515996297847635e-01 -1.638186208627797347e-01 4.569733103896606585e-01 5.142855979195555260e-01 2.678109651824311932e-01 4.604039829949265195e-01 -4.643711213919199388e-01 -3.977332098197273735e-01
-6.739399173400592580e-02 -4.229700777914577325e-01 5.786916913689363340e-02 -5.601849622816752750e-02 1.624769700596510325e-01 1.721951360712936085e-01 1.151773132364482394e-01 4.146591756010332142e-01 -2.811588159349892591e-01 3.308755060429099948e-01
-6.775287516206940364e-01 3.952828851250423936e-01 4.482266817111045243e-01 7.203349995712743370e-01 1.307117399550508374e-01 5.892847415948193612e-01 -1.913697875957795225e-01 -8.592879511331465159e-02 7.056348234197246105e-01 9.196352053831714779e-02
-1.491123918427640638e-01 6.241748342413245831e-01 -5.615335940686946303e-01 1.916286547700264409e-01 3.064846727725173969e-01 4.235851663223118568e-01 4.001690533870730926e-01 1.155580928333915791e-01 -4.282804168719459709e-02 -1.580902440688784494e-01
1.377311249735887165e-02 -7.767499437893653387e-03 1.493577294188780553e-02 5.008464293164529429e-02 6.563575900964870036e-02 3.107133420369039348e-02 7.346575915740532169e-03 7.102604768236524257e-02 3.254617558150638829e-02 4.283483168843680439e-02
-4.907669686920337893e-01 5.986980652869243746e-01 -4.900311149030433522e-01 -5.568798536424911239e-03 5.722693603439368282e-01 -7.475692578667647581e-01 -7.993050189973968100e-01 2.622864775668539150e-01 -3.389017234144483526e-01 -7.029551431940839201e-01
-2.147324215474540332e-01 -1.680825044496491172e-01 8.176495625426270786e-02 1.390468426381839262e-01 1.438877476899519114e-01 -4.180584740435924762e-01 1.121273824094274063e-01 5.749950291305192529e-01 2.084764913904090800e-01 -8.287286109030780890e-02
-5.440697907351814688e-01 1.973092379929425322e-01 -8.112052699539368250e-01 -3.335055950115006773e-01 -6.753573068301546023e-01 7.850777796066646386e-02 -8.326576764898869776e-01 -5.072939204262705282e-01 7.997505481033522212e-01 6.877933539927074680e-01
4.584891616023249739e-02 3.286699090811965457e-02 7.585776184566679625e-02 -6.098658295108737304e-02 1.742759911285391566e-02 3.035271557069482533e-03 1.744065255587117641e-02 1.811787975898101685e-02 -6.319619295665440326e-03 8.151920937375189621e-03
7.580691749256129874e-02 -2.066944473518786130e-01 2.924319140608634404e-01 4.348182961219353437e-01 -4.842572839083735814e-01 1.832300499050591724e-01 2.281114999908577801e-01 3.639334423618002107e-02 -4.968509236134372453e-01 -5.578822714553015594e-01
2.409329396112242228e-01 -1.277117093059291775e-01 2.449157082175994482e-01 -3.274096022697738084e-02 -2.148858333269652587e-01 -2.417163607878831111e-01 2.242228215156985560e-01 -2.746242248882996839e-01 -1.307742266975595036e-01 3.137600173962268868e-01
6.966091697884003731e-01 -4.804675277517830301e-01 4.768873174588673103e-01 8.245782248771488243e-01 6.134888699719625027e-01 -3.284564679811078497e-02 5.271011655280527508e-01 6.937006120137233500e-01 5.925005610133349254e-01 1.054249793197772761e-01
9.495835947272873723e-02 1.156676126971022955e-01 4.695658867494844624e-01 -1.438122145929491835e-01 1.875481030792300330e-01 -1.972286056470731463e-01 8.871045500003013617e-02 2.659137025771544649e-01 -3.728006768359873879e-01 -3.564206566642590390e-01
-3.570175552446107070e-01 1.337557155669197306e-01 3.852815736311507311e-01 -5.817198311863613913e-01 5.704738399350998135e-01 -1.223038604756162134e-01 7.212266519234644679e-01 -5.609009092037110511e-01 7.489698368219989411e-02 -4.132045213150626478e-02
1.587113072158571891e-01 -2.195573780469024239e-01 -4.180619589192240970e-01 1.390202133835691592e-02 5.107840275468458757e-02 1.177134859176400157e-02 3.835446868461699910e-01 3.912448204836108112e-01 -2.851225531939919830e-02 -5.022722796930062517e-01
3.050977255863827620e-01 -6.151178422271629254e-01 -4.728975864789659589e-01 3.029037744067451104e-02 1.548250083181723913e-01 2.921345146047886199e-01 -2.636035305745000334e-01 2.004733799428634611e-01 -2.666781893775596601e-01 -4.032905183098289825e-01
-3.688992629851980259e-02 3.741685614807920834e-01 3.191878167684530365e-01 1.828571080177071040e-01 -5.606814355147541479e-02 2.232175770932298409e-01 -3.241709223053264588e-01 1.847841824493622054e-01 -4.544724610655697652e-04 -4.177610785616481803e-01
2.505392379066749831e-01 -1.877575731349497012e-01 -1.567077377305842179e-01 4.523461353413557040e-01 3.873836035937033850e-01 4.664023292034352730e-01 6.928247664164040032e-01 -9.354431421809984715e-02 -2.925350006059157515e-01 3.407188492580633388e-01
-5.122721847342649459e-01 -2.163559768598914690e-01 -5.406714784138842711e-02 -8.997765576089375439e-03 2.648792361568803599e-01 -2.442040756488290665e-01 5.771124960884455209e-03 -1.840075057362182409e-01 -2.865245753150058028e-01 2.403680151341467119e-01
-1.757938340951704648e-01 -7.376863590168636353e-02 -2.546878788176903941e-01 2.531301463292317533e-01 1.749048869778349058e-01 3.129587536399682235e-01 -1.157184127098468823e-01 6.145537902064225622e-02 -2.078314329085981932e-03 -4.146165808408281556e-02
2.136149939428223232e-01 2.405754106828925931e-01 1.731915874593193683e-01 -2.156083520369916073e-01 -3.650097737077627191e-01 -2.432446988687223532e-01 2.318839636141317717e-01 -3.169587290065655760e-01 3.530300674581041132e-01 6.557806640270061327e-02
-1.974690801628357228e-05 5.344278549684485791e-01 -4.411040989025131753e-01 4.750186299839728732e-01 6.462541431572198514e-01 1.769303140149335318e-01 3.234324399645374104e-01 2.757788487289180024e-01 -4.689155368800234647e-01 -6.461804094062327808e-01
2.834063588892228869e-01 -3.731917240312921935e-01 -3.972795829542073442e-01 -2.338086240072610733e-01 4.734003799862568918e-01 -5.180617255348057143e-02 2.102069529589059918e-02 5.201184189495723365e-01 2.631803783771032301e-01 -2.456672707708779102e-01
-6.876591586731174710e-02 2.970995946759111828e-01 -2.511700783586603425e-01 1.814481303784337696e-01 -5.121297928278397693e-01 -1.678558238829308824e-01 3.094729850247223135e-01 -2.782774512702242409e-01 6.681963018156362732e-01 4.510546139133571053e-01
-2.143500249170212507e-02 9.704991496093480496e-02 2.235508608636653516e-01 2.104919030423533233e-01 8.215502147701170266e-02 3.696620594628632905e-01 1.724293516679092086e-01 -1.048529810816166002e-01 9.014492190153686191e-02 2.641568917691131668e-01
